2|128
#
~
0.785015|0.692615|0.496170|-7.783154|-7.130544|-1.696439|-7.392728|-18.968536|-23.644660|-25.401895|-27.372753|-4.337239|18.357026|24.501137|25.115248|30.952007|19.282453|22.636880|5.938959|9.448902|9.490616|4.764004|2.154165|2.222461|0.638398|0.507732|0.094829|0.938366|0.380238|0.398418|-8.568475|-3.427661|-2.771232|-5.415485|-17.021538|-37.787112|-33.845741|-24.457876|-24.426897|-23.442292|16.163381|39.845544|40.157888|47.059872|36.011537|9.696423|7.802068|10.639623|17.589582|10.537185|3.296727|3.547023|1.239799|1.258951|0.833657|0.254714|0.737977|0.928486|-41.068594|-28.670180|-27.880055|-39.918046|-64.930589|-55.120859|-58.242401|-42.116985|-18.282066|22.228724|67.259985|44.274930|64.275822|43.546102|48.887486|-8.503200|5.634437|-27.964120|-20.393113|-58.268616|-55.448764|-85.250426|-90.604887|-63.143780|0.150247|0.487509|0.700388|0.983905|-33.077747|-21.525952|-46.176798|-77.582718|-76.087121|-120.546269|-102.369521|-70.847601|-67.749574|-57.531976|31.699055|48.028323|56.284798|66.130919|11.371541|9.767355|-1.886472|-8.122021|-11.008533|-15.236997|-23.243374|-32.911451|-62.500361|-66.574827|0.757761|0.144726|4.439890|4.362215|-27.672065|-25.317034|-66.058581|-107.054491|-131.918637|-152.799362|-91.666560|-77.620083|54.425425|92.055880|140.138870|147.041256|139.741486|44.125624|35.833799|53.297712|5.893768|5.118126|-2.107993|-39.328318|-32.286880|-40.870625|-56.633821|-45.903578|0.444012|0.612481|0.183778|0.534703|-19.925484|3.560562|-51.382306|-83.986576|-107.557568|-69.458181|-82.913128|-37.863332|36.346882|147.720509|208.651194|182.775171|108.000683|-14.571187|-108.337084|0.719909|51.213938|-17.964962|-0.334704|-7.356583|-49.051364|-52.069321|-48.243354|-47.571769|5.299109|0.485901|-4.114530|-4.149232|-16.972996|-68.230721|-89.957555|-124.117147|-112.799666|-20.530054|-59.202828|-113.316037|-45.974454|94.473631|110.031586|124.509315|3.153646|-18.259972|-20.193816|-100.780888|-85.993485|-76.126007|-31.205588|-22.045116|-41.845745|-41.508846|-38.697729|-49.776116|1.917306|-2.632978|-10.991291|-24.325349|-8.859126|-60.198650|-99.069911|-109.618255|-51.207079|33.290012|-74.412093|5.424809|57.034156|167.922848|135.044249|-58.938634|-80.976693|-34.665904|-70.871582|-112.988023|-91.619922|-71.051151|-82.394475|-23.625213|-46.928021|-49.396068|-57.648027|-45.001333|2.105470|-1.828547|-4.001495|-28.265281|-15.650346|-33.646602|-7.095360|-83.045877|-14.179137|-29.641859|6.878041|80.384280|189.314820|214.322839|-8.523748|-23.692870|-91.864645|-90.385030|-134.076355|-102.940157|-105.978566|-114.753392|-83.234979|-96.909837|-43.434838|-58.512422|-49.921270|-37.192308|1.312386|-2.505347|-14.531718|-10.918775|-11.239634|-14.989132|-72.782673|-87.563930|10.306834|32.172106|148.684715|179.750356|222.383155|111.630759|-89.126762|-174.709401|-197.916523|-115.242488|-137.767801|-42.751946|-68.899106|-128.329125|-102.469276|-82.638841|-58.698546|-32.924679|-38.978991|-28.530042|-8.260975|-0.009503|-4.543144|5.548235|-35.908332|-24.569856|-77.469828|-116.879926|50.476742|2.708018|111.223694|314.385613|270.369680|-30.753052|-104.871401|-102.412369|-157.842592|-211.999197|-174.722052|-76.725048|-65.228662|-116.118923|-97.170229|-86.144177|-65.164645|-10.109153|-42.658828|-12.795355|-7.194477|0.426441|-0.829193|4.455504|-51.273499|-54.245382|-107.938151|-49.180266|65.191411|49.476295|283.652091|147.221335|58.572320|-66.356457|-192.240816|-173.966619|-218.779296|-192.273399|-82.083402|-68.851800|-130.794228|-106.191467|-130.583598|-104.541345|-50.182067|9.478759|-26.769570|5.494331|-0.182534|-3.156891|-7.362752|-23.553440|-55.258307|-54.865384|-16.271184|-67.517344|214.970814|163.881257|90.139434|169.447409|78.929113|-79.043794|-8.882614|-274.107396|-279.119762|-308.438491|-155.402247|-100.379865|8.384928|-67.924850|-60.640962|-42.568195|-39.306388|40.325074|10.867841|3.654427|7.290140|1.766832|-9.030517|-12.862748|-43.595804|-87.225266|11.852973|98.041706|300.962401|257.582553|182.524421|21.080160|9.721756|-118.902616|-173.391039|-162.696356|-298.390678|-253.693451|-162.449587|-145.637934|-124.419856|-13.553440|-122.366481|-111.034177|-76.145154|41.389861|-56.609099|15.936488|6.708944|10.432977|-28.017790|-24.748939|47.257229|-32.866240|-44.830690|20.173246|283.642470|117.168949|273.176046|164.383015|-25.506222|-303.350598|-269.714488|-151.080677|-123.123430|-181.466012|-232.466949|-139.569068|-100.745579|-33.419626|8.030536|-33.044676|14.764713|19.222335|-39.204575|4.116082|4.356811|10.832669|-28.691967|-43.424387|20.506099|-30.341773|-9.045772|107.302460|24.819237|-10.460312|251.285935|-6.114213|-11.933924|-240.165449|-202.867708|-176.237288|-50.587767|-42.917776|-240.356028|-77.675034|57.842902|41.696195|-9.506060|-13.337087|-44.652711|6.833036|-50.338395|9.943000|6.492844|11.507467|-14.450630|-32.960764|-18.187374|-24.248049|-57.436453|63.477208|26.897276|145.021258|227.377739|78.266292|-60.035073|-144.686207|77.249361|-89.569777|46.049729|-31.491572|-83.842592|-45.616260|41.960345|78.037243|8.667802|-58.297636|-7.632522|-34.188173|-31.638146|7.796061|0.742863|2.641882|-15.591933|-31.601473|-66.331882|-1.491850|-47.239329|99.017073|123.272628|206.070098|91.537190|88.734073|-50.713881|-174.443310|-105.002234|17.160518|88.207106|-50.563394|-25.406792|-3.123568|2.913456|-27.160202|-68.797373|-34.953321|-101.510253|-43.820647|6.796094|33.355035|8.764559|1.290952|-2.518571|-22.744080|-36.821686|-45.970203|15.120463|58.190475|113.556190|207.705605|96.281672|139.733658|-183.218061|-90.944084|-241.326046|54.024178|57.043598|-15.249748|49.480162|111.024172|125.878844|57.276532|-28.415990|-71.044870|-70.034490|-33.299926|14.195840|32.574566|6.350237|1.145911|-13.918931|-13.095483|-31.909525|-60.850272|-36.319268|2.659567|93.325683|165.538198|154.019467|47.255944|-65.761051|-180.752339|-125.051655|71.362561|-39.098134|-0.070020|8.935538|-29.945167|63.508690|32.952613|19.698658|29.947588|-43.764807|27.574608|-39.977356|38.301547|5.973972|-0.265565|-6.360436|-1.302952|-33.625406|-9.255460|-70.881195|-99.491344|-3.984690|4.608876|-46.228483|61.542533|65.955523|-154.802169|0.023346|-18.399003|123.140330|35.814650|-69.429885|-115.421994|-57.404974|42.876128|48.189212|46.397002|-35.520592|53.599686|36.331717|4.213080|12.636193|-1.041677|-10.825836|5.342963|-4.863158|22.417405|-49.846268|-48.720055|-20.713123|-32.627106|13.616428|185.063352|90.770252|99.703482|13.865878|51.411180|130.414247|68.264609|31.293983|-1.685117|-83.007863|69.305555|14.063467|29.051208|82.632082|65.559493|-3.006903|4.503227|0.842897|-2.049938|-4.713711|9.160887|17.873522|24.974540|1.744285|-47.077368|-18.209576|-29.231583|-25.547733|64.744964|116.962739|40.008308|55.442132|73.441712|67.738231|122.848354|-3.487996|69.168299|-63.228565|-39.941779|6.642531|104.610865|59.955612|48.896548|37.233107|1.492929|-6.697854|-9.480262|-19.775253|14.833466|16.853413|-16.548972|-7.211524|29.429479|-70.338941|-77.604497|12.942151|39.181978|34.677381|18.397229|78.899597|127.519900|202.162515|159.012342|94.469248|19.319260|23.753746|10.968979|37.265486|66.173581|148.791523|87.292907|82.821057|52.561991|-6.405315|-17.763329|-4.749288|-1.809519|-5.569219|34.374303|59.155904|2.121966|55.206522|13.672119|8.360499|39.539013|-8.190656|-73.083586|-18.699922|128.355793|123.010470|155.187477|93.086505|115.276294|95.230951|23.700152|22.511211|26.003009|-6.461219|105.271756|55.524933|33.559793|-13.400023|-7.327644|-18.014034|-20.772202|-35.519081|-22.686757|20.322040|60.789809|-18.934606|98.693137|-119.349334|-83.247184|-80.944069|14.447444|32.343239|-86.972619|-74.735651|45.002645|17.940112|96.490749|75.612025|-28.851465|-96.714784|-106.835895|-42.527992|13.741671|42.789952|37.819080|9.242572|-1.816434|-13.356086|-20.640997|-1.534651|-1.553482|-0.898810|63.795400|67.433317|4.113102|-35.390985|2.181228|114.085305|54.454252|50.117407|-9.917687|39.591755|51.256959|143.033218|175.418920|85.825961|-0.797553|-30.092090|-18.065886|22.559411|22.752439|49.665582|70.314440|19.778113|0.978988|-14.177770|-11.215691|-1.641031|-3.808932|-33.396696|36.756724|21.930395|55.164149|42.289764|39.527906|69.934460|44.387903|66.939796|11.369004|7.639494|-13.423926|81.600936|117.383958|87.933453|39.748971|12.194403|1.851459|-71.352117|27.651447|37.970946|63.485878|22.199658|0.510772|
~
0.284293|0.108128|0.473859|0.413229|0.536653|-1.972270|-0.247587|-1.724045|-7.595338|-14.641344|-13.250275|-30.457966|-37.250767|-35.124055|-31.426085|-29.087178|-15.043523|-22.543566|-15.793475|-6.870064|1.187543|-0.048478|3.265708|2.949329|3.125301|3.573147|0.167447|0.730535|0.112058|0.588505|0.294663|0.429413|-2.008197|-4.240125|-8.044656|-12.149774|-15.545597|-21.222920|-34.898983|-43.807275|-48.593004|-39.980749|-25.538934|-8.330686|-9.504104|-2.193188|-9.776395|4.825031|-0.754207|1.407074|1.397381|2.197725|3.035409|3.368774|0.177514|0.863485|0.666952|0.344961|1.418946|40.987369|20.368313|33.181722|55.912442|51.039129|28.397563|20.955559|-18.583387|-16.772290|5.029347|-5.368285|-8.085549|-23.621000|-3.237367|-0.534675|27.021768|63.838745|43.915937|27.122920|54.403350|48.025893|-0.157730|-2.256568|0.432075|0.819072|0.446052|0.609589|16.531676|-23.737760|-10.576879|-4.621673|-10.510506|-19.633560|-41.197952|-41.883478|-39.216542|-18.877502|9.439414|8.162243|29.085165|11.422764|2.986791|-37.479604|-30.111246|20.248894|26.669664|16.136067|0.155299|-20.290170|-26.541459|-37.004167|0.083937|0.030054|0.745935|0.558639|-0.638858|-23.479921|-25.381745|-13.246036|-29.021407|-13.663757|-2.404781|-21.609685|-48.980572|6.643753|37.112128|11.626464|24.036097|22.502965|-22.217132|-78.963429|-125.002662|-33.894161|-15.132683|-0.703302|-8.248480|-23.248339|-28.746554|-36.257957|3.176192|0.093619|0.063700|0.903798|-11.467346|-25.093616|-29.522264|-35.107694|-27.212723|-24.714237|-49.611574|-33.762732|-14.031027|-30.160149|-72.061646|15.816617|43.601985|14.371313|-10.602296|-74.278993|-130.146797|-62.901599|-20.586542|-0.722016|-0.490523|-10.220005|-23.201698|-46.933888|-0.429349|0.786338|0.361135|0.598057|-26.327083|-25.590877|-11.395196|-25.676156|-17.347907|-44.998432|-68.361716|-82.667305|-138.537943|-38.444635|-15.531429|80.495276|57.722446|120.766598|65.505890|-42.025884|-119.924362|-86.114893|-5.708792|6.162674|12.241495|-2.000836|-24.399873|-30.311457|-5.372134|-4.182718|2.205923|0.993389|-12.236596|-24.239827|-15.084935|4.342352|-24.231415|-17.983304|-65.993260|-101.430813|-64.907439|-106.044154|49.672972|-19.126001|78.415398|117.328345|119.378108|108.514607|14.245536|-112.045747|-1.277722|2.212508|11.400827|-12.162252|-10.109427|-13.511938|-4.550401|-8.771080|-0.899367|-2.742300|-14.099102|-40.846229|-21.928679|-34.517915|-18.191915|-8.382127|-36.263103|-73.445095|-62.951864|-49.363948|-26.733511|-13.134047|-158.252495|-34.538207|135.176755|206.842699|39.840794|2.940770|0.796260|15.699753|10.816708|-14.710758|-19.767260|-40.106208|4.655957|-8.822483|-0.095730|-5.950608|-14.871548|-39.899083|-32.926907|-10.426879|-29.836581|-46.379904|-56.036394|-41.075937|-5.351513|-21.223150|6.994986|-72.368706|-231.075226|-194.328224|143.097026|187.103427|163.335982|71.460601|-12.161598|-48.439377|25.416569|2.118679|-17.066387|-44.169206|1.555767|-8.810210|-0.493684|-6.098868|-42.434014|-47.770953|-43.165070|-5.178518|-51.624028|-11.418620|-29.375674|-71.126300|-31.056724|25.156409|-44.724537|-53.366704|-204.236270|-229.198051|35.147600|140.030293|125.692793|75.636348|60.142344|-37.162692|31.464959|-5.565172|-33.986446|-51.306498|-0.990327|-13.682303|0.771826|-13.763534|-26.788588|-22.368080|-16.007285|-33.240629|-95.074400|-3.188290|-17.726386|-52.935931|7.479543|155.627539|30.014078|-56.569836|-137.866507|-139.848023|-51.752239|107.257418|119.285914|94.087524|39.371919|-34.521446|-1.238775|-25.354729|-37.891195|-19.681771|-1.167345|-13.642808|-5.101880|-10.580667|-40.251523|-30.681452|-35.423609|-10.976263|-17.813720|-82.728984|-87.118459|-111.847107|37.969798|151.097296|118.932801|22.411699|-87.588370|-81.375444|-27.072936|-78.097101|43.231647|50.093252|-14.842794|-11.661236|27.063841|-44.293042|-38.964831|-27.655296|-9.913067|-8.473447|9.568922|-3.388816|-34.820816|3.389328|-5.807575|-48.077057|-83.486930|-63.643898|-54.866981|-10.312662|88.300830|88.475237|52.695921|45.546146|-98.955958|-49.404612|-81.324964|-24.876857|-43.265668|-24.680779|-7.442223|-43.805235|37.157885|7.893576|-21.792963|-20.421329|1.983531|-4.978541|13.682147|7.778475|-7.508948|-13.673347|-17.208904|-105.439161|-76.032629|-78.545940|-77.336935|-17.151231|68.421464|-57.876576|6.318258|-59.560341|-21.396594|-35.660621|4.851359|42.602352|-94.772889|-99.306859|-80.538660|-25.648291|59.040322|6.562845|5.033181|-11.528967|12.402669|-4.632101|2.976516|12.549440|-12.758047|-1.847256|-36.514170|-58.305511|9.907487|37.433159|-95.661382|18.625183|15.528221|59.738958|110.737889|-8.136930|-68.311220|38.975974|53.381074|92.450983|-121.939803|-159.029243|-95.879136|24.165437|56.225135|43.541851|-6.197415|-9.477726|15.506159|4.506580|8.441765|8.359070|35.821974|-10.528386|-30.042140|-19.165796|71.638812|49.892568|-57.007226|-6.701652|42.767498|-4.339513|39.506396|112.431277|28.739094|43.138682|85.887784|34.809252|-37.332985|-77.935220|-33.900679|-17.027411|10.523145|11.973497|-9.819795|-12.510168|16.532766|12.577223|6.461209|10.669048|14.905112|-1.568775|-30.238944|5.764059|47.106023|45.849592|14.053676|-44.203861|139.441980|60.566336|74.072243|54.021007|-36.320421|-58.109710|-21.690301|34.877470|33.463630|-66.566963|-42.701568|-52.020835|40.617613|35.446908|9.014148|-19.085770|12.888043|7.401886|2.407126|15.725745|25.872125|10.206418|-20.133575|-1.509193|74.855472|57.723132|46.491836|3.018088|112.815855|108.106238|27.430554|-28.858555|-129.446566|-120.114825|-95.388500|41.980462|58.316073|-26.402400|-17.010710|-38.662765|28.801080|12.981746|3.464247|-25.385501|16.415436|6.083817|-0.986646|23.499742|13.420377|18.273357|0.034679|11.194203|33.341782|74.572006|69.501821|-12.334321|49.407876|49.630403|83.636891|49.353489|-114.270165|-61.180472|-41.606776|0.686400|-18.263381|3.496253|5.651596|-23.236299|36.376026|7.936499|-3.549570|-16.868590|5.178275|4.093739|7.591931|32.844901|24.312155|20.248996|47.256448|30.935105|35.821868|63.310124|117.862660|-69.760822|31.385344|98.680228|29.166422|-13.374694|-74.342805|-97.014442|-33.503519|6.358238|10.035989|114.905596|43.966711|9.138646|3.259320|-14.399345|-3.521417|-24.077724|2.233475|4.218725|6.074933|40.067263|-0.305151|47.783974|88.064524|92.696394|38.055086|55.164650|57.129831|65.986014|24.698004|88.641278|42.746200|50.260384|2.121872|-54.996935|12.914339|-38.690901|67.203460|69.247526|58.184679|-25.255391|-35.153479|-10.845834|-14.619542|-28.689581|1.890152|-2.075735|6.644305|27.773930|31.539310|47.579224|52.875969|40.715745|39.884047|56.979172|23.147766|-11.539129|-28.867512|-27.979227|23.665302|-12.881258|-13.359946|-62.069794|-87.896571|9.592358|46.555278|3.295738|-8.131332|-55.475781|-16.352895|-18.319292|-16.544762|-27.037352|5.757849|1.123723|12.864544|19.046565|19.840016|78.188068|52.559245|95.589541|115.797863|79.627564|12.957908|-42.679018|-41.895769|30.838968|51.142161|-3.839638|-29.528196|-9.677226|-7.584948|36.398570|14.288560|50.293065|36.457867|-12.313248|43.364266|23.958307|20.122179|-10.018877|-5.539980|-0.570221|8.283554|42.870444|55.761007|53.853679|72.751208|88.551308|67.912154|91.162149|54.344193|-5.224095|-33.603028|18.708396|-33.658669|-19.619572|-49.604310|-32.704411|10.887271|42.193232|31.700224|34.854511|12.132097|27.803540|53.042070|25.396606|12.335070|19.026543|-5.352106|-1.549143|-1.652227|22.868696|39.587063|20.838718|41.744323|39.592617|-31.860277|-31.482808|-12.009562|25.828186|-32.042358|-42.166507|-23.279043|-27.691638|-94.595480|-62.886680|-36.885473|-53.243864|-39.846968|-17.437737|-14.478106|-1.086424|18.520421|34.597905|44.057077|20.970197|6.270726|1.338695|5.826560|10.000851|24.464290|20.650461|-2.793630|-19.129070|-3.937430|-34.113239|-24.014610|-29.772130|-19.497831|-27.639111|-29.622161|-20.104169|-96.788199|-47.683466|-51.928854|-39.584071|-42.749156|-8.965865|7.227030|7.794736|11.196190|19.098215|29.115222|8.989173|5.892965|0.198473|5.822287|19.456808|8.288664|14.904463|11.150361|-25.880694|-29.083090|-24.352651|-11.263145|-23.161549|-29.958831|4.905323|-3.880139|-12.284422|-44.473048|-67.551653|-69.183424|-68.209546|-34.611908|-20.469558|-15.425595|-6.388704|6.472598|11.213515|8.294351|8.992420|5.667496|1.059615|
~
0.989177|0.607542|0.659770|0.497527|0.855683|1.938455|0.509736|0.094499|-5.009030|-9.333077|-8.558751|-12.438572|-11.836164|-8.529843|-6.112802|-4.687988|-1.032216|-1.286977|0.925503|-3.198439|2.016636|1.852367|-6.337118|1.362333|1.553352|0.959984|0.089113|0.166336|0.320922|0.213800|0.736327|0.410736|1.100957|-1.751093|-0.865573|-4.948220|-11.585217|-13.335839|-12.442367|-1.324839|2.909106|0.074032|6.641818|8.624852|7.324985|-2.611686|-10.121594|2.785132|0.179624|-1.985829|-3.160969|2.470310|1.770164|1.422547|0.880395|0.307019|0.563008|0.969508|-1.820072|7.851031|20.846510|-16.931286|8.929246|-3.682478|-17.584872|-4.542518|7.159529|-2.938865|-8.632390|-14.294998|-13.036763|-32.137943|-42.198573|-36.390648|-4.219253|5.799989|-8.033677|-38.719388|-29.200685|-2.061431|-17.771016|-27.123075|0.029320|0.490401|0.171567|0.909714|3.398891|-24.564763|-20.415609|-11.188977|9.230586|-17.168731|-30.889506|-35.862848|2.011210|7.741499|17.655284|8.969926|-32.781148|-55.818972|-34.547311|-35.568155|-29.785636|14.360154|-1.865543|-12.283162|-39.843024|-58.522860|-81.882633|-93.913226|0.521388|0.771019|0.504046|-0.099864|-37.379273|-18.378018|-4.438831|8.146271|-9.127583|24.390660|27.449369|22.833876|6.964202|19.142478|12.260369|-11.124577|-38.102958|-15.320613|-47.394753|-28.634276|40.564504|40.213033|-23.640098|-24.740507|-27.399028|-27.432655|-53.004421|-62.922362|0.944730|0.269400|0.165296|1.065013|-29.965930|-18.018035|0.745922|-1.514498|4.196756|4.772242|-20.408743|-2.313111|31.951404|29.506548|3.217148|-13.774125|-27.458341|40.111202|126.559016|55.168509|4.223319|20.133347|45.931639|46.752003|-55.703729|-81.525309|-55.787268|-70.655959|0.570920|0.587557|0.904064|2.805906|-44.940071|-70.997557|13.625432|-1.382091|5.045059|-14.759473|-33.721069|-59.779947|-19.873919|-16.821723|36.781438|24.918596|22.036681|17.882607|40.709652|-43.727100|-33.995643|9.544912|-20.443387|-18.261934|-35.676187|-110.924659|-97.019827|-48.215896|-0.689599|-1.858436|2.812469|1.428913|-43.680528|-30.628400|-3.233582|8.135005|-47.439989|-18.577657|-52.400984|-85.488730|61.057562|70.862065|180.806963|68.720187|51.536616|44.456362|45.149918|-64.685372|-124.004763|-71.623667|-1.568092|-23.736291|21.916215|-64.708477|-109.331545|-38.444529|0.233124|-1.533559|0.575487|0.048928|-56.501911|-33.287163|-5.678722|-30.750034|-28.928691|-11.642140|-20.319123|-21.377983|-64.948126|-20.704079|53.343157|93.449915|24.457949|8.871613|67.199494|15.648180|-75.720551|-101.143266|-147.710777|-30.370375|35.900768|-2.605216|-85.596867|-39.190793|6.965789|-1.150968|0.513615|-4.481810|-66.360679|-43.633123|-9.813676|-19.609223|-41.604496|-28.399962|-4.300761|-136.560810|-78.250246|-44.110813|-65.956909|-84.277602|-146.296958|41.498978|-0.475964|84.336799|94.951709|-84.712536|-127.527168|-104.273392|36.664153|54.570483|-73.503682|-55.543731|8.263699|-1.646074|1.866427|2.028062|-68.582699|-47.369912|-18.849918|-57.129755|-51.754861|5.969815|-44.133579|-53.054006|-109.786230|-116.522397|-213.518292|-172.892417|-59.981856|-100.996041|9.618358|39.966123|4.072730|-129.557174|-127.260003|-120.757248|87.978667|-38.268716|-43.170485|-58.415513|-1.817775|-12.569394|0.681671|1.190332|-64.574180|-20.417364|-35.934261|-52.806928|-60.941079|-39.252008|-9.222447|-80.015015|-100.388439|-189.688169|-173.864000|-167.803284|-48.563831|10.743549|-42.219136|102.189123|-67.714147|-146.979140|-211.759522|-189.890525|-3.487916|-39.909171|-32.466438|-58.655790|-6.220170|-9.677242|0.419926|2.635626|-68.001825|-55.188408|-51.280610|-28.854276|-6.184187|-110.820495|-117.348928|-185.357529|-174.017220|-234.008676|-194.939297|-139.355338|-74.318556|-5.912660|30.977460|47.766181|-199.409647|-109.099223|-122.115752|-48.645185|-39.049168|-10.018615|-11.845570|-47.821284|-10.978972|-11.260767|3.318046|2.601209|-68.317007|-35.212883|-34.930302|-31.036999|-58.780707|-116.143057|-145.423673|-87.814706|-236.914626|-192.169730|-286.590558|-33.259109|-74.885591|-37.960101|-124.624136|-167.609534|-252.480509|-80.593395|-122.178199|1.425139|-108.184755|-29.205195|-32.169192|-26.697009|-2.965220|-0.945545|2.487078|-1.742887|-50.877413|-26.636163|-11.932787|-64.158416|-69.691529|-110.428980|-153.054525|-110.389322|-128.549622|-163.134245|-254.236086|-277.769377|-198.369577|-146.539384|-50.978320|-92.823896|-136.371114|-74.632225|94.316083|-11.085006|-41.983509|-93.029829|-7.576772|-14.571113|17.507330|-1.211696|2.395535|-5.631049|-68.842070|-19.826054|-0.416813|-26.519802|-58.108425|-111.103952|-135.032767|-78.706274|-4.326763|-198.461596|-309.411958|-258.441261|-304.218844|-122.006031|-246.163627|-152.626693|-84.253169|-1.041922|-13.025931|-78.588456|-73.015687|-31.732069|0.571447|-22.301279|11.163500|0.770658|4.787165|-8.622673|-33.744076|-17.786971|-12.758597|0.237288|-18.045451|-79.694742|-86.378419|-39.361016|31.490784|-186.958313|-88.509756|-154.507064|-38.643380|-219.685597|-10.360668|-79.432431|74.564813|-28.158020|43.777068|-37.165265|-25.876884|-64.971003|-53.726957|-24.247395|11.074148|6.889147|1.512476|-6.954449|-43.906789|-8.738275|-20.736483|30.664140|23.843121|-36.721596|-12.508064|32.104188|-42.680656|-38.873430|-13.072560|-5.705008|-0.583773|-12.503801|58.533548|26.292095|202.558735|-108.439813|-71.627426|-111.831054|-28.263092|-42.611125|-19.281940|-20.876227|12.121972|-0.100593|0.391181|7.794458|-22.536173|6.545184|-15.251650|-8.680637|16.935170|30.780246|39.821330|38.449141|75.975342|184.110598|-25.381514|87.588343|92.327153|111.826275|172.116543|42.866414|104.404001|-65.119375|-101.247674|21.397567|13.697759|-27.637268|-14.465475|-36.887163|12.162432|-0.568118|3.865119|9.118766|-27.256010|22.629490|-27.232892|-15.795022|19.224855|46.961668|65.243123|-9.947505|185.695801|148.402139|235.543568|159.620178|244.004972|229.304048|156.124267|78.565053|-31.924453|-167.169049|3.146611|63.084952|57.167930|-37.988379|-46.742585|-49.671154|-7.362900|-7.985079|-3.045054|24.462617|-17.716553|9.845851|37.747939|9.290730|22.804774|41.537766|80.311961|33.673980|152.459408|227.520751|169.213415|244.288975|237.857579|256.991209|78.308954|50.244968|-96.721230|2.216682|44.153526|42.397612|85.432794|-40.041733|-44.484507|-51.899488|-21.169193|-8.121051|-1.497377|35.051020|-22.459315|32.603009|24.112273|14.615321|28.921509|79.312399|158.527001|201.472983|166.002004|252.176003|152.742262|293.183993|275.240006|179.782099|27.992530|107.375606|102.262700|62.638197|85.628605|33.770248|22.453328|18.841389|-50.066390|-41.338997|26.024616|-0.121726|5.279653|32.583566|-24.701535|-7.732312|-5.196315|6.716321|48.607729|85.370298|163.540024|201.406089|254.529564|257.184226|186.229288|281.517258|319.141883|223.050693|41.597840|62.838039|53.854888|145.788920|-0.917582|-13.044391|48.630015|-1.771209|-40.571228|-27.951646|23.916269|6.209614|15.554582|23.501557|-24.259849|-15.709773|-19.809687|9.706920|65.757701|67.234300|135.800690|97.028541|76.942628|172.032018|172.003893|103.936277|196.577082|100.985000|-31.216016|70.016535|100.776560|127.587030|48.452331|138.285375|70.864296|72.971616|-17.950860|-121.715315|2.929067|5.656264|16.812831|26.616908|-75.472768|4.261450|13.642466|61.001167|68.205785|21.795537|26.797417|44.818863|-5.939547|-17.619530|95.318311|45.572370|49.368787|96.720380|88.580832|111.536814|122.792327|30.881533|141.089550|72.317980|77.015055|14.879026|-15.050794|-69.360268|-5.718536|-0.048834|-0.286513|21.001066|-79.582149|-56.816104|-33.134653|-1.694110|-13.725099|3.431060|5.926485|59.881553|-54.720546|-21.279362|-12.046384|-2.954668|-76.730422|-22.227969|-17.642522|-1.789388|135.299408|-5.152657|108.838710|9.264743|62.063663|37.586644|38.368321|-15.785559|23.520885|8.013086|0.410797|8.777216|5.194505|-6.218828|1.646587|-7.128189|5.849102|-10.598958|10.435156|10.858894|-50.456985|-99.517719|-4.087669|-13.082676|-124.807294|-12.437380|-76.020559|42.361124|71.948063|41.787268|-7.375004|65.034587|32.429810|90.105236|87.706302|20.100288|17.498392|0.176768|0.366867|10.009260|-2.290246|-3.963201|-0.751343|-21.319666|-34.076044|-24.977693|27.511188|21.192036|-54.386034|-6.097615|26.490490|66.780175|5.173071|51.220918|-83.812944|-9.774380|-2.689113|-27.860112|-3.356324|43.530709|38.729115|26.453264|16.328565|-3.028912|-5.620911|-18.668509|
~
0.937692|0.271103|0.855458|0.333522|0.209227|-3.344239|7.821570|2.122306|1.644596|-0.128802|-0.404693|-11.013409|-45.440254|-56.732450|-41.213042|-25.808915|-18.507806|-13.653712|18.945992|9.712681|8.828134|4.821305|-8.097688|-7.843374|-5.867362|-3.714648|0.679959|0.890560|0.895832|0.920290|0.691797|0.983419|6.366005|7.397105|1.569286|1.900199|-0.373611|0.981225|-20.059962|-62.574285|-72.826729|-43.724425|-18.553964|-37.751067|-2.018887|-5.818535|-8.483810|15.744506|24.491397|9.897955|-4.542007|-11.511507|-6.331099|-4.131857|0.741891|0.709556|0.203169|0.421850|49.184615|78.724594|31.820817|0.940797|10.317972|22.198624|21.916271|-37.259716|-81.278553|-81.094921|-51.430871|-45.319814|-28.227944|-69.601466|-92.397922|3.527240|92.028580|83.860321|78.354912|56.522736|29.181393|61.979753|42.533492|67.940946|0.323743|0.023403|0.207855|0.065633|48.265143|11.993447|17.523583|3.358484|-4.354384|-15.856082|-14.887447|-42.658257|-76.265662|-70.978123|-17.849750|-23.277732|-49.452083|-76.022681|-16.709787|-13.958796|-7.805135|61.605611|78.834786|73.583221|-13.428901|-22.139228|-1.050891|14.534050|0.838064|0.598510|0.596263|0.051495|11.024220|-9.183450|11.056080|-24.505565|-52.379934|-39.980258|2.300893|-51.204019|-62.026923|-43.449675|118.033912|83.154950|65.783194|23.872959|-63.481494|-113.661539|-52.983358|39.811451|34.499162|70.522282|12.193644|-22.932477|-28.229165|35.164113|-3.519675|0.187602|0.180074|-1.938814|-39.267123|-28.005688|-33.366188|-61.274981|-52.975152|-29.718113|-31.667320|-38.226338|70.278841|118.603192|71.727509|95.260229|73.202371|-3.462762|-19.487490|-86.151804|-55.768867|11.329866|9.100204|-2.007211|52.162462|-4.661637|2.940548|35.651507|-4.353714|0.232978|-1.622403|-3.634277|-35.125673|-41.793115|-31.425307|-45.246672|-18.796630|-27.903818|-66.874119|48.657217|-1.622554|29.712469|41.848303|136.033184|83.080541|-61.541446|-163.853902|10.129424|24.645653|19.128318|-24.175735|-22.008081|9.116637|17.610242|-1.422576|64.532741|-4.062585|-1.946422|-2.178543|-2.042884|-33.706932|-40.881205|-25.927510|-24.722303|-18.994098|-16.289203|-17.367504|22.125745|40.503485|11.801098|42.490703|18.271582|18.539587|73.291458|39.110116|24.880784|56.176815|6.350383|-17.105712|2.187914|9.843145|5.385366|-0.863851|51.674533|6.982436|2.019932|-2.129653|-5.242135|-56.143652|-66.551083|-35.787707|-13.112972|-0.799447|54.047711|20.143108|2.434809|65.781169|-36.198600|-11.115699|-168.323955|-36.615098|93.053966|150.489039|114.107357|95.860998|128.582817|63.534029|28.700867|17.843823|-6.771944|6.895539|49.619958|12.844028|1.734910|0.238151|-2.039535|-56.595868|-78.058290|-43.702553|23.060837|12.097708|-41.777033|-77.807390|-2.078583|8.028943|-53.574059|-104.770648|-16.775368|-21.424707|-2.241560|228.125620|298.491977|156.765918|90.153795|71.575860|16.485069|25.173285|-3.387942|-12.029693|69.591877|7.820664|5.530541|-3.044002|-5.477648|-79.118806|-67.963284|11.285652|81.104788|-7.675734|75.351097|30.533719|58.096064|42.970585|-46.382544|-165.094790|-93.309985|-78.782600|102.777014|198.362772|251.556562|298.744097|124.450826|79.903876|-47.334311|-46.852664|-4.518789|18.715759|54.280095|5.527476|6.357669|0.580620|-14.930962|-32.247628|-25.350414|17.201448|51.200055|-31.214913|50.298667|-0.137040|-91.607667|-88.207647|-115.614105|-185.480481|8.641289|45.012552|45.281133|247.191370|426.179643|288.420657|96.167723|24.814009|-98.956935|-78.143820|-44.941034|6.610323|48.156136|2.670538|6.103012|-0.193419|9.470620|-31.344593|-33.672403|-19.608622|67.978536|-65.846885|-53.001045|-58.028360|-155.667913|-124.517259|-52.033554|-75.805753|57.560923|171.463355|94.681443|187.290130|101.131843|93.651455|27.582825|-97.226122|-84.826965|-52.789992|-71.659953|-3.742444|52.138529|-6.062526|2.306314|13.464083|14.233179|-39.187195|-7.476925|4.458053|-36.639386|-92.832726|-87.344418|-141.714806|-139.796593|-25.455635|-80.522200|53.438964|107.514495|173.495515|173.813296|-45.916085|-107.889401|-97.792471|-174.476648|-120.982303|-100.365255|-22.260664|-24.745419|-24.838035|12.514212|-10.374903|-3.914569|25.327217|19.858162|-37.835150|-34.433391|10.270454|-51.813540|-71.420370|-80.008731|-262.074043|-192.323740|-141.748134|34.491675|125.495936|134.365798|80.881430|18.458921|-95.180457|-126.797519|-172.666972|-142.004025|-123.551828|-60.229815|-18.123877|-17.230656|-36.697881|36.082199|-2.861846|-3.946388|14.229558|27.065756|-13.943774|-24.050034|-43.374846|-94.060345|-43.366357|-50.184357|-98.420253|-37.493689|137.458003|43.275710|119.917811|35.284216|69.445400|-81.947408|-185.160637|-129.966058|-110.500225|-100.694482|-128.210144|-67.498930|-25.869508|-33.873270|-37.263083|27.463236|-9.339171|-0.478842|3.302099|22.688124|-5.702073|-16.993477|0.693237|-35.272620|-32.545134|-84.628456|-28.655291|146.966837|63.840019|17.142843|42.596218|-26.104626|-179.741807|-145.846268|-93.751762|-63.755002|-39.294208|-64.664298|-68.734272|-40.060695|-3.762082|-70.940906|-39.856204|12.871111|-3.497571|0.038068|7.671805|2.229882|-8.912232|-14.338063|-36.053099|-55.385669|-28.957239|34.182354|62.536241|-15.689560|45.154053|-31.934667|-138.236927|27.154177|-70.274761|-110.375859|-185.105770|-91.012684|-54.832946|-13.835183|-19.415611|-30.673464|-27.992645|-55.898915|-27.680241|33.232473|-0.718772|-10.441842|-1.143521|3.344827|37.787107|-2.052538|-34.915078|-54.828317|-33.029850|22.200183|21.930823|29.451910|83.477839|-30.752640|44.847062|63.130555|-0.991063|-35.566222|-63.450558|-33.239975|-53.496156|-45.767906|8.629269|-65.011938|-42.456352|-41.229476|-22.648941|-10.173766|-0.465926|-9.695083|11.422795|8.578496|29.778403|-11.140133|-11.605593|-23.274785|8.642515|54.107829|46.788838|51.268780|32.717055|56.947481|59.851470|49.102294|54.619773|99.351162|42.248771|-47.428057|-40.939513|-6.795594|-31.641584|-73.963086|-48.892809|-58.692573|21.120748|-2.946875|-11.574324|-5.410318|12.119144|3.628123|11.057369|-28.411759|-18.110534|-10.687024|49.556503|101.211153|108.919063|61.505021|39.847368|50.749783|97.816254|44.410459|58.403924|19.052489|-40.003457|-49.945179|-83.619014|-98.729344|-59.071987|-61.803988|-67.826266|-54.910530|9.418254|41.549359|-8.284466|-5.131880|19.051934|-4.891031|-32.498065|-38.833464|22.141308|20.860885|24.239855|29.221490|91.308277|137.879777|150.173783|128.637952|-17.018426|-67.710693|60.300831|32.188971|-99.231057|-163.249126|-70.703744|-116.913485|-43.591142|-79.881908|-66.464151|-44.416880|5.923976|28.724726|-5.611037|0.845505|4.864098|3.292745|-58.346148|-58.921348|2.664386|-5.251916|-20.625437|-13.643469|19.909378|37.063120|92.849651|16.274856|-38.256183|11.591835|-10.285297|-94.209225|-126.835797|-65.068104|-134.354009|-80.139030|-41.688434|-68.763654|-45.169929|-50.570365|-26.393020|48.801091|-0.789940|0.350510|10.971956|4.018877|-43.045349|-11.929016|-30.246564|-28.669344|-2.131234|-52.931522|-56.471745|-20.084124|2.521823|-42.976402|-22.379459|-128.228486|-133.747573|-110.592714|-125.903348|-109.278559|-110.587317|-48.277900|-34.066037|-37.625429|-43.946596|-23.073362|-11.192676|57.281175|-2.027505|-0.051890|-2.918649|25.306661|21.974422|-38.221275|16.367950|21.495734|-3.812116|71.869134|35.901276|-23.168381|-7.801558|-4.461916|-39.956021|-158.914811|-134.015838|-93.680996|-91.569209|-74.839435|-18.302382|4.343061|2.749724|-1.065279|0.578537|21.763266|27.798826|48.999960|-2.556120|0.356923|8.498294|10.222021|-21.394292|-43.217967|14.863888|-16.420277|-57.905716|-58.508057|-52.032879|-9.317465|-18.887406|-88.966634|-44.843991|-93.314414|-100.905295|-75.764394|-82.961689|-100.354907|-73.211510|-38.099017|-19.465203|-41.475124|-31.318376|24.181106|30.489384|90.507072|0.609651|0.563496|9.861128|11.305761|3.235387|11.666481|-1.138794|-1.388290|-18.187852|-19.277987|-12.918959|16.095144|-34.902972|-30.298768|-98.299405|-93.862824|-58.307978|-59.651346|-37.804117|-41.112450|-27.967474|-15.382772|-30.481274|-13.776228|-14.219842|-1.532707|3.274438|1.403863|1.134490|0.485541|9.652265|9.837716|5.183000|7.755457|11.085377|2.216537|0.544847|-14.979702|-4.751731|-15.505777|-30.274900|-57.550843|-56.118089|-46.018241|-33.927303|-25.281748|-23.775553|-31.265863|-12.713765|-13.241401|-17.035215|-17.159902|-9.968784|-1.707834|2.231943|1.233852|0.693165|0.433413|
~
0.478590|0.377712|0.110101|0.859501|-4.666528|-1.165240|3.420990|21.412783|18.299433|27.971510|49.424651|46.807388|51.428832|17.141059|45.088779|59.095325|51.039103|39.138649|25.571032|41.643766|22.769561|-5.665260|-3.064102|-1.753237|0.192894|0.876562|0.751479|0.286937|0.555852|0.497518|0.880472|-6.211905|-17.897916|-10.408981|10.014093|1.302331|-5.310457|20.455485|7.197260|3.851259|15.170192|42.400135|39.797618|94.612376|111.624947|106.524887|108.867410|74.177282|65.069441|13.710195|-4.301269|2.934351|0.747666|1.042827|0.392541|0.380870|0.653350|0.144019|-131.694324|-95.015816|-95.163833|-44.244556|-58.292096|-94.233555|-111.571177|-74.349928|-53.693303|-40.304195|5.978794|-0.774383|38.128898|43.999711|54.993885|37.983832|9.927300|88.389150|39.186523|-21.165477|-62.283666|-60.973147|-125.394191|-54.812678|0.939114|0.847636|0.909287|0.331655|-36.565907|-83.093791|-30.844638|10.983363|-45.947857|-68.153373|-68.664753|-88.286904|-2.981668|-9.814484|36.968525|86.644110|147.546669|76.394302|92.956201|-28.694311|11.523207|71.867811|85.185856|78.519462|-3.389854|-59.713717|-46.504278|-29.817541|0.422276|0.549537|1.720948|1.325934|-17.505609|-35.229363|-30.229791|-20.880804|-86.739079|-67.525350|-105.843704|25.262209|-89.338656|15.868776|-26.174860|76.530801|128.821458|-46.149074|-2.712738|-70.531262|-81.243620|-42.412338|17.421404|-7.229667|8.441371|-52.920768|-23.227869|-4.218752|-0.169424|0.148784|0.713319|16.562403|-26.152382|-34.707273|-30.408858|-68.185829|-21.644272|15.259300|59.331123|-8.464579|-26.292638|-38.460196|0.940532|5.589731|146.539771|-5.629683|-32.875689|-76.263105|-110.434269|-69.841954|-35.521948|-27.469933|-25.178416|-82.264518|-58.926796|-13.938953|-3.021735|0.617335|15.587840|15.086113|-47.377720|-49.879761|-31.875085|3.618698|-19.138505|24.173337|17.622049|44.351008|16.411743|134.858707|-40.266901|-4.244246|-68.765391|48.471300|-30.565581|-29.253943|-62.603526|-29.391544|60.578588|89.378706|42.207190|-65.741971|-42.620427|0.833270|-3.069534|0.213306|14.525895|9.994374|-31.127555|-67.321685|34.334059|40.874585|-27.918771|8.669146|-6.820828|-106.111460|-39.192695|-98.620766|18.749032|53.234409|103.099340|101.806603|44.542290|56.077406|-114.882263|-24.690245|-36.119560|61.277484|45.952322|-53.530047|-23.444666|-1.536313|-2.446787|-3.184756|10.292512|8.094508|-42.364884|-39.768804|23.937922|-9.801917|-58.227608|15.047546|-82.441314|-116.710897|-20.664964|71.242339|39.577396|7.326437|-36.402279|112.170351|174.616162|21.335166|-39.695949|7.576351|6.315778|18.328144|91.097193|-64.871409|-32.098010|-75.719733|7.469451|-2.971809|-9.855350|10.447847|-62.303054|-25.279476|43.524154|0.868602|-18.990070|-54.787962|-24.962852|-30.822833|40.831499|50.043066|27.557890|58.037829|-133.403391|-67.543812|71.278088|-20.174771|6.631573|17.570107|19.364780|-45.538469|29.814274|-53.159822|-31.383417|-50.669013|5.637988|-3.262809|-3.853533|-3.366006|-70.521519|-35.273293|-22.066591|0.901570|-21.660688|-20.818605|-51.451365|-53.069430|40.313681|129.239368|-10.783814|34.015667|-56.897896|13.636610|47.077145|-81.941437|53.991181|100.558852|83.860954|59.027897|-22.650023|-53.444588|-48.644106|-45.485885|11.903363|2.888089|1.787339|-2.220496|-16.326344|-10.084966|36.570492|-35.228598|-64.921449|-23.258885|8.609918|86.969427|92.231995|181.386928|-42.589524|-70.463432|125.800406|12.172059|-28.735702|5.587386|-27.091042|15.905703|62.285122|50.306483|-11.284421|-90.093208|-24.594394|-13.580227|13.175350|3.281632|13.778045|1.425420|-24.208480|5.693472|-4.224425|60.271784|85.686004|9.203584|98.129158|116.857829|168.832164|22.197251|55.515001|-20.337744|28.568951|19.818890|15.410991|-201.895493|-30.289277|31.159047|64.109564|44.373941|-15.899043|-109.838015|-24.740116|-19.762822|7.303007|3.600306|34.399040|6.816712|-26.923539|-6.446677|28.839276|89.156406|62.377650|204.092633|159.669310|154.089785|26.302775|-39.420424|99.655595|-216.330423|-74.607861|24.282600|-34.249475|-182.521885|-34.688593|53.368819|-2.757550|16.386307|-12.580007|-104.531554|-54.553183|-32.117286|10.111209|-1.622395|30.127728|26.311517|-4.148566|10.893920|57.403143|82.721843|105.713234|122.084658|256.124658|165.727149|152.979695|-70.981793|14.712116|-165.051824|-46.436780|27.692727|50.984462|66.415849|34.867929|85.584740|52.260093|32.596150|16.940384|-15.349415|-29.985699|-34.044551|5.645307|-2.139525|10.393816|39.670530|39.333334|84.651502|88.447052|102.898981|264.116196|353.964787|236.673564|222.262313|126.193058|25.651833|-112.569985|-116.450601|-38.279006|54.403076|-70.860238|-4.805956|-99.148912|17.777850|-6.687476|69.511946|41.503577|33.438335|-62.993313|-29.124246|-3.007337|7.059097|20.636742|56.247431|61.145726|128.638992|79.646196|66.174978|183.322875|309.715091|199.716449|101.347136|55.873269|-284.009105|-232.725816|-93.119510|-118.952588|145.568435|-121.342007|-64.030012|-62.559352|-26.424948|-37.115040|-53.061818|51.889672|13.999981|-36.075435|-48.062143|1.384582|9.725112|-0.408519|54.171513|15.595701|96.951618|84.116332|78.069213|88.290747|69.139245|122.275337|121.982690|-31.946074|-167.968636|-8.863198|-98.161173|62.566956|60.797097|-18.170618|4.989899|-146.416839|-109.969983|-70.072918|-57.981245|33.895052|-25.429466|-5.307206|-82.382135|3.442057|1.193201|1.127112|38.991483|10.810765|75.891066|68.729541|40.478317|134.655574|180.458611|231.373428|193.940185|-66.281866|-117.372440|-50.805580|-41.893142|-100.852483|-46.196484|35.309656|-61.888190|-118.691220|10.660115|-20.638565|-64.733288|-9.985011|-8.381802|12.798918|-61.475012|10.361562|0.504885|0.169599|44.862071|-48.211574|43.871553|-8.164971|93.489438|172.965391|296.718070|246.065205|55.023880|-191.423094|-168.767084|-65.203936|-116.928908|-163.331454|61.624957|68.968301|-155.641028|-7.132782|-17.296627|49.673168|-48.974132|-5.926061|-7.922751|16.828873|-47.849476|-2.084603|-0.424088|19.296579|37.108704|-26.256607|56.597302|13.619923|81.481449|99.602073|128.157648|205.164284|-7.239194|-94.609195|-174.489068|57.050302|-88.897861|-69.750066|-107.430231|102.623776|17.464181|97.430567|78.354674|-2.930595|-27.808500|-29.402997|-26.974545|30.395040|-37.662711|0.406332|0.000442|19.849977|52.911007|-9.528255|66.878430|78.009337|179.540875|67.082628|106.941391|132.376912|13.054437|-128.150419|-83.973880|-48.412793|-1.324945|-36.049497|-50.256900|39.442893|14.647479|24.999601|15.965199|-47.850130|-39.593462|-41.316842|13.394317|15.357256|-34.995946|3.212531|-0.084207|19.604047|32.161240|-9.921496|85.107040|60.969027|110.481200|80.847367|93.191284|-40.552743|-61.955801|-67.531119|-46.201848|-21.918058|-29.032603|-12.170296|-118.499896|-23.032645|-1.951973|-29.799513|-21.355494|-71.218514|-47.801455|-70.659950|-26.576614|5.919814|-26.248631|-0.340395|-1.682864|5.267410|28.056149|-74.576591|59.406880|5.904070|47.615515|128.877702|113.330251|63.604257|-30.644962|-2.364229|21.319068|38.059625|-27.046050|45.402032|-26.361934|8.050515|44.752308|6.877962|4.130987|2.332615|24.369709|40.461214|8.890504|41.940886|-0.781944|3.458346|-2.569857|8.375934|35.668493|-34.883083|19.406928|33.726672|100.632101|104.993832|154.519817|204.478723|124.246809|-2.456045|-69.867690|-36.823978|-0.231063|12.068576|-64.096323|-12.753528|18.800489|44.373476|-49.106400|5.341002|20.238036|19.027417|-30.565754|-13.189275|-3.785512|2.538095|-0.183459|-8.076062|6.166033|-54.146322|-80.189845|-33.639597|17.104998|-9.356623|-20.196673|0.877709|-0.142569|-34.719758|-69.563816|-118.936181|-11.187297|-71.516953|-104.286707|-54.723367|-57.833455|-23.328060|-25.326604|-30.824685|-40.830872|-20.637669|-33.249110|-31.292051|-43.067789|-1.009904|0.825096|0.534577|9.303074|23.671307|39.473143|5.232743|-3.442081|-6.302255|-34.971069|2.384079|14.643566|12.036679|-36.195015|-58.936787|-65.742398|-57.687518|-31.572833|6.090363|-16.287335|-9.898599|-17.424443|-12.496976|-34.575035|-44.712126|-20.889169|-10.459898|1.656771|1.355994|0.562522|0.609212|13.997159|29.065272|50.672311|14.078114|20.008801|-24.714313|-12.212392|17.978141|-41.260189|-57.812520|-48.060881|-71.707869|-44.905191|-39.455585|-19.538901|-7.360612|-45.090680|-22.041354|-11.700583|-26.144239|-38.411600|-35.367463|-14.928881|-9.717905|1.463868|0.367622|0.030165|
~
0.202833|0.885047|0.925799|0.874915|0.270585|1.794002|3.865969|1.324298|1.340565|-1.785327|5.511881|2.092115|-0.474757|-1.868216|-2.297983|1.207074|2.164608|-0.773651|3.254287|1.726226|1.684583|1.555455|-5.102357|0.561274|-0.032337|0.745120|0.247485|0.615992|0.640528|0.597416|1.089938|-0.198327|-0.964392|1.265054|0.027417|-2.138025|-4.509418|-3.939679|7.269495|3.650817|-0.391598|-2.256939|-4.028145|-1.237978|-8.811259|-3.087295|-9.545749|-4.967713|-4.335338|-7.921676|-4.780060|0.498080|0.267103|0.093135|0.518567|0.930546|0.345224|0.766052|21.443787|20.884807|29.235363|-1.751808|6.515738|2.237910|-10.032073|15.144884|9.445828|-9.930134|-12.410501|-18.753725|-37.433598|-40.729306|-35.417350|-29.719752|2.823999|-4.802261|-0.221570|4.643312|-4.627240|-0.574737|-29.095915|-6.018722|0.385621|0.648814|0.123297|0.904188|35.743435|-0.176995|-20.810926|-29.747456|-20.212045|-22.153686|-12.249097|-3.293070|15.991615|6.544712|20.367672|-4.174229|-24.635189|-40.546107|-28.778901|-15.565983|-12.641052|-2.893667|-16.356233|-25.640655|-43.062814|-36.678841|-60.114999|-22.800065|0.086192|0.842170|-0.523033|-0.608627|-7.214306|0.155491|-11.156531|-31.704645|-32.534263|-19.785991|6.997036|21.881042|-9.853035|-2.852423|-21.877296|-18.734709|-58.902916|-37.802075|-69.034761|-47.769245|-16.848996|20.465582|-9.364925|-32.173437|-41.946979|-35.475906|-42.519533|-17.812408|3.261619|0.159376|0.397818|-0.525886|7.264903|-2.579524|-11.300759|-31.063129|-47.656947|-20.355564|-20.053786|-26.019075|2.167996|-34.604502|-56.639047|-54.731528|-32.173240|-10.999660|26.198747|-0.793608|-22.331086|-15.276509|-4.624983|-1.838698|-64.016947|-72.750521|-46.688449|-16.053551|6.819064|0.934140|1.048625|-0.985273|3.159646|-12.204512|1.812264|-42.323682|-34.083521|-16.775736|-23.448119|-45.339943|-69.862361|-64.600598|-57.739396|-53.923230|-84.670543|-6.451919|-27.228674|-33.800975|-23.461902|-3.549559|24.382757|-7.530132|-38.989788|-40.302941|-19.402361|22.912027|1.919055|-2.732355|1.375140|-0.285109|0.493315|-8.915300|1.151726|-13.092927|-32.792997|-1.426115|-48.764518|-50.914147|18.190102|-78.116704|-53.677501|-120.538971|-70.850020|-26.284153|14.521068|-50.224377|-74.456824|-28.944789|15.894386|-3.405901|41.228366|1.872986|-5.526612|35.869483|5.580034|-1.870405|-0.205348|-5.152230|4.934441|-5.962349|3.517149|-27.212065|-9.529113|2.183510|-55.484941|24.123524|-46.897190|-42.223352|-30.879670|22.645479|29.874621|30.710088|106.224986|34.753970|-24.534428|-49.259403|-23.623547|-26.110584|36.168156|3.247182|-9.533007|29.915777|18.171981|-1.754516|-1.008261|-2.842686|5.596598|-7.685778|-3.046049|-14.945141|-12.651182|-1.258793|36.612801|10.736947|56.859674|44.036613|50.422477|1.007520|51.868200|119.411954|189.082343|115.377663|91.397535|-77.106058|-137.160709|-102.938742|-4.174366|44.432108|-3.315977|6.172819|12.351361|-4.153307|0.097889|0.161382|1.874215|-17.356884|-9.742654|-24.436545|-36.902397|45.000496|-4.925603|58.287725|22.649572|29.152792|-52.939175|-15.108505|-82.252963|-24.118523|96.945697|31.799368|128.926814|-19.034380|-118.543539|-109.414454|39.244400|-30.707334|-30.928257|-14.474606|2.746703|-14.987335|1.059134|-1.777797|4.384598|5.397128|-9.151004|-10.794926|-13.910165|19.434887|23.041254|-11.113560|13.964644|-41.515109|49.250064|-111.288986|-76.967406|43.375916|-63.086907|30.073974|19.817746|21.249097|-93.380437|-94.441306|-11.304220|-74.356755|-57.306110|-3.453102|-1.781200|-12.039423|-2.491090|3.839065|8.157723|8.827784|-11.032020|3.054112|-8.526373|-14.535242|-67.401659|-112.632665|-87.621118|-38.878684|-60.307686|-5.400906|-21.238041|-68.283175|-93.823132|29.774226|54.046253|42.196399|89.816156|45.732583|-8.387423|-58.380411|-26.983410|-6.379122|3.818950|-6.649071|2.044432|8.560614|5.680506|8.917223|-8.074183|-33.637337|-9.998424|-83.486809|-81.892054|-78.115842|-136.532987|-124.567992|-151.936209|-28.988985|-7.796228|11.178463|-46.908388|-46.233974|-95.503421|91.742640|38.997244|-18.314653|-37.925829|-40.524686|-34.366269|13.853934|10.752871|4.646486|8.080059|1.157012|9.984029|4.523461|-16.691983|-54.424280|-48.244176|-124.967665|-117.462012|-55.406432|-43.556184|-142.045570|-170.692272|-188.991043|41.448521|-4.357603|65.242681|28.285405|0.963027|-11.476855|18.293506|17.310681|-49.444662|47.045466|-23.206613|65.706725|30.228990|4.392088|7.832633|-2.503767|-25.226157|12.059802|-8.209478|-43.951242|-67.122452|-61.190128|-90.581164|9.967288|17.436051|-37.872509|-234.259625|-167.689153|-110.872091|1.159322|54.236721|-45.950476|-9.742618|-40.109333|-37.711790|-32.207068|15.579882|16.971626|20.994077|40.676686|43.355535|12.799901|4.638073|-8.788985|-2.943673|14.771741|-6.853311|-61.197489|-15.580776|-33.062852|-47.030552|-63.484048|41.296011|-65.325315|-41.131147|-139.611495|116.426452|6.341036|36.549164|-69.795774|66.549854|-104.362147|-10.208358|-13.355332|-7.559280|37.711710|11.357927|49.964378|29.294460|21.652722|-2.165464|-7.971569|0.925185|2.165803|-22.896623|-43.642188|-15.379735|-50.504467|-89.882181|-72.348684|-51.161289|-6.642315|17.952754|110.559060|75.422618|38.687622|-29.983565|-80.126189|16.312964|-119.985296|-52.850605|-109.973323|-2.838124|40.457009|60.524938|73.631803|54.239166|13.176012|-2.631053|3.678880|-7.008371|1.618967|-10.414332|-52.837460|-39.711763|-50.072876|-102.395321|-36.091747|-43.614068|137.246748|80.649829|278.556884|238.569460|183.641796|17.017913|-82.395574|12.120871|-23.236530|-106.961415|-1.952652|-4.413722|40.903149|70.131033|78.284220|40.930664|13.370175|-1.334308|9.983117|-9.713598|-2.593425|-32.619432|-66.509887|-13.205316|6.725890|5.849209|-77.510812|126.548986|112.352882|233.600174|227.266530|271.001839|121.373190|46.290595|17.071170|-93.040191|-71.020777|-51.222293|-1.671132|25.991113|55.863332|23.494203|91.448985|5.183292|4.938680|2.527839|14.426659|-1.855940|-10.516800|-39.268260|-70.888095|-18.036844|-18.942158|-18.684260|-34.090544|78.358836|135.151920|141.201854|179.353646|131.996675|81.675382|20.405550|-16.579244|-12.861747|-52.238449|89.273373|5.542791|112.618689|78.331764|33.642823|34.848727|1.089272|4.532708|4.814197|13.249099|-2.362234|8.883326|13.628306|-36.251899|-46.732629|25.799131|43.974527|63.047361|-66.143491|92.359542|23.726334|10.358298|115.342705|22.687330|24.168989|59.937798|98.029173|47.651645|94.846534|37.583156|125.593360|99.719145|17.444142|26.155023|30.925241|6.984954|9.909225|21.592477|7.047961|1.725217|1.887389|-45.241648|-32.367668|25.107612|65.864937|11.511399|-15.198030|-54.438055|-157.111408|-122.349944|22.619464|32.868403|-55.706067|6.548225|74.598019|113.757473|13.010341|19.321144|42.102378|-23.605418|-1.499575|-1.146467|22.192430|-1.682277|5.131965|15.358248|-5.717177|-12.115083|-17.088685|-21.912069|-22.872522|12.813247|96.327793|61.854472|5.218712|-25.497421|-106.767682|-125.308723|-24.819547|-1.088469|-51.817535|-27.216824|45.885809|18.218659|-34.748437|52.926270|-18.472548|-3.700275|-52.684094|-100.958800|-11.749682|-12.219669|9.325214|24.859487|-32.407374|-19.269281|6.075509|-3.428214|-8.758742|-5.040457|13.910202|41.337309|19.307845|-135.778374|-50.271351|-77.391053|-36.873644|46.488701|47.368762|-10.656568|16.206822|-77.038282|6.731796|6.237448|-64.339349|-37.397444|-99.761447|-74.929408|-21.084715|-10.291238|0.471412|16.416533|-39.535606|-21.175920|18.294369|-32.063691|-38.347793|-4.629705|-5.675257|55.642539|-23.792072|-18.807747|-7.904137|30.178183|39.774870|141.149226|12.909992|48.591621|86.312239|42.565253|39.434601|-43.183013|-6.544718|-10.097392|0.071141|-34.788262|7.650341|11.536129|1.117827|15.035971|7.317896|26.875146|0.694681|0.053528|15.745221|13.611836|81.209039|68.809987|51.090700|-6.672218|-44.131561|2.894495|-34.468157|21.713613|-3.006039|83.370311|76.335991|56.934484|16.021417|37.850558|42.543375|68.729617|59.498799|1.401505|8.916131|0.146711|1.142772|15.174582|8.341291|17.773353|-2.281683|-11.953788|-25.620856|15.572299|77.635269|94.087909|41.153515|9.994348|6.414515|19.538010|12.296225|-11.697894|-75.630947|5.037411|-10.341865|-4.696537|26.560051|22.378988|25.207094|10.000070|8.179138|-25.935126|-28.746705|-34.603611|
~
0.566146|0.009492|0.528660|0.237571|0.555062|0.474115|6.863101|-5.118798|-5.395980|-7.081684|-14.995039|-20.054919|-44.447387|-35.262346|-34.187957|-25.096334|5.534349|4.259732|7.409118|18.153945|8.458144|9.235337|-8.852359|-8.997044|-8.957563|0.056347|0.127694|0.230389|0.948937|0.697588|0.690814|0.682393|-1.720672|6.838439|-4.845671|-5.529284|-8.412234|-14.683142|-13.436246|-29.162074|-29.485336|-38.648487|-50.246445|-48.775573|-30.703122|-12.340675|-16.362761|4.608686|14.471025|1.996359|2.808630|-9.686644|-9.369659|-0.828399|0.337904|0.739353|0.027857|0.465598|-29.575129|-11.447985|12.411777|-17.224347|-4.994711|-12.613528|-65.495484|-78.228496|-80.685533|-48.480945|-27.395607|-68.182025|-62.592455|-47.363504|-41.599298|-26.891307|18.859864|-1.516411|3.946592|10.254679|-37.583935|-35.515751|3.470423|-15.727228|0.139044|0.450299|0.061309|0.476948|50.646421|36.605405|6.525500|2.424028|-13.376346|-32.138582|-48.467801|-55.506732|-66.571997|-114.762905|-83.908783|-133.217843|-159.399630|-107.318364|-55.724973|-49.398810|-37.411532|-4.442468|-46.669608|-30.775218|-23.954219|-52.875543|-29.999929|-20.649831|0.171223|0.338921|-0.135595|-0.026587|50.388398|10.999540|26.324847|-7.231659|-26.660137|-44.634257|-12.718771|-64.521582|-66.886749|-107.376281|-100.282618|-164.807305|-216.928133|-165.139343|-105.131566|-56.956232|-2.333873|44.453254|29.881487|38.027065|-19.234798|-17.265038|-66.323205|-29.460263|-2.049077|0.626305|0.737212|-2.825419|23.647596|-10.536429|-24.388186|-35.420868|-16.787868|-37.963335|-67.511695|-83.803630|-32.600593|-116.366362|-252.118334|-177.139616|-201.115278|-195.197402|-183.706025|-101.071925|-54.708599|-27.298071|-40.289112|-5.081829|51.408822|-18.209523|11.368434|-10.302390|-1.788060|0.054386|-2.999399|-2.342043|28.174969|-3.247991|7.665452|10.016575|-8.686577|-19.266754|-13.524859|-81.919987|-58.009623|-121.963713|-64.193605|-33.954447|-41.367580|-43.236451|-54.310487|34.376142|-50.347625|-57.622972|-46.485420|-39.359913|-43.112205|34.785258|3.656354|22.584493|-1.579801|-0.177441|0.282860|-0.670682|10.618085|-16.711191|8.880245|-24.400192|-10.722704|40.001065|-24.909966|-44.974991|26.483389|6.259674|-20.534558|1.137872|19.809359|52.780068|65.406327|42.293526|17.679103|-66.474056|14.635888|-9.978002|-42.287405|-17.799433|-38.244145|18.075025|-1.416429|1.120796|-2.811241|-4.320487|-1.048037|-23.524189|-74.364034|-94.956796|93.125999|54.804152|28.638309|3.629361|17.469389|-113.215399|118.203182|72.789050|99.253367|71.263537|105.430950|84.278905|111.749750|52.651701|20.346578|16.620643|-37.147532|-8.295755|-30.979837|58.966112|5.708150|1.063866|3.125088|-7.861113|9.908964|-44.288661|-79.158558|-20.372320|25.036259|5.343975|-91.428244|-76.173716|-160.737174|-2.600669|-118.981118|-98.522124|-13.152973|-72.810409|1.007410|35.692700|153.484079|98.692129|15.637817|27.989806|-24.454535|-14.490270|-26.662964|13.362111|5.889228|1.779474|2.491833|2.095950|-2.088076|-52.464274|-1.928173|-11.453272|12.456323|98.003260|40.462458|0.056880|126.434393|96.732798|-135.987003|-103.852984|-64.158484|66.928976|-0.794983|87.978525|137.849472|121.367215|28.886203|-16.520701|-25.632932|-1.326001|-17.305778|16.923668|5.548667|1.017158|0.684584|10.011595|12.505779|-16.271885|-47.140692|10.553661|61.773265|297.169944|93.574295|92.608294|225.415020|54.145981|-29.897680|-147.180160|-34.063459|105.714860|-107.920497|196.254226|134.813923|67.181361|14.067819|-59.072789|-24.445371|-10.052049|-14.883970|22.960403|5.622096|1.847045|5.404938|12.532288|19.298899|-18.155405|-21.531812|46.809016|39.452537|115.513573|12.130994|50.113625|67.695611|33.011022|9.909778|16.781169|-42.360761|52.539347|-53.334033|-28.414413|83.941706|92.931936|-60.343942|-50.535494|-43.608473|-17.977972|-24.174261|-12.911714|-4.854723|0.082797|-0.224966|14.229626|-1.039999|3.434526|31.524356|-42.163515|-20.166460|0.424291|-34.940813|-36.416421|-212.259973|-77.270243|-21.831631|221.452211|108.906905|93.940207|-98.499771|-114.937521|15.466609|-58.337930|-127.137590|-90.920561|-45.863880|-27.424874|-21.351980|-31.319509|-8.544204|-8.107756|8.299223|-3.333357|-12.318424|-4.655934|-17.526502|-67.629780|-163.632638|-79.144039|-244.830088|-165.196859|-201.403279|-97.386306|-52.119077|235.428883|271.731329|186.438764|23.570525|-154.560847|-164.331068|-124.674339|-117.910169|-84.210530|-46.845240|-32.076016|-41.694879|-23.949593|-10.727386|-8.664130|10.515566|-18.944791|-10.625175|-19.567600|-58.636359|-109.443718|-212.617144|-236.990013|-170.097895|-138.474753|-273.037850|-34.168476|94.025778|239.408375|387.497619|171.209446|32.631958|-155.252372|-267.157942|-183.114608|-118.714775|-83.125127|-52.227417|-35.888502|-20.829482|-20.064213|-2.415433|1.542806|-6.213358|-29.837576|-60.675353|-20.456541|-59.519132|-87.444840|-229.039363|-194.427408|-86.356199|-135.556284|-220.410182|-78.650828|35.813601|267.892471|258.950023|51.330864|8.274406|-221.586646|-277.960458|-162.098650|-103.571270|-31.967617|-44.594826|-36.530940|-34.947107|-39.384955|-1.555987|-1.821512|-8.961188|-39.429776|-33.802974|-19.337272|-88.731894|-98.610727|-88.815943|-63.197063|-77.922498|-114.022724|63.140207|60.545408|76.139734|153.067675|57.009999|8.472618|-147.511743|-189.996388|-205.187478|-72.204643|-110.782959|-26.869833|-60.183311|-40.615067|-51.729638|-1.423638|-0.832169|-2.528981|-16.005549|-28.214697|-35.517481|-35.437425|-107.366429|-86.651697|-130.003963|-95.222143|-83.334114|-24.848244|197.704710|231.046743|281.228746|149.028795|33.578014|-18.976444|-221.595514|-232.417525|-170.751870|-167.808213|-127.048090|-78.178010|-64.243072|-23.675728|-49.752877|-43.586956|0.316646|-1.740034|2.712105|-23.356691|11.717144|-31.516065|-19.641876|-65.783585|-16.435929|-21.740370|46.691782|27.829225|183.562677|230.664230|272.332050|-6.035820|-15.505213|-161.691167|-110.080692|-233.080998|-167.777862|-108.476555|-72.663767|-73.990114|-66.552159|-32.705981|-9.343575|-41.843422|-2.042529|1.368155|-12.588593|-18.101604|-21.501585|-4.377579|-10.709118|-60.419222|58.237073|210.475667|226.162076|86.303569|206.960052|250.260793|95.264839|-122.687099|-154.724982|-118.772551|-230.549869|-108.697246|-138.495895|-89.590269|-57.423274|-60.523019|-39.384682|-6.830285|10.624124|-22.364999|-0.834042|1.156373|2.644325|-27.972688|-34.428082|-20.966162|9.048809|39.657854|75.440452|54.847527|206.360590|170.689653|216.995978|157.052706|-60.000856|-261.126012|-307.145019|-213.382543|-175.817001|-190.522884|-61.990310|-65.201032|-28.197435|-54.375034|-17.185637|-8.981013|0.953562|-11.377859|0.893611|1.928313|-11.608899|-9.116209|-61.880463|-16.240460|25.134154|59.819286|113.009735|128.399076|178.360787|119.844658|78.406177|21.778184|-65.508939|-152.534750|-157.694786|-133.600115|-162.375833|-77.689585|-60.344339|-35.332635|-21.404187|-38.208627|-9.188005|-9.721778|-46.482626|-16.989769|1.233309|0.607710|-4.696002|-6.901199|-48.048160|-27.554012|-3.339634|4.027290|66.573396|44.167706|27.020064|70.209131|27.342115|-46.590288|-156.106949|-217.116258|-141.881348|-167.311708|-153.271655|-82.918097|-77.316826|-35.027903|-10.786107|-10.694978|-11.734696|-5.928697|-50.300007|-54.355273|-2.011040|0.194549|-5.673106|0.032672|-81.091297|-21.083508|-15.249976|-1.657268|-19.011502|14.289097|42.806049|-56.312548|-69.808546|-154.274977|-133.628772|-235.341805|-109.953373|-81.510537|-83.253062|-118.791156|-64.737781|-22.528869|-13.758926|-32.636290|-31.451557|-13.383158|-21.548058|-63.758048|-2.329559|0.318014|13.281401|-1.252713|-82.996945|-42.538060|21.785925|-44.071450|-16.028361|-30.458081|-53.222572|-80.053809|-24.473174|-129.314738|-132.322900|-235.470200|-146.027488|-67.914415|-62.633378|-61.896350|-22.322294|11.261882|17.690763|5.321480|13.220815|26.321355|11.479764|-36.208901|0.075560|0.368910|12.922912|-3.646265|-14.536272|2.723575|-11.171353|-9.033143|2.729983|12.413482|21.426897|7.895369|-67.140423|-69.455567|-122.544693|-92.186666|-62.176452|-64.473131|-42.206290|-18.308458|-20.046263|-9.072453|-16.792111|-5.933796|-5.462347|3.341718|3.086912|1.475888|1.168095|0.626950|13.112773|-6.206544|-22.606821|-19.454519|1.964422|3.329141|35.929059|67.581773|36.241625|-7.869641|-32.166616|-80.973833|-31.657090|-67.547834|-12.489717|-19.221910|-18.665518|-12.866905|-15.324982|-7.308917|-4.820567|-8.210466|-0.422510|1.828209|2.129646|0.767239|-0.181047|-0.008378|
~
0.613198|0.179565|0.042986|0.357473|0.214090|1.220773|3.134200|4.249051|3.983614|2.723084|1.795111|-2.120018|-5.973015|-8.931102|-1.488195|4.167013|23.916518|24.033214|25.041056|14.417846|-1.224597|-1.841912|-0.359310|-0.500345|-0.077030|0.057534|0.066625|0.629012|0.304193|0.301336|0.070708|0.971977|-0.845557|3.580626|5.757983|5.168508|4.624283|-4.213122|3.048367|-5.811493|-0.032448|-3.963518|-10.325220|-8.993525|16.859601|15.402139|12.678799|28.055934|25.575002|-8.183403|-0.713759|-0.520393|-0.431083|-0.145049|0.083722|0.000845|0.116921|0.150347|45.841356|20.302046|31.999154|13.087720|21.638665|27.327357|-6.240152|-22.398993|-45.715644|-35.062336|-44.743289|-99.211118|-95.137077|-85.932497|-40.073653|-14.495847|-2.930082|-10.802585|14.763305|8.361573|-40.126853|-38.327079|-27.423186|-23.661940|0.917145|0.353909|0.219487|0.000867|34.709919|-5.852040|-8.353436|1.766056|-9.341627|-18.082548|-20.734736|-37.237030|-51.262949|-64.604865|-64.256962|-86.152206|-117.015249|-37.371773|-24.023551|-39.408859|-14.180768|-0.736642|12.282204|8.863590|-12.228571|2.428933|-28.282563|-34.645220|0.143191|0.410292|0.101831|0.914884|32.440828|-27.900465|12.888767|-2.070950|-16.694425|-20.464691|-15.290866|-45.479751|-81.664408|-61.366266|-66.098445|-69.197528|-115.911177|-74.365576|-78.435495|-102.517508|-51.051193|13.694668|33.828536|32.601901|-1.042207|-10.396678|-20.038411|-49.913971|0.041567|0.611041|0.110636|0.557453|1.173795|0.927103|-0.559482|-18.982361|-22.547319|-20.669625|-48.491738|-55.922544|-64.458528|-121.808891|-139.304192|-135.816073|-184.755614|-101.930264|-131.803923|-135.790445|-74.498168|-40.615086|-20.046038|25.184484|48.766291|-2.346712|24.529649|-41.098919|0.307664|0.990841|0.053991|0.341295|20.151964|-8.445131|4.769940|-9.743404|-19.286015|-54.540058|-55.574140|-122.104617|-154.289523|-136.708356|-91.337138|-98.597075|-143.106441|-147.282624|-127.168379|-73.029045|-72.276403|8.627563|-6.431732|-1.859081|-7.888828|27.561413|18.919007|-37.265874|0.039375|0.371846|0.910650|0.329120|-6.479127|-15.984891|1.667005|-3.762389|-47.606577|-28.544917|-31.121129|-90.522782|-29.172707|-36.838293|-106.087653|-150.309575|-95.485783|-87.414036|-28.837042|5.737656|-81.747341|-60.720384|62.889707|17.681344|-6.674687|-5.157576|-8.467657|-39.278243|-0.293767|0.515239|0.259259|-3.799527|-2.833047|-17.641211|-12.346730|-40.941492|-12.313293|-59.452234|-65.403217|-39.817107|-20.354368|-121.474877|-36.072518|-45.581451|-45.712975|-44.370869|18.816030|88.175043|73.717855|37.119998|30.558606|4.727048|-29.923824|-11.249611|2.511622|3.418456|1.646206|0.975889|1.117379|-4.578477|7.608872|-19.586590|-29.259869|11.168115|-26.988203|-7.546319|-24.883968|0.436626|-54.218613|84.754902|23.728398|2.468212|-15.829959|-85.697136|-19.533295|52.660650|131.624133|43.823762|70.768955|-9.103629|-49.154641|19.849008|29.680668|-6.542494|2.826478|0.647306|-0.100095|-0.582829|11.075492|-35.806561|3.118746|23.832246|8.299410|54.102618|103.435370|9.235284|100.818340|219.176253|226.635593|-23.255440|-37.470872|-162.309495|-102.054009|75.278323|182.610555|76.524574|-17.612365|14.229632|5.809424|30.387314|29.173178|-5.483233|2.887751|0.402228|0.897964|1.528265|18.059856|13.479479|20.579792|60.507534|2.132521|0.113698|21.310216|101.202863|254.802761|262.012926|217.639881|6.799602|-84.331266|-157.225079|-294.393907|144.558404|159.440353|49.925715|39.446701|-68.703488|-0.604009|42.530585|27.290128|-6.803849|1.914131|1.362536|0.045369|7.517082|3.377351|4.537729|29.199694|49.233787|-29.348932|-66.116130|7.627783|135.616199|228.493085|201.664561|176.245566|-7.405532|-35.260315|-51.135105|-46.763275|-34.739185|149.674709|68.054412|-46.999366|-34.785282|-40.241165|32.613503|21.928370|-21.783889|2.015177|0.349348|0.492060|8.502805|44.162600|20.052656|9.265657|28.988975|-32.185954|-129.055017|41.199200|8.798126|98.049882|5.121092|-86.969579|-116.992636|22.994265|69.295763|152.849339|136.108125|67.795349|-31.885996|-70.542966|-49.325932|-31.131999|37.125564|48.720990|-37.090199|0.213895|-0.200638|8.430160|5.347790|35.492716|14.724729|-9.239546|-7.301121|-0.316561|-121.109722|-79.756090|-195.286250|-281.730863|-258.036755|-286.538575|-171.835705|32.006879|44.030177|99.513621|56.233739|-1.542878|-147.923854|-100.301632|-82.627256|-38.077305|18.684204|23.407750|-27.404905|-0.016928|0.148949|9.883979|-0.396499|20.194738|-10.791512|-56.252801|-53.190299|-13.799792|-204.444066|-229.467291|-327.181077|-381.649222|-154.867544|-56.295026|-176.371311|-36.254425|94.047550|52.040196|-46.490747|-86.722939|-81.333227|-122.573889|-96.137137|-69.377001|12.795542|5.330798|-27.452450|-1.223500|0.310250|7.980907|-11.755520|5.355580|-35.158351|-55.397965|-28.263438|-20.142601|-122.540276|-172.541466|-233.197224|-289.162768|-72.908103|-5.083016|44.528353|38.781303|51.465518|56.531416|-98.911926|-120.112638|-138.831001|-124.840552|-123.020175|-32.418568|22.906873|0.291148|-43.741545|-1.578430|0.294642|8.807558|-14.296632|16.885683|-29.116146|-72.441641|-48.768262|18.298022|-61.218499|-74.656776|-159.853785|-11.393938|99.737563|15.015443|38.246045|51.094390|201.845498|27.712546|-111.638192|-157.989317|-86.547795|-86.827500|-88.127775|-19.502298|-4.681298|3.414807|-39.982283|-0.827707|-0.141223|3.861657|-13.564202|7.109269|-29.338102|-88.416136|-77.484926|-52.093252|-22.032471|-35.707351|-43.863093|141.272823|112.048612|28.231500|-36.388825|178.006890|-66.422726|-246.608507|-138.890410|-139.501674|-165.263344|-111.333205|-75.455367|-27.795924|-0.168796|3.322535|-46.179977|-0.037016|0.496093|8.334910|-8.425445|15.860852|-40.047008|-85.153802|-55.043714|-41.431159|-48.733272|-49.504896|73.966711|85.097009|74.826962|98.806513|111.007120|188.191044|22.250573|-155.462415|-179.567474|-203.749942|-126.640259|-97.893697|-88.852693|-42.469278|-25.664961|4.389591|-42.440934|-1.128597|0.089466|-3.858985|-10.549842|32.071883|-23.259930|-51.242376|-118.447779|-26.196883|-0.952618|49.366487|-20.214667|30.950510|96.776580|138.828035|102.161351|-34.111669|-174.385697|-207.549178|-219.881053|-181.901998|-93.088715|-38.953202|-56.296265|-28.964311|-12.893888|0.620876|-45.398632|-7.761322|-0.199006|1.281435|-24.124599|8.453484|-23.905941|-26.472713|-5.342435|-16.103355|-64.333755|53.993019|-26.222915|-12.406983|21.953428|109.474101|43.894598|-131.502347|-166.792772|-195.333490|-170.995335|-113.019199|-69.580505|-21.440497|-23.929275|-0.418178|-3.126088|2.502602|-28.789461|-6.411112|0.839764|-0.247172|-10.038299|-0.791771|0.190353|0.448250|42.058685|31.285994|-5.389788|18.017084|-49.003219|15.055417|85.769323|10.312038|19.804064|-18.670181|-62.726793|-196.727756|-36.911747|-58.044216|-12.625397|-10.044027|6.447190|33.837062|19.595736|3.819667|-36.923263|-0.536038|0.786898|0.713168|-9.749369|-8.118235|-39.720628|0.972226|74.822623|97.209152|112.052946|5.576259|29.261805|65.886564|82.777499|13.440279|-3.164103|-42.272819|-154.181210|-214.687065|-95.134162|-18.998260|-19.548616|-6.296638|40.915059|19.129808|18.202664|7.534931|-36.050347|-1.215376|0.897543|0.210382|0.119265|-26.750353|-32.623801|-0.131728|48.003608|26.370576|47.196560|30.890460|-29.747273|33.374453|10.438913|45.398966|-23.730742|-89.869706|-66.067806|-94.942491|-91.973243|-24.148912|-39.259151|-8.365374|7.873074|-49.804564|-0.873753|9.259282|-55.152935|-0.170388|0.145123|1.219288|9.010761|-62.520123|-50.731913|-26.652434|-20.763060|-15.681228|-11.233806|-3.887315|-48.689341|16.400563|-6.724532|41.696755|-3.814827|-3.410162|-61.449948|-99.976898|-84.606793|-16.431382|-42.047131|-33.315479|-11.981531|-24.838923|-23.563423|-9.968266|-41.989360|-0.221754|0.182227|0.889484|9.771634|-1.562355|0.443291|-9.612733|-9.561977|26.720115|23.940386|43.779090|4.058703|-28.484524|-72.549857|-90.579389|-41.652204|-47.558842|-85.946715|-83.162129|-69.518329|-26.930023|-10.871927|-13.796735|-9.197474|-4.279212|3.317601|3.381895|0.608951|0.053554|0.542999|0.237382|8.986940|9.271356|-2.331972|-1.292028|-0.675185|36.575092|42.204218|61.264949|61.381112|2.778589|-39.592356|-35.920634|-27.665455|-60.271080|-45.141609|-42.773748|-31.455268|-6.135630|-12.115046|-3.905843|-4.312924|-1.332522|2.622111|0.754598|0.382808|0.035334|-0.487761|
~
0.456221|0.981323|0.713475|2.974396|-0.986510|-3.887227|-3.911751|-4.052241|-5.406482|-6.008200|-7.702245|-15.977315|-19.268786|-16.486162|-6.599168|-30.130009|-39.072195|-36.947051|-30.056265|-24.390094|-34.865554|-10.133004|-7.239057|-7.421098|-7.115426|-6.626676|0.820991|0.493672|0.742165|0.593383|3.136694|2.691803|-0.924090|-5.056116|-5.369072|-13.566581|-26.920005|-27.547037|-31.933527|-47.539471|-33.971036|-25.660614|-48.971282|-85.461211|-110.503960|-77.122460|-72.860922|-57.033045|-45.140405|-55.225299|-20.485419|-8.061045|-7.364961|-7.087576|0.464179|0.659718|0.379309|0.285170|40.604400|96.785683|71.499228|20.052452|26.387362|22.500227|1.479552|3.850919|37.854527|-19.305855|-48.769807|-26.994256|-41.785857|-97.802528|-72.573493|-0.925612|30.841424|40.237878|40.499639|16.783846|-32.951259|31.315642|31.158367|14.595421|0.720585|0.416511|0.348495|0.184764|-35.909449|34.297432|-20.322296|-27.787035|-48.511825|-33.244877|-37.326744|-40.790861|-73.624714|-92.485160|-69.315113|-83.063875|-166.049746|-168.586803|-170.258876|-122.797115|-120.049291|-86.431052|38.587520|-30.959099|-38.101136|0.673024|-27.728271|-45.360006|1.263363|0.162301|0.131987|0.553109|-10.649415|23.622467|16.905513|-18.715026|-52.195924|-44.295112|-27.689318|-27.485599|-51.950178|-63.223545|-51.468713|-52.118407|-41.033720|-124.003367|-132.199792|-196.487102|-241.181388|-128.491865|39.282703|108.942984|90.000501|61.782307|97.172717|-13.119437|-18.874645|0.433930|0.271372|0.522942|37.631731|18.797254|13.311436|-19.694033|-29.672843|-36.713161|-18.422031|-34.139459|-59.672022|-77.874233|-66.527321|8.056148|14.855958|-0.176801|-71.137145|-219.872678|-300.506627|-256.827343|-128.499125|-25.994872|137.610614|115.517063|110.685112|10.013763|-27.035745|0.199485|0.503432|1.636248|20.384568|30.508190|16.396415|22.717155|22.935189|5.707701|-38.566501|30.683438|-81.107869|-126.284472|-118.724041|-142.778578|-75.089002|-24.145013|-74.770049|-129.726104|-237.998082|-188.159803|-139.604217|-64.188733|114.065628|99.540158|90.110167|-12.547178|-27.526014|-3.825666|1.918728|9.824094|22.275078|75.869754|56.492453|28.909592|31.400646|15.125429|-52.446249|-11.207308|-111.263260|-76.753044|-7.291650|-27.143114|30.927322|-38.593553|-7.830826|-253.037117|-276.365495|-94.648221|12.375952|35.975502|86.505699|170.047162|69.907145|-34.245630|-23.231114|-3.423026|16.529972|21.204958|41.635445|100.041771|96.409684|48.700766|81.230042|43.747168|8.653220|-121.178047|20.746450|-28.971901|-88.531165|12.491352|47.969361|3.826714|-115.202643|27.070096|-94.907731|31.790439|44.171928|50.824324|64.025447|118.927485|6.472545|-22.909529|-22.814060|-3.503098|14.345895|26.746216|62.776372|65.946053|85.288938|37.771950|61.329108|49.213296|81.940117|-6.580382|50.801238|51.453063|95.337083|177.312344|-101.593754|-161.810116|-117.970010|-234.829761|-68.974015|-95.924494|-124.137172|157.479959|106.149882|123.942723|33.832198|45.344776|-17.706329|1.430422|6.431387|8.020373|66.953306|29.700270|52.950043|37.683022|46.183343|149.227654|59.862383|144.652440|23.579647|95.245600|-26.286604|45.702089|73.051986|155.864476|-111.834979|-56.875568|-81.280231|-60.603535|198.789207|54.965668|95.240934|104.427647|34.665561|24.350936|-28.011704|0.567587|2.504759|9.057517|50.450793|38.616538|32.970780|7.862883|-15.154664|107.712739|18.946656|128.152883|75.278044|106.798181|179.180846|-1.897714|-25.900068|-190.739191|-181.613344|-211.771253|32.449368|127.821335|355.430022|21.878823|6.069166|42.992038|4.291002|-14.734199|-32.053230|1.994331|9.082005|10.006689|77.661690|-7.451370|-20.963358|-60.206168|-40.749716|5.319655|26.685641|138.700298|113.254798|67.176913|66.642419|82.640482|68.892072|57.402029|-93.068193|-159.252269|-35.916060|372.503483|143.573969|89.911749|-9.847485|-18.064410|-48.912229|-18.663939|-21.142583|-3.843618|7.471565|11.096711|56.037905|22.888261|-16.445043|25.780536|-26.785552|62.398845|-15.905406|198.791523|3.856632|59.932483|25.344804|12.820601|3.247207|-70.308124|-154.364043|-15.102062|315.165469|494.707182|283.755418|8.515426|-0.692732|-36.417880|-60.403847|-87.624956|-59.701728|-4.401691|11.201674|8.688521|49.490299|-0.961165|51.015558|28.658304|40.954184|46.082627|78.823947|-26.145420|40.785745|-114.766116|-57.226641|-149.199272|-195.099355|-308.115098|-249.282483|185.394875|222.748258|279.831099|69.646703|-38.569149|-92.573298|-171.733369|-124.245986|-85.609889|-61.838087|-4.401735|7.196539|4.243760|-10.234019|-12.872260|65.925337|8.603485|11.104229|-44.885114|65.828982|-97.073008|-151.371889|-241.492063|-289.326043|-318.607031|-287.853667|-226.621560|-203.760730|99.679918|367.758604|230.772031|-18.586222|-144.103339|-203.168340|-278.243697|-135.748700|-85.432406|-81.844014|-20.584732|0.146980|-11.498430|20.978681|13.498688|48.985906|58.567285|-28.415086|-33.194317|-145.875536|-175.003759|-353.334413|-276.354799|-350.462463|-190.378093|-276.908803|-274.259712|-46.370738|225.036868|196.708109|382.132727|-143.706377|-264.761424|-285.713868|-232.935184|-136.292355|-132.266686|-74.789056|-39.869811|0.912157|-19.060926|35.112477|44.928514|35.638340|35.707189|-7.633977|-68.377696|-77.269981|-111.362131|-175.498468|-256.996200|-320.441788|-286.780563|-269.417213|-124.375541|182.868710|204.609147|562.030667|28.243346|-52.576248|-424.842419|-400.178003|-260.667674|-165.710274|-113.664461|-50.787776|-27.767050|1.969301|-17.027835|62.681473|68.663534|75.518729|30.141000|-54.797403|-62.748195|-54.596031|-42.158402|-196.009462|-405.990385|-348.527248|-212.487580|-103.634166|-164.022055|183.067288|224.405525|366.049507|-20.383756|-219.016056|-405.179326|-206.055256|-239.404822|-156.809229|-132.675038|-47.769877|-27.384803|5.403818|-17.070147|125.222143|53.263838|77.769822|27.968640|0.636356|-110.642301|-68.099594|-15.634026|-99.816753|-168.920954|-118.508764|-53.034980|-81.434647|198.245177|478.522892|361.933415|268.965406|-35.114101|-377.945710|-320.458225|-177.947520|-249.545183|-133.708224|-129.959665|-33.432131|-8.351628|9.949912|-16.573249|100.124786|69.711869|73.392681|-33.203113|38.804829|-27.563713|-18.260919|60.177789|-25.950497|-18.216651|-144.568762|109.641351|68.969624|163.806644|325.393045|406.501036|264.870888|-122.449136|-282.012692|-233.913384|-115.943018|-153.477018|-141.870070|-75.210546|-26.618365|-8.117026|7.842931|-28.585860|93.697711|75.061117|48.555930|-16.892391|51.863823|16.271992|85.432995|129.608019|241.146510|15.670857|-56.536117|-14.423807|-15.886116|160.815530|368.216249|154.795930|-71.858682|-322.964232|-219.999078|-324.205311|-224.699585|-249.048553|-113.815450|-17.151636|-33.114625|1.081176|-2.113008|-25.908334|74.537182|46.325592|10.988230|-14.493430|-37.266673|44.366610|27.500481|201.169702|38.390182|-47.490940|-43.155306|123.997239|147.626035|272.191683|367.603351|75.903290|-186.940651|-419.950728|-374.383072|-322.112747|-154.327568|-188.502844|-122.093086|-47.377600|-22.489973|0.389052|-3.648512|-26.304108|52.821059|-6.530408|-35.325697|-106.485353|-112.800856|31.958981|-81.839481|-108.969112|-98.890085|-55.941157|-29.826983|145.437097|72.822257|229.390279|277.583397|68.715583|-222.145072|-308.447666|-321.234382|-221.417400|-187.983937|-170.032749|-102.139304|-46.031224|-18.801529|-6.710622|-4.554029|-19.278839|5.002255|6.905571|-56.854700|-50.165686|-41.382885|-123.394490|-45.924454|-59.636419|-118.359467|-121.264288|-93.431064|88.485661|182.122362|158.881503|131.510359|-10.038098|-300.641422|-249.533643|-319.335472|-224.780759|-160.755025|-150.311132|-76.046408|-77.915382|-6.909997|-6.262818|7.031046|-6.303582|0.942394|-33.499249|27.511730|-25.903090|-17.758997|-8.916391|76.358093|20.240359|26.724250|-80.372807|-45.019058|104.559772|256.958441|137.359505|166.611669|-28.753801|-179.717386|-296.448191|-266.046187|-169.567006|-122.582933|-96.883456|-53.788499|-51.811409|-9.007869|-6.365225|4.191408|4.995276|-17.151252|-52.143603|-54.240884|-28.112485|-12.735229|-4.760549|-32.239755|-72.421630|-142.890795|-71.963539|-29.397092|148.825211|177.197013|17.688579|-35.782198|-126.512580|-192.655613|-189.029348|-154.832809|-119.935976|-77.697257|-65.493321|-48.411541|-43.858087|-8.560389|0.238112|4.981721|2.206285|-28.289059|-47.529612|-36.267168|-73.476282|-29.544884|29.261854|-1.342038|34.419170|35.245034|46.981089|114.513380|147.089246|75.773263|65.355067|-39.173209|-251.432438|-203.780132|-217.916142|-109.632037|-121.500929|-20.851226|-67.581296|-37.584479|-43.524185|0.957735|0.562606|
~
0.466946|0.434281|0.809792|0.375440|0.301709|-3.133479|-5.074495|-10.157081|-9.625537|-10.131501|-0.702807|-0.718086|-14.666047|-16.477205|-18.210313|-7.711134|-19.183891|-20.986733|-16.452538|-15.165921|-14.428975|-13.053661|-8.329196|-8.645894|-6.921026|-7.426305|0.336810|0.509521|0.843818|0.173011|0.136163|0.394323|0.429670|-4.619751|-9.575447|-9.297628|-10.530159|-1.344100|-4.324917|-28.851662|-32.445607|-30.888402|-30.129556|-38.371445|-33.176889|-42.060799|-49.949081|-41.182527|-42.210003|-32.149825|-17.291072|-19.934096|-7.722755|-7.333816|0.112271|0.998947|0.183415|0.449081|-1.629357|13.812221|50.603980|15.203285|33.165629|18.583730|-11.890339|1.524412|-6.023003|-6.893210|-19.115687|-10.706651|-7.873670|-16.754114|5.044191|33.431451|26.448704|7.593591|-6.696496|-7.935322|2.639499|2.854916|46.864382|72.697841|0.944745|0.535924|0.291522|0.057016|18.694271|28.366231|17.966450|-11.012462|-13.496539|-19.547230|-26.697799|-38.856189|-51.068890|-40.878929|34.057449|-20.939987|-88.213351|-78.629222|-51.760530|-21.053716|5.727192|7.015500|-14.114030|-15.180638|-10.978646|6.001901|-16.568668|15.642410|0.777724|0.271374|0.137686|0.766173|54.469654|48.094250|33.857045|-10.967271|-42.949217|-27.370785|-12.304538|-42.168987|-33.861990|-50.612880|-27.064339|-48.279327|-58.913772|-59.267450|-8.471589|-5.616444|-13.181907|-21.660731|0.283111|41.511113|20.802307|26.759222|4.734947|15.958994|0.993458|0.355864|0.493997|0.771181|15.244798|14.813021|4.450733|-8.154061|-15.459226|-39.551364|-24.744112|-16.674460|-7.268213|-32.867281|-51.697050|-70.367909|-154.438325|-117.754515|-61.222014|25.483185|-34.530982|-17.371081|17.716795|22.111724|-13.216089|-0.849966|-0.994474|17.415951|-3.016756|0.175986|0.727162|-0.130046|23.413080|-4.525566|7.015433|-15.825878|-11.274688|-37.724826|-43.397936|-16.698677|-30.492319|40.778955|-23.725237|-7.844912|-88.649709|-75.565686|6.278385|11.156150|-41.511348|-44.586934|-50.793059|-17.850862|-42.127359|-38.987119|-27.749275|-0.545703|-11.591639|-1.859186|0.401587|0.368630|30.139837|11.918846|8.156171|-11.999729|-12.984832|-24.554301|-82.536036|-83.200903|-73.801119|-54.872155|-4.485192|-103.617882|-63.516682|43.587590|-4.710015|74.892059|66.323869|-81.348182|14.327178|-5.908027|-55.471514|-35.198026|-34.426233|-0.185655|-9.414499|-11.752730|1.001231|0.008637|23.255298|-5.707538|0.978154|-14.179239|-37.878295|-54.966344|-62.885821|-73.903967|19.735427|-117.452952|-45.444943|-77.721949|-13.063573|63.576508|-24.081024|65.660319|133.000734|66.798082|-75.746511|-18.722332|-51.413981|-20.166621|-17.605305|-17.878399|-9.379937|-11.398572|0.492242|0.542366|20.735324|-7.694915|-1.504895|-16.598521|-36.127380|-71.344657|-90.212115|-55.878651|-101.848130|-96.464895|-38.311454|-43.909698|27.197803|172.112013|117.991322|79.013775|68.405135|82.073540|-34.089308|-28.197399|-38.219831|-25.916853|-20.496834|-13.948046|-7.525194|-8.191300|0.222302|-0.616286|-2.031439|3.235961|3.809686|-22.155833|-39.701603|-49.141214|-83.571404|-81.275695|-137.693948|-44.301939|-79.911081|6.534685|161.636436|75.870332|126.709610|140.287472|52.895917|28.286280|-12.672485|-46.521343|-42.392205|-16.623623|-21.480553|-11.250921|-14.560246|-8.586990|0.839201|-1.151937|-0.787221|-6.085926|3.793119|-12.096517|-25.842741|-72.364463|-103.922686|-159.546186|-73.903442|-100.096158|-76.179186|-102.655662|-111.604618|-7.379229|125.696675|102.218819|-21.188777|3.802407|-9.095465|-65.152302|-60.842531|-7.323372|-40.349122|-23.148932|-15.238293|-8.330886|0.952871|-0.378927|-15.822214|-13.663781|-1.251997|-8.409423|-26.085391|-54.580635|-68.717971|-152.971712|-69.195697|-162.918824|-158.758702|-129.766268|-68.529531|86.962159|162.271459|-1.469795|17.667272|-66.265753|-47.489520|-83.982898|-95.378933|-38.202403|-52.744102|-18.975878|-18.773464|-2.541588|0.435601|-2.724424|-6.097711|-2.678401|4.235518|-10.240633|-34.501601|-72.616688|-64.438793|-60.268527|-51.857392|-59.644018|-150.897603|-120.769159|-36.472648|90.056059|-24.383419|-87.359941|-155.010363|-160.036502|-43.273501|-116.813702|-95.703792|-57.674509|-45.731388|-24.394678|-17.443338|-11.126122|-2.592002|-3.456773|-7.795264|-9.923360|-8.747644|-25.610927|-31.423034|-64.465150|-5.743237|13.924962|-42.258399|-21.720459|-76.598278|27.607077|79.075710|2.480914|-98.793604|-232.802854|-217.313964|-103.852086|-125.390381|-130.252670|-68.386265|-57.842183|-32.492526|-26.019302|-16.695305|-11.275731|-2.023235|-3.164399|0.992653|-12.870004|-18.365403|-36.555045|-29.537308|-28.932736|14.229000|63.962593|-35.713240|54.378422|60.774074|158.598490|62.396048|64.688453|-101.852029|-215.195898|-119.120612|-111.838720|-125.019333|-87.267182|-81.298564|-71.035873|-36.100648|-22.926818|-19.133685|-10.741367|-3.330576|-4.064944|-5.222535|-9.350278|-2.098858|12.190218|30.626764|17.220702|100.048484|108.848839|87.876876|75.017260|115.576715|202.776878|113.977307|19.197339|-1.403841|-18.624860|-54.590958|-87.780869|-0.778086|-33.699553|-59.440250|-58.028976|-34.123992|-29.365058|-19.813672|-8.548796|-2.896167|-11.068606|1.866954|-10.758210|-16.354322|23.470079|48.148476|64.428019|67.146187|76.279742|149.896816|278.719457|208.218752|186.532219|88.713347|-9.689984|106.575359|46.850748|109.252505|8.888629|22.514647|12.789279|-35.447775|-50.901759|-17.773599|-38.071968|-12.680541|-11.546488|-10.363782|-10.431280|0.668441|-10.067048|-17.883594|13.444846|30.014339|39.195333|38.185050|130.633811|230.400546|74.678170|90.967305|64.062989|61.378032|31.609530|113.280053|163.600476|176.062135|-85.153969|0.643961|-27.210199|-47.160130|-20.511806|-25.655463|-20.649338|-10.838541|-10.678503|-3.287352|-12.627791|-0.120102|-9.430774|-16.375585|-18.412596|-28.945520|-44.434085|-35.272503|3.877328|87.008900|-8.920375|-47.963368|-28.150917|-49.668787|38.813243|6.014905|3.115415|-33.693427|-104.332687|-90.496995|-50.894693|-63.700940|-27.182231|-4.307232|-26.566627|-12.469860|-2.101635|-6.208572|-12.826663|-3.599774|-9.515278|-14.411061|-26.840089|-74.028989|-53.560964|3.848732|-18.196494|-23.794487|-147.394496|-190.987223|-165.346666|-59.704967|-95.610145|-46.748472|-46.725905|-79.912006|-32.656411|-11.500654|-34.045889|-45.161372|-26.366681|-12.673730|-8.263154|-2.993387|-2.521892|0.940352|-8.082089|-29.506200|-19.289176|-18.252902|-17.064358|-32.017474|-46.687451|-1.496304|-11.247766|-13.648149|-91.203763|-128.655164|-85.085902|-13.180965|-15.768991|22.847066|-33.497971|14.093436|11.075709|19.382561|-33.616045|-16.781934|-7.732647|-8.781934|0.755744|-1.481364|0.915164|0.373129|2.164866|-5.734752|-10.630819|-19.307877|-16.750155|-14.796635|-23.502241|-46.855118|-66.776901|-74.612534|-125.367822|-131.594023|-122.641390|-14.502611|-47.138665|-14.976357|-99.444787|-98.913627|-36.352672|-32.840683|-42.940320|-12.593595|-20.385378|-10.233787|-23.842637|1.401287|1.167972|2.465909|2.414006|20.210063|-3.809778|-0.464930|2.628405|-18.595456|-25.104994|-72.824686|-92.976175|-131.676585|-123.631448|-128.932764|-149.626106|-141.611139|-55.657530|-66.282551|-151.282714|-99.127766|-77.286554|-65.028341|-34.465402|-8.913215|-0.693395|-7.825473|-3.425973|0.520416|0.903129|2.588109|3.719782|4.346546|28.538470|19.578398|27.727754|0.209550|-20.235603|-57.181718|-92.570574|-97.521107|-94.124334|-87.729755|-108.365971|-74.689871|-43.752388|-57.055911|-38.796624|-62.633683|-57.712531|-43.262584|3.097708|10.458709|19.069132|6.867042|27.067917|0.245816|0.852852|1.577214|-0.767658|7.644693|15.838964|53.234556|63.088431|28.331703|24.452784|-14.846370|-20.583820|-33.859307|-59.890391|-68.102895|-38.128379|-27.436398|7.408614|43.502077|-14.872997|-19.928899|-14.345931|3.718197|17.213287|36.669820|38.433139|65.859007|60.503105|0.606840|0.671868|0.711730|-2.486998|-9.233111|-3.239656|-7.934939|-17.228356|-18.262236|-8.777784|-36.995744|-43.027838|-50.759615|-50.562616|-44.997987|-71.256811|-67.499174|-78.564921|-44.919343|-71.158884|-62.757624|-53.292544|-32.490445|1.567229|1.679698|1.041097|2.458468|0.780013|0.193125|0.864901|0.446937|-2.908722|-9.819947|-3.440335|-1.403023|-10.168189|-8.774357|-12.770667|4.210130|-28.690697|-43.670007|-38.413552|-32.016682|-45.709681|-65.650494|-73.564309|-67.509216|-61.304034|-45.500773|-9.251093|-3.157264|1.975588|0.140388|0.469694|1.614577|0.827036|0.821174|0.861105|
~
0.461729|0.874060|0.754440|0.441696|0.885400|1.172461|4.544011|4.680854|2.840593|-2.349647|-1.396289|7.605484|-4.418672|-13.213042|-6.911860|1.908844|-14.200382|-10.885264|-3.428253|0.620299|-0.821574|-1.099885|0.447830|0.063408|0.557660|-0.004803|0.274821|0.412405|0.931768|0.142142|0.274882|0.380862|-7.713316|3.408577|4.913611|-0.812156|-7.061007|-3.020671|-1.595454|-20.636117|-15.279772|-10.915598|-16.051543|-12.014729|-22.187788|-18.105738|-23.810510|2.139673|2.814405|-5.954316|0.502503|0.704809|0.862344|0.536259|0.157796|0.618689|0.828897|0.432617|70.408201|63.018192|45.327774|22.682134|48.467055|40.880329|10.826027|-0.407925|-7.420784|16.351925|-6.251351|-8.436860|14.036969|-24.680466|-24.293327|-0.140139|14.817466|20.130552|26.938325|10.050300|-8.828299|-3.957892|-20.818227|31.902754|0.225389|0.759259|0.719642|0.383185|56.268693|32.900847|-4.071389|3.971864|-1.342605|-17.559767|-10.777894|-17.827444|-29.706719|-24.842527|-19.162354|-21.895646|-54.493268|-77.029574|-78.023360|-68.295641|-50.413149|-34.683722|-38.844925|-25.015635|-13.125258|-29.429158|-48.732256|-21.214763|0.096548|0.927843|0.186611|0.342670|30.522745|-23.718304|8.156073|-5.690234|-9.440176|-23.931436|-14.479029|-41.021509|-54.659907|-63.028437|-38.657052|-54.613128|-93.757824|-75.161525|-86.740071|-108.927864|-74.525906|-27.469957|-26.263516|-0.193411|-15.849012|-25.630211|-69.563111|-35.433409|-0.519646|0.320781|0.383447|0.505012|0.221751|-15.806187|-10.834914|-28.066358|-34.283786|-43.449591|-81.713475|-74.330751|-57.974631|-115.980941|-114.357163|-72.117278|-97.863196|-48.462345|-110.771716|-137.348521|-101.138819|-59.746844|-69.385498|-15.253523|-9.708283|-15.618708|-27.966149|-35.799551|0.074901|0.529791|0.241461|1.276513|12.517428|-29.929787|-18.525644|-40.117426|-65.907848|-82.596182|-110.319071|-153.080584|-168.094548|-99.608975|-30.295595|-43.636143|-67.604162|-21.647833|-22.662637|-40.761779|-130.759718|-78.033654|-83.435427|-55.598006|-32.106152|-28.050326|-41.558305|-33.195012|0.052831|0.252581|1.461034|-1.323767|-11.611008|-25.773869|-31.855380|-54.119973|-106.797680|-83.062900|-118.338209|-110.083508|57.007450|-6.776668|17.506827|10.800101|68.829852|43.803114|78.472296|36.973533|-38.583298|-79.096825|-8.477584|-47.792570|-35.588123|-28.113608|-58.726980|-41.214482|-0.277934|0.741941|7.911123|-8.847840|-13.543515|-17.069343|-29.569654|-68.853381|-83.216020|-64.231431|-35.987968|-36.538763|9.422208|16.896038|53.525523|-47.204303|11.851348|-47.018380|-32.380423|82.789031|39.999376|-47.280488|-69.161302|-29.102749|-47.809873|-34.099696|-49.918311|-13.837169|0.943834|0.126375|0.733967|-4.956199|0.043105|0.752190|-45.024018|-42.256210|-37.577506|-60.525250|-53.712421|-30.288316|66.629524|134.789662|49.268930|-50.972416|-27.930789|-110.661205|-70.587404|-64.578984|75.060170|45.163508|-30.392203|-70.889418|-78.002784|-8.461118|-38.940676|-18.036894|1.860537|0.057801|2.278989|3.719730|-13.032613|-30.015488|-14.055814|11.275808|-26.195868|19.122601|13.890200|69.081980|115.678981|26.757786|-11.434931|-149.634284|-127.273353|-197.282078|-127.781799|13.914511|29.040695|88.639682|3.345778|-63.819838|-32.557548|0.444176|-33.817415|-13.808535|1.485949|0.307378|1.248391|-6.270271|14.962837|1.817124|-13.519640|24.019680|-60.307317|-54.967937|18.200169|243.936985|140.460669|111.666085|-14.708711|-186.955211|-166.543862|-159.188059|-231.337503|6.715787|117.710946|139.150372|21.746469|-84.898796|-20.514972|0.658480|-37.302334|15.542718|2.109399|0.439581|-2.515864|5.004303|25.556691|5.791750|-25.015384|1.965933|-73.725738|-126.501203|-95.778105|238.648892|169.499742|80.421815|-100.301595|-189.616563|-131.605011|-120.689716|-79.610760|31.462875|202.292585|167.801003|20.097158|-14.787869|-43.254387|3.678467|-38.704115|1.539941|2.040427|0.361574|-4.913446|11.827580|18.109325|35.499205|-23.705768|32.619154|-25.700668|-57.527080|-10.246376|164.557293|144.032566|38.949537|-172.154032|-139.406875|-67.289963|93.699906|13.225578|141.781740|174.132588|61.633727|-3.806281|-56.034753|-36.606550|-15.979976|-23.790505|-3.066947|0.487534|-0.231433|16.441635|4.191889|29.057231|25.899604|38.148956|63.688545|79.868392|-39.313436|28.488820|-61.586902|1.605931|-242.568866|-253.229353|-105.571642|50.741976|46.849751|64.787868|128.475613|31.465921|-22.367448|-45.946252|-88.835959|-41.837120|-18.360368|-35.856064|0.482409|0.702577|0.050405|16.928670|-15.651486|14.860588|36.945579|34.663227|13.752184|113.083358|-6.111379|-84.858334|-120.739805|-180.062114|-193.247163|-89.882761|-79.181612|78.858741|204.646983|44.690029|3.725064|15.616791|-43.028385|-99.678178|-79.686322|-59.335237|-23.286932|-40.940812|-2.533870|-1.974122|0.342911|15.174106|-28.079145|36.385283|9.693351|20.754685|119.961535|86.748053|46.586955|-142.997819|-151.621820|-183.547840|-27.964377|102.682498|128.237515|81.704953|186.467061|153.187264|48.608784|-90.386986|-61.720579|-54.055962|-23.626582|-42.275318|-16.490470|-48.772702|-33.802707|0.194749|0.303315|12.014661|-14.792771|-2.983392|49.052262|-17.639532|122.489899|139.265407|-0.062750|-86.795139|-188.242744|-24.351912|140.887677|88.225528|24.720527|18.784742|96.036870|99.600867|2.572369|-34.664695|-67.122970|-115.997125|-55.003395|-28.145957|-17.115525|-28.377618|-32.281803|0.158824|0.106025|13.186338|-40.105647|-5.116705|30.312331|-24.045983|64.155592|2.165556|-63.104637|-149.336714|-198.600799|-73.782477|83.001975|2.434556|89.938737|119.654375|-40.671535|21.248280|-18.505254|-25.922270|-90.588737|-92.810775|-53.831785|-45.323308|-13.549829|-21.649080|-30.445251|0.702275|0.221412|-12.006056|-27.175678|32.973165|8.636960|-40.865368|37.153371|59.369181|-4.076174|-120.131313|-35.613447|-13.927356|-31.052949|115.220903|208.070106|149.806108|119.528955|19.901842|-26.824919|-127.698650|-80.763681|-67.337481|-82.010821|-51.073836|-9.978466|-3.574881|-25.823125|-0.944557|0.001321|-5.760366|-23.162335|8.108883|11.907672|-17.586201|-30.391814|31.209652|88.108475|42.995934|-12.081862|-55.172005|-14.653355|76.735655|230.544809|64.435080|2.756052|-44.451724|-126.680649|-131.178377|-120.247855|-56.521630|-30.726765|-35.241953|-5.066743|4.837669|-12.747955|1.421426|-0.094977|-5.853842|-28.147746|21.862985|39.434468|34.014838|33.817026|13.035114|56.389787|148.197474|86.746800|61.867012|90.023734|119.591557|17.899257|-164.063347|-132.764937|-100.001951|-173.924898|-116.006160|-95.099488|-19.957863|-42.467109|-5.292996|4.025083|-0.486891|7.185465|2.326693|0.891440|-14.336825|-8.867141|34.602015|59.855496|75.267604|28.257604|-0.307343|32.787962|165.069376|145.349433|140.242726|104.777088|-3.881147|-21.760268|-20.628056|-67.044145|-172.186954|-100.469920|-109.913598|-40.419326|-10.485611|-13.142247|3.329222|3.947972|-17.124403|3.656661|4.987418|0.686890|-3.898772|-10.266695|27.880974|13.227981|2.414554|78.004108|70.000900|68.263161|37.445808|14.062643|66.613359|-4.694727|-23.509256|-56.079584|-105.689872|-115.776372|-190.986074|-135.037094|-66.263105|-55.406164|1.639214|10.443890|6.320632|6.224945|-16.574065|-18.239609|4.181592|0.034606|-11.717116|13.373590|41.254667|-9.888372|4.930496|19.267435|-7.113983|-11.915141|-49.072028|-65.704019|-61.768775|-76.404204|-87.876780|-150.395296|-75.394341|-27.542276|-42.568635|-46.128044|-41.967440|-13.446074|-0.011878|-9.754072|-28.773553|11.976439|-10.637020|-12.233795|0.265420|0.061171|2.954122|15.667657|20.938270|10.532752|56.218990|32.113799|24.890590|83.549002|66.608735|43.563872|52.666885|55.325245|60.695118|-14.176212|27.436359|23.681111|-22.060995|11.993051|50.793176|35.237481|38.929617|30.606747|48.294170|55.803640|66.815239|64.521683|0.186446|0.747840|7.257548|9.746062|20.186406|-19.464725|-26.090696|16.501971|56.295240|1.008929|-10.284670|32.842580|6.253876|-16.245800|-37.451252|14.886421|-8.388110|-20.686754|-56.643164|-33.152670|-33.664322|-14.513926|-10.845172|4.580305|10.761415|11.725366|5.984649|1.486851|0.479381|0.338698|6.756267|17.191709|-9.507319|-17.296964|29.867577|-23.411674|29.153694|46.410535|63.531993|56.885986|1.048176|-4.188324|23.552482|34.240065|2.682119|-22.114165|-57.749382|-22.007746|-12.916709|-17.399347|-5.208667|4.164494|4.810972|4.101133|2.938478|0.755324|0.157339|0.304738|
~
0.221971|0.943671|0.163523|0.422723|0.619637|0.124081|0.067077|-3.730837|-3.616591|-4.401003|-12.930018|-17.435559|-10.440588|-4.401769|-26.682962|-27.742832|-18.352411|-20.348381|-19.258898|-15.228427|-6.718780|-6.882888|-5.028225|-5.327587|-5.604395|-5.393851|0.725583|0.929345|0.784891|0.205763|0.829458|0.172775|0.449062|-3.196616|-7.541363|-8.166154|-23.227671|-31.494040|-31.986679|-37.499833|-36.167443|-42.956260|-46.881453|-60.809161|-71.039944|-48.731856|-47.233357|-24.348707|-17.434141|-14.130144|-5.638778|-5.525311|-5.456818|-5.177053|0.366895|0.309462|0.811396|0.092478|-45.289786|-42.462027|-21.645783|-64.141586|-43.903071|-50.119429|-49.092979|-75.932691|-57.938472|-37.482923|-61.829233|-64.649445|-73.569303|-77.017172|-85.793533|-35.408310|-15.600663|-75.950257|-53.920197|-36.072265|-79.107835|-81.123277|-77.695447|-91.224181|0.099721|0.232873|0.453384|0.466617|21.736247|24.609278|-17.875577|-7.597758|-18.252009|9.831472|4.857670|-10.711837|-23.660822|-26.187313|3.260918|-23.826061|-43.864402|0.353211|-33.621452|-21.774683|-35.333108|-62.117983|-7.344532|-23.936207|-0.854494|-5.213704|-14.844021|-24.123541|1.157043|0.024360|3.280679|3.338242|11.875356|67.827835|43.801860|27.806316|27.663859|27.980138|13.012372|-26.102530|-10.508209|-5.201255|46.140513|49.037582|129.522975|50.211940|14.395799|5.134937|-43.515850|-12.932860|27.342922|67.602344|63.154327|45.610960|27.161229|-39.442294|-15.942654|0.741184|0.481713|3.231796|17.400196|18.685795|9.070048|13.910524|-34.569213|-58.327224|-72.875789|-104.649827|-66.145174|-48.821285|61.576806|4.176455|34.925089|35.720132|-43.342956|-93.855883|-48.623145|-0.469098|23.191302|29.949998|149.793820|119.830325|18.782282|-59.599535|-15.903053|0.752889|0.127257|3.814229|35.342920|20.556804|22.199836|-22.543206|-41.887650|-75.828175|-134.641032|-145.539580|-77.636847|-34.201491|73.927065|-65.229553|-36.852769|-19.323108|9.774709|3.874591|-13.052901|33.824726|14.406439|53.669485|114.159585|130.142446|14.010193|-53.237302|-14.826752|4.191180|1.973601|5.531467|6.904010|56.240732|-15.479243|-35.528473|-69.912748|-100.026944|-108.968456|12.716680|58.047622|96.478030|8.096414|-171.540412|-167.513963|-145.295262|-63.023422|-159.214734|-124.481865|68.567747|199.420331|163.331776|137.062843|133.062268|-4.820146|-77.152769|-11.924281|4.238447|6.406376|13.438820|7.813584|58.738570|-19.120785|-61.139739|-64.179076|-61.728400|-14.751629|-5.962545|173.645628|48.482281|-67.652148|-147.448092|-96.615198|-168.492250|-133.301550|-45.371188|43.728961|50.536242|217.031640|159.560047|132.667928|124.600810|-35.998622|-60.823120|-12.274234|4.820418|6.299836|12.513883|17.869491|32.773516|-35.660946|-45.139141|-49.731559|-41.570206|146.824629|156.459772|95.156860|105.285994|-75.184646|-28.301287|-70.759086|-140.088742|-216.657293|-96.593700|-1.771924|8.566143|41.256939|271.235077|170.211530|73.596937|-10.276838|-9.405286|-14.590518|1.312236|2.321527|3.389947|40.356093|-9.056422|-9.487661|-18.430323|22.891325|141.839401|98.106257|107.116653|48.329585|44.484900|-63.235984|0.239048|-136.434857|-189.615262|-132.582105|96.032165|228.683157|111.058938|139.318732|197.224751|70.307365|69.562711|2.467616|-3.509867|-25.279348|0.844898|1.891106|7.946980|52.921531|20.995138|-31.133364|24.756404|15.159825|51.146046|65.455747|100.557057|132.932145|79.049198|-66.897318|-37.115111|-150.247547|-174.617741|26.354582|145.388013|163.859591|242.552770|212.998377|-50.199420|-43.115378|30.574515|8.513103|-58.747240|-28.131324|1.572256|7.020765|9.151208|38.755078|-35.334769|-9.597960|-26.699023|-0.494020|70.583220|-24.243444|139.110441|28.650853|63.618421|-265.775264|-176.307491|-263.110630|-333.563029|22.044351|87.014119|312.606892|270.158839|-64.996182|-154.784967|-209.301586|9.047038|-24.692337|-57.963907|-7.603926|4.519519|5.734341|7.194357|44.222989|-43.489965|-37.439762|64.307199|-35.900792|69.460309|91.583627|-20.120061|-100.304467|84.963464|9.942098|-172.570239|-159.918932|-117.672713|1.358291|294.028383|361.378891|263.703352|-172.765084|-293.591859|-229.639711|-47.604963|-27.485160|-110.746355|-55.795210|4.131038|4.414898|23.818489|11.335095|-51.673084|6.786776|51.573941|26.196874|66.890159|86.545683|-65.168232|-174.664057|-0.609448|-1.664685|-23.998805|-135.747876|10.385320|99.433014|285.772443|248.874176|-37.671266|-293.708830|-290.616256|-255.347709|-107.151198|-68.973654|-101.416734|-43.322707|3.879717|8.002525|19.995143|14.131850|-63.656147|-5.048073|63.622416|146.846998|25.104512|-26.920382|-167.472441|-225.547260|-137.198910|-168.759891|-444.416351|-164.223366|-66.105903|186.408202|187.332034|17.943836|-52.977582|-257.045678|-227.100565|-211.967965|-116.396968|-79.865526|-102.290686|-49.571602|-13.508409|0.024979|7.698240|1.995413|-74.079004|-2.205270|106.798241|41.611509|-44.580355|-177.716703|-142.880105|-201.379321|-224.996288|-202.334377|-167.862767|-138.912865|129.617349|225.129451|296.925466|56.126921|-47.442701|-323.262198|-191.301571|-78.054240|-68.359237|-91.889438|-125.519956|-40.958555|-29.635643|5.104975|-5.670149|11.306255|-55.025194|-17.795091|84.723579|78.817506|15.841036|-206.385012|-76.904791|-80.315300|1.276071|-80.026446|-185.445554|-63.782778|256.231115|410.310764|345.079372|50.137161|-253.445596|-353.581724|-302.041044|-165.143180|-92.331439|-105.547347|-112.498715|-30.431739|-13.039288|1.408403|-1.548644|45.993734|10.836437|-7.123044|64.441859|6.432940|-15.396356|-161.276850|-73.623918|-251.183490|-220.232840|-255.204481|-13.519462|122.643485|230.458191|393.266644|218.535522|-307.108328|-385.258898|-389.334974|-254.026404|-50.829339|-49.307505|-97.687034|-121.219899|-31.320015|-12.204967|3.840870|-9.130067|92.266654|-18.337988|20.650449|57.318661|56.075251|-14.825949|-42.980348|-66.618149|-162.050996|-75.700704|-198.614794|155.814696|234.857886|370.713843|368.035407|5.681168|-302.213266|-353.397509|-259.839613|-148.067382|-69.683159|-127.066611|-89.368277|-116.128031|-14.443317|3.985879|2.128488|-21.266063|62.675147|-7.217147|13.882395|4.690843|13.643138|83.118115|17.779323|18.529393|-57.486892|-124.851193|-84.006073|85.544577|380.809673|381.168804|100.499584|-270.244644|-411.845831|-345.192429|-148.444138|-94.757197|-66.877741|-89.640801|-70.334354|-67.484808|-6.732356|3.721675|5.004091|-36.287338|33.603629|-34.115751|1.777758|-0.834965|4.040805|112.098914|83.382209|84.908631|68.730192|-71.535016|-135.310233|145.331399|249.913246|204.751229|68.515278|-493.267641|-407.083716|-201.020864|-85.572938|-32.496820|-49.290236|-107.492063|-65.497882|-22.641793|-5.062863|1.074703|-2.032276|-33.179364|-3.560341|-43.378333|-43.594692|36.096160|-27.292027|36.680424|44.528123|33.945972|-133.947086|-154.978717|-134.067562|145.176405|279.947527|-6.143101|-266.417089|-440.109782|-417.714898|-268.823430|-131.184011|-63.691697|-5.135566|-36.248489|-43.320900|-26.618448|-5.025803|-0.099952|-12.013830|-32.225189|-4.130941|-43.501692|-75.914901|-61.581769|-53.460849|-29.209427|-50.328690|-102.877364|-55.281358|-145.047553|43.803702|359.201716|184.443548|30.749107|-182.270005|-293.855321|-216.037206|-243.959920|-118.082351|-40.967503|-65.971754|-25.938654|-41.869858|-31.377373|-4.018826|0.401789|-1.223967|-24.300867|-4.094366|-53.233603|-80.126082|-27.095729|-27.590352|-60.236111|-117.756587|-161.154344|-227.742813|-5.505054|108.974111|380.687107|81.116048|-88.363111|-216.813883|-280.888375|-151.971191|-103.022960|-63.293834|-37.644076|-55.255214|-18.388134|-4.056526|-47.830492|0.126269|0.679543|9.585163|-2.580333|-30.169783|-79.947641|0.470850|2.557742|20.502955|79.905763|-19.888153|-59.200141|-47.699522|24.653214|160.870520|251.420108|60.613169|-140.669465|-197.975899|-236.287126|-58.004005|-66.191341|-61.515831|4.591306|-17.272813|2.389812|22.933206|-18.207606|0.965702|0.357180|0.904828|8.548981|-10.702650|-29.940177|-25.558665|9.129163|26.789189|18.980925|-53.437657|3.544067|-26.694143|58.453912|320.386272|138.562710|40.742280|-159.336250|-203.846115|-159.610487|-89.271549|-52.232979|-48.185269|-14.318500|-21.513582|-3.890358|-7.223477|-1.889011|0.563130|0.382886|0.227164|-1.253361|-12.442740|-23.375577|13.191328|14.197432|10.568755|42.775413|-51.862379|43.325928|164.481037|94.441473|124.355178|-2.313839|-98.714777|-145.004052|-204.521637|-168.066259|-104.247748|-42.963101|-17.582590|-15.636452|-10.014668|-2.341924|-1.939497|-1.643250|0.471461|0.006366|
~
