2|212
#
~
0.394570|0.795447|0.494778|0.696522|0.039257|0.500211|-0.635826|-6.458953|-6.048156|-6.876238|-5.456350|-1.422280|0.127972|2.165091|-3.499159|-0.859411|-6.694357|-11.744256|-10.657323|-10.203022|-9.185795|-10.454798|-8.817620|-8.880174|-8.807975|-9.197699|0.642455|0.596859|0.793292|0.012799|0.872039|0.419846|0.768741|-0.177492|-6.186683|-5.661212|-11.153525|-9.417778|7.192909|3.363902|2.894167|-7.469550|-1.039933|-17.051868|-14.593596|-5.907186|-12.537777|-10.832852|-11.896115|-14.471610|-7.922412|-11.135753|-9.026356|-9.347123|0.741279|0.611721|0.168040|0.383734|47.113543|9.603157|15.524902|9.793438|6.690244|5.679868|-0.090893|-5.378438|-8.490374|-7.567189|-8.116266|-3.096365|-12.854806|-30.512195|-11.386269|13.792028|9.590590|3.398267|17.718750|29.821739|18.085715|8.758294|35.266205|76.478092|0.418318|0.533283|0.776173|0.159597|51.295909|32.545449|17.273324|18.428927|17.557705|30.867629|20.959327|20.830775|9.710204|31.860817|40.354039|37.138970|31.144379|-16.147346|6.551911|4.523090|-1.647646|10.758020|31.915528|34.847308|32.865211|36.150897|34.745766|53.692581|0.820760|0.792026|0.879116|0.563029|33.496770|19.911145|-8.523964|-18.916998|10.582019|-1.210155|4.947945|-13.328971|14.442583|36.534947|61.978609|28.056662|-25.560556|-46.560471|-11.531126|-15.391899|-33.152542|-20.981113|9.904374|12.501207|30.239228|24.028671|24.872012|28.225123|0.882839|0.789019|0.683259|1.028794|55.929187|9.441745|-4.448651|3.455646|13.011524|11.077902|2.654689|11.098828|-4.696711|4.668280|4.926472|21.332045|-78.484499|-53.407674|-33.267752|-14.754658|-28.132930|-18.047379|-24.725479|-1.414382|-17.847183|-2.609041|5.163406|15.258334|-0.080215|0.837763|0.837303|0.185666|46.551299|3.586978|-3.701933|9.203774|5.556290|17.206132|8.913296|-39.557034|-15.522946|-31.554720|-2.538122|-29.991914|-8.295093|4.540835|13.761399|23.771812|7.263611|-9.327603|-29.817150|-8.989229|-16.473263|-15.817518|1.113243|4.684836|-0.191340|0.524635|-0.338185|0.561767|35.690339|6.948275|-5.447457|8.459125|10.073654|-15.715672|-14.727356|-49.670411|-58.434067|-57.493527|10.655140|41.224718|67.617387|37.938113|24.738242|68.290735|33.344514|-44.974036|6.726704|14.499926|-26.289964|-24.154607|-3.355239|-1.369012|0.223496|0.081497|0.409441|0.989591|32.909803|3.038361|-2.556146|-0.488771|-0.640005|-15.372847|-34.819379|-36.042284|-4.763016|-48.616451|29.178135|-12.622354|34.110936|10.631542|60.130674|-8.819468|46.618494|5.302241|30.609428|25.687587|-7.914510|-25.589412|-15.390983|-8.920308|0.210873|0.797766|0.105855|0.323190|38.307540|-8.212126|-29.275765|-24.593334|-19.117762|3.655158|-29.652505|-21.759398|-31.816417|7.020066|1.700561|31.260128|86.132655|76.526486|63.507417|62.152656|22.433529|-8.028195|-2.412243|12.726130|-3.258450|-33.910413|-15.346354|-16.390482|-0.075084|0.185847|-0.099738|0.530661|40.707855|1.547654|-31.540405|-39.085404|-40.722771|-32.954500|-39.507033|-64.381435|-67.940686|-28.248370|46.464249|49.666791|36.317245|57.117366|36.722855|15.646782|63.749907|-9.125483|-17.645504|1.784042|-29.220238|-20.507062|-6.396602|-22.288748|-9.357365|0.210504|0.290525|1.168486|29.070730|-23.415685|-33.383162|-37.412973|-32.859620|-49.351273|-68.168474|-77.863728|-53.705580|-33.338295|39.121737|-35.994634|57.911437|60.223197|-20.358371|-35.711173|6.101947|-27.280136|-27.539317|-17.898709|-37.681797|-17.152188|-16.385236|-22.780198|-9.114743|0.729314|0.820174|1.598110|17.090174|-19.685012|-38.337833|-36.791820|-49.607417|-52.420725|-51.988757|-75.250424|-91.847432|-36.111866|-50.973544|-54.116344|52.502958|20.059336|36.836051|-50.585302|-80.796691|-18.776564|-71.547390|-65.018012|-58.948036|-31.609904|-23.146448|-35.857240|-9.868545|-0.012018|0.619163|0.907389|16.351779|-17.026676|-39.189892|-56.527691|-64.817614|-72.424113|-67.720583|-52.246338|-50.864237|-119.698544|-85.494021|-158.722821|21.948909|42.241334|-10.332236|-64.114337|-33.344751|-76.088527|-62.734916|-47.113972|-51.064249|-37.727362|-28.192355|-34.098139|-9.079748|0.595094|0.530902|1.202289|29.013219|-21.469444|-30.452969|-60.819661|-69.021344|-70.025041|-48.448459|-38.356274|-71.668917|-161.994265|-191.039834|-53.792951|8.738749|26.267402|-27.628602|-117.909347|-116.742293|-140.509800|-82.818338|-61.369687|-42.951084|-36.843516|-23.699552|-48.680706|-9.390125|0.235383|0.781039|0.157333|19.021071|-20.886579|-45.569935|-63.790479|-65.763018|-52.301459|-35.547961|-68.629710|-120.854688|-185.552186|-105.683797|15.338062|5.028052|50.660559|-9.581861|-155.807133|-133.090576|-100.030805|-99.981235|-53.503730|-51.600938|-50.170932|-26.556143|-46.234821|-19.968685|0.168405|0.499055|0.686227|28.748489|-23.707683|-8.288469|-59.856880|-60.553460|-29.182179|-2.998037|-45.876777|-132.431553|-200.737719|-155.254815|33.357277|87.263553|48.412129|16.790959|-112.563585|-158.741701|-129.516428|-79.438960|-58.803012|-56.483366|-46.517894|-27.770583|-46.093323|-19.648344|-0.374971|0.650377|0.373991|69.515623|-20.765933|-4.704958|-35.036561|-28.106872|7.656001|-33.619102|-87.329687|-98.067618|-110.965021|0.543616|63.291643|172.960071|79.542184|26.737609|-19.586999|-40.765587|-16.954508|-62.453162|-62.348750|-61.725029|-42.596889|-28.722190|-39.012025|-11.067639|0.166111|0.027845|0.222139|48.951281|-14.511103|-4.570245|-11.435567|6.819542|34.629275|1.959675|-67.498032|-66.284410|-66.248751|-41.655328|53.436910|111.399193|73.246343|64.872931|-4.688541|-36.525352|-57.342613|-61.640686|-62.415366|-58.003758|-49.268576|-23.882576|-32.933111|-10.853685|0.049342|1.043509|0.169958|33.074719|-15.662039|8.308363|3.164946|-1.566587|-14.360418|-35.297621|-48.351055|-69.295376|-67.183041|51.978663|73.780929|114.784730|77.982753|88.971210|-54.513324|-93.109283|-74.644243|-63.619736|-52.345827|-39.009310|-49.729146|-5.149849|-34.336668|-9.364911|0.415534|0.489341|0.230478|54.761625|-13.109007|4.679612|3.557022|1.073387|-4.456966|8.007959|-41.796737|13.185229|-51.652763|32.592947|101.783696|154.352510|153.998902|91.470413|-82.809863|-30.887098|-40.033136|-32.069756|-21.864833|-18.379601|-37.706836|-7.219262|-24.271928|-1.352117|0.682477|0.248857|-4.722732|44.603702|-12.932084|-9.039046|-11.814530|-24.075008|13.731189|8.174962|-35.503118|-72.119435|-38.063471|15.667392|140.115193|158.745084|129.327599|46.735705|-34.994420|-14.134199|-16.743392|-1.521956|-13.685782|-23.023356|-21.814755|-10.462262|-37.645299|0.307688|0.810626|0.546967|-4.644335|35.611244|-23.841610|-15.847070|-32.184422|-33.249649|-21.500985|-15.043898|-50.882071|-81.960144|-71.938964|-19.146636|16.665449|106.173539|76.397860|5.105707|-131.786149|-70.456697|-48.043102|-26.681896|-20.479228|-18.675945|-23.469295|-5.316012|-10.644759|0.372717|0.341727|-4.190354|-4.858727|39.534116|-15.391563|3.249265|-4.016343|-8.705311|8.066855|-29.210684|-28.718822|-16.931214|-68.279113|-35.598710|-40.064860|-36.878367|-37.834368|-48.648294|-102.068367|-88.957815|-53.398333|-29.136819|-22.406452|-26.827335|-2.005416|5.533983|-10.559020|0.207071|0.787302|-4.109923|-5.079504|39.665142|-1.639387|14.361757|-16.522900|-17.318947|-4.802636|-10.092911|-28.953193|-30.238264|-41.787744|-39.678831|-20.952091|-10.916076|-24.363041|-57.590264|-17.807010|-25.767570|-6.004449|-2.665116|6.932448|4.337081|-3.768571|2.059888|8.282868|0.921076|0.307387|0.607714|-4.830921|86.147990|12.651604|50.655746|18.562094|3.831419|4.644600|2.087660|-6.663201|4.123929|-47.081244|-48.252434|-16.770979|-2.774943|-47.578289|-16.092705|0.859666|7.885393|18.255475|27.618420|7.488402|11.573468|8.810562|13.988236|33.859647|0.299993|0.997426|0.735397|-0.214060|-0.644149|-0.167353|0.842873|-6.152843|-10.406995|-7.091411|-10.787601|5.187374|-17.734351|-38.269944|-41.351482|-60.165808|-33.641641|-47.694462|-46.901382|-44.505032|-16.120051|-5.023270|-4.818547|-6.550931|-5.665694|-3.305989|-5.331877|0.100497|0.750921|0.109895|1.038420|-0.463216|-0.539929|-0.250097|-0.095232|-0.548975|-10.232870|-11.299126|-4.800114|-6.797835|-27.126335|-28.135537|-31.954205|-32.198915|-16.354082|-11.551698|-18.588708|-24.279368|-4.662120|-0.030754|5.483192|5.006724|-1.930107|-4.916887|-2.553543|-0.000092|0.538212|0.815971|
~
0.689128|0.259269|0.682750|-54.349391|-54.071420|-64.859511|-27.879397|-40.488923|-96.107395|-94.031198|-41.298061|13.919489|2.619656|19.569406|-19.501235|-5.168059|-29.679579|-14.589483|0.100416|3.379440|2.879885|4.479359|-4.876457|-4.985611|-4.718805|2.716113|0.863752|0.373344|0.139084|0.391081|-53.943462|-53.727352|-43.488584|-49.903520|-20.998544|-75.081187|-92.923084|-105.728563|-90.296895|-28.562631|13.650963|32.453059|-30.557879|-107.735789|-147.298686|-158.259961|-142.805347|-69.408705|-68.174150|-69.745337|1.187885|-4.364711|-5.023715|2.160231|0.867523|0.078722|0.430903|0.731275|52.875897|-4.625329|-20.954938|-35.427619|-123.911511|16.462201|100.694791|59.307828|54.234535|-16.101899|-42.467776|-2.294314|16.385717|-49.956947|-100.742824|-113.336210|-104.054939|-113.105464|-107.351459|-1.337019|-48.399069|-15.406194|40.051197|-27.739478|0.072052|0.042443|0.272707|0.939576|139.636904|30.550772|23.513768|23.323886|7.424193|201.954453|187.866604|291.903041|52.963484|8.296334|-39.721025|-45.477020|20.890429|154.131432|-37.154446|-20.351133|129.216253|108.435908|-13.933704|27.844571|177.591782|192.211504|209.113005|102.012098|3.402902|0.505964|1.456828|1.088266|48.197115|-93.234444|-47.839779|-94.422303|98.476113|161.281453|153.974101|307.073508|389.193712|244.472925|324.442183|-48.353713|-205.499124|6.744572|-93.502973|29.967723|66.568814|-5.222480|-17.063226|-122.462277|-16.354599|8.953870|31.844516|21.927196|3.172230|0.760932|0.413988|-7.072853|-102.827965|-131.249382|-59.491511|-19.466027|42.704117|122.058651|71.330172|273.183784|225.845437|140.373991|-90.786853|-87.929572|-280.770918|-66.318179|-206.048292|-141.278162|-62.493277|-13.474679|-145.586394|-216.833770|-103.921428|-68.947728|-62.884727|-125.250429|6.177098|0.743333|-7.676585|-6.875020|-40.753770|-161.703718|-64.530919|-38.343866|67.168673|147.813852|145.396639|309.569883|-61.490520|-455.530263|-210.213195|-238.678627|-370.399550|-274.748640|-117.313182|-35.590904|-55.418187|9.040708|-54.139849|-117.530537|-113.779448|-65.601360|-6.485346|-94.063560|15.790314|13.278521|-17.302859|-28.765220|17.057235|-87.321327|-49.915222|112.681557|192.580196|83.163505|145.871944|191.518354|-161.034824|-286.384173|-390.225187|-319.882260|-339.459301|-214.972733|-236.689753|-34.168895|-64.936486|-17.390003|-146.323309|-233.489982|-129.405361|-74.504512|-25.026414|-111.147190|-35.026534|12.227924|-17.310957|-20.689979|12.191716|15.000824|87.052654|19.600128|255.188788|138.312774|175.132268|-101.207151|13.433421|-362.790724|-300.221035|-541.603979|-225.097593|168.258888|210.091875|-84.433898|-42.756631|-139.548378|-88.787120|-212.392039|-62.808104|-23.438941|86.548283|-23.726840|-52.735906|12.170850|-9.542060|-30.376943|71.720495|-14.937362|146.613264|-12.959272|231.116799|234.257385|216.173946|22.720665|-219.497649|-317.621766|-364.494237|-398.279877|-105.607626|267.626700|217.727242|281.527308|256.804438|-220.791616|-77.845404|-47.575208|-48.668817|55.174907|18.904446|-55.154928|-21.582443|3.630944|-8.543509|40.704053|43.510427|107.476802|210.503112|79.637258|320.305074|59.159898|-225.206754|-267.275151|-377.410641|-570.513677|-147.719559|-169.252233|-83.388757|233.390880|514.880990|447.305201|244.820373|84.716376|-22.255287|-89.020485|43.317024|87.613718|-31.043527|5.415681|14.135077|36.693860|-30.249020|-23.887781|-11.094106|113.188187|192.482170|108.586897|397.961387|-36.737503|-75.519035|-368.735678|-361.289628|-535.885436|-155.964488|-89.264019|451.278307|668.392789|279.684573|54.922917|29.699869|-30.258192|-67.929459|-160.224411|49.355377|21.169723|51.353061|-28.362292|19.201364|36.159544|-38.852287|-47.548787|-34.065289|153.836206|218.586703|182.340681|280.972632|-162.428435|-208.561516|-171.181211|-165.697615|-63.196339|124.159398|57.444877|352.073319|585.378917|32.409473|-463.293937|-336.164530|-365.643516|-211.042763|-93.617554|-150.902443|-19.455254|-6.965835|-76.472684|13.481568|35.361560|-39.830715|-29.668954|-35.427079|151.765861|156.304700|-14.734711|-143.942306|9.472099|-252.087089|-143.851866|64.956965|-270.276343|-145.011447|156.055924|123.061235|-372.190317|-204.485406|-409.773328|-551.275915|-532.714010|-490.050976|-119.719714|-254.740220|-89.150173|5.597622|-112.698748|-0.525271|-6.099966|-54.137308|-30.955014|-59.042877|87.572027|-101.871273|-145.128719|-268.879488|-220.416068|-288.911558|-94.986645|212.515676|367.465304|232.388489|412.263147|310.967997|145.472886|-24.450493|-183.536805|-90.906196|-398.081786|-343.924692|-256.171089|-55.413378|20.241912|-0.117317|-42.185159|-56.356807|-5.709059|-43.060942|-59.992741|-23.098226|121.553159|27.533883|82.153923|-263.582125|-315.637500|-148.975749|62.508310|411.580334|395.926813|199.299115|505.071274|298.784082|97.662693|-270.180281|-33.408719|-294.382224|-316.719944|-102.734162|-102.751748|17.703495|-55.925706|47.073385|-43.170684|-48.448305|1.150621|-17.531875|-20.412437|38.048065|138.588604|-100.852352|-35.731116|-76.624004|-230.030708|-93.614518|7.006605|423.874209|387.629862|421.629651|68.985126|-197.877692|76.798949|-236.149595|-166.414504|-99.703766|-282.349367|29.119506|-60.585000|-12.787406|-6.780065|102.426797|-0.747012|-32.324793|-46.476823|5.663303|6.712616|92.822482|35.585370|-113.296152|-122.240117|134.142862|25.719575|-118.144897|274.769546|166.542210|572.850860|142.415243|-229.214765|-466.882558|-416.333741|-325.325751|-43.116868|-1.183406|69.627970|-66.419026|10.466148|-4.468716|152.473175|162.207678|23.362601|-54.659603|-0.560790|4.841387|-10.819188|-48.525778|60.009251|40.850362|-335.006053|75.866609|-96.481000|-35.774828|-63.627905|222.513270|-19.843171|-248.083172|11.462926|-232.506921|-279.548607|-151.569925|-184.018711|-105.624316|131.923282|50.639396|66.506139|97.004674|93.044069|76.310020|-73.794161|-68.557325|-13.412350|13.699362|3.407354|-4.802691|79.309948|-140.815315|1.285049|-255.615904|-98.255361|18.623331|123.459508|200.757285|399.651795|-23.097789|-245.905875|-109.142575|-396.037805|-129.717423|189.594716|364.891093|161.711617|185.312679|204.677466|10.089052|11.527980|-72.386605|-88.705602|-18.545635|-14.353529|-12.473982|-18.468145|-61.711385|5.637608|-61.392361|33.633255|29.337861|53.079319|-166.955289|-48.026832|183.358697|416.969070|181.771984|79.071382|-39.301338|-209.863516|-94.890369|94.662947|583.075957|189.913847|214.185306|227.443254|91.145899|-27.104208|-13.458638|-56.639952|-32.139437|-15.226096|-12.345550|-17.941888|-43.352697|-83.128217|-110.910820|-153.640572|-156.615440|-90.533128|-121.617275|-82.918514|-243.848451|-102.514905|11.686467|-173.714746|-43.195245|-161.651028|-126.727672|51.934174|-33.753911|289.784665|129.839094|131.657120|111.708980|-39.283602|-20.315251|-33.526466|-33.535278|-16.518822|-11.487612|-1.266379|-67.086831|-139.521501|-39.569579|-271.912113|-211.440538|-217.357317|-41.290519|40.541968|38.400952|18.335045|88.428629|-192.586754|-172.469838|-255.056194|-158.932749|9.401481|142.454732|205.415307|99.138522|-14.372656|57.412000|-18.159921|-13.932293|-68.033268|-18.286845|-5.602313|-10.819511|-10.387352|-124.328606|-147.700207|-194.338101|-283.954075|-250.203471|-227.942701|-94.882069|-31.196659|-119.986385|-68.709931|-137.537179|-131.484995|-252.825192|-79.522262|-6.879948|-0.047028|35.178626|77.038800|14.486357|-136.741712|60.373333|-43.350866|14.013167|-14.387584|-13.387863|-6.553726|0.397317|-64.393812|-184.996438|-171.459635|-140.534123|-194.619055|-184.817198|-132.239114|-113.698851|167.078121|-48.638905|-341.612267|-255.553276|-294.458704|-240.363959|41.786039|51.607307|-16.263945|20.457985|72.805989|-152.082268|-254.708492|-114.144558|-42.488213|11.564289|-37.875434|-14.206676|0.215733|-24.704878|-53.324036|-164.350143|-115.990449|45.287893|-2.338573|9.012533|-2.925802|-27.746381|108.894298|169.913100|-3.702032|63.187568|28.592286|-0.496626|101.537467|147.182791|201.325184|219.707700|32.649095|-68.913321|-112.145081|-79.260285|-21.138029|-8.683603|-8.533874|40.914053|0.056345|-24.862794|-77.410170|-112.403420|-154.871390|-126.037641|-181.765377|-144.687884|-118.410522|-18.284955|-23.912828|-42.943457|-80.260294|-113.978840|-122.165772|-63.860559|64.497876|25.025474|235.707740|-28.604284|-135.590945|-158.422941|-76.983675|-96.445558|-93.710444|-28.139013|48.714597|47.172423|0.356669|-25.046207|-54.309758|-70.544652|-156.722548|-95.858122|-139.062759|-147.623083|-52.563978|-10.498927|25.278310|-3.603484|-47.856672|20.754490|24.501686|-125.108250|-10.356354|106.280377|99.130201|-39.391160|-102.133452|-98.580055|-41.902610|-19.475353|-65.854427|20.085094|48.888819|48.697535|0.282845|
~
0.746359|0.680927|0.576987|0.332174|0.277862|-0.198499|-1.792276|-4.363662|-4.561831|-3.746401|-16.759465|-21.019386|-29.022423|-25.812430|-16.746396|-16.516303|6.979694|18.387961|20.269313|16.271884|-2.360834|-0.876890|-0.196277|-0.179701|0.274041|1.071735|0.896002|0.000044|0.112042|0.910983|-0.368050|0.568623|0.193878|-0.991115|-3.416554|-3.326059|-6.725957|-7.425743|-20.830468|-36.352710|-32.847159|-37.450111|-33.645469|-37.277198|15.057868|31.670072|29.413145|42.453955|53.088576|-2.479570|0.010961|-1.315370|0.405184|0.922807|0.370466|0.420389|0.215301|0.266467|-34.689990|-21.690458|-16.482546|-29.669369|-22.435680|-22.429764|-51.086142|-43.579739|-93.363499|-70.702328|-40.084177|-109.850013|-165.240970|-141.326548|-58.925537|-17.472591|25.218665|-45.693883|-3.425669|21.865217|-45.879247|-39.719230|-25.399717|-52.125524|0.174734|0.871151|0.144217|0.545200|34.357645|5.405863|-8.296048|2.541798|-5.454964|-18.269880|-11.512518|-43.856795|-45.587489|-63.773595|-85.843060|-84.458791|-106.524979|-41.933522|-40.995590|0.935297|14.824962|-3.608914|53.833497|81.032084|1.907505|3.428645|-0.170492|-53.733496|0.307912|0.048229|0.497235|0.791886|18.361482|-29.308598|-7.084721|-14.109676|-35.427880|-60.189929|-26.385706|-24.223263|-47.429203|-86.564932|9.637566|14.137216|-70.859724|15.254339|-87.618140|-63.815750|-7.886437|75.699595|-14.589587|54.449848|39.437873|-0.925132|-24.419140|-42.962323|0.175134|0.930852|0.623913|1.200824|-30.176699|-10.580342|-3.026725|-26.696189|-45.184275|-36.127153|-33.615099|3.502442|-47.436378|-52.770247|-74.874566|-210.089449|-72.778859|-108.114148|-98.159005|-89.067726|24.593780|22.383128|61.808238|73.855502|101.458385|6.790065|13.730883|-50.266807|-8.516914|0.511519|-0.007586|1.063918|8.304278|-18.824042|-1.838056|-56.311821|-48.653731|-34.921247|-18.217557|-83.082365|-102.456960|-135.904243|-6.282236|-66.246402|-20.269796|-0.850005|-83.920131|-44.152579|-72.935712|75.027537|57.008640|50.163067|41.089775|23.057571|-32.793250|-33.820054|-8.014534|2.962324|0.836534|0.991663|-7.330597|-23.033410|-15.910945|-54.670656|-63.964709|-7.804687|-9.318366|-94.786863|-65.487584|-76.938380|-78.269122|-113.498237|16.078388|-20.272526|24.017397|-84.608128|-67.567632|39.983894|238.986573|61.898484|25.748397|-8.998367|1.660316|-41.843703|-3.053864|1.950633|1.780626|1.154648|-3.595760|-28.953535|-32.920875|-50.051202|-48.927482|-3.150112|32.249087|-28.367541|-51.750602|24.839994|61.213157|-21.456003|41.318191|-121.602583|-97.888766|-1.854797|30.725482|107.855021|188.359072|59.590409|-15.490687|-9.423634|-5.378080|-11.799481|-2.866409|1.907590|1.212657|-1.076140|-13.953645|-30.605016|-35.848747|-35.614846|-78.576195|0.149054|-16.094107|41.561659|-163.982475|-0.517010|104.401790|45.181937|158.651426|-73.137276|-142.614578|-83.579872|139.243477|2.269480|36.804399|34.447330|-62.681236|-20.938734|4.445727|-34.242071|2.907531|-0.053444|1.294704|0.830726|-3.978209|-37.817388|-20.657495|-38.193127|-113.824777|75.667971|47.409604|12.778807|82.197026|6.765070|147.401661|74.566418|-72.813712|-150.467594|58.881771|-87.415973|116.510286|24.037477|-29.672280|-32.250249|-42.922559|-23.953114|9.352512|-38.968501|-3.197232|0.491559|0.372391|0.567583|-23.359203|-8.859128|-23.359304|-43.225965|-91.143788|69.970263|38.065124|79.381409|144.220029|109.300146|-7.837100|-130.783782|-0.805870|-109.456686|-11.307240|37.920740|177.061009|21.612221|-95.863712|-121.197918|-74.867106|-66.602739|12.935389|-41.408070|-13.438852|0.213775|1.038596|-0.849938|-27.123894|-3.758926|-16.912004|-55.440058|-95.153140|47.003270|166.798247|86.535035|104.457306|-10.908121|-52.691092|-143.360563|-95.738532|-83.614662|83.371935|43.983892|94.984845|-72.276025|-269.465158|-113.146204|-128.698994|-84.496481|-47.389460|-48.000300|-13.452528|1.115982|0.514370|-1.792324|-7.175686|12.668471|-39.443620|-7.767688|-99.998440|-44.739966|114.082914|70.394823|113.623563|33.771150|-237.345020|-238.310552|-84.264238|47.099856|302.889367|139.405988|98.488845|-119.653513|-173.054244|-141.412458|-129.944396|-120.807283|-45.057444|-67.237493|-15.110970|-0.035452|-0.928523|8.073060|-12.423489|5.787668|-33.336583|-50.309696|-134.215469|-143.141901|-103.234213|-142.731266|-221.275787|-274.402034|-428.235598|-347.580304|-145.433170|51.021799|185.006530|121.673004|-31.135250|-215.988433|-159.230808|-187.113577|-108.454058|-102.727832|-54.450264|-61.174603|-21.671889|-0.278887|-1.773126|4.362571|-19.036578|0.573046|-55.069002|-60.047300|-105.762240|-198.657819|-170.443914|-349.684190|-368.524203|-355.179068|-249.652352|9.826443|67.689671|74.317186|209.132698|65.285341|-78.263359|-71.295544|-82.584758|-142.917949|-92.153109|-61.136367|6.587167|-58.468087|-20.033170|-0.111842|-1.716636|-5.606174|-6.090798|-10.027346|-57.191258|-78.543603|-156.810053|-109.547835|-155.254852|-121.327480|-217.574277|-267.170448|10.218914|125.795040|182.471315|239.637732|103.092550|-70.304530|-200.762254|-174.395087|-98.390432|-134.438208|-82.097172|-4.990839|6.579117|-56.619159|-13.127157|-6.361681|-2.435402|-2.843139|37.490086|-2.253600|-67.541965|-86.796847|-118.446911|-70.788813|-61.072612|-90.381700|-159.527830|21.607502|83.785253|27.536289|154.032308|326.844579|131.320520|-35.537395|-161.295291|-70.807589|-96.195720|-17.753159|-71.727267|-26.707187|-19.518414|-34.453207|-8.414063|-1.257318|0.212506|-3.290607|14.076369|10.158896|-63.091684|-93.030265|-112.170445|-118.627747|-82.063634|92.714015|-13.909215|93.352492|171.511287|97.759308|239.566188|147.828535|-167.925950|-169.622538|-160.783256|-102.022357|-63.580170|-29.778479|-77.520813|-27.619986|-9.145103|-32.535288|-7.587927|-0.874384|-2.083260|0.538345|22.752617|-4.720306|-10.016993|-52.509276|-59.274572|-156.569282|-40.632673|163.306025|210.392004|20.304363|139.189524|144.841395|293.800185|-9.426782|-240.493882|-192.675306|-140.283389|-86.614911|-93.222963|-61.067517|-39.044095|-37.537630|1.130051|-34.678986|-1.619725|0.417859|2.169199|-9.356001|26.268973|2.575201|-15.449025|-41.901941|-49.542976|-28.596581|-21.829731|23.968949|157.838980|169.556931|23.520183|136.668614|170.553916|-91.890967|-170.196949|-265.820271|-89.650823|-73.787465|-29.576218|-14.675263|-30.429614|-22.379150|4.215179|-32.273715|-2.052053|0.023760|0.508164|-6.718659|25.217522|8.964014|-9.734821|-16.437090|-3.903565|-28.594612|96.395054|92.952369|49.414266|131.886111|154.383012|127.318301|-101.342782|-175.513123|-113.050168|-97.096107|-60.250886|-16.463190|-17.068827|0.194867|1.006725|-14.958419|8.595994|-24.384996|-1.426220|1.042028|0.229474|-10.686608|2.913836|-6.218377|10.138847|7.724792|13.951245|9.048680|85.941910|91.748260|39.970192|96.191968|66.268571|-4.680181|-142.919677|-93.005202|-129.883741|-26.612799|-84.958548|-40.084939|-21.294933|-21.378438|-4.021644|-16.262052|5.742274|-29.176547|-0.845659|-0.053859|0.032060|-9.875275|-4.100313|-16.672898|14.058288|2.579562|8.939894|15.202303|-41.707751|7.741545|61.237873|-3.661002|17.853208|-36.147908|-155.204944|-147.955376|-95.775718|-56.744308|-39.872788|-47.309666|-21.636547|-3.996880|-9.634732|-10.229094|3.296066|-29.229022|0.334111|-0.167590|0.101837|-12.183061|-46.082263|-25.644786|-11.630794|4.717128|-15.467739|-41.480135|-25.286769|-44.794725|-78.549099|-36.161722|-38.797852|-108.982108|-101.002206|-116.599952|-120.082642|-83.683598|-42.549326|-41.196183|-17.991567|-11.648792|-51.297422|-25.484834|-0.448134|-53.060944|-0.020037|0.515830|1.109675|-2.090862|-105.481489|-48.975921|-30.414015|-39.625663|-42.701350|-0.111265|-23.364123|-6.489552|-42.804992|-99.355055|-90.203359|-74.953918|-105.009532|-125.403642|-112.919145|-86.682088|-42.984200|-33.736739|-35.470757|-28.519018|-42.035214|-42.290539|-25.078200|-30.986372|-0.713100|0.150683|0.204720|-2.266319|0.150920|8.146185|21.791990|12.239549|20.597781|19.306562|27.982899|55.238853|-11.574022|-17.636897|-63.643308|-93.948726|-92.308858|-82.392979|-76.565005|-41.280278|-6.688793|-5.929451|-1.773328|-9.918411|-8.334817|-7.032916|-1.953603|-0.432585|-0.224440|0.664401|0.437357|-2.150673|13.032097|13.126067|9.031668|15.893600|-3.278410|11.943424|8.160129|11.943884|-6.714391|-27.776852|-74.435472|-77.767436|-65.948975|-64.454114|-41.620685|-19.337235|0.237136|-4.445241|-4.952442|-8.596796|-8.468294|-1.628126|-0.442074|-0.749296|0.242504|0.818423|
~
0.824779|0.237102|0.587720|0.946588|1.111713|29.302417|28.823644|47.517837|49.340781|49.825461|53.208807|51.472586|-121.584497|-186.167808|-208.584456|-206.746535|-212.660976|-213.788352|-133.140603|-44.048789|-20.609368|-20.098093|-8.794286|-8.672120|-5.949352|-6.356853|0.494246|0.619188|0.809130|0.293115|1.322320|1.499315|0.929964|28.445517|48.513298|34.947923|34.342212|38.392099|-8.224690|-68.873090|-166.307294|-162.879160|-215.575315|-235.505539|-164.332451|-154.748234|-146.383786|-39.633774|-24.040566|-41.850040|-11.812523|-15.406198|-8.749682|-9.269786|0.634484|0.340525|0.903246|0.128729|40.826832|45.365655|-3.481363|16.179145|25.671746|1.089415|-12.225810|-73.716894|-60.179991|-24.536036|-113.390823|-100.056410|-133.523219|-179.800489|-208.162843|-124.747946|-98.201921|-78.012531|-67.263096|-70.793253|-41.115430|-44.802600|-73.419246|-46.642789|0.426242|0.688779|0.556109|0.060726|50.956158|3.950572|-3.499070|14.092031|0.032759|-6.385705|-15.555395|-15.114096|27.091775|-89.638624|25.578220|7.448968|45.210717|1.748841|86.660054|28.129856|24.370897|-146.441960|-71.075293|-98.639200|-86.962792|-28.558386|-34.169814|-43.573445|0.731145|0.278188|-3.176199|-3.067294|23.198771|-2.161511|13.891593|33.679274|12.899476|23.368390|63.490908|110.652806|136.399094|-6.730584|177.448327|164.069566|197.031059|255.120604|149.622229|105.328809|-74.544868|-21.027194|-110.002553|-137.242053|-142.384153|-113.605920|-59.119602|-43.883923|-0.091611|0.327152|0.286726|-3.782032|15.049964|61.123830|-0.553362|-17.329712|8.614609|-8.971156|87.280947|177.974744|297.360844|258.561192|181.836639|347.430919|136.156301|120.249738|168.060196|112.718366|41.780828|4.686193|-46.230236|-66.344778|-121.099476|-112.551714|-53.314196|-68.538415|-28.822697|0.248512|-0.941315|-7.312767|-2.485816|-43.269887|-44.423450|-55.632183|-43.045315|-19.828277|12.249097|230.957009|211.961982|130.270400|100.104929|269.280537|82.804628|43.893009|28.592386|164.814436|173.489133|189.345996|-116.028235|-7.242505|-8.151558|7.753807|-31.885339|-53.802385|-4.240937|2.362504|-2.310290|-1.379232|31.577351|-25.305499|-30.132399|-34.188525|-27.397496|75.895894|113.134950|147.109242|274.193330|243.475535|176.201578|-47.110517|-132.787906|-73.335236|135.640136|156.455711|230.265201|285.085011|-50.005693|49.070671|-39.574468|4.254628|-23.765895|-46.746831|24.526035|22.794289|-0.445790|-2.823832|23.136190|-20.897408|-19.111239|-18.765178|-55.324525|30.340005|-9.474200|40.724135|-61.256209|-50.517649|59.279247|-215.296691|-542.896676|-177.554910|129.273115|342.867121|543.267627|350.582686|-2.088333|-20.835226|-45.846532|-15.246879|-13.852273|-17.093759|34.266249|22.971781|-0.567487|-1.223338|30.793013|-21.337845|-9.412535|-30.191520|-54.502434|10.535324|-75.219041|-99.902135|-133.711516|-145.159108|-17.362985|-94.146383|-360.749178|-148.225327|93.107667|376.340433|291.551848|177.902685|-185.519899|-33.512650|-0.463514|-18.938716|-8.443744|-16.507167|38.214773|17.778244|-1.186936|-4.343385|-1.865213|-17.711321|-10.799702|-25.004975|5.145604|48.873935|-81.771737|-221.295718|-360.553029|-284.159515|16.240717|-62.832105|-26.722808|24.752194|-70.693061|312.942998|304.212380|-72.685912|-160.391043|-85.938967|-18.095903|40.964502|-7.274293|-44.959032|30.877479|15.208592|1.042557|-4.414867|6.732237|-23.145079|-15.166522|-22.561661|-39.355861|-11.216218|-148.238164|-309.958505|-455.956535|-369.114395|-187.039863|-35.580613|-49.764744|-27.028999|52.461234|36.968538|50.344480|-195.559317|-206.048071|-213.894798|-14.173451|1.174716|17.041104|-32.625071|-2.684561|22.210127|-1.202293|-3.625258|-17.380927|45.489880|-30.466760|-9.167616|-48.291376|-82.518103|-366.332484|-242.305445|-307.050042|-245.881987|-76.151526|-43.994147|44.409028|234.216032|38.908537|-122.200153|-288.246743|-250.477808|-328.922007|-133.724383|-146.581641|48.966788|11.223982|-40.134196|-13.387541|-4.899763|-1.083490|-2.055706|-12.578837|-5.844592|-27.899619|36.166048|-77.847821|-70.447675|-280.589606|-134.943609|-118.376597|-159.805960|3.497787|-67.631087|-36.167901|-26.177794|-3.100065|-66.928900|57.948485|-334.614032|-224.242740|-175.209258|-90.807238|-46.594651|-3.361937|-66.367631|-9.269749|16.506219|2.886248|-1.497168|-16.034497|1.300465|-4.688378|7.881449|-51.219756|-17.232079|-223.063392|-109.286327|-30.849011|24.390527|-4.275651|-18.360561|-20.741075|-159.804351|-121.803116|108.611993|1.249255|-208.618608|-40.679032|-123.513486|-114.527924|-132.241291|-82.621518|-83.259488|-18.132818|16.513364|1.034350|0.739410|-15.893961|3.486311|3.271003|-22.769489|-33.319410|-22.144708|-199.667212|-63.690090|120.965473|107.761591|-17.946524|-65.310619|-76.865230|-92.576995|-48.078168|25.528496|63.389969|-31.644824|-62.198752|-84.754846|-22.268815|-141.919161|-36.640247|-97.765773|-25.910795|18.647917|0.158874|0.935096|23.788814|-12.502948|9.405009|2.621885|-24.326976|59.920097|-15.760003|-162.563752|46.581595|37.892445|-32.355234|-4.670737|48.694840|-0.846178|33.904171|106.179028|-102.560808|-137.333544|-120.691665|-30.147949|-84.531792|-83.042568|-65.496843|-118.700615|4.852494|20.352837|1.737805|-1.835467|15.519685|-10.227443|-24.098438|20.606257|6.799303|63.369507|-71.500531|-138.103315|19.534107|120.086306|-14.687356|-67.083187|-106.495087|-62.995132|-101.542071|9.331832|-179.520088|-182.821855|-98.403701|-133.317450|-45.599647|-77.106262|-54.690014|-69.365437|17.637509|17.805683|-1.056808|-0.299841|72.671195|-22.223005|-27.726185|-12.311375|-42.793357|14.032245|58.083868|-31.882211|-147.912058|-12.941153|18.815394|-47.985964|59.052279|154.397507|-177.228842|-134.177693|-251.107814|-128.291189|8.057806|-49.732868|-51.228101|-25.373043|-15.623740|-50.724270|29.264759|18.389711|1.745507|-0.710326|34.969267|3.178197|-6.757491|-7.718447|-10.219705|34.103668|116.241852|19.920300|-14.683316|33.819926|31.035584|31.960663|0.095053|-81.404770|24.175176|-196.145200|-91.539247|18.486341|57.255715|-66.171142|5.541657|11.132873|12.535339|-41.348220|23.151857|-0.486649|-0.922621|-0.779869|54.071971|2.543262|-33.831941|-34.515654|-54.544099|3.478114|108.601011|54.848200|-51.348129|-71.839392|-75.958046|-28.863099|79.278751|-10.105874|19.290338|-9.843252|-10.113906|7.493800|-40.657207|-13.478330|10.195294|-27.660774|-7.598320|-26.890046|-9.449517|-0.648246|1.711544|-5.496406|17.071225|-3.907037|-24.320818|-24.220255|-11.971334|-8.699835|7.748170|56.639776|53.018870|-62.363614|-58.955421|-121.888886|-64.547527|-48.720899|-83.339707|-57.778863|-74.927902|-3.072638|-26.703993|-59.754783|-52.700442|-32.920820|-17.615406|-38.375530|1.273575|3.050463|0.244790|-5.240332|24.921662|9.897647|-23.052378|-16.477191|-33.860763|-64.000083|-75.296442|-35.311498|-50.681236|-14.315539|-36.615142|-7.362588|-20.453359|-60.623498|-125.148890|-72.978777|-70.425290|-26.713765|-92.145042|-99.484420|-51.944913|-41.763068|-57.473955|-79.594788|-0.363904|0.372548|-0.937473|-3.028857|30.895271|15.271274|-21.290109|-42.715130|-29.369342|-40.312605|-47.707657|-68.320166|-26.856772|-66.883622|-129.327298|-120.652759|-72.413432|-51.891351|-62.951600|-45.750158|-74.103730|-67.448626|-85.512896|-29.601367|-14.142632|-0.211489|-22.321153|-59.342330|-2.947928|0.205375|-1.080530|-0.743436|-9.437184|-0.226578|-24.224160|-18.562270|-36.298142|-28.964691|-44.957818|-54.295644|-74.268451|-108.774721|-84.623336|-61.960645|-26.872884|-17.173172|-82.860180|-45.177106|3.020815|-44.352035|-41.203109|-50.357736|-33.503949|-35.726228|-51.630062|-59.660157|-9.615958|-0.135200|1.881607|2.615584|118.080316|69.676186|84.785599|27.477354|-6.616139|-4.352843|-2.287991|64.967686|39.952262|-13.324974|-0.070668|-8.382928|51.581102|34.800046|67.539807|82.951237|65.003274|1.184068|52.803114|28.494691|40.112392|41.943491|20.697431|26.893443|-0.992792|0.609068|1.681866|3.638198|0.191235|0.668841|-6.596690|-9.689727|-11.739206|-7.050985|-9.065776|-8.641943|-25.739944|-28.773020|-51.061761|-55.714882|-95.512976|-84.380169|-65.557114|-47.600586|-45.399977|-4.481601|12.158578|8.516842|20.420397|23.041382|25.001177|-2.472566|-1.209126|0.343859|1.707560|2.697587|0.017068|-1.580575|-0.470745|1.195325|0.675874|-1.211747|1.157911|-8.182246|-14.622493|-25.302538|-24.151858|-28.683628|-20.868215|-33.752514|-38.640573|-25.649219|-11.219987|-20.003698|-14.313574|-8.335903|2.110744|1.044239|-0.218959|-1.880238|-1.766759|0.646835|
~
0.539688|0.986357|0.148225|0.562932|0.157839|0.272806|-0.624472|-6.596781|-5.599076|-6.177199|-6.332804|-6.407620|-3.565451|-3.558542|-2.264224|-2.871732|-12.556991|-12.788476|-9.344568|1.096760|-8.399419|-7.784123|0.462387|-0.224860|-0.489226|0.384756|0.791305|0.992728|0.822533|0.718915|0.602032|0.432263|0.698134|0.524344|-6.123126|-6.220332|-6.039531|-5.952855|-3.944098|-10.489767|-2.876289|-12.363069|-17.258911|-16.109107|-8.538716|-8.178557|-8.162704|-5.825043|-4.674227|-6.111430|2.370378|-1.203124|-0.161455|-0.191550|0.608972|0.531288|0.274234|0.400277|72.207706|30.705059|32.432744|24.469986|22.801074|28.868711|28.337661|18.465362|13.931956|17.547722|24.280657|8.977647|2.813209|10.586954|10.805929|17.946135|27.495886|19.677358|16.018736|20.491377|21.698844|26.343184|27.909147|70.616731|0.318925|0.105575|0.250122|0.927898|27.721777|3.994704|-0.113890|-3.710423|-8.073763|2.534208|-4.741719|5.037730|-4.937316|5.420664|3.680910|1.297759|-12.798121|-25.807743|-22.800706|1.023437|7.998623|10.296391|6.295516|3.140153|9.121670|6.493681|32.215697|34.999951|0.344876|0.588971|0.586023|1.039214|15.412275|-7.673372|-16.701550|-18.869447|-17.392710|-23.338077|-15.505978|-15.115125|-13.364464|-0.610536|-6.429300|-23.447175|-46.237589|-67.775335|-58.581241|-21.576353|-24.827118|-6.100332|5.200600|-4.433997|12.367842|3.047654|14.502267|19.114780|0.606109|0.735496|0.812836|0.401303|14.625529|8.494102|-5.617088|-9.736668|-3.238699|-6.581991|-0.402678|9.999588|-7.732126|-3.892049|-8.875996|-19.689662|-59.901221|-44.900792|-45.546867|-12.619241|-7.704922|4.438130|2.632989|1.983922|-4.674609|-6.697844|6.435200|16.124523|0.065572|0.030558|0.351991|0.333981|16.923698|2.456226|-8.735267|-6.751036|-3.108620|-7.370655|5.398417|2.974228|14.505724|-10.761515|31.676478|-12.224838|-26.940728|-24.669875|-15.905019|46.546676|36.300446|30.373427|4.850282|-5.539412|-6.279712|-5.874121|13.451298|10.975748|5.705272|7.423047|0.517201|0.811670|11.282105|1.305259|-3.487851|-6.440391|2.773804|-15.932672|-0.644664|8.627838|-17.687502|13.985431|7.340201|36.478128|36.103845|10.475444|19.635886|41.213878|45.068394|37.295432|27.029329|0.617418|0.394017|-1.953222|8.065535|16.736235|5.097717|6.566209|0.606572|0.645273|12.760020|5.699949|-5.852940|-5.321334|-7.365910|-6.867016|-24.869080|-1.734946|-3.481694|1.505928|38.167686|29.854399|7.252306|21.930966|71.790406|21.827305|75.552426|56.463178|42.539153|3.641997|8.995277|16.025343|21.532028|24.724252|0.211670|5.821342|0.589149|0.446353|12.933685|4.688832|-6.301076|-5.067034|-8.954058|-7.108067|-27.488905|0.965792|-21.349622|19.003560|21.596791|17.177466|35.698105|26.783818|41.553512|66.297056|101.506084|42.576265|21.375676|17.237959|8.012769|3.481822|13.016284|27.926044|0.667415|-0.140268|0.386251|0.403167|13.051445|4.699187|-5.414557|-5.447209|-12.975189|-13.670994|0.217632|10.164273|-1.217281|-44.931298|2.801553|-29.598469|-13.938806|0.834893|13.531972|40.237978|54.106046|2.657277|-12.314603|-18.824940|-13.072656|-6.298008|19.677483|18.442394|0.830520|-0.388196|0.592754|1.051356|6.603737|5.316812|-6.816466|-15.021595|-6.307079|-4.938898|2.175407|3.126385|13.927624|-18.028229|-37.050053|-2.093172|-16.106258|16.990509|12.351829|-17.716359|-4.935308|-41.129653|-41.981020|-14.309569|-8.825609|4.976408|11.252152|5.105931|-5.981252|-0.491735|0.661158|0.063977|-4.727486|5.433502|-13.929214|-9.286144|-12.989985|2.206233|-8.056615|-17.523376|-24.384522|-25.876998|-31.648343|18.776618|19.325590|16.613762|5.829881|-28.848364|-31.737687|-60.327160|-51.012532|-23.838829|-11.528270|-9.430215|3.913174|-16.955414|-5.843089|0.336621|0.414446|0.079729|0.492883|-6.074037|-14.181277|-9.134224|-13.705092|-6.520483|-18.637582|-24.852937|-24.429923|-53.929024|-14.122172|-20.970103|-0.352990|8.649075|0.568222|-69.636447|-84.841451|-88.726568|-41.449900|-35.825441|-19.476593|-9.350257|13.037744|-19.477526|-6.611879|-1.199679|0.219625|0.443815|2.396361|-0.127665|-13.769550|-10.874301|-3.518692|-17.122114|-29.756510|-47.790253|-68.047621|-52.535157|-54.478165|15.711127|25.789194|18.859944|-41.524691|-106.242424|-110.323976|-78.971921|-42.127654|-27.490015|-19.722836|-11.992086|-4.568303|-25.987523|-2.459352|-1.248178|0.138919|-0.120886|-0.936096|-4.837963|-10.624894|-14.321658|-6.266880|-14.668256|-38.279807|-52.551852|-66.354533|-129.646454|-41.500067|51.272806|41.654376|-4.818478|-4.262817|-85.980274|-76.921656|-52.818400|-38.831651|-19.079725|-16.988921|-2.234222|-11.491865|-22.886620|-3.571598|-1.332664|0.054687|-0.721972|2.147898|10.746305|-11.857615|-12.916217|-24.209234|-16.315101|-30.364366|-48.279563|-102.909332|-134.721695|-39.513676|43.977618|65.709727|17.497551|-54.985911|-71.057924|-64.738477|-52.566942|-24.939482|-24.280895|-8.144497|-16.501170|-9.382405|-11.606504|-3.472961|-1.494855|0.147441|0.283640|40.897904|11.489204|-10.877335|-10.953817|-20.322708|-29.528449|-34.465828|-73.690625|-102.062705|-82.195542|0.600946|60.167261|98.064826|12.453349|-21.642734|-34.468853|-44.417298|-26.335499|-20.680374|-7.508765|-15.452249|-24.866597|-12.519963|-9.389498|-3.273186|-1.740733|0.504174|-0.353378|20.160732|16.218319|-8.892258|-7.583718|-13.363672|-30.442030|-31.291178|-51.220333|-70.465983|-49.402529|49.724027|97.817403|45.718963|-18.641517|-41.974940|-40.151168|-27.983052|-18.879757|-10.906166|-23.025010|-18.907928|-19.015205|-11.938438|-10.689463|-3.093347|-1.739941|0.534937|-0.868129|4.960805|18.737919|-3.278273|-11.052730|-14.646672|-24.408968|-40.647482|-50.773178|-81.784648|-13.848590|66.400425|93.927284|76.713253|-8.785520|-21.280203|-25.184050|-35.743223|-7.131557|-11.965695|-20.536067|-26.970375|-21.556910|-8.084692|-10.401836|-1.526154|-3.902219|0.797192|-0.143522|31.748297|15.411307|-3.019327|-5.042160|-10.286353|-13.144908|-22.005279|-62.729400|-11.293187|21.719491|66.303877|79.940875|69.568648|-18.028526|-15.237159|-29.982947|-16.772524|37.994473|33.402417|-4.502239|-25.369513|-21.354430|-9.613527|-11.086084|-3.970368|-4.618646|0.376934|-0.551175|25.104967|16.413649|-2.465751|-5.054657|-2.236122|-6.437208|-27.765625|-61.291724|-25.887708|28.323411|62.597571|55.013472|19.488927|-19.651955|-13.186798|-12.584822|4.732167|12.404076|4.202392|-2.659994|-10.933156|-10.579602|-5.584144|-19.710189|-4.173456|-4.474844|-0.140042|-0.060043|13.459316|8.197549|-3.063728|-6.311480|-5.887650|-15.431060|-31.991033|-28.998293|-24.826820|9.565243|37.844338|28.328727|-4.382869|-15.122463|-11.380384|-8.768522|-6.849918|-3.093846|-0.952316|-7.847119|-2.732069|-4.143059|-2.632084|-1.501621|0.086167|0.731216|-0.050724|0.129783|17.913815|10.268868|-3.645082|-6.425878|-29.833249|-30.941125|-53.378488|-49.356564|9.017114|23.881232|5.064433|9.018406|-34.285651|-42.499633|-38.305550|-20.712525|-16.088073|-11.351098|0.337233|2.541104|1.813721|0.779377|-1.180046|-0.016617|0.870791|-0.009494|0.057761|-0.113473|13.176560|19.312340|0.114470|-8.532269|-7.621225|11.073464|-31.783995|-8.719299|-16.836634|-6.005749|-16.771502|-39.548661|-50.555069|-58.911098|-41.952424|-38.555379|-21.662483|-10.923502|-6.666090|-3.645934|-1.390231|-1.964513|-0.090744|15.160251|0.460371|0.732503|0.175034|-0.157841|39.507609|5.794771|-0.040313|-11.329047|-10.239782|-26.650557|-31.755029|0.642405|-12.330921|-27.143731|-19.309821|-52.074819|-59.940702|-57.674554|-54.042900|-35.316967|-10.467336|-12.512022|-7.606705|-14.367492|-19.328157|-23.515305|-11.526856|14.333086|0.017108|0.662605|0.616068|0.213032|-0.369084|-8.874292|-8.729651|-10.266890|-9.646580|-9.990255|-5.540249|11.290133|4.510734|3.454455|-14.286089|-28.545211|-21.768659|-19.453715|-9.996737|-6.002375|-6.921747|-6.005862|-3.074315|-0.882289|-1.140210|-1.500786|-0.398573|0.347203|0.352692|0.898064|0.392339|0.462486|-0.152820|-8.134072|-8.338685|-9.497106|-9.177048|-10.353842|-6.668185|7.041655|1.588137|-6.008799|-17.164695|-26.530028|-19.459577|-19.062252|-0.896096|-2.188512|-5.068839|-6.596888|-2.198640|-0.183328|0.457444|0.263088|-0.437963|0.424684|0.612140|0.233004|
~
0.052780|0.087832|0.920431|0.119055|0.635111|-0.303366|18.972559|8.324549|8.602283|8.071813|5.179779|7.879662|7.118855|-14.125498|-15.041113|-14.282132|-16.291432|-17.730112|-8.496722|-10.920677|-8.068900|-4.786092|-16.377652|-16.765741|-15.163274|-6.430685|0.896226|0.580677|0.718948|0.412510|0.309210|0.788109|1.435995|19.567878|8.502545|9.470152|9.517484|6.281666|21.231549|0.039055|-19.605796|-27.521927|-26.484072|-31.678091|-21.830489|-18.003186|-11.587221|-3.063819|-3.852604|-4.180685|-11.248225|-16.503219|-15.635538|-6.772693|0.696393|0.867888|0.499607|0.592618|150.324573|44.869990|58.596908|63.772558|69.713839|75.555075|65.023898|43.692693|19.007302|20.242411|32.581668|66.284507|63.427433|67.099512|61.011364|74.562989|75.694022|58.575591|61.055346|50.211915|42.160032|20.689374|60.540264|97.453033|0.270815|0.733656|0.304291|0.967208|129.457007|38.791595|66.643846|60.889116|56.730894|59.683706|50.233514|53.580487|8.862681|8.985583|51.555224|35.905243|71.025367|16.525692|40.792774|82.284765|31.035412|42.704777|71.876795|64.751953|71.573008|71.692632|101.728530|112.110872|0.460349|0.430682|0.411121|1.063454|100.357757|14.638440|50.689972|22.425525|18.110000|-6.002649|34.135217|33.548572|52.325317|9.677383|39.472929|5.221823|-23.595582|2.225331|-8.766394|36.788579|59.313359|40.697045|40.128623|39.947155|50.719675|40.616577|37.044636|76.606800|0.744745|0.553818|0.858480|-0.307165|52.105441|18.799862|41.223409|6.245745|25.415139|22.004705|28.722019|28.903758|-47.079646|-45.173454|-84.881763|16.987622|-35.062554|-5.124481|42.970780|66.540029|44.423680|14.478363|-6.006863|8.451177|2.678194|13.000773|-5.505736|56.552394|0.030792|0.308221|-0.877926|0.406399|59.552429|-25.877042|-23.564180|-19.847632|-25.264258|-25.708303|7.620656|-9.857167|-18.186792|-85.719883|-142.109125|-127.145662|-65.793985|-29.153208|62.109663|112.960831|41.427434|21.966802|-31.255540|7.093082|-12.884560|-7.521929|-23.418130|20.167153|11.972894|12.232589|-0.666291|-0.388344|26.356595|-24.664744|-20.638354|-20.754224|-37.937656|-47.291353|-15.866376|-4.397466|-39.908515|-88.717344|-50.035038|-50.538169|59.795357|0.862467|64.773630|139.473773|34.681963|-11.329944|-38.496046|-10.341783|-20.712110|-20.934816|36.411784|18.827358|11.706580|13.192519|0.043850|-1.611245|18.558038|-36.510940|4.196762|-27.561210|-11.736292|-19.999756|-9.023823|-34.653266|5.583986|39.824403|22.927095|44.927415|46.211213|1.232911|119.403305|83.168562|51.837286|-46.460605|5.565988|-30.510957|-9.040714|4.414572|8.301051|36.660804|7.105170|12.886412|0.622462|-0.464933|8.113560|-25.856734|22.341200|-24.070084|9.565759|-30.886023|-59.608000|-7.429158|-94.900949|-58.041806|-26.128312|52.143581|143.394117|74.577215|117.674056|121.046526|27.530977|-57.958082|-21.504897|-25.992156|-24.254544|-9.974884|7.919428|10.153448|7.429935|2.778083|0.682609|1.197667|14.010637|-20.667068|22.864315|6.110566|-14.869026|-85.071866|18.067517|-36.040179|-57.655101|-76.105877|51.043199|54.468811|84.498438|158.401097|107.885525|119.519589|48.361887|-32.044837|-69.005389|-51.231323|-50.296484|-32.835230|-2.266934|16.286664|0.338071|3.088623|0.605713|-3.906922|0.620812|-21.931086|-0.471999|-8.725552|15.167908|28.440973|-27.046883|-15.405631|-38.828639|-23.968081|82.094673|29.867905|85.321259|90.010251|73.798427|37.598817|-35.321313|-94.912109|-57.886827|-12.910084|-33.104441|-15.096652|21.200966|-13.141995|-8.490820|2.324225|-0.874916|-4.675595|34.553429|0.683362|5.242225|-39.226852|-61.356421|8.020567|-18.377138|8.267495|-39.628641|-5.486127|-45.577633|40.963761|101.260893|21.981004|-60.308023|-24.197561|5.161857|-124.954928|-60.629679|-17.317267|-31.443708|-19.649792|9.837527|-29.450380|-17.501061|1.346313|-1.949079|-2.124738|31.494320|-6.496797|7.236524|-55.054590|-46.781443|23.235441|-6.982225|-20.861675|26.575805|-85.221685|-8.040539|45.591520|18.231297|3.512521|-55.924584|-125.766332|-94.243380|-157.811853|-80.864726|-29.158938|-33.712821|-11.161864|8.152592|-23.575027|-19.770325|-8.253834|-2.262268|2.146619|54.241849|10.533595|59.532672|-8.006167|-83.749653|-18.308046|5.161925|-58.722512|-33.046227|-20.735400|-37.746381|84.509370|28.839335|-43.111476|-191.514592|-192.397616|-138.456144|-141.341351|-56.178368|-27.644063|-34.221689|-16.220877|-13.853695|-33.416999|-16.077632|-7.944740|0.062180|2.431277|48.272297|-8.448347|27.240840|-31.470602|-57.229394|-85.434360|-103.975254|-45.926499|24.057563|-27.182990|12.436630|108.018636|-15.475737|-10.815693|-147.729967|-160.947277|-122.267030|-108.983373|-34.760686|-16.539306|-33.686743|-15.462652|-7.549558|-31.511242|-9.531049|1.204006|-0.610445|4.037020|33.106753|0.661667|41.734213|-29.679183|-25.872284|-98.732685|-54.535850|-51.564169|-19.825591|-34.144659|2.686808|67.138073|6.092448|-23.023126|-163.267335|-146.467685|-88.666824|-98.496631|-18.252621|-22.597409|-19.412578|-30.593322|2.755585|-18.764235|-8.858672|-0.079554|0.618052|4.531935|69.152991|5.608234|30.568060|-11.009901|-11.507054|-49.785309|-111.847976|-113.155008|-61.606500|103.151301|89.433817|77.538005|65.553968|-127.826198|-238.638952|-138.336471|-121.412479|-27.137653|-19.229633|-12.793563|-19.562155|-37.271560|-44.383365|-21.221790|-9.849728|0.205673|1.337315|-2.373676|31.968438|22.869381|15.705660|-2.274324|-25.867808|-87.423305|-127.202299|-139.994490|-31.790020|98.265559|191.032690|66.706730|-29.591362|-69.041231|-132.521783|-92.795045|-90.171392|-44.807193|-33.061799|-2.600607|-20.527225|-32.027107|-22.514353|-3.738122|-9.852600|0.382390|-1.730495|-6.449471|18.358280|25.222987|-2.528344|-23.313021|-32.684728|-92.142835|-61.854677|-66.386276|6.957940|154.757783|141.196322|58.686140|-66.768572|-56.676310|19.263835|-10.440566|3.973319|-42.790251|-23.488933|-1.660080|-28.533640|-34.117518|-30.725168|-15.075121|-1.577987|-3.968866|-1.334108|-10.971390|4.128494|-0.556899|-3.580186|-11.110043|-54.286121|-72.531433|-74.750848|-50.484577|85.759826|83.872235|97.665026|60.465231|-6.445673|-47.424944|34.870051|19.962449|9.915377|16.112191|78.602797|43.332627|-23.459188|-23.914091|-29.790275|-23.926974|-9.194480|-3.243914|-1.003382|-12.766396|-2.097132|-17.075638|23.004645|-36.123411|-56.242938|-72.885453|-54.398160|-22.578315|97.423545|146.492900|68.016223|30.658846|6.002760|-15.347700|33.191252|8.527965|46.038430|-3.034766|3.644114|22.210366|-13.882465|-18.512989|-23.305871|-3.366867|-6.972783|-4.491906|-1.571758|-11.906163|7.566548|-10.770578|26.255791|-36.353742|-43.384637|-108.597186|-56.757259|11.247679|109.675329|88.650612|78.992600|9.719873|-88.083372|-23.978450|-10.271950|34.381949|-21.242775|-44.739744|-8.918993|-11.651831|1.260029|-3.142369|11.271194|-2.378163|-2.762381|-0.049285|-7.484056|-4.674769|9.749231|-18.723062|-21.957962|-64.414428|-70.358105|-72.092120|-71.298055|14.860506|77.169176|122.571580|35.565961|70.398692|-23.209351|-58.272940|-3.010585|-23.363619|-38.757357|-46.456048|-13.311317|-13.377234|0.568408|0.563755|-11.286246|-0.589044|0.260754|-0.176130|-5.682533|-1.732395|-4.881145|-21.735416|-11.577316|-28.754533|-37.404381|11.776306|-37.328243|37.177853|94.683849|75.804038|28.140983|-59.725794|-52.783678|-36.645921|7.799914|-2.265789|-20.646851|-2.341964|6.203794|16.171375|25.208633|7.867051|-14.283052|26.493403|0.069044|0.649840|1.366241|-4.243291|76.625098|-3.577230|13.580628|-22.508188|7.451395|-38.173873|-27.801921|-18.752433|43.852683|14.606090|14.669654|-74.271044|-84.290985|-9.874934|-16.136204|-6.800907|-20.855698|-11.604881|-4.238879|-22.006458|-31.142576|-32.851433|-84.146564|33.438504|0.286946|0.209660|0.767559|-0.379255|5.822288|-5.361166|24.486614|27.743864|-10.976380|-22.145605|-49.730523|-8.782388|-7.658614|-0.032368|-29.295955|-85.871281|-24.687106|-17.934282|-16.741313|-19.415850|-9.644380|-13.018881|-10.203210|-9.095306|-10.008558|-9.000616|-6.082080|0.326414|0.237035|0.124485|0.918735|1.809577|-0.001882|-0.290575|20.319539|28.831430|-3.995042|-20.106307|-28.080108|10.415850|29.268372|30.579101|-11.015857|-39.493812|-9.711411|-7.559143|2.058251|-5.015674|-4.789940|-2.035282|-3.592676|-1.576988|-1.021123|0.209513|-0.027064|0.028180|0.780215|0.520840|
~
0.783417|0.159139|0.432322|0.419111|0.174401|0.289104|-0.562610|-12.651774|-12.724939|-12.764251|-14.083087|-14.108981|-16.750554|-16.330168|-16.384572|-15.352416|-9.436926|-9.292900|-3.681251|-1.416339|-1.597367|-1.409490|-5.517257|-5.837885|-4.372386|-3.996682|0.732576|0.832880|0.537629|0.345523|-0.163229|0.265607|0.365321|-0.037424|-12.795769|-11.772387|-12.608100|-13.602801|-3.291043|-12.325860|-15.109589|-35.458023|-22.394745|-24.527897|-1.439159|2.039189|1.868488|2.335127|1.976976|2.437619|-1.111366|-6.123084|-3.992049|-4.017291|0.517164|0.851476|0.912602|0.249740|59.035729|15.008282|17.484736|-0.171222|-0.270210|0.331542|1.774000|-4.410321|-13.013800|-18.553612|-12.213307|3.781413|6.227348|-6.021073|1.756751|13.907519|28.994653|22.907877|21.204829|24.748463|12.624808|1.600647|5.627945|22.033931|0.426196|0.900505|0.772093|0.943360|29.340044|-5.213227|3.577049|-9.868347|-6.232498|-2.556578|-6.336811|-10.308378|-32.709441|-26.851553|-11.836289|-28.636904|-25.186877|-31.604372|-25.702648|14.264036|2.969830|12.502807|14.320277|8.271839|2.702530|1.039791|-0.428751|-12.668181|0.538008|0.480964|1.112946|1.322295|22.886072|-14.875454|6.535617|-11.739590|-12.974261|-28.122966|-8.473513|-19.136040|-25.189498|-42.339685|-35.453961|-104.518778|-94.121499|-50.843494|-14.868142|24.340799|20.899855|23.580940|12.655140|13.442106|7.853553|-1.608998|-17.479298|-11.646071|0.542002|0.643436|0.928758|0.629282|8.056440|-8.098822|-11.054463|-30.761544|-22.697285|-14.754565|-3.622285|-8.052817|-23.151581|-46.728403|-114.729740|-82.488534|-96.890354|-84.851516|-34.160659|15.137260|9.107691|44.012709|7.631657|6.653313|-4.925621|-7.930886|-20.327484|-14.545181|0.196535|0.777892|0.071926|0.648043|16.840542|-13.820058|-23.742049|-29.440787|-18.453438|-7.143180|14.546735|24.987178|-7.071816|4.777207|-2.875551|-46.219245|-77.895409|-59.118226|14.694380|93.564767|21.849281|41.001450|4.930236|5.871360|-3.597019|-7.692781|-17.537337|-23.861387|2.405846|3.506326|0.780463|0.811094|9.772382|-19.074835|-26.724525|-9.280152|-1.119618|36.850216|3.109724|1.974099|15.062771|24.392254|20.265791|-26.614961|18.672800|5.623311|62.391631|54.518653|38.855313|17.176149|-11.859500|-10.539962|-13.072429|-11.287078|-12.105159|-13.757878|2.888971|3.868315|1.271069|1.037036|6.693819|-26.710703|-9.163137|-4.423181|16.049132|37.095817|7.027085|0.769748|29.074118|15.993336|51.867849|37.534529|-2.251669|-6.255461|72.016285|68.785400|57.494847|-18.233163|-7.240104|-22.245517|-17.505125|-9.827269|-14.111092|-15.175461|3.103229|3.591539|0.758606|1.224424|10.930485|-6.255665|-8.224087|-20.201347|8.609219|2.831060|-73.962802|-34.557871|-79.482941|2.023489|71.708980|54.243702|54.111574|-36.404183|40.302033|97.445506|55.164042|-27.836287|-16.372893|-28.347112|-23.260605|-17.428571|-5.399754|-15.935656|3.244041|0.743330|1.171156|0.776113|8.289442|-7.414485|-4.449584|14.263494|-17.997967|-18.458543|-24.700627|-70.942549|-37.588398|-56.596632|-56.291249|-83.299958|11.397496|29.407230|27.444357|65.860976|21.127195|-37.101421|-23.904354|-32.923187|-28.562785|-12.150641|-12.680163|-17.979880|-0.616406|0.832161|0.867535|-6.620637|18.720315|5.607898|1.255500|-1.993894|-6.620947|-8.698390|7.784676|-26.569689|-47.187803|-120.944322|-78.332150|-38.195997|19.710273|96.586013|35.781442|18.954206|-71.989428|-89.887613|-42.710641|-23.846341|-25.454999|-15.487603|3.159429|-16.489579|-2.452466|0.692171|0.817551|-5.012693|31.220105|15.933375|-14.146798|-7.632229|-36.724048|-28.765081|-1.322511|-16.033296|-84.955489|-115.377688|-128.119443|20.410677|114.462806|79.926565|-15.199864|-54.595512|-102.953121|-72.671213|-36.439272|-21.224923|-24.909049|-20.883960|-3.548271|-29.330070|-3.371803|0.601298|-2.595721|-2.301009|16.216520|15.675946|-29.667837|-16.583562|-24.310875|-31.292592|-31.176943|-17.319476|2.421741|-57.912217|-26.942453|-0.679047|91.815482|63.711460|-70.542930|-128.405509|-116.526703|-72.859955|-50.056657|-36.890424|-28.801655|-21.635506|-3.463229|-32.684901|-4.806401|0.301870|5.152691|13.110410|18.031555|2.986902|5.292863|-4.776065|-25.710920|-58.603911|6.818527|-1.337483|13.194815|51.526422|23.723599|110.702851|39.888771|23.631075|-111.897255|-144.612311|-124.287775|-65.350308|-34.309065|-31.951951|-27.203359|-25.352227|-5.531767|-29.475682|-5.581057|1.048143|10.382262|11.986929|-6.749807|18.137306|20.436807|-23.349888|-20.381928|-65.628761|-44.034480|-8.690056|-12.994623|-16.457579|64.485838|111.190819|-2.354456|18.786279|-109.580096|-101.009610|-91.341089|-67.672458|-49.970373|-28.339554|-32.132849|-25.393390|-12.869680|-27.798195|-5.029254|0.451434|5.368577|-0.790343|4.209506|25.130372|44.069842|-4.452492|-11.725528|-25.424312|-9.352572|-44.999935|-43.755320|-72.569203|-8.484768|62.182399|80.159871|-7.855318|-135.697852|-65.711666|-32.979376|-62.562069|-42.539380|-29.750398|-22.468690|-22.099479|-6.048499|-29.951745|-4.815633|0.222755|4.809186|8.842293|25.260271|9.416279|22.954931|-7.790473|-20.034297|9.838432|-14.243079|2.421173|-46.904071|-33.444976|-7.519309|33.216174|13.568809|-104.374353|-123.133033|-70.331990|-48.761116|-35.814547|-38.024061|-32.587141|-27.050127|-19.119210|-20.438235|-26.407953|-0.276029|-0.116052|9.114345|-0.450008|8.821929|14.968736|-3.460340|-19.723347|-61.558451|-43.776167|19.051697|-21.909372|1.814905|4.163505|178.006601|75.941612|-70.086418|-104.722085|-91.779829|-69.691046|-40.896133|-46.624837|-32.654727|-32.241867|-26.385835|-17.256160|-8.194567|-20.786745|-0.351719|-0.100937|-5.472089|5.812267|11.041064|12.260849|5.420165|-22.726595|-55.746957|-25.600580|-27.264710|-65.546715|-21.319792|90.288720|156.649984|16.116636|-75.698119|-77.873484|-49.747717|-49.058073|-58.805612|-41.313251|-29.640595|-27.509631|-24.890578|-14.586160|0.759465|-24.457765|0.289224|1.151174|2.625362|-0.752819|8.514520|-7.309229|-2.870615|-16.832325|-72.052406|-37.750733|-46.870822|-62.812569|12.642428|92.928542|45.103684|-16.740283|-47.364514|-113.138067|-35.414531|-31.423656|-36.017666|-6.141331|-9.565534|-19.343421|-16.458117|-9.233816|2.341963|-22.329154|-0.446522|0.569815|-1.872095|-0.604744|13.176344|2.913463|-0.529141|-38.325160|-34.251061|-16.562269|-27.243648|1.526869|39.692726|80.991423|27.344843|-36.657364|-57.897060|-63.987155|-45.927628|-16.268441|-18.555091|-8.962330|-12.968899|-14.162722|-5.591739|-4.848394|-1.844172|-18.197576|0.298074|0.427238|-5.493974|-8.932662|6.246880|-13.546069|-4.389754|-19.654627|-14.875177|-32.544770|-3.483876|1.558954|73.734196|67.955429|37.217535|-17.321771|-71.504278|-44.967027|-18.699958|-16.257691|-22.125217|-20.319484|-13.582374|-12.121831|-2.339705|-9.371786|-5.393523|-22.850039|0.271474|0.813214|-4.054847|-12.343877|-25.356425|-33.027414|0.138292|-3.609195|-22.846250|3.076323|3.312349|63.285608|76.960907|61.574047|46.599798|9.245208|-51.438827|-38.350388|-8.560677|-21.483440|-14.305644|-11.958596|-4.806321|-0.788988|-1.418691|-6.955011|1.599193|-24.364879|0.054929|0.009292|1.301357|-1.426599|1.741507|-27.878517|-0.982113|10.251881|7.584141|50.361391|46.724472|77.650820|85.530335|83.489825|32.366396|-76.169504|-82.011725|-48.157001|-18.303798|-26.956138|-12.293796|-7.529374|-3.306905|1.139596|-8.593423|0.005321|-3.364966|-12.787598|0.642003|0.640838|4.947786|-3.590218|9.036509|-41.822963|0.176543|-23.846330|26.177211|7.817157|25.929210|10.971951|44.627218|35.380261|17.264131|-72.438926|-54.217728|-9.722508|-17.974385|-11.304538|-19.908543|9.235141|13.825208|9.198201|-6.479673|-14.267180|-18.260319|-7.009940|-0.429071|0.054785|2.924343|4.244628|7.645258|-16.992108|1.537084|2.466385|8.571199|11.090481|1.961842|18.256313|-5.902123|-17.135719|-58.008141|-94.155431|-36.072859|-25.600029|-9.478011|-1.879533|-1.870055|-2.823650|-4.598736|-1.770360|-1.456490|-0.850683|0.158415|0.111872|-0.145147|0.743477|2.768079|5.828719|5.356221|-17.945155|-4.744874|-1.566623|0.285423|6.283394|8.316624|25.423334|39.295429|-12.962729|-32.764958|-39.249667|-13.122411|-14.873053|-2.584326|-1.220065|-0.729940|-2.698349|-1.993538|-1.126360|-0.647217|0.464237|0.046696|0.683367|0.323532|0.750676|
~
0.439435|0.594662|0.446681|-41.606641|-41.299951|-45.814113|-47.201572|-79.446177|-80.694451|-102.962334|-118.385775|-73.705637|-27.225236|-3.943143|-11.669637|-13.826039|-19.028349|-18.872593|-36.848322|-14.033758|-6.360590|-3.536689|9.151244|9.459290|10.541842|-3.296475|0.506362|0.424017|0.577686|0.881956|-41.691527|1.048595|8.394039|-7.165031|-39.427695|-62.368820|-53.372326|-69.413681|-50.361053|-2.875251|49.451029|26.514297|31.511464|3.359762|10.858686|-32.539527|-30.592146|-49.575488|-31.634699|-13.464552|17.024378|8.581943|10.565867|-3.256501|0.060975|0.461310|0.436291|0.567337|60.917958|50.857253|45.316199|13.180526|-22.251973|10.883078|30.638715|35.037056|56.110394|27.813943|68.073131|86.199337|63.897332|95.249536|38.230417|-0.232582|-21.079309|-11.413217|31.262324|49.043803|38.892853|20.578261|-32.014350|-45.854056|0.175622|0.401487|0.938711|0.236597|23.137613|10.186180|-41.111851|-39.559794|-12.805451|35.899481|-9.114360|58.000584|97.317588|103.546335|97.947036|60.073860|112.156074|37.057360|-12.999800|-35.379598|12.101069|31.466694|50.018397|82.272810|105.429586|75.188668|24.325025|-9.497351|0.466559|0.748266|42.691506|42.451102|59.559975|-4.514225|48.721029|-103.336015|-33.967564|-115.927799|-97.900635|77.814258|137.973874|185.136316|165.326790|88.378351|-59.109185|-52.156581|-102.078581|-63.498490|-73.658837|-52.342575|54.274813|40.149664|79.868923|56.801117|29.829339|-5.187216|0.023991|0.147835|0.240141|39.850050|19.929772|-0.186824|-3.587817|-155.269806|-159.576191|-239.542515|-227.612787|34.375559|-15.147157|153.048209|219.575332|72.558161|-160.146312|-126.888683|-138.649273|-112.791021|-102.460983|-21.671861|-34.638176|24.787695|-15.535316|-8.074451|-56.188469|-7.579341|27.597367|0.346663|-2.686989|-1.148949|28.930086|-45.785596|-136.278269|-144.316590|-46.603740|-49.828749|-3.509489|105.240062|121.438086|-45.430713|157.763012|21.303608|-229.294084|-87.457901|-50.414616|-14.012795|12.333352|13.556572|-22.238133|-59.243389|-3.963835|6.867539|-18.596008|6.638623|49.240368|29.065570|-43.407969|-50.838359|13.488963|-34.475004|-187.678969|-89.893597|-64.096155|-37.830123|-163.101098|276.769464|18.587169|77.539113|41.426351|-89.154594|-143.844446|-173.670760|-10.048364|200.712007|125.195916|56.536664|34.147873|-25.000237|-57.902299|-9.533073|-36.461723|44.835019|2.685496|37.556510|-9.946441|-17.053218|34.460180|-89.217149|-127.046812|-73.557237|-64.571706|-99.364792|-53.842405|280.133738|170.148673|63.872378|156.642156|-25.760976|16.062939|-25.114235|49.609938|90.315625|148.599668|88.659026|97.200311|-47.687904|0.140446|-5.310419|-36.277973|30.694937|-17.016978|37.632456|-38.951453|24.597676|30.032027|6.638116|-105.220947|-4.484425|-23.889489|-18.049595|58.652278|191.320600|134.333235|21.934163|26.621975|-201.065725|-36.199113|108.705448|130.836276|179.786111|186.722795|25.250126|4.735171|89.996714|89.716300|74.903082|28.599054|91.017573|-3.662412|11.531655|-32.286471|2.975918|66.908242|77.201163|-34.159199|59.182895|172.206082|181.045070|158.180304|89.333115|109.020192|-190.748477|-164.585180|-297.054337|-196.918715|130.949593|143.982538|157.968798|125.477578|80.415605|11.606114|28.734792|60.094696|109.419517|66.401879|171.326418|45.753438|64.747879|-47.774691|-11.864631|-3.190519|39.567935|-134.733355|-72.049154|248.256958|219.454669|98.834308|-153.508683|88.560289|-9.578468|-207.007425|-236.905699|-85.557480|-9.313539|163.947948|-43.016009|64.275680|-12.561131|-60.036530|73.829335|45.253927|95.564999|118.020402|54.136412|40.094019|64.447226|-51.861024|-18.175271|-62.017639|-90.556598|-136.410293|92.806333|162.212682|-70.488100|-142.296793|59.236969|-107.518451|-98.908640|-157.864141|-235.924572|-39.761075|-49.850199|84.473501|-72.629976|-65.645483|-206.879092|-210.878425|-78.243178|-6.350467|4.381736|63.996347|13.126682|59.096706|69.443412|-9.543509|-21.653892|-91.722430|-104.179833|-22.411521|-66.398360|119.486514|93.970711|-21.796554|-21.743187|75.039830|-272.913925|-153.390922|-183.839684|6.288225|151.679660|185.422849|-119.400894|-35.045123|-106.512723|-172.164567|-35.433628|-76.201343|-5.635855|-56.700588|-42.135277|56.337712|29.540214|-14.127781|-24.918025|-39.296539|-66.208181|-73.311068|12.928849|57.898381|-20.604741|153.102751|-57.188747|-360.913859|-398.392842|-298.193120|3.431622|114.703073|209.729417|19.908178|-147.164902|-72.405040|-105.738407|-105.283772|22.129133|-67.420614|24.145398|-80.709843|-42.348080|16.870065|30.095922|-26.428276|-63.382505|-31.142032|-114.356938|-73.336863|78.175519|46.568529|215.441818|91.981891|70.827325|-139.535265|-319.149278|-9.316607|25.827171|167.399720|109.279107|-118.080954|-183.127426|-107.043963|-145.262951|-32.610586|56.139972|-67.482738|-33.713762|-135.117702|-2.891363|8.539843|15.854552|-9.440694|-62.843307|-56.193915|-74.142803|-37.406116|-79.281946|69.988268|31.236815|241.711362|17.047964|-348.304456|-253.659726|-66.566030|69.605930|119.632681|128.033910|-164.130715|-152.810117|-187.234657|-84.341323|136.386477|98.351501|-70.800034|-35.746908|-97.797321|-14.105530|-7.358095|-15.162926|-34.445391|-36.617711|-81.603412|-78.513428|-111.022946|-7.689221|88.551578|61.653291|80.159632|-292.556924|-377.660009|-237.927668|26.946621|111.314544|101.401432|18.605044|-68.757305|-150.167132|-140.172529|-60.816352|15.686725|90.178841|-49.755057|-9.971224|-123.404369|-28.453267|-4.131576|5.823648|-36.315605|-40.425581|35.513525|-115.884199|6.012766|4.684576|100.532512|87.376075|4.715016|-221.527953|-320.762774|-208.947781|-3.818403|264.020470|111.071711|-34.784467|-156.523033|-205.832222|-169.297086|-132.096989|85.368138|64.676282|-60.367515|-30.787782|-118.979122|-66.249465|-28.759537|-8.322501|-1.748242|-9.439761|-33.702204|-57.279431|39.976350|77.220470|59.656930|-11.506651|-178.341911|-153.936104|-206.015111|-31.203185|123.514729|306.869317|187.152104|-108.578171|-246.549127|-263.426912|-193.548448|-93.715261|-36.107709|-40.313046|35.285500|-127.087323|-94.940207|-79.450172|-6.317153|-13.329014|-11.362405|-11.009935|2.572892|-72.468775|-0.179695|163.293495|4.172972|22.027859|-137.502641|-274.587139|-283.693242|-14.686256|139.331634|264.293425|170.536501|-208.661681|-300.223255|-336.547316|-206.384662|-83.795508|100.194727|79.121000|11.101248|-97.601501|-98.755397|-64.641914|-29.938016|-13.059415|-4.404817|-2.451380|136.108557|98.915921|32.832633|95.504531|160.102585|110.199994|-203.541179|-153.826878|-103.796338|89.964770|257.231969|231.552718|-8.643134|-98.416721|-229.088044|-249.482176|-138.763863|108.877901|93.312867|146.359957|-10.933832|-64.510495|-65.789738|-57.671474|-31.899724|-19.496642|-4.331895|-7.234168|73.978264|60.195692|78.557633|54.175252|142.062056|52.384226|-57.538437|-106.873556|-117.245992|65.572906|286.168939|111.292350|50.766417|-218.487041|-193.473604|-164.155274|-100.071959|143.025169|20.446846|73.329872|-37.008101|-96.342261|-48.913308|-53.866112|-9.660964|0.419208|-11.012888|-7.065247|20.598730|65.005782|25.511467|42.482644|4.553700|-49.874352|-10.668547|-49.080562|130.000370|148.201497|200.286021|144.233140|-83.627231|-91.090693|-151.196447|-140.824057|-84.222540|21.891075|-18.754835|11.462979|-86.264865|-110.284317|-26.239789|-16.630558|15.430875|-0.111648|-12.597806|-13.665052|35.633218|88.309434|45.672645|60.007847|58.796488|22.100602|-57.255466|-0.745462|16.223550|134.122885|41.881154|-77.157111|-80.578463|-131.271603|-110.365917|-113.208518|-24.981146|-4.926716|-59.407941|-51.857052|-80.645357|-65.349418|-22.147219|-40.278008|15.915139|0.558353|-12.457900|-19.964785|-12.549890|44.119754|68.258591|30.542740|-31.562408|-7.329426|-22.804060|65.708166|101.900910|119.111034|117.183615|-87.121148|-109.982470|-50.649976|-69.250263|-26.772242|108.521464|74.060664|3.283792|26.381978|-76.236687|-72.992688|-45.701090|17.648379|5.611939|0.331360|0.199697|-20.434005|-6.112453|21.047735|-2.350238|-20.614276|-55.911977|-58.938943|-15.936397|74.588389|119.946187|79.253289|69.871289|-100.433629|16.546030|-73.348772|-108.955195|-66.174763|23.780702|-22.466860|-74.233220|-49.734763|-73.522994|-64.130864|-73.271656|6.770041|6.044476|0.136168|0.558121|0.005714|-6.562395|35.883377|3.556308|-3.405976|-24.735122|-29.671361|-26.388242|50.790718|109.447343|30.680891|-12.141406|-17.804159|-28.478269|-44.546221|-32.299024|-1.805325|2.723904|-7.950719|-11.639961|-11.296630|-11.867208|-17.957110|-5.344119|7.359503|6.934024|0.524859|
~
0.383805|0.222692|0.200253|0.650305|0.913988|0.431113|0.127992|-0.930542|-0.377743|-0.932135|-1.763102|-2.328954|-6.429358|-5.802699|-23.087575|-24.388225|-25.795061|-24.452085|-21.427800|-21.463749|-16.900287|-17.173046|-3.319220|-3.614829|-2.567264|-2.298536|0.010023|0.763371|0.408548|0.377086|1.305179|1.351390|0.878424|-0.085393|-0.549980|-0.757402|-7.992882|-4.819989|-5.867976|-34.967096|-14.143942|-21.949496|-42.737926|-44.149560|-42.636295|-51.593395|-53.868734|-26.992464|-26.849889|-24.771775|-11.459820|-11.982643|-3.049325|-2.105080|0.827585|0.426272|0.422230|0.837608|-0.144727|-28.280986|-11.912245|-22.761529|-12.071157|-20.237737|-40.303071|-40.471372|-62.265211|-70.165870|-73.198514|-85.565746|-101.502845|-107.135557|-110.722666|-62.772791|-48.751521|-59.506868|-57.966445|-58.461400|-64.973069|-20.899892|-39.834201|29.978291|0.485713|0.111118|0.557860|0.313298|-9.521681|5.939552|17.786403|31.445268|23.401474|27.375024|14.275783|11.662619|-9.762846|-2.224892|-11.034830|-8.987617|-71.137154|-110.199707|-93.240665|-79.295216|-57.272813|-17.699959|38.661810|3.738813|-13.767938|-0.975288|-0.576056|9.361198|-1.669161|0.775310|0.500761|0.991290|-16.943340|14.770344|11.988357|0.015070|-13.110095|-20.188745|-11.847037|-16.281530|-38.293110|-47.756985|-63.744601|-124.723880|-122.842427|-149.181995|-146.703392|-166.062823|-145.801351|-133.357196|-55.295398|-41.220830|-48.946548|-44.277468|-1.092949|14.177438|-5.072494|0.085421|0.094325|0.242927|-13.724174|13.731509|-3.893037|-0.575190|-6.979092|-16.012036|-2.700406|-15.424963|-28.067386|-54.275345|-69.580404|-89.547504|-84.256470|-115.407554|-102.738978|-84.952969|-153.461374|-137.960091|-94.074573|-29.802478|-48.398200|-39.984528|4.554976|2.952215|-18.219416|0.561029|0.907786|-0.532314|-13.702106|29.100803|-2.016483|-1.253152|-5.464673|-10.277565|-19.593771|-25.253305|-17.599108|-46.156818|-103.651991|-55.204129|-50.791185|-29.127493|-32.723451|-89.223071|-65.014293|-72.445242|-71.541134|-21.735154|7.795054|-39.041683|-38.175479|-11.675562|-17.807082|-11.182742|0.378762|0.601901|-36.215110|-11.996092|-5.898834|-6.598496|-16.357120|-20.732622|-55.137076|7.953208|-5.783881|-9.751133|75.921424|24.338454|81.190399|110.904509|83.987304|-69.015213|-21.692648|-31.853836|58.127315|52.209872|1.024208|-29.371674|6.651054|-0.468178|-11.253449|-7.561506|0.609985|0.808749|-46.975711|-22.717720|-17.854001|-10.129966|-15.935531|-38.994445|-8.716138|-50.645792|56.060880|47.228600|125.580245|204.760332|179.698832|215.046070|84.403820|48.354503|155.352634|53.451909|16.992217|58.173915|-71.449608|-102.625873|-59.424091|-21.356384|-9.276755|-8.448680|0.114931|1.255758|-48.577775|-25.677902|-18.855598|-16.600267|-24.925821|-52.606899|0.368541|65.948334|98.603525|132.415846|254.633160|51.012807|152.795765|142.672700|27.495457|76.520713|60.749438|25.312098|114.540310|90.365788|38.696463|30.781860|-31.561793|11.967215|6.991281|1.593865|0.016762|-0.992405|-59.073437|-20.520280|-4.855933|-20.670814|-44.932989|-2.308531|22.675489|121.365389|107.951304|88.898670|85.328437|-99.440358|-42.678778|-93.114060|105.307309|102.352936|20.927379|56.061956|76.321742|127.835850|110.580778|53.020307|-28.567929|-7.216272|-10.786017|-12.843433|0.523588|-0.069873|-63.245234|-10.268332|-19.503435|-22.688103|-58.264871|3.052061|30.586599|65.664115|28.895326|75.692622|-18.091952|-266.808267|-290.316217|-99.123750|-16.133993|-29.545413|194.762984|119.718114|25.299058|-115.242899|67.051033|59.498066|56.776066|-15.908131|-12.003522|-2.847557|0.513921|0.692086|-52.357966|-35.972951|-15.746175|-15.303642|-59.764956|-106.261833|74.587064|-116.112835|-62.169824|-53.741582|-230.163856|-296.651742|-286.281204|-201.094963|-62.398169|79.362205|140.125082|164.992786|-132.392618|-179.223684|-50.000687|19.158331|56.319168|-14.081445|-17.790053|-23.284023|0.669048|-0.520787|-68.932654|6.320841|-9.815751|-25.603773|-52.034715|-105.544668|-104.302838|-221.439533|-123.349589|-188.539066|-128.491572|-263.337583|-250.074515|-349.886902|-159.631850|60.711248|210.892262|-66.379445|-139.310716|-270.049300|-49.585828|75.020482|54.062353|-50.171422|-16.311741|-3.525948|1.383654|-0.013712|-41.410662|-6.906403|-7.441850|-28.281155|-50.080702|-117.968053|-163.624223|-263.699018|-343.559333|-165.957089|-170.786689|-248.437919|-198.191741|-178.098311|-159.751791|-66.220562|-27.957734|-112.553136|-116.749644|-180.085963|-2.451008|-46.474621|-37.820303|-54.599836|-14.340271|-3.603153|0.340759|0.571293|-27.032331|-17.643057|-19.818142|-45.711715|-62.274646|-125.213363|-200.051576|-203.978765|-228.010375|-193.637766|-203.848983|-1.992722|105.432455|32.425590|-61.083418|-76.064688|26.799348|-132.399301|-165.767138|-83.975888|-73.950678|-54.181191|-23.054014|-67.308434|-23.575275|-3.337059|0.032062|-0.551166|-33.528816|-2.929296|-17.503947|-33.236792|-59.388078|-134.964076|-190.274490|-192.222167|-111.482851|-126.237331|-90.158699|64.672221|115.042800|6.994354|-7.186172|-64.588242|-108.678974|-16.407293|-31.512658|37.311224|-89.725040|-107.292838|-59.732470|-72.852354|-19.996354|-2.719527|-0.351833|-7.119488|30.409944|-9.414876|-17.631577|-17.931722|-32.784975|-89.266416|-49.877188|-128.496670|-109.625034|48.989004|-32.984723|-39.512674|-58.374734|65.789336|-105.639934|-103.357543|-33.525488|94.791481|118.227749|-111.830206|-40.076339|-194.531140|-51.449022|-20.707930|-20.547896|-8.626652|-7.238949|-6.879796|29.067727|-30.980111|-20.304581|-12.117123|-29.338949|-11.011151|40.287066|-1.366597|-3.315452|-47.785697|-12.704089|-8.532001|-101.295327|-12.941436|-80.033831|-158.128626|34.224612|117.323800|19.810501|-24.483269|-86.100718|-167.714836|-27.315749|-20.291534|-18.908362|-8.362823|1.186425|-8.445785|14.349615|-14.108530|0.096497|-11.021266|-24.007526|-10.808738|93.790364|79.897677|-15.848102|22.922382|41.423773|54.774249|69.655511|-7.656608|14.888180|18.696597|123.482387|47.552653|-15.643892|-24.690879|-107.920512|-86.046782|10.320899|-13.472514|-22.046602|-9.489085|-5.842629|-8.154281|42.934372|-16.840159|-11.457133|-16.434001|-23.016960|36.398030|89.184095|-21.375919|-35.248287|36.284100|-95.517005|-44.908187|-39.738114|-165.961585|2.518901|33.739773|103.052562|92.566695|54.991947|-128.401235|11.870618|5.374918|11.058206|-8.433856|-22.115926|-9.235848|0.915753|-8.472723|42.777368|-26.277467|-6.907565|-13.281497|-33.219913|33.485288|86.881414|-34.459244|74.418439|92.649554|-29.839152|24.719199|-7.137458|10.955862|-83.299546|75.212334|141.723344|42.805154|-13.432974|-49.887570|-49.578412|-43.479324|4.706270|4.761116|-5.036108|4.780596|-0.320542|-0.616827|11.983759|-13.642553|6.799786|-14.269254|-26.825068|42.782339|99.905219|-47.432114|23.916785|41.655934|-19.752675|-8.049604|123.578824|-52.462230|-106.387337|-34.923748|85.558457|-14.237291|-51.730423|-112.696488|-33.343003|-1.308580|23.521277|-5.824482|1.418602|-1.384046|0.719141|-0.632561|-18.983083|-24.174738|-10.750837|-26.042374|-34.990005|16.756287|97.286268|-57.760696|55.210231|42.197680|94.828103|15.925620|-34.979753|158.632927|55.973307|-5.162617|60.889967|48.704626|28.417591|-49.310244|-10.878828|43.452126|1.303274|-30.662594|5.360745|-0.600795|0.582676|-0.187853|-11.622581|-28.525047|-12.134679|-29.313898|-39.057532|-15.289003|3.411965|-46.865015|-11.059820|66.825691|88.634893|35.289358|26.560787|-29.876839|-57.979480|-100.399011|-41.673494|-17.714147|-28.961456|-131.226174|-29.430314|-17.964491|-37.806806|-21.441089|-3.755684|0.714020|1.308012|-0.539944|4.212574|-15.315967|11.156294|-29.501430|-35.503385|-0.514905|4.197789|-33.776623|-53.301168|-90.959183|54.069915|35.484094|97.896500|119.392841|100.597202|68.119169|64.853458|-3.014373|-5.637138|53.770216|57.015175|89.692256|45.087920|-11.404545|-18.690803|0.505354|0.919218|0.601404|-7.513797|-4.862221|-3.987132|-5.834775|-6.955406|12.067211|15.980588|0.505984|-130.380460|-126.237150|-45.247064|-62.829744|-26.556779|-15.443394|-11.288907|11.135980|-40.361344|-15.292344|-11.277463|0.740208|42.477124|71.159637|50.599889|-24.409018|-16.665225|0.649478|1.299722|0.677032|-6.861677|-4.497783|-3.964323|-7.324468|-8.493769|0.428493|-5.761483|-12.178024|-39.823601|-86.725524|-64.810802|-49.139265|10.901686|30.346437|-2.371296|-32.295100|-13.903609|-94.442823|-0.764767|12.716811|44.580222|52.267456|-4.793595|-18.155144|-17.938460|0.708808|
~
0.980370|0.232760|0.351124|1.145146|0.325969|-14.203921|-4.944982|-3.745248|-2.751260|-3.810116|-15.588066|-39.547394|-46.008776|-43.828186|-43.937667|-48.834321|-32.775638|-24.267411|-23.766191|-26.480858|-12.032647|-11.677130|8.101469|6.508589|7.460749|-4.780783|0.425224|0.299044|0.591962|0.913811|0.330136|0.989184|5.237682|-11.543149|-11.658219|-11.167531|-31.972929|-23.660357|-27.547560|-47.654654|-34.822270|-57.848397|-40.848671|-54.373309|-35.433249|-15.658084|-30.774307|-42.901494|-37.267945|-18.420015|-3.662666|8.190527|7.061331|-4.927235|0.588764|0.336723|0.307330|0.013988|27.621225|12.306310|102.178839|118.643703|144.478803|66.263324|22.596664|15.829129|28.092113|-40.355950|-39.716698|-55.444526|-50.689074|-56.017295|-89.068656|-32.110869|-14.857223|-37.793933|5.094795|66.848326|86.654789|57.592107|148.637762|48.118085|0.184791|0.979278|0.521389|0.773555|100.382425|94.856711|125.121484|138.171262|135.784682|81.859400|72.838584|72.106081|7.831866|12.631063|22.827194|44.388800|-16.267136|-52.017789|-62.101050|-64.411063|-37.324831|-15.450708|48.045139|90.324588|44.150688|72.907946|129.145882|52.768511|0.955008|0.152431|0.519768|0.366234|44.568693|46.279691|9.412021|-18.041957|-35.085970|-59.320484|-55.037331|-44.687651|-52.252121|-36.321259|-11.702375|-42.157060|-4.295669|-98.440918|-68.784398|-31.308805|-69.428524|-28.742926|-11.468693|21.566862|7.375439|19.856922|113.023093|39.391131|-12.670464|0.807193|0.362332|-0.080869|14.596498|-11.805442|-21.995680|-9.704946|-36.430440|-52.913794|-21.122961|-58.183878|-112.883602|-81.148224|-39.117241|-39.026954|-131.282697|-191.108715|-64.607174|-69.386978|-129.138727|-18.577290|-69.302750|-18.045552|-20.967844|27.600772|90.988153|12.462566|-38.404652|0.639291|0.046056|-0.758336|-1.704807|-3.677781|-21.951534|-49.029515|6.344729|-55.018880|-74.991811|-60.759501|-12.831266|-23.733003|-39.336734|3.161063|-15.097062|-5.405875|92.436207|47.230387|86.537124|46.378926|93.496619|16.659851|83.895874|72.468358|94.841835|60.535948|-28.866753|-0.954500|-0.786742|6.221041|-18.846572|-23.200191|-39.150179|-45.635413|-9.694367|-33.025159|61.257841|102.115193|119.869247|126.208092|242.955322|94.185667|71.150666|-8.938728|150.408205|111.029636|24.582254|19.761287|38.019017|61.910310|50.705791|100.983848|207.972079|72.087078|-23.682976|-22.115871|-0.832050|9.766490|-14.817137|-45.788169|-45.392289|4.273564|79.479398|100.643840|87.826970|52.380560|187.893644|121.259774|269.653518|93.297877|173.249756|97.250649|87.142898|81.690016|111.600997|113.474105|132.906381|123.400748|11.606957|52.854586|55.440764|15.049057|15.186018|-22.279917|0.571053|-1.881808|15.283762|-56.933692|-13.444590|36.449540|114.033274|128.135007|32.577667|154.550110|226.645743|147.633776|189.957051|73.251039|129.858192|32.417751|43.475266|137.170314|-3.629051|6.359262|76.186575|-17.427536|17.214935|1.501840|89.679678|31.504109|11.417512|-20.610739|8.895374|8.782797|-2.017505|-40.398564|-1.241716|10.093651|39.456043|84.869088|87.363206|9.256832|147.488021|32.150427|77.917515|73.220470|31.319521|22.773304|45.714736|131.607737|87.909894|196.468997|97.567437|75.555428|-23.637907|6.762370|142.650187|70.197700|-4.566868|-31.597804|0.649809|10.076996|-10.622448|-22.498051|-23.656639|-23.096111|-15.333711|76.808055|32.343514|-13.862701|65.126091|-10.433576|76.807176|-93.839670|72.508199|95.567046|0.427708|-23.805069|85.957648|54.964491|112.465658|28.557082|0.828334|-10.180103|89.385119|56.137410|0.985573|-31.830463|0.950175|7.189320|6.568453|-76.538362|-50.281734|-38.988233|-113.678832|-19.932581|-33.110581|-106.222811|-233.595995|-27.427382|-102.133988|-114.680478|63.705138|-104.663217|-178.371855|-165.125701|27.265560|46.760512|103.203052|63.569239|-18.536141|-57.821831|68.128842|33.305124|-21.394899|-43.549300|0.589935|5.948369|9.354346|-50.679014|-107.513130|-73.965851|-154.577967|-106.432074|-91.370084|-226.139229|-193.839892|-165.006267|-51.438533|-2.280630|6.680823|-114.104572|-209.086878|-267.273067|-126.463211|22.887339|34.956831|34.611658|33.040535|-32.774376|37.838968|24.971520|-15.675093|-12.269457|5.722629|8.880268|-7.125128|-86.149069|-80.885730|-95.002767|-168.723687|-169.847339|-119.813755|-170.560894|-273.790645|-201.165387|-37.393893|-338.165432|-205.056861|-202.719787|-189.131513|-353.672984|-214.236623|-57.482143|27.410625|15.113952|-4.188268|-77.767797|40.025533|-17.085579|-25.114919|-11.930335|-2.693394|20.009504|72.709958|-83.911734|-39.191564|-74.151185|-66.816158|-123.039248|-168.510273|-103.772314|-67.484619|-89.735124|-149.224612|-266.125361|-245.271093|-150.619681|-73.304368|-254.651743|-122.152316|-78.972789|3.907797|-95.091476|-49.347022|-29.272490|67.238353|-7.003188|-42.302013|-23.898716|5.028685|17.457452|26.562381|-72.958813|-51.418885|-30.154923|-73.866092|-150.945353|-79.671862|-102.088239|-69.896974|-54.320589|-63.782280|28.685290|-27.635847|-115.498581|-104.083610|-89.008271|-188.932458|-103.965600|-18.262693|0.961196|-36.889174|-17.211140|41.843883|-68.498445|-69.744120|1.219972|-3.529137|-7.806867|67.279069|-45.526060|-70.956524|-4.663709|-30.123146|-70.599692|-47.798622|-152.840176|-29.008626|59.961700|47.485677|49.874142|-5.762075|-30.485888|-162.587281|-128.102140|-159.608922|-79.357844|-32.056848|-6.948891|-14.970982|-62.466008|-10.808816|-61.657545|-42.189009|-20.317902|-2.788092|-6.009023|9.219283|-19.409310|-28.805713|-3.455166|18.513020|-19.413012|97.468168|40.021355|9.725170|194.938895|215.753907|228.000799|106.299475|185.005922|-8.582632|-105.291351|-37.581303|-146.758851|-15.750337|-57.087409|-21.239362|-15.203284|48.010904|44.513537|-7.965161|-15.755586|-5.018339|-12.723058|18.967333|-16.776115|5.511154|74.657140|61.228200|109.491973|147.931620|208.614057|2.483610|202.181856|169.396618|89.502995|176.294835|165.081411|152.037462|112.731973|9.980478|26.600901|-53.043715|-31.481640|92.729091|11.851852|150.828659|57.725163|-1.116508|14.504804|1.760231|-9.581019|28.438118|-22.774332|5.670633|11.224809|42.982898|116.002300|164.026482|116.783971|171.019810|134.061229|137.796084|170.969114|90.830422|113.781848|35.309358|62.097057|57.062106|99.851648|34.182997|-21.379683|30.346909|85.655547|98.145286|30.206760|6.812951|14.754294|0.872627|1.463747|2.477911|-11.137670|-12.609832|37.104440|34.508567|51.709131|137.092246|62.737718|140.744658|81.798583|80.722509|118.266180|23.914295|-26.622298|108.685566|19.181780|11.710963|87.378261|114.468768|88.847837|81.568903|1.747196|-7.557669|25.046483|2.475908|16.281487|9.047645|-1.196939|16.657780|-15.599806|5.180141|8.185771|5.349970|-12.704063|6.028124|19.533933|12.408935|-34.560984|-29.784230|14.821733|-74.171856|52.083038|13.234941|40.499459|95.998171|128.536926|148.946643|-8.123395|-5.703779|-45.837804|-43.459853|49.905692|-5.470137|-8.756801|0.248572|-0.579803|41.120575|-8.487901|-31.841884|3.976368|-24.355349|-51.454560|-100.043879|-89.442968|-7.658319|-49.118451|-156.360636|-82.844814|-77.191176|-81.373547|35.571525|-19.215710|21.684907|64.537729|129.328660|29.901445|31.550220|-1.641751|-30.727420|53.019087|-9.664053|-9.053754|0.411086|-12.248877|-37.079994|-36.031368|-27.669131|-34.451820|-21.036910|9.488362|-34.590588|-43.505608|-76.285514|-62.875647|-75.644898|-118.229021|-123.059763|-87.707126|35.072609|60.017248|52.724846|59.577234|113.622534|47.109124|83.955749|9.184735|-28.972969|22.554079|-5.662527|0.822905|0.791543|-11.565451|68.900726|91.011432|-10.928830|97.442266|96.807407|36.488365|92.922665|13.581433|85.921477|-81.384063|-31.343751|-38.286546|-72.912347|24.258710|24.151394|61.162184|115.530596|80.760279|34.795619|50.409097|78.287697|57.381130|-20.929627|18.915263|-43.825878|1.182576|1.046693|-2.930647|-11.201876|2.152278|-2.306553|-13.012718|-24.011378|-24.107374|15.613630|-15.307956|-111.979445|-57.189814|-89.026647|-51.991584|-47.400627|-31.147191|12.506803|-67.637438|-33.351894|-11.966759|-30.492814|-24.951046|-18.238163|-3.329173|-31.900303|-43.206748|-33.608321|0.992433|0.866063|-2.975177|-1.585869|1.609460|2.975545|-13.560454|-15.012000|-4.718072|-32.396498|16.687811|-20.037356|44.476942|48.177786|17.370800|99.357054|115.422921|103.580625|-14.955980|21.325720|-35.046115|7.044070|-17.225950|-24.632141|-4.665235|-37.569453|-43.109122|-34.248802|0.356630|
~
0.450232|0.995642|0.235639|0.703236|0.377308|-3.782769|-3.520386|-6.505410|-5.623820|-6.248152|-5.650266|-5.801678|-20.041927|-16.750850|-28.290862|-21.239933|-26.204209|-26.529579|-12.750498|-11.244838|-11.306808|-10.672930|-5.228882|-5.631866|-4.414126|-4.946372|0.941535|0.404641|0.247087|0.389571|0.476025|0.730589|0.330298|-3.207591|-5.899288|-5.116903|-6.609134|-5.976282|-10.186135|-28.238114|-30.351793|-30.645153|-28.751339|-32.568848|-25.117421|-14.770716|-14.278155|-6.657665|-7.039085|-15.286168|-0.370711|-6.124416|-4.888950|-4.654262|0.751971|0.918158|0.499799|0.693505|23.496433|-17.481683|6.242288|-11.572732|-10.285092|-0.566583|-1.499688|-20.262696|-31.425081|-32.892846|-40.423110|-5.730052|-4.330219|-15.407472|-15.519397|12.090895|14.423325|-12.207638|-3.974581|-2.467095|1.334066|-5.614054|10.520305|20.335062|0.339259|0.319547|0.792348|0.091230|13.064459|-17.162326|0.089433|-10.567676|-11.318276|0.024628|-17.868054|-20.456727|-46.955936|-51.122111|9.522569|-16.581305|-48.163992|-24.945660|-14.238312|12.992776|4.192871|-3.251274|-10.112626|-13.542330|-9.506548|3.368342|-5.657756|-20.585860|0.702047|0.406210|0.449546|0.341844|20.223865|-9.113828|-1.167305|-11.090164|-4.381754|-23.283108|-16.424182|-33.725436|-30.019142|12.024553|22.299231|-28.388884|-48.290918|23.627973|19.349716|71.406785|11.917426|2.969430|-9.759950|-16.249850|-23.530570|-12.327036|-11.806322|-6.928119|0.703552|0.901650|0.241405|0.914301|5.510544|-3.665278|-1.776290|-16.287546|-6.442483|-8.077243|-28.877708|-33.264497|48.985614|-13.964206|-68.092240|36.186383|-46.841149|-42.555029|59.213537|89.090501|74.917653|53.790063|-5.896916|-20.224698|-25.053614|-10.514043|-1.918797|-4.046015|-0.355332|0.224257|0.347764|0.070617|-3.247335|-9.325203|-0.669783|-14.917343|-9.741377|-29.570897|-33.744321|20.304607|17.468851|101.096837|107.871972|47.640287|-2.266149|9.095635|54.463653|118.908502|87.048976|52.988080|23.384327|-23.706790|-24.987238|-15.215035|-4.427608|-26.912607|-4.661814|2.606060|0.268794|0.308591|6.289648|-13.481192|-2.164317|-16.247140|-8.298490|-26.773920|-76.273364|-19.118133|-16.527482|16.706299|28.475687|-17.420667|31.469771|44.825915|58.823264|57.772242|97.687741|29.722630|20.294635|-17.371739|-30.523498|-21.870150|-0.748418|-10.708949|-4.103523|-4.087034|0.287541|0.800967|3.665631|-15.699781|-17.932615|-19.996901|-12.893876|-39.089810|-59.198076|-30.270710|52.311669|-5.897052|-25.690199|-6.093094|46.471181|66.223021|67.864856|83.047366|101.713044|28.825314|-10.707796|-28.078051|-12.316702|-9.102969|-1.214620|-14.389383|-3.605415|-3.469053|0.943982|0.953837|9.791563|-17.687256|-18.960993|-19.955779|-15.393972|-47.283702|-95.913787|-15.781487|12.483676|-38.471788|-24.908242|-90.612178|4.780853|35.020417|37.591062|81.750508|59.556255|5.163746|-25.536153|-37.340655|-12.855719|2.127920|9.692000|-5.634918|-2.721724|-5.228879|0.086891|0.602363|5.722239|-17.991378|-16.210027|-22.664932|-17.834999|-29.832670|-50.062378|-38.955121|-84.981881|-9.606075|-106.331825|-151.748169|-114.807519|-4.626321|6.236030|40.869487|28.092020|-44.472239|-39.487038|-49.373941|-20.887191|1.146441|-4.081259|-7.355105|-7.818704|-5.454913|0.517561|0.207731|16.773572|-15.475257|-18.842929|-24.006519|-18.634267|-33.338922|-62.723629|-113.125331|-83.224991|-85.177958|-83.512372|-121.264619|-100.719168|-58.086838|42.209695|47.289403|-21.182671|-90.747713|-54.955057|-60.299021|-37.908331|-15.654958|0.629101|-13.708830|-9.617176|-5.744211|0.788730|0.413877|21.492599|-10.257135|-8.919307|-18.253596|-14.718381|-20.129722|-38.655476|-95.482076|-121.110842|-66.328780|1.661091|22.105128|0.217228|25.302536|5.936277|-38.097099|-152.175320|-121.357273|-72.488226|-53.834834|-57.258923|-31.415687|0.156711|-18.418142|-10.747957|0.049672|0.945719|-0.548223|28.380862|-28.478642|-12.367855|-32.152761|-42.900810|-29.174825|-84.504794|-127.675587|-91.105011|-25.595930|44.952396|43.095081|119.676827|22.886899|-92.989649|-173.057041|-294.275669|-163.153652|-95.420189|-64.620212|-49.720887|-33.644781|8.845603|-24.733573|-11.444256|-6.093637|0.533480|-0.267145|28.051015|-31.644376|6.557652|12.649022|22.239261|0.341839|-9.494785|43.823769|-3.097197|101.451880|63.929941|138.577401|84.094773|-54.513739|-111.897862|-204.722413|-224.460654|-149.831644|-60.610006|-48.483969|-37.154723|-30.581563|8.419233|-12.999195|-12.687057|-6.305452|-0.359109|-1.334411|18.363841|11.351708|11.430179|10.203809|10.940448|0.981693|-12.614556|89.100888|56.287165|46.698539|99.268414|114.408211|111.848409|-1.832499|-42.915447|-88.610430|-36.723595|-115.305312|-62.106991|-29.131852|-34.718418|-36.114422|10.136993|-11.318508|-13.125129|-6.535881|-0.151199|-6.194101|-0.635222|27.157596|-14.861543|-33.908708|-19.300183|-21.220309|51.298831|15.886258|49.533118|48.524627|99.443875|97.660609|120.394023|41.029076|25.701021|-4.233770|18.430413|-67.155140|-43.495538|-23.088173|-29.836439|-28.285740|10.882523|-11.441664|-12.809401|-6.188274|-0.320584|-5.638273|39.762891|-16.234286|-16.776137|-19.279166|-14.576839|-31.973280|-42.302030|20.604345|47.917362|94.858985|33.953061|63.881420|67.238092|-5.082005|-19.937929|-58.672755|-12.226251|-42.812922|-76.975321|-30.908165|-30.584699|-13.855696|3.267322|-21.733172|-7.269409|-6.703828|-3.351082|-5.826591|16.882774|-4.935585|-16.933257|-18.327137|-25.494479|-47.986127|-61.707245|-51.327020|56.491504|7.638336|45.807596|-3.630298|-8.711860|-41.940237|-20.694771|-34.526076|-6.393826|-63.315448|-50.032411|-33.095999|-13.450920|-15.178856|1.543332|-11.338304|-6.800345|-6.066523|-0.621056|-3.386223|30.954694|-17.123882|-18.486015|-25.753115|-27.095105|-37.946442|-31.760963|-37.063162|-23.615315|-5.580566|-43.071712|-49.352428|-64.763339|-75.857716|-105.076337|-73.941091|-58.896659|-36.680814|-31.291506|-26.161406|-22.857145|-17.566236|6.399006|-11.537017|-6.768949|0.691274|-2.543805|-3.101027|34.673156|-16.103479|-18.047499|-26.130706|-23.232491|-44.853074|-74.249160|-22.401775|-16.255611|26.479721|-1.623632|-75.369381|-71.675274|-98.696154|-95.510942|-67.479030|-53.194526|-27.880357|-17.849017|-14.676756|-16.487550|-18.691299|8.117669|-1.400327|-0.077986|0.771921|1.373300|-0.681258|28.013521|-17.444105|-18.140874|-19.761766|1.494102|-25.075880|-6.085080|15.345047|-23.544445|38.494367|-30.305738|-74.221151|-69.575722|-49.954014|-76.369094|-49.740292|-36.178447|-20.196277|-11.227047|-7.904114|-6.804205|-8.120535|9.730972|-13.290296|0.566884|0.459828|-0.773027|-0.229814|47.393666|-17.750031|-16.035312|-7.583945|4.041570|13.364315|50.792180|-8.402581|-9.423842|7.886886|-49.880237|-78.795453|-60.059299|-35.329021|-50.373735|-37.998220|-41.107997|-29.641142|-13.793137|-11.912160|-9.159929|-19.218423|0.251545|-18.429419|-0.130312|0.109509|1.537250|0.074436|11.833527|-26.693780|-9.258442|-19.420738|16.368683|55.041536|11.618003|37.019299|-1.082577|-39.686333|-54.715728|-65.406824|-39.609206|-31.597551|-18.595457|-40.837335|-43.046709|-44.469168|-28.593118|-22.414783|-23.822617|-20.754776|-24.391294|-3.619725|0.799318|0.638222|0.994282|-0.702553|39.038785|-16.315471|-32.544798|15.786645|20.404996|6.602278|3.071450|-3.230215|-41.032112|-45.483264|-32.673375|-63.358179|-30.029795|-18.964443|-22.146670|-35.265174|-35.965605|-35.668488|-26.237315|-19.326347|-22.083143|-14.541657|-23.530146|6.140725|0.642870|0.593300|0.449265|-3.695604|43.820871|53.237193|54.935327|12.330764|56.596960|47.869107|56.106805|47.809628|30.278706|16.217559|24.500942|-10.943357|10.608835|19.129713|-21.359413|-11.790964|-12.497632|3.962304|13.106710|-17.687079|5.211243|13.721317|23.943861|31.836680|-0.053677|0.036382|1.124600|-4.270902|-8.412511|25.267903|14.993333|-1.556260|27.010995|44.890663|25.071009|33.111391|-37.771852|-12.916008|-48.028422|-71.523147|-39.999696|-21.177662|-5.611905|-3.086985|1.251569|-1.425351|-1.936021|-0.231500|-0.479977|0.399366|1.124086|0.417353|0.113841|0.000418|0.984138|-0.549049|-7.964496|-8.589618|1.669597|-9.651781|-0.024452|15.120856|-2.420811|0.226045|-27.092515|-36.582690|-26.216684|-28.555760|-10.022830|-13.975020|-2.280487|-0.201268|1.995936|-3.141018|-1.773010|-1.012120|-1.054690|0.708026|-0.662566|0.430447|0.281011|0.807470|
~
0.518655|0.860343|0.796019|0.038426|0.330116|9.196258|5.732302|1.787138|3.198849|7.051432|6.369229|31.582631|38.280764|26.292527|27.146301|1.515519|2.166805|2.427895|-3.216970|-3.383181|-3.381782|-1.853339|-0.097078|-0.639221|0.514810|0.570401|0.413896|0.795244|0.746382|0.832551|0.317550|0.270657|0.424958|8.104812|2.032892|0.932410|-0.234772|1.702434|29.034266|41.715369|91.634401|37.635012|14.470187|-10.230232|3.585131|5.027134|-1.950265|-1.968852|-3.343798|-1.222790|0.499613|-1.160500|0.409621|-0.513469|0.692538|0.386500|0.105134|0.106434|211.416365|16.427874|-23.714473|-4.686433|-18.799721|15.408975|27.465278|-30.756332|-69.655369|-39.246525|23.634703|1.363092|-21.602059|-5.685569|-61.394464|-8.497047|30.724458|20.376830|32.987704|31.482035|10.860248|-82.641217|14.865852|122.413774|0.030525|0.060102|0.107077|0.723062|71.922839|-8.796895|-19.549068|-33.318422|-45.308494|-27.799917|-32.776350|2.210628|-7.789633|-24.561268|8.678590|4.745050|1.676653|-26.761420|-48.874522|-33.663127|-57.335106|3.030604|5.884980|10.719132|-9.132669|-54.119376|-14.567740|9.842948|0.272050|0.331396|1.186245|0.756161|-2.210605|-20.279009|-49.033311|-63.891405|-44.855143|-71.075346|-62.091506|-36.308296|19.908809|-80.825007|-33.617217|100.849772|-20.696792|-82.171146|-52.560310|-31.532543|-41.410163|6.052757|-11.851326|-6.349186|-19.809414|-61.510720|-60.837971|-33.680267|0.830247|0.576319|0.842098|-0.241595|-11.443302|-1.212226|-7.225707|-9.173468|-38.734633|-77.478228|-23.008920|84.861435|66.505078|-5.256830|41.560862|164.208062|-33.029963|-41.878257|-40.152095|18.918310|-45.182464|26.577829|3.029264|-7.051829|-23.009703|-34.469696|-55.833570|-11.123023|-0.558204|0.508305|-0.088474|-0.717742|11.900066|104.049175|-57.998214|-70.018832|-92.775115|-106.331886|16.335584|54.638433|99.784917|106.620451|106.489781|-4.037399|-46.678953|-86.474115|-6.848811|6.552952|2.025029|16.151278|9.249285|6.100038|-22.599427|-43.708233|-49.426188|-53.291468|2.454852|2.893851|-0.936759|-0.553283|9.409549|-20.674909|-60.145969|-93.426133|-87.541235|-43.273832|-66.668233|67.591093|50.387956|78.113287|22.224808|-76.845395|32.176990|-70.144704|20.368309|13.911289|35.543991|5.263331|-21.490662|-15.927224|-29.713064|-44.874759|-23.944049|-40.477626|2.029212|3.349761|-0.785281|-0.431209|-9.273320|-1.034341|-16.390349|-38.433064|-78.176763|-152.455333|-41.719709|-123.800886|-90.618083|50.626242|144.043572|-25.609560|-45.995699|-138.062599|4.836904|-9.261031|-14.610649|5.478016|-9.322281|-11.531191|-30.746082|-42.876951|-40.848917|-22.422135|1.384312|3.563989|0.397738|-0.999049|-15.133230|-4.926703|-19.144584|-42.000351|-50.007795|-83.246443|-135.314876|-61.644715|-2.818332|201.039938|85.818060|-76.216435|-21.200745|-118.071155|-90.790237|-15.004108|-55.879400|-52.663304|-23.894238|-15.207580|-31.377614|-46.159359|-42.325887|-62.753582|0.711765|0.438957|0.427444|0.840004|16.372855|-4.231215|7.224073|-20.994481|-36.731465|-87.612717|-73.564104|-131.663256|-44.140318|21.157507|109.891350|-72.414749|-145.892013|-140.048573|-51.114277|-60.847146|-59.666997|-81.437749|-59.001304|-18.033134|-33.082328|-44.492145|-45.408843|-50.162376|1.308402|0.637020|0.678720|1.800135|-21.857795|-21.114150|-3.600101|-20.245855|24.716276|-101.659321|-234.642615|-189.333723|-43.362745|-24.011559|-4.722310|-70.032217|-108.541335|-171.592046|-144.028524|-63.989172|-143.346538|-111.603711|-79.553393|-32.252966|-35.270659|-41.924474|-26.653730|-58.604201|-1.324230|0.924330|-0.069357|1.160879|10.788983|-51.124071|-22.538411|-17.274222|-87.708556|-165.062780|-185.245894|-196.672607|-29.361518|-123.873937|51.764963|-44.163436|26.083464|-167.140007|-144.475799|-153.633995|-101.052520|-101.319851|-68.523783|-38.996668|-37.621132|-49.419590|-31.013413|-57.727785|-2.037599|-0.002670|-0.653180|0.394663|-10.976525|-59.250164|-67.947115|-62.214958|-107.539388|-130.346714|-242.596342|-291.986707|-50.730706|111.655328|152.916170|38.849336|-161.199287|-194.609310|-108.643555|-176.182152|-147.435890|-86.891939|-58.787154|-34.307686|-41.502516|-44.909955|-9.033722|-66.146044|7.478866|0.588088|-0.755195|-13.863088|-1.999493|-56.865661|-76.986896|-37.127832|-65.749023|-85.536843|-188.425793|-395.997414|-146.983585|245.503660|92.821413|75.951873|-120.679874|-231.710397|-255.432408|-234.397605|-154.407785|-93.633080|-83.282777|-36.470077|-39.773342|-49.323283|38.758823|-78.180413|6.677973|0.257349|-0.028133|-14.163036|-10.457149|-55.175169|-63.983573|-52.349452|-12.341727|-74.861249|-228.706004|-206.859672|70.154942|74.438877|326.622891|174.243795|-85.305003|-184.283054|-289.476705|-204.973917|-133.213053|-115.096634|-62.529513|-39.620906|-38.737184|-44.819551|-7.141406|-62.159456|7.200945|0.128141|0.042938|-14.141143|-18.533328|-58.248013|-61.020374|-39.672328|7.160949|-40.919427|-112.530978|-90.218297|-69.804175|-5.133002|294.059787|190.952081|24.633375|-28.571625|-167.428491|-176.983916|-146.201999|-116.851242|-74.146771|-46.765108|-22.983067|-45.069548|8.551837|-43.355917|6.750737|-0.379803|1.550617|-14.338907|10.421257|-42.865488|-81.096430|-62.486934|-25.135170|46.153384|-37.539702|-80.617032|-47.398681|-22.798675|232.663994|168.375460|-30.963423|-189.989699|-177.304392|-118.415798|-107.024678|-93.406714|-81.852032|-36.367267|-23.694677|-47.008295|-40.177005|-45.630310|6.509359|-0.101258|0.360980|-14.609535|-38.296130|-51.115460|-37.455957|-76.837540|-91.263478|-86.571758|-200.417394|-198.170671|-66.295016|141.224030|250.139865|205.024248|-87.441894|-151.349181|-114.769231|-124.095815|-85.044769|-96.840024|-88.901132|-49.690489|-48.958504|-62.275993|-17.163976|-31.390118|6.312024|-0.494213|1.716002|-16.444417|-13.942618|-33.336351|-75.774137|-99.846060|-131.287860|-144.720379|-199.862565|-124.462280|-113.293499|-90.770308|162.949475|247.868756|12.979968|-45.888646|-100.940165|-71.917156|-89.402838|-98.405452|-67.743778|-57.871837|-44.258689|-59.355911|5.579265|-50.167604|9.298832|0.680504|-0.169700|-1.843193|59.088727|-44.178553|-61.996070|-81.103447|-121.631988|-155.816452|-156.975359|-167.553272|-189.870800|-35.150417|139.449170|171.960085|73.701560|-35.094503|-151.962192|-95.957067|-86.277436|-74.325565|-65.014868|-53.780704|-36.838974|-52.176327|9.226361|-33.342471|9.420771|0.529270|0.343334|-3.433554|72.920893|-55.156852|-46.180265|-84.252512|-114.640165|-33.405875|-132.434964|-293.845860|-201.622050|-93.824504|285.381031|181.635458|114.771065|-119.905054|-113.672432|-44.700604|-69.118986|-52.549542|-56.997733|-43.290369|-24.904956|-19.084700|21.344361|-64.428501|7.586270|0.365734|0.310525|-3.837718|-25.910969|-72.725225|2.414473|-15.537992|-43.342419|-42.605457|-128.689659|-75.181302|-106.688025|-31.418438|207.949783|212.805742|54.146740|68.451787|29.848880|-4.361762|-56.007359|-31.574897|-24.874592|3.526547|0.263543|-1.641240|14.457197|-16.520074|8.156962|8.123216|0.066098|-0.824220|35.084621|21.650299|29.078822|-16.492878|-82.526532|-130.943240|-100.687675|-151.654755|-69.558955|10.181161|68.721385|208.812028|-61.137193|121.234193|-11.479459|-48.382428|-65.777001|-41.442989|15.720243|5.262931|0.686408|31.528621|15.277545|4.338945|8.288010|8.436145|1.222983|-0.466348|-9.215728|-59.703660|-17.731800|8.912212|-17.767733|-9.122179|-123.879467|-63.041911|-69.026056|21.489767|62.071725|129.891696|-9.642507|-14.572776|-11.772940|-13.221443|-86.788899|-24.895394|-27.516400|-6.678558|19.913297|13.530125|39.075306|38.536864|8.585672|0.780467|1.070469|-0.120882|167.123524|-46.465144|-80.985450|-79.207798|-71.658895|-105.287176|-24.584764|-24.645726|-69.266380|-42.257491|57.064387|78.946565|-48.157874|-31.997824|-20.908321|-34.104224|-80.142282|-31.860417|-24.056187|-5.008968|-65.127087|-49.206880|-59.198774|77.501238|3.788019|0.493045|0.062791|-0.065453|-12.914028|-30.692501|-38.800503|-11.329104|-64.331764|-71.934881|-81.623450|-81.282868|-56.520209|-110.942760|-36.154974|-28.528782|20.027547|1.769138|-22.772550|-45.450297|-30.659256|-15.434979|-13.281920|-3.189619|-3.584207|-3.249490|-5.757814|-3.786542|-3.212295|0.492889|0.871536|0.041025|-14.180102|-13.233476|-28.251005|-28.863505|-53.888648|-80.688386|-155.899639|-139.691254|-121.297296|-34.029665|-38.801353|-18.419679|4.031519|-9.211858|5.314711|-12.458744|-33.437407|-16.006324|-8.349884|-2.090545|-2.439163|-1.189054|-4.211240|-2.931683|-2.455743|1.530879|
~
