2|230
#
~
0.190880|0.544574|0.375774|1.181022|1.156984|1.475884|1.181059|0.041215|-10.036790|-16.489898|-19.839720|-37.576427|-42.832947|-30.313329|-18.312031|-18.143611|-10.616470|-2.845384|2.104133|20.411870|4.531465|-0.334744|21.531732|22.102470|19.953307|11.500757|0.899164|0.586499|0.944399|0.563798|1.094617|0.256379|0.062583|-0.186306|-0.720203|-10.250408|-12.485055|-22.060421|-44.205256|-71.561161|-38.605386|-32.378580|-62.782950|-30.459530|-14.930453|-9.344517|-5.947558|9.806584|-8.282296|3.204906|21.907913|14.895092|18.104677|9.949730|0.797187|0.254126|0.591105|0.696351|2.200604|19.255166|11.016665|12.751564|15.102818|-9.722629|-8.502155|-7.704577|-38.485438|-25.381832|-20.370200|-15.755493|-53.670679|11.900233|45.987457|-1.185570|1.490760|32.144771|-20.685037|-21.864477|-4.277294|11.410157|11.333941|11.369569|0.573577|0.377733|0.761845|0.370765|-4.978987|-17.554033|8.848823|14.021516|-8.517481|-17.729809|-28.504713|-83.160423|-99.196806|-72.202779|-51.388564|-32.021054|-30.676925|1.748338|-23.775906|-20.532108|-6.457088|8.676713|7.925362|-17.162419|10.120252|7.282986|-13.216227|-1.084106|-0.829609|0.763825|0.456384|-0.065240|29.864361|7.884763|8.538838|6.465939|-22.559578|-39.669612|-61.256986|-85.821557|-105.218007|-89.823668|-39.870737|-11.022745|16.323771|-10.700442|12.414557|19.857250|-2.631581|34.927721|39.125413|19.571029|38.469408|36.906688|13.411741|26.588436|9.952262|0.715562|0.349823|0.736665|-1.134158|-8.392424|-5.093755|-1.804916|-56.493985|-61.227754|-103.559223|-131.524474|-127.121016|-185.186285|-57.855433|26.891996|66.162253|22.339216|34.228446|31.517716|34.351520|27.593995|-8.905042|-11.508674|26.940795|39.100739|-13.460542|-5.452159|11.060377|0.427175|0.860686|0.136105|1.417858|-4.440616|3.467268|-23.149286|-53.808984|-86.673175|-90.996744|-113.859098|-151.187372|-77.625779|-88.954751|55.878220|-25.276325|89.561790|59.274809|86.665028|68.203604|30.893942|64.387330|-10.366061|8.189917|-25.369911|4.292880|-32.018377|-8.297657|-12.618365|0.301387|-0.602680|26.789877|-7.470818|3.554292|-19.620315|-59.134353|-45.623658|-154.982240|-126.263052|-129.990986|-136.184195|19.158657|49.605846|-6.206478|79.612172|98.336672|66.666121|75.526470|55.060931|-48.400566|-81.874178|-28.671196|-27.236026|-32.246170|-13.105439|-10.754996|-23.396862|-4.319139|-6.249289|24.544949|-10.181852|-19.224521|-39.251383|-85.722234|-71.169505|-127.005774|-168.093323|-173.723029|-74.107515|57.604334|86.333735|-6.086825|33.261043|9.257912|122.154978|54.415256|107.445610|-3.418540|-46.863043|-24.799352|5.717047|38.880169|-4.042960|1.114663|-23.774843|-4.496481|-8.731270|15.367187|-9.847420|-32.867681|-52.801246|-85.064811|-110.368261|-121.699221|-74.013680|-42.616123|-100.105394|-52.213074|53.006891|23.178069|19.296176|21.563791|24.114423|78.421049|101.076621|28.944593|-63.586830|-31.336528|-1.847343|38.892489|-5.218906|-15.632941|-17.069111|-3.246121|-6.560565|9.920810|-16.665186|-43.846380|-62.861982|-87.441563|-78.806934|-50.653021|-12.505176|-20.111519|-104.061131|-75.542929|58.928875|14.003244|-49.174675|-6.553326|38.806743|-33.366285|-139.740730|-89.479687|-82.254317|-47.938452|-17.689910|-31.919978|-49.520692|-4.921960|-19.366685|1.513514|-5.499527|8.377011|2.199652|-35.752329|-33.160296|-67.474494|-162.472684|14.122662|48.939180|-23.316590|18.641564|33.084696|134.159006|168.342741|127.295178|-37.969093|-103.813812|-69.827778|-39.455254|-88.822303|-46.631582|-65.908704|-38.366244|-21.631512|-41.807836|13.353969|-23.481001|-0.910377|-10.932264|7.519656|-0.159719|-20.545876|-8.796255|-49.082207|-77.801132|65.179679|112.721687|53.289428|123.711164|145.835475|185.481660|58.903829|62.545173|-6.598865|-51.703915|26.142933|-2.368953|54.701705|0.100621|-28.097786|34.391847|12.853042|-43.436376|-2.989338|-6.019233|0.456103|-9.298665|-0.030468|-21.973157|19.383673|-10.078693|-68.200747|-33.559551|109.920087|176.059835|96.362905|87.108182|146.349983|54.278003|77.222180|-10.857533|-144.191326|-106.944310|-8.509922|43.827138|51.590434|-24.149597|-17.539470|75.321736|30.491429|15.804632|13.737967|-5.663124|-1.824666|-0.985362|-7.825967|-12.615426|1.193185|14.831477|15.003311|42.488292|123.240561|157.853059|138.892306|-38.863803|140.752899|189.290032|78.887345|-28.366810|-77.704281|-33.104719|77.158468|9.871278|1.871166|-12.505846|19.476808|75.423517|96.090294|20.641702|41.237287|-5.767590|-1.525936|3.422759|2.686950|13.195193|0.418030|39.483143|-8.683086|-13.547562|89.819613|87.238414|48.248416|-12.589644|123.188029|110.594788|-9.821419|-63.574930|-49.162897|23.844869|75.632918|-0.614100|42.954969|67.209459|-0.447302|69.175409|43.957582|44.638896|60.201868|-2.761835|1.058346|4.694022|28.223059|0.934053|6.445971|-9.079235|-13.837980|-85.193814|-13.613079|11.944708|7.280782|-68.161383|67.888793|100.544224|20.420577|-137.682944|-106.173037|6.711196|37.178161|-19.977098|19.303019|-21.744373|-13.011581|30.034290|60.112673|46.935239|41.890159|10.460679|5.400974|5.278529|6.606916|3.929802|4.668993|-5.675583|-64.082780|-112.188390|-17.033180|-30.003502|-66.813572|-75.369088|-30.751089|74.399595|45.836878|-177.556956|-27.636902|81.955290|-32.099698|-124.787375|47.604430|-30.375344|-37.140631|58.112645|94.182637|-7.842150|16.934226|11.751367|3.562146|4.606531|16.044840|-3.620091|-1.373687|-16.233282|-6.861444|-121.352943|-66.405962|-67.938138|-222.499725|-235.964835|-58.114148|100.056769|105.408117|-106.248925|40.401624|78.794701|83.208426|-38.634356|23.529887|24.142109|-36.454056|21.943214|64.006363|-22.378178|22.987963|2.219330|1.209061|0.930876|-18.306863|-24.787533|-19.568614|-15.043121|-52.448508|-40.268446|-55.440887|-94.160613|-163.082604|-206.671189|-87.626694|6.487940|-47.238017|20.087995|-25.918676|48.706613|21.400266|-61.004665|-4.658147|26.737970|-49.880786|68.533009|35.974192|3.343206|53.631949|39.289297|-0.418728|0.847777|-9.678063|-45.122989|-21.724509|-27.987291|-94.310616|-57.324701|-131.839981|-72.660876|-144.645576|-191.599823|-150.290323|-29.608953|-0.198562|-28.987831|10.424662|53.343503|11.167278|-49.050186|-17.721409|26.382231|-18.219902|2.429632|53.672079|16.496942|35.713611|38.950287|-1.837608|1.221996|3.885269|-28.112299|-33.876881|-38.156300|-88.748493|-87.040198|-120.868161|-55.439028|-104.550113|-92.651376|-77.625306|-117.770150|-61.359902|-64.219420|-62.253932|-71.097120|-80.169013|-82.512352|-49.756554|-50.116716|-25.564161|-9.830240|35.215075|-28.719277|5.731770|-2.144811|0.476252|-2.257327|29.483865|-9.850256|-25.661080|-39.069367|-77.270130|-81.982994|-77.308946|-74.401253|-37.557480|-64.700362|-109.671025|-105.167827|-111.497461|-105.086156|-119.200046|-135.437270|-109.709712|-100.803235|-62.231418|-28.399888|-45.097677|-24.366667|30.936664|-59.934678|9.899916|12.245798|-4.559395|-3.054125|27.761445|8.574419|-6.689733|9.486217|-29.921857|-18.554321|-67.452836|-58.003459|-66.445202|-55.125141|-67.237016|-58.278278|-137.510027|-147.111207|-144.013165|-74.090824|-9.933735|-40.566213|-26.068300|-30.051130|6.872796|-28.084584|62.291311|-10.855842|13.554760|10.729330|1.860418|1.614663|29.739321|40.514850|38.868408|32.074801|22.401185|-24.363259|-27.136779|-35.681818|-68.571842|-41.801343|-28.292436|-73.425073|-58.564664|-81.360056|-66.534065|-40.973638|0.120263|-19.056239|9.652554|34.452399|24.726994|53.785396|67.314615|9.973433|16.986378|-1.339080|-0.549031|2.006921|0.020255|-6.458277|34.690878|35.771460|28.051437|-3.117154|-0.569368|-45.209979|-50.079086|-45.971008|-38.732679|-35.070511|-31.642214|-29.730036|-40.328432|-36.661943|-68.161685|-34.809364|-39.771759|-25.441488|20.456561|16.988348|34.068234|-24.461369|11.981282|0.622373|0.123840|-0.303521|-2.570427|-3.714793|-16.543335|-16.322811|-15.357272|-26.740331|-58.567469|-73.858069|-62.143542|-66.393363|-76.310948|-82.755566|-80.135676|-61.641916|-84.326721|-62.313283|-55.879645|-30.218516|-33.950029|-36.064406|-40.561561|-36.967154|-20.769023|1.854682|1.239684|0.678882|-0.045646|0.652022|1.913192|-1.257768|-4.940883|-0.746226|-11.088967|-13.712551|-46.090159|-61.363991|-59.150285|-67.383512|-89.795910|-64.756396|-52.701248|-67.436016|-61.338378|-45.765501|-56.546789|-28.530047|-55.916506|-31.531680|-53.004882|-30.666721|-22.171412|1.276624|0.877890|0.646301|
~
0.284591|0.831470|0.602194|0.640870|0.961482|3.752993|5.190257|-1.663836|-3.408268|-5.467653|-3.002212|-6.219250|-10.569913|-4.116213|5.422217|15.688350|0.927174|6.170120|-5.358785|12.140294|1.334469|-3.383213|-3.664732|4.772232|4.103643|5.551068|0.588132|0.408892|0.783898|0.519829|0.333622|-0.185096|0.223740|3.690959|-2.162108|-5.081497|-4.183508|-6.272110|-2.889311|-18.372292|-15.814333|-14.058790|-26.250048|-0.111009|19.365034|2.559002|6.877380|5.550557|16.066885|10.632970|0.278625|7.214940|5.129940|7.188600|0.418394|0.508276|0.543645|0.006526|-35.944491|-31.861510|-52.989200|-58.094733|-54.544434|-58.943842|-75.123048|-48.494064|-48.043584|-55.098148|-25.181222|-60.640954|-58.577251|-65.742158|-60.832808|-13.495879|-7.139569|25.462505|13.238356|-28.699182|-25.242448|-32.569943|-100.978182|-96.585283|0.569511|0.347310|0.837140|0.987905|-16.307853|-25.674091|-34.106297|-53.979847|-55.671719|-64.364046|-23.688166|-18.489064|18.433722|-16.342816|-9.100512|-2.355501|23.724134|40.306212|40.907947|7.319575|3.130364|-3.254634|11.128471|2.954870|16.043572|-21.902932|-64.664270|-99.285357|-0.009939|0.094801|0.396082|0.171120|-13.512894|-19.961469|-26.754467|-26.732901|-43.417051|-29.037530|40.990586|69.802829|47.426649|9.028744|0.645757|46.765554|72.561981|14.501956|9.881325|-3.811132|6.033296|3.309838|25.674193|17.148694|31.399392|24.314676|-46.862562|-92.560560|7.964598|0.793947|0.362726|2.480935|5.364245|11.278288|-18.923517|-35.517035|-48.737233|31.118344|72.023757|90.395551|42.670977|45.025448|19.354214|21.886891|115.075461|7.498389|64.604624|41.209762|-45.040114|-49.437236|-35.219468|11.019103|14.780811|16.376003|-32.855367|-67.868074|4.602157|0.211132|3.284228|2.429162|2.034418|8.231934|-12.761083|-51.350056|-11.231133|29.948165|44.748238|14.983407|-12.627708|37.864835|2.371894|72.639248|-2.700186|-23.862437|70.666298|27.604811|-27.178149|-59.706725|-64.817199|23.776023|13.975783|-31.309287|-36.836961|-27.273618|7.773361|-11.592365|3.958333|1.309901|11.128352|-6.389991|7.879208|15.266546|15.355921|72.014054|43.362579|-44.201462|9.749151|-25.462052|-34.809728|-28.204767|-29.870485|9.183441|23.597782|57.756835|-9.635482|-38.406191|-42.175630|28.011699|43.468504|7.879424|-37.826914|-38.400671|3.960741|-12.542153|0.429166|-3.855849|8.493764|8.035723|11.507479|3.548615|25.709160|34.447706|-50.833779|-31.127979|-9.252863|10.579455|-33.046216|-39.991136|-22.536863|-61.156646|80.565246|70.985393|-26.101217|-32.673969|-18.775309|-8.989545|3.109246|-13.684106|-36.158439|-51.738572|-6.741026|-11.869068|-2.639906|-2.075947|3.595857|6.145347|-2.563162|-13.195386|-16.437469|-13.215554|-1.372207|-26.085210|7.052547|47.860425|75.823919|36.763244|-4.993906|31.891268|146.494210|130.077568|64.080900|53.390810|-26.852685|-63.551087|37.231772|1.357086|-4.531506|-57.692587|-5.380631|-0.656659|-1.225263|-2.708197|4.021433|1.853114|-12.037010|-18.087190|-26.429890|5.846460|-64.838582|-9.199368|62.655297|59.414953|0.552652|37.682500|5.080136|72.471754|188.748651|107.783453|53.390663|-18.779515|-18.532663|2.991757|46.085682|37.705431|-22.816720|-63.635401|-9.499389|-8.339708|0.878538|1.298240|7.579172|27.355541|-0.432666|-18.642863|-13.446576|-4.932447|2.436440|1.961285|24.391336|24.918209|-12.020089|-38.975672|-10.723762|113.497789|140.034978|105.553039|-38.610393|8.080363|-81.901413|-62.820708|55.434929|46.841958|-38.567325|-60.807431|-0.295266|-9.929415|0.846009|2.821430|3.635168|5.894805|-39.547522|9.413047|38.425836|49.386203|-20.513585|-44.789787|-41.864586|-20.188563|-30.996041|-36.320827|-58.661832|-38.379098|47.283857|38.537308|19.771657|4.716826|-5.489913|38.777208|67.059413|36.975322|5.589952|-56.582905|16.663895|-22.735733|2.586753|-1.708074|8.615681|-5.045057|-50.479151|-16.699220|56.228893|29.605741|-14.509246|-60.182552|-27.412682|-36.022062|-61.959326|-23.335204|-152.431637|-184.417647|-29.449688|88.727032|-20.042727|22.067938|-22.608293|-16.502350|6.420712|46.670045|-27.799098|-40.378005|4.769404|-16.214114|4.182651|-2.889049|8.914982|-19.591469|-32.337607|-38.954981|4.440317|-43.289474|-27.742101|-55.945432|4.156088|-12.024125|-23.231139|-33.487701|-120.489919|-152.204990|-62.644492|4.450197|5.266222|-22.091852|-43.420342|-45.504960|-3.708025|43.281694|34.443670|-33.704579|25.407882|-16.008568|3.706624|-3.277599|-11.821737|2.995890|-3.277586|-12.666280|-15.711158|-11.789176|-66.508848|-40.988491|31.141270|26.953976|19.019862|-12.249473|-11.911414|-39.861511|-0.106223|-68.430122|-5.233131|-39.019040|-55.348374|21.986682|33.352998|4.587685|26.026570|-51.461558|30.580835|-6.128878|6.200498|-13.877253|8.923658|20.650181|-24.543337|-37.997497|-21.530675|7.732952|-77.187802|-55.856174|-19.249875|-41.415469|56.705828|3.587083|81.139865|57.786489|92.481720|39.584233|25.901456|4.262493|32.775750|10.809418|-0.155669|-10.951533|22.846204|-42.290735|9.668951|21.305399|-14.990920|-9.219958|-10.617281|27.138149|-27.229583|-36.442810|18.220245|7.099246|-1.524406|-49.479997|-49.555169|24.968960|132.787122|43.196804|48.508074|23.783215|66.144255|59.158520|12.771360|-21.816355|19.103948|-19.617456|52.827482|-19.551942|55.818637|7.719429|37.013086|17.715448|-11.803822|-7.739186|-2.558343|26.221946|-2.916461|-28.865931|31.826074|52.141187|5.704794|-49.878331|6.370864|35.034367|-13.258159|57.767747|-109.411089|-63.798650|52.936167|-1.246411|11.941113|-15.131358|-58.893350|-45.947488|-10.304468|0.276366|21.726543|-23.633037|24.929783|17.697148|0.495332|10.733957|5.363955|35.497526|-2.263825|19.291556|35.818410|86.006664|-19.234816|-65.922274|-57.877349|-12.169054|39.564748|11.390627|5.078692|-59.308136|21.759002|9.072326|-85.649337|-61.608697|-41.858045|-27.609816|-12.342044|59.538898|-27.570669|-12.049928|-8.595769|-7.205105|-1.612027|11.212779|13.799697|6.839330|-12.553027|-18.725472|16.533295|7.549786|-21.404211|-40.742300|-26.518791|30.215293|13.455739|13.292297|-31.475814|-18.295568|42.960838|39.754375|-29.145018|-88.671110|-31.098345|4.336542|-3.338298|72.306866|-5.150063|-35.351842|11.767654|-6.562058|2.503078|9.183335|9.921372|5.021048|5.182528|10.044133|-12.624702|-7.063964|26.505774|7.466747|27.153281|2.781075|19.061772|20.817096|-3.737091|-8.249603|-4.348586|-13.368760|-34.061173|-62.165077|-45.690560|22.859193|84.609469|59.916643|14.681022|-43.130508|25.317853|-0.170313|0.431392|4.601586|-2.566869|5.626948|-5.445998|-8.473847|-48.732650|-5.782372|-2.616619|-25.012549|-12.370228|-28.074207|-41.252215|-4.800571|22.871486|0.985838|-49.797097|1.276047|23.104571|27.404721|46.379264|61.531101|71.640595|0.793090|0.093761|-37.802887|21.921901|-0.950064|-0.679021|2.959352|-3.958957|7.488172|-6.653478|2.295673|-4.381502|2.975558|1.275471|-24.774235|-28.696062|-32.455141|18.512719|-22.101082|22.405113|3.765582|4.066928|30.916304|-9.986659|20.144250|31.592698|15.574238|27.695984|-14.254080|16.940340|-65.745357|-5.855336|-4.883673|-1.357524|6.551199|20.233616|-7.179609|11.033943|11.123753|0.348444|-6.398984|-5.024951|-25.057128|2.668489|-37.210378|-15.410283|-4.497577|24.137061|12.927681|-22.446531|-31.607898|-85.632887|-50.082445|-12.902338|25.936921|-28.142656|8.645958|-31.541029|-71.325870|-5.081701|-3.786240|-4.386947|1.734916|13.037013|6.278122|19.369200|1.509904|-3.268795|6.878288|-22.171222|10.568592|15.329410|35.218117|4.264647|9.403184|18.854528|4.194459|-4.510363|-50.257485|-38.764563|-37.713360|14.868667|-13.574476|-21.655316|-4.793276|-14.425361|-25.971201|-4.219757|1.081755|-3.515730|2.368490|2.363383|9.683166|3.909347|-7.276186|14.817986|-12.667866|-20.643650|2.833980|-21.616807|-5.019460|-37.423370|-30.446764|-66.602267|-79.099047|-31.554547|-41.309351|-47.329296|-36.979700|-3.811699|-17.053228|3.246274|-1.522706|-5.332152|-11.279944|-3.286845|0.704073|-3.678455|3.247379|4.199244|6.967879|12.157944|-6.570828|-4.578003|3.430623|3.992962|2.614364|-12.631602|-28.631475|-28.858231|-8.234023|-28.999076|-85.808832|-67.983340|-46.572457|-39.812845|-3.627636|1.969514|-27.234745|-46.123804|-30.265601|-1.411799|-5.138896|-3.233811|-3.116632|
~
0.575129|0.709760|0.099397|0.940590|0.135915|0.649822|0.508061|-8.723409|-8.463684|-12.603915|-19.861652|-15.260709|-57.523355|-69.734263|-73.177239|-72.667873|-69.235903|-72.877919|-42.950398|-18.786462|-6.805420|-6.318552|-4.857048|-5.067191|-3.329292|-3.297916|0.942392|0.811034|0.613542|0.074399|0.170497|0.275061|0.538590|-0.132526|-8.614648|-7.841665|-23.130274|-24.802983|-54.762791|-100.469898|-123.893773|-113.510676|-107.820460|-126.419250|-122.099200|-98.804664|-101.123960|-59.459682|-27.723979|-25.879642|-3.414077|-5.520253|-3.483923|-4.222519|0.911579|0.721666|0.955678|0.853971|66.495579|-11.903789|-0.432413|-33.051950|-17.337020|7.075557|-19.800049|-96.186579|-97.882875|-124.366501|-114.657474|-118.792745|-91.722608|-140.046592|-167.815547|-105.287794|-67.757587|-87.411821|-65.831475|-50.045057|-39.565688|-21.162846|10.252714|24.837624|0.208878|0.929912|0.079686|0.120457|50.197375|75.527785|38.741475|19.437095|14.454828|13.610577|13.271710|-24.610994|-77.288163|-93.541019|-33.684057|-60.340262|-88.817423|-166.599149|-76.236898|-18.766779|0.915780|-16.373301|-21.990993|-28.093546|-9.659986|-17.148835|51.573865|37.015441|0.169961|0.514518|2.696867|2.954799|29.097505|35.748406|37.795079|15.508908|1.005803|22.129971|31.302878|-20.255388|-15.465458|-16.967804|104.610750|-12.036903|-64.367110|-82.569560|-129.457289|-120.396560|-66.645082|-17.116418|-49.993319|-31.862529|-37.903200|-24.874708|-12.877778|46.286204|-12.722043|0.118367|0.508412|-3.945734|20.670869|10.217360|-16.627850|-13.044604|53.090701|51.350540|57.748374|7.056110|172.565480|189.934363|38.566702|125.559599|101.228155|116.647872|38.832689|-4.784088|-13.535865|37.200976|20.705281|-9.024657|-27.911520|-34.196171|-12.624983|31.060272|-18.536982|0.118670|-6.405748|-5.796885|-6.474306|11.364695|0.000223|27.359340|85.528707|101.175718|-29.165166|232.699703|165.361856|182.438051|170.798915|202.554110|141.784425|96.046411|73.628529|132.053021|81.239185|134.853871|15.339168|8.432954|-31.782622|-38.399897|-30.121178|3.068012|-8.878141|4.807569|-7.100877|-6.170847|-8.158146|10.617530|10.317662|27.870626|65.229262|47.784427|-44.703268|147.430001|202.551926|159.037583|81.575305|149.246610|136.353803|149.609646|168.298201|8.704234|71.711558|100.965649|160.418377|50.180900|-16.938241|-15.374175|-1.742695|-18.618761|7.008248|16.524952|-6.617789|-9.097675|-20.233021|-19.068386|-31.861437|-6.431484|21.249855|41.343824|8.570785|115.340945|130.830204|58.738789|-23.147445|-45.681731|-29.921443|99.140473|152.714593|95.282109|134.123203|190.274775|125.757522|33.620729|-5.917948|-18.059397|14.241072|1.281114|13.700346|17.215958|-0.054159|-7.779213|-9.579825|-14.120446|-42.585647|3.060199|5.174046|-9.255905|-35.737055|87.082108|27.886943|-24.748080|-111.817564|-175.383448|-129.577497|-55.637206|67.911974|260.288652|208.474075|170.641067|99.499402|25.337247|-56.469382|-21.262482|2.199673|2.282942|11.918036|15.297642|-1.505834|-3.030819|-40.200613|-25.745554|-0.231582|6.616471|-40.632698|10.793453|-30.050445|3.374083|-57.108953|-126.683498|-140.050297|-191.680207|-172.798398|-25.040448|35.924244|219.907997|308.830649|145.225266|82.962832|-124.342352|-74.751602|-38.568979|14.578556|11.843408|6.085009|15.184880|0.935839|-15.355310|-46.114544|-25.456784|-10.808350|-24.432411|-62.331178|16.055967|-79.914521|-37.118533|-220.513875|-247.522531|-140.306152|-83.718983|-196.016950|-155.910524|27.738763|250.008636|186.473865|84.548780|36.930003|-172.073108|-89.244810|-57.741514|15.013467|-8.527447|-9.250322|15.169340|-7.688068|-14.434768|-40.163190|-0.808238|-22.366462|18.376220|-94.670100|26.597481|-132.436004|-145.264317|-269.863053|-268.877976|-222.377805|-13.511727|-22.491770|-41.396618|-29.410018|136.410336|39.434377|25.531711|-176.187585|-111.494747|-101.791603|-76.416948|4.060562|-16.322172|0.410146|7.418860|-6.948056|-10.513499|-57.286047|4.199490|7.983466|31.966056|-42.812503|49.967539|-138.426191|-206.435688|-244.011676|-222.557598|-109.855551|13.886414|7.285146|-86.206603|-55.074711|-4.017875|31.564002|-173.567589|-137.793511|-104.871218|-87.402158|-91.598909|-1.912819|-35.115788|-22.130610|11.415717|-3.609297|-7.962107|-52.573009|-9.082552|15.614367|32.913599|-29.528070|-36.557637|-83.102141|-121.992759|-112.674021|-16.676780|-12.169987|50.337932|-10.940980|-34.294470|-71.001325|-16.567199|-22.079668|-104.794056|-17.862075|-61.650023|-72.305847|-94.098353|-32.305759|-43.485452|-23.650550|11.574231|-3.393799|-7.230085|-58.360306|-28.078131|-14.676026|-7.711189|-39.646638|-26.244622|-114.118244|-56.810213|113.136966|56.797652|-10.473213|-62.713148|-177.367715|-128.728364|-107.024240|-116.331848|-29.019957|-26.380196|-62.615103|-104.996545|-98.802553|-89.226066|-1.109168|-60.084899|-25.982480|5.181405|-7.376735|-9.612357|-34.524807|1.720036|9.416329|18.878433|-55.221194|-88.162482|-68.178992|-16.595866|-8.313501|27.360179|-21.935725|-94.110189|-99.940378|-94.357033|-19.641621|27.050135|-37.736073|-36.745828|-75.582390|-35.070306|-96.054894|-78.373805|0.754047|-53.710779|-12.598446|-12.973849|0.668911|-14.028751|-15.088552|16.960711|-12.210454|31.144947|-12.174865|5.369100|-30.413888|-64.312386|0.219994|44.057027|-111.618755|-5.151395|-0.098016|39.775312|67.351474|93.893401|-49.480752|13.038004|-50.742694|-45.113690|-97.799682|-39.764190|-19.311672|-33.846504|-6.533516|-9.468152|-5.252003|-9.448351|-6.271759|54.086778|-42.014973|40.764794|30.106592|13.036769|48.392777|22.691681|36.178904|-45.575950|-83.636224|128.840430|132.180621|149.537475|99.977339|67.832897|-60.952255|-63.852662|-42.350858|-57.841580|-85.302518|-59.598409|-7.145781|-45.176652|-18.084867|-8.542974|-4.240301|-8.761457|25.054904|46.275448|-37.442310|-16.102633|64.596796|11.188789|86.362767|53.682359|113.949433|119.566297|55.516311|123.232401|192.983376|132.295769|58.637957|-25.077187|-109.496437|-48.911399|-57.853040|-57.958188|-69.595194|-71.616635|17.354646|-48.426447|-14.310661|3.126566|-6.045727|-9.013699|7.046717|52.479025|-53.730284|-32.158983|-52.086955|52.642574|119.644107|-4.030728|-27.851759|21.590102|110.936894|109.262583|65.424795|63.089879|31.742832|-70.356159|-115.988073|-58.095575|-52.143225|-27.523760|-60.442135|-45.716960|22.236055|-0.355397|0.862340|3.432609|0.443680|-7.840414|-58.564990|41.583997|-23.583253|-21.254577|-41.138075|-10.776808|64.155483|-14.882465|42.309455|-21.600652|-12.486697|10.332515|-3.940775|38.162890|-91.049385|-166.880960|-90.646529|-53.813522|-8.174086|-35.817849|-56.022855|-52.182275|0.134067|10.071000|1.580000|4.358532|-1.089069|-0.818998|-69.599507|1.440121|-24.692261|-41.703754|-56.409709|-87.250315|13.260680|5.287168|15.453119|26.838493|-16.920133|-50.593075|-51.562403|-143.710161|-129.974290|-91.436779|-137.625548|-50.967208|-34.610533|-42.845049|-35.962464|-40.104895|-1.799600|21.521684|-1.598838|-0.103521|-0.764290|-3.081401|17.460667|31.637488|-22.061497|-63.375132|-50.304859|-44.529493|-61.432190|-83.704192|-26.103689|-78.309418|-70.911155|-104.160717|-109.530374|-113.319418|-91.024058|-81.546144|-81.976034|-68.254237|-23.881227|-17.242092|-18.457001|2.151635|13.843614|26.652619|-5.466568|0.488814|-2.428605|1.275360|89.416399|52.609767|-25.262985|14.911339|-23.399069|16.568248|-20.278337|-79.593429|-78.734843|-75.240338|-98.126353|-103.796863|-74.484253|-47.136950|-36.055082|-21.962781|-15.844922|11.286097|16.898380|18.815441|19.749828|31.113233|52.489344|35.503386|-3.426518|0.876720|3.685392|2.962719|103.786744|59.662416|4.048536|26.566823|-2.857177|5.568709|-15.995973|0.872354|-8.570564|-51.278004|-7.962983|-69.171465|-53.752775|-42.071091|-25.820801|-40.086733|1.160570|13.795838|16.195526|0.639294|14.339884|23.758695|61.103285|53.551946|0.355304|0.313192|3.207221|3.309609|-1.543316|5.167526|-11.188440|-18.593847|-18.544492|-9.497090|-8.754427|-11.940461|-63.590919|-44.533139|-53.223410|-43.728611|-61.774843|-48.848107|-23.499721|-29.328745|-33.058368|-24.978342|-30.293091|-12.122666|-9.565154|-7.524537|-0.903931|0.507405|0.514377|0.260712|3.928160|3.648680|-3.130058|1.921979|3.196372|7.763556|6.766716|9.732721|16.420309|-2.567387|-21.369467|-36.585138|-20.092364|-24.927907|-13.787643|-15.216119|-14.106334|-16.813665|-10.083818|-10.254986|-10.793927|-11.456256|-9.084896|-1.689374|2.214871|0.317448|0.568480|0.802836|
~
0.572133|0.981789|0.127707|0.493404|0.993264|5.415608|9.593618|0.169787|-5.921909|-10.959920|-24.393335|-33.395606|-26.601541|-30.415942|-23.822980|-13.432450|-3.178499|14.969421|17.975213|23.857953|9.888759|5.489621|13.351082|13.822758|10.856669|9.324772|0.233100|0.179446|0.619828|0.819378|0.227031|0.129195|-1.819225|7.633074|3.514509|-5.575898|-2.069340|-16.990738|-30.047094|-47.828574|-25.585417|-21.976254|-28.265171|-11.416308|-7.031208|3.883316|19.132518|30.799349|25.984510|17.247134|16.405932|20.300889|12.693250|11.253127|0.247994|0.724412|0.663766|0.481094|-39.351168|-21.947474|-25.018129|-32.027876|-30.339439|-41.124856|-50.539052|-40.675952|-53.723048|-21.602806|-3.930436|6.912219|-25.857894|-31.105205|-52.809287|-56.047370|-12.937904|-16.695193|-14.144488|-3.205419|-6.362992|-3.417613|-3.894810|26.749798|0.535181|0.100067|0.883143|0.783175|-77.791313|-14.939632|-9.940605|-30.180024|-54.426528|-50.316172|-40.617713|-47.036870|-63.346598|-38.659907|4.571824|-0.867650|-50.778304|-35.400045|-21.797608|-43.158723|-36.821078|-21.342851|-16.422319|-23.422731|-6.540947|-17.284025|-29.018626|33.305591|0.581205|0.792892|0.306773|0.117756|-44.405124|-47.944053|-29.593959|-48.030125|-49.943919|-55.927382|-32.048674|-15.756928|-15.582254|-30.042065|31.424527|48.549339|39.895029|-24.705244|-37.930488|-55.616011|-20.879890|10.987601|10.241821|-14.847980|-13.521422|5.846552|-12.726824|38.708351|0.259985|0.304236|0.064225|0.196376|-57.956745|-17.767685|-26.199790|-47.098505|-54.515937|-32.445163|-58.529499|-31.556246|0.762598|-2.726973|21.193207|4.446947|34.181658|-0.962534|-63.765464|-0.999193|-9.918927|16.871219|-1.120447|-23.231460|-34.364908|-5.685348|9.561383|38.109674|13.548277|0.345955|0.835244|0.078103|-46.430529|-23.060430|-15.079208|-42.237092|-61.080699|-26.055619|-3.397673|-19.591804|1.955932|37.955567|69.241670|124.470629|6.081384|13.632980|-28.970350|-13.733641|-16.936030|-38.238897|6.354349|-35.193348|-77.735738|-42.164204|10.288826|29.512803|8.550586|-5.991841|0.573436|-1.172538|-51.232773|-37.168299|-5.724234|-30.486412|-61.029346|20.504368|-4.478680|0.788080|10.269689|-45.833915|13.696693|103.441911|73.022601|55.251512|3.850676|-42.422020|-7.281351|-7.477602|-11.985470|-84.215931|-55.371092|-36.496562|-45.508708|34.080584|0.187021|2.691949|-7.132323|-8.741366|-42.134812|-39.409652|-15.192648|-73.753697|-45.503869|5.474367|-5.088492|12.643237|-57.879912|5.891178|82.242288|117.701256|37.208607|69.457820|-4.975167|2.862340|-45.621715|-32.527328|41.353927|-13.247527|-59.810582|-63.428695|-39.771287|16.786680|-1.758120|2.765307|-3.804834|-11.362124|-45.140802|-33.548826|-26.950764|-52.189052|-37.214845|-20.477507|44.722924|12.933495|-24.848827|-28.847027|34.917692|51.585581|32.277701|-18.437417|-50.256213|-10.431974|-26.169036|12.007174|18.441899|-40.723670|-43.633108|-39.977393|-34.167968|25.341191|-8.659473|5.688688|-2.723254|-5.860385|-40.987553|-39.434152|-8.110962|-27.967028|13.075707|107.252127|71.866881|-41.222827|-49.664432|-76.144719|-48.758697|-52.647167|30.945139|-3.888631|47.393690|-14.822877|-107.291280|-83.659112|-40.127589|-26.084441|-80.106328|-13.103052|-32.660666|19.171089|-1.353230|6.381924|1.268848|-4.072904|-34.966831|-23.821567|14.122420|6.037410|33.118055|31.897244|5.275074|-16.012257|-47.422837|-60.755459|-113.265487|83.053334|128.513848|85.431306|-25.392246|28.905986|-12.395975|-49.335483|-29.315802|-59.738254|-64.297642|-45.006811|-27.207478|32.237018|0.024946|2.497871|-0.354664|-5.587260|-45.448827|-11.621238|-8.378681|47.657854|42.410468|72.700890|77.010433|77.391209|4.123979|-59.895197|-63.866422|99.933115|57.596740|41.983216|-40.687952|-21.185239|-34.320040|-44.195070|22.281260|8.205434|-44.933698|-18.185031|18.635415|22.746670|14.986352|7.826815|0.550468|-2.216601|-38.571891|-24.029994|21.429610|3.033609|36.448362|27.446946|53.454145|44.779126|62.774931|-70.649453|-8.363502|113.575120|147.969843|38.765586|-69.590578|-73.428548|-155.985606|-63.680987|4.378938|-31.241976|-94.864477|-14.166739|-27.659484|50.033574|16.143701|9.141926|-0.661994|1.931470|-24.942644|-26.880265|1.011569|3.486183|22.303323|51.774209|79.926175|76.380455|61.421613|-100.319490|17.507049|55.448556|47.997908|-12.275124|-46.605796|-140.666614|-124.906487|-117.143032|-27.973074|-78.082967|-59.222018|-34.725893|3.459224|47.006423|31.899562|9.725618|-0.247385|-1.394692|-22.622990|1.133028|-12.861724|-3.081899|5.898400|2.263731|64.725331|28.205376|39.852738|25.079590|78.616942|34.548062|77.285097|16.196606|-24.965452|-91.479056|-7.815978|9.610671|12.905921|50.128041|-10.098805|-10.501648|-27.171065|50.976114|29.153494|5.783630|1.449545|-1.357617|-17.995651|-2.787679|0.485716|-47.088277|-37.603795|-75.679788|-51.753522|37.640509|37.855410|44.287588|147.920416|181.648396|168.637288|114.741791|40.571192|6.652956|16.202546|3.755850|50.509908|112.476878|19.705380|17.745889|14.959569|36.778695|21.765562|-0.614102|-0.410242|-1.117146|-28.998820|-13.992505|-42.499843|-63.406043|-4.685635|-68.908442|-15.177733|46.854901|5.140933|23.633736|67.749914|31.322912|96.880923|18.003289|47.229399|14.528148|33.365282|50.194352|116.121707|60.862666|45.094213|-11.259386|62.427773|59.108236|21.367629|2.782197|-1.082978|-1.799982|-37.824832|-10.918478|-29.462490|-49.564473|-5.078953|-44.262517|-3.927893|-38.052668|-71.903102|-128.514373|-111.385940|48.377749|69.942360|-87.278054|53.433739|79.020489|108.226669|115.232689|157.192273|88.712099|0.667024|-29.823252|55.809092|35.100752|3.778384|-5.752634|-1.796206|-1.310914|-49.448144|-21.974459|-44.856826|-38.209676|-29.931122|-6.225010|-60.137282|-25.880628|-91.804293|-95.998484|-31.242902|-53.340034|8.099355|18.777549|-112.076042|-42.569635|-10.999496|36.675820|124.832719|115.982968|2.474163|22.642468|7.445595|35.671431|11.493970|-1.814951|-1.276864|0.011032|-35.514059|-36.544516|-56.250366|-65.766515|-83.216627|-9.466551|-89.180323|9.571554|-85.255852|-102.373965|4.993013|-50.457236|-18.881856|-36.021751|-47.848221|-78.840064|-63.087335|-8.209138|65.747396|98.833310|3.978605|32.269166|32.305554|26.980035|19.008735|-1.483812|-0.540506|1.789980|-29.422839|-28.545350|-38.338525|-72.299326|-82.845303|-47.037683|-66.884451|-17.446657|-42.991187|-71.969884|2.397282|-41.758192|-52.682756|-112.842009|-37.538579|-75.834217|-91.435900|-4.377287|5.992593|54.490703|25.354033|21.910781|50.699221|22.788932|15.188799|-2.199244|1.657451|1.261543|-30.003072|-24.579657|-34.841885|-69.778697|-88.515927|-97.040702|-56.552188|-55.716768|-43.096710|-35.749579|25.340705|24.805654|17.351698|-53.347027|-77.112996|-74.456661|17.333590|89.512947|66.862948|38.141619|26.017970|-2.622621|33.870032|24.562127|8.674424|9.995895|-0.475356|0.976781|-13.663177|10.233855|-16.302891|-25.702480|-47.188059|-56.733511|-66.724883|-27.398017|-56.798836|-67.687018|-47.621058|-12.775768|-0.664970|-73.407047|-56.096377|30.452280|56.809518|76.849662|27.966757|-44.708802|18.933968|-19.988987|63.862906|23.871023|6.739735|9.586072|1.938293|2.365070|16.456006|13.463692|23.593547|7.674432|15.376051|-34.401921|-74.970162|-67.597503|-62.663463|-86.092679|-112.807853|-83.547085|-15.557082|17.741011|26.404168|45.787544|68.519586|48.321967|-5.465026|-6.090099|-66.456003|36.201789|99.783369|40.961930|9.888626|0.807481|0.051281|2.051691|-42.707616|-42.194310|-19.878353|-12.289402|-36.201489|-62.392879|-82.320256|-83.973447|-90.032387|-63.849674|-52.410435|-88.943720|-46.359363|-57.891181|-21.064049|-7.144169|-7.911295|-43.215639|-86.286202|-116.444981|-53.283545|-7.727754|47.320146|-4.051289|14.309443|0.602536|-0.372832|0.790811|-0.764325|-2.629298|-8.474373|-10.816204|-11.994214|-59.949911|-67.563531|-64.234759|-59.768400|-43.289506|-56.632736|-79.076806|-72.014041|-85.018241|-27.460581|-29.389707|-63.748788|-58.022605|-80.706982|-72.145388|-27.461867|-14.904615|-1.282517|-0.312877|4.280171|0.264055|0.549851|0.814527|1.789535|-0.743461|-2.725436|-4.152301|-20.401177|-24.238780|-33.960006|-49.607684|-41.181515|-23.909545|-46.508226|-37.008996|-77.067930|-87.280069|-65.522735|-45.437938|-35.719740|-43.654240|-54.697517|-41.040460|-34.551952|-29.033244|0.368281|4.487459|2.528267|-0.962058|
~
0.163861|0.742592|0.868427|0.118958|0.800350|0.775190|2.183935|0.939644|-0.947086|-5.268316|-4.295486|-8.151965|-16.209508|-19.049449|-16.703860|-11.415447|-9.124054|-11.080890|-4.079311|2.271730|0.193336|-2.249050|-1.501240|-0.168486|-0.220663|-0.212446|0.083533|0.681920|0.658127|0.612621|0.281259|0.777772|0.317046|0.957531|0.837312|-4.864216|-8.566759|-12.854191|-14.489150|-25.766609|-28.531007|-27.986902|-16.786640|-13.433952|-16.031984|-12.686902|-12.184611|-2.988143|-0.175063|-0.740076|-1.101645|0.370644|0.368418|0.186023|0.720528|0.837116|0.610528|0.804061|-10.800433|6.345186|-6.279921|-18.251718|-11.642837|-16.722045|-28.798413|-29.541917|-29.521128|-40.191974|-39.356000|-23.067216|-12.144823|-32.097757|-20.776210|-16.881432|-4.402236|0.982601|-11.552029|-18.546128|-17.575595|-18.118357|-35.217815|-23.579080|0.657082|0.005936|0.348793|0.377610|-27.097303|17.065764|3.375149|-0.489938|-12.305003|-13.965188|-25.298049|-26.110315|-12.216377|-5.787586|30.999395|2.028433|-21.444206|-33.227250|-22.992737|-22.168852|-16.986655|-1.579154|3.267104|-6.241726|-13.579046|-28.128582|-31.243441|-33.717936|0.314211|0.727615|0.497256|-0.073597|-17.874932|8.111531|-1.331588|-11.559896|-17.889996|-26.203216|-15.768724|-14.114205|-10.273274|-0.616432|11.536652|-4.620204|-10.909137|-20.145644|-43.743654|-39.819103|-48.158884|-13.235542|7.257812|8.393507|-7.411004|-4.717805|-29.542259|-28.281411|-0.804944|0.147373|0.097495|1.054682|-13.035129|10.998967|-6.612674|-14.677963|-30.165575|-29.758622|-10.655593|9.758225|36.448196|17.711701|-13.716080|-0.957257|0.034692|-30.696723|-16.785069|-1.358698|-19.319453|-10.114555|-4.151780|8.940775|-12.102731|-5.544475|-21.591790|-29.974504|-3.641036|0.289052|1.358555|-1.589860|-20.321824|-0.184752|-6.817405|-25.574112|-19.607168|-19.948934|-18.386119|-0.566746|-2.400640|20.250653|3.863055|43.229644|-12.630197|-5.339782|25.092759|6.230183|17.139299|19.460782|29.832414|12.305874|-19.144161|-13.420107|-24.014796|-10.379953|-0.645774|0.210761|0.286489|-1.997750|-17.044849|-8.831830|-5.524699|-8.008295|-19.485576|-7.557532|-20.231615|-6.520297|28.505950|-3.205235|-11.306888|-61.836528|-43.075127|5.843582|47.397698|24.439362|9.021351|19.533230|48.444510|10.812511|0.904551|-1.725118|-31.095713|-14.910553|0.964424|0.907757|0.367015|-4.639645|-21.442161|-8.205325|-8.449995|-20.289169|-26.147711|-21.610305|-21.502206|11.659892|21.549845|-32.883270|-33.503687|-54.224277|-9.346275|-4.588457|15.228096|76.813934|51.792110|35.956042|26.852028|38.496494|-25.316484|-34.921239|-26.802296|-20.977528|-0.819434|1.307458|-3.042883|-3.664779|-22.887830|-11.324398|-16.216449|-29.675432|-41.782329|-47.496135|-5.933568|14.460447|19.547087|28.952946|22.935123|-83.232053|-40.148430|-59.771010|87.182074|124.618115|56.725733|31.147279|15.021648|-15.422597|-17.768515|-1.526568|-27.437978|-23.689395|-0.142988|2.180437|-2.536565|-4.025486|-31.244855|-7.476851|-21.381959|-32.017679|-59.742537|-14.001670|-9.200218|39.819006|77.769609|-33.480088|-46.673880|-44.280432|-54.805961|-35.714334|44.697550|56.081826|56.861256|37.046336|14.895178|-35.693583|0.030923|-15.865869|-20.870748|-25.454893|-9.183179|-6.105297|1.119096|-4.725996|-25.125497|-1.268749|-11.836689|-39.009159|-54.829482|-9.828072|44.862603|89.707874|64.807356|36.890936|-29.221288|8.335474|29.262747|53.245642|-38.581922|2.949184|5.644077|23.049957|2.831417|-83.972551|-18.239083|-32.188646|-13.254291|-10.697126|-11.311926|-5.536964|-2.921192|-2.421086|-41.513770|-28.498658|-35.827753|-4.378588|-22.815260|0.739078|-2.185181|-54.082492|-49.050820|-31.059104|-35.554377|0.015403|19.602677|-34.068770|-59.331733|-29.481705|-35.764999|18.619008|-2.347425|-31.670356|-0.548745|-3.667986|-11.525440|-8.244907|-9.303198|-10.286429|2.608206|-6.565620|-38.887073|-18.666499|-23.966939|-33.404288|-48.323188|-44.049777|-47.943097|-59.750386|-74.379495|-40.105641|-49.483920|-10.480966|-12.848849|-71.316604|-93.527588|-15.352197|-54.250045|-42.644115|-11.818671|-27.288686|18.747481|24.501543|1.411355|-30.174306|-14.681542|-0.088023|-1.988659|-11.367466|-20.887235|-12.294959|-20.774565|-56.781698|-56.903107|-81.522208|-65.372251|-74.514769|-115.173154|-94.490147|-83.600394|-43.654900|-40.128021|-70.325602|-71.804529|-9.330863|2.663548|-33.379856|-4.905349|-66.579472|30.604256|1.845463|-10.682477|-19.245515|-0.860860|-0.149559|-11.471908|-10.905321|-23.953301|-12.393905|-27.681540|-27.396680|-40.131767|-27.049873|-26.304289|-14.718687|16.459329|-59.189195|-116.166100|-82.947044|-51.958017|-28.995878|-87.556628|-8.837893|8.619972|-11.660249|-46.838062|9.969093|36.142486|-5.135026|-5.445272|-26.383095|0.473663|-0.078777|-3.268231|-8.157687|-4.917823|1.937362|3.765455|-16.838041|0.709075|2.865852|-23.942400|30.870538|-13.526844|-95.271359|-87.840301|-14.063485|-15.156920|-74.542567|-39.145298|49.885391|7.941349|-13.274021|-19.227615|10.798437|-2.787513|-27.945130|-40.987358|-21.773953|1.966172|3.560480|-4.419906|-15.004808|-15.825804|14.551731|-7.271563|31.517550|12.563566|-5.406112|14.324945|-21.459741|-26.326359|-29.078203|18.556726|4.479132|-52.658857|-60.498589|-24.324691|93.698479|32.412003|-7.759075|34.283739|-22.720342|20.788480|-57.798293|-25.692595|-6.355068|6.119355|5.234344|-12.177280|-3.088685|-15.615650|35.823700|10.215187|-9.265394|1.307207|56.940423|39.321975|20.378922|22.393721|35.113865|-15.042874|66.741936|-65.300508|-40.365006|-54.713482|12.459653|58.567087|16.660439|0.511390|-18.345921|11.899868|-49.770943|-16.115346|-5.495500|11.553619|6.051307|-5.412608|-3.941001|-4.497410|28.064805|-9.461301|-9.009902|14.260191|43.022925|71.627138|0.214259|-18.660662|-32.026562|103.391893|104.900529|73.320408|11.165963|-45.723138|43.424663|-37.700188|-15.107512|1.713938|33.734419|3.040826|-32.174078|-14.003597|7.687922|3.790426|-2.547722|-11.019107|15.398106|9.999906|24.471284|31.372140|31.286078|26.928461|48.985339|68.146516|-21.040015|-15.875927|41.445064|77.343485|104.565930|46.993267|-32.071312|-11.357672|31.669420|-42.061685|-16.733054|33.850050|8.564789|16.723039|-3.961473|-11.237175|11.411437|-0.383722|-2.526834|-0.077113|23.579879|-3.284748|45.238280|60.090284|43.802162|18.834150|70.746436|81.502843|22.362026|21.866226|44.166425|154.472488|122.682480|79.427079|-1.042188|-3.968902|13.001570|29.128988|40.071152|51.017414|-3.335423|32.930838|45.125439|13.881641|2.949560|2.869889|-3.131159|12.156624|20.413799|-0.085817|26.012368|5.584112|7.528746|5.705903|3.641227|39.018870|-5.545850|-15.355299|34.975436|77.410279|81.196574|115.712862|52.252071|10.602349|41.804915|71.938540|88.811364|-1.346981|24.316152|75.861238|49.243382|1.910354|7.104664|6.487422|0.171884|7.767742|22.700321|6.914944|33.477522|-8.712684|18.694430|16.441511|27.321495|19.082390|-11.963511|-18.948906|62.332985|91.157205|39.039103|-12.839806|-9.638125|-10.187963|50.277865|21.016678|15.245687|21.426102|62.542144|44.524063|34.322594|2.643585|-29.505494|-4.456299|-1.051686|9.409834|24.819886|2.789015|2.748513|13.453165|21.622986|18.892524|-24.539206|-30.677221|-12.679014|14.379540|7.522399|2.932799|16.237305|-9.020097|43.718923|36.630613|96.860428|-4.595988|26.405666|21.656359|42.086739|18.276895|-0.904168|-24.198400|-25.554783|-3.403233|-1.389031|-4.250691|7.107240|-21.113363|-17.945144|-3.229077|-18.084535|-29.226532|-14.462876|-41.095588|-18.113584|-24.329521|-36.778640|4.891917|-9.643874|-32.855638|4.494060|5.680068|44.299905|29.842339|5.251826|-0.200116|17.172090|17.374436|3.251691|11.196443|-15.743411|0.988812|0.248587|1.388710|1.470990|-0.726502|6.008582|-15.792147|-11.170476|-13.789862|-33.476452|-50.639280|-25.912916|-20.505495|-44.520965|-28.494047|-23.585746|-58.815998|-47.727472|-17.880931|14.961771|-38.795841|-8.043181|4.087627|22.989919|14.237045|22.443195|16.193849|-2.582777|1.571862|0.235114|1.910538|10.320019|-3.980620|8.203045|-8.595412|-7.308646|-7.586197|-21.295703|-41.110977|-26.668769|-56.058512|-58.447766|-64.792388|-33.506946|-48.210037|-61.739505|-51.725648|-74.687140|-48.895452|-32.866201|-3.558665|1.378026|9.328970|-7.116354|-4.977301|-4.858026|-0.608918|-1.609703|
~
0.505476|0.514688|0.719502|0.041782|0.589909|2.311357|2.960551|-4.077736|-3.221040|-5.734973|-11.794043|-15.039550|-12.052489|-21.138078|-16.156533|-6.140749|-7.731266|9.504210|1.027522|2.422210|7.225190|8.994489|3.125493|3.244665|1.746975|1.897364|0.675507|0.834770|0.640974|0.394387|0.320473|-0.089758|0.583467|1.079455|-4.571795|-4.568578|-3.432785|-1.098243|5.950347|-25.356234|-38.394149|-52.550090|-27.912640|8.182400|24.461253|5.995462|14.478125|19.425187|35.262784|33.046366|11.611711|12.620144|5.070936|4.779992|0.808299|0.316696|0.626073|0.483806|-25.345515|21.263384|-1.112524|-4.746352|-0.912588|5.013827|-4.663530|3.781204|-3.066457|-27.486164|-33.295233|-48.761379|-37.833854|-76.312016|-71.722866|-46.520688|-16.666375|21.658491|22.525283|28.070642|18.977448|21.087999|-21.767593|-41.103150|0.473140|0.399416|0.952121|0.281439|9.537044|49.981046|16.553058|13.230906|3.071048|1.633460|10.963534|9.353658|28.025114|18.614465|36.745856|24.103472|-41.647094|-34.437490|-84.609903|-69.140568|-38.006544|-6.224610|10.835162|19.401792|13.515023|7.664591|-13.109271|-42.223446|0.666930|0.669628|0.222459|-0.148293|-5.168817|27.918439|-11.451011|-6.051547|-11.598958|-40.022473|-22.491953|12.521439|16.574071|9.438396|-41.037353|7.283681|0.739022|-68.332984|-111.299782|-49.432773|-34.033918|-30.714662|15.818274|-28.487101|-37.854650|-12.227709|-29.501942|-50.088928|0.592970|0.635771|0.798562|0.703283|0.744073|39.525766|-1.647945|-20.824756|-40.637066|-56.128373|-5.458335|21.040217|21.525715|55.509982|48.283533|-11.773061|69.705296|-4.185133|1.028155|-39.250529|-118.596615|-129.070692|-75.405453|-46.901047|-39.125538|-15.537489|-13.740908|-41.303328|-3.673865|0.122503|1.057465|0.067487|-0.753664|23.677252|-1.282269|-27.253508|-33.042905|-27.442659|7.350867|-1.221389|12.430886|47.630391|80.094226|117.527957|59.470639|24.741586|-8.533600|-21.267123|-78.056924|-75.539608|-78.293142|-0.721915|-41.387342|-48.547628|-27.722557|-24.115586|-3.547539|-5.966449|0.748106|0.750063|-15.455002|20.884364|6.437034|-5.324187|-30.480365|-13.396962|-4.269692|-45.442437|86.377000|72.194436|93.073175|47.462770|50.166353|13.701645|20.823597|-13.282422|-43.432043|-53.325416|-69.209819|-21.015000|-4.560493|-40.361015|-46.884237|-25.710243|-5.982188|-5.853962|-0.620840|-1.940213|-8.761559|31.791446|-13.784927|-7.812346|-22.427397|-25.890987|-43.937420|8.714556|37.675575|92.072926|98.055653|132.045146|83.507716|4.930544|46.629430|47.265719|-15.426314|-99.654767|-57.448157|-2.772987|-12.611395|-65.224073|-46.009133|-25.307419|-3.397608|-5.416365|-0.470408|-0.337675|-12.566435|27.658847|-20.980087|-3.248109|-22.992508|-27.653264|15.172196|-48.733693|-9.494540|63.967810|125.500606|111.962321|89.676738|165.270490|64.487186|86.507791|14.397007|-14.874791|-56.536060|-74.910105|-16.773700|-48.704639|-42.765283|-29.268303|5.987123|0.504765|0.359748|-0.995465|-14.435237|32.635338|-15.554767|-6.501039|-36.359358|-27.261577|-20.405531|-70.539240|-1.350033|20.425792|105.622823|87.520942|43.691612|47.544893|151.642632|79.801666|58.577016|26.501862|-73.745802|-10.239753|-26.798953|-28.391466|-40.380632|-39.724390|-2.557494|-5.133948|0.939489|-0.411167|-10.389151|25.793533|-11.275541|-11.383992|-42.649359|-32.699252|-8.045401|-96.302726|-71.171918|-13.524080|3.103955|-43.907052|21.223450|158.804418|91.043203|24.233945|46.486505|30.550804|-26.606164|-69.381686|-28.309467|-49.413926|-52.846634|-31.059301|-7.460908|-6.134526|0.546297|1.129375|-8.277382|28.482070|-31.542324|-19.612334|-52.244718|-25.663902|-89.168925|-185.236141|-165.439601|-131.595074|-132.477672|-86.542590|23.230145|91.767544|44.587679|-30.777783|76.535556|65.849294|58.423306|39.513646|-10.315084|-48.284720|-3.077331|-35.091986|2.389682|-12.298065|1.144497|0.566652|-7.889599|43.699056|-33.228390|-30.292905|-62.031020|-43.455262|-110.476883|-198.073180|-157.623311|-193.265232|-207.300408|-57.599756|-10.088374|-44.029612|11.674310|74.457609|-36.094874|-14.430270|7.937707|-68.235795|-61.797705|-60.742230|-42.218088|-58.790754|-20.762004|-13.035950|0.989047|-0.384740|7.640329|33.702012|-11.572883|-33.447263|-59.565056|-97.033210|-100.370345|-152.126422|-177.683757|-58.844844|-102.331170|-81.101858|-50.162025|4.439808|-41.758419|68.959147|27.946412|96.802241|-10.158657|1.318225|-134.994179|-9.478655|-15.817564|-60.840497|-6.841627|-12.693216|1.747258|0.452946|17.324395|44.522171|15.429905|-25.836084|-59.155295|-51.701110|-101.695315|-87.245514|-52.400741|-20.747089|-102.814971|-99.052230|-9.938114|31.036127|51.134441|88.656496|169.096470|146.004375|57.149680|18.288655|-64.939975|-50.093554|-30.581409|-74.036098|-11.495385|-14.471460|1.113048|-0.739473|6.166723|37.885838|-1.732918|-8.404408|-39.064635|-16.068698|-67.049226|-37.355021|-36.851161|-30.103134|-62.463313|-158.093418|-30.197085|8.918621|-41.042763|113.797081|231.179015|49.188965|55.687011|77.544095|7.459858|37.594671|-22.178848|-50.778652|-17.603307|-4.825836|-0.295937|-1.542254|-11.005712|24.593564|11.921911|8.179872|16.931485|10.573553|32.503519|-15.246407|-37.968761|-64.307688|-13.820647|-124.919162|-42.890635|-54.964973|-114.253681|-15.320651|27.900397|58.946803|85.314186|30.985430|44.091602|-6.172491|-9.692178|-26.028207|0.702306|-5.985295|-1.383042|0.117607|-7.327710|11.995410|12.115713|13.734313|7.116537|23.310936|5.237573|7.734743|-7.384263|16.293041|-78.148548|16.315057|-81.400162|8.815264|-98.038694|-83.702532|-15.434423|44.726616|65.012010|100.951246|45.719886|48.606026|-5.375441|-42.857888|5.834012|-5.454984|-0.227524|2.128920|-1.262951|13.263989|14.692819|10.670437|-0.519627|5.202032|-13.796739|-12.853780|-25.416279|-20.081916|-1.599110|0.278359|16.904294|-4.140164|-67.175161|-133.687343|-79.455591|-36.947070|119.305729|111.918587|100.190664|97.671255|0.980865|-13.887832|14.856970|-2.637223|0.162984|1.443756|-0.167715|1.967724|-2.879074|3.617972|-11.283280|-17.295636|-8.576609|17.655746|-55.786165|-52.385660|-11.960133|47.615377|-43.403598|85.161200|28.610646|-75.958991|-37.365686|-11.712704|92.065362|102.607059|93.576576|101.289018|36.551751|13.891467|34.421105|-2.317962|0.767547|-0.445939|2.131039|-4.011781|13.673223|2.254097|-11.770630|-18.543676|2.825343|-4.443778|36.536171|-27.431562|-13.863848|91.874619|71.455956|39.890085|15.603087|-87.991225|-70.560932|7.380119|-5.590874|12.314175|96.250772|84.797662|46.480392|3.793278|31.375035|4.752173|0.717188|2.078687|-9.413316|-3.486456|-3.519118|-8.754563|-25.703588|-25.311756|2.368706|-10.235058|-3.136678|-24.925496|1.505394|71.974654|59.495235|50.789730|-53.202657|-82.658278|-49.222356|-13.072179|-61.147276|47.885991|46.123091|14.975400|55.535940|10.669689|9.114204|0.589791|-0.611724|1.275876|-29.681386|11.876907|-6.412389|2.908857|-35.466775|-28.410535|-23.627385|-27.600617|-49.346176|-38.572358|-30.385542|7.962091|63.904567|34.292593|-16.576443|-20.704350|0.539288|-84.074496|-57.195042|36.607687|14.622461|2.621443|53.126515|-21.352205|-2.088399|0.317366|0.204898|2.033434|-16.032552|-10.277192|10.572927|-7.966374|-18.786903|-15.810509|-31.301959|-43.207748|-43.482388|-60.045483|-52.653600|-78.375117|36.526749|45.656400|-4.970421|-3.032102|-101.069178|-86.255553|-61.075372|21.272516|-49.777188|8.316016|-17.094704|-63.393770|0.256118|0.693882|0.861605|1.497091|-16.733504|23.676721|-7.143259|-12.980131|-56.250346|-5.458595|-36.366273|-31.336691|-43.141835|-44.568536|-46.692397|-46.656487|-1.262812|4.389704|20.463997|-65.574550|-99.996450|-121.071423|-78.129198|-45.581921|-6.003425|8.627416|5.366679|-39.831127|-0.258900|0.598663|0.400818|1.586323|1.338775|6.641286|2.827337|3.270033|4.342168|-3.726116|5.061818|11.598390|-1.003214|-2.504423|-18.888458|-15.972006|20.728399|24.334252|5.490337|-75.975409|-88.275620|-112.557494|-66.191448|-21.972148|27.068512|28.564600|2.668227|-16.010046|0.649311|0.463957|0.396206|2.019136|2.696369|5.056553|6.872826|5.622056|6.682623|6.318197|5.715002|10.128769|10.761366|13.130269|-7.478083|4.951364|66.500035|32.193744|25.113822|-47.757354|-26.814050|-31.266385|10.025619|9.922026|-16.407676|-15.656072|16.162423|-10.128855|-10.199324|-9.567412|
~
0.358574|0.822942|0.806918|0.750150|0.874294|0.682459|1.526889|-0.789545|-2.354226|-7.504005|-10.585710|-14.537285|-10.066274|-8.506659|-9.711716|-8.348835|-4.443267|-1.752247|-1.185667|-1.085725|-1.269824|-0.715887|5.675972|0.041377|0.034063|-0.078334|0.005538|0.523795|0.419767|0.168882|1.098345|0.940213|-0.582600|-0.927751|-2.719498|-6.912663|-7.024403|-11.862989|-15.870244|-19.904527|-13.960327|-10.369063|-14.602536|-12.253740|-12.654804|-13.394067|-3.906085|5.151104|4.480112|2.954196|4.972932|-0.724349|0.210805|0.155307|0.081207|0.560202|0.448575|0.086745|-6.091625|16.924203|29.309538|36.846897|26.587705|24.741312|30.087049|24.342360|-3.348789|33.391199|34.484828|23.705722|11.193985|-6.907188|16.919576|0.257831|0.928358|27.587702|7.473770|19.701889|18.235778|2.235084|-7.042991|-11.010610|0.710112|0.761682|0.582744|0.791319|-1.618594|23.209730|20.234004|39.126538|27.604745|9.746872|-4.972136|-4.586737|15.990333|24.011579|2.027132|-21.587148|-0.099515|26.683641|5.981554|-17.865692|-3.331240|17.597767|1.578012|30.354561|34.489286|36.147815|14.936865|13.604600|-2.789970|0.564131|0.535290|-0.146520|-35.556632|-12.113737|-5.885258|-5.774618|-16.969161|-15.826184|-8.319322|-13.131795|-13.768044|-7.192997|-33.964220|-48.223871|-24.480778|-2.555347|-22.084466|-31.933832|-30.626467|-15.175246|-31.263178|-18.694465|-5.276474|-11.369169|-19.656512|-16.888052|-2.888788|0.062755|0.303666|0.685071|-63.183671|-27.112477|-21.622459|-8.287997|-11.265918|-22.170194|-30.025103|-2.481235|4.506415|-18.728295|-45.817661|-48.502437|-58.018578|-43.128246|-37.699101|-51.999636|-35.687687|-46.553416|-33.956285|-18.746343|-13.073918|-16.045514|-17.252929|-23.665486|-2.596967|0.144747|0.841736|11.755572|-48.677430|-15.333619|6.574051|-7.270876|-0.404268|-17.695847|-35.104331|-3.303067|-13.738595|-1.458090|-8.013983|-23.826839|-37.518666|-36.252542|-59.099845|-59.543009|-48.791032|-38.088327|-27.835683|-37.210783|-35.647139|-14.875490|-9.642562|-10.093999|-8.885255|0.396339|5.991727|0.105472|-39.691386|-12.014444|11.138240|7.256436|-2.471965|-19.360647|-35.575309|-41.724094|-21.223106|-6.188047|-0.588573|-54.192625|4.094411|50.505394|7.510495|-24.619983|-59.671369|-46.930375|-15.579169|-28.986260|-8.061329|-20.706852|-19.153727|-23.110646|-5.477745|-5.595863|0.120580|5.992731|-39.225995|-10.474589|-7.779968|-8.083075|-26.820203|-49.052096|-64.669943|-69.066093|-36.876719|-71.039732|-33.351820|42.898865|46.885632|81.056403|68.852287|10.979781|-13.607038|-33.173723|-33.047784|-37.355214|-19.221476|-15.584197|-4.160956|-31.481936|-1.194481|-5.635905|3.952553|-0.146108|-30.541192|-12.239565|-5.977639|-35.261640|-54.024167|-63.611041|-75.426211|-124.083690|-164.800001|-17.393800|51.915035|-23.144483|5.556056|1.079068|-16.317008|26.212119|-2.290851|-44.630810|-65.539539|-23.216786|-2.946847|5.440044|5.622271|-32.464444|-8.802023|-6.067244|7.449903|13.737985|-46.578825|-17.369443|-25.384298|-74.237908|-44.325430|-73.596569|-128.678281|-124.867264|-52.367547|43.328228|31.276736|-57.990860|-33.409095|-46.437489|7.983140|14.545005|-16.112059|6.878459|-50.224840|-33.624622|4.660658|-0.455163|-17.991412|-34.490997|-11.855181|-10.386920|1.694877|-1.793242|-25.224782|-8.312892|-36.132178|-51.049353|-50.263253|-69.834579|-64.189674|-40.586028|-0.434333|36.543511|-31.159383|-150.695066|-84.832425|-90.839428|-60.303561|-32.648340|-86.532059|30.622116|-27.801531|-79.271401|-41.744691|-24.502823|-6.691133|-13.960427|-12.192474|-10.815561|-8.630547|4.218830|-25.688965|-41.166550|-59.777820|-23.578138|-22.645316|-98.662759|-117.741256|-61.141653|-35.986517|-98.288446|-109.535279|-144.084401|-154.009645|-75.596487|-154.814287|-132.855196|-122.121541|-29.860892|-51.224812|-72.771037|-38.926528|-28.573091|13.949406|-17.653851|-20.937783|-3.382770|0.838214|4.617400|-23.906300|-4.259016|-15.430007|-34.051761|-48.697587|-88.869078|-178.093259|-42.318403|-61.214690|-131.946075|-206.809231|-66.886198|-132.754423|-52.364101|-84.008201|-202.894609|-186.820558|-18.930711|-89.973639|-40.122526|-69.787307|-37.821538|-2.108554|3.119213|-7.086790|-7.246007|-4.266472|12.224560|3.354056|-2.015091|13.695788|-77.308333|-88.122541|-76.106654|-145.831379|-3.126587|-43.035436|-152.470395|-172.029797|-152.808791|-100.163090|-76.373615|-85.192766|-54.603943|-46.470571|-49.722251|-31.426365|-34.998501|7.622786|-87.462990|-1.477764|5.638194|6.706535|-7.452324|0.719367|8.917819|-5.367078|28.626914|12.403942|-18.689028|-57.404890|-56.982826|-93.471663|-6.585526|162.912622|9.632810|-33.867136|-50.732382|-8.433548|-28.169513|-149.947667|-69.995917|-61.339043|-95.345555|-97.905412|-10.968412|65.341913|-11.296726|-6.779013|-7.836149|8.967243|-5.686429|4.579068|2.759104|38.594240|39.425010|37.420104|8.434267|3.363224|20.537474|22.553350|93.494305|203.536335|-5.168567|79.051960|-2.011637|-95.579743|-77.562353|-61.590455|-10.500521|21.252530|-23.397255|-1.943939|-14.018209|-30.722865|-16.078172|-28.893583|-18.414500|11.075566|-4.270606|2.199289|20.823671|1.809554|57.736980|5.256126|21.754370|34.041356|22.008869|26.332157|109.296987|184.767400|78.731940|138.055388|37.816124|-71.162057|-29.963308|19.659206|19.231211|175.637104|47.764788|39.368687|65.862761|23.899164|18.086260|-1.948674|-12.905041|-3.502518|-1.827430|-0.571461|22.753127|-39.509636|72.597506|22.796500|12.466424|-7.278326|-11.415507|32.635782|131.034675|271.645633|197.195638|85.773976|121.046421|-56.010390|90.090880|88.816744|-5.188622|68.323626|52.115917|38.355362|82.872852|42.150972|4.009092|-1.355503|-17.516437|-8.513040|-7.808641|-13.181538|30.303219|-13.186468|59.070646|12.125734|42.483547|19.771226|16.002155|90.223487|64.987317|145.932179|123.606892|116.576309|18.846668|92.443548|157.393413|116.547583|68.937744|90.224482|1.498106|105.229520|42.582484|-0.816789|7.882715|1.538688|5.824169|-0.321227|3.203735|-3.634031|23.927705|-19.971911|21.599534|80.518461|64.747089|36.976761|44.024585|22.954725|84.599527|140.149843|63.713427|89.603926|-24.669078|86.363030|100.051594|20.400026|3.436859|-13.922522|89.432212|3.696806|42.992258|14.543386|17.276774|19.035963|14.823334|13.381026|3.895275|-6.178551|48.343732|-12.750562|49.080936|60.545413|28.419109|5.802480|58.696561|53.536868|154.201239|76.544837|174.206151|4.164873|12.895068|50.670916|70.639900|34.463647|74.008802|25.190418|66.322514|32.086140|29.792202|38.338042|72.072059|15.292299|31.214247|19.502015|0.333563|16.663566|47.359445|-8.446940|49.199277|53.707486|-26.105116|-24.541682|33.829019|14.990945|74.751193|82.059453|60.569869|99.658092|74.437432|91.476325|87.275947|72.607752|-55.338964|-38.267182|18.107131|-42.292187|-11.745333|11.889095|70.361351|1.422938|10.678681|25.244073|4.826742|12.834441|34.830967|-11.092377|27.609396|7.732500|7.425839|37.295422|-12.289834|-13.390171|-37.577411|-58.130375|16.473792|86.914489|-39.509225|-5.064539|-3.705092|-34.640103|-38.443584|-12.897211|6.676062|-27.508746|31.171175|46.075517|12.912907|10.468143|-15.356547|8.399118|11.078223|18.528107|26.697753|-23.245425|-14.156085|20.668218|33.124204|23.727676|-13.107251|-69.744849|-2.231463|-33.636179|-7.419621|12.663096|-4.106521|46.215569|113.353998|90.430109|47.230626|12.424642|25.193697|12.887000|46.152858|89.511446|42.064230|36.314428|-2.319586|6.034272|6.868003|-5.943599|5.951530|-45.320403|-39.989006|-11.462075|-6.831717|-11.163769|-1.283904|-68.846570|-30.677165|-61.568601|4.097132|-8.050041|-14.592613|-85.059011|-9.485654|46.019573|52.477887|75.333459|-2.991207|56.535601|48.034433|15.609186|3.990884|31.824558|1.860009|15.744935|7.260412|-2.286157|3.184568|20.665949|-3.031894|-4.397286|5.493845|1.571524|-54.240115|-90.502130|-46.272347|-7.883175|-4.968599|59.516299|4.428084|-110.815722|-50.408690|-28.558905|69.964650|0.852501|19.971129|7.023544|73.190518|32.868547|25.862771|51.918888|24.636093|11.160425|0.682284|-1.857488|6.729796|0.278640|2.952441|13.783901|-3.898602|-24.607894|-23.298841|-19.076722|-1.296025|-9.844911|33.170038|22.974449|46.800197|-58.114499|-17.828617|-63.042269|-36.027400|-56.635965|20.304625|-30.037613|28.969846|41.871926|2.530479|-7.949716|7.963048|14.158389|-0.677232|
~
0.684118|0.562675|0.913793|0.584547|1.591976|3.534049|1.892685|-4.461615|-7.355230|-12.322384|-7.477489|0.198704|2.253664|7.604834|7.772627|9.317699|4.414878|3.314741|5.772002|4.174884|4.250530|3.478459|1.181464|1.744591|0.946261|0.127681|0.967615|0.425303|0.149267|0.810583|0.969386|-1.212802|-6.817604|-1.001770|-7.547308|-12.204909|-12.483636|-12.611770|-5.635967|-1.529895|0.892973|5.659272|1.888636|15.662589|10.439570|1.935925|6.833043|9.156446|7.737156|5.070247|3.531139|3.155404|1.063247|1.159355|0.932655|0.944628|0.041558|0.900270|12.020701|4.852887|-6.945313|-15.822736|-17.103285|-31.760280|-35.235379|-19.441570|-25.091011|-7.527049|-12.367407|-12.710210|3.962932|-22.621205|-3.419401|-6.079785|5.507615|3.721955|-8.123115|-9.810969|-15.321018|-15.445960|-69.866141|-3.879653|0.575232|0.006831|0.862926|0.507886|12.419696|-10.946764|-15.576963|-29.461954|-31.710154|-35.095587|-20.380907|-29.144855|-7.825763|-28.514869|-24.418138|-15.300328|-37.716315|-28.473675|-14.542061|-23.156693|-11.494615|-10.362304|-13.380730|-15.439194|-9.865305|-34.321763|-49.330055|-23.305382|-0.145231|0.741010|-0.374552|-0.544620|-2.134050|-26.416740|-20.909299|-24.711885|-26.951466|-29.754565|-6.496651|5.252896|-6.701613|-40.572782|-48.085759|-29.781164|-23.309782|-16.446495|-5.275858|10.014368|6.284265|22.772786|5.244044|4.188784|-4.844625|-13.402838|-35.681439|-16.632862|0.550691|0.364165|0.822542|1.069981|-1.541786|-7.486516|-27.989574|-34.422890|-50.078260|-20.524087|-4.785016|10.550217|-13.074157|-23.095088|7.902425|20.917900|4.747060|-4.261961|2.259085|43.153303|5.176141|10.025047|10.166476|14.011847|-2.034541|-10.819787|-23.090322|-11.269153|0.842174|0.535017|1.655944|1.136780|-3.379359|-22.054530|-26.095932|-54.601868|-26.018332|-3.973682|-33.510275|-42.277865|11.039137|8.620639|23.833647|36.840546|48.519863|40.254379|31.190967|10.696136|9.917713|0.676128|-18.443799|-9.207135|-6.849648|-12.947469|-25.045828|-6.629725|-1.554123|-2.024090|2.617317|0.502614|-6.801595|-35.993305|-5.924909|-11.028937|-1.093858|25.958089|-17.453022|-9.085890|39.407014|11.842979|-4.481579|-17.095007|34.689778|74.846140|49.210881|-23.398643|-40.986364|6.132014|-3.514518|-47.965553|-6.044659|-7.122351|-40.315336|-9.877375|-0.806407|-1.395699|-5.889085|-12.474487|-7.847760|-30.596182|3.837006|-11.748645|13.132994|32.736788|10.521194|29.815069|39.489347|20.341484|-18.194555|77.671069|82.359630|63.771948|53.359393|12.225273|-71.035873|-36.747302|-18.970076|-3.989965|-15.708500|-15.639466|-23.513541|-3.278561|-1.184021|-1.083949|-5.297242|-11.293933|-7.944776|-37.336031|-14.548020|-14.619363|-1.020493|3.500673|-0.667318|10.535698|21.656803|-3.834250|-15.286305|21.205205|17.195178|2.811281|-46.181953|-32.679546|-84.554959|-50.291742|-9.417791|-23.240495|-28.900761|-5.206069|-18.035798|-5.526253|-1.806247|-1.693712|-3.439030|-6.221655|-8.923649|-26.346423|-21.191654|-30.415330|-17.643107|52.613951|-36.889442|22.761351|46.708910|-11.221365|-46.653702|-35.628554|-32.104686|-31.331971|-43.001627|-91.131720|-60.176851|-47.051634|-29.729987|-36.200933|-0.521646|-7.590906|-20.358896|-9.043469|-1.906790|-1.708523|1.071800|-1.178189|-2.870221|-9.681541|3.539997|-13.714466|-16.335210|21.573276|3.137233|55.969471|-4.811471|78.803937|17.630043|-24.543094|-114.636820|-21.243604|-44.147882|-38.933914|-53.052364|-27.034014|-35.201579|-56.597555|-29.374651|-12.161525|-17.770411|-3.783081|-2.073204|-1.768096|-3.537357|-0.091699|-5.155756|-42.888952|-25.232926|35.869048|24.725212|67.731330|-10.498671|3.556498|-5.694325|31.489763|47.864861|5.477645|-72.122118|-19.089863|45.993030|-1.629912|-19.181468|-41.950220|-25.013042|-42.449226|-34.301634|-18.691896|-23.506545|0.833110|-1.684445|0.911906|2.634818|-2.121917|-10.029103|-41.051918|-37.646182|-1.690499|43.318381|20.536422|30.277246|29.179787|80.537155|21.648361|-72.768449|-94.057936|-55.278188|-30.602296|44.212567|75.957571|-52.556873|25.062719|23.150369|-71.677548|-62.338152|-16.540158|-17.160011|0.285077|1.067822|-0.134315|3.229946|-0.862346|12.695018|-41.553345|-28.730297|-63.937464|29.664986|-8.557956|-8.666541|6.861812|56.669604|-42.524446|-119.381220|-163.313302|-134.829948|1.265372|85.867591|92.716722|44.613803|20.103132|12.450548|-36.275204|-48.682714|-24.282915|-16.473732|4.358251|1.973143|0.531055|2.991808|-5.158543|-0.546234|-8.050297|-9.206999|1.786658|17.832918|-39.607794|-73.931103|-4.026074|-16.063967|44.350885|-110.112644|-132.995719|-133.461294|-22.956418|44.107970|4.898850|-1.185291|6.580410|6.194707|-2.769671|-11.607335|-28.293195|-26.429762|1.791812|2.158803|1.093112|6.010238|-3.243380|22.104837|1.862714|-17.686893|-23.757726|3.741516|6.800622|-64.709908|-79.659228|-32.118093|-11.401172|28.005550|21.109808|39.596471|-38.666390|8.498434|-17.945847|-40.780593|-52.741219|9.757178|5.338619|-35.267157|-22.099432|-34.200208|-0.424284|2.094384|1.936114|-8.512739|-2.197180|-4.424345|-4.255550|-11.994066|-13.637162|4.778988|-23.395289|-29.464257|-94.839063|-77.008432|-25.471990|108.279814|80.373691|78.702194|39.915824|53.747428|-2.690705|-53.346775|-53.618305|-1.830650|-9.673875|-19.818621|-23.545196|-25.187345|2.739339|3.347546|0.686588|-9.315950|3.431948|-5.027658|8.471779|9.304011|-20.732212|-15.980552|27.751174|-34.964529|-43.287802|-20.896667|97.120548|81.683573|188.095141|146.528588|27.713415|72.000203|-4.154742|-1.053310|28.458689|45.722597|12.635360|-12.152330|-25.030457|-25.449075|-6.755887|2.261610|1.387359|-0.709815|23.398817|27.863850|20.646439|-12.623376|15.670072|-12.683285|58.111836|10.444516|49.676753|0.959296|83.718556|154.038160|125.036423|121.820190|57.748392|15.117115|41.203586|0.024950|39.986880|90.707702|63.249666|0.449626|-12.050308|-24.830717|-3.355088|0.680938|0.625685|0.364029|32.277391|21.576868|-1.855794|-9.475120|-28.185836|22.661534|31.618857|29.007628|48.029677|51.808926|81.163188|103.018786|78.710612|31.869631|0.360720|96.068612|129.883287|35.399514|-26.733357|59.811670|45.761541|15.360202|-4.885579|-20.946600|-8.260981|2.656368|-0.081723|2.141306|29.189373|14.517897|4.704445|25.821144|36.468622|49.205670|54.068229|57.258660|46.979205|55.221890|44.556556|48.673492|-11.745021|-58.762523|-126.216051|-0.333794|20.685438|-22.908292|-26.689469|18.309429|30.426388|18.383894|7.966591|-10.297897|-6.871825|3.016151|0.107861|6.854602|17.981991|21.833366|-10.406174|-17.955260|-8.338283|5.180570|64.054315|50.098896|8.040227|-30.046600|-26.927025|-45.204255|-66.463193|-35.708532|-60.465567|-31.430699|-53.767694|-10.620717|34.749597|-16.459346|0.412160|18.835934|-12.567838|-27.049585|-0.983105|1.657157|0.348675|1.671872|12.869794|13.377232|3.461659|-13.119164|20.459867|78.431337|106.531378|81.954551|72.333276|34.350509|10.006811|22.045575|-84.217010|-48.284385|3.399122|21.809040|34.216284|0.174222|-8.483061|-24.667715|6.596954|-5.960328|-32.734580|-25.750338|-31.763685|0.202306|0.445673|3.759334|20.764681|1.333582|11.303355|10.584156|24.807039|26.271777|57.894907|62.165518|81.445003|38.549295|-38.686767|-46.454064|-58.583350|-11.503553|26.761157|12.182962|10.744509|14.503892|-35.096335|-31.179042|-45.491128|-40.252904|-44.036433|-35.026049|-25.029323|0.607211|0.347215|-3.366790|15.700214|-3.034874|3.141775|8.491704|-19.837118|-19.972833|31.032159|59.098234|59.670491|9.248522|15.014157|18.549406|33.867887|38.969035|25.049772|-8.651996|3.249414|-24.519341|-64.660297|-41.852894|-46.321988|-29.580431|-26.773420|-2.735565|-10.459124|-0.203718|1.049694|-1.169866|12.163447|18.643809|13.139468|14.538181|4.245938|19.335614|2.782880|22.645489|55.391295|38.131212|17.719972|29.378267|98.904665|20.901390|8.641848|15.984433|19.349547|-19.199078|-45.132496|-36.399047|-16.737044|-4.676027|-12.600999|-0.528630|-3.576536|0.146887|0.253858|-1.494566|7.670072|4.259856|15.423283|25.180452|17.219839|29.755461|13.432283|26.223172|46.589008|15.912783|2.991795|-6.627265|35.127645|2.308415|-41.854268|-52.840415|-10.939875|-38.230093|-35.777936|-18.597193|-12.382001|-13.554242|-17.535897|-4.300958|-0.715160|0.152534|-1.025115|
~
0.418732|0.091282|0.431232|0.593348|0.523970|0.569093|18.635841|10.447601|9.663856|5.861802|0.765196|-8.927358|-23.015936|-42.547632|-41.391740|-41.999327|-17.865393|-22.576170|5.252453|13.948630|0.610005|3.681925|-8.718749|-8.426359|-7.367920|-2.778304|0.623779|0.262972|0.354476|0.419146|0.461901|0.872230|12.831984|19.398832|10.030381|10.660996|9.290747|6.510732|11.129201|4.111916|-24.424981|-34.593131|-29.222358|-34.497103|-29.617141|-28.300303|-31.252249|2.552898|15.273090|-14.416942|-4.525091|-9.134314|-8.262618|-2.896940|0.042964|0.773953|0.151798|0.666743|16.154771|48.770635|52.933653|40.933160|38.044409|24.122844|1.056328|11.870538|10.908200|25.207115|32.568000|48.903045|36.760932|24.514515|27.856162|6.692869|18.326064|-11.864146|23.547530|33.576236|6.545577|41.310476|19.746818|7.010664|0.633442|0.107678|0.859088|0.676406|54.969188|64.377426|41.964408|18.613731|16.632867|1.598319|5.963411|11.936740|-77.617676|-50.355424|-42.418681|-72.920893|-133.657618|-74.815249|-48.770800|-38.066928|-20.065287|11.721599|0.342078|1.202328|-14.890439|-16.258159|22.024635|14.682224|0.737551|0.600794|-0.005659|0.337967|44.322903|8.960854|39.134869|-5.451949|-26.318679|-37.466571|38.146138|-35.544135|-44.723237|-62.227901|49.927769|-44.019462|-57.239711|18.538585|-37.160365|-44.751907|-7.678627|3.805375|3.081753|15.314163|-44.045954|-45.303066|-64.305232|31.814342|-2.303587|0.118797|0.429200|-0.973201|7.200305|17.213214|-14.032177|-41.525716|-34.497476|-0.416823|-40.492285|-32.347019|63.087076|37.940793|-108.968341|-57.710258|-53.526605|-19.380898|-11.476610|-28.494735|19.013045|-41.909162|2.602057|-6.303086|5.556061|5.354658|-53.817943|2.342563|-10.247106|0.563764|-1.119983|-3.539122|31.303451|-11.857740|-28.463203|-40.190270|-16.366330|-35.908783|-57.482410|-4.763306|-40.433881|-6.312737|69.022366|5.710869|48.638254|39.809539|10.937723|30.553693|4.187382|15.059869|-13.336834|-13.829487|-28.402022|-6.322902|-69.473673|18.644342|-8.916444|3.729683|-1.986159|-0.967349|2.601893|-6.399486|-23.273718|-34.086667|1.068695|3.191322|-49.396071|-25.846696|-14.901995|-49.510148|-16.884042|-30.621003|46.353516|100.495419|129.206174|-13.385008|32.942733|-24.623496|46.369707|-30.154092|-25.998735|-4.878571|-23.633803|14.066758|-5.213501|2.917381|-1.039966|-5.960023|-2.791155|-51.135820|-42.709017|-23.451721|23.371112|18.057959|-24.659616|-61.025999|-24.227516|-91.809707|-41.453811|-93.385614|-4.053110|93.087678|138.590991|144.095428|195.574654|74.309000|7.863003|-26.975576|-23.830476|1.609623|-13.299463|22.587537|-0.369764|3.184855|0.467008|-1.798070|3.001759|-28.070890|-38.727132|-14.858443|25.801561|-43.557464|-103.995730|-16.055270|-112.144911|23.792125|-50.450455|-199.211390|-108.843737|-52.982625|70.130936|186.137245|199.834236|86.858993|25.422830|-4.353926|-27.952331|-3.227584|-39.828576|37.585258|5.494054|0.395436|-3.461206|-5.800008|-9.385186|-28.679435|-9.965023|46.184977|-36.927411|17.160468|-16.115743|18.755248|-40.293365|-37.785990|-171.472930|-265.931689|-258.399060|-71.451049|-11.871961|155.908806|128.815387|68.700444|34.088052|-91.625069|-43.316166|-20.915633|-26.007419|50.185006|2.237426|0.026837|0.794992|-12.896592|0.242460|4.692548|-34.633525|-9.864661|-40.886925|61.919654|28.176269|0.255707|1.761661|-104.512795|-97.637067|-204.288270|-146.000133|-88.979250|47.161461|245.361649|118.106543|30.794204|-32.005092|-109.186977|-72.422974|-37.085261|-18.717737|57.085173|-8.717278|0.793671|0.172924|-12.257411|61.546201|30.519407|-7.612931|1.270816|-23.301026|-106.941547|-6.220401|-0.116487|-103.767596|-85.640597|-89.258524|23.575876|-17.297287|-21.582388|127.809424|190.032953|48.856087|-59.405760|-121.563773|-132.672146|-70.975832|-57.322060|-43.886315|28.643983|-14.374815|0.989946|-8.072545|-2.567866|72.065586|44.211511|-18.498454|-26.197970|-59.422538|-36.241350|-34.878441|-116.838990|-153.067538|-125.025159|-26.684699|67.411911|5.523465|83.635876|58.371880|84.749029|-20.746289|-78.140756|-161.563172|-116.947338|-92.493029|-70.534291|-18.896048|3.732907|-18.177752|-5.608466|6.216172|5.496967|48.401815|21.989048|-6.059793|-66.252430|-78.121541|-16.423066|-49.869159|-103.245754|-150.262891|-99.533257|59.561788|119.225504|84.041681|136.688678|10.623044|1.636132|-81.645275|-91.136281|-106.141094|-84.460854|-73.963676|-63.123557|-45.792016|18.941366|-26.051996|-5.284038|10.102565|17.297956|28.701532|19.244424|-59.977337|-120.829561|-70.745271|-95.540098|-82.440688|-58.240612|-92.297948|-5.307223|75.546834|55.049104|84.022762|83.552938|-8.318039|-47.883840|-115.575362|-93.955625|-83.400401|-62.466683|-33.588937|-40.312587|-28.869043|13.959208|-21.662578|-0.070843|-5.629972|-6.637825|-31.287507|9.931215|-28.839851|-28.780990|-89.443175|-108.820684|-55.876102|-37.747727|-87.459068|-44.167413|-26.590106|109.566260|204.504371|21.020813|-117.030844|-142.208363|-197.911218|-137.901270|-153.414271|-51.441817|-34.762824|-31.490040|-36.272735|0.731470|-11.847867|-8.882434|-3.486981|-11.463779|-8.178372|0.581309|-102.876478|-69.893825|-66.559671|11.277333|-59.947525|-66.278159|80.270022|51.733557|20.050724|167.632644|192.966787|-72.828140|-236.693198|-186.989670|-156.783354|-94.719345|-167.397338|-72.355674|-73.226164|-49.384127|-43.740854|18.134419|-8.623935|-3.232775|7.303213|-31.676202|14.491679|-5.354353|-102.211510|-107.895977|-104.290491|-150.768660|-56.032714|-41.395222|109.057907|32.540439|163.386803|199.566585|23.703319|-168.572769|-137.849029|-91.525317|-149.212547|-133.744208|-96.874396|-78.843954|-59.675497|-49.175163|-37.250451|11.765556|-8.360866|-2.929834|-8.474959|-24.644042|38.776843|-20.936943|-53.821884|-68.904276|-41.827691|-35.768780|-0.471968|-63.640240|150.872918|153.341383|259.473537|68.068105|11.946210|-54.348644|-94.026509|-145.295130|-166.278667|-91.726979|-64.699791|-78.418671|-64.231475|-54.276367|-12.469002|17.228383|-2.782990|1.596054|-3.039093|-28.718090|-4.342853|-48.206060|-88.226010|-65.782344|-55.904531|0.997277|125.467366|43.163855|108.168143|134.336016|131.476082|36.090040|-59.682232|-32.229090|-50.044311|-143.140911|-177.082567|-112.091690|-61.760661|-56.549775|-55.550591|-19.131043|-3.085085|46.427887|0.315175|1.526399|-6.148161|-31.576045|-26.679222|-36.194486|-34.170053|-72.193356|-59.770265|-93.902448|59.732826|116.258155|54.642496|92.934563|45.011625|-7.765225|-148.903541|-75.798524|-203.733586|-245.302339|-128.423273|-75.674277|-31.694157|-37.920711|-24.145914|-39.696051|-13.642766|60.311650|1.054684|1.468369|-37.049692|-41.982807|-34.114695|-63.889546|-24.950892|-24.744055|-31.358545|-6.474181|104.553729|78.249561|55.296044|27.420162|-37.877902|-76.678993|-110.336875|-165.943569|-161.287134|-144.795551|-130.141163|-64.451704|-19.110602|-33.772178|-22.908852|-20.633604|-32.202259|72.735943|0.176398|0.459583|-10.027977|-46.902527|-15.725128|-24.806382|-30.535955|7.434098|52.383142|51.442823|34.382314|128.132907|18.182855|-47.325711|22.481524|-20.577111|-75.789995|-137.441220|-117.359381|-89.870931|-72.782940|-29.847624|-0.293321|-6.637455|-6.075545|3.090718|-23.140803|67.884790|-2.426116|0.377586|-32.259624|-44.237777|22.151546|-24.977068|-47.953159|-10.938352|-1.015637|99.406609|83.386521|-7.300854|-45.380935|-60.800828|4.854374|-89.006027|-87.219438|-98.941383|-99.208092|-94.614666|-45.982882|-28.501750|-3.940589|-16.058473|-15.758531|17.990533|1.577525|36.994576|-2.738235|0.909886|7.686174|-38.669728|-4.580545|6.580383|61.996436|79.390042|71.113137|57.729956|17.781649|20.267577|-4.398029|-2.091432|-21.433849|-140.118984|-109.865121|-78.291378|-87.238983|-105.111896|-27.500216|10.026928|22.953426|-11.141675|18.867020|55.021267|44.593731|62.213919|0.983358|0.899768|7.475122|-28.755540|-21.277143|-16.941574|41.636378|51.463461|82.870469|105.613428|63.877774|81.546086|-11.028555|6.963086|-72.175779|-113.677386|-76.835148|-61.305289|-10.436815|-46.808436|-31.172043|-14.191067|-20.451498|-1.742862|0.178749|1.909499|2.600018|1.224619|0.552418|0.361780|7.220301|-29.637232|-22.216264|-38.054725|26.857224|32.153930|56.844004|61.729609|98.609708|53.921442|0.613284|-55.288144|-44.833323|-76.840745|-6.297962|-0.880188|1.772036|-27.568904|-10.769515|-6.321612|-2.405570|-1.450382|0.837212|1.231693|1.257063|0.942180|0.299237|0.404674|
~
0.197770|0.470304|0.850353|0.354602|0.692679|0.384015|1.099911|0.499032|-2.998926|-3.690911|-4.575504|-5.191234|-10.743402|-10.035301|-13.256165|-8.545929|-7.718575|-6.547064|-2.797534|-4.382490|-3.670261|-3.923457|-0.275851|0.058097|0.136931|0.686002|0.821227|0.331896|0.380188|0.010510|0.830778|0.562510|-3.283827|-3.105144|-2.555810|-5.443848|-6.296359|-2.461576|-5.375133|-19.291413|-17.816669|-12.814258|-16.125766|-12.194296|-11.124475|-8.732027|-9.315398|-3.228859|-3.234961|-7.003471|-0.491414|-0.319345|0.728667|0.777014|0.135901|0.132580|0.851015|0.957128|5.851882|-10.192297|-38.731797|-35.133235|-20.846028|-12.074678|-22.283952|-32.336102|-40.030315|-40.623013|-43.420443|-50.441672|-53.836966|-60.486708|-49.261212|-15.969575|-2.308042|-3.556472|-9.389765|-7.817746|-9.153294|2.216138|-0.858051|5.193505|0.996303|0.146419|0.724971|0.132204|0.727083|4.042731|-6.082635|-2.415193|-0.839984|-6.778101|-10.942625|-18.253266|-26.441111|-18.933676|-17.717625|-18.168002|-45.256501|-54.460243|-57.766572|-52.749902|-38.940874|-42.851028|-38.300257|-34.923917|-34.135497|-36.418015|-38.663481|-18.316978|0.644645|0.947939|0.720769|0.625096|5.042152|-6.724696|-11.273645|-2.890598|2.116157|1.108727|-1.234573|-7.904097|-22.027383|-33.255923|-24.715762|-49.198554|-49.556336|-53.133940|-83.171463|-83.185622|-52.203818|-30.955704|-22.428460|-12.429486|-18.013057|-15.289671|-34.607378|-9.223714|0.450395|0.488211|0.103015|7.141791|6.182389|0.036980|-1.627301|-11.824720|-6.305314|-3.763208|-6.162675|-12.754148|-18.192593|-18.516441|-32.216020|-30.098401|9.476931|-31.907502|-63.491957|-92.669837|-63.192663|-34.821608|-33.528969|-11.792701|-13.519374|-7.639813|-12.835385|7.380771|0.095448|0.526387|6.893646|6.684543|-2.276237|-2.112518|-7.456140|-15.455221|-7.409086|-5.465407|-46.283751|-39.404443|-42.182009|-7.924471|16.968728|52.388329|25.590145|25.276550|-40.192765|-75.158625|-72.077730|-19.270381|-27.406062|-13.708380|-25.097127|-17.742349|-11.098905|20.388771|-0.158707|0.438416|7.782217|6.920397|2.394598|-15.922025|-13.378711|-17.177770|-19.174429|-22.515323|-49.191625|-68.407570|-13.116541|-19.093180|28.991740|0.504264|73.316025|72.626138|-6.747712|-38.850897|-49.643964|-39.818903|-32.608998|-21.932293|-11.069439|-6.602601|-20.576098|22.553895|0.100464|0.644471|6.474731|5.088882|1.846557|-15.368253|-22.196607|-12.782498|-25.622055|-42.371316|-28.783892|-21.614005|32.869527|23.402667|-25.698865|-29.848506|21.834129|24.199900|3.557385|46.898003|-54.631326|-16.268151|-31.940122|-15.653221|-31.718195|-26.554594|-27.864815|9.111231|3.462715|-0.204243|-0.144319|4.849135|-5.963847|-5.347943|-22.395720|-21.741617|-18.088559|-18.561488|-11.005113|-1.333225|34.635687|18.091009|-37.781715|-63.629150|-67.483750|-78.051461|46.838194|27.687010|-4.111811|3.647924|-0.050598|-41.484229|-31.645401|-10.497499|-21.900939|8.997378|3.132489|0.114578|-1.002786|-3.936605|-19.186704|0.298344|-26.659718|11.432012|-16.218758|21.727096|8.051545|39.147419|100.556287|33.118107|-8.665479|-133.965439|-114.554207|-104.016734|39.144253|57.372113|67.637049|-10.569889|-7.991115|-39.213389|-20.849320|-5.053023|-26.016707|10.772197|2.978264|0.015112|0.494754|-3.762577|-13.214372|10.504865|17.948307|2.796534|-22.185788|20.974502|48.834315|41.105715|61.793836|110.586987|56.463244|-115.409728|-147.322624|-141.497621|7.407730|90.927924|79.430867|117.686922|-1.343953|-31.797104|-22.556002|-10.477823|-25.518165|17.192061|3.536473|0.072570|3.411992|4.644710|-3.903967|16.974936|-1.915043|5.854187|8.019360|-2.101606|22.940588|-100.026940|-37.680019|-5.749521|59.899550|-24.910326|-113.335594|-111.688272|58.469024|54.389226|57.425276|61.829970|-1.670276|-8.505007|-8.283500|-12.547346|-32.234324|25.450472|0.818847|-0.137424|6.816546|11.282150|5.817486|37.247237|3.069818|-0.369185|-1.399208|1.979236|-42.521016|-32.201423|-63.715146|-93.898892|44.599849|46.055089|-33.263698|-9.053484|58.755430|82.370487|-55.252238|-59.978823|-26.171020|-10.796076|-28.878394|-3.719773|-15.338976|15.719175|3.434602|-0.267224|16.594166|19.528847|5.349046|-8.625180|-35.994802|-43.953146|-3.746855|-66.517108|-39.487479|-31.642023|-112.456445|-92.503265|-29.762929|45.831536|92.219578|19.759016|79.356419|43.663995|-95.929748|-103.884896|-51.127123|-7.816062|21.487930|-18.575346|-16.415808|17.632512|3.433787|0.360410|14.481018|19.553385|-9.925804|7.766718|-38.394601|-33.213886|25.881652|6.773301|-29.556009|-30.326509|-20.619733|-52.004536|-37.429521|-19.288628|57.676152|30.247833|4.306533|-40.141644|2.114971|-53.590125|-23.929381|-9.027849|0.421538|-21.429895|-10.302480|18.211764|2.912129|2.813415|14.405285|14.868467|26.969303|10.605293|-36.409430|-24.528381|25.092019|10.200115|-1.900637|52.756046|108.731367|54.616021|68.908572|17.534679|-6.620739|15.473601|-48.359151|60.987021|43.834998|28.251551|1.880505|5.661274|-16.411148|-28.583150|-24.163857|-10.794342|3.505247|3.174248|1.858571|22.837716|-0.162409|-11.890681|-41.721223|-20.446220|23.230155|-24.458494|60.943939|20.676545|40.795716|72.007987|101.194360|70.543591|-76.989215|-71.164493|-6.030704|65.809125|102.943934|35.060336|19.072313|-38.363413|-30.226105|-44.962277|-22.523233|2.664771|3.492295|0.214711|3.594269|16.149595|13.063136|-3.716939|-29.674553|-32.414242|-14.288022|-6.597087|0.311473|-32.285777|36.146471|-34.331114|-24.505911|-47.178194|-147.896289|-46.575285|27.629099|88.069120|60.364231|39.667832|-6.502194|-66.451751|-50.274966|-22.860839|-14.816472|-10.907110|3.478858|0.633321|3.326437|25.943671|22.586176|14.404424|-7.115798|1.987327|9.487233|41.782433|-27.246389|-11.830027|-51.706609|4.488340|-29.296875|11.427335|-50.380057|11.246996|75.908665|64.105285|-40.562494|-21.558130|-57.207000|-49.465779|-35.629626|-2.880596|-1.943306|-9.540555|-4.698654|0.184053|4.919167|17.789925|0.873319|12.298727|-3.546902|7.787489|-1.517590|40.033451|41.108883|-73.656693|-58.827343|-19.218676|36.965049|30.892502|-32.747331|-23.143752|47.912031|55.327082|-68.589343|-90.242098|-54.732346|-18.608885|-31.731746|17.412368|-2.042826|-9.854209|-6.353952|0.295082|2.319690|12.701317|7.844646|34.829248|27.759443|11.936300|-4.331433|23.909496|47.326174|-1.918346|63.336467|28.097571|28.176148|91.496225|44.993159|100.380947|60.188980|-17.613477|-77.373236|-53.974003|-47.513391|-14.340483|-8.753055|5.899042|-9.082860|23.649145|-5.883717|0.290847|2.699542|13.126221|3.584298|32.165673|7.245490|-10.399125|-19.285105|3.318260|-1.474867|-16.332786|19.856358|23.009912|-25.353904|-4.726039|45.457600|32.950098|-78.613509|-92.121260|-97.659333|-66.160742|-24.946910|-19.844280|3.043766|-11.621871|-16.754468|4.115888|-2.054880|0.411857|7.389728|6.059076|-1.487579|42.991078|9.574086|4.642848|37.874344|-5.389960|-35.616336|-41.229958|-35.897613|-61.547117|-34.934877|-35.609329|-61.030468|-53.443471|-85.049952|-102.497046|-35.506814|-26.111406|-14.696139|-21.975198|-3.628891|-7.546227|-11.728592|0.465654|-2.148295|0.477752|-3.495903|3.822417|27.741138|27.191170|10.538604|9.262807|8.423310|25.053119|-1.108289|-40.778693|-34.275872|-35.902673|-41.427434|-73.346263|-44.106531|-66.033207|-65.414291|-55.421761|-27.741261|-10.630757|3.083057|-8.265195|-1.057481|-1.618112|-5.162325|-0.919532|0.570833|0.305790|-3.481029|3.910820|11.323654|33.300188|67.052255|41.950835|33.047839|29.411813|16.049033|26.678453|14.228652|-5.097428|17.584921|30.256806|20.058334|-10.825420|-2.426976|-9.489939|13.673722|-5.152781|15.833724|4.112256|25.204977|22.075899|25.695895|42.116313|0.904790|0.682600|0.864917|0.498868|13.971269|28.020159|15.228509|2.799069|-16.526504|-10.557705|-34.243770|-17.315327|-51.023954|-4.126412|-12.849479|-30.136375|-23.732468|-34.935294|-22.526268|5.106608|-27.869308|-17.327520|-1.381110|-16.563141|-13.022722|0.170254|3.761245|1.229576|0.554108|0.419011|0.059708|4.584132|2.603585|12.917673|20.514151|-14.922897|-24.900678|-27.281287|5.434272|3.855068|5.688300|3.824845|14.277251|27.611546|-6.494118|-31.810963|-35.183276|-25.796293|-10.883111|-6.325546|-1.897825|-11.545973|-2.422119|-0.566702|1.524012|1.065467|-0.058665|0.066263|
~
0.785377|0.458425|0.870644|0.814891|0.428776|1.008486|-0.028093|0.400184|-0.200487|-1.143736|-3.376053|-4.961473|-13.294055|-9.599182|-9.938667|-4.255235|11.566919|11.366382|14.889803|14.845409|2.381336|0.923187|-1.592774|-1.423712|-1.431854|0.981774|0.828714|0.663012|0.339955|0.997512|0.118414|0.168308|2.215393|0.080240|0.634232|0.449571|-2.009707|-5.114590|-10.278136|-18.964924|-18.539833|-27.371078|-22.315169|-21.504927|3.362899|12.257170|9.322217|21.938086|22.657563|0.380729|0.701387|-1.073601|-1.033523|0.289569|0.117001|0.886656|0.718314|0.945715|3.821809|3.698713|15.606377|-1.905941|-2.245196|-0.713992|-15.291783|-27.886876|-27.314119|-28.397269|-16.209393|-25.160804|-27.696203|-3.201981|6.150670|33.455395|34.897012|7.922559|34.383884|40.221284|8.041685|17.583501|12.707310|9.014672|0.098630|0.508259|0.165634|0.215631|57.161432|37.236920|10.615811|12.881068|12.853952|11.564911|3.639465|-13.256659|-31.392758|-41.056093|-16.336914|-24.609963|-18.990560|-7.674317|-4.958282|-11.173745|-1.778727|10.416355|27.538876|30.989981|4.841801|1.414864|-8.277508|-12.749604|0.464493|0.167922|0.318192|0.531558|39.324639|24.186805|19.837475|-2.035238|-6.846154|-6.976432|-13.107627|-34.818643|-47.015760|-52.653464|-18.949876|-49.102746|-74.685349|-28.245030|-18.127258|-42.527431|3.510599|44.966014|29.881733|61.872713|20.027346|7.850166|-20.832335|6.078573|-3.402183|0.532416|0.297311|0.059166|1.283849|-0.562196|-15.352171|-27.407353|-29.902025|-26.750700|-38.558857|-34.981797|-27.926639|-82.878444|-107.882164|-94.412766|-87.665781|-45.394712|-54.167318|-70.764326|-8.427981|19.884366|28.752706|45.914893|42.923420|17.772623|-12.394953|9.914631|-5.659525|0.127607|0.281133|0.003337|22.683154|-3.644665|-11.000671|-23.469768|-22.302087|-45.536447|-48.761693|-43.744363|-37.476448|-69.068751|-2.636366|-6.062888|-4.747501|2.132870|-30.563427|-34.948242|-25.913425|29.849580|16.231489|23.217582|1.959065|8.742392|-7.772964|13.644943|-5.335375|0.505193|0.760642|0.365137|15.268290|-3.349585|-13.132553|-22.898807|-29.686081|-46.305069|-49.844771|-31.137530|-44.356253|-61.213967|-65.066240|-35.420427|16.101817|12.433050|1.262315|-10.967640|-47.569225|0.152468|60.251874|21.364355|-7.876516|11.372867|-6.324369|5.388176|1.241535|0.998631|0.169374|-0.858901|12.461562|-18.559960|-27.531649|-32.943652|-36.753416|-64.056062|-36.864247|-88.932778|-60.754464|-122.164162|-36.853271|12.624043|45.347714|7.023041|22.716591|63.822247|19.821978|41.487265|31.177041|23.996319|-23.951173|6.040491|-0.659732|2.926517|5.219582|0.625165|0.559146|-0.168318|14.188669|-15.657281|-39.467314|-28.749465|-61.531650|-86.146190|-43.333189|-67.784633|-75.946954|-16.417641|46.333138|-67.292747|-10.014917|-88.676447|-16.691528|70.266111|53.906501|34.547495|47.044384|19.439685|-31.410048|-1.419229|-13.187161|4.992777|2.097798|0.463159|-0.000958|-0.175038|-0.125253|-29.582429|-34.825195|-44.481974|-88.374686|-46.947626|-0.312172|53.189614|42.735616|19.672232|-30.358231|-55.884232|-108.989251|-60.682259|1.258307|30.577329|80.402087|15.965560|24.788671|-6.469532|-13.348798|-13.340903|-13.338707|13.889076|1.029454|0.811519|0.814247|-10.371544|-5.073089|-8.172186|-58.273947|-60.934840|-95.982240|-10.214067|48.164475|66.839663|60.708871|-10.056421|15.818719|-121.860691|-104.962326|-34.601607|26.850677|140.479456|81.865436|9.606103|-13.317309|-49.956811|-33.067151|-5.529656|-19.780511|27.914454|-1.202256|0.530598|0.797954|-11.516682|13.458138|-2.027630|-33.578139|-10.127371|-27.687954|-11.090169|49.610942|32.942411|10.798259|-49.378774|-84.265947|-79.076488|-33.275152|11.669803|127.863403|85.479041|31.381615|-36.929558|-78.364176|-48.588206|-33.852865|-20.507359|-14.129536|7.894198|-3.155009|0.380233|0.728968|6.118207|13.224454|11.577402|-18.421945|6.854009|-20.713008|26.409999|66.586912|55.079471|-26.188611|-105.069072|-110.830705|-2.861744|34.284337|78.010949|71.624628|99.949318|-20.511688|-91.058786|-64.890531|-37.588084|-31.668147|-24.959054|-8.509164|-6.698534|-5.545782|-1.252755|16.650629|5.699890|19.935458|-17.896204|-32.802509|-10.913626|-37.399463|10.016447|27.371048|-9.966580|-115.810804|-164.283495|-105.249810|16.032702|59.021315|98.980456|20.438362|37.663503|-79.750274|-121.334323|-74.467909|-51.669918|-25.784428|-26.788723|-12.911149|1.925747|-3.655327|-1.661105|16.353254|7.892079|17.909292|-19.657387|-53.776995|-43.010092|-70.966174|-67.961287|-38.826965|-20.069287|-70.931911|-112.689800|-69.982853|19.311448|79.802446|90.472838|34.120735|-12.204150|-65.875792|-72.413737|-59.540107|-41.328911|-29.364277|-21.395811|-18.089866|-0.562859|-5.191144|0.847269|1.439921|-10.784910|21.192015|-4.403380|-35.272944|-30.103639|-87.572872|-92.674235|-167.653164|-75.371539|-89.571938|-101.001149|-88.740675|118.025626|137.939512|18.091054|52.900987|-60.704018|-93.384079|-80.751214|-61.792484|-35.637145|-24.076461|-32.236759|-25.183161|-2.165914|-1.303674|0.860435|1.913819|-22.247908|-3.151768|-25.365618|-64.509932|-77.594361|-106.223360|-121.418502|-137.567366|-135.716976|-14.926193|17.619142|22.679142|83.908473|108.870010|47.833624|-26.234489|-57.291447|-70.828716|-31.531061|-62.493762|-26.964048|-47.500399|-25.227955|-30.718385|2.610633|-1.252539|-2.818921|-8.658490|-28.644867|-25.435288|-10.214541|-57.267737|-77.950750|-112.147133|-155.469827|-59.784542|-35.251191|82.183132|59.323948|99.052539|62.698821|27.660103|-107.951328|-83.997887|-29.317698|-21.682414|-33.587454|-62.763819|-43.798506|-51.230656|-22.768568|-27.383655|-8.402778|1.200030|-2.818523|-7.168424|-31.281034|-4.888200|-20.209705|-62.077096|-63.525342|-72.913090|-11.505743|42.870060|76.804535|157.956355|76.297936|107.431626|53.606382|-34.119406|38.231509|-75.329110|-53.197514|-37.230288|-4.268818|-51.942575|-52.516642|-41.831985|-21.013486|-14.177949|-5.261717|-3.565184|-0.192604|-9.259484|-22.122373|-14.716496|-16.539379|-57.613811|-74.730567|-76.469042|14.117272|137.666744|73.406190|92.594013|104.696039|49.187316|0.917476|-34.579859|-45.110209|-51.977900|-21.271132|-42.606098|-13.964285|-36.600636|-38.534011|-38.577879|-21.706157|-14.561727|4.714694|-2.033798|0.357060|0.494019|-14.661873|-35.919058|-26.656162|-54.775481|-64.606449|-20.703164|56.852014|107.072787|120.795033|78.695831|76.983016|-3.077027|-28.779530|-118.555534|-53.439612|-88.140215|-74.061229|-2.903631|-21.045036|-24.049437|-34.972488|-32.308838|-20.519541|-14.773980|10.402619|-1.744690|0.278804|-2.429537|0.334572|-20.395768|-38.247363|-67.149128|-32.661817|-24.056461|57.805791|111.101166|124.154372|100.463469|19.185562|-59.383485|-34.646624|5.528532|-31.669281|-22.993744|-52.618787|-20.231792|-18.736995|-37.589317|-34.665299|-18.736499|-19.502471|-16.181250|19.094583|-1.394788|0.390102|2.375134|-6.809474|-11.132575|-2.073528|-28.787058|-30.338958|27.716489|39.933775|59.331477|116.913228|30.139662|-17.774468|-13.605021|-51.904312|-2.268282|-38.378250|-60.076020|-59.045779|-43.963394|-12.921563|-47.570060|-36.029672|-23.994763|-11.783259|-21.363533|7.081773|-1.333418|0.671813|-2.137216|7.100827|7.990309|11.856177|-17.398322|17.561420|16.521335|67.243604|60.355567|32.187043|23.170166|-11.234847|60.376138|-5.674070|7.871350|3.105615|-81.221785|-82.487418|-50.247459|-30.496816|-49.479238|-43.955663|-38.770272|-23.153123|-19.082366|-12.115151|0.068390|0.110589|14.794833|6.796079|-20.456643|6.722181|35.827087|33.828724|70.048102|54.931230|83.544444|94.513651|16.566643|-15.517483|-0.976862|2.962447|0.651794|-46.400205|-27.702776|-63.987561|-48.746401|-44.211519|-45.440685|-30.658874|-9.902406|-3.981121|7.784580|-0.428151|1.165925|1.099989|14.837768|7.382222|-1.489056|-1.026819|8.661252|13.792793|29.977701|71.720313|76.557527|62.253640|-24.690812|-9.254339|-45.058782|-41.003044|-50.352759|-48.785544|-21.609851|-35.890243|-39.331214|-35.450427|-28.736359|-10.595045|-2.560090|1.976665|5.334536|0.888935|0.731763|0.072485|14.150177|10.007590|-14.823270|0.847312|16.447651|7.464039|21.874242|31.575361|75.516957|42.547986|6.563156|-9.413676|-17.858990|0.810019|-21.992823|11.977815|-4.337567|-25.806260|-28.935746|-32.039836|-8.675515|-3.108574|2.470382|4.034177|4.142377|1.378916|0.397284|0.282986|
~
0.323552|0.806196|0.408054|0.376560|0.345527|1.008156|0.848761|-11.079838|-19.091532|-26.035065|-37.145577|-46.096899|-56.886523|-45.645473|-39.995490|-26.904758|-4.300815|2.924583|9.765489|20.924998|15.464520|12.674956|20.591217|20.476898|17.389839|16.525083|0.437841|0.550255|0.750225|0.717539|0.836867|-0.026402|0.235171|0.121691|-10.097534|-20.350267|-23.150387|-39.107690|-52.026536|-82.549726|-75.569509|-78.336195|-67.007966|-21.140394|5.333492|13.796142|22.892436|49.225083|30.189359|19.236647|25.062625|27.442683|18.621707|17.153575|0.577865|0.780238|0.792729|0.015707|-1.029458|22.666117|24.522322|9.076835|7.960339|-20.310346|-26.360956|-28.233693|-67.980461|-60.141342|-71.559622|-63.568773|-69.226888|-3.911475|37.337613|20.807495|29.078521|15.563893|6.846070|14.653946|21.670635|3.691883|18.142674|27.295888|0.943029|0.786190|0.606667|0.520894|-12.594256|11.081991|14.212621|8.120746|-11.437050|-23.688633|-36.033841|-70.134490|-93.176864|-97.056607|-49.953157|-52.796862|-46.572754|33.297550|20.345454|14.185101|38.905916|22.388505|-9.945197|-25.830119|0.234188|-6.912096|-39.359827|-7.461653|0.359967|0.279769|0.692640|0.300345|17.629918|13.432787|-8.163167|-11.281435|-21.945391|-42.966748|-59.719333|-78.598271|-101.322122|-97.032921|-109.556897|-27.452058|47.813544|103.900506|81.468473|137.358713|66.626446|108.693808|68.006555|23.286582|4.519399|15.416140|-20.746052|-13.558119|-0.174191|0.943019|0.058062|0.519799|-1.744754|6.060879|-15.145687|-15.601182|-52.222207|-56.213470|-76.915219|-106.460283|-142.584751|-197.738461|-69.170038|-9.726487|86.619493|82.785734|65.628782|128.744515|144.080006|102.033154|33.937853|16.752185|-28.126793|10.590904|-34.599507|-25.852275|-7.477852|0.795305|0.751137|0.403253|9.386822|1.766391|-13.848068|-37.920723|-39.389736|-52.416805|-72.605120|-130.279702|-177.524595|-125.656180|-107.244199|-18.145673|-20.279841|50.709244|70.964991|57.996309|62.987561|12.537686|46.618220|4.694956|-58.861467|-25.141363|-33.722914|-51.157949|-8.027337|0.320142|1.095429|-0.287981|29.593099|-7.445614|-6.119867|-20.552585|-46.383226|-37.078955|-170.049653|-176.285783|-114.054972|-139.820213|-60.838975|-31.298697|-32.896347|31.539981|74.636572|-5.432703|-14.357042|19.690775|-20.575943|-74.800572|-58.386042|-7.211921|-40.770459|-43.671682|-7.118837|-3.879604|-1.327745|-2.927244|41.956222|-2.294870|-7.971166|-40.202716|-71.564477|-103.494024|-132.514832|-199.529862|-150.485895|-48.283363|21.484075|129.668741|193.126714|160.524048|125.446357|99.971795|14.760644|-51.001090|-46.746712|-66.629998|-49.539544|-23.273821|-26.019428|-40.897573|1.064425|-4.127840|-0.873253|-6.488514|25.977559|-5.424523|-22.973378|-70.364481|-97.613573|-125.513997|-172.301403|-48.189398|-4.717448|-2.899258|112.720831|166.896489|174.052683|191.350207|5.087611|74.743169|-12.155564|-2.429143|-48.010685|-61.014979|-88.431934|-38.951935|-20.503752|-21.802840|3.726000|-4.300760|-0.082687|-4.133100|32.283932|-18.244618|-32.530885|-71.449096|-96.148727|-98.204979|-104.995132|-55.835421|13.495900|-5.377531|98.670393|193.312793|177.195556|4.452340|-41.667229|-70.401629|11.757606|-118.575452|-63.811345|-41.230012|-51.628064|-40.373366|-28.761941|-40.459263|19.795266|-3.903328|1.195549|-7.408314|29.312693|2.485511|-23.409044|-50.498500|-67.087304|-171.580097|-47.046893|99.170179|52.067677|171.740205|74.622260|90.838077|133.755547|75.766394|-127.981961|-125.261824|-60.920454|5.328775|-67.519813|-51.824688|-18.890045|-24.895298|-27.859404|-34.985843|19.590377|-3.662768|-0.303476|-11.436502|41.343712|3.002278|-16.997587|-16.969952|-49.593824|-90.738938|-13.993547|143.975578|197.564923|171.176135|56.681819|61.736434|-39.610608|-46.983977|-111.133908|-176.617353|-64.148300|-75.097242|21.328469|-50.210253|-27.218879|14.611635|8.921609|-37.647068|10.398063|-2.513360|-1.865147|-13.084593|28.625919|-18.794338|-4.847023|-31.278513|-92.690476|-64.824984|62.875587|189.550599|168.451214|70.230633|-78.966307|16.195930|4.048980|-242.803281|-127.691016|-162.814287|-137.152663|-19.662273|8.095348|-50.066205|-1.709422|6.760319|25.450815|-22.999137|16.070106|-2.712734|-5.187402|-7.443496|18.545494|-31.219641|-0.351268|-26.264615|-39.882489|14.558499|75.642223|221.846741|255.550801|-9.884879|-16.597641|19.628103|-119.186239|-194.628580|-138.014357|-106.341687|-29.020826|-46.615951|-21.523935|-62.426426|17.265312|0.663900|50.575702|-23.769182|16.937181|-1.832861|-3.108965|-5.113997|26.849736|-11.428309|-8.660674|-28.258579|-30.161464|30.128834|121.896031|129.753450|107.537794|-4.169046|32.707760|-20.866346|-109.722212|-46.433001|-93.071222|-42.320949|1.642701|-44.636118|-0.391754|29.768362|9.450900|5.891432|9.765064|-25.663825|15.123337|-1.191401|0.764536|-2.619280|8.968508|-16.271267|-38.785864|-79.433450|-32.757135|-58.504869|25.779818|110.417912|91.031499|35.837850|-9.406451|1.221246|12.948587|-7.793829|-65.796378|-11.396735|46.489348|52.415676|62.727103|-24.884954|12.809088|25.529179|-8.181068|-25.268787|14.179525|2.816939|1.646418|0.084406|5.854366|-15.116253|-34.310060|-75.490029|-91.358130|-111.526015|59.615678|89.647880|110.130535|-4.805954|-42.900238|-78.681251|20.642477|44.258170|102.404297|7.737734|34.271626|57.770411|12.545527|-72.395134|-14.298612|25.783515|5.053043|-42.846236|-2.959923|1.529549|0.039709|-0.930209|5.760524|-14.537173|-29.191774|-69.329165|-69.734447|-128.001040|9.992334|-51.596313|-91.612097|-76.335838|-121.733671|-17.087392|101.118957|21.397768|54.717890|14.369403|123.152818|105.952736|-31.753003|-11.613290|0.816799|22.956830|16.570204|-48.511527|7.606056|1.608501|-2.014846|-2.764445|-4.083877|-28.098249|-14.517954|-62.239423|-87.661671|-48.592633|-68.671118|-53.495956|-134.216447|-147.101421|-60.882244|-74.333436|-69.261701|25.923939|41.971908|9.434134|113.759459|40.430477|-45.921599|-16.975570|5.806080|41.252619|-19.072316|-36.053952|6.066467|1.973130|-3.716750|-1.925008|-10.892505|-24.632090|-10.736289|-47.363944|-96.409026|-55.790516|-95.985896|-62.766397|-103.967975|-140.587951|-117.021888|-32.091095|-21.928838|-17.551192|21.349525|14.888721|55.948339|-44.994117|-81.944951|-19.024710|-3.198461|-15.769062|-23.841071|-46.227874|2.789619|1.998762|-3.659910|-1.391206|6.375471|-19.264858|-27.764904|-44.327967|-81.530104|-42.219152|-88.456230|9.120133|-32.897848|-27.512879|-44.918632|-22.904473|8.473574|-17.126538|30.988362|30.129364|-81.511483|-36.807142|-79.080319|-43.930137|-20.675572|-8.518333|-15.311554|-39.749056|9.499487|-0.032591|-2.034794|-2.170982|50.268638|-3.859889|-33.646425|-45.405693|-54.713691|-38.290602|-11.995110|-1.802495|7.948257|-26.337003|-17.269466|-1.761371|32.839682|44.846253|-6.024572|-88.673963|-72.205467|-98.493471|-62.771981|-54.321770|-13.667861|-11.200299|1.823526|-49.794048|7.107542|4.333827|-4.135541|-2.894247|20.506867|-9.386325|-1.354413|-1.796864|2.328285|-23.728797|-23.041297|-14.673692|43.271643|-3.757250|-35.181580|-9.375721|-91.320550|-27.153725|-65.832461|-99.894709|-122.929484|-77.331954|-62.062646|-13.810469|13.250138|6.866681|34.837744|-17.334983|4.771724|4.822382|0.647758|-3.681775|3.979214|28.352870|34.402209|22.141961|26.016218|4.358773|-3.452473|-9.935114|-55.067372|-15.527947|9.613288|-11.010968|-44.274030|-54.206359|-84.316509|-67.660543|-53.223945|-41.236026|-46.788619|33.577301|28.912461|39.005386|40.644542|9.149069|4.008333|0.322078|-2.955723|-2.178375|-14.377800|11.748279|40.660233|48.870381|27.867424|12.514417|2.323074|-22.217259|-17.474313|-10.680505|-20.324474|-26.093214|-47.184736|-11.225387|-33.879359|1.273457|-33.340277|-12.545140|-16.350038|35.119647|40.306087|55.621677|56.636273|-30.280488|3.972318|0.307370|-2.371154|-2.348061|-2.736876|0.452727|-3.189338|-4.988480|-19.357656|-33.421752|-59.575877|-42.661119|-57.548185|-47.847103|-59.479718|-78.101386|-62.839764|-45.294097|-47.163504|-58.893327|-78.489611|-61.691505|-34.921898|-18.952369|-10.292127|-0.914244|1.682066|0.954330|0.654867|0.617732|-2.208225|-1.517124|-1.189515|-3.107023|-3.469444|-3.977049|-22.426852|-29.791726|-74.871976|-71.508657|-62.240628|-65.357570|-71.585147|-69.100968|-71.224262|-63.797614|-68.446846|-60.575376|-77.224874|-42.058586|-35.735438|-17.813653|-9.286689|-3.125077|1.055509|1.676955|-0.029927|0.349875|
~
