2|210
#
~
0.080782|0.402061|0.032036|0.362447|0.869030|2.519778|9.853148|-1.529230|-4.973158|-7.258328|-3.449968|-5.864153|-12.150927|-12.352511|-0.132884|4.762962|4.146862|1.958231|-1.167434|6.883825|12.873688|11.640727|-4.335675|4.801907|2.401745|4.309842|0.451168|0.927013|0.805264|0.371220|0.188975|-0.156333|0.345517|6.875544|-3.716729|-4.234540|-3.252926|1.435376|5.195778|4.621831|3.099668|22.553376|26.310265|28.136783|15.095005|7.200187|12.083487|15.995742|23.040453|6.146393|-7.487885|7.916773|3.545978|5.584742|0.356500|0.491924|0.995903|0.807667|-54.053713|-36.028474|-23.474413|-51.845431|-36.078138|-50.112812|-59.486340|-36.902639|-30.687289|-11.604919|23.836049|11.667349|6.999365|-17.877520|-36.682611|-41.243450|-17.729271|-4.241237|-27.546950|-55.832610|-67.160663|-56.121881|-93.931838|-37.023654|0.117640|0.420199|0.467885|0.474139|-99.036714|-65.816456|-43.359769|-68.859354|-70.660212|-88.269767|-54.753491|-20.363181|8.712802|22.542751|13.979303|-16.135541|-19.179101|-0.688685|23.266077|-4.670801|6.000174|-36.030830|-22.038551|-70.283117|-58.340222|-87.830862|-94.321562|-71.177130|0.887566|0.062586|-0.014866|-0.785358|-111.126855|-74.866722|-32.591164|-44.718265|-70.361740|-53.279729|-10.408970|30.205868|32.990599|-0.132668|-23.138155|39.988474|38.451813|40.371501|37.233540|32.826367|18.769794|19.736734|-1.684914|-6.984230|-15.657362|-50.459869|-69.719105|-57.581182|0.930987|0.956991|0.376980|1.043829|-68.940661|-40.263711|-46.913798|-85.601638|-76.438722|-1.272164|-22.949261|-6.135487|-6.157821|10.640530|-46.062874|-81.052356|38.613572|-8.289869|84.647401|80.746456|51.338776|20.187717|29.373616|20.737624|-22.421052|-50.525401|-52.010528|-56.863110|-4.034600|0.341363|1.617857|-0.345525|-87.454625|-48.885207|-39.544399|-74.565179|-27.892756|-2.593464|31.883083|18.579059|-20.357617|59.055353|-27.075308|52.316891|9.881325|-13.444454|-44.197790|-36.749800|-36.969902|-46.468128|-33.116912|2.789020|-36.863906|-34.859720|-38.726973|5.300813|-1.223966|-1.914665|1.544195|-7.385086|-64.451824|-64.183154|-17.411228|-20.395222|-20.902991|64.086970|36.056816|-1.234608|48.520525|17.193617|-29.573523|22.507800|6.263465|1.257624|-16.987385|-22.852748|-22.315706|-22.771431|-0.395535|15.936511|24.225963|47.659908|-48.003869|12.188948|0.056567|-0.797392|-1.611078|-19.342081|-64.042338|-57.146328|-12.282620|-35.646511|-15.064301|71.186094|2.344193|35.340457|-2.493647|19.809472|-13.485754|35.539735|14.688992|-58.826530|9.050648|-4.961172|-92.036044|-42.452074|22.651649|-5.090455|6.426126|20.706205|-9.865563|14.203400|4.010556|-0.131561|-10.308717|-14.378847|-67.807181|-59.032041|-13.964240|-56.911768|-31.210375|53.281086|93.031109|42.025654|51.660320|60.631276|37.290851|4.843596|68.580635|-5.486721|18.575109|90.382213|21.581159|-14.867500|-38.972492|-91.368030|-32.911899|25.790991|-2.535863|0.971382|6.054286|2.186521|-2.995593|-4.169955|-79.020094|-46.723375|-45.598051|-35.196992|-26.947197|65.747942|-4.059835|3.336295|18.920769|23.630278|-9.412511|-57.891128|-13.033163|33.227773|82.428172|11.055837|-17.402266|24.854865|-24.562642|-87.983765|-16.628248|12.190952|-45.559081|-31.981561|-5.131694|-11.633265|0.353091|-4.026815|-49.900409|-32.517558|-58.905426|-27.909972|13.013877|37.847298|60.520981|6.939916|-27.500282|-18.276247|-2.283374|-31.290051|69.481828|87.033271|6.589443|-27.548739|-65.501862|-9.829555|-33.111356|-63.905767|18.764984|46.404201|-2.115093|-11.406572|-10.031962|-12.012970|-3.532495|-3.404717|-42.162536|-51.594857|-43.906708|32.838790|101.599563|113.107652|52.618957|-36.487061|-20.982723|-90.573006|-98.779936|-20.244168|-63.610871|46.666633|33.973830|50.285326|-19.726380|15.059117|13.041437|-4.595384|39.808848|39.722718|-2.018690|10.110291|11.482315|-16.098267|-0.811864|4.810150|-26.702183|-39.700555|-46.085159|5.355128|93.254232|87.831179|-19.717857|29.337353|-46.514703|-63.425872|-145.066511|-143.310432|-124.897918|-37.033845|-60.830738|4.548928|-148.152784|-15.915914|-20.057253|-25.717217|-64.288239|72.394118|-34.787428|-0.070727|-5.673138|-7.878860|7.656524|6.224500|-16.926737|-51.289334|-24.426631|-73.600861|-1.204529|-23.179447|-30.057356|-11.498943|1.437662|-139.811616|-183.258469|-101.364613|-59.760855|-18.381768|3.805934|94.495638|-40.756312|-45.442770|15.023838|-34.862274|38.754229|74.358677|2.306579|20.788943|0.899210|-7.909762|9.629355|-3.950252|-43.934140|-15.308139|-13.507957|-33.411942|13.250085|46.860599|-7.911367|43.330946|-16.433348|-69.508444|-84.269022|4.683991|160.539829|40.443335|-90.497806|-108.660053|-39.045083|-42.221063|-9.210232|35.306542|59.533678|21.818658|26.326287|-17.598042|1.991872|-2.097420|11.947590|-10.038309|-7.384488|7.207266|5.893068|-15.403244|-5.803603|27.757581|17.693570|-8.600375|-0.466828|-179.436591|43.998818|93.571614|170.090859|51.903488|-62.025489|-97.146206|27.992886|-15.656796|-0.606004|21.858002|51.543549|-28.471240|-25.100575|-16.715191|3.057135|5.741301|-8.193675|4.098038|-19.641742|19.181291|-3.322797|1.598811|7.803342|-1.730089|84.073201|42.191843|31.470704|14.634852|78.608524|117.898735|119.424455|16.019379|46.890505|37.586482|17.817841|-34.276294|19.425033|-39.991993|25.870595|-65.833327|38.760977|34.886955|21.179593|5.007372|-0.396651|-3.183561|-47.876052|40.727971|4.436816|-10.317986|-39.678207|2.392208|-13.618131|17.525379|16.404152|49.238283|-14.665965|107.103728|158.144939|97.907834|110.765815|17.977549|104.629573|20.018141|-16.518493|-0.315960|-62.220051|16.003776|35.539011|-8.763537|20.528098|3.362070|2.168565|12.276846|-27.907706|51.047822|41.729601|11.867342|14.886936|31.150666|-3.952888|12.952351|69.152245|59.141050|138.750120|109.264403|203.798062|92.136609|92.262039|104.243770|-21.561872|-57.204341|38.433168|22.884978|-54.469349|51.049513|-47.311360|30.917081|-9.633551|-7.454694|-14.100779|9.314713|-18.594651|25.105485|71.968405|-16.221801|14.120118|49.136419|85.268379|17.703851|64.941469|62.203650|64.595027|45.792785|75.873058|18.304203|145.025877|84.133783|1.130229|-53.820201|-3.839843|-2.883925|-13.549995|58.128943|-10.662670|20.604771|9.999240|-7.961739|-2.736136|18.794210|-8.752371|41.033931|71.800907|10.659875|-23.641849|43.650310|61.812637|124.179030|44.522342|-23.043354|-11.363407|-42.865060|-48.036809|-52.127158|-5.926567|-24.036452|60.346381|-38.978959|13.507128|58.048242|54.569851|62.131085|-4.709966|31.461623|42.226230|3.016423|-2.897765|12.897221|-55.985640|23.144186|30.849433|-8.095989|-40.680464|22.137851|0.473829|10.958947|25.978871|-20.034088|-110.133787|-84.681548|55.069101|-11.153803|-31.782160|-30.204598|30.048727|25.715561|104.265495|55.753019|104.684649|37.091144|17.440038|-8.729940|30.084177|2.386878|4.280933|8.937946|-60.324382|-11.733139|-5.578901|44.337367|42.487804|56.431685|8.137666|-23.606237|-30.595183|-48.940522|-27.249859|-72.350774|-110.118588|-21.282413|-29.343682|-47.416835|-5.387870|1.036687|40.673902|59.323345|69.882000|20.642960|15.953237|-45.863553|7.340028|-8.487102|4.198636|17.230202|-11.841680|14.478514|31.651242|66.536261|39.450484|4.058577|-1.542595|-13.630527|-5.254691|-75.939104|-100.868960|44.722590|66.875670|60.949553|-8.078517|31.646525|-30.165041|-26.819323|13.394914|27.161439|11.144131|66.778544|-15.752359|-25.008003|-9.555116|-10.130023|-3.277311|18.000284|-40.288137|-29.746958|30.650397|-1.095790|0.084364|30.414262|-33.768055|-25.443438|-96.932500|-0.489978|-11.657314|3.284915|-51.281890|-7.309625|-20.605372|2.058810|-24.202399|-59.433747|5.562460|-22.409607|10.878085|39.986296|-1.837472|-3.339337|-20.771527|-1.099931|-3.232807|8.320903|20.382320|25.321171|15.009752|-22.422048|5.214192|-60.589795|-27.510981|-39.791292|-21.851004|-31.907897|-11.840390|20.097018|-67.771134|-101.628391|-68.933144|-22.991624|-34.550496|-47.110986|-50.013048|29.795886|46.971311|43.865283|6.665482|-3.088344|-21.769779|0.927378|-3.230601|10.667014|18.574998|7.478498|3.689827|-28.527141|-31.072662|-28.067915|-32.453401|0.440623|-4.150896|-1.203376|-19.890437|43.547352|-57.409399|-116.880567|-133.775023|-75.609729|-127.062743|-83.422379|-24.908891|17.699136|-12.358343|-15.906360|-30.032898|-15.681536|-13.224940|-13.271906|
~
0.879769|0.881751|0.301815|0.385191|0.408978|-5.558298|-7.186212|-11.562612|-8.390855|-13.540178|-14.332417|-6.488886|-2.872659|-14.321569|-12.758307|-9.301925|-8.859254|-8.659244|1.060369|-2.127623|-1.450579|-1.737052|-1.460863|-2.061895|-1.270425|-0.745523|0.967874|0.163481|0.256014|0.329767|0.544536|0.267869|0.116863|-6.112700|-11.465686|-13.246578|-10.676844|-23.538879|-12.541272|-12.561543|-2.314080|-28.778361|-17.133841|-17.894649|-8.959239|-5.084123|1.692277|-3.757570|-2.729407|-3.586646|0.679068|-1.329909|-0.517979|-1.579273|0.906716|0.178549|0.913192|0.874589|256.723593|27.094524|13.311960|40.174845|11.547557|-11.295352|4.691225|-6.715864|29.950599|-15.825663|0.614006|-8.354534|-3.490538|29.439990|24.293268|63.221587|52.739183|36.657982|78.865738|67.169266|49.590079|6.419680|46.389646|220.399141|0.068388|0.160998|0.254906|0.975103|70.430624|-11.304307|-25.480607|-25.739954|-33.078087|-51.336658|-35.387979|-31.645439|-9.613594|-18.901940|-29.726002|-26.530840|-5.536527|-28.754169|-31.543003|10.833901|15.326744|26.103533|40.420965|34.201983|6.294756|3.661098|39.138348|55.816641|0.271759|0.965361|0.415238|0.352813|13.722502|-11.866350|-24.310969|-43.501870|-60.773301|-54.741981|-41.593459|-28.133110|-8.158777|-90.620739|-100.527240|-61.105614|-65.857866|-35.931869|-11.445393|25.251998|29.157181|36.290434|4.504770|-3.111590|-25.647325|-31.992748|-0.448773|12.389778|-0.055921|0.165053|0.120649|0.186947|4.281887|5.268942|6.085272|-27.283916|-63.749191|-65.374154|-24.622356|7.651797|-28.519941|-20.236626|-61.016276|-123.004336|-74.342794|-39.562654|-5.679040|54.659850|39.023504|39.152484|9.637318|-0.239237|-22.661250|-17.374110|-15.544973|37.760276|0.849588|0.582346|0.759753|0.861743|32.902847|-11.508893|-40.233529|-80.122196|-87.413030|-80.365677|-29.132026|-15.292332|-13.081086|-6.195971|27.419215|-56.538528|-70.908337|-69.728643|8.449291|57.513111|57.122642|32.756519|12.934785|-3.346808|-21.549608|-11.341529|-8.000484|9.588940|0.231569|1.153168|0.012294|-0.418765|38.117283|-2.588265|-54.529012|-62.392880|-49.173085|-25.794250|-11.761513|31.064193|-54.038713|-11.253239|9.148689|-39.560134|61.051309|-31.222996|76.010765|110.753773|63.023856|5.909961|-15.192147|-7.145515|-27.301198|-13.231843|30.617709|19.204358|0.403799|0.170686|0.933827|-0.059028|15.884422|1.572759|-5.083513|-11.078196|-43.712264|-51.236732|-22.966721|-42.510890|26.341578|54.332349|65.697375|-25.903324|43.552423|-47.349185|78.655856|50.806400|69.420292|12.602554|-10.110447|-14.445059|-26.111336|-14.316322|8.038534|53.529576|0.326140|0.384685|0.907605|0.076509|19.703539|8.402571|-17.564080|-39.469872|-26.109857|-47.724638|-124.053885|-7.886442|-21.242281|113.255882|85.653989|-97.993059|81.387436|-61.558584|3.143504|36.971935|20.224009|-40.907290|-19.556857|-17.273968|-19.446648|-11.764460|9.068262|9.857642|0.919834|0.301404|0.785559|0.158247|48.317732|-7.290382|-8.264249|-61.017617|-28.763139|-118.495642|-80.525943|-48.221884|35.307231|149.245784|156.137624|-16.781568|92.564885|32.780701|-18.444281|-29.114703|7.864874|-35.805163|-20.641676|-26.079514|-21.714943|-20.639776|8.509461|38.403426|0.383018|0.718841|0.393126|3.024800|-1.010062|-9.202857|-49.442551|-37.334131|0.469635|0.910980|-129.315352|-12.201694|82.852118|79.594433|95.556551|99.508374|108.454228|13.145111|-27.225894|-57.396008|-77.607378|-70.229728|-58.466225|-28.030505|-23.327909|-22.583450|8.195800|11.666141|-0.750436|1.096612|0.221868|-7.777184|35.348722|-34.213225|-34.653498|-32.800450|-86.172000|-15.592708|-68.296494|-35.759858|-70.830106|-45.213854|-35.508162|-66.696826|56.254444|-17.395571|-115.195746|-127.230876|-93.901497|-84.343251|-52.889915|-36.486356|-30.506406|-26.165737|11.628053|23.300026|-1.494890|0.716950|-1.202271|-11.663801|20.156537|-51.404881|-59.147905|-14.193390|-52.767782|-83.586710|-98.012786|-235.731202|-90.196637|40.922864|12.960886|-15.709013|-45.572797|-101.940465|-151.978469|-194.075228|-121.190383|-109.482833|-54.258766|-34.015865|-33.713258|-21.088428|6.165285|9.762510|-1.682317|-0.503599|-12.172090|-32.229269|-22.865911|-47.486305|-72.905419|5.120096|-77.942258|-102.012111|-117.210857|-227.501068|-142.348771|173.645002|22.524989|-22.096819|-165.900603|-169.176380|-262.817997|-219.703086|-161.965555|-110.031014|-69.839847|-37.754214|-31.051812|-25.836914|12.822898|-5.222152|-2.359624|0.078459|-10.075855|-32.022659|-28.062060|-102.366269|-70.922540|-31.186920|6.380047|-87.632084|-106.215298|-104.076473|33.231920|-7.445002|43.934381|-19.433460|-86.793078|-166.652525|-209.426543|-177.266585|-138.753166|-111.881427|-51.743060|-32.210402|-36.747421|-35.168932|6.717202|-11.383575|-4.025084|0.097245|-6.535638|-33.507239|-55.838487|-89.504901|-97.568506|-55.226676|-59.837087|-75.897973|-117.164095|-114.278920|-67.393952|-8.999621|186.490042|55.329857|-62.536243|-183.780811|-227.629108|-165.490002|-126.508458|-104.507623|-57.079964|-33.007825|-15.886957|-32.945702|28.173641|16.867260|-4.069234|-0.179967|-5.734557|-32.468889|-50.125413|-89.209105|-53.641494|-17.450970|-63.003303|-82.534627|-137.120303|-149.235928|-80.495690|122.264985|321.076895|21.054258|-57.886776|-140.946825|-197.882417|-194.249364|-149.664699|-89.450371|-61.301702|-35.922216|-18.007355|-29.139618|-13.363820|1.688841|-3.865437|-0.589623|-6.424057|-44.149798|-23.349916|-42.973820|-35.096058|24.405274|-46.292586|-77.479527|-148.030191|-46.120049|63.931623|261.505717|276.447201|124.353483|-24.585165|-64.664005|-120.984271|-157.137598|-127.392673|-108.739575|-83.584974|-57.823996|-38.526550|-32.274079|-17.356935|20.611700|-3.306808|-1.434014|-7.189655|-42.708068|-1.137488|-22.085519|-26.483684|34.214123|-30.386268|-117.123828|-182.161617|-37.780189|10.227822|158.452150|247.038849|191.971015|47.163454|-59.240515|-132.477785|-91.540231|-103.499100|-95.241782|-77.697181|-63.556930|-33.101247|-27.228376|-5.872008|-7.014472|-2.429653|0.468646|-1.273160|-21.549953|-38.903470|-52.904309|-18.524607|61.536385|-10.023829|-129.843786|-180.783154|-19.607626|-57.188556|85.395807|145.615930|135.190321|3.978022|-104.576142|-163.574602|-128.579960|-100.343062|-85.764246|-64.292185|-47.369632|-25.921870|-16.505848|-2.290200|25.949317|-1.501625|0.606220|-1.669905|-17.537412|-17.369069|-52.597779|-46.942140|-36.237411|-58.302469|-52.359885|-136.951123|-151.178708|76.424683|97.312594|279.955843|143.610468|-6.953554|-124.525435|-99.583727|-80.251733|-63.067980|-68.402463|-48.260972|-29.998902|-14.027991|-1.713701|-9.506735|1.462985|-1.695502|0.379959|-1.479349|-17.072946|9.660925|-36.570843|-18.180074|-29.029301|-25.060470|-85.923315|-97.055223|-120.499254|41.700967|57.639678|202.939497|126.715061|6.676265|-50.321543|-21.366506|-7.069056|-28.166988|-52.797276|-25.119073|-2.821125|-5.871598|19.743958|-7.631120|3.405382|-0.848042|-0.919228|-1.310936|-6.321812|42.937935|11.122137|-14.544405|-37.080866|-49.244586|-97.265950|-50.388106|-50.761952|52.588576|136.009615|200.589229|104.954511|29.701770|-26.462638|-21.916874|13.588590|-29.987944|-34.643464|0.288736|-0.728752|16.180849|13.781386|27.197713|45.623389|-0.488557|-0.313011|0.126224|-25.472056|38.888111|6.981135|-11.293346|26.538470|32.325967|-17.353849|-66.944902|45.460212|114.746341|158.003415|98.756186|-5.139552|-57.076207|-44.517360|42.168727|36.646669|-3.389273|20.536518|15.709328|34.896236|47.631070|26.662202|39.941639|100.042106|-0.126370|0.640948|-2.861871|-19.787017|223.695420|15.762114|-43.925155|-42.091736|-53.951951|-83.709729|-71.969964|-47.508525|30.237708|60.950756|31.802452|-30.578269|-139.002021|-12.550002|2.950342|7.890754|-4.841005|18.499039|32.009327|70.858578|-7.586289|4.465162|25.944557|190.365827|-2.804595|1.057735|-3.361450|-19.120862|-27.326645|-34.936743|-15.064110|7.947151|-40.949132|-84.293378|-104.970048|-84.794891|-2.200039|-36.074283|-20.824442|-115.972133|-47.738413|0.743745|3.666197|-18.349411|-21.336554|-3.212264|-6.853557|-2.347237|-0.441277|0.519544|-1.895396|-2.023412|-2.155181|0.075253|-3.409203|-19.815561|-40.429444|-17.307492|-14.063828|-9.774436|-12.456855|-62.624795|-109.200874|-110.510675|-27.058061|19.113063|2.201766|-54.975051|-13.489677|-15.498985|20.737396|5.553129|-15.488970|4.335696|-2.184395|-1.251973|1.000109|0.819409|-1.986227|-2.294362|-1.861408|1.382732|
~
0.797104|0.802240|0.947446|0.132102|0.037943|-0.011930|0.658759|-4.906046|-4.456763|-9.483976|-7.870500|-5.409297|-13.305498|-10.424687|-9.944964|-8.139130|-10.998588|-10.582191|-6.764178|-3.186326|-2.346786|-2.185319|-0.305515|-0.315639|-0.098788|0.761481|0.696126|0.721265|0.024850|0.134139|0.594457|0.802432|-1.887506|-2.224967|-6.519840|-8.216078|-8.773389|-8.396785|-7.075682|-23.949467|-18.009058|-19.813083|-15.556864|-15.026911|-14.700059|-12.634958|-13.170970|-8.666692|-4.570645|-4.964004|0.549492|-0.020046|0.559795|0.840644|0.883191|0.925185|0.900082|0.579318|79.976612|79.889931|19.899218|-8.707009|-3.455776|-7.090963|-9.432532|-26.265391|-35.615464|-37.875061|-39.069715|-52.149031|-41.814996|-65.624728|-33.614249|-28.709334|-12.352889|-8.377005|-16.937503|-8.626839|-9.728823|6.363540|-2.914689|-1.274760|0.539027|0.821793|0.933778|0.422218|35.291178|24.703771|-18.859683|-39.875318|-41.387728|-52.922021|-55.675382|-51.050227|-74.640114|-73.376733|-77.646519|-81.563111|-97.526337|-63.900616|-65.810121|-66.859060|-51.028645|-27.809620|-27.075831|-22.521786|-23.840046|-25.175726|-29.705452|-4.486445|0.601130|0.259477|0.685280|0.108035|18.153616|10.617849|-7.955464|-20.847001|-34.799869|-39.433769|-27.426461|-36.625462|-52.919565|-64.269827|-72.957471|-101.110622|-104.797193|-59.945421|-120.577837|-102.787419|-64.494797|-34.681235|-36.433735|-6.883929|-7.121886|-11.846592|-10.377847|-7.733196|-1.421048|0.891821|0.805985|-2.940541|18.762296|4.073729|-39.979459|-54.857964|-30.684019|-0.596614|-2.597663|-23.898333|-9.951126|-61.235004|-103.069569|-117.681463|-46.423635|-36.155040|-46.389233|-57.300292|-28.748313|-58.545551|-76.749460|-26.613045|-16.932092|-18.851690|-0.946494|-5.695482|-2.041994|0.346404|-3.168454|-9.460090|7.742166|0.341613|-15.398067|-15.924030|18.962060|-14.391834|-22.887161|-40.666206|-54.709493|-60.463742|-51.196951|-2.463170|-5.946600|46.952711|25.438359|-0.187031|-15.744160|16.310097|-7.875025|-35.909929|-45.186033|-24.483661|-4.598047|7.628325|-1.895370|1.090689|-4.863776|-5.285982|18.614771|11.202669|5.799031|2.929324|-1.659476|-13.324013|-70.941789|-78.989229|-47.655287|-81.145853|56.286351|43.785481|69.478630|62.047711|69.668770|17.324691|23.212263|18.301750|14.513954|-33.330280|-39.173081|-6.507936|-8.812019|9.310590|-1.317613|0.724973|-8.069823|-13.418517|14.268003|-5.481096|-1.572661|16.283585|-35.223742|-58.962893|-119.424989|-105.986207|-67.077426|-14.966020|38.979666|37.664028|52.209999|-60.053778|-54.102625|14.808261|-34.633424|82.202994|22.489671|29.347266|-55.932327|-40.168733|-27.447439|-7.877894|4.865728|0.151985|-2.120942|-3.545842|16.835139|11.441117|-1.298630|24.264782|-30.715171|-62.331452|-103.095834|-97.020091|3.458438|94.498778|108.509718|94.212432|40.051213|-115.339759|-85.217175|4.229427|-21.232168|22.941507|96.114701|36.362633|-25.811302|-3.768976|-3.556339|9.121780|5.907544|0.358052|-11.879473|-17.418734|9.505782|29.339199|5.257959|19.205551|-84.218727|-29.919258|-112.593314|-95.597563|30.957508|51.275126|88.426683|-49.240429|-54.464257|-122.907760|-70.079642|19.525331|86.967821|50.400835|92.518338|18.359471|1.858034|6.345692|1.659077|7.672414|5.467879|0.655003|0.965019|-25.612403|28.409447|60.039346|9.959865|-38.995949|-94.203938|-0.902475|-15.691193|-10.030744|81.279533|84.912440|138.092313|-68.142404|-104.575966|-111.711288|-116.446916|81.524554|155.169551|112.764102|73.652039|-34.828911|-12.043566|15.586780|4.821461|25.376503|4.938411|0.583049|-6.999592|-23.900685|39.157328|46.098973|7.802591|25.409339|12.909116|52.142678|44.315521|-85.133213|70.780600|72.686725|114.805317|23.930115|-132.205119|-118.427975|2.950338|136.841079|151.941208|38.532251|-18.016639|-35.311535|-16.974292|-4.262377|3.133061|20.025537|0.308657|-0.039238|-8.432616|-5.197333|22.856142|65.110512|14.696915|38.170303|35.259963|47.371741|6.962556|-59.048808|-87.902682|-52.691733|-12.512384|44.616559|-68.983676|-64.293202|25.623300|119.406454|87.631407|-19.553107|-12.321707|-36.060454|-59.293137|6.293351|-1.190368|-3.852384|2.650157|-0.215221|7.611810|4.315552|9.441484|25.975978|58.844197|30.649024|32.649421|-16.543726|-41.513235|-160.285512|-159.318665|-195.799197|-42.783175|77.778957|122.623428|-80.907863|49.495247|100.332258|-51.471216|-84.505071|-24.344691|-39.576004|-53.278275|-29.915906|-31.124509|-2.488729|1.408284|-0.045144|15.003717|12.641776|0.678815|65.308291|40.526292|-4.797587|19.345769|10.501210|-100.625412|-118.217986|-127.193177|-105.164196|8.428245|104.516563|145.415108|74.921985|-78.181533|-64.727956|64.047531|-78.627505|-48.390563|-20.162615|-5.626586|-42.754606|-11.423630|-2.459783|0.419723|4.288156|0.673370|0.301167|37.179007|67.458279|43.859358|12.682951|-8.822712|-8.660579|6.348310|-61.443840|-106.664147|-21.582467|130.465203|96.946506|99.325070|-58.542122|-71.388644|7.740230|40.430129|-8.198665|-31.431145|-1.715002|0.765025|-45.451309|-23.068805|-18.357817|1.482014|2.524088|-5.496600|28.230348|35.752922|62.543495|-29.452469|-2.893037|11.160261|20.032133|36.818049|-56.974443|-54.079890|14.927550|88.826751|153.445891|-32.680960|-123.271255|-61.684304|72.410286|65.593282|-2.057869|39.104501|-7.552591|-13.153664|-73.961320|-15.883382|7.806744|1.489459|-2.350993|-6.566445|-0.629267|15.904912|65.554792|-36.260859|-58.632891|-48.787783|-18.051663|-36.120373|-70.140056|-18.786364|-24.445171|4.617888|87.392329|-55.321275|-109.945136|-102.174746|48.417393|9.491399|13.121803|18.627154|-26.924338|-56.512237|-64.865994|-2.752570|0.561077|3.460008|-1.816105|0.739798|33.332902|51.584202|83.483396|45.841766|1.845562|39.036385|66.475695|24.449736|52.082193|34.645693|-37.513144|108.926475|149.345783|13.401523|-55.505041|-28.008725|21.287481|-84.083750|-1.067921|7.554611|-26.737376|-73.388348|-49.053673|0.646152|7.898009|-1.553781|-0.121605|3.234376|14.162665|38.852464|87.871218|78.953581|20.644537|60.422359|100.092770|107.745857|-83.436141|-79.189441|-45.837681|106.471738|169.381230|38.626730|12.026316|17.463889|20.985668|-95.062538|-61.502084|2.677561|-52.371429|-55.000099|-14.489464|-1.777152|1.233990|1.657911|0.113701|4.156708|-4.884436|19.822721|54.850985|113.747252|105.211416|52.170164|93.596375|123.889221|-59.449720|-6.193455|-29.126874|25.313819|81.615557|74.069284|-35.278802|-30.908549|-46.615382|-61.035866|-18.564631|-44.052295|-46.528019|-42.700382|-10.089178|2.365497|16.471337|3.032885|0.266697|-24.222325|-16.423654|22.904218|12.671229|25.093634|44.422345|54.756481|111.055375|90.571804|-19.157679|-34.674188|-60.881397|-98.471429|-18.366692|135.108138|-16.330547|-42.225149|-82.302364|-25.998673|32.055110|-0.728905|-32.005262|-5.300130|-3.568378|2.655744|2.816098|4.183589|0.325457|9.277936|-18.175516|1.561880|30.620223|29.330160|31.163449|86.991617|131.326420|-8.840132|-107.170267|-100.436832|-130.150245|-1.628900|-13.590576|-47.664550|-40.927252|-26.973042|-127.711663|-13.722610|-5.308167|-14.088328|-41.060655|-15.551732|7.602150|1.440271|4.500590|2.796124|0.267775|-23.656420|1.922216|38.518818|46.100549|24.875658|34.670798|42.123174|81.914377|37.116405|-93.251004|-88.722884|-83.759359|-81.733147|-41.082252|-8.435414|-71.549220|-116.123282|-79.453164|-73.209387|-30.866756|-51.893842|-77.980173|-39.548984|4.674631|-0.075494|-1.241048|0.122498|0.759100|1.246286|0.741505|0.359435|13.204102|37.608025|36.273125|33.363479|69.362109|43.273547|15.409830|-48.998778|4.537024|22.651695|11.697253|-11.927486|-56.921874|-52.737597|-40.744785|-37.342172|-41.273042|-54.804833|-71.123623|-15.680830|6.611375|11.877778|33.189284|0.590000|0.077813|4.959733|-1.172533|4.639752|10.063850|3.339278|-8.818204|-20.026368|15.615431|8.090476|-4.413225|-8.584817|43.793308|22.482586|31.030455|-38.957499|-37.217435|-49.496244|-50.587974|-53.643280|-43.302732|-43.933088|-33.795295|-11.908402|3.499749|3.704210|2.633003|-0.112791|0.895638|5.163392|2.252882|-1.971040|-12.463950|14.934333|-7.887852|-29.236147|-23.573504|-23.430571|-19.260674|7.420855|32.800812|32.044296|9.927716|-13.548405|-43.113847|-49.521224|-51.893520|-32.536037|-28.102309|-32.853652|-17.050271|-14.843416|2.841015|2.106511|2.176505|-0.098723|0.115336|
~
0.920514|0.070707|0.115797|0.722154|0.824810|-9.886766|-10.789364|-11.384837|-14.100543|-1.015156|-0.869064|6.783769|-20.818369|-18.832402|-17.716053|-2.759637|-9.438961|-12.324619|-10.806238|-8.412303|-6.281744|-7.409526|-14.116068|-14.336253|-9.175226|-9.878669|0.862557|0.912266|0.329386|0.873755|0.163353|0.398244|-0.033051|-10.692791|-18.972613|-16.798743|-19.162464|-1.357285|-8.230024|-0.801520|-28.654594|-33.775819|2.701965|-12.496803|-2.560695|-4.168992|-14.473108|-15.750769|-5.643778|-12.361270|-9.068463|-14.324493|-9.970711|-9.297969|0.525670|0.020325|0.861820|0.388227|2.664118|-2.821503|-3.875686|-12.734473|-14.066042|-13.212557|-11.424563|-17.826994|-30.279989|-48.823181|-46.437735|-21.949875|-9.522019|-10.594421|-5.186876|19.052286|3.557878|-19.910564|-8.822911|-22.071305|-31.616836|-23.412038|2.053156|13.341065|0.346977|0.668146|0.692742|0.872647|-16.369654|-14.285675|-26.678588|-34.981606|-34.103375|-50.119149|-48.017354|-35.604909|-58.745732|-71.305632|-5.713923|-41.077375|-30.285115|-21.671148|-21.555597|-28.687787|9.339169|-9.706097|-12.184504|-28.647313|-21.875033|-18.130416|4.837941|-15.068228|0.235640|0.997710|0.584603|0.557631|-12.239571|-17.427434|-30.020163|-32.152005|-41.281152|-14.173426|5.437309|-43.937582|-23.063610|27.264790|-26.251474|-0.919747|0.839178|61.875779|43.259927|23.722494|-0.447098|16.454302|-23.677115|-27.656041|-34.857717|-29.577582|-22.529170|-6.108316|0.166514|0.303279|0.779729|-6.403721|-23.244620|-32.668986|-43.307326|-51.308009|-42.946630|-13.427147|-41.223274|-49.893288|30.790795|10.629499|-17.115618|49.039721|36.202458|65.891384|86.108624|41.911563|19.146679|-9.226949|-32.894485|-35.166770|-35.642854|-34.189787|-17.532453|-10.644675|0.557546|0.636544|-6.331716|-20.234812|-36.303967|-46.668097|-42.324173|-29.602753|-44.693160|-48.428415|-58.085343|-29.271876|16.497169|-19.572857|0.485338|-4.828062|11.815602|60.128967|108.237320|130.931999|73.031337|39.221899|1.849709|-6.737854|-10.242649|-6.252686|-13.528103|4.134075|10.176187|14.078635|-7.700042|-7.834314|-17.913213|-20.099756|-20.300875|-33.312622|5.870560|-19.932581|-49.083001|-30.311686|-9.526553|-16.321093|5.493777|39.472978|93.219409|62.319022|130.217056|75.845300|66.815643|22.680974|25.192918|6.212658|6.797669|-11.380985|-1.829156|10.682222|9.792664|9.917480|-6.561034|-21.013546|-12.676416|-13.756217|-4.502728|-10.670730|-5.059467|-59.557058|-64.989741|-23.331439|17.051857|24.077496|27.186499|34.032357|136.543513|46.187540|81.240943|65.212996|73.884393|41.910333|31.927883|20.387952|38.792937|13.184964|9.871919|10.699172|10.542135|9.857977|-1.272206|-7.320618|-14.493818|-0.292813|1.631707|-13.180526|-28.528598|-54.775218|-104.463744|-20.204131|-40.152975|-33.241101|-7.551312|-10.632553|54.855649|38.846182|62.693909|34.922536|28.674207|-19.437174|-15.252806|8.253480|18.049824|-5.100603|3.497898|20.111362|11.761046|2.514526|-0.713575|-11.813762|-13.720532|-14.059749|1.996421|-10.769157|-41.946234|-41.887273|-34.343025|-51.016754|-62.731229|-83.675175|-75.640244|-45.561599|3.842794|26.073870|1.558654|47.834598|16.187034|-40.387825|-49.552598|-25.183442|-14.208291|-16.083321|5.034596|15.725902|1.911644|3.257200|0.460446|-14.863652|-12.937928|0.776724|-18.354400|-25.633320|-15.196441|-45.999295|23.735673|-100.745774|-60.377680|-7.842143|51.349319|82.331596|49.431927|34.352203|-23.314745|-29.096437|-100.353173|-94.350828|-58.489915|-43.607615|-20.390883|-10.099783|14.785261|5.670149|-5.331389|3.648644|-8.112041|-15.143628|6.457372|7.886934|-1.467177|-2.960039|38.713355|-10.175166|-40.800792|-46.187800|-24.918534|87.337947|98.145869|120.448136|31.196049|-17.247604|-88.230099|-76.564310|-180.343273|-94.510793|-68.934835|-55.692599|-31.297460|-16.717994|8.153923|-9.339581|-6.479688|0.722959|-8.863866|-6.426364|-0.646931|-9.360751|4.124107|11.939784|3.560406|-100.972700|-103.055611|-95.766101|72.285221|133.965867|155.979471|86.804798|-2.808376|-64.926413|-96.823245|-183.629962|-181.083541|-133.732083|-66.193293|-57.563437|-32.819478|-15.950209|11.223239|-14.725903|-12.075750|-3.238377|4.284419|-6.543002|11.898689|2.459245|22.312182|-24.453990|4.414399|-55.539093|-134.927586|-51.578910|123.244399|72.408688|73.077609|44.218009|-21.548322|-160.080389|-147.247395|-144.605101|-111.672892|-76.386392|-50.569465|-38.961252|-26.912688|-11.062672|-12.055389|-9.318818|-13.321757|-3.499025|3.003745|2.202552|10.726027|33.616253|1.426599|-12.629425|-3.356496|-82.295594|-191.279580|-17.512500|100.470227|82.061912|72.262951|-42.875230|-49.564607|-160.153836|-118.403765|-29.593911|21.371983|-67.795756|-54.726090|-23.328336|-6.691984|-22.929579|-6.469081|-5.378871|-14.957776|-3.287045|-7.456170|-10.754429|-23.910525|26.531652|-5.817569|31.328677|20.031008|-102.181460|-73.991062|1.352912|92.401907|29.158550|11.677051|-76.540049|-64.442958|-147.047943|-89.284680|12.523716|-18.587152|-62.726888|-17.214277|-17.946763|0.283013|-21.581652|11.949911|-6.692849|-15.221413|-3.381113|-0.660121|-15.693100|-0.956536|-13.447736|-22.821823|-31.288246|-76.471820|-145.163865|-91.637784|28.175375|140.172947|92.618296|-1.744683|-45.388339|-77.308355|-105.426716|-44.879090|-19.230504|-48.415582|-32.659024|-42.013163|-8.224585|-2.787285|-36.037812|7.725892|-11.039917|-5.490777|-4.446286|-6.747591|-10.116602|-8.848689|-6.877546|-31.512321|-12.960190|-86.060224|-94.727680|0.471564|113.969330|224.784819|77.431174|9.116030|-26.323215|-53.359694|4.008082|-0.931431|-29.812655|-50.480502|-52.743345|-26.235861|-14.835744|-1.780719|-31.054650|-3.369394|6.714439|-5.148800|-3.485107|-0.713911|0.512208|7.500477|-9.202925|-18.807167|-23.573705|-25.196852|-33.932164|53.870804|76.597098|92.281483|-58.328947|-54.510862|-85.680711|-90.647692|-61.104698|-29.534278|-59.345054|-52.847697|-32.693935|-14.698392|-9.124205|-28.342993|-30.185705|9.796348|9.123035|-5.069004|0.793652|-6.286066|-6.637381|-12.946816|-25.714557|-36.387130|-23.265844|-21.301302|2.878631|34.920661|85.680507|-2.048799|-67.346450|-165.493418|-86.094380|-42.472787|-68.122277|-62.176266|-50.003336|-48.612627|-11.252001|30.099666|17.881557|-14.137212|-22.708742|10.538780|11.207961|-1.648399|0.388380|0.459434|-20.709920|-24.081988|-33.867415|-43.754639|-18.811683|59.684523|14.162374|33.863538|72.087988|7.501042|-39.872987|-63.651939|-79.648749|-48.935075|-40.098350|-56.987786|-44.103693|-36.777623|1.130843|23.432403|19.640997|-5.195008|-17.101139|2.793603|5.117025|0.498053|0.977361|-5.398030|-21.501363|24.392157|-39.925064|-33.607484|-18.661259|45.404178|29.098382|70.830230|31.451555|26.927665|-51.794436|-134.247904|-106.726999|-88.747525|-51.372888|-20.276167|-38.421567|-41.366463|-7.483891|11.668146|-5.665665|-2.188564|-29.961579|-10.786217|-6.969561|-0.202279|0.314568|-6.691874|-8.433604|35.256214|8.373813|0.845109|5.874039|38.615787|23.526064|39.085708|24.022898|-44.326261|-111.820104|-104.660892|-81.604130|-24.088076|-15.389785|4.999443|-26.762246|-9.766310|-8.056376|12.353094|7.313023|6.520257|-2.967978|22.636996|34.002867|-4.257606|0.125010|-8.292959|3.108149|76.301181|62.528866|44.090684|39.889989|29.278104|26.306555|15.031250|16.723500|-3.965970|-57.915565|-19.182269|-11.105028|11.977706|26.358499|18.445682|11.609583|15.839368|17.469714|34.817877|36.086831|37.668651|35.671240|27.020534|33.550402|-4.560759|0.548297|11.001561|5.791714|38.685232|17.043000|41.168403|-2.847568|-4.982847|30.999506|17.591618|21.463641|-23.219478|-35.953370|-48.515650|-51.932861|-16.660705|-4.278810|4.686220|6.223380|-11.575992|10.660058|21.752364|7.339961|21.758596|14.951982|3.220596|64.748417|1.206810|0.264537|11.393453|8.029020|-4.340203|13.932413|4.558577|11.375408|10.409530|43.335544|20.969206|-18.178387|-44.734961|-38.953762|-62.550088|-45.998165|-42.331680|-40.550687|-11.740910|-10.240034|-2.964558|-0.674715|0.020223|1.954337|1.465264|2.229504|4.099026|1.270572|1.488849|0.384115|11.052989|10.110010|1.127302|-8.441366|-7.276163|12.373696|11.409673|16.006044|-14.936769|-38.357137|-49.669225|-41.377814|-16.079214|-15.417268|-12.981485|-6.856148|-8.629100|-8.570456|-3.742111|0.569473|-0.642451|-0.962498|0.519174|0.626570|0.994325|1.471956|1.298271|0.057493|
~
0.469959|0.107740|0.400976|0.035277|0.213581|0.269735|0.114254|-1.787754|-9.143529|-17.412048|-22.807499|-30.095891|-44.232051|-38.933311|-32.138635|-19.081737|-21.606998|-17.452326|-17.832232|8.381369|-11.895514|-8.053564|6.902823|7.486221|3.518671|1.955718|0.113505|0.318042|0.540738|0.569379|0.326321|-0.017171|0.509660|-1.175281|1.858262|-9.734439|-12.792645|-23.907326|-27.879772|-35.570813|-43.577637|-38.819299|-17.851055|-3.749371|-1.131181|4.061830|21.837791|21.430742|16.066081|13.262125|7.238437|8.989348|3.501723|2.238656|0.356709|0.186546|0.033245|0.470215|-5.320603|61.666699|-5.732838|-9.091463|-26.377128|-40.466027|-45.026112|-37.645727|-41.153519|-21.962191|-26.872823|16.115929|44.766753|40.005425|64.206967|37.256865|57.315368|47.727525|16.254933|42.245812|21.252724|20.257798|-15.756904|5.514977|0.147259|0.596439|0.146475|0.503969|-0.939767|53.828108|-12.720459|-9.308554|-31.590975|-46.718057|-87.415560|-74.127834|-51.080120|-21.115305|16.406200|-8.244405|26.923452|55.773802|0.205427|6.579362|13.830631|32.066658|-0.627808|9.074232|3.438345|15.721035|-35.054824|-4.475439|-1.765398|0.468637|0.915816|0.434042|45.433998|24.606085|-3.593643|-2.203297|-28.809321|-54.729908|-73.506244|-55.916758|-28.451639|-0.112710|-0.755994|57.629210|108.672707|93.091938|-3.675388|24.989013|12.127732|21.924415|-4.401043|-4.892980|4.869000|3.812858|-18.833756|-3.694813|-1.217505|0.339135|0.574330|1.821838|41.386346|53.576434|-13.473388|-35.237544|-57.990285|-66.166145|-102.126847|-75.597160|-19.202391|-31.812499|0.459856|19.654578|94.049998|48.181517|18.858134|23.750230|5.017793|5.100352|-29.306034|-36.685732|-36.835763|-15.691737|-7.173510|-16.226162|-15.595308|0.537920|2.167271|1.997197|31.422352|36.735696|-15.876937|-63.091434|-70.972119|-104.291972|-116.748162|-104.411024|-52.427675|27.515027|25.124120|10.562640|-101.513540|17.600621|21.708497|41.619267|-36.800050|-59.724226|-29.949838|-43.812268|-91.279541|-39.125359|-25.894491|-27.994170|-14.805519|0.907034|2.636703|2.189044|52.446681|15.956681|-1.839746|-42.935888|-75.422787|-96.900823|-169.298703|-121.206444|-7.882112|-1.234016|73.797977|35.064936|28.383998|46.208184|108.710943|39.524357|-72.236467|-31.182603|-42.893186|-111.884034|-110.183743|-28.344881|-46.200238|-37.345934|-8.761236|-7.187502|1.713451|0.743433|56.996574|10.812073|5.076818|-48.211232|-92.826254|-127.581591|-156.659608|-102.115139|-28.178631|14.072456|57.275670|34.526885|28.990992|23.397142|74.131563|77.121089|-45.557365|-46.079249|20.560191|-26.404120|-90.283046|-55.288215|-27.427483|-50.592378|-17.464004|-6.931625|-0.762257|-1.450370|33.201943|21.471885|2.535577|-45.462849|-74.617955|-118.554518|-121.012995|-17.840873|84.150671|18.270907|88.417755|77.883569|95.591164|79.519094|-80.770925|87.027215|1.151459|-4.157254|13.357156|-59.965237|-79.217338|-65.616158|-30.295001|-40.225051|-17.771560|-7.211171|-0.520512|-2.078799|29.694249|26.307379|-3.196596|-39.577164|-70.783664|-89.275390|-55.426272|82.361187|33.440386|-10.184336|48.224878|67.003946|53.547723|29.057876|16.397552|-18.460838|9.117109|-69.962910|-23.077724|-50.335786|-158.137704|-50.334109|-46.474494|-63.204995|-17.036894|-7.707752|0.427259|-2.403893|38.244928|34.047409|7.804180|-27.989242|-91.378720|-159.559854|19.764375|83.657414|103.383457|1.292005|-31.275339|29.302188|146.862000|36.018444|-110.790443|-89.269709|-98.876699|-50.040246|-7.880702|-36.327509|-137.844546|-68.597904|-41.334478|-18.606942|-22.243167|-9.010889|-1.112504|-2.314567|34.798324|36.057681|-16.139257|1.845324|-69.048737|-113.243955|57.033712|144.003951|209.172627|21.230152|50.784379|-42.129232|-108.028067|-22.272468|-83.264861|-207.734519|-71.092787|-93.008412|33.586402|35.616698|-37.401887|-10.899171|-4.898281|-21.602893|4.004635|-8.343838|1.490019|-0.336720|42.040005|20.563933|34.962206|-35.127893|-58.337328|-83.735910|49.237881|133.269440|142.329238|39.254290|9.663717|30.401476|93.439919|-81.958775|-98.477380|-57.341774|-77.190717|1.201219|39.713337|61.200843|-57.839669|9.508019|-50.528749|-17.318192|-12.951274|-7.318069|1.100151|3.196078|41.283755|13.222288|12.747174|-64.781182|-39.454850|-98.504968|28.793282|31.511769|168.198978|69.878076|3.542759|79.919062|-42.406347|-45.872615|-61.256551|59.359382|-15.853085|16.700530|69.160885|24.433783|-30.902189|33.891415|10.182092|-21.895781|-6.056768|-7.091143|2.934969|4.651849|47.003869|27.323499|-5.929337|-47.095968|-70.351387|-106.861245|-36.986776|64.482429|64.541884|63.934870|73.401945|29.235338|33.941928|1.234137|-116.909444|-56.580977|36.935615|103.547498|128.937911|142.914939|4.878945|-30.981021|-12.201597|-19.055047|-5.764934|-6.917724|2.934707|3.326318|48.210142|4.940174|-8.293474|-75.483591|-87.870639|-143.838539|-149.831174|28.005776|1.230687|59.993518|133.520374|73.438707|27.185609|-24.698701|-115.979588|-64.366894|64.362498|210.412799|216.655893|127.786394|-17.110108|-70.965245|-36.678850|-24.949114|-1.683748|5.541140|1.258990|3.654282|36.019154|10.564866|-9.421141|-72.003460|-97.990046|-156.753416|-122.836351|-40.304763|-49.366917|-48.495527|19.046926|108.190930|53.511357|-83.228085|-90.929160|-38.698761|-8.279530|143.079328|166.747101|113.449112|-30.097076|-96.906197|-25.373373|-7.211982|12.742382|0.746248|-0.786522|-0.592763|14.441569|24.333634|-13.213042|-59.380154|-73.178005|-122.734514|-88.870086|-109.351213|-98.687598|-183.567072|-78.698463|66.435272|72.880450|30.574337|-24.177239|-12.348101|7.180176|91.374992|60.769956|133.993537|-54.134125|-100.062451|-16.523489|-24.701092|10.539693|1.319932|-2.411505|0.539884|15.355358|13.319425|-7.785097|-49.421526|-62.709714|-85.249106|-55.550756|-86.550600|-49.084181|-37.245881|-68.557384|-6.079612|38.515191|87.286791|-6.567761|-167.529175|-108.190262|-48.877621|90.019686|128.457091|-36.648070|-19.567500|-42.245407|-8.610437|5.730783|-0.529217|0.418950|-0.893085|7.821576|7.023996|-15.891024|-32.676698|-81.144154|-94.026493|-157.610579|-100.212068|-70.573621|-14.513493|-15.742796|23.308262|30.674077|-1.808754|-11.836345|-23.787032|-84.283083|-74.381762|5.666467|97.562368|-15.704860|-21.984438|22.373700|-8.749581|16.052752|-0.346743|-0.507189|0.410733|10.049862|-0.783999|-25.497299|-42.212538|-69.189542|-108.528179|-132.450570|-62.779957|-105.635480|-34.154618|-28.808105|-23.020233|-74.954808|-64.117726|10.196738|-9.507749|-125.612846|-40.793115|-33.533840|31.941533|-26.618661|36.783003|23.469797|-2.512750|14.750022|0.149625|2.330778|2.187730|33.755431|10.728978|-21.207188|-52.129241|-76.893739|-81.560174|-106.901799|-62.704116|-98.202146|-86.710985|-66.504911|-13.371772|12.883014|-49.547085|50.993237|-48.324904|-118.607853|-52.852045|-20.881401|49.051090|-5.441935|-6.880035|44.634493|-18.189759|-2.224307|0.998998|1.466169|1.283856|29.013890|19.565214|-12.801336|-14.112476|-40.377125|-26.469805|-44.361568|-38.952509|-59.797394|-124.389132|-155.146694|-99.524353|-97.956552|-108.625707|-31.238770|-48.433590|-3.931738|20.803973|-27.988353|-38.503459|32.824631|17.050747|70.169362|-25.522263|-0.977556|0.508671|1.148609|3.513041|16.197603|28.371902|17.279399|17.109182|7.166901|-23.903899|-46.844301|-58.935085|-64.802855|-87.960483|-91.173815|-105.086801|-82.996535|-71.998886|-32.457627|-2.505639|-8.735287|-26.025207|4.773341|23.441737|-29.752815|52.968488|56.804968|11.915888|0.333409|0.521913|-0.312563|1.854875|16.647632|-19.222107|45.907872|23.750676|15.995237|-24.424280|-14.418034|-52.061747|-82.351248|-54.200973|-65.694140|-84.679751|-55.748789|-48.638955|-9.753980|0.353837|-17.264474|10.759303|-40.437538|-76.355847|-20.366226|4.524784|-15.155966|-32.020240|1.259657|1.140945|0.299771|1.490371|0.315135|2.149862|-3.867031|-4.401305|-5.470603|-26.921882|-68.406290|-78.123720|-78.014028|-55.105209|-82.328183|-81.279285|-77.261207|-31.356462|-4.738722|-17.322690|-32.091217|-33.381898|-73.205988|-66.847454|-30.694719|-25.337436|-6.271037|3.220009|0.780038|0.610546|-0.319690|1.201959|1.986930|1.560929|1.542691|0.908383|-5.406132|-11.565691|-44.831894|-64.930872|-80.853478|-56.566404|-71.946611|-56.717127|-37.347299|-52.865723|-0.020236|-14.779145|-41.470143|-13.286846|-44.755617|-25.593141|-49.290597|-33.346798|-4.463983|6.273574|4.598404|3.511115|
~
0.979162|0.797502|0.751823|0.288165|0.111924|0.261975|-0.429477|9.640488|10.214769|9.507306|10.700676|14.309312|8.488551|12.923465|18.071639|17.743390|4.464045|1.964964|-2.097648|-1.556444|-1.352455|-1.043034|-3.264983|-3.774713|-3.574025|-3.787698|0.305956|0.445285|0.390889|0.063238|0.570772|0.268435|0.139366|-1.178173|6.999357|9.996706|9.206049|10.015333|0.392686|-25.235538|-20.603289|-7.398532|15.895727|13.239107|6.258970|1.047397|-7.132331|-3.063606|-2.217401|-4.399618|-5.695327|-4.041309|-3.416692|-3.209761|0.408935|0.457431|0.726918|0.714891|81.902072|-16.241034|-9.996431|3.395560|6.492000|17.675545|31.738639|-12.351562|-9.615871|-58.950690|-41.433539|-18.895148|0.448869|5.881552|-15.650689|5.565573|-36.085768|-20.112707|7.731498|22.227569|9.927269|-10.620632|-2.068718|6.803884|0.948179|0.055129|0.176924|0.357114|23.137975|17.544955|13.792436|27.676123|22.957686|33.153214|2.711292|-16.987569|-11.727351|4.009873|26.904545|68.164384|87.569733|81.569322|13.639533|16.689150|-5.579591|13.022840|16.976397|21.801504|14.619390|9.810874|7.257830|-17.107925|0.306656|0.223775|1.020902|0.259371|40.543865|22.956691|4.916938|5.113652|3.358104|-5.090506|-30.533226|-59.998587|-10.971318|77.668847|57.378701|74.144259|39.838553|44.278070|-7.380746|21.126623|-14.620077|6.093907|5.815450|2.701019|19.477510|16.752943|15.599449|-16.835130|0.695819|0.437425|0.166808|-0.034303|38.112373|15.311957|6.289094|5.162689|19.518097|-34.516407|-52.749596|-7.976337|-14.197520|-17.859820|9.302188|54.566104|-32.305792|49.094863|5.746769|16.503766|-11.184708|4.674880|-17.036399|-16.206777|-23.053637|-21.758290|-9.880907|-21.746774|-0.034477|0.020959|0.501025|0.027374|45.728396|-1.074914|-6.034889|-3.293344|10.600914|-45.148626|-69.106156|-57.217671|-6.467548|-7.892735|-18.864846|-66.998741|-35.771310|7.354538|-9.984948|9.090133|17.054197|36.326131|-4.193237|-13.234601|-20.139482|-28.623110|-14.661512|-16.397032|0.096156|1.219241|0.329845|0.169601|34.911705|2.776645|-11.327330|-12.615403|6.567223|-56.643669|-50.434783|-20.402367|-41.988224|-27.494099|1.979695|56.289740|99.660482|149.134086|45.720448|-21.849262|-0.727459|30.353243|21.445003|-2.026493|-18.769939|-26.931559|-17.905749|-15.003518|0.235817|0.407161|0.583750|0.279870|27.910582|-3.109799|-23.699460|-14.476716|0.001023|-19.922552|29.813480|116.662147|62.187822|111.578825|168.555597|100.635886|179.104244|154.184698|29.999042|-75.213939|-8.137979|41.999371|37.255895|-9.590760|-14.467749|-26.301152|-16.858818|-27.681163|0.134542|0.163220|0.530144|-0.180961|34.766304|-10.114977|-21.422856|-17.549111|-15.026409|45.163974|17.377127|90.873652|38.873533|-3.225847|57.052361|111.753663|115.046515|48.235769|-29.004479|-72.577831|-43.017186|-7.403115|-9.832012|-9.330590|-15.955086|-19.795025|-17.027386|-20.044462|0.821617|0.296410|0.815998|0.663221|46.200040|-16.866154|-21.015987|-33.532681|-32.891932|19.670727|9.796195|-32.838141|-64.148764|-142.945239|-8.487216|-50.872849|-48.840591|-37.260584|-45.994476|-100.714744|-34.904612|-62.339917|-45.109603|-31.296349|-22.533461|-26.251798|-14.751865|-19.573700|-3.437361|0.474130|0.472500|-0.185108|14.849426|-17.723815|-20.523173|-41.936726|-4.270252|14.809305|-18.540840|-52.949496|-83.697298|-163.012707|-104.486846|-79.290280|-11.589411|-23.095266|-144.883419|-95.070149|-71.984982|-81.354113|-67.758094|-31.884423|-20.063528|-27.346281|-16.775982|-17.491503|-3.486249|0.050614|0.436440|-0.355818|24.388518|-20.567618|-26.015146|-36.434453|-11.292156|-8.037114|35.553481|-55.923188|-50.176327|-169.330095|-62.059362|0.248947|19.357026|-16.279886|-97.802233|-140.646140|-147.528614|-94.633218|-97.478644|-50.810099|-28.285653|-33.623351|-19.097371|-36.970603|-4.109126|0.586906|0.600563|0.600178|7.610403|-32.244000|-32.423177|-34.794875|-35.844291|-24.558990|-14.011383|-102.954317|-51.263536|-129.857368|-12.961711|-48.656384|71.083398|-21.786183|-30.934320|-178.702114|-120.063894|-145.330269|-85.043694|-50.889725|-41.240736|-36.826817|-23.685398|-25.479597|-3.481249|-0.663906|0.971928|1.227180|29.656574|-31.189521|12.846599|-43.784729|-35.843831|-13.094884|-74.770028|-83.787540|-88.740259|-197.209044|-20.434176|24.809041|107.234996|44.480906|-68.081106|-134.896202|-144.010397|-152.808401|-71.122181|-63.149906|-38.273894|-43.714961|-7.518048|-29.742607|-4.686160|-0.479988|1.173884|0.601342|23.282117|-28.417657|-17.248252|-37.677241|-53.079021|-6.026162|-22.696052|-51.443916|-128.942102|-222.304871|32.717582|76.168723|75.554847|128.654433|37.043421|-107.302955|-118.648477|-102.457742|-67.474926|-50.835498|-50.184877|-55.825278|-36.727217|-30.345998|-4.910900|-0.301223|0.791825|-0.697245|24.049294|-34.957613|-11.740520|-19.846047|-37.108390|-42.091778|2.034754|22.487233|-44.100523|-180.715351|-104.994330|30.882440|94.462645|118.253054|12.126164|-99.031715|-100.607063|-113.408718|-55.453903|-56.497588|-47.896245|-55.638097|-27.853235|-12.322800|-5.403155|-0.614364|1.043756|-0.924760|38.564403|-26.071288|-39.092903|-33.672645|-36.642992|-61.655185|-65.716251|-79.176458|-116.584095|-157.289210|22.081056|76.811082|114.642744|49.648915|105.835621|-104.167357|-115.100420|-76.116058|-50.995305|-43.568121|-55.773119|-45.880018|-26.655196|-9.849048|-3.050416|-1.074645|0.381748|-0.653735|36.833960|-21.656256|-33.424899|-35.486486|-9.632456|-62.635791|-54.566264|-89.997227|-103.869857|-96.798214|-9.571723|36.359931|104.044492|125.401115|38.216153|-123.870294|-121.441237|-87.782415|-66.325988|-54.179981|-46.602614|-44.687080|-25.830915|-2.931761|-3.068428|-1.780029|0.189301|-1.013866|29.771044|-21.648637|-35.236454|-38.227215|-43.940242|-88.515102|-99.356978|-58.524326|-106.566292|-103.328929|21.125052|87.042029|116.531900|140.777952|10.734119|-85.476635|-73.990687|-64.678172|-71.965227|-51.993421|-39.710912|-43.062834|-14.409388|-5.210699|-0.736845|-0.183356|0.342476|-1.237188|57.100075|-19.944869|-31.490811|-37.287717|-36.669841|-66.469804|-30.142648|-52.791317|-81.623838|-109.012658|-50.257202|61.596318|167.709457|121.818464|-2.699361|-148.279892|-51.157150|-27.213162|-51.467545|-37.858243|-44.232120|-34.100951|-13.607776|-2.652234|-0.046763|0.196407|0.195228|-0.748515|56.673171|-18.150532|-30.907687|-27.881415|-26.282432|-30.431814|-40.329246|-88.904367|-111.116230|-96.184560|-34.775639|117.284606|150.716321|90.371956|-44.972752|-138.532548|-35.882404|-17.489741|-29.214273|-54.675217|-25.977424|-26.669147|-33.759525|-15.046617|0.150906|0.202318|0.144418|0.159436|57.300225|-13.443061|-17.405405|-25.044828|-18.618582|-0.371318|4.393844|-54.281950|-122.707052|-150.497010|-20.266275|-25.433650|101.280296|56.587281|-8.714790|-53.365112|-20.766947|-27.991730|-19.939439|-20.573886|5.319770|-10.901774|-11.260919|4.519541|0.584124|0.481372|0.583414|-0.012497|62.041261|-7.759466|14.308220|8.994603|16.142154|20.986542|-22.451761|-29.105073|-76.115243|-145.042620|-27.737517|-2.076896|-7.282995|-24.597032|-18.893705|-57.726844|-31.425095|-26.722915|-26.556449|-31.229104|-19.674574|-18.818715|-18.293520|1.960644|1.498059|0.539735|0.523097|0.633082|41.646720|7.173902|11.703861|2.871671|14.340090|14.609969|5.756668|-11.815962|-66.295267|-44.319655|-13.345811|29.377216|81.834832|39.752464|14.336888|41.237364|23.668002|15.172169|4.421294|21.867072|24.800586|10.555436|14.481417|6.519675|0.280335|0.789381|1.961394|1.805532|90.543454|11.545326|52.870098|42.102490|28.735266|19.495251|15.960013|5.574789|-20.699606|-77.916004|-46.269589|24.811623|31.284349|5.836909|32.009082|-10.128525|1.867773|-2.406704|14.403692|5.295153|-3.515984|-12.847952|6.890292|33.432834|0.879964|0.173016|1.150114|1.570785|1.045111|5.057298|1.810159|-6.811506|-9.008277|-17.948450|-36.635570|-38.584981|-53.565667|-52.882836|-55.298872|-60.926172|24.951550|40.677470|16.529113|-5.724900|15.186838|26.221676|10.390124|-6.713106|-6.699890|-6.638781|-6.516803|0.453427|0.994431|0.276585|1.799197|1.339265|0.643453|4.630378|-0.212676|0.109120|-10.490704|-14.547068|-32.680221|-56.048975|-46.255179|-17.351148|-24.285965|-27.402835|27.085716|18.854386|22.977971|-1.757069|11.833667|30.161697|13.978822|12.854225|-6.859640|-6.206916|1.340249|0.907618|0.708277|0.565395|
~
0.250495|0.369786|0.507639|0.170911|1.758786|1.676094|0.972228|-3.684492|-2.646802|0.698436|2.971422|3.464106|-4.314483|-12.212014|-4.939310|-6.552151|4.298039|4.283288|5.994991|-2.009733|-1.664124|-1.991379|-0.576035|-0.495715|0.433330|0.076946|0.502956|0.913677|0.950402|0.961061|0.183661|0.270258|-0.152544|2.321060|-2.734856|1.642575|1.698755|1.664021|17.874662|11.683230|15.901551|4.731954|0.166828|-8.986527|6.649878|7.566789|6.824306|9.860435|12.151766|-4.189314|5.995675|-0.525130|0.427204|0.667897|0.439938|0.362532|0.038830|0.942893|4.430733|10.198018|23.119899|2.902616|6.096467|8.126307|-13.308347|1.263720|10.126462|15.315537|18.740043|-19.612553|-25.970215|5.876223|23.044194|38.157743|43.805460|24.289405|17.297969|3.925147|-2.660127|-8.475673|1.321392|-1.012943|0.172232|0.557123|0.112244|0.612170|9.008586|-4.258130|-16.087416|-31.671928|-19.837501|-34.488639|-24.747839|-24.031415|-45.102687|-57.413213|-44.687092|-28.715266|-39.830946|-37.380461|-16.787251|-3.536424|-7.619007|17.287951|32.316953|13.937105|0.161661|-13.215842|-14.292278|-10.581311|0.420342|0.406002|0.770801|0.528535|-1.435431|-1.043009|4.446561|1.925994|-7.810555|-18.525812|-1.406981|-22.550014|-27.766647|-30.265129|-27.065569|-40.581709|-93.035445|-45.971079|-45.481112|-38.224623|-21.547084|24.743767|39.457962|38.708756|3.143665|-9.269049|-9.611275|-18.969446|-2.093612|0.937937|0.979144|-0.058283|-6.797402|-24.837305|-11.013642|-43.964614|7.018191|38.146154|18.660338|25.823130|50.711285|-2.704317|-54.663952|-87.051769|-90.448254|-76.248647|-87.509836|-88.467110|-47.283327|14.731550|11.473157|35.158934|16.851776|2.584402|-7.358176|-18.863439|-2.747894|0.976309|0.047092|-10.940687|-7.196812|-6.034530|29.495486|63.628993|74.598993|48.431681|49.464807|-13.114424|-35.265676|-16.092503|23.820531|30.020753|20.812906|-2.262710|-57.528446|-68.435830|-73.300175|-5.255528|1.073857|13.756707|-4.049777|8.425489|-6.003215|-7.901837|-2.172201|1.197149|0.072171|2.845028|-4.380517|6.148606|34.846294|45.582481|66.596481|55.440462|-8.573611|-56.172213|-61.838506|-63.756987|9.973595|62.821633|109.694511|67.858795|-6.294880|-5.767559|-21.501009|-62.711329|30.225549|13.950568|-4.539958|6.617547|-7.258388|-15.594312|-2.258483|0.543009|2.369981|3.745474|14.456330|11.680048|20.028811|45.705280|-16.459211|-35.932822|-41.710242|-66.725087|-84.251031|-121.891484|50.166976|78.601262|101.706391|72.061243|-27.289371|-30.573126|-33.828926|-20.691824|38.146794|44.740780|-18.640943|-7.048353|-2.628300|-23.371080|-1.593354|1.019078|3.813313|11.308257|27.434869|19.745710|2.950743|-0.539502|-66.615342|-71.376200|-56.376523|-91.803854|-131.344621|-13.102707|107.187596|98.375776|100.870407|7.638896|-20.243292|12.418332|-14.901142|20.317058|66.110826|54.641201|-2.466577|17.813508|-0.703222|-10.445113|-1.343612|0.469120|0.845382|-7.306008|17.329684|-0.263663|-15.571839|-11.304177|-77.371788|-35.425076|-59.637191|-81.628902|-68.876848|-11.728855|82.960871|-31.312457|2.645461|-0.601612|-50.995027|8.671917|60.776384|28.037212|64.324865|18.153823|23.837624|9.583036|4.260647|-5.727114|-1.148000|0.927260|1.171645|-3.490736|12.407803|19.424691|-31.406428|-38.082526|-85.198034|-40.645424|-70.623776|-51.959403|62.951963|57.249720|22.833785|-72.095180|-68.483061|-21.318052|-85.672546|59.371527|70.142246|45.358605|56.645876|-44.717342|-13.071210|15.147559|-0.900428|-11.420159|-1.640780|1.125918|4.215746|3.810412|22.618962|17.256113|-20.356653|34.449473|-12.460015|27.410118|-2.002282|42.475651|92.220305|55.727295|-47.406905|-108.552495|-39.888091|13.172138|-27.780806|-2.428569|67.946360|39.544513|-48.522127|-18.921277|-31.988911|-3.832105|-8.404172|-8.358459|-1.766108|0.024425|3.364509|18.513387|9.816278|21.032214|-9.435240|23.831272|52.212427|18.601774|115.394788|157.191537|70.297686|-37.448677|-143.368228|-114.568421|-86.546586|41.490368|-6.077613|24.935150|69.480369|-30.531256|-61.138794|-54.385057|-31.928413|-0.630414|-8.112987|-34.341845|-1.965187|-0.658930|28.349420|28.923400|10.974620|4.054329|-17.538781|38.920610|27.368322|-15.241851|62.163028|4.604709|-81.667871|-175.294666|-207.452739|-39.467856|9.261372|13.041805|-9.173629|-12.910760|-58.398838|-86.009226|-87.150829|-40.746039|-33.434443|-23.901627|-22.193169|-34.485121|-2.587374|-0.688954|33.171891|42.931961|21.354311|1.178185|4.160108|-32.892230|-13.949118|-90.240739|-53.085071|-68.378142|-127.209257|-79.982065|-8.026075|28.632164|120.884956|81.354083|-31.472728|-115.492288|-67.216084|-69.962532|-57.183097|-24.298933|-30.158305|-14.996259|-21.225449|-35.106559|-3.603114|0.004365|6.884321|23.935800|-13.138519|19.952590|7.197132|47.825365|-39.649310|-73.244399|-111.719979|-178.237389|-82.189711|-28.874035|61.898847|176.949010|174.490387|24.921289|14.294103|-44.101733|-58.046073|-3.312466|38.370620|-7.678927|-0.779179|-20.644086|-24.399526|-38.362722|-2.729775|-2.362817|7.882680|12.281353|5.157438|-5.726135|-5.224148|39.244483|12.759568|-63.875048|-86.475009|-180.540943|-78.158768|37.847379|94.531643|131.548807|134.845509|15.913334|-14.980490|-12.669194|-35.886755|39.562947|30.624969|7.819806|-5.725186|-32.791521|-22.519283|-20.137107|-3.327390|-3.157679|-3.797409|-4.346167|-0.434769|8.055535|-15.075340|61.198756|-8.412337|-50.115523|-80.837686|-139.579975|-81.364291|16.009451|88.859844|50.427119|61.135823|-89.613444|-83.452406|-21.574468|-30.438462|0.544876|-9.288872|-28.093146|-33.873286|-25.960634|-12.220671|-19.370062|-2.808366|-2.564005|3.791545|14.880914|28.827523|28.714096|33.940912|25.564246|-5.703752|-38.635016|-21.976983|8.811864|74.511226|-6.648250|36.644196|5.025518|2.701719|-58.678428|-52.435903|-63.630820|-31.254777|-15.741811|-44.190720|-45.984654|-57.238651|-16.821396|-2.242284|-20.695241|-2.561097|0.619689|7.593639|11.863024|-1.285606|35.849352|42.298677|-12.531175|-13.593647|4.436266|77.883192|48.798491|137.996842|105.276302|16.995976|-31.810509|-49.790486|-29.921835|-83.505673|-94.253796|-48.892919|-40.468898|-42.112098|-43.300841|-48.299885|-0.190926|-8.685674|-21.304358|-1.138113|0.536470|12.133623|-11.549217|-1.070878|-3.006092|23.454404|25.912091|-25.756968|-8.355532|78.132677|-1.915085|6.469219|-13.947921|-30.096563|-100.747107|-94.139593|-77.978358|-50.477803|-44.920482|-16.782678|-14.844817|-31.384347|-21.882810|-15.783483|0.380378|-8.477231|-16.415678|0.003377|0.792301|-3.998049|-20.860184|-8.644963|-30.280803|11.262115|52.311360|34.418415|37.473139|26.508381|47.566477|72.598156|58.977474|-86.727915|-83.198446|3.319897|-18.690270|-24.476050|-1.273428|-16.011041|-17.783239|-16.457310|-12.298323|0.313816|6.433493|-6.339933|-23.161673|0.772193|0.033695|11.675988|-10.368164|-14.569464|1.404446|26.855715|48.474567|59.323097|36.911898|-65.942325|-57.552292|-35.041763|-45.255527|9.019025|-20.950513|4.725372|-22.723891|-61.697206|-36.691933|1.765023|-14.921730|-28.469433|-6.755039|-4.652715|11.811748|-8.986133|-27.345451|0.024826|0.168471|-5.172632|12.197447|-21.428699|21.868774|36.442744|41.022281|17.917198|37.660452|12.043746|-97.876811|-59.763076|-31.749629|0.403809|-15.032255|-0.482479|-43.534502|-63.296310|-28.547523|-32.739972|-39.276177|-25.716711|-16.936346|-16.944347|-0.566423|-7.201593|-38.713307|-0.134355|0.550191|24.718997|10.691163|-47.984360|-36.414354|-5.940175|-2.893476|15.495315|14.668896|13.893892|-32.312421|-43.805671|16.689832|17.582530|3.337739|7.902490|-57.274028|-58.159080|-73.041305|-54.694042|-45.828086|-39.962517|-34.905255|-21.991677|-15.183702|-18.310200|-29.984348|0.102019|0.962423|18.519293|19.056710|10.014358|3.650909|25.232763|17.112706|36.937724|50.364142|60.670480|27.857714|32.147876|59.573945|12.913057|51.973031|-9.229808|-50.086322|-48.787889|-30.127958|-22.210290|-16.290136|-6.985797|-7.433248|-1.647972|2.934026|2.576037|0.376399|-0.074742|0.038239|17.842280|9.471501|1.705986|-1.087186|34.225869|35.747507|47.637823|34.065497|51.828284|50.156240|53.471752|48.563216|20.198633|6.003132|-21.830028|-47.641625|-39.520976|-23.298865|-15.871815|-5.240459|-5.468418|-3.376928|0.751545|1.627222|0.354712|0.540468|0.505453|0.120355|
~
0.613412|0.722578|0.331109|0.754098|1.040908|0.405901|0.332827|1.420374|0.752714|-0.836215|-3.440023|-1.643708|-7.074943|-8.123943|-6.441351|-4.556672|-8.332234|-3.942174|-2.136020|-2.285183|-1.241528|-1.378257|-1.125215|-0.932045|-0.667674|-0.268261|0.239279|0.566084|0.438401|0.932240|0.923712|0.149455|0.539465|0.089880|1.256625|1.467010|-2.015609|-5.289100|2.611691|-21.384676|-7.799609|-8.445633|-14.835506|-22.695664|-22.632199|-20.431545|-21.318684|-7.556067|-5.184865|-3.759328|-0.273297|-1.224798|-0.552546|-0.190974|0.476724|0.541397|0.175088|0.716003|32.403900|20.859762|38.741626|14.603703|24.018565|14.432174|8.013453|4.395772|-8.352104|-12.520060|-24.280239|-34.215466|-22.257309|-27.366046|-34.821693|-21.709836|-11.096496|-0.837830|1.298380|8.801325|6.287735|17.394547|33.309586|25.557422|0.770479|0.664987|0.152880|0.247203|18.344084|-15.307535|11.274039|3.784568|2.966430|10.605573|-6.671044|-7.919510|-29.348623|-27.884949|-30.683640|-18.390242|-53.971773|-80.078696|-73.731726|-68.150186|-57.292145|-30.369495|-13.544704|-16.016723|-15.689294|-17.914787|-2.493185|7.500882|1.008950|0.314343|0.180698|0.739747|4.915668|-0.754407|13.390010|-1.122899|10.925815|3.859126|5.376747|6.645144|-14.055610|-22.248659|-39.357442|-53.823713|-64.123958|-76.681900|-95.703488|-100.983471|-71.008131|-35.823831|-13.789737|-5.597050|-9.750912|-11.744828|-1.081525|1.742608|-2.880180|0.940705|0.692242|0.086370|5.259869|-8.886581|-3.188209|3.431809|4.426887|1.847114|-2.319705|-9.150669|-23.682499|-71.973839|-94.745987|-80.902395|-100.771447|-143.367315|-124.854187|-127.015766|-97.880514|-52.591927|-52.141344|-15.748981|-17.315722|-14.727627|6.040252|-0.378195|-2.515554|0.841944|0.386202|-0.320586|19.562918|0.502423|8.092934|20.877395|20.425452|12.562860|-17.450274|-15.267573|-22.765829|-38.763506|-37.606763|-11.499873|-37.698391|-44.409793|-58.559621|-98.643406|-89.126937|-43.757561|-62.898020|-23.705384|-29.248856|-16.642015|0.441286|2.680738|-2.329010|0.437916|0.880605|0.179975|15.639614|1.167780|21.945437|20.681992|9.049587|-0.682954|-32.316087|-35.280075|-22.333793|-10.902143|19.387760|51.942720|47.802933|73.034878|39.698099|-74.437260|-83.021477|-109.606004|-42.928096|-32.168665|-20.693837|-12.578607|-12.975944|0.781713|-2.243254|1.024977|0.349088|7.960589|22.696376|5.862469|22.890496|15.700634|-15.815423|-25.413963|-6.384792|-27.996609|2.425978|15.584771|70.295680|95.003043|119.871766|79.454917|79.457117|69.569256|3.950952|-6.524129|-16.928934|5.783665|-34.264805|-31.082955|-30.123753|-16.127835|-3.162443|1.051629|0.957832|0.567146|26.723413|10.981536|3.293929|5.454420|-26.099367|-29.784267|18.873502|9.421402|46.900615|181.091103|188.541538|105.470723|78.130480|135.422382|115.395760|105.145564|66.830061|-7.320477|7.586454|-4.801158|-30.256060|-2.405138|-16.106279|-9.608152|-1.548173|0.347030|0.179965|-0.015599|20.048837|-0.620484|12.442245|3.114047|-31.888140|39.240654|17.938416|61.321910|136.698151|122.193128|41.668656|-73.797345|-20.253572|-20.088501|5.681353|32.665165|1.846690|17.117292|21.419890|0.575999|-1.680430|4.295680|-16.558033|-6.751815|-7.340052|-3.774046|0.142433|0.455529|12.686201|8.290453|0.734039|7.562421|-31.528296|13.180511|17.493211|51.647497|71.948245|31.160385|-19.033878|-136.649705|-117.651455|-10.883197|-54.312001|51.156284|69.375226|54.922818|68.719853|-35.028299|-24.034663|-4.321774|-6.224596|-7.663393|-7.840503|-3.989826|0.628735|0.510693|4.217481|-11.308438|-1.340461|19.419215|-41.515136|-7.764580|7.072273|-45.700977|-27.748220|-39.220191|-87.111399|-150.199544|-69.573770|-80.021245|-19.473346|-10.495293|81.572110|25.969855|31.334351|-8.739853|-31.731569|-21.570831|-14.631924|2.100191|-6.592171|-4.069380|1.206782|0.962338|-2.645713|9.138452|4.615033|1.334407|-35.971385|-34.318226|-12.577004|-75.463887|-117.620786|-123.643962|-101.432436|-88.589049|-23.071646|-45.494143|-85.285760|-0.014449|51.224023|-14.702022|11.172141|-35.638993|-29.559438|2.177298|4.168969|-15.980849|-9.380449|-0.491441|1.973809|9.875396|4.092068|-1.987568|2.922777|-13.384659|-52.990710|-56.783645|-51.152961|-149.518300|-153.782848|-119.011847|-91.329643|-40.356249|25.777240|-54.913816|-13.964319|-3.388506|-32.782815|-70.240565|-23.836446|-52.603767|-17.785036|0.296631|-12.213083|-13.315717|-5.035980|-0.381409|1.093886|9.194934|4.156239|0.449050|-0.035893|-22.119564|-24.458391|-51.646935|-60.074771|-81.238279|-82.277690|-43.553795|-54.807036|-8.298152|45.662772|61.544354|-17.435019|-48.957730|-4.115960|-85.794224|-37.550679|-24.866403|-5.309253|-4.247009|-7.757679|-15.914892|-6.316930|-1.664893|0.374561|3.128185|2.370726|11.619905|4.114999|-13.801889|-42.160036|-62.729761|-102.642986|-50.822269|-77.495431|42.528789|-16.563089|50.816728|64.073629|71.048338|24.178401|-8.788334|-25.080236|-15.729636|3.186362|-9.201146|3.110444|-19.117697|-22.607110|-20.540886|-5.914306|-3.814103|0.850615|5.547634|15.446079|13.046737|-6.053284|-6.331128|-10.217388|-34.445926|-39.759186|-106.775953|-51.205879|13.249708|17.141426|32.529707|-44.214770|35.007077|19.531214|17.468534|-17.103287|21.808506|7.236598|-22.283504|-17.588167|-44.407759|-16.938269|-10.992590|-5.346369|-3.213709|3.462087|5.743271|38.647280|11.852257|-7.156397|-1.249785|-10.547471|-18.120860|-17.296814|-45.211178|-53.314381|13.949861|-27.319352|-17.490761|-46.590017|-15.652370|-36.251790|34.605343|-4.288689|23.716523|0.655279|-45.662947|-40.919368|-39.951416|-13.728175|-21.766306|-4.399133|-2.312095|1.060081|6.495606|26.656864|5.546616|-0.265741|21.891148|-11.162081|25.671596|14.596736|4.294568|-0.599284|24.802115|-5.357900|-36.444735|-3.013422|8.779414|32.916798|15.333599|-33.642292|8.048342|-41.344473|-15.909987|-61.525605|-25.799183|-14.683186|-24.802080|-3.462531|0.309657|3.906892|6.648122|26.428262|20.762271|5.505843|-3.825557|-14.889400|19.528577|43.491850|-10.457431|87.421137|11.184595|-55.320826|-9.642671|16.282303|29.697238|46.029886|-32.106717|-16.965485|5.791837|1.883798|-51.766780|-38.753061|2.471680|-13.797644|-18.641295|-5.495620|0.246389|0.822908|5.386193|35.552851|30.085125|27.456346|16.116319|20.437054|60.530677|92.237838|10.580594|69.767236|36.541738|22.335781|7.189539|11.844590|18.252659|-18.632991|-9.349489|-18.036313|29.217694|8.175202|-19.080251|-11.796838|-4.400430|-6.903556|-2.911615|-4.679042|0.772903|0.009826|-4.592383|35.463904|17.612929|20.014596|16.067007|18.273694|38.590514|66.661710|43.695689|74.032314|47.044949|-27.819185|23.720914|37.102999|-20.835066|-40.325152|3.831428|18.345567|29.373099|37.151216|-4.901762|28.008012|6.319383|-1.270095|-8.619995|0.203720|0.709102|0.749536|-5.442330|5.735414|0.333843|-4.733811|-1.771006|-6.688555|23.373877|-1.948597|-24.752287|-0.762410|16.439243|39.030497|-6.758979|-45.920853|-6.466390|-13.633041|-40.597667|22.982490|-7.495369|-5.554361|-2.161787|3.270577|7.766077|-1.466721|0.105904|0.749476|0.537601|0.329987|-4.309486|-0.250935|-1.730550|-11.868861|-7.981740|-14.765033|-16.110268|-13.986327|-53.883240|-16.220198|15.983982|-15.665380|-35.699252|-26.162164|-51.454034|-60.105607|-54.213377|-26.679691|-27.691548|-18.687463|-31.406945|-12.062835|-7.728380|1.763137|-5.630334|0.326731|0.006001|1.813283|-3.379929|-27.410857|-8.212683|9.008484|6.261996|-5.742360|-2.007024|-12.962502|-29.211871|-22.662509|-11.111717|0.152404|-38.162562|-26.047424|-47.595754|-25.119026|-21.269204|-8.628591|-17.467585|-12.429652|-30.865198|-1.948969|-4.589021|14.906322|6.113291|0.213085|0.047656|1.208316|2.000961|-0.909548|5.283525|2.674992|1.927237|-6.095529|-16.791895|-14.758680|-22.624113|-36.289274|-30.586537|-29.461966|-23.697430|-34.273763|-36.620349|-14.311916|-6.150794|-14.352026|-8.812380|-16.237173|-14.862472|-6.068958|0.158435|-0.590785|0.140313|0.267623|0.902166|0.737117|1.204824|4.354252|3.853852|5.283544|2.916631|-6.228461|-6.245141|-7.207095|-9.850508|1.258102|-8.268327|-16.696935|-9.001270|-11.174017|-13.532802|-15.377175|-6.657048|-19.345967|-13.430952|-17.301039|-10.589349|-9.981245|-4.602535|0.670129|0.472369|-0.041375|0.835822|
~
0.050550|0.361833|0.870019|0.054987|0.642243|-6.280099|-7.912670|-10.804282|-9.060875|-12.986305|-13.886796|12.087568|18.630603|-8.801432|-6.179142|-3.709840|-5.185262|-6.005678|2.188501|-1.476867|-1.275541|-0.886533|-1.139983|-1.649502|-0.989755|-0.722923|0.881889|0.408976|0.183785|0.013009|0.327752|0.254629|-6.424071|-13.483613|-18.635723|-26.908271|-27.372216|-34.795763|-8.532516|-2.975835|26.198619|-17.087741|-9.180507|-12.502006|-5.293198|-2.400688|2.582188|-1.494735|-2.368860|-4.440079|0.535864|-0.923328|-0.274559|-0.421314|0.974718|0.788814|0.363548|0.856607|117.621913|0.087546|-35.285708|-32.743006|-42.937950|-42.188384|-5.837893|-20.809550|0.347761|1.382912|-20.451592|-23.127048|-20.865731|-15.434787|-7.195277|6.507955|2.928516|-7.046322|2.439692|-4.228500|5.052701|-13.554564|-4.652655|118.197208|0.014788|0.917538|0.302734|0.989506|25.793720|0.107910|-31.686479|-26.417816|-15.464922|-31.505102|-0.056042|17.630815|76.059342|68.942360|41.543661|1.607863|-1.497308|-8.861001|-4.839206|16.867207|14.501365|-1.894071|10.725378|3.355372|-8.069673|-6.219970|-3.222165|15.846345|0.755255|0.185723|0.731361|0.784077|2.183397|-6.973993|-39.436554|-23.138870|-23.654906|-7.703506|0.145676|99.361859|121.749259|78.362882|52.709916|-38.585204|-14.748700|3.685902|8.787126|20.926766|8.012520|14.412732|-24.325374|-11.822097|-11.947236|-15.407588|-15.272806|-10.591685|0.750532|0.325600|0.890233|-3.344957|8.737444|-4.053522|-20.827194|-42.494280|-71.943454|-52.417615|40.944606|38.794132|38.933849|138.307838|59.038470|-53.058414|-25.093372|5.813854|13.200043|31.380109|9.352379|12.235359|-12.514039|-2.671770|-8.143118|-0.458485|-1.476063|13.695658|-0.256970|0.854281|-3.156244|-2.149641|19.236207|-16.769654|-44.108259|-98.928167|-165.921655|-101.671713|-74.191392|-52.425240|9.585980|94.389039|98.021926|-76.660710|-84.008481|-11.592329|25.956968|22.237555|24.174149|5.631361|-4.906030|-6.950377|-6.541398|7.591471|2.337515|-12.080163|0.291823|1.258280|-3.376041|-8.076345|11.121366|-15.296549|-76.161130|-139.417083|-180.791588|-136.640169|-102.249441|-16.705259|-62.838051|83.530899|76.677426|-60.398552|-51.672009|-7.813410|12.298730|15.927278|6.053307|-20.643986|-2.403117|-9.555504|-12.340766|6.239925|14.670309|-4.912491|0.841238|0.135197|-3.178698|-7.549980|0.550640|-25.528349|-56.777224|-70.287416|-39.552787|-126.505178|15.473690|-22.534021|78.245216|160.316288|119.690370|-114.829143|-65.937154|-29.661815|5.737356|-23.065833|11.388764|-12.950846|-10.176948|-15.952903|-7.095657|4.632786|5.744429|16.196518|0.181027|0.631978|0.057847|-3.928318|3.077476|-13.509532|-87.322172|-86.598823|-76.879327|-119.806071|-61.062579|59.584574|131.810099|175.142236|117.767077|-132.565857|-85.020625|-68.726865|-6.184031|-14.857405|-15.511181|-49.127589|-19.351583|-19.786031|-0.741783|3.719552|5.922625|-14.433317|0.157153|0.181523|-0.115776|-0.346551|10.793220|-57.392899|-12.996911|-91.800192|-150.218765|-140.653902|-170.475780|-48.989537|147.807085|179.759477|115.403841|-143.315343|-127.842884|-40.399953|-54.761386|-59.373654|-38.895260|-62.967748|-26.436516|-29.613879|-6.764940|14.885066|3.904759|-12.587930|-0.396651|0.056117|1.018120|0.109840|-30.436134|-55.107731|-115.803764|-112.533787|3.187394|-15.483591|-206.648615|-42.706167|200.196591|112.912780|-6.910964|-26.208883|-110.148526|-26.925254|-48.868833|-85.876086|-99.221499|-83.374206|-29.899903|-33.170099|-9.187218|12.552686|4.848491|-20.278883|-0.679328|0.421829|-2.951145|-11.749090|-17.546974|-82.197475|-65.067574|-44.982962|-63.588286|-38.781231|-114.177523|-13.413632|95.196507|143.288549|-29.944830|-137.492118|-135.617047|-50.304042|-70.309438|-108.382756|-101.671252|-62.246725|-31.642944|-36.435564|-17.989791|7.850980|4.721218|-20.074557|-1.473267|0.524015|4.802299|4.606601|-30.204030|-93.906887|-39.378047|13.846475|-7.648545|-94.818827|-65.487991|-49.370204|229.349105|219.682994|110.309312|6.627420|-150.074000|-110.059971|-158.573318|-141.860934|-105.892964|-81.249671|-64.279614|-35.043559|-17.392307|12.619761|4.986698|-29.617198|-1.197585|-0.470391|4.194451|-32.348564|-64.178299|-73.287647|-40.480377|44.366712|-32.179148|-108.263036|-120.329885|-66.852804|-64.292777|241.065797|69.184278|-82.014383|-322.743291|-192.477267|-200.666141|-137.140364|-110.633543|-83.193987|-65.709420|-47.671728|-12.678457|8.523439|4.226672|-35.336392|-1.129133|0.097429|3.466573|-34.266296|-61.211293|-125.186047|-60.303146|12.878766|-33.571308|-132.326365|-58.262892|-115.250887|114.817640|141.967469|117.459048|4.204341|-211.173900|-196.639196|-168.083164|-109.329088|-79.023601|-79.196187|-70.162093|-47.962110|-13.274661|2.280156|-8.111003|-37.622556|-2.121043|-0.533532|-4.003560|-54.563900|-66.166692|-113.118709|-54.656941|-17.896589|-1.332278|-180.309640|-167.020796|10.670134|55.568451|157.873461|138.469502|-13.426215|-158.702985|-198.948625|-179.560855|-123.348968|-83.115921|-84.584393|-62.557975|-52.653296|-11.338857|4.776650|7.925469|-25.954412|-2.144311|-0.322032|-0.109165|-27.534101|-49.366975|-121.172854|-15.365818|10.999018|-59.266865|-195.966008|-122.133395|-14.196503|29.953408|280.667102|64.657088|-74.466630|-239.832090|-149.796303|-157.621168|-129.606623|-114.272650|-102.723180|-75.952618|-54.777119|-8.220945|3.926476|1.545725|-25.725844|-1.061427|-1.312960|-7.314858|-36.145471|-22.514595|-75.436653|-26.081790|63.021206|-109.913580|-113.183541|-80.421307|45.575782|209.651414|230.480600|109.163396|-49.702590|-242.315963|-160.947312|-131.325119|-125.360595|-112.772380|-106.439490|-85.469301|-63.986604|-14.168659|3.768614|-0.854702|-19.010763|-1.244771|-1.254550|22.382658|-26.625363|9.208956|-82.253322|-37.178207|19.399681|-19.768324|-160.269857|-155.252372|-10.159233|130.485040|30.840869|120.945552|-4.042224|-225.069578|-169.557335|-97.098657|-70.580594|-93.817006|-91.280212|-81.490045|-61.255449|-8.150588|7.724222|7.064247|-25.958053|-0.224342|0.219909|8.644897|-13.811910|-38.239264|-105.593961|-54.882923|48.113098|-89.994722|-107.143128|-107.050602|73.833083|100.010879|99.821497|39.952037|6.476458|-150.616787|-114.255360|-99.297107|-60.525239|-97.287866|-81.228463|-69.124384|-53.042850|-5.720473|17.925404|6.865466|-15.535284|0.088530|-0.250448|8.434455|-10.044055|-43.851843|-60.915960|-72.085489|-42.874238|-87.934358|-30.534415|-26.813153|-68.052484|176.447815|97.772744|158.513397|-21.278536|-116.097618|-152.582158|-81.831966|-64.304600|-73.672531|-76.660882|-60.270506|-36.429302|0.574911|23.726054|2.860169|-27.917869|-0.075534|0.795469|11.416179|-9.111480|4.189368|-46.231751|-51.400660|-41.727150|24.884544|-111.836249|-47.014988|-115.017669|-7.351969|70.051235|114.860150|85.678037|-32.582258|-96.923449|-52.952466|-60.453224|-87.856436|-62.482239|-52.366877|-18.398456|5.849832|25.800591|1.660955|-29.447389|0.111119|0.907974|11.374446|2.472147|31.920142|38.885694|-5.195680|-57.370915|-90.016546|-41.409395|-0.066292|1.785616|9.474727|171.256099|95.680552|66.302260|-39.529793|-30.553731|-42.887358|-37.858441|-24.333331|-25.600181|-17.794693|2.577288|24.532808|43.952230|18.393122|6.359239|0.721071|1.178205|10.121067|-3.228992|-1.141694|63.593108|-0.236084|18.462934|30.685526|-35.945584|-9.529039|48.873859|78.462337|156.447834|101.515130|85.310339|-16.879782|-40.282405|-6.390616|-2.984927|-6.510665|-5.296164|-9.235439|-5.869010|24.596335|28.984636|23.730903|35.947986|1.433033|0.529744|15.094697|2.426116|106.701104|35.041348|10.964855|-11.431759|24.499017|-14.041992|19.207696|-21.727936|30.975801|88.421166|35.113416|15.400210|-70.081801|-30.628313|-32.025870|-9.226176|-23.652040|-48.664797|-34.306474|-24.320426|-11.052267|-7.112441|-8.394637|77.209439|1.064683|0.944317|15.159696|-5.646156|-28.332187|-30.776250|-3.708647|45.264506|-10.301190|-8.571483|-79.328369|-57.895896|31.334676|-22.406180|6.024124|-57.654399|-51.612686|-11.028743|-21.015718|-16.156572|-18.293563|-11.055238|-10.493538|-2.714681|-0.382162|-0.015581|0.951294|0.785043|0.137509|0.340443|15.691682|2.158225|-36.477134|-19.210173|-35.148690|-7.667705|10.556389|-41.936871|-128.239473|-139.171350|-57.786608|33.190585|39.233226|-4.572096|-27.487626|-11.175563|-6.913744|-9.047577|-6.057779|-2.738089|-5.657438|0.038341|1.458192|0.527220|0.423024|0.572590|0.820236|0.817005|
~
0.264920|0.607532|0.677143|0.079998|0.396206|1.285595|-0.262399|-1.235422|-22.298765|-27.597372|-25.350915|-28.800544|-34.796593|-33.498018|-30.896407|-21.213506|-8.140117|-0.821199|-10.339553|-13.968974|1.258450|0.792038|0.977379|1.611358|1.188080|0.915745|0.003455|0.240670|0.393751|0.570078|0.517059|0.560655|-0.211606|-2.208607|-2.257884|-21.010578|-25.561354|-28.778641|-31.240136|-48.930620|-50.215094|-41.318003|-15.478387|-10.388624|12.079513|18.860178|33.610951|3.500602|5.174093|1.467380|-0.726252|1.334051|0.455863|0.764521|0.071741|0.988741|0.793217|0.075196|22.208072|78.543949|7.131068|-16.258098|-20.434091|-54.716613|-51.228780|-29.954191|-49.084405|-73.293247|-67.327394|-31.336209|-22.400786|-47.161934|-24.420816|-49.563660|-42.430789|-41.132487|-41.453447|-33.405631|-18.390642|-37.532428|-39.601904|-59.598223|0.571438|0.205124|0.105330|0.643179|-26.703026|17.051199|-65.233713|-57.295100|-62.036870|-80.166601|-107.541836|-107.421030|-121.992784|-113.579969|-81.271849|-70.931296|-102.855660|-51.627762|-102.528366|-100.715148|-68.120860|-61.462420|-46.769267|-46.051222|-49.570988|-46.301188|-98.748671|-105.748064|-0.002508|0.067822|0.547847|0.550093|31.462916|24.187462|-20.166692|-16.812988|-34.719959|-40.551024|-41.450113|-52.305950|-57.217427|-101.697175|-106.327352|-74.803453|-33.525929|-90.448341|-182.740820|-88.065028|-50.658218|-10.594703|-27.701091|-23.395177|-19.375069|-20.437347|-25.045487|-55.120194|0.574028|0.445641|0.134542|0.754085|16.658035|57.000744|-8.689252|-10.827405|-36.371127|-21.743911|-57.641353|-74.633855|-125.166526|-167.577587|-143.746138|-106.869761|34.933459|-122.595240|-117.644765|-49.145611|-49.443240|-42.705465|-12.651385|-9.896055|-38.458923|-13.892631|-43.013275|-78.018046|-2.236539|0.658212|0.248544|0.754652|-2.685207|50.161706|-8.224865|-37.813397|-18.348555|-33.170909|-70.196647|-140.652978|-197.979318|-71.682286|-63.094161|-61.476428|-150.574219|-60.216281|32.308358|27.002104|-22.279323|-107.294844|-36.991588|-21.344026|-42.597788|-31.832695|-39.184672|-64.071757|-1.198778|0.272015|0.660174|0.074251|39.570233|39.122492|10.554261|-13.607863|-37.130466|-68.090248|-154.657029|-303.104716|-211.542116|-127.573361|52.848094|118.267675|62.903845|69.812473|163.006062|147.057699|-16.951109|-58.222745|-79.957189|-25.477429|-55.640169|-15.312778|-45.364977|-60.447694|1.057559|1.188822|0.955110|-0.316877|30.736625|38.417191|34.676399|-10.183210|-68.998066|-110.057557|-213.778669|-297.717762|-244.395041|-86.538053|110.261974|128.628743|31.454881|40.470110|55.193565|131.804972|23.576705|-44.432688|-30.559172|-22.417756|-55.286162|-22.119326|-26.395732|-93.040463|-1.075413|0.822053|-0.107144|-5.313702|23.712049|47.752922|20.240558|-34.636104|-44.411707|-104.049632|-258.520518|-170.229596|-45.735519|-24.411339|157.328049|231.177789|177.843627|8.174115|-167.744337|119.549000|-3.327408|-4.970074|-10.399694|-43.495375|-68.179581|-27.056110|-18.290677|-62.196782|-1.068674|1.224322|-0.012120|-4.796247|25.394246|42.152301|6.921498|-52.509227|-70.188106|-143.516195|-253.117359|-151.514545|-7.814715|43.735763|202.174910|104.109046|-69.399179|-160.790717|-93.057335|22.369073|74.225567|23.581012|-99.912436|-92.361724|-82.583363|-33.166330|-18.738443|-69.627514|-1.643536|0.952741|0.887554|-8.070942|17.278318|52.117984|17.302040|-40.496546|-91.649498|-194.443187|-188.163739|-130.544443|112.676689|201.129146|-24.063337|-30.213000|23.252768|-107.783782|-264.492392|-37.376660|12.691784|-70.952804|-23.655295|-80.765778|-54.110281|-29.068620|-21.010381|-50.210446|-3.896690|0.346402|-3.637269|-12.773737|16.035968|65.077664|0.885145|-12.633217|-66.392485|-167.142852|-189.288192|-82.110563|269.080183|190.202947|104.916980|-72.479650|-265.335034|-112.279924|-193.446221|-38.144672|-8.141531|-264.834839|-151.096529|-137.528492|-39.092154|-16.571628|-21.251640|-68.879646|-1.625567|-0.413969|-7.752608|-11.128827|23.902621|35.966179|16.005659|-14.341207|-79.341041|-111.311248|-103.164766|68.493115|147.894901|221.369458|109.536262|-23.279103|-27.736046|-252.471891|-192.111001|-7.772782|-62.150902|-213.548829|-163.217258|-158.824360|-91.559460|-7.122014|-15.622538|-56.317890|-1.916747|-0.605527|-7.883372|-5.388952|18.197053|20.881760|6.018537|-22.027017|-50.950327|-131.518517|-86.112559|-13.141328|257.518068|239.052547|51.550573|-56.141609|-137.085649|-81.045524|-112.472901|-4.618807|8.221957|-192.471715|-134.546312|-167.595175|-41.134266|9.479689|-4.696733|-62.701601|-0.677374|-1.315389|1.615156|-4.243734|20.953082|26.710540|26.467103|-1.507104|-36.755148|-75.062906|-92.035554|53.728486|156.241248|145.038767|-13.707518|40.035940|81.500331|56.754321|-112.429298|-82.161178|98.767581|-0.506248|-53.166867|-8.927352|-84.286673|-30.396321|-9.984648|-61.762705|-1.206294|0.247653|1.378127|-4.645517|33.371651|6.455540|-4.348466|-34.830428|1.615910|-75.659210|-78.004181|108.659264|88.412589|89.695561|40.611927|-47.601482|72.241840|-8.533190|-105.647165|49.795086|67.481899|90.804592|106.644611|-32.985985|-98.003011|-42.377732|-23.351279|-67.021058|1.314881|2.524087|0.825528|1.508359|13.679645|10.647897|-23.920971|-42.131329|-69.689712|-65.574259|-67.484586|-12.128872|-63.129910|-60.951578|107.416711|4.186426|-97.531790|14.438474|67.366947|15.268776|-28.422469|44.593490|66.359288|-6.056184|-37.347924|-61.156678|-6.882215|-73.061991|1.670698|1.239010|-2.228144|-9.618769|0.420815|20.787923|-29.905204|-55.323517|-17.085325|-69.030048|-87.248068|-72.010758|-228.887411|-154.781450|-157.540275|23.462267|-105.102631|-41.020003|-45.713592|-38.625282|-121.167685|20.917955|84.864723|68.413516|-38.427255|-27.249505|-1.137296|-73.409853|0.851720|0.550429|-8.248866|-8.842939|1.020551|-2.671662|-44.001608|-39.756602|-41.421916|-69.218785|-121.635810|-78.799739|-55.847252|-69.420344|-7.366645|-56.070611|-135.421282|26.975127|-207.232948|-89.358923|-151.157651|4.462384|141.938245|28.868709|-2.303993|-35.206175|-0.212125|-79.336709|-0.036974|0.462534|-8.490095|-9.982919|-27.514710|-2.228022|-23.444853|-28.826311|-48.432446|-62.757733|-106.119274|-49.695621|-12.930359|-27.752657|10.006004|55.406857|38.520835|37.316014|9.093183|-1.637357|-16.628764|-6.597789|65.044385|-12.252334|68.114197|-20.374448|9.015313|-76.620392|2.944992|0.630376|-8.551621|-9.333766|-26.948811|1.792097|-52.667391|-30.906863|-54.447958|-82.911024|-110.130941|-22.720895|-82.261458|-43.689261|-0.242672|-18.294765|4.109674|-60.763334|-70.700593|-43.104668|-118.531520|17.509230|-38.270943|23.634774|-8.550037|12.907510|9.798506|-76.099045|3.656087|0.589973|-4.659724|-4.944289|34.099139|2.542048|-19.012635|-36.741009|-57.289213|-35.937748|-63.785387|-30.946783|-60.307849|-26.606488|62.145195|34.408745|58.448816|-34.590862|-24.104913|-128.892971|-147.020158|-1.631452|-16.016225|0.595850|5.870307|15.748897|15.990238|-99.666890|2.330615|1.112144|-4.069902|-3.036373|-23.620959|-4.141841|-41.429201|5.181088|-10.513569|-3.610393|16.688615|-7.703682|-40.665463|-86.616071|-88.833360|-66.517849|-128.133726|-129.452957|-90.320622|-136.573832|-60.879954|-1.892853|-46.974246|-32.930904|58.038261|19.080556|20.014573|-93.557808|1.610173|0.826913|2.063361|-2.376930|-96.286486|-14.087767|-39.608452|-4.895484|-12.244345|-51.278782|-54.978379|-59.431700|-25.203604|-68.038073|-129.041295|-182.577968|-213.918372|-134.287677|-74.696745|-40.097250|-63.315750|-76.546942|-48.233604|4.375258|-5.306564|-4.329198|-37.691399|-85.400182|0.419200|1.012636|0.600798|2.389655|-34.684619|-31.985308|48.054984|22.844846|26.745726|-11.076372|-10.173938|-40.471668|-27.533656|-17.958070|-79.572721|-73.761632|-70.759414|-87.633908|-72.934585|21.237314|-34.412220|-19.247937|-69.321048|1.330167|11.802634|1.451340|-26.055058|-81.104103|1.732946|0.425856|0.822707|2.100069|2.276540|4.133021|-5.702046|-9.840425|-15.930610|-28.906421|-51.984819|-61.498891|-48.151923|-6.393413|-27.561351|-51.339937|-57.079029|-3.934496|12.958193|-11.897022|-61.617123|-70.739526|-36.211077|-7.793955|-2.421241|3.644334|3.349371|2.582522|1.081440|0.553345|0.205673|1.594928|2.604685|2.090774|-1.498736|-4.423219|-15.297440|-22.810674|-51.127795|-61.932689|-74.818142|-50.991321|-63.971398|-70.423947|-75.344912|-86.392766|-90.072842|-95.189763|-93.224984|-68.941899|-37.338704|-18.496729|-5.470922|-5.829605|0.581834|0.802280|-0.720059|-0.895821|
~
0.337205|0.547457|0.978244|0.613025|0.839051|0.593230|0.199266|-12.603346|-13.053705|-13.159611|-13.732231|-14.313655|-25.768552|-24.153771|-21.272501|-15.527547|-8.013856|-7.623645|-3.135544|0.470006|1.347799|1.481772|-12.577033|-12.620731|-12.123051|-4.935884|0.851779|0.910217|0.862955|0.940369|0.408853|0.394987|-1.142968|0.181983|-12.420338|-12.856241|-15.042515|-17.176080|-13.510315|-22.633704|-18.838862|-29.410799|-25.002884|-26.614149|-18.063222|-1.617217|-8.182743|-9.872212|-2.019524|-6.220255|-4.368686|-12.986253|-12.375461|-4.976777|0.525948|0.393715|0.847948|0.377727|72.237571|20.143957|38.596639|22.310602|27.109995|15.407664|-9.177900|-41.371913|-28.083782|-44.708090|-4.831845|-15.930733|-3.456562|21.448752|38.507423|42.578603|55.315155|20.399473|34.458344|42.871963|14.035809|44.140015|46.240013|57.153265|0.222067|0.891629|0.929097|0.748015|69.819042|46.474525|30.600422|20.456300|-0.670262|-12.942339|-29.242774|-45.031326|-64.344756|-64.799337|-43.777835|-70.841576|-102.716968|-33.449427|-5.741748|24.254650|23.891419|42.004489|15.819541|8.866988|-1.124425|35.913405|78.012222|39.882617|0.236688|0.254447|0.752108|0.433467|56.780289|33.872704|7.243775|-27.206498|-35.369106|-68.978372|-47.207420|-73.057000|-36.482404|-67.082715|-28.324921|-80.993917|-161.151381|-108.156036|-95.110732|-11.974670|-2.421456|26.169695|9.421065|-2.259327|-8.832772|8.758854|-14.326590|39.476446|-2.037088|0.282731|0.428723|0.234192|16.082711|-2.696383|-11.414432|-62.646590|-49.609696|-57.526015|-78.276485|-51.836214|-34.574384|-75.512368|-119.614134|-134.230677|-176.641551|-173.291046|-141.274351|-58.520321|-21.232946|-16.003611|-56.646307|-42.320208|-20.624916|-13.245348|-0.411892|13.516380|-5.888201|0.384349|0.594039|-0.243541|30.292191|-14.568515|-7.298215|-20.786238|-27.825916|-54.452804|9.802576|-37.194925|0.073733|-61.196986|-16.375687|-42.734854|-50.453662|-30.058280|-6.626510|42.452622|-16.088985|-7.814749|-44.723653|-45.844861|-50.849764|32.558423|0.256025|24.547328|4.284773|14.060249|0.470298|0.501522|-5.293086|-8.929693|-3.491532|-4.055751|2.593109|42.071756|87.691090|48.219006|7.251264|-20.901342|-17.346313|0.837936|11.313388|35.205698|105.519701|56.596414|-23.453199|-7.860976|-9.948465|-20.091767|-39.686246|12.048812|-20.693151|15.121268|4.894636|10.624678|0.710397|-0.791010|-0.516380|-32.966160|-35.534662|-35.958892|21.888556|66.774885|58.617016|75.341418|23.817665|-61.075190|82.675534|51.198712|31.138562|18.695121|115.499238|133.604699|62.166829|6.259213|60.197218|9.166780|1.854629|38.442357|2.272430|50.491784|10.516764|10.915953|0.627668|-4.915067|-5.401936|-5.089294|-30.426878|-18.760670|33.162258|48.572741|-35.542065|37.206017|-62.883335|36.471055|-28.787185|-31.850917|38.682638|-20.400891|101.177220|123.636380|53.817052|7.110122|49.570086|39.882050|17.438538|21.445545|22.602427|60.253829|20.552906|2.332640|0.735953|0.837158|0.920549|-48.993527|-19.862470|-9.727026|-20.371537|15.701480|20.042498|13.232078|121.954126|138.801790|4.315534|-3.843715|-26.424798|19.930197|68.215038|103.664616|126.104597|47.230977|-0.345990|-16.916913|-15.856533|42.111987|45.113942|77.072789|30.667440|17.841127|0.189007|1.324826|-14.093517|-49.975966|-7.094042|21.906738|20.547613|67.285956|6.850691|-17.154352|40.491960|-29.649784|10.423928|9.043608|116.007662|32.276595|39.002327|166.769992|95.877959|58.778702|-6.678689|-55.447250|-1.508368|53.067873|37.537927|56.795574|17.424805|17.791803|0.239859|-2.374816|15.783687|-16.243212|-8.739491|62.651719|30.682829|11.530636|-88.747671|2.145851|-43.280378|31.517109|29.130349|72.681289|95.945952|71.426201|17.046647|21.645705|26.573249|-2.538547|-109.478467|-81.250085|-51.198350|8.695303|18.386506|36.065375|10.840492|15.309865|-0.780867|1.912263|-0.358884|-9.952116|8.807616|38.074067|-16.589392|-57.803663|-62.107508|-68.119842|-79.712884|-94.440985|-85.976728|39.129518|-16.854575|7.436946|69.003311|-66.655549|-52.239217|-114.206325|-146.137547|-98.010668|-57.420877|-2.029120|49.093413|22.626830|2.540070|-10.178741|1.352381|12.843120|1.784845|-26.351385|-13.137465|-16.011996|-114.262855|-145.864259|-127.350602|-114.442033|-164.882474|-165.688206|-141.306839|16.174228|45.220855|21.277439|-60.477998|-41.507360|-161.699404|-161.975095|-97.002810|-54.828833|-55.788903|1.633126|26.812110|19.358328|-25.903020|-10.146219|2.224881|4.522932|-26.481864|-35.206337|-48.259379|-89.771631|-96.451926|-185.521134|-59.756999|-34.664761|-101.583338|-10.688174|20.147616|55.117034|21.591833|72.860303|36.647624|-76.727681|-193.645757|-153.493352|-99.147296|-55.673636|-38.360534|0.977650|6.312630|18.106057|-17.012012|-3.009284|-2.322184|-0.930874|-52.228029|-25.990603|-32.453464|-68.036825|-107.619367|-109.023247|2.959083|-72.498848|-72.700016|-45.381580|111.309252|61.075612|79.544898|-20.569623|50.659836|-141.681374|-229.055622|-164.992836|-93.237065|-61.455162|0.413719|-2.430327|4.027979|10.706690|-12.500494|-8.816232|-2.520932|-2.517993|-22.129785|-38.135713|-76.876385|-41.794860|-85.404796|-59.346009|-45.883169|-112.648214|-57.850490|132.475848|62.046553|66.151721|82.303319|-28.292079|-160.162093|-219.493491|-211.373664|-106.883697|-95.804978|-24.697889|-22.884026|-11.483187|-28.194812|46.445465|-7.438124|-6.054056|-5.461177|-10.771131|-27.846612|-15.901606|-111.193969|-67.643491|-75.010349|-135.100561|-13.538936|-94.822156|-21.854350|140.843523|187.833621|122.478214|87.476592|7.217233|-199.437448|-208.067904|-137.738519|-99.598596|-85.857977|-37.084080|-14.495784|-6.645968|-28.346837|48.821568|-3.089388|1.374151|-2.647494|9.726720|20.801958|-11.729019|-41.183199|-66.831613|-22.579848|-101.753074|-88.174111|10.141587|14.235649|110.170592|216.286427|79.456380|48.999001|-174.689034|-188.738051|-164.881730|-95.035676|-59.951457|-62.296207|-39.734557|-27.907483|-52.481877|1.766538|40.450495|0.499048|2.433021|-3.306666|-1.981322|12.710968|-22.144925|-40.958271|-21.883008|-44.547925|-39.174312|10.713352|-26.459265|130.385909|145.009608|71.593857|35.736583|7.230336|-148.586593|-161.870590|-157.081967|-95.516829|-52.799064|-17.557351|-23.431898|-16.698560|-4.762270|-3.952597|39.346336|-5.757177|2.314403|-0.316323|-1.836067|4.761109|0.501686|-8.076965|-22.136198|-18.510849|-76.112050|-29.287968|-11.367464|55.393252|128.681057|155.084309|47.519583|-99.235652|-192.061139|-151.372889|-129.691709|-58.689206|-13.379361|13.167051|10.845338|6.841522|-6.791424|-20.395012|43.298902|-5.431712|2.464293|-7.408318|-10.446814|10.100861|17.704926|40.795883|71.933603|-14.860190|5.658932|65.012379|71.273517|76.176047|141.490837|73.869642|-56.830444|-96.294261|-169.909439|-140.714414|-85.895250|-51.916761|-3.576217|9.333452|1.165399|1.361912|12.178683|-31.823213|38.599733|-3.794931|0.267802|-1.128597|-7.716743|-22.104465|-33.308741|74.377114|25.195585|58.772360|127.390602|114.989550|69.576555|92.918634|23.683160|46.818995|-37.012786|-58.257435|-147.105170|-130.037492|-84.078220|-42.203952|-33.989859|4.183426|8.667305|-3.263179|-7.245462|-21.576852|33.123660|-1.031175|-0.335202|-6.910279|-5.048861|-18.310273|-16.468049|36.964180|22.259393|20.014134|172.417610|186.243185|138.105727|102.619072|81.545480|49.290623|-104.082812|-135.844105|-110.733566|-89.927174|-68.484978|-12.363649|-13.174852|0.659591|4.982702|-14.526682|-3.990095|-12.246280|11.324558|-1.194515|0.612791|5.075072|-3.519389|20.444249|-6.779824|11.013951|-40.744907|15.054757|97.003066|83.046860|77.641176|119.234518|2.315372|-12.190361|-150.478877|-150.306749|-76.642278|-68.885707|-50.147439|-4.826413|19.333161|31.223266|47.172271|21.324537|40.845456|32.878273|60.402832|0.192644|0.340042|5.501842|-3.240800|11.177715|19.191076|12.680832|-11.514646|38.707312|75.435646|96.995787|78.624017|-0.741597|-5.687788|-105.238478|-131.667852|-81.218848|-94.752766|-29.964667|-31.903249|-22.428366|-2.977885|-23.441543|-9.173290|-8.231592|-2.037425|1.995230|0.529702|1.026207|0.727352|5.043248|-3.810832|2.794096|14.255129|27.064712|48.231879|44.375265|44.509327|72.112556|56.420449|12.126332|-75.795862|-105.480042|-99.863824|-44.872875|-41.096659|-26.453600|-10.905622|-14.492555|-8.686031|-6.401833|-6.875637|-3.213617|0.187671|-0.088479|0.640158|0.413691|0.208090|
~
0.796957|0.328131|0.981700|0.140618|0.599949|0.113132|3.538513|-3.404919|2.621224|3.171107|8.276184|9.709706|-3.728897|-21.225949|-15.856980|-12.804596|-18.493512|-19.371223|-4.589617|-5.209990|-5.303418|-5.283546|-8.776013|-8.313363|-6.334894|-6.365933|0.424780|0.310507|0.068344|0.804873|0.601113|0.931579|-1.122826|6.077075|-2.688377|1.143052|3.285855|10.863391|9.755474|4.502458|-15.875348|-19.891515|-12.020207|-22.773414|-24.680935|-9.935528|-6.486098|-7.015850|-4.746494|-9.711705|-2.365581|-8.232058|-5.999297|-5.576843|0.340460|0.804837|0.076291|0.765240|-18.114846|-15.028636|-6.433699|-15.833209|-1.807521|7.700018|-24.499299|-36.440835|-11.242582|-20.744950|-16.041602|-23.946942|-17.352070|-18.103246|-32.271834|-19.807322|-8.663414|-32.344109|-19.640193|-24.656305|-33.761635|-16.357975|-15.745000|-7.473009|0.112701|0.449843|0.216799|0.453161|-0.159007|7.855947|-1.613431|-9.855062|-0.793703|-3.684022|11.926740|23.727861|9.705219|-6.468991|26.726105|1.541264|-9.812886|-43.776843|5.684763|-13.483521|-10.786651|-11.986850|-1.929853|-12.224974|-3.871654|-10.932800|10.053203|-1.863203|0.506513|0.486664|0.995640|0.593931|-7.215447|-0.975509|-0.121033|-8.685600|-12.336832|-5.876538|54.777497|22.964874|25.520463|22.358487|54.270067|51.960132|14.858494|46.272869|25.878717|-22.880770|-34.629685|-8.355109|-15.215773|-14.095539|-11.948310|-13.512971|-12.276007|13.524809|0.661695|0.003551|0.642142|-5.484707|-12.442450|-13.972091|-26.204857|-51.294554|2.519594|40.080577|31.371509|10.144288|44.972356|57.398250|7.673012|6.655770|7.588983|28.523356|32.930888|-20.387230|-19.502250|-21.516196|-46.894647|-27.236524|-22.476742|-14.229960|-13.290358|0.188868|0.633071|0.490415|-5.321471|-17.694459|-11.268951|-24.339859|-27.571954|-3.668685|8.569356|-2.583932|12.004648|14.549278|9.224769|-9.856733|54.532904|21.183488|23.817038|21.898345|22.161573|61.326878|11.473236|1.654423|-40.540780|-31.350096|-14.837550|-14.505775|-25.720186|4.004348|-1.233996|1.507011|-7.072814|-7.198241|-15.372167|-17.028505|-24.529966|-3.905902|21.706065|24.335431|6.158763|-26.515545|-35.281315|-48.294617|-24.387570|14.659112|50.189984|56.657527|79.189183|99.000217|56.493481|-1.964059|-7.426276|-28.138789|-15.601378|-14.844102|-19.912189|6.303926|-1.199167|-1.597978|-4.809995|-16.534110|-12.282591|-25.963432|-5.017685|15.903497|-16.928814|8.339571|-23.851580|-0.213661|10.915401|-73.539286|-11.381883|13.896509|36.915339|79.828104|104.755685|117.295423|54.118732|16.754866|3.254759|-20.056875|-7.091267|-15.478341|-17.278048|-15.873933|-0.724718|-1.012002|-1.216871|-7.397080|-19.718169|-16.454350|-11.601389|-27.951246|-37.218340|-56.777125|-40.172158|-42.431783|-73.652400|-43.312286|18.338087|2.843096|86.822245|94.393457|82.122084|90.316773|27.093118|0.775171|-24.776188|-14.708427|-7.523261|-10.047668|-7.456099|-0.370321|-0.526286|-1.795102|-1.654550|-12.983213|-26.117433|-18.031219|-16.284260|-16.614257|-74.276884|-29.331409|-28.239683|-61.892106|-71.057195|-98.347739|-83.422592|-49.409860|107.022424|141.892197|18.416085|77.835434|24.455408|-46.599896|-49.614645|-37.560051|-11.867881|-10.252662|-10.176088|-2.164504|-7.154384|-1.869434|0.731425|-23.282758|-22.002002|-15.403052|-37.962740|-52.139210|-92.665069|9.799658|23.933669|-34.431852|-34.796611|-74.010813|-65.096358|97.041122|108.303525|83.371685|13.294744|85.182883|-52.242371|-80.467946|-62.936728|-48.803158|-10.875415|-20.411857|-10.150098|3.244487|-7.367220|-1.511986|-7.300009|-16.468682|-4.194702|4.080125|-14.251275|15.690675|-18.931800|8.858731|0.639762|3.409224|-42.166021|-118.585300|-52.116394|67.677762|84.699478|36.178694|0.262813|-17.664824|-92.903954|-113.127082|-80.349209|-51.756173|-24.307211|-25.474316|-11.512279|-8.854287|-7.696861|0.100748|-4.250282|-1.036970|-8.312639|2.220249|1.030315|-25.506926|-20.992654|-3.070485|7.618984|16.852682|3.453600|-0.786134|9.704021|91.615975|56.513820|43.955264|-63.687154|-128.213737|-123.757825|-152.226656|-94.347552|-61.433384|-34.422233|-25.482575|-3.923052|-17.093800|-7.590263|-2.247755|15.897742|4.863549|-9.252884|-13.437077|-7.692548|-45.591696|-47.417136|-21.978116|-3.244671|20.900952|51.776026|1.609567|-13.973749|5.424902|-19.174092|-17.943504|-55.241351|-137.125204|-140.303092|-131.730990|-49.311442|-49.423021|-26.846425|-21.185714|-14.062665|-5.486341|-8.872749|-2.499787|14.483192|13.506694|-1.609843|10.459065|-25.327155|-58.131315|-26.985277|-12.026584|-45.287217|75.660129|88.418570|85.330630|76.574416|47.390208|45.846691|-69.213382|-78.698762|-83.230395|-82.045638|-62.282550|-45.629521|-38.401612|-27.112355|-27.176302|-1.579951|-6.626757|-9.727297|-2.073868|1.178095|11.910690|-8.030554|21.755131|-12.798480|32.476376|19.844670|-44.028491|13.902983|31.041042|20.911049|-40.813396|6.666020|28.905488|-2.032533|-66.537618|-60.536401|-82.667383|-92.229156|-64.632896|-35.310204|-20.010599|-19.717567|-23.259645|3.294792|-5.587505|-9.669801|-1.942465|7.730453|11.537867|10.735433|-14.064709|-31.299688|16.909989|29.536847|6.513985|-5.417037|-29.466856|20.066230|38.610517|-9.773361|34.238492|21.747555|-2.015690|-72.486585|-79.510410|-73.654637|-37.972390|-57.995819|-28.613692|-20.233164|-20.272730|2.810474|-1.246648|-4.026263|-2.306087|7.630947|-5.863105|-4.611005|-7.898773|-21.883530|10.450316|-0.050364|-5.508214|12.074612|-28.941435|1.740963|27.768642|-18.554295|30.314761|51.074923|9.304926|-69.157487|-62.533422|-55.338080|-59.315910|-47.689765|-39.440341|-17.601743|-15.947271|-2.045801|-2.399329|-3.911949|-1.691163|1.422615|12.644634|14.695632|-0.384836|5.477842|2.869391|25.991488|19.749153|32.556045|63.928307|37.246855|-0.866035|67.268889|6.511674|57.059360|-14.184292|-72.598912|-54.344377|-53.321830|-43.840532|-35.548398|-30.686093|-20.523915|-19.838515|13.238074|3.488192|-3.484356|0.002736|12.885895|2.961950|-15.157172|-16.924953|-22.330159|-8.548705|-3.400563|-0.369389|63.047225|8.130769|27.440713|28.975708|5.302837|-28.852671|-10.795425|-48.223298|-61.398199|-42.553781|-40.361556|-26.205135|-16.184436|-12.928407|-13.130683|-12.794002|9.171820|12.342604|-1.818449|0.399102|11.435575|-9.911789|-40.657621|-21.005215|3.178583|7.032608|26.317327|0.322119|24.726885|40.299283|52.173300|56.603873|44.044164|-69.591269|-58.869720|-30.323733|-54.783595|-34.424932|-27.216295|-15.463447|-15.393791|-13.489114|-2.111439|-13.983131|5.449830|-1.474434|0.533034|0.849876|-3.744765|-18.004509|-25.030530|-44.039717|-16.481957|-2.218898|16.198887|48.531660|37.942478|7.572852|17.716746|8.203428|-29.659204|-74.374751|-62.547613|-57.428392|-42.800225|-42.707086|-36.664048|-26.010728|-13.557611|-18.392115|-5.762339|-19.858909|-11.083156|2.595730|0.314812|0.917055|4.094371|-7.254936|-18.466075|-3.163307|-5.875035|-13.854966|31.973574|52.483375|-3.076703|8.328791|-31.442006|-71.425917|-27.900518|-63.145267|-43.711771|-46.427644|-32.835119|-39.384601|-21.338193|-13.673540|4.925053|4.185390|14.630670|10.026969|16.528018|33.850878|0.394731|0.222676|-12.063509|1.378502|16.085736|24.043479|20.326279|17.492645|2.822508|50.973424|20.814008|2.611100|7.121610|-13.661888|-13.009693|-51.125786|-21.248896|-6.109801|-7.923378|-3.685214|8.815785|8.773271|18.166557|26.541122|28.633526|28.814152|25.498168|15.029449|0.136254|0.857532|8.066464|2.880204|-7.891363|5.259507|50.354634|11.029804|2.177457|21.714687|23.302282|22.373354|15.788179|-3.455737|-48.022868|-66.810685|-28.330782|-29.443483|-6.374357|-18.044665|-9.453672|1.230449|11.563702|20.811861|27.797617|15.957811|7.642171|-1.617140|0.096669|0.662994|6.338159|9.315431|10.130967|20.036501|11.014051|1.133035|-0.688838|-8.429168|-16.676405|-28.496499|-44.605787|-37.266333|-56.274073|-59.703146|-59.664428|-48.292832|-19.133999|-17.166052|-10.944443|-8.813797|-6.112457|-0.469817|0.327753|0.841377|1.004661|0.492431|0.183386|0.801754|6.483192|2.902497|8.853910|-3.157915|9.607152|9.425761|12.436125|-3.188600|-20.755874|-46.648668|-53.574498|-46.662396|-39.034407|-42.016945|-25.748867|-19.954709|-15.538295|-12.653507|-10.131708|0.836922|0.060436|-0.037092|0.620185|0.394938|0.711888|-0.088660|0.240023|0.872057|
~
