3|200
#
~
0.461784|0.049289|0.053293|16.017407|17.418691|11.798204|35.130078|55.304678|20.712594|-5.023587|-17.206017|31.251080|74.174460|51.067939|79.025669|119.977082|15.257487|22.630851|1.426404|-5.391203|17.607368|5.036850|1.829374|3.110416|8.144398|9.384207|0.077387|0.330962|0.237948|0.171304|16.453874|24.756051|14.700397|-2.962714|32.694845|-17.416677|-5.621920|16.802346|23.028879|-36.731276|-105.902498|-65.873173|-24.420761|178.465118|83.990593|-51.603040|-25.689931|13.492906|49.337077|7.792730|-21.077238|-3.730519|-3.184567|-2.285200|0.953138|0.579581|0.076689|0.030525|91.216186|-18.373770|-256.326467|-348.966878|-326.294115|-358.480708|-414.301745|-406.584960|-341.427954|-316.010075|-249.193735|-241.085952|-172.894484|-278.533992|-149.709436|-395.555826|-210.337641|-144.761018|-79.382987|-232.428500|-253.080259|-262.372055|-487.182180|-39.660796|0.834172|0.693254|0.531289|0.787310|166.242448|-137.841535|-234.678761|-65.278079|-309.792767|-243.829965|-214.456882|-258.099248|-36.517251|-236.662777|-54.826622|-229.557348|-750.941963|-730.222191|-479.640332|-221.851103|-216.881236|-229.688217|-175.974796|-193.821440|-160.647868|-358.206171|-349.927187|-70.799696|0.974841|0.422264|-4.902228|-4.902895|235.761033|-57.560094|-190.244988|-205.031537|-261.097612|-261.107930|-100.908275|228.179270|73.313354|121.937395|-4.352723|78.345819|399.327696|-568.829965|-504.491958|-25.650854|-70.555196|-80.328348|-50.139953|-147.445233|-116.047192|-103.224779|-266.614239|46.218321|-1.762263|0.413421|0.136692|28.594420|326.115470|-132.698880|-134.739287|-364.471715|-272.179284|85.740064|614.676929|241.366976|76.014584|-87.316824|-161.385507|-35.471133|614.204631|-285.761401|-377.970273|-31.810900|-209.802805|-424.954426|-157.516499|-85.082870|-225.477267|-208.260379|-194.793827|113.921145|1.825649|0.134958|33.759923|20.124142|204.177514|-328.612077|-171.813116|-415.480034|-83.079546|287.673148|212.610026|-5.913253|-243.291652|-215.919668|-117.278738|236.872931|-39.544205|242.858749|-489.943547|-359.301178|96.129761|-282.271925|-124.944573|-93.034302|-224.855273|-209.260951|-157.674412|261.452922|-9.771450|-15.226398|34.840240|-29.059499|-51.559717|-300.211214|125.380745|-158.465775|106.123961|355.096065|-235.391884|-476.009587|-541.599342|-491.984826|-240.338288|310.065262|816.852894|624.790767|210.785467|31.613254|40.190184|-175.007568|-202.786193|-191.527722|-183.203697|-240.384705|-111.667800|327.498119|-12.781490|-10.549753|-42.084031|-126.052090|31.979988|-348.046805|167.992541|-34.935155|277.442707|835.506055|-510.535937|-1204.463226|-528.695166|-148.830098|-528.506130|458.142258|920.180590|549.347057|519.186590|160.752656|103.084133|-80.187485|41.434936|122.633497|-171.995801|-336.192239|-49.194483|86.762745|-3.242686|-10.380496|-81.193252|-101.357262|-8.812795|-121.255244|-3.960029|114.374504|228.137905|406.438856|134.447867|-460.746662|439.357887|468.221358|171.172231|337.375097|44.167344|-733.193906|-404.972804|-66.826299|-75.159871|-41.108195|24.192145|-106.359991|-214.301770|-199.089416|-134.751597|143.718155|-3.169094|4.176304|-28.198406|-110.941277|-68.326578|-25.924770|-304.712161|405.227178|-207.324085|165.540352|-114.798617|-296.481903|578.769279|645.287353|-382.828208|451.338811|86.226180|-713.544607|-670.298806|-984.315938|-105.743347|-116.682265|-5.486866|-326.290753|-67.594687|-156.951466|-118.199548|53.474761|3.764990|-13.055850|19.297665|-213.197759|254.496299|390.115872|153.466268|452.436879|-494.074120|218.533539|574.402591|388.800524|-90.366818|973.743217|92.079587|4.395928|886.733575|781.347104|-206.597788|237.893178|-469.284169|-322.487140|-27.290885|-176.276942|-222.611370|-181.408170|-116.977770|149.051114|9.035104|-1.619328|8.349576|-143.630587|370.363762|204.021642|521.377864|338.683419|243.448832|-123.418520|-507.119038|-476.150947|4.946654|216.913871|-307.865016|194.379096|-408.049115|142.205794|374.403028|276.385656|339.709074|-512.406151|-222.262518|-89.331330|44.854980|-121.379306|-123.255102|186.750101|4.252708|-16.538457|94.461895|12.922144|536.807944|66.294323|332.321368|289.047703|-163.109131|99.764182|-184.560362|90.907959|54.131740|519.504236|388.767910|-387.070637|-720.542217|-809.971312|-561.389729|-203.194193|-74.627515|-15.771714|-21.997340|-446.249865|-184.158460|-3.645940|-37.449735|103.692160|-10.777645|-30.603773|150.641801|88.969402|760.988048|225.891006|382.721525|-54.349633|-237.408327|-754.380543|412.178027|805.745054|331.400931|69.815060|777.514810|-444.843105|-791.513006|-673.078911|-1126.338954|-304.413433|-162.846097|325.290614|-87.712787|-200.028101|4.037446|55.979461|66.717906|27.926440|-2.000092|-30.663347|4.715913|225.578834|941.360610|307.198243|229.862722|100.493231|-531.346445|545.360424|343.071243|-556.037201|59.791309|1378.155618|38.229638|-638.168852|-527.852225|-571.475151|-800.249122|-472.122328|-163.310708|-221.124906|-96.701564|263.338614|7.211887|-50.263991|-20.048721|196.935243|7.038051|-12.437860|65.124874|179.260714|1053.761647|589.345945|620.198094|204.984777|496.310107|1627.562871|-9.694007|-1083.948729|-246.504280|-29.577972|-549.296688|-408.452510|-682.627644|-128.895053|-508.868407|-19.894122|-495.247414|30.111509|576.933586|185.575909|-202.557291|14.677611|12.034348|-32.536693|15.822362|7.376433|22.343493|15.751875|823.627483|426.459630|938.777602|334.578999|661.030011|826.442459|725.295310|-399.951339|-449.217475|-530.388120|-23.160505|-335.047909|-167.804952|-287.995289|-63.501418|468.738291|-5.956844|173.909188|423.473092|48.016838|-94.862173|-76.440891|140.976108|-29.692909|19.749880|3.775705|-105.158913|32.660232|641.411062|307.310510|585.404236|56.523913|718.760179|1336.194232|1406.265342|47.878642|-766.148231|-446.305234|117.626003|0.642569|-388.843694|-297.666372|825.848313|415.110163|360.135410|174.956315|127.788842|-171.860895|-144.555204|195.983696|156.739255|28.859908|44.492042|3.564464|-53.908774|13.045325|23.027370|220.255258|-69.913584|343.488247|556.495398|1315.440262|857.885514|85.572466|-1340.722943|-769.586451|439.313131|970.390982|-327.509724|-28.185665|105.865610|-175.178039|-85.968790|-130.637620|-82.300340|-106.824888|-8.760296|281.594943|87.760162|-11.116739|30.602831|-5.666739|-52.911826|88.100091|-119.597661|258.349934|125.387197|295.284187|-34.286968|927.160763|312.172047|-121.954969|-580.594813|-515.106878|-342.135877|-60.738055|39.968292|-273.554869|18.173514|-15.889547|-52.759576|-36.457172|-295.439230|-291.625590|82.708738|218.605225|91.592599|-42.007618|26.730244|-6.080015|64.677407|278.796581|97.918531|320.987307|690.162493|495.001570|15.409211|1111.084239|944.085143|929.557010|64.509133|-106.314352|-372.029715|311.427674|460.962098|151.371169|116.975669|59.439627|-375.076124|-197.625274|-332.531423|9.564292|22.457034|240.529743|146.203682|-104.862196|38.465079|-0.823950|139.284550|290.106121|410.569329|347.846905|335.115539|-327.753611|181.865494|367.108489|752.432729|165.837973|-521.429089|-350.970185|-560.210650|-24.687552|328.856163|-374.040888|-167.213241|-429.296283|-376.342878|-193.595712|-141.791177|75.413902|39.942818|49.966283|13.262811|-103.552769|28.978732|1.996692|98.785018|250.259550|229.782642|168.582129|-23.033398|-30.726166|618.376405|549.370269|418.316375|-75.829980|-444.550114|96.391726|212.454873|-142.102323|-315.929592|-590.376554|-404.200533|-22.190848|-200.984445|99.813582|-188.235369|82.018328|110.339088|-173.402474|-7.997708|-119.172826|37.807810|-0.816138|15.682343|311.148884|555.838521|209.266384|213.426955|37.788893|676.007212|131.381932|724.946294|138.147517|98.478723|-162.060979|-23.999728|-0.555787|-173.185213|-383.454782|-152.737295|-218.940179|-81.819998|-74.514515|-236.104784|-48.689626|-57.904147|-251.805031|-87.941846|-133.195669|22.444521|-2.593347|-57.460190|76.792517|22.197111|177.252721|-6.640276|104.228838|213.085262|247.461531|89.804158|136.186850|-28.300662|-180.994962|58.810545|-147.758124|-279.631590|-157.028538|-186.245810|-512.867369|-325.648765|-129.118863|-200.235051|-235.250475|-123.479427|56.992766|-14.590068|-577.430076|13.147618|7.924972|23.288282|14.704277|-18.200007|51.226412|-336.731202|-418.263201|-385.338983|-401.654739|-254.069561|-501.461574|-256.567091|-151.064947|49.863713|-123.603384|-298.195355|-354.851587|-262.421553|-199.125457|-94.659694|-26.985765|-46.858349|-57.367537|-13.847623|41.302884|31.003458|7.620270|11.616669|0.590251|23.494823|122.240652|45.000632|10.193998|-140.719656|-58.461220|-236.488967|-172.472030|-470.209600|-525.644541|-565.465799|-314.403638|-297.264820|-276.293692|-349.231268|-492.146558|-314.872833|-316.594488|-48.147424|-79.633840|0.372947|-20.459597|-16.103392|12.896425|27.144756|6.472457|-3.155846|-3.531715|
~
0.465202|0.152361|0.567766|0.968227|-13.478534|-23.780972|-28.125943|-26.776841|-44.273280|-71.384455|-67.012896|-63.039205|-26.378630|-37.860301|-84.047287|-87.759290|-85.672716|-83.132164|-79.980809|-74.851143|-64.908194|-32.868846|-21.733812|-6.662276|-6.437699|-6.437671|0.079811|0.399438|0.286058|0.297051|0.934702|-1.311556|27.528192|33.846296|34.054987|-30.974543|-31.070734|-24.606726|-36.859554|-40.401027|-21.326108|-52.090991|-104.236300|-106.382884|-99.854200|-65.799451|-74.469541|-68.998805|-91.760405|-123.155273|-82.719732|-15.652465|-6.528004|-5.799594|0.769852|0.783210|0.123376|0.849663|-28.073866|7.101701|6.975763|34.417055|-0.738186|9.412865|66.915190|54.083096|44.951010|25.405623|-43.716876|-26.781694|-81.929577|-71.426937|-110.126665|-56.931973|-65.722459|-59.136980|-109.489673|-163.107321|-159.377938|-86.216465|-30.844461|-72.935301|0.713467|0.184209|0.164561|0.483319|-45.726947|20.773601|-17.951441|87.078681|47.654834|70.283046|90.577631|60.988234|65.847485|65.944240|212.458324|114.631285|-64.802991|-30.566280|-74.621305|-54.637414|-107.165027|-86.628073|-26.570815|-82.424159|-151.290691|-39.180153|-13.897486|-49.248910|8.126735|0.773577|21.496697|21.322421|-31.496177|47.800320|39.906540|29.738418|-74.109189|-57.410525|110.207234|140.755561|161.634663|201.084968|172.820372|128.595099|128.479888|115.577784|-53.166692|-102.549830|-139.730613|-38.588946|10.064954|-38.397798|-117.990007|-37.563706|32.403616|-43.327488|-9.020040|0.749784|0.537225|8.489962|-70.014626|-95.657372|-30.853357|4.618771|17.257073|44.673652|31.829954|71.832033|62.437329|229.541911|132.099200|179.173349|134.418312|134.717102|120.582021|41.980967|-68.162152|-24.067721|24.467455|33.159856|-98.180389|-101.378833|25.695382|-62.535346|-4.730500|0.335160|-13.173133|8.937940|-76.911449|-94.459234|-9.049682|17.235525|129.288179|170.640643|113.585667|172.718791|154.409242|264.440737|326.763207|217.880648|159.294556|204.012114|84.570223|-21.376845|29.891012|95.405518|-87.142215|58.777474|-25.555217|1.477476|32.809516|-40.220213|32.207790|17.506238|-10.856023|-8.474480|18.930947|-45.587372|-3.841606|82.200473|165.049098|79.310992|129.121435|201.266691|110.883013|186.130741|274.004238|60.416184|59.018846|-64.136840|-38.005802|-37.788237|-37.628056|242.261034|118.726359|126.672205|85.280430|156.600450|19.500869|-62.930251|21.802622|35.953913|32.751022|34.826530|-3.123229|-12.706290|22.390475|141.351434|92.878520|29.591288|239.093341|175.681418|272.604542|117.386790|-16.027026|-35.491432|-46.346719|-67.343716|-65.518321|19.322458|117.926848|246.020392|156.040592|215.707955|36.019174|123.361545|47.591767|-5.541359|30.815484|35.894191|39.293907|67.683030|-27.610161|-10.674125|-50.141880|25.771813|-14.452167|-10.507304|40.276128|216.446510|106.228125|212.498893|-28.201861|-130.359671|-284.050458|-236.899143|-200.670046|-3.862709|-67.302308|247.002558|75.815916|81.672618|5.381993|210.829267|67.295468|67.461813|39.866968|31.955116|32.660721|55.480742|5.298635|52.310238|-50.612461|49.838661|46.224485|13.618000|54.181510|269.023078|109.062955|219.489362|-36.168880|-281.537374|-332.704067|-277.358189|-155.653766|-132.490959|51.573015|95.560400|-90.983668|31.258993|-22.706211|127.070162|95.691642|55.923599|28.432023|23.470766|-3.445678|3.133701|-39.434451|-34.462677|-167.145663|-19.867725|-40.208980|-68.622006|-25.820614|188.872973|166.858262|181.032367|-310.816495|-406.123851|-396.293865|-228.752641|-235.154193|-237.034070|-135.428499|38.836075|-35.687355|-26.730665|-74.970650|10.136420|85.344593|4.288030|25.531692|36.852978|-12.736963|3.558429|-46.126934|-114.998221|-119.673223|-116.309573|-85.612265|-12.475983|47.778304|213.786466|20.091217|-95.118114|-433.813831|-520.134546|-388.265613|-237.906646|-289.894201|-149.772057|-109.608453|-93.689471|-213.189275|-96.074401|-179.599858|-5.647512|97.953827|-14.690870|51.158476|-8.196871|-15.477769|-15.085584|-67.167145|-139.487444|-94.477021|-120.681128|-17.002305|29.219797|73.928324|138.539235|-80.877772|-208.610928|-525.914971|-540.863345|-289.982909|-239.804482|-286.233132|41.513178|-29.910478|-66.456466|-173.046530|-48.230042|-256.610462|-14.587427|42.641413|-75.831289|7.133210|19.066324|-15.307938|-40.803413|-72.849232|-121.604603|-60.651523|-65.517222|10.457983|121.902984|319.746540|45.351685|-296.143928|-422.019135|-388.820446|-318.278955|-219.363741|-216.287736|-98.086741|39.004898|-63.772334|-93.175944|-73.642827|9.310258|-157.596560|-98.589274|-25.632136|-95.191636|-23.427811|18.725852|-16.781552|-62.709362|-81.455408|-90.105572|-103.476820|-38.868469|-35.793303|212.914154|102.979911|-153.333000|-272.985788|-325.977637|-376.073010|-229.371924|-117.805070|-147.249594|-56.141836|-51.950868|18.104890|-112.382075|-123.589424|23.845077|-207.987638|-164.370976|-19.379234|-98.778151|-60.653940|-10.403270|-18.429309|-67.353531|-97.898496|-69.573556|-42.237152|140.323709|82.112035|163.983677|179.628033|-58.760598|-335.847293|-132.000163|-342.867581|-199.757744|-168.122372|-291.689350|-227.871317|-153.746551|-133.552935|7.082880|61.286418|90.417455|-174.840256|-49.829150|-60.736406|-143.117672|-61.118337|-25.944475|-0.808878|-26.641272|-21.212169|-34.147808|-89.830817|-66.071646|75.379899|249.819403|79.997427|-142.953693|-225.436943|-93.960967|-90.430377|-188.932414|-164.486494|-183.117433|-205.389408|-132.557780|-28.404759|-42.025059|-8.524715|-69.925854|-43.073522|-140.324871|-90.050244|-107.533340|-40.011199|-12.739142|-1.983809|-1.103016|17.260273|-76.695234|-87.886160|-1.573735|61.525079|63.030267|-5.823057|-156.570649|-250.996667|-113.457155|-85.331177|-51.705656|-130.109919|-79.572084|-119.042011|-70.245934|31.868378|109.998966|-77.917099|-26.042985|-15.795622|-225.523209|-74.914666|-67.394547|-30.645080|-15.804959|-0.455431|2.726011|21.825143|-44.449188|-27.358525|10.325811|67.097465|-22.751315|-58.417076|-113.957081|-1.957780|-14.495388|-24.585223|-7.092528|92.962694|75.810850|16.845545|70.767250|93.704037|164.162747|-57.494990|2.620170|-144.946429|-148.019880|-98.674368|-162.542853|-83.279495|-34.376843|5.565371|-5.944646|9.738877|38.015016|1.104252|72.938169|-35.152116|-78.397232|-172.929505|-105.889677|-79.013355|0.533168|-88.515605|-16.996554|129.432322|21.623418|-3.486115|113.530437|82.134052|163.257368|86.041993|-24.619047|49.349678|-9.559770|1.190834|-61.829382|-66.235380|-34.464960|3.150040|-21.721450|68.464120|91.268574|34.553419|120.359034|7.748132|-124.657952|-120.983678|-74.163825|14.342700|-38.180804|41.201024|113.589608|147.069494|181.755010|143.847202|115.945615|1.165411|152.247365|146.853071|72.115591|82.467666|7.365158|-0.741745|-1.281986|21.894961|31.225006|-2.008954|-8.942254|50.655299|57.911505|98.384693|66.907737|5.148895|-35.033593|-50.498685|-73.192104|-10.766017|15.007691|-40.803072|3.052022|-68.502755|-70.751449|-34.346589|-39.429310|-41.059991|-46.642959|-60.482108|-38.139960|6.762849|-75.563302|-76.170344|-78.840068|0.021683|0.452358|-9.574807|-8.945810|17.565130|24.661274|-2.165944|-3.935098|-68.949124|-56.459643|-116.867708|-119.873369|-79.889033|-90.509072|-62.936367|-43.614933|-8.376280|-7.213315|-27.894536|-58.810186|-17.960641|-3.617368|-59.433171|5.318322|13.834093|-19.002023|-93.347990|-104.944752|-14.019915|-3.605993|-6.529958|-6.247351|-56.147051|26.495645|-1.809173|-19.979799|-93.435276|-76.040884|-66.370673|-142.232914|-120.646403|-110.898238|-52.367117|-57.075044|-54.758784|-24.713574|-38.890545|-35.699454|0.451511|-61.384554|-80.025279|-71.945191|-45.953217|-41.998342|-70.278824|-116.243387|-28.598635|-3.179537|2.496557|-6.245585|20.418214|13.187302|45.888665|37.103774|-41.269095|-0.896442|-17.502899|8.519850|10.212365|-34.640564|6.434483|-29.875468|-9.736225|-21.896974|-16.440885|0.458632|-23.275897|-76.726862|-90.619997|-60.200206|-16.268809|-52.684396|-90.334359|-115.321690|-7.327289|0.581910|0.218142|3.060792|30.271285|32.299832|14.323000|16.536650|-22.008396|-45.911474|-43.177217|-23.525911|-28.523232|-28.911567|-44.967211|-32.599868|-42.042651|-30.680294|-42.675360|-41.686452|-43.810589|-37.958063|-40.980278|-28.248298|-30.098462|-4.519177|-11.441310|-19.489861|-7.191739|0.825045|0.982685|0.802565|-2.673692|30.636744|0.210011|4.109387|-3.035289|-2.377309|10.685967|-6.469090|-6.432847|-10.912628|-30.448659|-31.416906|-21.553808|-35.512737|-37.621033|-49.645666|-34.593705|-35.898403|-33.418262|-38.450312|-39.781277|-24.407704|-17.413834|-15.672946|-7.454809|1.032924|
~
0.770719|0.814992|0.804257|0.763744|0.457534|-31.119409|-60.477382|-77.413912|-91.510310|-58.670703|-93.142754|-10.921525|-0.141516|-7.074958|32.514431|50.789743|47.803050|-3.965988|4.093440|-23.879667|-20.360359|-20.117755|-31.226203|-30.096720|-17.820714|-17.120194|0.624545|0.003042|0.243345|0.534647|1.140384|0.434818|1.788713|-33.562254|-104.092112|-105.290272|-123.079267|-127.682073|-158.807737|-119.908288|-173.978423|-193.917521|-55.849442|-45.807828|6.541411|-40.789362|-57.261239|-67.592763|-64.946427|-53.776369|-34.673123|-45.154020|-18.176171|-18.272394|0.394374|0.309291|0.998834|0.018919|84.960021|40.174010|78.808497|36.385799|-86.840285|-69.623817|-85.023472|-200.481504|-181.854407|-168.513961|-276.127742|-231.214332|-93.902465|-25.997540|97.027837|123.648768|88.664100|36.139299|-15.583397|29.983086|33.058244|26.691388|69.474508|-13.651709|0.992452|0.130141|0.723281|0.386825|-23.612269|-86.484963|-44.029404|-157.743655|-156.442645|-210.290849|-219.884545|-253.207038|-431.272842|-375.499458|-421.911816|-582.872232|-533.186798|-289.683632|-171.012702|31.187435|51.035750|-15.550191|-70.511996|-134.968489|-132.230129|-41.003026|19.591960|109.615745|19.326937|0.202938|1.530712|0.851191|-6.842285|-124.476932|-153.018286|-150.327575|-188.172793|-135.703255|-245.021094|-160.989054|-21.536830|131.083401|-203.035500|-104.241258|-120.037918|331.579621|121.936324|134.227161|-35.481660|-141.698482|-164.087009|-177.949651|-177.833148|-61.246313|-60.944108|-59.456065|15.314838|0.370584|0.730695|1.185370|-22.298778|-166.056788|-155.659698|-62.321809|-37.030416|35.975699|174.138101|153.841253|94.166534|96.014478|-64.068990|114.814157|210.473460|741.633461|406.531766|309.407421|213.453021|-39.734079|-120.225815|-106.346831|-132.355107|-127.689590|-37.330362|-137.343580|4.235280|0.395126|0.644931|-17.863074|-51.932977|-187.176036|-178.436378|-7.902089|-94.780900|-127.330969|-195.334419|16.877507|-160.593629|-218.320046|-265.899217|-373.750234|367.971776|664.178860|403.662653|466.610621|240.598579|78.905678|-156.744985|10.434547|-56.036947|114.017579|9.110116|108.017641|96.157171|90.721597|-0.183107|-2.822882|-45.300685|-159.920676|-156.926038|-96.733356|-70.468782|-374.063556|-582.114117|-286.968015|-659.880975|-936.310207|-922.791008|-505.334665|203.098738|-9.080950|456.377935|320.483064|403.727413|43.806250|-53.397147|-40.109304|6.132158|275.335039|174.799868|119.356239|80.441926|92.534292|1.438213|-21.218554|-44.753240|-137.424553|-205.674906|-222.811836|-14.692191|-202.843533|-357.545854|-398.086671|-185.764378|-459.142355|-680.264168|-72.760197|648.958057|211.564049|135.355227|31.034750|406.207487|-95.462490|44.288925|-25.882129|82.228724|268.503532|515.475339|195.185824|143.027913|92.372529|0.877636|2.334613|-61.816904|-81.563188|-158.407760|-217.383033|1.974695|-113.543816|-473.836031|-86.473744|-372.420904|-413.887746|-53.825334|191.449103|863.383106|176.965076|199.521726|38.090342|32.588128|-155.566037|-69.748860|-90.314828|-84.891219|150.209530|520.173421|387.861669|177.804675|71.851755|0.715996|-15.120217|-102.994058|-174.352280|-45.096955|148.145764|53.646887|87.949827|182.249916|381.459088|-159.995577|-148.566327|-85.614787|533.686983|725.238193|9.153937|-10.751514|-60.132338|-28.971944|-167.593124|-127.513704|-371.496666|-181.116274|104.205499|281.583931|354.363029|171.933306|79.943958|0.270441|-10.467983|-172.999018|-35.547001|47.648881|205.345379|260.892585|310.219037|284.972650|-255.310101|-225.236079|-87.370102|-18.208115|422.755406|490.094633|-257.808137|-350.375979|-409.986418|-191.938869|-282.724367|-80.657400|-261.919409|14.839928|150.349891|264.721506|7.987824|140.632924|87.411252|5.735103|-36.226759|-64.947721|132.143781|236.981427|53.104448|299.978133|59.650542|-3.313196|37.831846|-50.984329|-168.875860|447.347010|518.633527|272.347449|-23.687687|-597.655798|-744.909330|-283.983869|-402.719893|-313.633845|-309.093048|-92.163337|118.523264|243.984155|-39.900467|131.784344|7.776940|0.893023|-24.008826|-78.701624|-87.685901|-18.542825|20.957934|114.231718|-411.847881|-585.720895|-540.188257|-266.478238|266.652623|518.289566|431.144324|-159.321834|-453.651423|-1074.241427|-894.597212|-547.609625|-537.318859|-348.235967|-146.055801|15.103239|140.327785|42.696618|-88.682174|78.658558|0.093925|-4.151243|-23.723053|-96.860049|13.392301|102.022280|-261.922658|-116.367739|-259.183668|-530.857354|-442.524724|65.836636|759.296957|622.846493|288.696936|-312.863339|-863.140847|-996.131255|-883.708585|-622.604417|-478.017519|-285.422467|-159.426195|-48.447709|-29.160700|49.798782|-125.272361|-11.612301|-0.134448|-5.244389|-7.360157|-173.538497|1.324385|-40.920483|-335.990305|-415.598786|-248.985456|-788.761836|-334.298241|-669.997920|656.035263|742.869697|420.034683|-489.860415|-1280.153559|-898.118570|-630.847424|-382.025667|-508.236340|-116.807910|36.834335|-147.587588|-161.239796|-119.753677|-29.940298|-42.961665|7.981469|-25.805014|-47.470165|-200.923506|-20.992637|-145.903503|-144.456053|-33.994168|-287.864147|-497.875494|-966.277847|55.161983|380.098078|445.199440|-44.651059|-419.831431|-1119.441357|-933.350481|-520.748754|-266.667889|-213.587119|128.392640|131.950630|-187.121774|-57.094213|-108.672274|37.776416|-32.264500|5.687181|-27.003073|-27.221537|-181.247259|-92.333504|-22.208490|-218.950683|-295.882908|-371.569717|-921.591493|-446.132035|793.642145|998.139422|-577.382369|-436.789877|-795.835140|-987.401556|-784.181035|-458.409291|-345.885137|-250.179471|136.960546|-130.596117|-165.107821|-177.970901|-222.234354|128.565712|-17.692113|-8.801126|-8.193177|-19.884161|-140.199029|-115.270432|-54.012633|-217.884437|-690.629611|-987.152876|-490.600677|45.021688|846.104251|572.345547|-521.678747|-831.679579|-1168.364824|-797.563149|-590.614443|-463.020307|-453.051334|-90.538121|-26.529734|-149.051589|-39.381491|-156.898834|-64.026315|-5.150352|-2.124844|9.867501|-23.829834|-11.976112|-91.633049|-155.703688|-86.193138|-282.265268|-347.058979|-833.547566|184.360329|798.361212|887.616287|74.690135|-584.628235|-1133.462683|-772.542359|-606.852226|-407.334589|-393.089658|-279.481142|60.724492|116.771463|2.901155|38.201555|-21.950443|67.955052|-23.228307|-11.914573|49.493886|20.364445|-21.980293|-121.006540|-167.342136|-189.939383|-191.835776|-339.202030|126.206990|629.827116|1348.376366|813.632845|222.391939|-550.126662|-596.955899|-373.693463|-485.079994|-275.258167|-416.948888|-143.934078|146.018449|193.905915|168.901742|128.928845|19.247281|123.688332|-11.007284|27.744908|50.029445|1.785634|-21.245201|-133.225452|-124.588606|-134.980969|-102.503577|-18.089585|418.138433|448.861943|668.558202|379.848167|-456.347816|-716.673954|-459.415154|-404.919435|-444.909545|-211.871251|-369.782976|-256.761433|158.232914|248.193517|101.720275|19.793808|-67.745786|49.665175|21.769207|61.788538|56.001839|-10.311390|-38.318429|-104.759082|-152.824203|-173.746356|-272.049146|-119.416303|191.646306|848.562933|439.427556|-125.149932|-751.564692|-844.391873|-673.158399|-429.607991|-312.924933|-311.104630|-216.156005|-118.983208|-40.872184|59.501505|12.496076|0.065099|-138.454191|-13.239989|39.906985|11.923157|8.178891|-10.257155|-21.199618|-111.191085|-122.582700|-98.918552|-174.578820|40.612825|255.338577|809.006126|487.178187|-113.435654|-773.082817|-698.311856|-578.175568|-226.003517|-243.518443|-191.374247|-321.712903|-269.842916|-278.913571|-309.258409|-210.979720|-287.245103|-215.928673|-181.641474|140.295560|-46.624524|-2.025911|-10.289043|-27.671898|-125.257896|-32.046777|91.021762|-13.851738|-186.370092|49.529500|143.478610|147.002102|-463.954081|-764.138750|-751.646251|-531.986921|-301.532281|-183.220903|-190.428512|-190.515084|-137.945679|-148.396963|-109.081024|23.333507|-4.596403|39.125412|117.198936|41.960942|-54.356930|-9.707188|21.206265|-17.196670|-236.200931|88.777247|178.406172|-64.128226|-105.974709|225.563575|346.042511|333.950604|-190.721761|-408.918279|-433.348618|-380.770793|-146.044301|-136.056133|40.547811|-62.502483|-145.212691|-117.794765|-152.808720|-13.779452|-133.553287|-158.921580|-297.079307|-174.088565|27.200391|0.698643|21.193066|-4.725867|35.498098|61.411074|73.736582|50.972526|-25.295877|412.527683|405.326968|-1.231690|-233.613828|-235.788520|-301.385462|-200.679183|-221.795876|-198.950578|-155.437953|-151.899538|-160.875912|-215.840659|-227.969498|-239.717573|-237.320312|-225.308906|-206.039770|17.991953|19.806236|0.054402|21.155306|-5.159838|15.042058|-58.043955|-25.680745|41.694585|-13.014410|82.820198|-84.026336|-141.108992|-322.405059|-342.773117|-321.606131|-203.360032|-97.964045|-63.508327|-64.457976|-47.381812|-40.272939|-56.694307|-69.720011|-72.571532|-93.252918|-85.532125|21.021313|19.236310|18.434593|-0.338321|
~
0.816449|0.739461|0.237599|0.711875|0.444181|0.839864|-4.094562|20.997687|20.297455|21.824213|16.336818|16.454298|-4.450593|13.116011|-20.680920|-46.455318|-57.737087|-57.103135|-49.216371|-16.149357|-3.912425|15.085597|-1.804786|-1.120024|-1.061469|-4.446624|0.322567|0.320169|0.387518|0.407470|0.599893|0.498337|-0.854562|-4.174653|21.609369|21.292483|19.513024|13.747589|-30.883868|-44.688797|-18.498043|-20.464367|-18.237640|-36.181348|-114.645259|-45.648375|-46.354781|-45.635776|-26.029596|-21.409046|-2.373477|-11.383027|-0.877594|-3.910867|0.800648|0.776067|0.609240|0.123215|105.090612|73.063462|5.144635|31.942625|-28.769209|-43.485716|-78.894927|-106.160660|-86.997380|-112.327754|-5.077239|-89.664457|-134.473175|-172.185845|-139.976440|-88.332819|12.808026|-33.426052|-45.773599|4.094078|-85.873538|-11.145735|7.232795|-62.410749|0.797664|0.081236|0.502223|0.598312|47.735878|37.968218|-50.492281|-38.813564|-2.863141|-9.500411|-60.397154|-87.054977|-62.555419|19.310164|-67.273961|-188.135681|-153.520393|-38.659132|-71.628355|-1.761167|87.792024|84.345437|31.203104|74.076422|6.333794|-11.001115|-18.078040|-131.374267|0.033752|0.863271|0.257206|-0.093133|41.884872|-10.750463|2.151324|3.432266|-16.767500|-58.520073|-45.947902|-118.183460|-88.475767|-54.913560|-26.450807|-100.517902|-164.195825|1.979076|-105.568094|0.600786|32.334373|82.325825|-10.635708|6.833591|30.489520|-15.201626|-11.550178|-144.290673|0.009186|0.197988|0.882224|0.705971|-65.040449|-17.851462|-25.494045|-44.715640|-72.728209|-97.642826|-166.526173|-129.021010|27.576978|-94.832479|-146.337163|-309.615845|-229.619336|-155.491649|-106.776043|67.083345|88.740741|88.297340|48.226506|-57.488763|-55.590639|-35.628327|-35.775408|-168.443284|-0.796561|0.186116|0.913594|0.453075|-8.729396|-50.139473|-44.376063|-62.452999|-10.244166|-135.059452|-110.094352|-125.131964|-102.182328|-69.992473|-82.513699|-280.871977|-310.254273|-64.812743|-122.810531|125.628954|141.199972|106.242512|60.325983|-63.675723|-19.503779|-15.111640|-36.602746|-163.961089|9.881526|9.904394|0.628071|-1.865748|-25.028825|-35.056227|-47.077934|7.578461|-23.754045|-116.358946|-85.738260|-136.785648|-22.070413|-165.957670|-118.734429|-324.303551|-199.523766|-227.589982|-54.196575|194.810492|235.779583|125.223270|70.866759|-31.954823|-65.815167|-7.177155|-46.177670|-143.569462|10.398426|10.309780|1.024115|-1.781459|-4.520099|-47.810025|5.420449|-5.560830|-118.115600|-66.840970|-68.678830|-65.595486|-21.946648|-114.554116|101.798495|-241.569253|-122.032213|-248.702541|-61.763593|256.710481|456.241786|185.567372|124.597289|13.168654|-56.521007|-18.354689|0.250616|-122.747458|16.636191|10.502027|0.475544|2.585833|-14.929838|11.164689|15.024853|-8.625082|16.178700|31.575306|-95.478345|6.118442|-185.052291|49.698046|30.635529|142.265595|-137.503328|-313.832999|-81.871426|115.401667|329.416585|98.256896|37.586615|-3.037811|-95.839858|-65.477210|20.182205|-86.163973|34.256587|2.001447|1.454628|4.576458|24.774046|-22.729675|76.872600|157.444307|99.452511|113.822912|50.494400|-88.381403|59.726623|56.283248|186.973350|-23.086081|-282.246771|-126.183947|-39.621648|141.804039|334.911599|110.118824|-121.079421|-133.781957|-103.063011|6.744510|38.584496|-68.425049|39.126062|7.849257|0.472421|-18.907441|45.249065|81.302123|96.765085|221.017629|96.309996|92.782868|-103.228722|-56.682147|298.269053|19.953322|41.354723|-48.660403|164.835635|450.576514|235.367524|315.337275|188.601589|27.220504|-206.626870|-226.685023|-116.339801|38.536275|33.338681|-93.093081|29.465648|22.736037|2.577700|-0.362804|61.777130|107.635932|103.781595|229.615200|7.001018|-49.981119|-138.565182|5.100171|-143.226155|-77.431492|-86.006983|-157.883441|-23.745360|473.315858|402.953933|292.044292|244.453308|-186.924933|-247.534375|-263.945480|-158.529667|-28.709716|11.452074|-114.096098|24.511127|5.032062|-1.202502|-19.377881|40.507395|147.055527|126.349392|189.192138|38.108032|-56.855545|-149.846503|-81.576468|171.475937|-316.606489|-470.602223|-265.786288|-78.321026|602.222850|569.574651|179.692544|-80.913024|-354.511998|-282.961728|-247.227232|-133.541920|-69.414102|12.066385|-126.064738|33.962784|3.136949|11.615027|0.932751|-13.344141|85.785024|81.108676|187.477753|13.621229|64.834235|-182.905789|-254.725139|-27.441162|-167.394013|-633.454851|-240.267768|-86.189920|491.057566|102.728485|172.703780|-441.843392|-453.693877|-317.256368|-222.426148|-147.235364|-52.584246|-20.892054|-143.657959|10.322832|3.258930|16.243375|-4.459555|-18.725963|63.421282|51.071787|50.226988|52.578824|-28.841204|-248.312191|-113.566780|-158.141262|-307.934989|-81.230556|199.617587|39.225228|128.236280|-91.233748|-209.580053|-735.523796|-540.854926|-275.671825|-187.117291|-137.352517|-91.216922|-45.100644|-145.816500|-2.548966|7.464961|29.446054|-3.949056|15.292686|-20.293375|36.678064|71.015343|75.046353|131.167223|-46.732406|138.510436|-236.089938|-474.298987|-28.727259|337.585756|491.735884|189.851518|-175.229618|-389.706933|-664.230697|-316.907704|-208.462966|-194.589784|-112.270601|-92.629737|-60.487864|-157.796116|-4.051185|7.296867|15.994047|6.717463|43.892392|-19.809706|-124.008883|14.214648|92.481558|96.248981|180.188841|97.439858|-177.927813|-72.950607|60.994748|55.386402|154.916808|-62.772698|-327.876842|-514.963085|-483.317892|-241.691074|-255.495859|-174.800561|-140.075915|-107.792747|-60.158189|-139.036322|-1.702616|-4.043150|24.924922|-13.376839|55.212587|41.649923|-148.889126|-69.074675|-127.244586|-116.774738|-34.730137|222.845883|-83.377905|-25.479331|216.715952|179.104152|206.669002|-64.534626|-500.679093|-625.566145|-394.087090|-234.383263|-208.272930|-199.004732|-99.755738|-54.852820|-56.938352|-144.281726|2.877648|-2.678685|-7.234985|-3.943508|74.350749|35.084053|-69.832592|-132.153600|-165.300794|-89.878163|-15.131643|130.460197|125.110440|173.375848|370.859110|35.272786|76.397270|-260.712459|-473.192157|-418.510472|-269.734485|-138.431928|-214.705165|-179.217438|-85.692898|-73.157900|-36.045044|-114.554325|-6.036243|-1.769656|1.084676|1.510322|10.971338|-0.684118|-18.102273|-109.809222|-153.860891|-26.897904|104.253457|-146.480794|-61.958938|166.665556|243.839556|302.632775|-136.622849|-325.175467|-431.051981|-452.111681|-304.681421|-175.810662|-172.245643|-127.519029|-61.518829|-52.921128|-43.019028|-101.023456|-13.909999|-1.021496|-0.639099|-1.326990|-17.949503|18.975363|37.018418|-41.736981|-141.289242|-77.407769|78.117782|34.161214|149.218993|200.104145|304.901134|271.504206|-225.524847|-266.201152|-419.631379|-249.271767|-174.295782|-89.060381|-86.634082|-51.390858|-48.021535|-29.053379|-5.551893|-101.589800|2.813783|2.380064|-3.158376|-2.286736|-3.841720|13.893545|110.384626|155.107335|4.535361|-4.604377|95.083809|90.923693|-30.338545|325.494969|282.273324|56.622446|-135.939371|-367.829682|-339.419859|-227.945021|-215.471707|-147.390663|-60.429323|-54.120862|-14.422392|-21.849133|-11.605068|-103.224280|12.176763|0.721587|-7.448646|-5.964203|-16.528877|-39.578502|75.659242|104.797153|96.384199|180.977619|-83.754106|-103.979968|163.945625|5.553654|149.908194|84.933896|-331.155367|-508.621857|-348.076292|-245.656081|-165.006931|-109.255554|-96.937798|-49.952968|-37.055834|-9.049019|-52.624432|-132.858061|-2.709297|-1.275621|7.521719|8.049087|-154.121702|-78.169928|-4.463886|72.885922|95.386778|39.955822|34.016661|12.657452|39.424688|64.548006|47.562598|-194.675373|-548.252456|-466.021580|-292.951339|-203.271352|-126.603436|-112.416964|-110.751601|-109.947445|-87.488474|-67.960026|-67.325806|-224.207702|-16.043279|-0.867453|-7.322886|18.573385|-147.450207|-142.476457|57.155900|46.902039|8.510039|31.898125|-17.896426|85.379640|166.786560|-3.429909|36.592898|-266.740766|-450.736537|-338.239458|-252.830213|-274.060523|-118.471759|-37.996861|-57.020909|-74.377159|-47.767609|-52.393456|-59.527101|-251.128139|1.694165|0.710577|-8.271421|19.061449|17.139325|8.533855|52.930311|83.444858|101.272190|39.511826|61.576610|181.531345|75.394835|34.154481|-55.761413|-246.175850|-184.128457|-179.916608|-100.019584|-83.613486|-53.142034|5.178322|-23.447221|-16.220283|-18.686373|5.907799|6.615986|0.268044|1.677772|0.056957|-8.636492|19.474315|19.877876|30.490879|59.479706|89.578877|81.565486|134.926365|130.430661|154.282910|112.709080|-33.334080|-50.471842|-263.634888|-103.722201|-101.112095|-145.230114|-97.379088|-52.105754|-4.657826|-9.761699|-14.630100|-9.593371|3.942829|2.548368|2.176127|1.488182|0.520284|
~
0.618186|0.260912|0.763350|1.168085|0.434193|-22.595617|-35.709719|-0.414320|0.299069|-9.734756|14.602326|10.465420|-63.668502|-119.255316|-84.515117|-77.345391|-102.753149|-116.855256|-77.816455|-42.012768|-16.915539|-16.198859|-12.823860|-11.376654|-11.927381|-11.065525|0.646720|0.684319|0.513207|0.542516|0.567314|0.162238|-10.130530|-35.902518|-13.537911|-7.717028|-11.633385|-10.848352|-22.568143|-95.311021|-153.859511|-153.268395|-123.110858|-183.474954|-106.873468|-115.116428|-138.720047|-77.486492|-50.850206|-48.815551|-34.502137|-33.707000|-11.240210|-10.673163|0.526310|0.159051|0.987021|0.173030|123.400552|153.262045|-61.448269|41.976528|92.431865|30.713232|-49.813350|-47.994722|-48.479732|-147.287676|-244.792589|-298.246636|-157.030603|-120.424383|-230.595792|-136.680770|-83.295205|-127.913503|-54.444816|-35.595616|-38.313825|8.395748|-72.397307|-10.685733|0.333458|0.744403|0.190591|0.859767|212.215181|181.782597|0.032257|-28.705922|-11.705261|-3.538099|-31.840237|-63.269728|-95.062303|-182.846201|-179.732136|-133.372795|-135.233625|-133.019051|-153.432567|-102.894990|-95.557492|-173.080434|-92.504126|-23.821466|-53.855814|-44.420547|-148.091417|-110.965588|-0.139354|0.736409|0.158320|-0.297895|153.762669|94.775813|-55.467677|-87.336996|-106.970862|-77.719950|-108.153902|-112.017284|-169.183687|-270.016963|-250.027755|-174.694691|52.715826|105.258286|-18.420968|-259.105408|-202.928263|-145.926357|-180.566958|-48.850580|-25.952809|-6.458910|-129.381851|-107.081842|0.000046|0.050195|0.350501|11.038346|113.587496|3.538962|-74.483304|-130.361051|-57.369318|-87.140995|-70.374824|-30.556991|-80.171199|-50.971904|-139.017798|-77.931068|218.898717|23.797491|-79.846437|-87.482421|-450.430475|-265.724440|-367.320138|-84.541225|-98.977333|-99.984272|-106.490080|-100.009515|1.487944|0.771366|12.041288|10.600011|112.027474|-28.757265|-27.809864|11.418112|18.992341|-31.068389|-150.169513|-58.737899|-106.379218|-47.457769|-110.345409|90.629348|91.619575|39.790306|-27.928875|10.372275|-393.450052|-224.757247|-358.492116|-195.528827|-138.055509|-60.607029|-88.412237|-62.581980|0.983198|-6.905441|12.358874|14.649950|131.484627|-26.475956|-53.015003|-70.216585|18.950765|-89.231666|-139.112009|-7.959878|29.826528|-222.189114|95.800178|-68.907476|-4.868463|109.240850|324.061744|188.879712|121.135861|-232.912875|-147.091745|-237.945574|-106.289397|-47.781199|-157.597032|-96.941812|2.152275|1.587296|-1.642631|0.210541|72.224267|-19.966301|-80.377549|-85.729451|-38.021629|-155.524388|-307.323132|-408.126393|176.685427|142.648268|128.790609|-101.747589|59.318605|-355.742242|-113.289910|249.047282|251.710272|165.105110|-138.526460|-50.905316|-198.488264|-110.365774|-97.953125|-99.894530|15.517568|1.866746|3.506298|2.073451|-5.972929|-0.640782|-108.306737|-100.002599|-229.640639|-191.013482|-221.856843|-151.513724|397.910490|318.045735|7.653198|-299.832532|-501.581430|-458.523112|-162.234630|437.546448|416.909621|436.620218|187.394244|-210.472659|-105.532037|-83.493863|-78.091132|-111.996943|29.632593|8.576534|-1.621730|0.665626|5.918195|-16.573335|-92.565896|-7.859442|-283.720645|155.902781|-32.155355|163.859406|339.185036|156.412313|-74.166294|-393.903489|-954.261451|-956.652664|-350.076870|68.853525|457.670332|499.438245|385.363218|-85.383353|-49.368150|-61.069594|-114.565012|-112.650708|14.641280|-5.234658|0.636826|-8.557419|37.277517|47.362591|-92.431084|-79.354359|-287.603184|34.126388|27.261330|173.342790|456.126006|321.699806|264.588351|-273.850058|-663.989975|-924.225950|-267.914023|186.001059|794.947833|723.956381|216.813608|-133.366269|-39.601579|-24.110340|-124.658951|-53.951541|13.809780|1.609635|10.118425|1.522829|42.961635|96.153655|-34.304375|-85.588596|-114.670778|-9.516148|15.154515|-105.349092|-10.914099|14.498845|125.351732|15.000507|-519.213435|-734.188659|-20.604950|257.942112|699.139600|367.766469|25.709611|-171.435986|-117.617464|-5.995159|-119.493493|-64.357251|-4.706580|-12.370638|23.688188|48.399578|39.309493|98.819605|-14.491536|-78.297671|-60.718057|0.210878|-0.977746|-291.979361|-270.459464|-534.005895|-79.066933|-50.053096|-376.978274|-73.599255|52.068266|332.558075|559.897707|-101.566780|-57.078968|-308.125325|-159.152260|23.197572|-57.614148|-98.954564|7.596750|1.090030|69.707008|64.288739|36.407555|101.473669|-71.566224|-137.042564|4.072757|-27.175764|-374.905298|-598.357808|-846.776104|-644.357868|-77.343301|192.954871|220.052195|-308.235726|-219.584125|-111.189706|-98.973405|-255.444841|-19.333261|-480.703173|-178.535165|-56.418082|-97.652914|-76.785026|16.130828|1.465055|52.645588|69.823545|50.330172|-13.363036|-48.804583|-142.341887|108.174049|4.550569|-512.966445|-281.275725|-125.701750|46.685451|290.185722|341.581408|116.521018|52.778309|-87.491282|-283.541356|-248.722576|-160.012421|-256.285440|-385.414771|-147.574768|-82.541985|-72.814192|-96.906292|11.812440|14.489138|8.749586|8.724887|-5.269613|-13.655538|-31.912831|-39.460755|-42.051334|-223.050414|-307.730462|176.888937|445.832136|458.185788|395.165577|463.140439|152.343258|-177.302624|-189.837333|194.644115|-127.553277|-102.026497|-18.681380|-188.216895|-49.647150|-93.557303|-87.094247|-116.785447|11.404934|8.500122|-11.236375|-12.352259|33.336392|-1.804704|-126.933435|-3.809651|-59.243487|-74.756302|-177.663389|30.190462|416.896968|490.520363|343.121213|-44.114409|-147.737841|-677.677094|-421.151736|232.802662|286.251485|-90.920807|45.473530|-203.775650|-87.552884|-153.318614|-46.754401|-87.713855|12.068864|-4.768559|-33.884391|-37.487254|167.998190|118.520143|-144.416341|-57.356891|-38.474506|-135.711991|-142.005053|-150.233297|-64.117012|61.046347|-125.575128|-385.774894|-584.022772|-410.311092|-201.825105|188.692908|114.956324|25.347310|-12.655779|-137.824634|-109.604635|-92.372090|-30.886788|-105.789195|7.370433|-4.291072|-13.570005|-21.634618|139.330246|102.587324|-48.988630|-146.047352|-35.733892|235.760108|43.457513|-136.642854|207.660759|-111.912175|25.876405|65.765471|-133.195842|172.662041|120.057525|323.765117|-66.452607|37.664365|-52.082470|-32.326400|-50.271112|7.683362|-31.485530|-114.142113|-9.437997|-6.770763|-0.414967|-21.679439|200.531323|92.778373|13.937200|-35.798228|68.828405|313.540713|465.810803|-28.939863|41.455705|-110.842190|39.416350|409.461529|54.180422|103.371718|8.561027|-44.666839|-174.152748|34.733554|-12.092415|74.377252|-81.746105|12.262938|-49.362409|-124.241464|-5.091221|-7.376624|16.411922|16.049629|149.530609|105.013378|26.303014|-57.557008|-23.650972|250.143086|312.543722|374.509045|245.493194|286.866336|322.568053|246.832257|35.746461|74.993459|-83.034506|-139.510959|19.753099|95.997130|68.256620|-39.887917|-91.520902|0.522901|-43.666012|-65.244655|4.885480|0.029350|19.246614|40.413406|37.054520|52.546554|-40.479714|-44.733231|-48.176054|10.686189|5.374308|-168.285531|-17.937027|16.112519|-139.131384|-254.282881|-47.251585|0.799603|-315.879443|-1.646453|-58.231271|-77.492552|-43.455818|-87.776940|-6.498397|30.700965|-54.484665|-74.049684|12.215992|0.394610|40.486344|40.505897|158.605512|148.305935|44.461290|-19.876133|15.403591|-142.495683|-231.011021|-287.780879|-313.455140|-235.088510|-252.176004|-285.767622|-228.269603|-207.747342|-261.121437|-285.327885|-111.303776|-195.670243|-52.694491|-92.839387|36.175855|99.706120|-38.653018|-87.190248|5.800608|-1.905575|8.886462|67.202761|201.913281|173.132892|-9.136069|-36.074671|-51.289065|-35.345641|-101.859411|-289.489473|-248.352095|-190.957127|-268.188635|-409.183530|-297.121304|-151.065695|-259.410698|-279.239125|-258.102547|-143.698302|-103.330222|-134.059729|-5.803572|31.835641|5.037859|-125.717489|-2.758853|-2.143034|35.433926|48.302090|192.003938|171.312762|121.454873|-36.162228|-5.028997|-33.827014|-79.898574|39.768504|-102.539477|-252.882472|-125.234902|-189.397681|-113.872573|-144.844512|-125.814709|-263.009160|-219.684018|-164.375451|-152.998168|-146.280545|-34.167709|0.994970|-37.453848|59.404662|2.505179|1.311458|45.189654|29.749174|2.367253|2.953907|-16.641600|-35.872733|-30.774609|-20.368495|-75.196516|-82.860183|-175.616026|-113.017173|-174.812421|-81.459586|-106.508228|-95.228899|-126.481057|-86.851790|-170.935242|-126.392053|-48.054144|-39.903874|-34.425870|14.887920|12.838284|2.715019|1.886074|0.210779|45.115368|39.446201|20.862616|-1.671582|12.106791|15.763307|40.008373|-13.841236|20.268390|-7.995939|-21.959691|-59.969054|-3.033447|12.405634|-42.644238|-126.397055|-130.934208|-95.197017|-50.459932|-62.809334|-45.049908|-37.734500|-22.621656|11.923284|6.860538|4.259402|0.360263|-0.441040|
~
0.269576|0.764477|0.320702|1.084957|1.773578|4.670394|8.696138|13.619550|-7.944426|-19.732068|-6.820101|11.432282|35.756671|22.946804|50.350229|56.033038|21.276933|21.487889|-8.471774|-7.685272|8.160852|7.623507|-0.406302|3.516942|4.929836|6.185814|0.449920|0.375891|0.456436|0.799584|1.276081|1.564903|-3.496202|-2.726336|15.527607|-26.558365|-25.141050|-27.211015|46.601680|61.716514|67.818877|-15.002024|68.451788|71.476068|30.431394|-45.478824|-30.420979|34.762163|69.070104|28.722796|13.855260|27.139106|5.677337|6.292026|0.339959|0.440412|0.060006|0.789879|180.027580|28.173930|-114.788920|-125.380758|-124.616060|-211.424665|-157.795331|-77.912130|-25.903359|-94.859889|-141.707373|-27.177357|-72.799320|-230.633909|-235.354336|-228.561987|-94.866783|-73.909797|5.394586|-37.699056|-83.268990|-85.949084|-233.992093|-260.932018|0.056989|0.157974|0.386382|0.396948|38.156584|20.139708|9.478065|41.545010|-3.336052|2.193280|-41.610172|52.110419|195.558015|-44.283182|152.238936|83.482004|31.788898|-36.246410|-34.032996|113.515933|77.024604|-22.004727|47.636933|62.453739|37.223501|-60.523148|-96.700087|-222.353177|0.128181|0.952313|-1.703461|-2.089975|1.830592|-45.918004|-74.088975|-70.902017|-59.020887|-93.099473|-39.451629|118.567580|18.602904|7.022513|-23.197987|299.211730|188.654320|77.837083|-41.632821|-38.473831|13.749029|56.848478|119.351376|-55.049425|-40.883808|-20.475354|-155.680664|-220.971205|-4.157412|0.473334|0.947235|-1.273639|41.606050|-38.989524|-82.824394|-108.805716|-195.771039|-102.959773|-106.124299|90.345246|-377.217283|80.249135|-57.139263|-130.328047|414.444037|80.314887|-91.424319|-120.606397|-87.237830|-36.133250|9.051818|-39.862953|-130.140210|-43.541482|-127.445237|-224.299322|-2.540794|0.185067|0.938654|-3.734932|38.413633|-105.595255|-149.388044|-252.306692|-252.090037|-202.111053|-114.666350|-252.454207|-58.265783|282.483447|143.111586|-11.989259|-31.953319|-21.308684|-167.207615|-347.848234|-198.911529|-279.528880|-10.599030|-44.385945|-117.223964|-116.489936|-134.307215|-244.889956|-8.097461|-10.501027|-0.737184|-8.177091|-7.433503|-151.698550|-84.791518|-121.193175|-255.016978|-164.973258|45.172355|-145.480617|-29.603007|397.630237|234.186789|72.826965|116.147755|359.904448|198.040217|-6.388368|-439.663297|-176.738929|-274.787708|-73.300306|-90.093332|-68.937675|-197.220372|-245.506990|-10.287197|-6.891731|-2.339581|-19.922471|-65.123857|-94.085128|123.726304|65.686397|-163.577944|-228.151863|-421.223151|-346.211305|-272.746863|278.841585|140.312061|429.865521|357.518539|317.923646|314.021042|-275.667228|-595.392881|-320.914613|-106.107407|80.707736|-147.150607|-113.996110|-231.928409|-243.586834|-27.271517|-6.198467|-7.743874|-9.605025|-46.080492|-94.865722|65.958330|42.030798|28.405786|-194.693482|-131.579297|-117.016116|33.046175|754.333602|451.597510|327.188467|-16.979341|207.856828|51.507735|572.953038|-134.223242|-358.123967|-66.024629|-68.215655|-157.139527|-112.559475|-208.780627|-227.121949|-20.702837|4.938972|-4.230081|-9.086433|-73.542949|-64.984915|77.269298|47.959087|-109.024221|-264.958115|-296.858608|-365.087690|237.082769|207.647495|459.762373|97.960202|-24.548808|-279.945654|-134.290302|-413.613635|-86.161075|-132.444427|-45.463706|-229.537442|-64.596939|-127.216558|-168.761863|-272.348559|-13.693683|3.152404|1.845848|-35.674775|-93.483245|-85.875093|6.877909|-64.180472|-207.191565|-470.501386|-224.857801|-157.556585|425.316344|148.776755|-147.023779|-178.432974|-179.665625|-145.430556|17.067428|-99.839652|-28.338473|-46.064798|-136.389329|-153.460624|-100.732682|-101.739554|-192.255361|-238.174354|-9.939957|7.314191|-3.536897|-55.380266|-61.233795|-116.387522|-47.682326|-131.411006|-347.883636|-452.142157|-376.378338|-19.314646|340.533624|368.297342|-522.948909|-526.494946|-550.220145|18.858032|20.763213|156.989739|384.959581|5.679102|-93.140240|-155.505370|-66.159370|-88.638218|-150.698654|-223.853187|-12.104588|-3.112198|-4.836556|-39.428093|-37.822436|-168.823200|-76.345593|-38.647241|-257.682937|-594.261936|-248.666793|319.628442|451.951032|444.236768|-485.942872|-1182.642645|-805.952343|-447.143743|-82.074661|246.334500|358.120997|-168.517622|-88.899140|-252.897954|-132.353819|7.327575|-38.299043|-249.971973|-9.835144|-10.851334|-1.167805|-24.052352|-4.060830|-107.869715|-23.327087|-108.081549|-324.133060|-810.957002|-168.016004|278.348634|171.233946|311.304591|-145.217272|-967.185909|-539.250128|-416.843657|-194.443251|287.183630|88.885479|-116.429481|-124.867652|-379.171520|-39.332940|37.926039|-67.788363|-239.982334|-3.196002|-10.672749|0.129831|-5.815277|61.366421|-146.456586|-82.038526|-153.117572|-436.774265|-659.791409|-503.590473|281.367826|251.555228|256.261312|-614.664239|-542.432246|-206.897436|-164.397529|-285.367947|180.589642|452.833837|-182.980753|-46.877900|42.809194|-15.635048|-45.487707|-5.231321|-229.457036|-13.163464|-10.697673|-1.017329|-17.765354|114.308294|-193.573005|-179.590929|-376.952600|-546.262937|-448.418436|-385.162215|23.145560|86.234827|271.125396|141.713158|-21.046633|41.839531|-307.681773|-42.548048|-197.933883|523.008166|44.730213|-151.708371|34.895753|-45.763513|4.438634|-62.200564|-224.048337|-14.915162|-3.850253|-15.877772|-11.860839|38.945011|-201.902503|-69.665312|-347.796260|-503.737106|-255.960366|-17.795776|284.593349|343.132096|278.873293|411.707164|157.014271|86.931547|-85.448161|-392.172529|208.623712|228.644375|94.583304|10.520298|-136.366944|115.821469|-4.490557|-26.014907|-167.086438|-17.058430|-8.385016|-17.079113|-8.388625|2.410854|-198.776613|-212.921721|-302.516165|-283.544805|-187.615022|91.564767|352.075752|341.575934|237.349326|-591.244804|-385.034534|-327.912957|-649.198539|-542.786276|340.727933|258.129700|221.732591|134.015172|-160.654387|67.594560|61.341773|-75.763753|-158.432922|-7.760605|-9.070275|-8.887526|2.652758|-30.355973|-233.806225|-300.795573|-269.698411|-174.863773|-243.225074|223.629664|437.838461|251.178061|270.750243|-181.192336|-533.475298|-407.646808|-444.901572|-615.094098|285.747966|454.363818|145.585263|135.457538|28.733734|48.904823|-58.434268|-106.118226|-235.846125|-16.321249|-19.985065|-21.478532|-13.341507|-109.567957|-320.943190|-263.004012|-162.244990|-106.805773|36.057681|52.974602|326.288157|262.907969|75.044345|-325.380083|-460.655574|-449.322114|-425.321927|-385.397322|37.644602|364.478596|245.705138|205.290602|-104.683613|57.313248|-29.725011|-139.351588|-220.330470|-13.437155|-19.534509|-4.807704|-1.574809|-74.002302|-341.283143|-230.044520|-212.044982|-209.998993|-178.579969|24.996030|129.618907|199.553935|19.325327|-108.909344|-247.907721|-232.532055|-553.811012|-87.114241|-29.682405|-7.049215|133.391054|-102.567733|15.523710|91.052008|-35.673668|-131.540134|-241.451616|-1.854276|-0.815914|-1.939288|3.618792|-144.169996|-245.012659|-134.115640|-143.571115|-257.528753|-335.893044|-18.743527|-39.606821|141.363728|-230.192052|-367.463507|-222.448180|-310.634836|-504.870307|-189.212539|-230.381642|190.547733|79.275455|-23.203889|77.919443|89.900401|-32.946231|-143.278167|-263.600111|-8.120958|0.516731|-8.276841|-2.934506|-168.280889|-283.965692|-256.276852|-122.299813|-235.957268|-289.845309|30.799241|126.721089|-68.641139|145.585380|-18.962330|-14.344295|-68.199082|-150.710746|-24.833186|244.563764|-73.096229|92.012430|-105.318389|10.904370|18.684087|-90.476114|-86.457638|-183.957649|6.580573|-4.992239|-3.540149|-3.047395|-132.163636|-189.158350|-87.669725|-144.492085|-123.084964|-181.095862|-85.539481|127.698739|188.220550|176.528450|360.038761|350.732126|290.118890|169.708532|-232.663651|-70.899656|53.127307|27.562455|-21.008293|62.318682|20.757787|-53.371672|-81.228006|-180.255060|8.831073|-4.011737|-0.978461|-13.133956|-117.260459|-214.647624|-219.586811|-251.582736|-31.583578|35.542198|106.697163|-39.982191|44.221926|81.149268|13.907603|236.982473|323.771482|-56.624675|-248.208337|9.909701|-194.987062|-137.432162|-123.805951|31.493856|1.471235|129.946819|47.464606|23.359226|1.724925|1.715562|-2.686939|-24.336594|-45.312181|-58.788273|-62.441077|-32.351266|-3.221481|2.681334|-59.629249|-88.966575|37.987586|15.471375|117.944934|173.385276|59.111550|93.710314|40.828071|-128.724759|25.692823|-38.571631|-49.007818|-51.584526|-42.793942|32.150458|-11.163678|-24.618470|1.085984|0.075875|-2.309515|-6.694578|-19.519540|-35.952198|-24.886655|-1.618166|-7.656102|-8.660783|-9.800801|-33.834933|66.341931|55.005657|183.097719|142.522849|86.661304|-74.195427|-131.811044|-135.809231|-18.763467|-93.642381|-97.703319|-86.482608|-19.404412|-14.414891|7.428501|-10.261598|-1.800029|-2.168117|
~
0.403001|0.008463|0.498048|1.053362|1.023050|0.984154|-3.372010|16.531669|16.769288|17.177213|20.360774|5.661999|-14.519703|-34.983899|-140.498270|-132.841975|-133.734757|-137.210508|-122.368970|-119.708555|-132.349278|-65.709031|-62.489798|3.785188|0.452901|0.830417|0.535272|0.177027|0.791688|0.526958|0.778564|0.481415|-1.847269|-6.936413|13.940472|15.461491|14.956386|3.797196|0.578615|-18.097588|-11.220478|-67.530089|-125.353022|-139.025674|-130.851274|-32.135255|-116.912169|-152.983142|-170.161802|-154.350478|-66.692213|0.101074|4.518165|4.817848|0.312422|0.931053|0.021028|0.847695|71.706458|29.029591|41.082118|18.482633|11.479913|32.634244|23.895229|35.391991|19.977184|-7.756372|-76.334380|-44.377262|-40.103628|-87.251721|-59.659136|-106.451342|-116.092787|-56.828693|50.742672|37.180946|13.951565|35.235951|58.231091|84.173632|0.710626|0.206026|0.641359|0.023048|0.913490|53.050963|4.174346|-45.728591|-33.942388|-36.730206|-46.258811|-53.364472|-59.424980|-10.994683|-69.769285|-76.163398|-139.858537|-133.642263|-6.754245|-39.583693|33.499444|-133.507146|-95.508228|2.669205|32.703055|55.605034|-33.031902|-48.666400|-21.380518|0.191173|-5.246959|-5.626420|-33.611831|16.711133|-6.524672|26.897700|7.169951|14.792621|-0.479077|-7.814795|-31.796889|-40.524291|-64.842957|-29.403817|47.536348|132.765833|-46.391754|-86.589785|-47.688400|40.731824|-210.768448|-207.869147|9.468134|31.643248|-6.394140|16.046578|-23.765245|0.034088|0.426760|-5.262612|-7.534935|-54.014688|-20.303502|-37.616794|-45.049676|-35.358885|-27.326447|17.609103|-60.470488|20.495912|-0.304263|94.230141|314.006191|361.882203|420.807391|323.841638|212.447647|114.145486|-56.731146|-197.802197|-246.456829|-32.386932|-82.675708|-11.513316|7.075424|0.686294|0.670689|-7.620946|-43.381516|-43.085623|-25.266127|-43.592212|-22.332964|-54.896144|-29.239969|1.410227|-42.549125|49.727860|76.305690|318.874232|165.180879|288.401463|193.172133|306.092755|232.527441|233.796663|-250.692360|-260.084677|-252.895624|-30.208125|-140.419228|-40.560231|15.281500|-18.501716|-1.043009|-1.824530|-22.930156|-17.548826|-16.375067|-65.701179|-58.512722|-40.414372|-23.803852|-48.456769|2.413751|-15.454438|130.683506|45.627152|-111.710343|-135.958211|60.316434|77.864637|324.967850|265.866298|252.521954|105.861395|-133.454480|28.816271|-75.073374|-79.971751|23.478974|21.136223|0.232238|-2.289091|-22.933212|-2.720151|-30.562309|-61.086431|-60.807017|-65.181020|-58.764716|-185.056583|-79.539174|10.371341|-77.606716|-196.360879|-70.637470|-429.100488|-107.569366|97.216544|238.692432|273.092534|63.791012|52.312822|-189.780131|-70.770027|-112.680947|-69.732981|-22.407975|21.211106|-2.577909|-1.277796|-36.689714|0.496752|-39.583481|-49.202031|-64.045487|-93.998336|-86.983522|-183.148758|-77.800230|-147.230382|-28.848306|69.928838|-89.660391|-366.175847|-180.536203|60.872302|187.529999|361.028606|247.862700|-95.980098|50.846155|46.539340|-64.377870|-58.209558|-3.852494|19.091876|-1.934538|-2.001788|-50.745762|-25.913142|-23.400590|-50.830416|-127.801567|-86.274573|-95.091152|4.300362|-215.585068|23.511529|-143.556059|209.278535|-234.114554|-198.380232|-672.987839|-255.798746|183.874419|560.897058|355.667309|-10.473551|223.124961|114.802082|-28.728982|-6.781152|-39.826687|-18.633316|0.352649|-5.053245|-55.816114|45.710684|-78.445854|-129.875238|-192.739371|-174.159571|-153.967599|-0.645275|-66.280908|-133.898820|96.095339|-78.845046|-78.986300|-170.554663|-672.040225|-668.717544|139.024429|346.998510|70.310812|-125.834686|-154.390717|126.230350|100.192944|96.445088|-51.877957|3.960828|-0.809106|-4.231319|-69.313864|-68.885642|-101.450090|-104.824338|-158.777300|-191.476423|-23.988906|-123.071799|-174.488535|-162.020778|171.955075|-110.465951|-54.159421|-606.280167|-689.626027|-493.498150|-190.401039|92.356869|197.223251|-132.170626|-235.796196|132.334203|-21.830706|109.567697|-0.242520|-24.898339|-1.058417|-3.399028|-87.223275|18.360648|-71.024931|-100.076484|-173.111643|-59.111071|-90.845252|-386.244709|-216.186169|-174.105003|-169.025066|-198.001400|-142.143794|-251.428476|-652.978763|-656.834902|-15.813287|260.971494|48.945840|6.106280|-0.082973|293.107940|-42.292739|19.900205|-19.708662|-1.533800|3.949721|1.458467|-113.533625|-61.343099|-67.278249|-135.615378|-38.364912|13.714561|-88.560796|-481.883696|-284.086711|-209.082640|-194.850269|-148.688719|229.882585|-118.926717|-150.851950|6.021189|-116.875029|484.529327|317.644888|121.656839|382.666285|288.674439|55.217543|21.383732|2.025698|-1.865941|1.483293|1.389411|-165.591827|-62.444930|-29.518776|-111.332693|43.983763|41.014817|-375.971570|-464.053583|-293.495822|-249.524085|-356.593823|12.003834|-202.910168|-127.445449|-355.076054|-723.219470|-348.001293|224.165022|-40.375603|39.518886|695.305146|114.757780|220.803062|-3.174083|-52.072799|-11.187631|0.097065|0.183735|-182.214056|-68.466866|-57.746011|-35.341212|54.192105|36.774838|-242.375130|-413.503404|-400.553525|-599.562125|-17.759377|284.741926|414.336671|3.427013|-155.208431|-467.093948|106.460286|62.196162|470.611392|-33.273130|675.472417|-7.407366|192.948318|-3.128125|-26.835316|13.752304|-0.710118|-1.787942|-163.145785|-88.296165|-102.017106|-27.346055|83.424897|27.600459|-104.892948|-437.648522|-276.953458|-311.031548|-264.016530|251.761674|476.744218|142.269921|301.053904|503.864528|613.073625|576.448178|334.288936|47.889050|371.677620|-44.291528|222.106136|105.537961|-1.317034|22.510228|-6.836504|5.018670|-102.734262|22.235354|-70.530684|-13.774900|21.650431|64.867319|-148.074442|-225.343497|-249.448658|-228.828305|-402.128979|309.994955|153.678005|-32.494619|-119.217166|109.826498|537.012037|403.091321|18.504760|186.638194|-63.747983|99.135370|119.182340|-16.076180|-16.658631|19.201931|-2.285422|3.792755|-106.108228|-8.486922|-49.442506|-49.613625|-17.171570|-67.837389|-126.944486|-345.176788|166.355797|17.797489|256.330600|370.623805|266.663803|13.141072|247.098251|380.120479|165.694513|280.750147|98.840914|76.393313|-165.131675|-43.888716|-17.836863|-182.744917|-136.566760|-39.063185|-5.135091|3.814196|-43.473420|15.033966|-16.760034|-55.086958|-54.828211|-91.951689|-129.044214|-334.302262|-96.487737|222.463226|181.575223|315.178944|27.837489|-81.277098|0.405717|228.748565|147.901475|103.817666|79.046837|-29.979850|-145.871008|130.147512|11.289344|-146.018840|-87.537590|-39.170067|1.653776|11.482948|-41.939890|55.809448|12.165150|-41.613975|-64.105906|-71.629591|-190.524172|-211.448822|-175.004563|137.549923|424.218130|-94.079644|3.131769|127.744097|8.367398|126.587473|-93.188257|-324.767552|-180.753656|-43.565882|0.294113|179.511597|29.702761|-85.837280|34.193874|3.578509|2.927086|18.848628|-66.781006|26.951610|-17.265082|-42.111214|-50.802131|-11.731405|-23.568092|-80.275687|-89.385977|206.380059|328.746255|327.689360|639.569304|-6.777697|-19.875508|-242.976285|-295.121668|-250.304874|-17.863659|-41.192153|234.344590|217.760197|51.530697|8.470070|36.165162|-13.976655|6.394092|16.034781|10.277520|-16.872603|-42.251088|-58.414520|-7.529916|12.102832|11.966404|-52.975103|-262.938934|-213.341362|64.284628|202.535229|298.813196|72.701880|-175.296384|-209.061636|-8.247901|-79.662815|-6.884396|37.203064|134.906685|153.089859|58.980502|-46.081643|14.645127|-13.316138|4.353309|18.716434|-65.350701|22.219640|-40.273296|-94.791164|-75.547356|-26.110413|-69.842336|-83.256729|-152.936325|-90.409830|77.971289|387.890126|374.342196|287.377333|-57.198869|-26.500360|-131.540067|-238.001738|-117.390572|-143.819712|186.472227|100.018108|-16.263275|-131.074774|-34.136246|1.109694|3.643626|11.383384|139.443423|14.898370|53.774866|-4.524871|-56.152756|13.346915|3.697101|121.512830|-46.552825|-267.372534|-80.095536|122.803643|-114.486489|-285.548829|-334.122107|-155.428477|82.892955|-84.995739|-13.838208|84.872465|229.025232|113.626133|48.787818|-31.144792|-12.693222|6.163642|2.868578|4.427012|9.648322|-28.115712|-30.672600|-4.189104|-38.652957|-111.110698|-148.385473|-154.129964|-150.755094|-219.264738|5.509319|12.096109|-309.725087|-263.502428|-307.258835|-79.000872|-47.500004|51.607879|157.748371|267.020615|293.346227|261.123089|98.066513|-32.992842|2.123854|0.186243|3.436402|4.138476|0.333960|9.269355|26.611648|46.120884|37.917583|35.249651|19.149917|15.803015|-18.970346|-41.197325|46.413313|133.345665|70.124623|-89.649740|-188.585366|52.472409|167.518633|253.174689|316.476747|232.945674|220.678084|52.310464|-1.261573|-26.083800|-4.712859|-11.002557|
~
0.222274|0.211203|0.813349|-0.441298|0.946830|13.449526|12.512374|-27.152573|-34.556245|-45.930718|-131.808108|-105.313486|-52.890243|-81.970149|-113.587840|-132.480675|-135.241375|-70.466576|-67.682339|-44.865605|1.365091|0.418129|2.508615|3.471182|9.866744|11.095195|0.046392|0.043058|0.191322|0.664335|0.166741|-0.180290|-0.117219|9.130986|-29.668458|-31.042746|-15.332550|-55.057381|-101.197637|-268.623951|-136.168771|-279.244043|-348.878410|-244.703272|-269.022598|-139.062999|-123.492715|-51.006903|-4.526236|8.970587|6.990699|8.879122|10.556794|11.784820|0.121532|0.945215|0.815657|0.167924|225.360638|9.562428|-222.208948|-291.282635|-305.228682|-335.534760|-335.320836|-314.491965|-544.612335|-417.198246|-334.437682|-490.512503|-387.433744|-711.857098|-588.055873|-537.047508|-404.435965|-311.633237|-245.839430|-186.077876|-211.394743|-264.701471|14.354658|59.026357|0.817728|0.319838|0.402631|0.939260|-45.370675|73.011400|-202.720238|-231.194582|-232.464701|-251.160831|-107.204994|137.124622|-69.746155|108.130649|-56.877582|-72.069753|-527.359984|-308.728996|-515.077234|-409.372563|-408.243708|-331.684859|-157.610142|-23.703044|-8.609380|-23.823477|175.089285|1.340122|15.583317|0.702526|2.163959|2.133127|-184.587302|-25.569833|-245.525793|-274.678993|-306.891785|-213.463482|-236.748696|-15.635000|169.139786|-128.215947|-216.487436|-533.811554|-107.460279|-37.317913|29.074274|-90.121605|26.789355|-165.605780|175.435440|-79.305812|-11.898566|35.190687|261.397966|-6.512344|10.674924|0.000798|0.568384|-111.133541|-170.715328|-93.357972|-251.696686|-26.355403|-65.755858|-257.318986|-197.262088|-32.218851|-204.041796|63.414123|-387.040289|-171.899230|163.077681|192.633787|300.468467|531.821889|319.781870|6.334713|33.754339|-179.448226|-128.791332|15.335109|204.303888|-56.845953|9.755721|0.895656|-112.296248|-110.192189|-118.088856|-165.225866|-253.521045|-414.514108|-265.120103|-286.036930|-33.381765|189.344255|673.806708|1005.301526|902.586348|912.499737|201.382715|478.159481|635.208322|-155.888099|231.769095|126.458729|72.583961|32.526602|-178.960238|-113.470881|125.041725|-47.605022|6.926174|-5.039230|-111.835291|-112.142756|-317.249759|-198.526616|-169.365806|-303.090879|-287.261256|-472.424821|188.103610|130.091247|70.368674|874.180537|802.278593|620.364415|364.222996|474.686660|442.855089|174.737684|104.689357|-257.496310|-109.340750|-107.145977|-269.376027|-100.565690|78.127902|-59.171584|-10.174831|0.902782|-113.251964|-114.520116|-269.326256|-179.667307|-16.690295|164.917262|-276.013020|-404.493652|-67.991664|169.657155|-637.154304|61.383719|212.585079|-431.032502|-639.448382|-1289.285533|-1586.014915|-1385.382474|-1442.454228|-1054.939717|-533.339458|-255.209220|-357.268213|-182.615772|-33.946531|7.827643|-6.007224|0.659119|-1.416576|-114.393894|-270.018243|-61.287911|-125.030314|132.549559|-114.191551|37.931849|327.688867|-345.448777|-826.132077|638.302181|-70.059147|-1381.624650|-1152.034124|-1783.938993|-2125.608941|-1940.803813|-1729.662804|-1505.870324|-849.068213|-398.481468|-422.859375|-238.135611|75.726587|-42.995702|-2.887829|6.457191|-1.654521|-1.547510|-151.976026|-128.114178|-44.977575|171.846370|-94.658934|115.240123|621.452326|729.124120|531.143594|583.139145|207.470853|301.435812|251.539591|-173.656482|-331.577921|-603.685754|-1252.695497|-1293.009059|-534.330840|-197.378370|-274.201571|-270.020185|110.121879|-78.133042|11.378407|7.118529|0.609347|-110.402514|-178.182902|-139.790486|-92.599902|-101.224977|-83.554374|6.708421|755.758086|524.415699|741.352360|620.151531|16.989767|1442.704969|484.688224|486.371438|1337.004257|223.790582|392.014787|61.508498|189.394515|131.621593|141.267518|-128.297592|30.442576|-54.194390|25.188912|3.152146|-112.338864|-111.241025|-108.653224|-95.330089|-170.484061|-150.488336|-544.138842|111.705315|399.247979|131.103715|-455.038759|-401.197947|-741.789042|660.316409|254.876312|961.286416|978.750319|771.450656|1034.579049|399.026470|563.595147|565.726975|63.410515|94.116581|121.382534|-26.125262|67.994834|4.077279|-112.332723|-112.470041|-143.053471|-138.024984|-172.092307|-442.659606|-529.630133|-784.518192|-566.894462|-1751.496953|-1237.134755|-1072.521357|-1556.893122|-852.607028|-25.962765|-596.013083|639.093696|-70.601380|-156.556734|181.905963|376.230538|509.049802|-48.639584|-194.996011|99.388616|-182.519715|-60.240704|-18.685285|-113.708516|-113.325258|-41.835807|-134.013178|-105.917329|-574.323663|-652.975951|-805.762392|-625.891498|-824.290930|-1188.005838|-1118.554268|-1292.667518|-1349.186115|-927.350183|-167.317046|-88.320992|-1149.599514|-520.971791|-463.979330|-86.036619|-366.999984|8.023177|-267.273797|-178.377919|-167.340148|-72.027906|-18.530697|-112.297923|-116.090515|-107.496564|-109.146310|-210.567344|-286.510917|-388.010544|-675.894500|-304.115512|-340.213139|-610.419284|-457.167484|-1337.045241|-599.931826|-183.267937|-291.700034|-310.927411|-1039.853634|-84.390438|-446.490242|454.859117|98.335221|20.913721|-436.744891|-132.099333|-247.634222|-74.246887|-19.373514|-112.056393|-126.614263|-243.979193|-275.014039|-224.216775|-391.986295|93.011056|20.751801|216.321159|223.321036|770.299410|1236.313568|622.435586|756.912240|236.347125|-225.745790|302.800403|-10.582364|-52.683084|-564.324955|161.668068|95.138288|-100.353951|-312.441431|-50.677477|-155.082346|-69.780571|-5.032078|-0.353352|-114.663345|-237.493645|-335.975483|-326.216243|-363.691903|218.772246|22.177295|428.860423|778.377845|925.892492|769.335850|332.411493|399.569133|-707.148116|313.978268|-128.767614|-58.541219|-255.908520|182.596442|-149.844678|74.448026|-151.600789|-200.719147|-88.408125|-103.578492|-30.514173|-2.477749|0.550947|-1.332775|-157.848732|-297.149068|-205.135952|-339.358888|-68.487617|-115.845451|213.717680|641.517308|193.512064|-225.256417|-655.992465|547.358015|689.614552|86.887188|553.710914|150.970605|638.378191|796.006663|582.625918|-138.864940|-626.744818|-189.518524|-37.387037|23.744780|3.761440|-1.981747|0.804661|-0.111069|-4.797592|-208.755441|-153.370324|-259.831146|-253.965822|-214.864882|-290.306970|-117.068445|179.718652|100.144932|-81.236298|-83.125307|-15.582209|215.031563|-645.248007|13.536958|514.693634|893.168722|294.045761|81.041150|-386.182119|-310.087020|-79.890693|15.084143|5.143115|-1.019487|-0.766276|-0.232083|111.713566|-158.075595|-127.159829|-91.326771|-117.397661|-353.689162|-101.508844|354.309754|73.726367|-219.634853|-580.962656|-603.991236|-252.749473|-169.801123|-892.480890|-632.994916|154.493504|757.165525|821.830879|-79.908780|-238.341074|-164.226744|-108.044874|-28.952847|-7.357157|-1.766567|-0.361962|-2.063796|211.437522|-169.282656|-136.121962|-7.747680|25.669379|-329.950570|-266.464268|-213.259698|-93.071513|-553.651076|-255.237023|-299.497988|-369.904411|-441.061214|-283.619179|-681.296685|4.573306|859.150621|212.493285|-12.918970|105.948149|-5.069616|23.345680|-51.373482|-16.487582|-0.124872|-0.554420|-1.689581|8.531650|-214.595980|-101.661659|31.988773|12.969195|-123.812705|-356.055557|-149.435992|27.011844|-302.065617|-104.719439|-452.106409|-0.640630|161.885865|-394.428627|-754.761482|298.526588|563.956572|331.082004|307.537728|353.168837|-200.124235|33.895470|-154.284467|-64.977170|-55.657846|-1.369398|-2.245371|-7.348075|18.330248|-36.344910|163.444494|70.552334|-8.652214|-21.183899|-87.102999|109.247774|170.161500|-81.063034|-199.499824|90.814154|119.207193|77.713201|-120.157136|607.462149|481.649123|228.336441|157.682437|377.524497|-80.200570|165.074183|11.326701|-63.883770|-59.557869|0.073250|-2.681749|-156.776014|-300.818673|-66.447332|-118.771237|-7.285570|36.795554|154.869688|-31.472670|60.038029|-68.110861|142.157942|160.281788|369.515274|392.849989|-128.461236|-65.854585|-8.774020|153.793587|-302.539885|-217.266234|-123.928903|-52.325870|-62.365250|54.817778|-58.900911|-3.301015|0.005445|-0.553828|141.046092|-231.990543|-384.700080|-338.558477|-375.234429|-247.277735|-225.385076|-438.426938|-5.777594|-675.370563|-387.313354|-254.883652|-25.778786|-78.378849|-265.016604|-151.789847|-772.356587|-330.275596|-718.933691|-398.870688|-244.476294|-278.263277|-282.352065|-49.666704|-121.346364|-0.825331|0.376340|0.346380|-2.088679|-13.354155|-34.260792|65.193547|16.232288|-43.076992|-1.346841|164.163896|322.333901|227.623453|-58.998826|79.668609|187.572487|121.152900|274.823763|123.143362|-20.019457|-348.886724|-34.470941|171.325720|185.877692|-22.993389|-89.755284|-88.342670|-65.705335|0.258630|0.533024|-0.667420|-0.851393|-9.644196|-27.429873|-20.087177|70.709053|56.319122|2.275928|14.872101|66.946478|71.732701|104.414414|69.729355|-100.879373|-221.724904|112.416881|89.508362|-51.992762|-30.290664|37.822981|174.851065|-44.643293|-116.870812|-32.885462|-44.025924|-14.965628|17.585676|
~
0.817877|0.091702|0.643488|0.944674|0.598572|0.515206|-3.972896|-5.306520|-6.084916|-4.877028|-5.650808|-4.474907|-4.064900|29.727405|-16.681579|-17.831919|3.230939|0.530424|-2.995152|39.005618|41.541396|41.333519|36.498545|37.235022|37.680744|38.306386|0.415315|0.425561|0.779928|0.883732|0.966230|0.972355|0.430968|-4.465118|-4.496498|-4.635979|-5.201008|-3.949979|-6.095915|-25.324076|-59.863216|-56.746790|-30.453575|-41.477917|-19.565664|-21.786008|-2.903795|-1.884702|15.088255|21.161777|34.826651|25.638833|38.077535|39.348455|0.368270|0.109669|0.000170|0.783585|-56.814217|121.631933|60.681030|55.507942|30.715487|9.669527|28.944540|21.923588|3.569051|-51.618716|-70.736724|-48.535529|-61.580585|0.043168|4.202524|23.955223|-42.136395|-47.620711|-32.281412|83.572059|42.006261|52.040151|82.552209|49.920477|0.492246|0.114566|0.873965|0.860516|-65.925834|147.637510|15.517917|-10.812850|-8.289356|-17.308402|-40.348413|-40.435196|-87.735728|-101.524457|-55.567700|-114.694503|-71.126750|-71.858143|-116.965906|-165.327887|-48.432115|-49.859616|-13.974597|-12.171627|-83.039537|41.262566|20.731087|-47.242521|0.486346|0.503888|0.932414|0.070412|-58.896617|77.739915|-25.329906|-52.902932|-22.374288|-44.128758|-52.753525|-95.073854|-68.875574|-29.092138|-44.222935|58.397496|-25.614527|-85.847840|-164.846700|-108.497231|-109.263551|58.815279|-74.522181|12.263128|2.879790|27.619061|22.886205|-61.907030|-25.368022|0.673609|0.210252|0.514095|-18.797217|98.576952|-22.227161|-20.356711|-0.437453|-43.025895|-81.837619|-60.218452|32.372040|-16.677411|75.873566|77.715651|-127.747351|-98.259186|-178.780912|-26.042729|-8.315071|234.539181|202.988856|47.034273|98.983037|-23.728692|-22.151232|-60.099363|-27.448969|0.721170|1.192461|0.520030|57.026662|80.802649|-20.052174|-15.569562|4.873467|-42.078892|-94.107915|-62.438410|6.769758|95.494409|130.583661|46.815890|-203.477946|-114.819600|-112.097822|-116.181721|4.418159|185.942533|408.308465|124.372049|123.972665|27.203993|-21.864817|-36.747286|-14.748006|12.110445|-0.014904|-2.952309|61.094204|98.258039|-9.437258|-18.898877|-11.895073|-41.068199|-106.262411|-66.319879|-63.608667|-17.953352|131.168738|18.340337|-176.408985|-182.618012|-131.036764|-88.330691|-33.243120|136.957754|436.100358|196.524586|44.245650|29.369971|1.816748|-49.989474|-13.446890|11.662656|1.627347|-2.063102|79.144258|102.965509|-25.058784|-22.200190|-13.715888|-13.811296|-88.440390|-58.854442|51.212827|-151.186001|55.454692|-93.208524|-123.431834|-60.025798|6.569079|-45.311995|108.372839|359.154903|380.237740|125.010362|32.931073|-5.228907|26.188387|-5.095143|10.536098|12.143436|0.322575|1.651934|64.406640|23.024893|-26.243327|4.029633|-0.083177|-26.126758|-120.788391|68.900932|-79.741445|-143.775861|-184.425544|-75.523048|-427.559695|-272.761431|-212.837335|113.037983|293.215499|193.957891|137.952919|212.818698|-41.478536|-21.108979|67.099764|63.030497|30.131953|2.798903|0.161891|1.228693|81.049084|1.303221|-20.433297|10.231754|-14.693893|4.752630|-38.478771|18.915839|-56.901744|-129.713348|-273.072843|-262.475685|-420.209160|-74.651825|-116.669390|287.163068|571.502874|284.872826|-103.166392|47.745169|-158.456671|15.943068|62.598262|93.435384|25.944905|3.094525|0.150034|3.005254|74.375822|24.543342|-13.425645|-8.438346|-21.821333|-57.737377|-94.560923|137.906928|7.301284|-60.040121|-380.319043|-345.860311|115.199638|219.662407|181.045661|409.959354|588.972419|188.037731|-76.369434|-136.423995|-96.376665|13.458150|58.582031|8.654348|13.948488|20.367240|0.376461|4.081249|91.724809|28.249334|-28.648106|0.605772|-67.976072|-116.937850|-117.364172|0.609170|5.732037|-105.126826|-384.213783|-304.515120|-220.333116|-32.668739|30.046461|502.175068|330.726728|-46.097263|-291.947328|-245.561620|-194.161696|-24.673644|54.486503|-13.420759|11.188185|-1.198866|1.574228|2.815901|94.483592|25.850353|-12.703028|-2.517021|-19.034571|-108.962374|-131.605391|-116.691347|-2.061155|-206.771266|-234.847781|-313.260411|-107.598937|-262.131416|247.507064|305.902024|140.480683|-195.549560|-356.324797|-211.413612|-191.413632|-80.507046|35.470745|-67.691165|-12.684515|-1.929273|1.988487|3.106370|92.711025|-1.998597|-19.397044|-1.784886|-2.655189|-52.013435|-112.258993|-122.775809|268.917053|38.247369|-138.569377|49.300437|-264.307073|161.440158|323.953336|412.420834|70.532894|-379.980315|-258.116567|-205.543680|-188.642110|-56.816998|6.462368|-43.647726|-32.928334|-1.943639|0.385225|1.696392|75.352791|-25.448472|-28.596484|-33.802739|-12.161312|-51.909742|-100.300660|64.331327|-8.680154|-7.784728|-273.521800|-140.361765|-141.336676|233.994706|264.097116|286.548251|-622.474893|-343.454514|-154.363636|-190.564043|-151.997040|-44.455932|-29.495115|-36.200291|-34.264784|-2.796433|0.744626|-5.277758|85.585577|-29.525516|-56.684918|-41.589068|-68.606194|-94.006049|-189.975845|-41.884706|-183.268849|-439.587894|-716.025792|-148.683042|143.095712|653.040364|231.026685|79.993134|-509.161889|-371.348248|-258.951037|-245.764813|-122.502784|-33.162346|-53.384476|-63.321962|-45.146966|-27.838788|-0.879903|-10.775187|79.867063|-40.920308|-64.046948|-32.315182|-22.800065|-41.193229|-136.399368|-236.216747|-336.316627|-381.698306|-405.756952|-489.373899|246.746704|645.510163|307.881262|-190.075736|-570.117887|-392.089522|-387.838005|-284.898491|-156.377126|-109.880986|-81.845267|-72.110763|-37.519594|-31.726508|-9.263567|-7.302601|102.662014|-6.399519|-47.421710|-11.926256|-41.570809|-4.795849|-42.975919|-135.551823|-229.086854|-316.898418|-323.755234|58.171015|233.657459|556.573321|42.448205|-525.725041|-397.609430|-278.813045|-268.207635|-202.953713|-88.709686|-45.881837|-77.368990|-79.618064|-33.088298|-30.668945|1.621700|-3.449507|101.147873|-9.246661|-25.973741|-35.266685|-46.058786|-27.031067|-48.986302|-137.836847|-260.585507|-328.068484|-220.018261|290.084939|593.470213|478.595671|-112.897602|-454.768705|-448.382619|-171.095014|-189.882294|-92.089198|-63.672149|-96.849428|-69.132473|-90.723842|-33.367990|-2.969414|-6.175415|-5.023932|44.851580|-9.277628|-42.496135|-19.356488|-14.997254|-38.015276|-55.362423|-79.164713|-145.618028|-303.494991|-42.092936|52.983125|532.267398|107.787325|-516.267929|-712.012067|-394.126277|-268.599450|-161.833986|-107.347951|-58.624386|-80.840480|-63.881911|-67.873580|-15.451996|-2.931866|1.810311|-6.437542|68.590724|-9.272048|-11.074547|-0.943529|-8.459231|-3.274423|-19.018170|-79.921115|-196.589254|-98.494714|-196.814399|396.963985|550.936600|370.894417|-265.006226|-371.977074|-306.871835|-178.665179|-128.459183|-35.532285|-7.883187|-61.692325|-28.425922|0.244475|2.138410|3.436895|1.373688|3.374131|93.543839|-9.644323|-13.688728|9.880560|6.118065|33.988243|-31.810494|-84.225659|-339.416334|-212.082345|118.804547|185.122824|366.354954|-201.608664|-582.382863|-376.130405|-260.630842|-206.174679|-110.656734|-28.273234|22.335996|-36.563990|0.872957|-27.675942|13.952160|0.212206|0.831668|2.459889|49.225202|14.403393|-46.555585|-11.306439|-18.343375|-11.596480|-87.977797|-194.592823|-181.128573|-199.806247|360.149659|687.320342|335.788881|-280.172535|-326.839755|-213.649651|-166.622133|-105.429841|-62.968780|11.030497|-18.601017|16.354241|-12.471782|-22.194433|-1.286308|-1.354610|0.649112|3.411986|6.752269|-52.045060|-27.158409|-5.745607|-50.566673|-113.051836|-153.333015|-166.636102|-177.288840|-28.493517|272.917065|447.719098|-282.173694|-450.725976|-387.598145|-310.976676|-170.859305|-123.734970|-86.249762|-35.439656|-65.251470|-45.804010|-39.769920|-79.863929|-17.645336|-1.643171|0.793827|2.006427|-52.835882|-103.469496|-19.370146|-73.900802|-85.344073|-76.983266|-210.373282|-95.482940|-71.421759|-66.415133|270.566523|176.118926|-288.882068|-442.555877|-396.968147|-292.129329|-161.606082|-110.460106|-159.701472|-70.805650|-142.841508|-103.036129|-94.328704|-141.197884|2.347931|1.294624|1.085564|2.116528|0.473047|6.357451|12.133393|8.493455|9.755184|65.800403|-25.925161|30.641900|-50.093240|130.477116|477.544994|101.479877|-49.304697|-264.865818|-219.054004|-180.027231|-11.620778|-5.699790|-12.495713|-13.742112|-14.064398|7.228116|11.573135|0.972348|1.803776|0.480220|0.868117|1.693569|-4.941056|4.220513|9.007343|14.135652|8.338060|44.954712|-175.627533|-84.579681|68.117797|29.600997|181.463251|-176.561803|-199.901236|-235.701653|-310.782876|-164.115150|3.431512|-9.368294|3.268732|-13.558912|-12.994037|3.312586|2.731623|2.364776|0.887615|-0.215486|
~
0.534165|0.630321|0.588155|0.411192|0.582864|2.963134|-2.331074|-6.465401|-5.309611|-4.227050|-22.233713|-9.624825|-19.755060|-50.664696|-50.589169|-84.679511|-44.789582|-49.634550|27.489166|2.821352|33.258328|40.284948|-13.996502|-12.774385|-3.704285|-3.846398|0.883730|0.003420|0.213210|0.362417|0.298436|0.935656|0.373565|-0.519957|-5.272698|-5.356444|-8.254625|-5.841055|-3.564034|-64.974023|-229.291089|-138.292842|34.523465|54.399160|21.883332|-27.512502|16.538817|26.998519|33.411469|18.330809|-13.395688|-28.593491|-3.339407|-3.678780|0.390488|0.521334|0.831587|0.274218|-46.910355|-10.217674|20.171948|33.677864|30.595129|38.430977|52.213278|-36.045962|-9.383143|-198.885237|-212.204315|-24.340044|95.730666|4.153321|39.794494|109.594499|175.950453|0.081961|30.427169|-53.378593|-84.300780|-103.794049|-208.059395|-152.364362|0.592492|0.107586|0.567672|0.982980|-51.995231|15.100234|-42.427239|-11.834559|-19.200152|-38.103768|-156.414326|-128.806425|-203.349812|32.382715|348.759618|-55.856489|53.434774|-59.197936|96.518566|-63.267813|104.704008|140.224078|-21.285280|-71.825598|-143.741368|-102.055160|-121.188885|-125.311441|0.014060|0.863375|0.174938|0.215622|-17.923798|9.489289|-36.098881|-1.481210|-69.440555|-143.669096|-93.906873|-207.810123|92.832100|126.071136|32.578428|-70.206829|-174.611054|126.387049|323.096916|517.620259|-34.713585|120.591757|-107.687848|-63.744596|-97.032694|-130.287318|-135.115024|-63.267494|-2.289487|0.130273|0.650903|27.563460|-36.646373|-42.578369|-63.333582|-248.423810|-218.167921|-322.137723|-324.057804|-246.273746|-88.877688|27.906272|-171.817763|15.508173|-333.069036|187.142765|178.445444|285.424449|219.109175|-76.229321|-62.730709|-116.232494|-115.854272|-137.836244|-161.806155|-133.628178|-2.672778|0.274706|28.470408|5.600920|-50.796091|-87.726901|-182.765804|-222.737743|-246.170430|-394.904098|-554.140852|-465.285649|-198.779603|234.602692|35.222913|-69.874861|99.527024|412.460070|365.033611|561.075415|347.991952|-70.104796|-72.473468|-109.790970|-109.779940|-104.151553|-127.994934|-33.253847|-2.960945|-1.434691|27.174764|24.348767|-19.435136|-122.299156|-141.239339|-188.662436|-181.009509|-415.718285|-414.645224|-466.639462|-555.882266|-218.869194|139.061863|-200.230111|182.180765|441.959958|852.947004|575.784041|498.778269|-94.032303|24.714271|-216.992686|-109.889540|-107.693783|-108.022594|-23.787496|-1.430406|-0.720314|28.679603|1.355331|-102.066363|-111.607092|-215.212920|-234.187434|-184.536144|-234.696369|-655.461045|-560.132343|-327.555877|-401.656262|-629.296781|-441.056022|68.551165|257.388937|570.685130|809.646086|286.147666|88.317049|-115.175715|-210.682903|-126.475912|-75.287731|-34.747488|-98.971101|7.611905|0.141108|1.002699|27.867275|-123.508561|-106.806526|-128.503546|-171.540132|-363.435755|-561.682309|-657.728119|-265.554178|-220.243948|-750.128189|-633.965703|-661.233695|147.799002|26.338553|313.969587|548.385749|-23.300514|-268.828619|-228.071426|-243.069125|-71.449083|-78.162494|-10.318164|-8.609516|14.152725|1.520869|-0.127978|-22.374333|-143.307996|-72.360518|-112.969532|3.933640|-291.414792|-13.913930|497.966954|337.838342|-41.016454|-245.999450|-1051.064556|-89.667915|-166.415612|-13.813212|39.723834|184.407167|-143.046615|-434.254694|-219.210622|-202.213210|-133.258760|-93.696570|-54.401411|0.151610|13.168420|0.616780|0.847882|10.022997|-129.114188|32.576955|111.726802|-73.206906|-84.214372|369.399536|649.638268|-153.683486|50.874156|164.302137|-442.593380|206.295065|401.997290|167.243878|20.226043|-0.816996|-664.430301|-573.653857|-406.003456|-172.531725|-92.527225|-175.799217|-60.460689|-30.263616|12.050344|6.748858|32.549724|-2.637084|21.132684|186.644671|165.330240|65.578801|351.976446|214.715769|129.092948|-11.708602|219.928907|-107.530180|455.491493|542.651018|338.887146|230.439475|-30.535706|-675.537209|-1014.209584|-596.296362|-384.312094|-211.000961|-138.348370|-163.431480|-97.606059|-9.647121|5.813594|-1.280381|56.585479|82.954919|0.774657|53.524479|262.037140|114.274664|398.218874|-26.431164|36.015766|-211.931027|-128.192141|598.570457|746.163587|497.024900|437.905779|-182.553083|-664.166099|-1054.008138|-814.895984|-682.973745|-329.508421|-211.017996|-134.455969|-137.931287|-76.785613|-72.050806|9.393959|-0.205382|106.593136|73.837627|74.293071|115.991582|88.562701|-237.624481|-85.337948|-164.546527|-247.997491|-261.843261|64.167401|502.747654|769.665635|424.489501|57.173313|-769.941043|-756.829091|-762.256436|-502.070553|-412.507195|-210.584655|-263.809093|-147.347087|-156.345360|-76.944827|6.084917|4.723292|-0.625401|64.090061|85.337474|-9.719260|22.275738|-124.484870|-251.990824|-218.086835|-94.937761|-367.632078|-48.498425|195.033496|844.915403|925.310148|562.338990|140.878314|-612.176936|-646.916965|-249.216014|-200.137969|-372.696945|-230.014115|-270.119820|-138.040715|-123.007819|-11.773766|2.933311|3.634129|5.103858|-11.171984|0.562901|-144.244116|108.734419|-127.046396|-227.062316|-45.912532|-285.269163|-310.636835|19.984602|517.650819|127.917569|-100.181329|57.406394|-426.567281|-658.489955|-646.796562|-546.343987|-110.936136|-322.474081|-232.361307|-123.458993|-74.967756|-59.040042|-44.360418|-1.845531|2.390732|5.188332|-47.975775|-37.494634|-86.036047|-15.061764|-34.161965|-89.649193|42.656936|-65.050166|-306.902965|-180.247889|437.636021|275.506715|-127.919053|-83.192841|-120.919242|-319.345784|-477.969957|-488.199605|-271.289645|-284.088349|-291.170308|-142.149997|-39.845576|-83.890738|-38.234175|4.190927|4.232696|-2.011570|-85.756155|-52.699327|-98.282029|-125.634786|-83.441244|-106.515818|-44.554927|-201.958644|334.992848|13.633674|562.272518|322.053284|297.557522|-50.451305|-355.557799|-441.256571|-477.697920|-449.196426|-340.505703|-277.714003|-279.205878|-156.460622|-78.923284|-37.073370|-44.936436|31.796573|4.049238|-0.918940|-3.764264|-36.287615|-6.599306|-223.107552|-143.755680|-103.242512|-77.722807|-152.269151|155.868098|-158.018504|-260.564875|-360.608394|-162.916169|-362.909718|-427.645988|-537.033337|-214.383528|-245.389791|-143.067107|-108.607117|-162.869771|-86.429794|-56.221280|-25.100910|-38.313265|-0.160614|-6.009190|-1.405469|5.236011|-52.915441|-118.730961|-255.940460|-191.811322|-52.741568|229.877268|379.153328|506.389612|110.916559|-134.930526|-59.268993|-73.278628|40.662045|-255.169558|-292.153629|-120.005002|-193.566954|-242.999113|-121.767432|-82.547173|-38.029280|-22.240526|-51.622454|-71.368189|-9.819601|-1.714309|-1.041299|49.541484|-50.620970|-123.080936|-130.325374|34.454930|102.599879|483.107286|407.479130|454.016790|375.394543|154.500571|14.911013|57.909812|-308.084434|-449.492055|-310.993985|-225.468489|-193.911054|-197.704293|-105.192877|-26.007607|-32.284453|-24.836497|-47.871386|13.831296|-17.532592|8.082211|1.283878|30.774698|0.738900|153.944440|-41.312348|83.090534|60.504514|353.393177|337.787518|446.553242|101.546645|66.536750|-325.280459|-414.556294|-554.931377|-588.982623|-381.583011|-240.705317|-230.110962|-299.308851|-192.284770|-102.699129|-118.394979|-86.947728|-175.929874|-33.227381|-75.133742|8.825668|0.317207|28.299343|22.156643|271.955742|448.268155|267.011303|178.410988|465.511664|354.753311|462.584637|260.286323|53.919813|-181.618388|-229.510076|-337.868953|-272.095813|-96.046512|-91.013813|-29.559633|72.370309|122.260820|206.986217|160.115402|191.564189|264.124606|219.910533|322.750712|-1.018316|-2.395117|-18.303741|63.203099|266.823757|309.727615|308.645997|252.480528|68.509137|140.690887|251.137935|50.268809|-108.645640|-262.013125|-280.604749|-376.483489|-324.047270|-123.412342|-159.080496|-18.318024|89.314368|94.910750|106.673000|107.453358|164.248967|142.076747|191.969840|10.448888|-7.252033|-2.141210|56.633828|11.382384|363.177332|292.122174|355.435937|98.779005|-282.122765|-167.699626|-40.947912|18.010372|-195.666269|-342.476561|-320.790803|-426.403096|-223.557977|-84.481740|57.259058|-9.694156|55.491739|93.291662|97.810734|81.539277|8.490701|71.765658|49.812706|-232.970204|1.708287|0.967006|70.472164|15.683481|-12.643671|41.709200|32.775779|-29.537458|-76.853180|75.166995|82.638367|-48.818155|-239.488739|-210.813790|-280.830260|-152.989081|-158.625068|-150.179304|-45.952118|-15.342276|-26.274200|-17.947401|-23.442980|-7.466921|-3.535101|11.101138|11.485716|2.215892|1.613784|0.350343|70.210694|33.390007|-6.473064|-65.809812|-55.085730|-26.129102|-12.954936|-103.828826|-100.385936|-178.908124|-322.023935|-272.858856|-172.288582|-67.253457|-83.359937|-79.731760|-30.946692|-35.890905|-25.603256|-16.764032|-12.166247|-9.656714|0.052735|8.539840|5.982218|3.100246|0.302283|-0.603372|
~
0.349974|0.012359|0.570817|0.762914|0.729481|-102.177987|-106.471234|-122.446200|-192.624133|-244.123717|-261.964486|-198.527119|-77.907980|-68.440407|0.891985|31.392324|9.335543|-26.858486|-52.411048|-80.029417|-68.432599|-66.445420|-55.601901|-54.387362|-36.495017|-35.385966|0.259037|0.915872|0.255573|0.781162|0.243730|0.967948|-14.623260|-94.286877|-184.855713|-313.627048|-304.556702|-216.829488|-286.474781|-219.687025|-279.997588|-247.151807|-138.514753|-86.207707|-12.394910|-40.348290|-70.849564|-108.192271|-113.424932|-104.200143|-55.572385|-65.252280|-12.742519|-12.771924|0.806939|0.921996|0.678943|0.065976|49.481083|0.693573|97.219900|-23.696838|-89.454043|-121.257769|47.162684|43.734902|93.537604|-236.911608|-224.225613|-287.368055|-79.680716|124.174397|33.039408|-9.893056|-118.302839|-196.403587|-197.513049|-223.171695|-202.858062|-164.860054|20.633952|-137.765726|0.866572|0.267649|0.088716|0.673511|-58.498917|-81.026635|6.416824|-86.803959|-77.462690|-156.145536|-78.690896|4.050049|-34.352251|-61.333102|54.870581|5.273963|175.997411|307.346495|163.699155|-109.022121|-144.721240|-268.997682|-190.825973|-296.984097|-301.400935|-154.437131|46.570780|-58.747618|0.472936|0.397958|1.335025|0.691419|-12.515450|-129.561437|-134.419738|-171.808616|-126.074996|-162.318174|61.072383|356.865413|372.411153|223.134760|-269.743310|-394.561466|230.501809|628.231755|447.505409|252.650619|-139.947405|-326.645134|-425.208051|-338.325236|-313.409320|-221.093303|14.313484|-97.926694|-3.288898|0.398015|0.099593|0.637396|-46.995228|-166.798384|-188.816102|-2.734517|-33.534334|179.993217|427.006346|553.278651|243.825988|311.390281|-232.630962|29.125753|221.775803|618.507920|134.626462|79.198596|-200.254432|-410.604783|-336.829365|-298.286137|-306.134422|-329.597201|17.198964|-146.369478|54.683940|0.702924|0.686080|-15.470988|-74.689342|-103.336757|-83.943770|270.311381|216.109888|170.002091|204.263996|169.665271|-144.024248|-48.615040|-151.448621|179.042317|556.285642|711.814489|131.239415|137.457068|-160.065102|-174.063052|-333.716809|-272.208831|-342.798187|-155.654045|-134.693796|-32.680827|131.057737|67.684444|-3.575822|-5.785296|77.352610|0.984480|-63.126517|145.466801|297.092196|-55.875713|-115.417385|-192.569766|-335.294880|-39.903601|169.730094|704.542832|619.467729|203.615366|602.017256|594.593447|548.058503|242.624860|233.790516|232.727508|98.681437|128.284627|101.241716|-62.299794|131.636493|128.100095|1.446494|-18.521209|17.952687|24.241592|-112.069250|48.669721|220.058004|52.879916|119.239579|-167.890842|-592.056381|-337.904728|111.366783|882.799549|854.937885|471.283605|723.949211|719.445952|738.569127|249.860802|426.332501|361.602507|332.992413|310.402233|448.344518|59.673904|172.306679|128.244559|-2.129374|-0.427012|-25.537479|-34.528059|-171.384200|-214.510952|-86.399189|275.511290|-213.212586|-376.379270|-1008.922099|-278.250965|227.124612|477.651424|661.006053|65.179966|326.586320|314.082866|-95.608429|-202.418457|65.454726|325.751768|265.669076|257.963261|521.273460|296.012786|214.431201|108.677838|-2.655068|-12.445055|-111.948159|-149.521323|-117.476839|-103.759142|-73.114895|-93.457990|-293.627733|-778.355931|-961.431085|-305.267081|461.528883|265.482442|69.959831|-73.310656|-501.982522|-134.898503|-221.644990|-216.517837|-8.157950|-157.089238|12.268786|74.634847|389.414780|194.180008|195.292906|144.023014|-0.146666|-4.682793|-166.656101|-81.922938|-128.755677|-251.528539|-210.944681|-375.203001|-579.116250|-771.447349|-145.507565|518.836256|559.089078|295.105222|-458.687031|-704.344132|-848.007763|-595.918765|-367.510562|-264.248771|-29.204438|-270.165888|-47.574927|150.145926|317.142415|-54.900219|177.463497|159.842237|-2.762762|-2.517536|-96.400906|-160.991032|-167.832201|-263.109274|-109.410947|-276.611931|-638.560133|-518.383362|-95.948602|769.343076|600.746633|-137.279679|-889.296777|-844.166361|-913.846824|-780.037213|-447.528051|-191.829885|-329.466581|-276.223390|-146.482699|72.431854|314.634111|-49.035720|190.562076|87.342017|-0.906061|14.163428|-38.396670|-142.479483|-75.874893|-37.882579|22.156022|-179.458516|-129.729275|69.714155|750.575061|961.909732|586.329904|-223.283789|-1143.450485|-1037.819718|-1153.727028|-851.164383|-443.735516|-365.530148|-350.507698|-391.579939|-36.064385|3.361713|142.654588|-60.238936|168.512681|82.273060|22.044333|6.232247|-74.734968|-63.594103|-178.354869|-441.478434|-236.162481|-429.090966|71.574927|-88.878751|915.844880|767.152380|-292.843010|-319.848057|-723.232017|-829.998523|-853.916911|-704.179200|-362.717383|-264.909550|-293.660504|-129.229258|-95.710282|-152.501534|57.064282|-103.657991|58.081992|82.609984|17.776665|7.191311|-40.325590|-108.389895|-130.149716|-145.994686|-369.612967|-597.219005|-111.607561|699.401414|636.618930|-66.431920|-550.206259|-496.290337|-281.506115|-784.971141|-258.775062|-242.477687|214.189469|-189.981061|67.274457|-29.006473|-193.895703|-319.791481|-195.805291|-101.039219|-41.767350|65.898139|8.317306|-5.903080|-107.969297|-143.230146|-171.016500|32.144879|-19.064420|245.319298|96.047261|270.197762|518.137100|-339.443917|-744.592913|-660.346215|-665.015830|-956.318058|-452.094307|-54.174216|215.388526|140.720256|308.448798|190.986706|-106.792145|-234.629196|-89.506704|-166.339276|-68.768111|10.526743|6.437196|-26.036136|-120.740002|-178.026623|-152.501284|-201.100402|-232.184832|197.199311|-3.092587|743.092992|636.711766|309.629162|-239.780528|-280.597997|-589.112874|-676.922630|-332.146963|63.310262|112.382294|-30.292553|93.858011|-186.719972|-158.879244|-315.800317|-156.850423|-118.227766|-32.967205|-20.268429|-20.077257|-24.809732|-131.769570|-101.121496|-130.097172|-122.264624|-196.394907|159.993804|117.264384|302.110209|-174.693134|-730.767563|-852.396577|-633.640050|-456.782084|-290.345434|-443.704531|-209.601864|-297.000082|41.791943|-63.893824|-131.259565|-22.152285|-335.382460|-144.678997|-140.750280|-97.887460|-11.714844|2.736021|-20.543811|-148.298250|-157.847744|-285.019776|-266.492397|344.640964|523.349731|627.870273|416.094628|120.899848|-568.352142|-377.873412|-487.378863|-277.694701|-217.925280|-418.454097|-221.337811|-134.880966|-80.399975|18.594106|50.595649|-7.624343|-234.591275|-57.045505|-240.681575|-128.840895|7.224357|-22.703115|-57.413216|-125.900982|-120.170691|-364.057078|-246.315012|186.894833|425.294492|434.657267|532.824202|-375.675176|-612.413201|-394.690645|-443.915200|-267.526990|-222.046575|-271.996507|-351.183965|-247.065128|138.107897|230.438824|380.079539|193.695002|-23.383765|201.230218|-41.177880|-51.368361|7.751204|3.334411|-76.281491|-187.441491|-211.724622|-368.698516|39.951849|205.517726|129.215789|194.701633|-206.812046|-317.611498|-404.915181|-359.278251|-156.296727|-97.319054|-236.871458|8.313166|-226.715229|-159.968617|237.339847|316.090867|123.543564|129.869991|-2.885743|197.296196|52.791183|56.817503|76.629024|-0.360848|-13.951287|-147.393243|-204.282570|-86.835650|38.420560|184.136073|-6.380706|366.654038|-263.543602|-348.523651|-450.746356|-594.071978|-428.219567|-400.804802|-233.668859|-85.205096|-151.594411|-109.727371|-96.881203|-51.912661|-82.900722|-79.183309|-308.637668|-46.347850|-183.551600|-13.104135|-1.690545|-3.367476|-3.235701|40.615151|-31.138833|-105.181904|-139.838841|-55.197739|-26.568971|-53.031705|-226.443934|-375.455486|-675.752949|-542.745631|-382.086075|-162.587177|-86.853716|33.043691|-229.772866|-160.756061|-197.129902|-141.932436|-60.576174|-90.626163|-159.382774|5.379559|-35.562459|-56.044040|-6.359101|-3.596244|10.710008|-86.596872|-57.003434|-20.213155|8.452156|-186.563315|-158.940206|-255.001118|-390.690109|-515.364323|-568.422684|-482.954632|-432.235616|-284.695006|-195.072226|-213.588242|-148.071294|-126.004288|-166.130644|-156.282458|-80.527431|-167.153996|-165.905050|31.020050|-210.886867|-71.503574|-4.194350|15.567411|17.757400|-164.359656|-64.296098|-123.517380|-224.472405|-265.635826|-208.810593|-235.892231|-287.250554|-282.993701|-364.004476|-365.348281|-367.563740|10.423753|26.792541|117.676956|65.866494|-27.671360|-100.099949|-131.411093|-89.218325|-148.169994|-260.205719|-344.825243|-389.473942|15.034321|0.462306|14.790126|18.004051|1.577535|10.144435|-119.923030|-100.585282|-143.950217|-101.229455|-177.822668|-163.664095|-204.251267|-178.713738|-230.979624|-161.879887|-155.430647|-22.357614|7.020543|-25.446091|-60.876900|-159.130535|-184.551536|-173.441658|-153.848673|-140.877414|-124.372109|14.553798|17.179609|0.272427|14.556574|22.312787|-6.675415|-26.212819|-25.740677|35.144766|-3.210288|19.834681|-24.537446|-62.565448|-56.735846|-62.290590|-91.947551|-77.927255|23.924538|13.919699|-12.514018|-13.340712|-35.220930|-81.525205|-103.359773|-75.967965|-86.650080|-71.770309|18.122066|16.571292|16.217505|-0.073821|
~
