1|1
#
~
0.694704|0.223596|0.224915|65.257990|71.649149|91.409833|159.334171|154.112746|153.822180|71.935166|29.191859|-193.759326|-168.233873|-196.733207|-148.749253|-78.314762|-3.293882|-48.902082|23.525870|32.236036|25.375385|-61.383205|26.047111|39.721755|38.009687|-48.419484|0.481789|0.643002|0.782921|0.044364|65.140563|50.646579|87.015350|17.294788|42.174549|33.535787|-27.895937|-115.435690|-149.487632|-314.497025|-507.436988|-322.433390|-117.294675|-132.868797|-4.408876|-217.071752|-50.483660|-29.529861|-104.141145|-155.816738|-101.306775|26.026036|30.358436|-55.842459|0.745913|0.736959|0.589307|0.227702|-280.091360|-327.562432|-243.091968|-77.023615|-46.501235|-139.692775|-205.058900|-322.902762|-453.600552|-205.399004|137.571875|231.085889|260.734410|78.260970|-46.675351|-244.602328|-22.969092|361.104018|76.315074|-93.085297|-150.025288|-168.447788|-191.094349|-251.908409|0.420227|0.555528|0.744384|0.166141|-128.616914|106.060928|-4.173497|56.526526|-262.628380|48.658847|-255.447021|-304.260349|-320.468487|11.214562|180.244534|-16.467083|-102.662127|-288.167022|-428.946445|-386.752025|-98.551859|118.360152|283.782531|147.405335|24.984741|-110.088911|-79.565326|-192.262388|-126.362396|0.137005|-2.418095|-2.736244|184.258164|44.414043|-0.843388|-134.213518|-443.198750|-624.688911|-281.081607|-218.817811|-110.309244|104.223917|218.958699|-60.729392|392.105241|-84.754904|-469.822456|-197.022666|-340.367149|-172.280780|231.837841|295.454387|352.397795|149.049034|-64.411670|50.277987|-122.843516|0.498303|0.592839|46.050727|23.707468|138.757463|-193.218644|-285.198757|-615.686247|-470.152628|-478.392790|-253.602913|96.612584|-442.361396|-118.337658|-142.138775|86.777551|92.185024|41.773599|-284.408584|141.097693|-271.833962|-22.824181|246.066586|-71.622373|-150.804335|104.970819|-36.221208|-126.344990|0.978124|49.199210|5.063451|-32.791891|-26.646775|-173.234544|-469.962165|-407.792262|-307.144812|-278.826671|21.323137|-504.279393|-539.073891|-101.351691|-261.192400|160.902863|-93.785789|277.089353|5.404159|-338.716844|-512.548884|-254.915702|376.362439|121.971940|-203.843925|128.257224|-163.405732|-221.423605|-44.273747|48.012979|-24.714653|-84.694793|-150.597334|-138.146135|-224.821264|-367.674933|-17.635966|-371.166672|14.900367|-88.783813|-459.642729|-511.778151|-293.853819|63.948809|-45.713634|-124.595265|178.726784|5.700652|-75.242564|-466.311560|68.101129|-108.500091|-156.387289|-248.775836|-40.207536|-36.199859|-51.288674|-70.364249|-206.982254|115.029627|-445.497626|-116.533102|-342.780945|-171.801596|-274.968042|-545.118985|-742.056180|-478.034758|-166.126598|-593.712856|-106.274250|106.906214|176.555201|-43.769639|-118.256932|-15.851512|-40.993097|-392.773508|-214.123905|33.490603|-275.714927|176.680909|-152.227281|47.844820|-51.424194|-98.929173|-163.539517|-98.769847|-322.118584|-241.235276|-297.691863|-394.264371|-437.796727|114.669339|-141.761492|-44.519560|-381.175176|-539.533807|-25.191499|-271.223451|-8.722494|180.011043|-118.992745|-57.612476|283.059482|-80.703267|-529.134656|165.733840|-217.566122|-41.597181|-74.159716|-18.051207|-86.861333|-97.725394|-135.804903|-85.791160|-144.612496|223.921896|212.332788|-100.807122|571.675716|-72.394399|359.061967|147.887466|111.222597|-399.012779|-244.367547|119.203477|-287.567739|-24.219017|-58.021804|17.863983|-437.125316|-355.955706|-377.213296|114.571351|-70.947150|-297.526539|-336.646299|-131.943308|-225.721996|59.413252|-47.726868|-74.095812|295.419967|175.545428|312.928424|106.703577|107.643475|49.939496|-101.523525|398.088592|-120.008543|181.650565|-450.890637|54.496126|-72.141736|-425.589532|-102.870893|-134.185343|83.424160|-311.823197|-269.781751|-86.917724|-29.324582|-464.094215|-251.272310|-149.210958|-243.786667|65.241542|-51.064794|-80.834110|144.162379|-23.232927|479.817103|433.409700|73.754386|177.014893|378.301544|420.502083|-52.759381|393.165516|333.964044|-426.839553|-293.358005|-53.857336|268.266975|381.123722|-139.829734|-147.292055|-121.307501|-190.568398|-245.770437|-242.345127|-115.564390|-81.141462|-95.588385|20.600110|58.303571|58.535095|19.565024|315.156327|82.123396|157.494796|330.244040|484.505146|224.089947|466.800280|938.369699|206.718484|64.819988|-243.809409|78.464575|-119.503152|-394.293586|48.596394|134.913038|-71.972061|46.504975|-99.312196|216.299492|88.440949|311.439110|2.829215|119.129699|-11.772875|126.845817|200.989823|199.028285|390.087858|170.961234|211.806440|169.474523|147.240745|772.024859|653.759794|445.819890|305.763426|254.386337|621.092751|-75.039061|133.136004|375.820641|632.350401|488.128100|574.920585|-21.367076|430.198934|-115.107226|528.028326|459.810080|270.790292|118.558975|-22.136492|37.847344|-147.032215|275.932784|440.790115|749.980984|150.530075|695.911896|171.278233|1078.934279|575.552438|446.122885|-45.462435|291.422139|555.715181|377.131781|235.485354|437.874852|519.692266|477.447310|117.535297|158.248362|49.860286|411.502572|72.023428|335.268534|302.606144|93.992097|47.316184|45.016649|86.844052|-54.266436|190.475915|390.737139|39.956101|334.107287|-22.799398|212.507049|-180.368537|-141.589892|388.581540|43.430192|45.432032|297.240861|259.217816|96.168117|99.932724|217.744241|145.707495|337.123054|443.891435|97.535197|-139.349176|236.393562|356.107477|173.781494|57.694371|192.328459|-63.400643|-42.956375|110.841455|290.951594|94.983563|435.455096|624.327942|-7.838735|106.134882|-66.951210|46.099487|-249.180739|538.730842|93.759355|137.851723|68.873733|3.534696|-153.482512|387.284603|37.951072|258.044705|27.069966|87.202427|152.319240|198.193787|79.860353|53.464718|193.885730|122.151208|191.277972|-126.673942|49.686151|270.656386|285.410063|614.544668|0.355150|-3.341150|573.172473|72.900714|65.925883|-76.584129|25.680166|-1.343505|493.801957|203.638196|203.372603|66.210086|-95.471342|149.983376|20.801206|143.012403|12.672066|95.395783|107.292748|19.370246|136.635764|-210.669330|150.409215|-378.583906|62.248964|30.365454|-60.775366|-311.018232|-238.661111|-218.414594|-170.923289|-68.969746|22.355736|-258.977980|307.521775|-127.676576|-90.894813|-147.101560|-248.361782|-151.935582|38.559707|63.788401|28.466254|-91.129904|3.812824|-117.699797|-12.129466|-65.049906|175.361662|-97.191936|-306.521180|-10.624894|414.048965|-0.737357|190.082394|1.278614|-117.575257|-236.248476|-290.755468|-157.827182|-329.520155|95.364543|114.051888|73.674013|73.848313|-109.219501|242.202744|-325.944595|154.024171|5.414544|-430.758996|-111.447560|-31.312908|134.710982|-11.747230|-31.292196|263.063930|-67.317758|-85.689585|-255.007822|80.246281|-114.639686|605.577773|377.246385|8.588838|-238.000068|-137.003152|-184.085577|332.320722|-151.063605|-121.709028|-63.758962|-364.310334|313.085386|-64.687995|424.489983|-30.593038|-287.813048|80.122945|188.649929|-32.862817|321.773975|1.234656|81.316948|202.669701|-12.907843|-129.211434|-105.019784|-498.004815|-493.597147|-53.036984|-20.844829|78.139489|-106.486510|-539.664408|-410.897580|-270.181389|-141.873110|-404.998497|-457.878285|59.214655|19.648389|-430.284645|104.191478|218.940667|32.938384|-154.263407|-13.842528|-64.469907|211.695810|25.617426|101.591697|157.464925|11.736803|203.837235|203.409027|205.986953|11.318640|42.438399|-317.021179|-87.051060|-342.780875|78.265299|-342.667500|-302.206160|133.687432|-194.401209|-365.395421|-250.975055|67.870270|-111.120966|70.666205|212.480945|241.282786|133.070785|7.020044|-8.090791|-0.332752|30.761127|94.104275|153.600594|-241.931739|46.722181|153.039848|533.599447|337.718812|-134.676272|-250.307937|-203.643819|-285.405578|-442.260892|-452.047583|20.770232|-41.051515|4.535543|-614.020461|17.906751|80.937041|-291.216169|-137.995750|122.028613|147.773747|-67.453063|238.196354|-172.071354|-54.237216|5.874827|-80.386237|34.939917|-600.621493|-318.181758|408.892630|374.571639|289.262768|-227.998465|-52.235278|-282.094545|163.858974|-171.989982|283.216269|-22.570335|-95.647909|17.255893|-55.996523|-208.243139|104.679039|-11.268411|-12.434642|-64.742048|32.295036|82.916421|112.597478|-47.534926|132.053503|43.941508|-52.666128|-89.037565|-115.686129|-217.221568|-210.199017|-262.692728|-55.237951|-382.493059|-413.198928|-159.883321|-284.299300|-705.904593|-427.974853|-225.044697|-736.316579|-549.986747|-546.985855|313.278396|327.155839|368.142675|243.297897|303.316631|187.493255|347.855986|282.426614|249.394682|106.748595|0.472892|-52.258383|19.143766|-32.349725|-93.970231|16.303517|-37.169512|-57.366509|44.711507|-38.197125|-132.140833|-562.321858|-163.098665|-308.476864|-289.420988|-233.085382|-387.522753|-734.991182|-75.653070|-278.745469|92.412247|-188.937370|147.831560|427.098354|177.083135|195.529961|215.821497|64.245449|4.873257|
#
~
-766.148740|
~
-297.768593|
~
-209.230767|
~
-219.485499|
~
-1.886946|
~
-191.144807|
~
-85.581129|
~
-468.399568|
~
-109.920536|
~
-77.446191|