1|1
#
~
0.534945|0.221128|0.387956|64.830952|69.676750|89.327756|157.184676|156.922561|152.196793|72.410134|3.786277|-204.469329|-179.386201|-209.173692|-150.387327|-93.607769|-12.052036|-65.318811|0.455527|22.751435|23.948739|-77.841349|5.726931|18.799573|27.256176|-53.620809|0.116868|0.240390|0.945297|0.630909|64.675739|50.646317|88.188584|16.895849|43.240316|31.220196|-16.794065|-121.275479|-168.298727|-283.814754|-485.423429|-294.905252|-83.110759|-105.612088|13.539268|-201.005079|-56.893015|-42.166744|-96.027182|-158.589656|-108.484127|0.048219|17.011963|-63.387202|0.597148|0.320131|0.060047|0.714016|-296.839064|-378.630827|-269.867904|-30.708552|-24.145217|-102.882789|-200.039913|-305.187578|-442.613741|-164.353285|222.812551|313.541335|318.840767|111.026125|-49.681392|-249.928632|2.475909|375.440700|76.787321|-99.962634|-191.975230|-226.720695|-188.678231|-258.201792|0.645946|0.695100|0.470577|0.243094|-146.150708|134.018484|-19.514264|59.431374|-216.575674|58.635814|-224.251868|-319.545334|-315.340582|37.898428|219.267677|2.543643|-65.032092|-262.916217|-419.118560|-399.809836|-26.389341|148.168107|302.210456|172.842748|75.928636|-154.886880|-89.423513|-174.933306|-128.138584|0.662041|-2.632410|-2.446472|244.148435|-15.728914|-94.774540|-141.962114|-440.510618|-614.391488|-242.732346|-166.764031|-173.477047|131.697849|218.027312|-100.723314|369.004676|-75.826400|-466.680365|-241.962469|-303.291642|-144.926685|256.964056|300.943766|337.146869|120.574514|-38.015254|31.461046|-127.740550|0.218599|0.692412|45.338500|53.528859|102.648054|-209.979574|-254.493436|-569.925245|-436.311174|-438.676136|-307.324553|60.371787|-384.053730|-128.673193|-105.184387|68.763679|81.798657|5.496692|-320.263702|176.625023|-271.747792|10.523640|271.087107|-54.145019|-166.642399|81.932896|-38.038159|-105.872734|0.567382|48.604310|2.166607|-7.628925|-16.991513|-137.132375|-427.991974|-399.832442|-303.199612|-260.502883|36.637978|-504.558714|-529.819155|-109.499228|-274.944959|188.147815|-84.451614|240.763638|-13.197354|-299.117977|-532.325087|-204.522740|354.992491|94.096528|-210.985526|107.692094|-163.896225|-199.198811|-51.732762|45.137678|-22.013321|-48.264265|-110.213307|-139.986490|-188.421835|-350.859116|-40.442301|-366.077319|74.121824|-102.491821|-444.936056|-536.299417|-274.149048|47.911400|-34.031829|-110.964581|165.180593|-19.941327|-103.825767|-445.816459|103.912990|-161.349732|-185.291451|-322.286912|-39.957894|-46.949436|-55.951079|-84.649795|-203.724468|53.709051|-433.008746|-148.520049|-313.729262|-192.725388|-229.767929|-522.855806|-721.533565|-465.934550|-238.311384|-585.610427|-122.094357|79.921201|190.784314|-74.599482|-190.126352|-54.499802|3.618208|-424.368118|-241.218722|40.395272|-292.899758|159.861525|-182.105474|24.272040|-55.422338|-119.603317|-183.260758|-56.471400|-319.941838|-267.885349|-286.352623|-362.555301|-424.853365|43.724307|-127.832403|-18.271576|-384.824845|-517.546311|-47.568502|-260.116369|24.689338|147.779865|-131.620281|-65.422926|271.792195|-82.426574|-519.229511|157.349458|-202.386567|9.241165|-85.288127|-27.014072|-84.799152|-122.238591|-161.660915|-79.291556|-148.446731|195.056217|148.364096|-210.401154|507.509664|-81.147069|287.773935|158.469557|83.985311|-475.298107|-256.241500|120.835457|-359.092268|-34.766966|-49.773017|25.939643|-428.437782|-398.435947|-354.345463|102.798206|-96.194753|-298.985066|-312.236020|-147.611794|-226.203317|56.942706|-60.837761|-29.893734|303.357901|144.057640|302.533944|54.782926|63.062964|10.065952|-127.473612|368.616842|-112.790499|214.288107|-468.138823|24.464295|-77.237386|-449.097669|-50.727637|-159.143086|87.462301|-304.383485|-281.287437|-125.748771|-77.158479|-463.201874|-225.552064|-128.986784|-245.338908|61.727712|-62.768679|-6.564747|125.517193|-65.346315|511.896251|441.431720|64.192429|192.973960|406.662837|438.113069|-41.052254|383.578247|361.077284|-461.065856|-275.550144|-43.875099|267.647217|397.577105|-148.820027|-148.092159|-122.012750|-199.904051|-205.331791|-222.197179|-105.591348|-73.747205|-103.899845|20.872799|45.291941|112.755505|9.970484|279.123337|125.128752|172.218097|306.752497|383.778126|155.868218|432.917900|927.133339|205.183635|32.346215|-276.823609|93.084529|-104.963518|-356.270681|25.130068|122.216695|-72.424726|82.538455|-60.574076|266.845151|78.036325|308.833172|2.019290|106.484029|-15.439118|133.413206|274.839633|192.493115|372.489179|223.720320|227.540284|183.456671|172.527125|792.004173|754.168651|448.918419|273.858359|277.661558|759.748101|-49.673517|60.618122|443.770469|679.136283|487.457587|549.425131|23.347506|485.199354|-131.864351|563.335285|449.433495|266.098963|106.957731|-24.795736|48.882065|-110.648749|266.043090|391.902621|733.725089|121.128834|691.427099|233.203441|1036.102687|622.333210|435.161032|-16.544739|259.601724|528.756409|403.102727|268.250313|453.988511|524.240373|358.799369|134.780649|154.186579|88.107458|363.499671|96.062408|334.258726|312.801845|85.380969|44.124261|69.341879|146.756997|-36.475346|200.870058|380.611163|41.672827|393.279081|10.337839|172.237280|-179.389695|-181.757169|417.439802|84.654830|92.937397|329.247145|320.674970|73.046413|101.542599|192.116609|85.029769|333.550349|513.713688|166.757041|-125.743889|271.966286|344.596616|157.846012|61.900422|216.210327|-40.436346|-46.249680|146.608330|328.741656|69.844841|515.991180|627.312512|-39.339367|71.122732|2.168599|139.907252|-210.717706|492.276689|105.811218|151.481679|20.343402|-56.093643|-142.203047|450.471941|66.301476|287.342340|64.762420|101.366014|147.533377|176.767916|71.134730|51.657921|211.112495|162.384081|250.077776|-106.973353|99.234262|257.634013|331.106547|531.266052|-4.238185|66.008612|584.905128|69.710215|28.971878|-143.968404|67.612496|-1.784475|490.206107|166.507360|192.535975|158.670350|-21.268597|158.344783|-8.878144|178.599961|11.545907|85.511502|105.032197|19.531128|143.194849|-155.113767|195.592828|-310.498305|90.627235|12.186328|-69.558700|-346.987926|-274.354649|-185.622048|-139.377748|-105.496339|6.809333|-278.574828|368.314610|-51.305313|-41.637403|-161.653926|-250.144749|-129.293167|20.287254|69.178906|29.910181|-64.621500|4.141401|-126.428313|-21.576456|-65.322936|184.252973|-85.304916|-279.014285|-13.335876|409.548149|5.462871|87.660917|-106.701899|-110.728252|-167.111806|-301.703873|-155.535547|-395.791608|126.454267|53.387386|77.853031|121.593840|-135.586523|194.873022|-327.035778|151.524032|27.866077|-405.934945|-91.118641|-24.509408|114.456911|-21.754170|-33.596429|273.198264|-53.524599|-78.489304|-283.196569|104.370724|-113.688735|531.107893|297.275677|17.440615|-157.571601|-234.979577|-136.582039|337.708699|-148.104448|-132.588856|-99.020861|-342.510468|300.584293|-43.062240|423.065977|-31.187876|-289.528854|98.224346|204.510530|-38.902263|288.320259|-1.305500|85.169026|203.675672|-2.844801|-148.318065|-22.162216|-500.642190|-553.436470|-112.676648|-111.658936|63.730319|-78.903550|-492.791010|-426.945299|-239.667363|-71.675868|-383.907397|-548.458160|36.150244|83.377941|-389.637406|71.913957|171.154512|63.641848|-146.405125|-11.254287|-49.488467|200.609421|22.958511|103.334129|165.489166|-89.329662|138.134295|162.480915|219.401755|-23.111793|48.065184|-372.425731|-142.331332|-365.187410|61.451958|-319.019374|-263.235677|151.635385|-242.366605|-281.699720|-164.301071|2.737151|-129.726167|62.216698|283.495984|281.490772|112.805643|25.951837|27.271374|1.832911|30.502096|97.158578|161.518407|-265.471253|67.538536|217.518430|541.933219|353.741894|-87.032608|-177.343318|-183.301572|-254.850487|-337.779011|-329.173220|74.003341|-86.207301|-89.016066|-547.442877|97.848650|55.566414|-320.361882|-138.909816|120.264263|96.525742|-149.371680|114.264809|-138.958573|-52.796848|8.037910|-82.261674|41.718771|-565.972320|-372.338717|352.212770|310.068166|277.155693|-185.967874|-5.031841|-296.163940|100.864046|-148.191639|366.818931|-92.643097|-144.089481|-27.957182|8.219956|-140.042414|97.995897|15.036316|-21.978048|-112.221128|10.455126|42.837299|161.777689|-40.772833|120.331800|40.614030|-53.800866|-88.280485|-114.502851|-215.613164|-220.645133|-253.403664|-43.803980|-377.542353|-373.113416|-152.023395|-275.163558|-580.178377|-350.551513|-272.967757|-806.635200|-645.891853|-486.531520|312.719958|347.659603|329.538149|236.935295|296.249602|190.161801|343.907341|290.724994|239.987355|97.961767|0.138146|-53.679122|19.554930|-37.534944|-100.489423|25.700426|-20.272535|-43.778367|25.464367|-32.986637|-173.983645|-529.101988|-140.436151|-311.291227|-271.062180|-242.917405|-374.084091|-760.882043|-119.777168|-265.345964|139.292290|-180.561629|141.459200|425.027220|188.390740|192.556373|207.908568|59.949363|3.564292|
#
~
-764.598752|
~
-298.016134|
~
-204.614640|
~
-213.590574|
~
-2.144783|
~
-189.918556|
~
-84.765391|
~
-467.132677|
~
-106.956025|
~
-77.917934|