2|10
#
~
0.390801|0.088122|0.034355|0.490806|0.407434|0.906604|0.521474|0.725629|0.369313|0.025678|0.033547|0.565354|10.202620|23.194947|1.059116|0.183602|0.248103|0.289389|0.318958|0.215037|0.085514|0.308720|0.331728|0.069489|0.134765|0.999969|0.151205|0.588132|0.186883|0.989619|0.350808|0.577684|0.077741|0.387937|3.728467|6.033904|10.540199|4.897328|44.871237|76.340217|5.802481|3.562621|-44.192491|-28.084160|10.028823|-11.030654|-32.459752|6.217155|0.733441|-25.169389|1.675482|5.100163|0.526783|0.954801|0.534489|0.661548|0.954771|0.685694|0.249717|0.144119|-2.561183|0.031927|4.164556|16.625093|52.833969|95.322775|134.776614|102.743496|83.780601|66.200129|-0.841440|-20.621073|72.844983|78.230380|61.262611|33.348014|-8.305702|-58.179080|1.979793|23.259466|13.515711|8.624042|0.099518|0.361035|0.839228|0.634007|0.022666|0.822297|-2.385370|0.669750|6.613762|21.632245|53.422247|112.320988|184.842234|139.679816|351.736237|335.959154|116.886637|-185.171673|-83.686063|39.093936|37.879671|-133.706827|-103.711407|-125.174366|-11.841095|14.887887|34.796956|22.231642|0.437317|0.981574|0.127809|0.228307|0.340171|3.123787|-3.512503|-0.246968|-6.657141|64.492098|158.086547|167.215893|534.733120|480.599847|451.377564|304.693309|122.521220|-93.487454|73.946843|175.760120|-3.953026|-244.696848|-189.069874|-175.260319|-189.703807|-186.573391|-57.995832|-33.264359|-5.133627|-5.347614|0.700859|0.441095|0.093289|-6.861800|-31.171270|-22.633172|42.700390|209.498202|208.070928|168.110211|460.093308|482.316872|179.967543|104.766586|337.606414|417.763695|291.254443|175.661597|83.740831|-204.021473|9.720548|-27.219654|-255.954443|-350.814037|-217.378479|-112.279803|-21.441746|-7.707129|0.007002|0.526738|0.589406|-2.791641|-70.344100|-1.123754|186.303783|226.251427|148.846332|156.791382|365.720503|105.353304|1.708841|86.189026|247.495725|224.711152|213.287769|43.653380|90.668867|-282.214405|-95.007852|-118.583576|-349.032508|-474.408436|-194.969468|-41.890328|-11.600407|0.408648|0.940911|-1.389656|-0.784342|-16.632459|-120.497125|-5.675955|196.357122|55.844858|34.114788|277.254671|345.079227|81.268585|214.176308|364.724508|288.813947|227.839985|-23.900232|-158.920385|106.991655|-89.516545|-24.817402|-32.800639|-65.241030|-335.400623|-182.311735|-44.811783|-33.028269|0.863562|0.353821|-1.312572|-2.334624|-51.304915|-98.177997|-49.344969|93.342514|56.633450|8.109109|220.977366|188.172459|163.031368|181.584327|240.469083|408.063489|372.065437|205.630001|-26.090654|41.861448|-192.347109|-75.280878|-73.301779|85.841185|-102.880801|-280.918455|-94.363935|2.123075|0.395682|0.619512|0.293239|-4.046099|-46.952689|-87.327890|-35.028779|-158.888312|-102.144799|-254.091047|-139.773924|-144.640175|-51.097972|-133.126348|-41.145645|93.765921|339.861477|271.229624|-224.441294|125.662287|-135.863807|-126.725114|-194.602810|33.499548|-136.748884|-188.663420|-36.998855|5.498182|6.565402|0.292365|0.996815|14.128508|-89.720495|-217.689137|-146.738629|-289.751612|-422.834966|-408.067767|-486.709546|-539.293897|-615.621689|-673.575463|-929.795925|-655.629017|-149.417090|-80.522185|-299.048095|66.054444|-55.828834|-127.412324|-96.624128|-175.948950|-39.891465|-7.155788|45.294352|39.170002|38.948560|0.821869|4.681395|6.057155|-160.259396|-305.467780|-402.223785|-659.958031|-900.325932|-792.332674|-869.421765|-1145.142101|-1333.896040|-1291.194025|-1382.570886|-1014.233875|-732.415875|-437.866072|-474.056064|113.738871|216.748175|-34.880103|-48.849679|-174.130429|-46.887470|62.694114|45.879256|37.306529|1.553911|0.966830|1.266201|0.610038|-134.961289|-351.507488|-590.763894|-1052.147737|-1131.655867|-1141.768013|-1272.155373|-1411.876389|-1310.663689|-1351.810176|-1458.404485|-1130.724502|-1029.218257|-814.176760|-563.737621|101.868052|467.677080|148.638563|-234.410917|-380.323734|-234.560454|-36.617952|11.404434|9.903314|0.234798|0.526361|1.985966|0.690688|-100.565461|-411.872282|-767.102599|-1062.146133|-973.197074|-852.364039|-478.891143|-554.168277|-550.733756|-325.557937|-547.084327|-466.872782|-592.004726|-778.815458|-508.850362|-149.103111|251.191530|-165.375061|-435.397723|-448.866412|-267.055173|-86.901204|28.116145|22.586293|8.084731|0.660032|-3.835331|0.951482|-63.450819|-381.030338|-637.508510|-751.684237|-514.307122|-242.210039|203.918373|288.449676|75.063449|-104.466419|-111.760492|35.521126|-320.122716|-396.907781|-267.887819|-105.799715|-391.775493|-445.680412|-401.332749|-384.246901|-347.042623|-242.779155|-44.723773|52.099386|5.897472|0.237361|-0.288415|-0.166498|1.637953|-187.757602|-232.051275|-151.754831|74.971851|165.005382|268.502202|133.712800|-69.075494|-306.505048|-14.383691|-218.189682|-448.427282|-263.503302|-191.537070|-376.275546|-584.910947|-485.366725|-450.617953|-363.130879|-312.926520|-155.084149|10.284354|30.674866|1.175176|0.908227|3.339525|-1.610971|27.422806|1.762333|257.241208|365.812906|354.177254|71.121477|-9.258132|-82.455770|-42.060326|-154.341342|9.228156|-61.711599|-443.751755|-270.817182|-213.035207|-430.534026|-406.661482|-401.165947|-247.051317|-125.820041|-85.943169|67.035984|144.762485|90.874612|4.956343|0.610090|3.277289|6.216595|30.457479|151.259024|629.846990|615.608011|289.505683|42.228904|-51.155757|-89.602128|147.005166|350.783478|362.169815|53.350708|-22.299642|70.280489|-105.560025|-109.462601|-70.725650|23.432431|72.471506|112.968998|68.703505|301.854346|338.975837|102.671750|9.818493|0.849139|0.818468|-13.341881|-67.718638|332.010707|739.361144|657.037586|492.589558|440.731038|189.307293|330.195172|439.865527|622.890834|592.361767|247.668268|51.873349|290.107047|217.334516|135.507798|198.826104|105.331826|319.700446|443.685766|560.217891|529.624224|286.809203|27.406415|6.579099|0.282866|0.432885|-7.418734|-51.548425|347.453879|504.228844|575.213646|625.510112|678.913850|613.617482|657.756086|584.451594|537.025575|711.296035|393.360140|166.318123|36.986915|-86.087929|56.541674|101.770188|260.227522|330.242896|525.075318|589.388971|504.832956|239.616345|64.401230|0.604844|0.698021|0.684359|-10.286959|-14.572560|430.840985|550.349040|609.592280|532.629321|712.566816|586.668361|547.525702|676.193975|330.244738|152.172206|13.308053|-218.829067|-285.466474|-146.090929|-73.598278|130.945978|356.873960|485.819229|594.048096|667.959817|418.225632|176.202084|23.409019|-0.521891|0.644797|1.084388|-40.183691|5.152320|147.863328|84.704162|-46.080489|171.445506|429.922459|232.190340|217.198780|111.275067|-0.601471|-50.715676|-9.026911|-139.664809|-9.203672|61.023146|103.204063|258.131132|442.418313|515.161307|605.464341|468.338107|227.969907|82.102520|13.311114|0.372663|0.853898|0.601502|-18.534178|77.581852|127.012061|-47.365991|-80.529626|119.849413|55.006623|-33.092669|-136.177271|-208.826536|-302.084005|-359.203781|-227.401945|-228.750193|-216.403718|-255.985167|-68.273436|223.086371|469.878284|579.371926|500.471382|277.916109|110.558238|11.982757|1.574848|0.140341|0.797445|0.124099|1.263506|72.917715|-7.901271|-124.140166|-109.817942|-88.944711|-233.171969|-196.571304|-249.992888|-153.362343|-196.568201|-304.230512|-172.407551|-226.900507|-329.254928|-327.048452|-78.256690|198.679957|291.246067|399.143773|298.274954|57.000684|-12.003842|-3.978132|0.840345|0.130508|0.191851|0.538770|-4.824220|-38.144475|-104.826952|-173.133440|-253.040659|-221.033493|-117.946046|-293.907259|-324.434710|-280.783249|-240.775461|-148.879142|-192.366202|-197.791233|-190.705435|-173.403899|-156.587809|-118.683851|-132.078090|-7.179091|28.661138|-37.508568|24.417289|37.605392|5.146659|0.345409|0.917522|0.551371|0.458239|-22.035210|-23.294506|-52.122568|-51.709961|-88.634722|-112.211750|-101.356379|-130.939302|-125.213269|-78.704536|-61.403993|-147.437098|-166.136881|-199.370552|-128.786135|-69.393707|-52.895124|-86.129063|-45.185527|-64.152291|-36.541575|-8.589838|4.373389|5.769805|0.645070|0.499579|0.628870|0.990480|0.416286|0.769875|2.568825|-6.766705|-19.512674|-21.274855|-41.729298|-57.144745|-43.759538|-29.116961|-21.729986|-26.754000|-23.104775|-6.385622|-19.074170|-19.238527|-11.268388|-14.105316|-3.912960|-1.079222|0.240121|0.982681|0.751252|0.952454|0.685291|0.044384|0.940706|0.330362|0.543963|0.583697|0.358683|1.013823|0.597708|-2.243675|-3.209451|-0.630087|-3.908245|-10.037245|-5.382274|1.443816|1.207265|0.875275|1.249585|0.378104|-1.365443|-4.931368|-0.523289|0.841381|0.991913|0.718245|0.132559|0.681104|0.649372|
~
0.883825|0.633558|0.334663|0.928210|0.574264|0.665025|0.472173|0.143839|0.985867|0.433236|0.893656|0.773105|9.392220|19.463438|0.773547|0.033452|0.957446|0.517690|0.483274|0.157106|0.338901|0.662849|0.445715|0.622744|0.470495|0.313739|0.621014|0.188740|0.446298|0.302118|0.838112|0.330123|0.935675|0.175940|6.466318|14.358556|25.226175|31.670113|22.594322|22.732229|14.246990|21.696534|7.928353|4.526418|25.485263|29.126202|49.465672|23.212446|8.506155|16.196702|1.880818|0.241536|0.264087|0.021556|0.849614|0.734582|0.335295|0.470628|0.928206|0.832372|4.193147|1.617773|21.268459|85.527473|140.087174|161.525048|218.990011|120.734186|163.887709|253.828369|311.807878|298.730421|276.551653|267.712734|388.733105|344.373520|240.303199|213.911128|116.947542|43.723282|44.627104|18.606980|0.677569|0.332100|0.896994|0.527183|0.077200|2.494771|9.616755|9.675207|60.985476|117.836861|168.535065|155.042693|226.932460|253.141299|173.560927|317.679766|473.508188|583.308629|413.285866|503.652546|532.628211|428.573036|268.248166|197.293134|246.281794|224.102228|242.979576|81.247878|0.492245|0.744092|0.044945|0.936782|0.043416|2.139011|5.136182|9.723185|51.800167|115.004349|156.264999|97.997464|77.745213|75.454169|3.830293|-14.724582|36.279891|10.268524|134.542497|221.739636|472.029121|471.280924|312.352005|191.934551|238.262184|297.137039|238.733579|68.023462|-0.990889|0.111620|0.006585|0.394452|0.907578|-13.303919|-24.572846|-68.912529|-53.871993|-19.072452|157.764833|187.896566|162.772859|-244.249813|-251.845026|-469.824347|-432.916896|-486.490005|-398.132795|-236.021534|73.675651|142.446939|23.754644|83.707341|197.452779|117.270446|132.677269|60.828509|-7.855266|0.728099|0.391607|0.272176|0.672634|-29.929752|-48.590900|-106.694005|-112.653229|37.473405|201.645242|134.342642|-107.506674|-306.367837|-481.979315|-725.987967|-509.121538|-623.965954|-648.174778|-430.027663|-316.369758|-403.757438|-443.777986|-295.160942|-90.741757|-151.958829|-121.400361|-29.968565|-23.234532|-0.058716|0.492239|0.477598|0.564558|-48.269973|-76.099527|-147.374276|-165.711728|2.835051|57.926345|-65.848979|-294.541132|-450.517432|-654.725763|-689.845840|-385.609279|-369.550400|-551.401469|-364.091720|-672.106633|-954.677229|-893.701829|-709.845055|-564.764607|-586.356937|-281.670156|-126.595463|-13.983568|-3.862733|0.917302|0.755096|1.685954|-24.863085|-161.363466|-225.159326|-231.175442|-180.773997|-276.726598|-271.448572|-262.976323|-409.508830|-628.475271|-485.091624|-203.657453|-367.302328|-502.448924|-510.787797|-1026.573761|-1074.328201|-1004.546185|-1022.797576|-864.002247|-805.428740|-450.582292|-162.255537|-39.845209|-6.735357|0.662441|1.231589|-0.106229|-42.338277|-185.880496|-247.338764|-227.507480|-206.953190|-233.291856|-296.131239|-245.345794|-499.609189|-498.410976|-64.369492|46.108919|-165.538777|-417.293301|-810.448808|-1028.493690|-954.039008|-917.554787|-955.114636|-960.220841|-754.262770|-411.847186|-219.338474|-104.280741|-8.637043|0.775658|0.871706|-19.425090|-49.821812|-178.644215|-153.608632|-141.681939|-203.709987|-79.310052|-127.802395|-152.987744|-493.571910|-258.468652|-201.952248|-31.948315|-541.796328|-590.758073|-545.551304|-560.532310|-511.429750|-460.599388|-450.431739|-462.618279|-520.992386|-407.154821|-271.259403|-93.409514|-14.852256|0.726664|0.693974|-24.882273|-38.831187|-122.544991|29.275553|93.475676|-58.391652|48.154092|135.507884|46.625719|-310.689193|-201.325802|-155.724392|-300.668605|-603.399946|-378.602363|-275.265296|-272.802458|-162.299789|-327.537910|-122.670309|-34.724793|-23.761899|-190.012315|-135.717127|-39.291270|-9.320003|0.211322|0.516711|-17.391923|-73.579359|-227.247806|1.362165|203.285799|-22.013857|-90.057755|171.055736|165.826172|129.487408|179.443121|195.605934|-320.323384|-448.546870|-30.686369|-193.443704|-438.204024|-281.392719|-348.962221|105.874671|458.606967|436.899250|121.950501|-88.219913|-46.053593|-11.016858|0.671064|2.381416|0.038857|-62.085897|-172.543196|90.020406|347.859580|4.299311|-43.094200|270.379727|256.549913|253.448150|267.735308|-117.805100|-289.300365|-27.447989|233.339725|-193.408917|-344.719492|-207.291942|-52.520877|340.233811|494.919275|697.995776|228.884426|-123.776001|-63.836494|-17.943387|0.266374|1.055683|0.632618|-21.914280|-125.429387|38.047774|207.311087|60.211079|141.688898|418.213977|414.738975|473.740590|77.395265|-306.940496|-260.777208|170.456141|274.638773|-16.754206|-57.221232|-86.567434|268.134104|452.796598|488.541938|471.171302|243.455582|-94.384350|-68.667146|-2.743796|0.205431|0.137356|0.326677|-26.530120|-223.390585|-79.937362|118.380867|-84.700180|169.712367|464.416692|405.560299|433.415050|60.032263|-252.877658|-12.794614|-94.275051|-58.456903|-5.885897|0.788754|210.293159|683.549221|472.556117|359.789583|228.694817|211.318845|-60.415657|-59.260833|2.953296|0.245535|1.908393|-0.140561|-60.886224|-237.222141|-199.682320|45.418874|18.331704|225.022087|475.164390|279.995884|165.237028|-185.006746|-148.579262|4.750141|-242.361904|-327.800372|-302.704042|55.115610|407.669684|610.526814|275.527447|148.509425|318.260689|162.674489|2.205807|-23.910465|14.830814|0.262258|1.021167|0.127992|-74.104346|-274.449159|-321.659209|-239.305964|116.143398|561.752926|334.536036|217.563865|-114.628108|-285.337453|33.542717|113.419902|-178.634123|-377.459588|-157.560148|73.882805|174.420394|189.093492|68.504313|280.628200|270.867462|14.799983|-99.030205|-16.602629|-0.447279|-0.000974|0.008999|0.403423|-109.214331|-297.034787|-340.019787|-303.339016|151.358800|535.931331|296.054457|418.027610|307.276561|288.221491|162.695770|190.093610|159.592423|64.458210|85.054427|274.966040|132.095355|11.177691|134.163166|187.885142|-23.648446|-110.501157|-119.477076|2.565375|-3.298469|0.072286|-4.401266|-2.559894|-72.714822|-277.702245|-273.416090|-143.678748|69.133128|204.089270|260.195125|673.304464|718.716019|603.635508|444.446082|618.913604|662.752761|455.962879|517.648121|311.247978|36.853190|75.421324|126.647397|-63.174055|-151.602300|-57.423189|-125.551502|-16.534783|0.716348|0.600200|-11.023936|-7.467322|-48.947351|-246.032254|-317.511640|-345.606649|-202.787715|-76.494949|198.954339|560.081696|560.221476|645.211508|744.854155|774.859996|700.674621|552.224159|566.512503|303.994497|24.693978|-62.471322|-250.174250|-294.619185|-206.078799|-81.890255|-51.654420|-2.667559|0.088005|0.539326|-0.671206|-2.107821|-21.968141|-147.651747|-230.881249|-371.255851|-455.185700|-255.922676|71.370041|452.567758|531.200594|652.840340|763.036981|794.814027|639.429921|406.882202|398.516626|45.876888|-133.988321|-321.868301|-324.836922|-189.089235|-133.557172|-55.187429|-18.549481|-0.907141|0.562036|0.248534|0.686366|0.798885|-7.903946|-89.049344|-204.477338|-256.052802|-493.835985|-560.095812|-476.982927|-500.030759|-695.834073|-252.622927|-239.762226|-249.255580|-89.870758|-248.054144|-405.512307|-525.022197|-499.776313|-369.735549|-263.280647|-152.407411|-98.880180|-22.812877|-8.261505|0.562702|0.966895|0.735891|0.314293|0.594497|0.632743|-18.919959|-98.629933|-173.117625|-281.111296|-438.307013|-488.273302|-619.976647|-814.988690|-768.752760|-907.755433|-847.770079|-658.315253|-615.333771|-313.167529|-166.181014|-140.801614|-80.178118|-30.601238|-11.377962|-19.625744|-6.342287|-5.450470|0.301261|0.842934|0.846773|0.666378|0.760803|0.545940|4.635520|-24.149432|-58.657382|-102.283052|-202.917072|-324.426176|-416.030212|-451.981825|-451.160005|-477.597419|-447.024735|-269.616323|-203.669385|-88.056127|-48.418050|-34.899992|-44.437444|-22.954899|-15.558543|-6.336634|0.748910|0.917434|0.980639|0.932454|0.040167|0.219921|0.769859|0.901694|-0.733947|-2.505502|-10.087442|-22.003353|-58.430919|-62.755972|-71.156286|-93.799457|-137.987920|-121.960393|-97.233915|-49.001683|-37.272751|-52.322918|-46.557603|-24.436053|-16.375454|-14.413476|-4.076080|-6.385478|-0.486593|0.187108|0.430903|0.586529|0.164342|0.416958|0.518984|0.203611|0.521791|0.288012|-3.048401|-9.607861|-20.656903|-22.275711|-14.105355|-18.226993|-27.939048|-40.150220|-31.501552|-37.818341|-50.883606|-36.382980|-21.898534|-9.448650|-10.594325|-9.625810|0.526923|0.043027|0.378037|0.888602|0.201985|0.496157|0.262767|0.635556|0.082687|0.427109|0.044403|0.585210|0.607555|0.374924|-1.763292|-2.499071|-0.038512|0.407010|-3.080831|-2.241067|-0.561255|-9.139905|-6.061859|-11.687419|-14.200504|-4.943606|-3.703308|-0.808418|-0.047508|0.953390|0.545919|0.822421|0.195277|0.970418|
~
0.711032|0.397262|0.466575|0.973798|0.032819|0.549261|0.400907|0.085333|0.150932|0.032525|0.774726|0.046974|0.778899|1.037892|0.822114|0.039692|0.590019|0.401804|0.921806|0.431261|0.230481|0.779074|0.067394|0.923779|0.030049|0.073085|0.891367|0.575968|0.895507|0.086644|0.546386|0.606538|0.483906|0.012963|0.601138|0.715294|1.203073|1.838228|1.565030|16.898412|26.555230|12.645544|0.716531|1.050439|0.276389|0.468392|1.959467|1.336939|1.082373|0.867218|0.415563|0.238733|0.509953|0.452756|0.138798|0.540002|0.525841|0.030165|0.116026|0.498760|0.226032|0.498761|-7.940153|-18.484170|-14.830335|-49.683876|-36.789801|34.412338|45.095958|-26.738686|-58.930029|-83.353333|-65.275112|-43.409815|-45.541594|-45.383188|-44.869201|-5.176567|2.418300|0.970943|1.474297|1.107809|0.493108|0.422498|0.252579|0.631906|0.962622|1.148511|5.210728|-1.814929|-27.621466|-43.290538|-65.102620|-116.214684|-93.883552|8.401371|-93.562876|-92.693745|-33.930445|-107.226713|-79.831145|-130.106329|-108.107250|-127.202503|-89.314040|-53.313618|-108.935115|-88.316765|-34.172020|-2.351311|1.373280|0.495378|0.987452|0.379950|0.908243|0.746923|0.617968|-20.149061|-35.518639|-31.363409|-55.164933|-28.923075|-21.826513|-38.811929|-117.246328|21.631336|59.915407|65.997320|-58.679518|-77.772304|4.685980|-32.866980|-100.105787|-255.885752|-261.817311|-165.145765|-79.927507|-11.935701|-0.319458|0.666781|0.819555|0.184629|0.219548|6.983189|7.444687|-1.389976|1.661085|23.435788|-11.104142|-186.102850|-121.106064|75.487905|195.594043|237.925968|24.719904|270.647078|228.435220|76.943935|-128.453149|-290.056296|-301.505865|-348.106550|-304.279538|-209.035456|-124.559254|-50.578503|-3.236650|-1.837648|0.901571|0.917835|1.239216|8.247614|9.788220|17.604439|81.270134|52.152656|-126.771060|-151.717593|59.015183|65.777065|127.473363|96.791520|74.855910|129.744328|123.350148|-208.189471|-373.457369|-327.020846|-499.144931|-348.533966|-179.964084|-99.585340|-116.505282|-40.171554|-9.104220|-11.802591|0.277909|-1.123608|9.505940|38.241706|124.751989|74.364172|94.553581|10.371380|-139.441914|170.652671|192.442641|207.008859|5.317849|-134.505030|-407.235370|-396.681859|-260.969697|-214.913349|-301.303909|-305.314376|-439.271978|-89.620007|-153.440059|-279.587678|-192.294417|-106.202637|-26.615212|-7.248475|10.531498|0.145226|15.186362|144.662743|135.582851|132.063733|89.940019|55.459235|-84.557502|220.984857|122.090443|-13.282630|-59.888874|-64.624768|-67.360305|111.223326|477.990784|412.707577|-12.532531|24.804642|-192.401571|-39.013824|-91.229203|-204.452667|-189.790761|-116.513319|-25.016986|-4.287218|0.722116|1.292990|80.111591|257.419133|327.595812|368.080315|287.320455|304.905145|341.682261|89.142805|-0.238638|-71.157689|69.394727|231.997513|428.949764|701.794496|1109.058146|958.561744|448.853356|523.443447|334.979803|73.420168|47.864178|138.938979|79.651229|96.957933|39.787528|-4.479893|0.212921|1.665959|85.883478|245.983636|374.084335|392.972262|291.743232|528.531479|330.158094|96.513916|244.907782|542.358633|601.152835|584.413315|707.693280|956.699515|1412.126301|1248.008878|900.016760|705.845658|332.576966|157.347553|284.149983|254.294112|242.684394|63.195307|30.507576|-3.569601|0.147280|15.833181|31.241798|83.727342|199.628915|145.083364|131.206135|345.559802|173.763184|185.292059|450.193892|671.606869|676.151588|640.143275|430.150144|319.888958|1013.201454|1252.424957|764.979071|401.056588|68.038105|-23.742164|54.113367|301.102886|146.468283|-37.701711|-4.986770|0.218480|0.908520|21.338910|17.124455|21.170157|-88.832733|23.692376|47.099030|220.972790|-40.006247|-59.786898|224.856740|359.394517|8.510191|-22.773607|-151.552319|-241.870644|100.001385|325.849203|380.865967|-72.230987|-316.023542|7.156812|186.767385|301.315145|61.437679|9.977128|14.533424|0.455922|0.992078|4.992922|-1.491758|-23.967951|-187.649558|-47.037361|71.167284|217.333754|-46.227940|-241.189657|236.586967|-156.968586|-283.842250|-885.329142|-983.492859|-1178.668006|-625.152747|-409.832917|-258.529031|-497.222573|-264.722078|221.020707|285.250771|241.003874|59.896303|10.367403|1.992012|1.102348|0.034350|1.660342|-3.839101|-66.677109|-181.878392|-23.791593|-73.779273|212.192299|-183.045776|-109.372713|103.446905|-252.852626|-742.639192|-1266.756688|-1423.715903|-1086.021436|-698.898576|-546.388925|-468.490197|-219.774587|-133.016061|166.096306|39.371295|166.364792|85.061297|-8.171998|0.898938|0.690195|0.150801|0.838172|-0.178539|-51.069215|-125.980789|37.790716|-204.494145|-45.564577|-278.014430|-67.574853|-173.002379|-506.050322|-928.255001|-1291.028095|-1140.634546|-881.601949|-506.744426|-488.648274|-396.750203|-72.898203|158.816625|134.715896|-51.327157|56.059751|13.270621|1.099920|0.988795|0.002551|0.308132|0.184815|-0.541824|-40.891830|-142.469158|61.353395|-187.357284|-309.422944|13.884647|-33.318124|-333.384350|-903.711473|-1214.475257|-1381.174758|-844.758706|-591.271431|-533.025989|-241.858302|-60.217427|180.392439|146.549112|253.682799|204.551564|90.969135|54.441311|18.995891|2.137233|0.116481|0.749471|0.273587|-0.322352|-36.577867|-84.800188|21.016119|60.666808|-52.941254|-18.765125|22.129972|-240.609472|-745.492130|-1070.562907|-898.775873|-649.621586|-479.485622|-372.713950|-174.996342|331.871763|357.258965|83.152771|234.461409|339.825702|142.610643|60.136703|-20.481285|-0.101899|2.090547|0.566275|0.511332|-6.852139|-88.699571|-93.150637|62.682935|97.709409|306.384454|238.675441|228.938296|-9.475904|-274.800300|-460.680175|-223.607359|-149.960456|-35.859082|-322.976507|153.763416|396.318427|126.823265|-252.744510|-97.180194|96.129772|122.687322|13.363430|-31.097524|0.921903|5.693542|0.600105|2.118269|-13.212574|-97.692498|-150.463855|101.804431|190.389791|258.054831|282.189832|292.844178|189.841093|149.113742|229.095331|384.068995|357.042530|96.684410|-138.808451|-20.269342|17.756860|-453.649909|-452.585183|-205.602473|-3.429544|82.518835|-13.010805|-37.769466|-1.263333|0.139985|0.505913|0.529380|-17.498439|-129.155283|-248.691676|-102.880080|-35.326732|-37.690874|29.162030|178.512028|410.721297|567.262231|581.354940|529.361951|297.564802|-43.407125|-325.557848|-176.620845|-301.472677|-447.884482|-333.112066|-90.764372|-32.121258|-39.047597|-84.258652|-21.901081|0.777144|0.754294|0.938836|0.191162|-12.530413|-125.376263|-229.095709|-325.085044|-254.088047|-149.260492|10.983369|152.762434|410.346283|650.734685|584.741030|228.155064|68.922438|-151.298477|-260.240735|-196.370307|-302.672051|-268.958146|-160.902295|-27.637460|-24.855220|-86.069795|-78.651161|0.005889|1.379167|0.842914|0.853642|0.493920|-8.528886|-67.253043|-168.767302|-265.237461|-196.897930|28.763824|-0.753432|229.201197|434.880677|521.618520|314.622307|147.569086|75.875169|-92.614200|-180.861000|-113.093497|-92.853810|-30.900727|24.999538|-5.622365|-18.765667|-35.230503|-25.018788|-7.829091|0.301997|0.490717|0.395561|0.808285|-5.272788|-20.224831|-54.866421|-69.843465|-154.041197|37.049461|1.377651|-86.744921|271.910834|227.548433|-78.305392|81.644149|111.193179|-66.031006|99.844053|325.451080|132.776291|62.726325|39.129358|-2.214430|-70.936225|-64.182342|-29.070658|-18.269648|0.420133|0.875660|0.277690|0.597441|-7.148893|-17.353597|-14.205923|-7.482716|26.107561|21.275733|-6.685866|-76.079855|-218.571537|-218.390599|-154.083265|110.581443|84.676828|157.288789|235.397131|226.542388|162.820342|13.611407|-19.712859|-32.730067|-40.181153|-38.209356|-15.448839|-1.414699|0.884462|0.301549|0.089067|0.361691|0.174926|-0.039795|-4.185724|11.078704|132.923218|198.702868|171.172442|-27.650764|-105.975475|-140.797429|-109.517687|27.290346|31.392139|86.478922|121.668480|180.486200|176.351411|168.052337|60.542670|13.940167|-6.497759|-4.085900|1.182649|0.812947|0.035721|0.146062|0.671585|0.959704|0.447612|0.759731|-5.199579|-17.035606|21.189672|92.115447|115.719832|118.833191|109.206350|-139.661159|-153.257606|100.478428|113.264507|142.847571|178.430340|127.079086|127.032023|32.963693|-6.276581|-13.710290|-2.673681|2.963050|0.150915|0.120687|0.194060|0.425103|0.705139|0.250123|0.571165|0.376724|0.209258|0.018156|0.175711|0.433993|3.791699|19.622307|8.293039|-62.894998|-85.046716|-1.610611|53.981863|54.815727|21.576676|1.704333|-13.293639|-18.575340|-11.601198|-2.778828|-7.702126|-1.022245|0.549715|0.159786|0.817201|0.603282|
~
0.278474|0.011261|0.028385|0.983614|0.261384|0.599550|0.360337|0.471211|0.618327|0.497712|0.002432|0.261925|0.772455|0.836958|0.074888|0.194739|0.271314|0.297143|0.756762|0.446619|0.813115|0.375258|0.127571|0.582521|0.219706|0.174157|0.483056|0.769421|0.333942|0.300258|0.372702|0.612417|0.311518|0.401090|0.597170|0.651658|0.271497|1.353357|0.906007|1.933070|0.613858|-0.780114|-15.993390|-17.990979|-1.752524|1.177238|0.571146|0.179535|0.194906|-0.024344|0.569820|0.072070|0.543289|0.706230|0.647478|0.762995|0.880386|0.130534|0.532360|0.190256|0.449963|0.909093|0.775913|2.028785|3.910153|3.537254|0.306151|4.422514|11.256079|-8.150468|-17.058154|-10.123168|-4.610643|-8.904997|-12.024351|-6.665892|-2.710250|-19.568062|-18.727519|1.111977|1.607596|1.555928|0.078191|0.172387|0.683525|0.725669|0.935616|0.494421|0.956275|3.841535|1.237308|14.560756|19.132681|78.113544|91.031700|109.207917|111.624826|102.294880|27.565839|-46.198989|-112.699073|-173.843051|-125.243020|-41.154117|-38.969463|-47.380278|-34.357008|-0.329028|3.909442|2.038107|1.158072|0.380093|0.752243|0.571305|0.550650|2.653535|9.805865|18.078614|25.440405|95.606061|188.404228|304.086410|388.735784|314.967719|318.961935|230.750086|184.399823|176.498450|-53.527180|-246.263424|-356.613049|-384.593301|-296.682962|-243.941651|-107.868145|-51.558318|-15.670690|0.658129|-0.077273|0.047649|0.778786|0.596836|0.608133|12.064440|50.070081|106.998405|132.086681|169.474901|249.494444|325.777949|252.977498|233.859750|269.571256|257.427394|310.626070|368.667668|195.804132|-233.547356|-508.634735|-635.902834|-586.047990|-427.252767|-306.353163|-186.844819|-83.205953|-30.688613|-1.597402|0.773938|0.490985|0.437730|7.773746|42.055678|108.004853|193.781715|127.043274|33.729635|112.584112|156.703094|213.373955|372.432369|364.718968|501.078188|373.628490|104.101204|203.889233|-78.616433|-321.520733|-701.781240|-609.601784|-473.875683|-339.883367|-220.907068|-99.277457|-31.276489|-3.779431|0.971690|0.561093|0.907398|30.489901|90.912205|171.173063|295.542871|140.379675|42.349394|-190.878025|-156.775383|-49.924469|-12.280912|240.175989|394.946979|385.300047|156.981418|365.433891|69.133117|-293.559982|-618.761728|-566.307867|-400.654412|-310.462724|-224.835668|-114.692789|-56.324935|-22.580073|0.588234|1.101391|-22.128272|10.624119|124.128646|220.575181|122.555718|-14.494997|-78.399149|-419.521686|-522.476847|-470.481579|-310.951042|-28.259468|470.534988|669.026704|602.134814|313.074118|-7.699464|-251.176744|-489.929033|-542.635403|-433.354405|-295.539897|-283.729145|-197.278035|-101.735695|-11.614733|0.129833|0.778969|-30.780028|-19.279727|35.487384|111.009164|-69.576926|-204.159157|-251.055352|-564.089797|-771.258740|-742.019849|-601.520265|-178.717063|738.718828|1185.340111|760.284743|325.751448|-159.880866|-369.889615|-473.649857|-423.604036|-301.668017|-191.050450|-192.086043|-137.185061|-41.674353|3.423573|0.682343|0.173902|-30.794277|-26.513860|-12.405162|-11.012124|-146.915354|-265.763308|-344.744043|-584.992726|-620.951464|-450.861975|-122.610574|129.457066|820.461726|1243.323740|486.494939|83.076569|-471.365683|-493.494762|-341.138361|-185.982173|-61.003817|19.584546|19.732926|-12.632485|22.671611|5.788393|1.719147|0.797551|-15.137334|-27.550872|-33.604155|-25.320632|-158.492832|-212.436496|-326.122747|-348.128456|-392.145989|-260.161198|118.321550|351.485804|721.960091|694.861744|236.509417|-253.750833|-660.619847|-590.500391|-275.950039|-83.056419|-0.192249|47.546813|76.596644|15.450006|19.215383|4.012149|0.982217|0.034508|-3.403437|-24.232249|-41.227795|-30.249365|-127.694733|-169.085017|-214.469819|42.892378|135.328401|38.718355|125.179114|259.716012|289.853090|403.997136|125.320532|-289.702360|-691.005709|-520.781302|-327.698374|-98.948021|-85.472064|-61.381901|-50.614118|-12.025171|6.041712|1.763191|0.215768|0.739251|0.879164|-3.278606|-2.796848|-54.334752|-133.967484|-207.688428|-206.341195|-13.848109|271.329529|176.283374|-279.189203|-105.476590|-5.010185|414.442213|113.870348|-215.552765|-494.249121|-332.583373|-269.269284|-191.069171|-157.582194|-121.108496|-91.628997|-69.225439|-3.307183|1.849035|1.558187|0.092983|1.820721|2.433088|-2.462709|-33.153482|-113.280920|-258.417793|-262.721012|-228.935313|-289.161967|-400.438869|-546.734301|-438.131080|-172.595691|290.313229|32.228094|-401.047594|-470.842112|-284.490248|-143.537654|-102.482792|-66.359420|-172.560665|-91.625053|-79.169024|-10.066048|3.567530|0.805499|0.726080|0.529936|3.673401|-18.053494|-33.337087|-138.951474|-271.359888|-286.858535|-357.745058|-421.375248|-457.648574|-668.952205|-825.480895|-432.500675|313.442712|-186.553279|-352.257346|-547.473391|-253.868719|-245.016398|84.086029|120.995196|-61.410386|-101.931182|-84.825921|-10.413203|-5.814300|0.972814|0.602664|3.004407|6.115011|-0.868981|-22.525064|-147.428958|-226.957043|-279.959499|-244.130686|-347.978029|-605.715953|-653.627841|-699.384635|-130.187320|406.039335|-213.505684|-423.626950|-608.460503|-114.512628|-115.678881|128.636188|317.953857|70.610095|-49.670563|-60.468534|28.676298|-0.108885|2.845012|0.423500|1.153803|6.222225|11.656851|-32.147624|-104.849405|-158.442499|-197.471048|-131.238651|-391.321325|-518.237660|-555.484028|-422.100662|33.560604|304.266180|-136.719735|-244.781574|-336.782072|-87.163686|-20.101086|125.443362|301.455639|279.348875|56.702226|-77.524490|24.173123|6.721505|2.290899|0.870333|0.667758|6.142410|33.979916|-16.080023|9.141916|-62.280033|-103.676966|-9.152490|-63.802809|-266.279674|-386.633909|-343.718941|57.060494|119.302359|-113.034383|-49.272115|-46.269235|109.025668|113.957738|278.640467|345.996010|346.570164|146.922219|-59.620623|14.275295|10.271443|1.106381|0.673202|0.163269|15.221327|50.091365|32.758718|3.098667|13.105137|47.220323|-35.659574|30.846811|-61.189449|-376.730162|-306.871010|105.878333|126.525997|-57.627892|48.414318|31.971200|53.312382|130.850992|236.980545|312.088512|190.624514|41.563086|-32.309293|12.961928|7.722428|0.293090|0.284743|1.306969|24.895506|49.632347|49.339077|-34.715207|-5.603839|90.447813|50.355423|32.913255|4.282638|-211.252062|-181.065616|91.499183|258.651882|77.190058|121.790350|5.045099|-41.471702|133.056914|241.032347|38.111147|28.411307|0.236384|-4.415494|19.716528|4.874463|0.397049|0.680353|1.564582|12.550915|24.331239|2.043276|-83.098258|77.251609|39.585460|-124.024151|-70.877890|121.165972|-9.478114|-62.633912|-10.386543|138.674787|286.031253|123.872831|91.932458|242.326011|223.209971|134.112958|-88.096925|-51.167408|-32.103979|18.924711|21.703458|0.635665|0.488367|0.318271|0.078954|7.699577|21.879589|3.896259|-61.536321|-30.310862|2.143553|-105.987409|-61.894625|160.474996|67.826698|24.839356|-93.099984|67.861903|173.378783|98.641961|152.579041|309.102569|103.901225|-204.068808|-162.099755|-34.830182|-8.156567|-13.439389|4.350813|0.584714|0.447647|0.673005|0.772907|2.435821|6.789295|12.504189|-22.739606|-48.747920|-99.046258|-120.855085|-28.007977|-0.622432|-0.767046|172.224391|147.062685|134.660591|-6.137775|17.497970|34.370086|-104.363404|-208.909632|-189.099476|-102.671431|-40.760740|-22.221132|-23.171210|2.458126|0.637151|0.757351|0.074976|0.331815|0.316515|0.347463|7.003599|26.838755|26.788976|-0.182215|-47.838508|-52.211371|-117.919269|-152.782978|-110.973825|42.649111|46.187872|-92.645042|-230.398463|-103.704770|-208.017236|-180.968409|-52.459125|-32.483328|-33.258168|-2.453461|1.378926|1.894018|0.946310|0.214405|0.425468|0.567985|0.975790|-0.313814|0.456992|7.644987|25.880374|17.005564|23.091391|-33.523268|-74.927166|-65.401858|-41.395407|-38.975677|-195.949454|-293.296763|-235.010787|-120.526547|-56.276605|-40.452235|-20.307728|-7.564520|2.705177|1.509333|0.676628|0.660645|0.335828|0.990369|0.404251|0.178768|0.204774|0.829507|1.050231|1.599971|2.757703|5.142910|3.529726|-2.466981|-7.767069|3.247654|-23.322551|-20.485119|-16.788856|-22.387059|-35.218491|-10.100675|-4.379860|-1.983919|0.194555|1.448072|0.755582|0.385059|0.176763|0.214950|0.354236|0.591475|0.564822|0.667915|0.581844|0.969073|0.905546|0.936685|0.970412|0.833292|-0.400523|-1.959113|1.023231|-1.500148|-3.614846|0.415422|4.791415|2.861594|2.629809|1.780440|1.317806|0.775063|0.380596|0.089233|0.520536|0.998471|0.795408|0.433860|0.655017|0.928034|
~
0.648793|0.009252|0.519509|0.213615|0.677167|0.101353|0.182688|0.523850|0.887971|0.981481|0.117286|0.851118|0.096784|0.327528|0.167712|0.817988|0.248338|0.155027|0.091211|0.750903|0.574420|0.644016|0.496422|0.466219|0.867129|0.933612|0.443639|0.662537|0.367472|0.098656|0.590570|0.016265|0.107908|0.110076|0.213595|0.735380|0.102975|0.710414|0.941242|-7.388573|-15.060826|-5.886911|-0.765771|-15.667780|-38.054968|-18.328868|0.087960|-0.134417|0.227284|0.426745|0.766094|0.818306|0.057692|0.279148|0.313734|0.924821|0.212760|0.757373|0.587281|-2.548922|-0.243221|0.174007|0.583647|0.881042|0.578640|1.260478|-5.344433|-19.813044|-26.372912|-18.257803|-3.103202|-16.282038|-34.522643|0.754248|-16.133888|-12.772298|2.237478|0.710690|-0.136614|0.754081|0.773448|0.044496|0.788046|0.931308|0.361332|0.101780|0.855961|-8.488413|-2.225119|1.296934|5.340587|4.742797|-2.621593|-15.894371|-30.161134|-87.035909|-108.687077|-87.198131|-48.442848|-40.752394|-64.952447|-37.830660|-55.348190|-31.567195|4.039709|2.691923|6.471440|4.132314|3.871036|1.766066|0.408003|0.920160|0.619495|0.953093|0.815921|0.982114|1.751332|6.949983|6.596148|-10.174198|-63.227433|-92.969802|-163.333524|-119.860062|-135.582121|-133.043474|-198.913424|-274.295898|-221.942749|-102.982515|-146.462060|-74.035601|-61.981340|-44.426009|-61.533390|-49.408343|15.414185|0.473689|-0.532946|0.836275|0.967898|0.045099|0.854706|-2.998564|-0.705877|2.725995|-24.635209|-132.360097|-125.938849|-255.010351|-435.309505|-439.207139|-606.878520|-911.531458|-1190.155508|-1094.086193|-1082.555190|-1172.342142|-1115.889049|-856.037065|-443.325023|-233.886392|-216.188371|-237.181717|-100.944208|-18.610195|0.085900|0.581591|0.486859|0.745200|9.512769|-3.155714|3.645788|28.706266|138.191171|-65.617550|-61.894114|-351.519183|-446.346860|-45.116331|132.364933|131.321677|83.072424|103.912910|264.744051|-96.775664|-254.481137|-519.256146|-349.981242|-339.963200|-422.989034|-545.397860|-265.853631|-54.817374|-5.737002|0.937936|0.871816|-7.596460|9.017908|22.205370|0.393611|137.350476|235.677803|169.341325|100.147668|347.418680|31.405967|453.769935|693.404220|774.243756|1051.334668|1146.310394|1138.280281|705.400571|258.159124|87.173123|7.146266|-206.591780|-190.849772|-341.950714|-346.449534|-141.220358|-25.603429|-0.696455|-3.782057|9.758576|39.593198|70.575539|110.539106|93.905115|159.790153|295.939415|421.509437|130.039361|156.592989|390.543357|442.589503|601.787408|614.408176|1039.689709|939.163486|401.280795|140.131552|-101.950210|-66.141572|-86.832919|-145.115245|-116.719083|-313.742400|-181.338146|-71.026892|-18.547084|0.040397|12.335639|-30.333533|32.612249|163.265249|34.615282|172.150934|183.572662|153.865294|160.376538|338.491631|261.477846|495.276997|477.688265|916.020355|815.088961|317.001576|199.468559|-8.280182|212.168701|242.541470|22.876648|55.115377|-270.364351|-331.502840|-178.082674|-23.597334|-2.177835|0.583955|19.299680|-14.579783|-4.648494|164.060651|59.215197|290.711207|198.807508|142.887275|178.729090|419.477452|411.800885|138.653958|427.197212|941.879811|694.928271|615.390582|563.557109|305.889260|379.636313|355.870325|105.793159|165.581739|-203.843112|-306.256373|-115.110621|-22.429265|-7.848277|1.477420|8.524054|31.362766|100.447634|330.963202|244.519069|416.943226|249.582480|372.592723|355.792268|326.807293|-18.434422|-506.151030|-58.801748|276.737724|409.875675|545.512190|396.020614|446.519447|580.971704|462.537097|391.590138|376.259866|-68.872369|-225.209191|-100.922908|-57.748489|-5.980601|0.002944|5.844658|43.162013|134.730764|335.381294|331.241749|232.733397|454.197514|309.412787|321.701058|-73.793452|-457.148972|-956.511549|-818.508157|-303.737402|418.677220|479.561503|413.465559|665.162528|572.845620|484.129254|500.416503|239.981696|-56.469468|-187.715665|-26.239675|-14.609261|0.855807|0.800722|-25.434567|60.028794|157.659693|374.160967|291.330921|-95.733545|218.687826|-121.791786|-254.305001|-116.094208|-466.252491|-878.056996|-648.815167|135.569689|459.588638|278.703204|331.912324|495.909696|497.210782|644.053919|227.569512|-172.011476|-459.574670|-233.923206|11.879657|5.588415|0.922412|0.938010|-15.263600|9.719703|146.018810|305.479458|135.662540|13.758908|-154.617896|-260.201835|-293.507551|-207.744973|-729.702971|-960.450602|-621.854701|15.556096|245.454223|252.586603|420.841605|233.706997|226.578157|488.147240|-29.593505|-291.930771|-303.078770|-72.352300|56.627416|-0.000421|0.581860|0.904313|0.571513|-19.109993|56.852970|142.925080|85.163491|30.759592|-157.747784|-471.895470|-444.345704|-343.822817|-436.145947|-822.454608|-642.356142|-338.094136|-211.663179|74.562005|285.964192|-122.776824|211.389600|270.334088|64.507888|-300.865201|-360.868458|-161.735244|-18.276868|-0.680140|1.171377|0.770578|0.693773|-24.575469|-24.224368|38.833386|22.777572|-315.379310|-71.088078|-276.997550|-266.711441|-456.585960|-313.178973|-615.887779|-879.909378|-600.898335|126.347393|244.520737|262.417860|456.072517|273.219834|242.036388|69.403685|-311.732679|-430.916198|-262.919247|-5.134879|28.222675|1.283201|0.938642|0.116118|-32.549545|-19.936294|-71.462313|-126.208774|-246.526950|-57.833002|-117.906774|-94.106438|-447.440778|-404.815283|-415.726037|-324.611434|276.488154|165.651703|-93.106256|-38.533102|60.637213|91.652427|24.106300|-279.722064|-294.504314|-258.665303|-307.066752|-84.946545|-9.324805|0.637420|3.603881|0.978945|-32.916025|-24.088674|-95.061179|-267.064069|-529.677644|-612.500445|-593.190807|-657.245508|-719.077181|-544.134726|-518.285671|85.028793|303.228069|-175.349854|-243.398290|-32.215496|-45.127043|-2.292445|-255.266409|-400.931206|-395.979057|-292.676044|-349.857697|-44.488771|-2.394882|0.442399|0.458992|1.936596|-47.848271|-51.120491|-150.855950|-351.988325|-616.483025|-838.015438|-1095.635190|-1229.459475|-785.427009|-788.789093|-549.999337|149.515719|22.158362|-82.219346|-229.800168|-118.976129|-205.123129|-89.375816|-354.645452|-596.885111|-423.053249|-205.562026|-178.477145|-18.065986|-19.938655|0.961246|0.960662|0.732512|-46.286192|27.340109|-52.069619|-238.189455|-550.543242|-842.515832|-1056.783790|-885.945486|-832.329699|-694.152382|-230.337105|116.988030|-162.422094|-185.424982|-337.701454|-410.371403|-710.593339|-397.546948|-334.055343|-525.977542|-385.425099|-109.693106|-22.247398|40.311708|-11.866564|-0.122729|0.800265|0.912715|-21.887140|71.615087|-15.231937|-153.358432|-308.646243|-663.740734|-739.035558|-647.681732|-460.023779|-427.614799|-436.868715|-283.444183|-459.982465|-331.801175|-362.777187|-610.390184|-769.677216|-520.226990|-385.339713|-427.374525|-289.100267|-156.839746|32.732785|31.236957|-18.742127|0.678748|0.159565|0.871407|-22.329374|50.530952|29.915953|0.346729|-175.174841|-277.152583|-457.277831|-354.664392|-253.148425|-642.278635|-789.617066|-737.833508|-529.525403|-259.290837|-431.018446|-480.511996|-547.898259|-382.371627|-309.932626|-264.534210|-83.208340|-120.557657|-8.814432|1.776585|-0.880740|0.591284|0.963461|0.955354|-17.397060|-43.309966|35.629259|147.300581|223.365561|34.431388|-229.052432|-314.579060|-564.235648|-755.857871|-653.679751|-773.061227|-497.789547|-384.929554|-356.942857|-136.934732|-253.085921|-157.261665|-17.290457|0.181064|1.999121|6.189546|-17.235120|2.292318|0.733302|0.314646|0.563609|0.435250|-10.421404|22.289650|153.910560|277.365763|423.350103|394.684643|64.730921|-435.218690|-488.065454|-460.043617|-254.328152|-141.334042|-269.321490|-295.745334|-117.526695|60.966597|245.925908|324.104630|298.828312|215.804135|129.227107|84.885755|7.829031|22.586566|0.910702|0.613075|0.835272|0.568287|-0.948424|16.197314|84.308048|193.896417|281.577563|573.079099|516.056234|163.532036|131.465528|191.094733|292.313212|559.782657|452.140067|292.917572|589.898158|626.495731|675.754133|542.226367|409.236795|316.791840|142.235867|60.100900|7.871964|11.979122|0.703710|0.663360|0.987015|0.657135|0.276435|0.822395|39.034597|61.398564|135.510246|240.616777|293.711465|343.832339|285.220153|293.249424|259.418945|500.239617|543.468992|322.755671|279.331731|205.127066|191.637191|109.831417|56.853244|39.636647|8.574213|2.222792|0.802410|0.687223|0.909625|0.106466|0.704998|0.635533|0.769827|0.692013|3.219252|7.503324|7.754717|6.082707|4.793692|-7.003861|42.122208|52.223532|96.801712|110.781091|156.584345|120.381685|104.633212|71.279841|75.520911|15.923883|-3.227018|-2.842520|12.100251|3.321266|0.453589|0.254891|0.376921|0.412709|
~
0.938375|0.286547|0.519176|0.643373|0.922080|0.289002|0.335386|0.214749|0.335264|0.849685|0.732839|0.585683|0.617105|0.549214|0.873200|0.467711|0.850034|0.209562|0.073179|0.454682|0.535008|0.708874|0.689182|0.733935|0.215592|0.560914|0.036300|0.669181|0.815805|0.413221|0.081891|0.754181|0.699768|0.601072|0.426686|0.879643|1.740003|1.882300|2.038350|1.315191|1.064317|0.837728|0.848555|0.606166|0.317905|0.088818|0.754610|1.000748|1.026339|0.882110|0.394999|0.464231|0.417570|0.043222|0.163429|0.633162|0.604136|0.199729|0.302462|3.092757|1.633644|0.268922|-9.020555|-22.567283|-16.044192|-21.675330|-24.656100|-14.493997|6.263435|0.508056|-9.568924|29.632857|-22.099789|-95.512257|-53.679565|-15.268683|-2.789266|6.098134|4.069868|2.454030|1.304852|1.114986|0.920626|0.816800|0.686544|0.084055|0.450221|7.332751|-4.400691|-0.829353|-31.476728|-49.383331|-60.724100|-38.274658|-18.931308|8.773393|-60.299571|70.786091|37.642876|-89.331336|-112.166239|-221.220065|-243.216399|-233.515145|-151.502748|-102.981505|-84.818762|-44.893414|-27.966938|-5.405210|0.865642|0.793055|0.578305|0.018037|0.575762|-0.587035|9.608251|-11.649805|-37.530121|-44.899668|-5.518053|55.879623|19.318867|-40.820426|-27.377580|84.158709|206.761732|106.516589|-104.880662|-205.162834|-48.335627|-42.953483|-121.915019|-135.581304|-97.255675|-76.775113|-67.896794|-26.416695|-0.433284|0.034219|0.387722|0.878933|0.907545|-3.892080|12.347542|-13.785391|-49.852968|-101.608800|-140.616625|-136.225899|-90.708557|-86.481541|111.067062|154.586157|259.352999|119.855792|335.488626|190.436550|46.834863|-30.748728|-107.126437|43.913086|1.676629|-171.017857|-182.576070|-87.602046|-27.899511|-4.746073|0.606684|0.597803|-0.034291|2.006659|2.670007|-19.508350|-83.279579|-188.724136|-253.308864|-265.746477|-147.503095|-2.434244|-141.325186|46.766110|316.110434|395.621324|316.863871|290.775722|244.791586|193.932460|156.477743|161.529096|33.107950|-190.851401|-291.142619|-205.667107|-109.563975|-21.881454|0.881393|0.097965|0.553827|-19.423837|-43.211996|-83.860368|-160.887262|-360.129167|-348.200763|-179.675678|17.602175|-54.529222|-112.628798|-62.595271|172.266331|157.590758|146.119017|329.400155|489.191633|358.138353|58.238707|-88.100856|-78.072219|-309.957006|-390.783072|-278.077703|-117.474658|-12.361775|0.956318|0.245257|15.569703|-0.715934|-126.957149|-157.638317|-182.861965|-460.486527|-378.618789|-181.831469|61.706991|-268.457868|-382.022016|-285.300788|-0.169122|49.946278|238.888509|231.535070|536.933539|480.301336|333.306490|-161.424868|-37.239351|-17.619277|-309.156399|-250.235519|-72.817612|-0.666944|0.981800|0.638028|8.185428|-12.852910|-99.450552|-139.291813|-230.537888|-362.807772|-127.966389|-156.574755|-75.227261|-212.486709|-242.239861|-116.349016|31.954240|183.435457|195.903762|272.656756|643.248683|532.189904|357.268815|37.256045|77.424714|262.527479|-117.514270|-196.119420|-41.678507|-3.980766|0.397256|1.119326|2.544763|-27.431589|-98.487498|-146.494807|-365.035248|-165.934149|-127.019257|-202.159504|-302.092850|-121.603762|-202.388452|-83.354478|-15.773580|-171.206744|-332.276274|163.046845|442.699190|373.234464|446.849446|180.630523|303.002645|360.932003|38.712150|-145.499217|-33.238769|-2.103139|0.891454|2.298666|0.695913|-61.487131|-173.685794|-237.189756|-95.115055|11.523208|-108.301410|-127.071045|-188.694502|-228.592304|-215.488436|-167.710417|-423.688038|-709.573294|-760.168162|-471.313620|-115.976058|118.941195|278.379199|177.115590|226.559619|329.035317|73.816840|-88.442669|-28.784949|0.071583|0.320712|1.165679|2.164607|-90.561861|-234.586598|-78.440433|271.771965|187.172050|-5.319704|-193.458928|-60.539876|-206.950657|-285.858874|-509.651726|-906.510760|-1094.905380|-1029.253141|-807.468221|-173.310353|114.822879|-202.502293|86.540169|439.901171|477.530976|180.127188|-1.290801|1.612510|0.986719|0.377233|1.958145|1.677023|-107.132450|-215.807588|118.922110|313.152608|349.281970|119.807066|-129.365174|171.889914|3.183244|-286.624029|-711.635076|-828.838129|-964.948792|-946.159320|-731.812416|-276.790321|-86.621003|-320.311855|96.573884|519.557747|570.410267|178.829996|18.785699|1.872853|3.315127|0.453422|1.559156|1.443674|-88.488695|-159.192315|58.108385|293.535021|334.968155|228.369498|183.500914|219.223943|95.194843|-458.951085|-780.030293|-940.662308|-973.355112|-834.733691|-520.556046|-164.919223|-100.428869|-56.823169|82.007087|256.667357|500.454370|239.362948|-10.947021|8.163622|2.332792|0.204034|0.292463|-1.788996|-94.655264|-132.637069|97.502884|367.341589|319.249462|155.504980|453.950661|584.797024|-20.399459|-756.629067|-1060.615883|-1089.678585|-1034.680190|-852.418961|-363.888639|7.292414|-89.451971|186.131257|-12.512796|214.473488|432.045227|167.632248|-25.992701|4.413408|-1.185822|0.972862|0.496610|-24.606045|-129.011277|-67.927518|232.831565|572.344106|209.893763|173.855288|429.236252|584.050956|-171.115559|-1043.734465|-1238.104311|-990.870023|-845.705188|-633.946040|-198.593898|-57.446599|6.450962|312.893535|-4.736465|233.723578|328.792215|48.540970|-31.159105|-2.842093|-2.748887|0.155854|0.943512|-48.550850|-112.295144|-67.688612|293.157863|412.074350|183.400669|64.207792|213.564973|262.288560|-378.388892|-1024.614357|-1116.082919|-921.331964|-620.617875|-452.476918|-31.408354|6.354606|156.212997|130.841812|62.268640|252.108908|194.293439|-9.119837|-20.658202|-1.134340|0.455762|0.547107|0.391532|-26.014163|-152.506711|22.464390|310.217095|333.855357|365.269263|305.440962|285.734197|-1.370414|-550.794629|-889.102820|-796.557960|-490.747324|-330.383926|-149.327273|189.107291|91.834168|16.365628|41.283948|156.413653|119.617554|-16.250669|-33.774151|-30.328503|1.942340|0.773389|0.206151|0.985582|-0.169352|-97.742255|35.603966|202.930734|349.158132|370.298844|400.995284|489.866613|219.164924|-116.613947|-293.643159|-276.424749|-184.677921|-28.144539|161.050864|74.788006|-58.480170|-101.319648|46.539957|-6.837045|-31.614861|-108.314600|-32.062763|-44.446269|-1.148685|0.442234|0.029773|0.805675|2.008986|-84.518946|5.569268|265.515663|245.146788|325.735427|212.117961|567.289456|706.576500|667.263843|446.912639|103.872937|-8.027807|139.701512|208.992658|142.330697|-103.845415|-109.645263|33.650431|-189.675751|-269.335879|-118.417808|-53.280261|-29.622891|2.143662|0.519669|0.182603|0.777884|3.522111|-71.343856|-51.051365|265.942201|281.514014|231.820577|187.092603|468.226583|729.292056|848.427362|558.706666|236.959485|169.005317|186.640744|44.086788|-181.443061|-148.186679|-240.057138|-178.694013|-270.616076|-308.917462|-108.964052|-66.084719|-0.203880|1.786062|0.465824|0.820805|0.712095|2.328767|-21.455438|-33.474300|96.005723|145.241204|114.697557|131.045997|270.623506|271.146809|284.684370|146.662937|267.612432|233.530418|94.870519|-92.098365|-196.093972|-311.858847|-236.695944|-318.699505|-344.245356|-132.820116|-6.626177|5.910428|3.725839|0.393424|0.087541|0.137888|0.221653|0.788668|0.008973|-2.216464|60.140711|74.269175|86.048331|170.542024|-18.102893|40.507622|130.534976|148.329228|117.475172|108.553413|-107.950251|-133.980430|-122.641955|-171.009201|-204.611891|-304.763108|-217.548122|-85.644863|5.545449|2.374026|2.149679|0.802621|0.944446|0.142193|0.972375|-12.214299|-16.337249|-19.283218|-30.268301|-37.078949|-102.078859|-162.341138|-175.360710|-286.009089|-329.515162|-317.531369|-316.518194|-363.183507|-294.839499|-188.795315|-190.931674|-194.259119|-135.504782|-153.716096|-139.217457|-54.952941|-6.929407|2.499650|2.050415|0.439752|0.513057|0.511701|0.282336|0.455309|0.686626|-1.759908|-16.850500|-72.769252|-83.850187|-161.939066|-244.187527|-282.774260|-224.667442|-298.361594|-301.181552|-293.182847|-273.445566|-203.527424|-211.641875|-156.080508|-60.829217|-65.498036|-49.896638|-23.611416|-11.584399|0.714155|0.939863|0.939970|0.705086|0.812947|0.424623|0.218143|0.323281|0.538197|-26.630030|-55.370048|-90.643870|-98.468886|-122.422092|-83.804261|-64.375373|-80.751315|-90.542310|-105.225421|-79.311680|-116.267199|-102.759822|-66.180991|-17.901674|-12.555992|-17.079847|-7.992680|-0.715316|0.380555|0.198444|0.358333|0.776711|0.130787|0.321396|0.481797|0.943734|0.738473|0.682328|0.263471|0.094629|-5.551259|-7.292175|0.275335|-0.797419|-8.013168|-13.782791|-11.192070|-45.188516|-47.311891|-26.912626|-33.048238|-10.803138|-9.680051|-3.400043|-7.558391|-1.006000|0.104423|0.400426|0.864852|0.457266|
~
0.598904|0.223185|0.233978|0.729690|0.544581|0.715774|0.673424|0.290601|0.415714|0.941805|0.743580|0.791301|0.161275|0.098527|0.332355|0.348187|0.983292|0.111914|0.592934|0.795299|0.339673|0.296958|0.750716|0.866996|0.213546|0.038942|0.784140|0.317969|0.439368|0.648992|0.775235|0.038272|0.872177|0.009196|0.741639|0.560790|1.396785|1.481641|1.835770|1.723490|1.106252|0.567241|-0.354746|-0.452475|0.729649|1.369173|2.224084|1.007567|0.379720|0.437710|0.395183|0.731475|0.809979|0.138476|0.582484|0.023525|0.177418|0.366624|0.341539|0.612325|0.165142|0.145750|0.672023|1.933896|2.064125|-1.844653|-8.394168|-17.757068|-41.844192|-26.680280|-6.264228|-5.131783|-2.279470|-12.300088|-17.957944|-23.492222|-24.970554|-2.944970|6.211124|2.984344|0.608843|0.315019|0.278838|0.062606|0.190718|0.861321|0.086229|0.276027|0.300102|1.039564|-0.803535|2.637578|-8.879785|-42.371130|-73.275141|-161.527121|-146.181684|-143.654680|-99.964849|-166.156447|-91.861738|35.473597|11.060084|-47.509907|-38.307984|42.120960|-36.006276|-108.198629|-109.892277|-34.711140|0.504255|0.986758|0.699409|0.466051|0.059934|3.852483|15.061268|24.870152|26.508204|18.119610|42.332117|107.725988|115.499399|144.585965|128.797601|-17.033340|-232.367204|-58.428851|62.569923|64.159683|61.456904|-19.306424|-55.547243|165.254459|123.790497|25.212764|14.194676|-8.306736|19.065125|0.830331|0.354634|0.059747|0.959096|2.937568|47.891771|56.601618|117.828077|84.576181|197.687787|195.055735|196.343814|251.060626|235.877469|90.140541|-90.263602|-222.256309|-208.130251|267.949129|287.803253|265.050178|448.506115|329.805374|210.756458|193.029665|234.135734|89.539088|0.524603|5.691025|0.751067|0.628829|-3.495546|12.821243|68.281372|-3.176190|41.975425|78.741855|183.490512|71.286464|334.359374|215.958734|286.591743|305.264193|201.581543|-116.739218|-277.647390|-17.405358|246.787319|151.926821|138.924491|300.422115|439.932378|394.162295|525.435238|285.925997|67.525031|15.727849|0.689585|-0.001629|-14.234623|-10.572616|-61.092483|-92.207589|38.164354|15.498662|221.838242|251.622553|408.547886|412.842867|301.133682|345.568336|159.790752|62.119884|50.617547|74.408256|-1.665085|-78.175318|-165.350031|-75.044547|231.242552|555.746798|549.165426|499.465177|142.526353|5.085264|0.705419|0.699800|-8.349920|-48.333036|-179.182705|-182.594024|-27.541104|-12.914010|104.607094|-36.710992|242.618449|245.095303|211.974974|134.325173|324.789992|109.290641|144.574368|132.760113|140.022079|174.819547|101.656830|149.326877|592.118698|918.970979|959.289065|697.733842|192.702364|12.593009|0.440666|0.213729|0.697912|-12.687120|-175.221465|-191.366331|-157.465095|-17.898650|104.376069|118.310563|278.052434|465.376500|196.519988|361.409722|589.273862|392.893747|-231.392226|-380.217538|-285.781021|-34.923901|28.404462|211.448584|630.003970|1015.026229|1146.602770|788.480788|133.280488|1.652547|0.493407|0.331167|4.780517|-30.684884|-123.951022|-161.418993|-43.797249|222.022361|121.673412|83.298318|181.266037|522.079422|446.966876|605.557587|340.075611|-267.571638|-721.543059|-847.131645|-788.780417|-785.547516|-675.247503|-604.343836|-312.487102|214.680217|420.269394|302.629993|71.469785|1.725666|0.312119|1.528635|-1.563598|-64.139557|-47.256623|-32.293377|125.631142|311.554245|89.595939|120.574208|482.456577|248.980738|287.140982|572.097516|161.100146|-338.361462|-736.364197|-924.749026|-850.145119|-1220.194462|-1381.195772|-1253.739015|-879.891404|-332.748000|-86.943741|13.373180|8.953947|1.041622|0.657108|-10.148231|-13.585369|-49.300064|-35.528347|128.821182|217.103772|394.223695|365.463133|168.816880|496.629000|562.493677|457.378291|493.248411|-84.644062|-334.535476|-703.544774|-811.146010|-592.171900|-722.448957|-835.880507|-1019.113473|-841.121786|-389.854322|-150.235406|-16.918203|2.881010|0.506321|0.232950|-3.790382|-8.538698|-22.038236|12.940205|220.560753|77.981860|336.058619|256.774373|290.183259|604.089324|513.913676|292.123223|147.867189|-437.183719|-522.211482|-568.810304|-504.634948|-463.468252|-86.803149|-404.914270|-458.661707|-467.389470|-281.111140|-142.590556|-24.926994|1.515132|-2.580316|0.915511|2.557792|2.493859|8.802921|15.435213|-91.668663|-310.866027|-100.061084|80.805162|369.272241|562.408440|174.258158|-268.627831|-411.329538|-244.894388|-441.127851|-567.711761|-406.975334|83.880074|-90.988927|-41.978213|-28.551754|-104.006528|-159.849931|-83.738786|-42.023980|-6.995960|-1.246967|0.354857|3.677300|4.930331|-0.333829|-52.420901|-402.403045|-559.759579|-608.898358|-388.560319|-12.117883|159.756367|26.989234|14.706450|-300.839506|-365.017862|-425.006508|-502.959333|-412.502307|-24.159474|30.669780|232.466278|211.221325|166.741454|33.676845|-6.998521|-57.541710|-16.972206|-5.949628|0.525046|6.192437|0.018474|0.843730|-56.769107|-347.506781|-666.448512|-911.858079|-1021.763880|-665.536813|-262.556344|-296.718711|-176.512393|-345.846175|-585.204806|-478.653019|-284.083132|44.081979|145.155348|205.599279|303.689885|285.911188|336.196829|166.333761|28.741618|-70.151479|-21.711304|-13.415850|0.988012|3.975141|-2.852982|41.741803|75.892620|-156.647317|-162.221406|-534.548814|-1189.902719|-1194.259154|-1121.934824|-921.177235|-675.753884|-749.048140|-932.390977|-601.229165|-192.796873|56.053906|320.580068|292.286815|300.664904|333.410157|414.497956|328.282436|41.462053|-51.944595|-6.233229|-1.167811|-2.434389|1.000316|19.120214|59.631376|150.679054|108.451433|302.949944|134.429218|-365.618281|-962.707727|-1151.698275|-1009.561641|-927.751845|-639.206441|-451.747003|-398.453347|-66.105541|119.168421|300.453625|323.366351|133.340786|195.404102|373.227861|280.320690|138.845770|4.855947|2.087135|0.801849|0.713828|0.547853|28.248693|86.281936|170.119580|201.236686|386.950653|660.414561|513.213082|154.910842|-197.516336|-125.193453|17.424469|182.406263|89.491579|-223.999658|-170.646195|-32.788489|207.501008|118.653347|-7.045782|208.036493|333.085746|276.112430|153.001481|12.209460|1.834018|0.077147|0.694026|0.912535|40.235677|103.246754|196.313768|219.727217|303.076178|520.724493|781.748475|636.383736|596.047141|719.601190|590.600694|572.106018|118.060666|-72.521882|-124.071878|-38.241414|242.282771|81.193835|65.647158|312.071785|289.216497|81.783828|14.296323|-5.105629|1.543120|-0.387711|0.298411|0.832562|31.054678|76.534662|153.394888|0.272631|-32.582761|75.272903|579.441529|446.287244|395.648601|348.651713|120.170514|186.630704|-44.245177|47.832391|131.950217|0.738362|-0.606811|83.969876|324.371743|223.744645|110.895357|15.289805|-44.655576|-10.371184|0.495951|0.502257|0.426148|0.831476|23.338671|19.253958|36.583227|-176.409465|-289.146577|-233.079851|147.770812|307.721582|371.152806|115.052881|139.505199|59.994053|25.643632|77.821769|61.905992|-7.991803|-22.206615|156.843135|210.568485|-32.665026|-18.565422|-82.259030|-42.402957|-12.800924|0.652719|0.772994|0.200824|0.696527|-8.509780|-11.943504|10.513178|-105.434247|-176.940142|-111.700052|-53.278253|341.980126|542.792511|566.446902|308.472561|78.801205|173.857436|320.931818|98.239490|197.337611|219.242342|28.206458|-44.900497|-124.326540|-98.377277|-62.824818|-7.894517|-16.527146|0.579964|0.314126|0.192668|0.099946|-5.148846|-13.456996|-4.897480|10.797100|48.730402|-17.186875|18.772522|6.400413|-204.004372|-234.652911|140.842553|339.569496|433.572553|89.512581|3.438181|-20.871385|-26.110741|-146.057038|-184.691010|-103.950467|-23.889702|-15.822154|-8.893802|-3.154830|0.120300|0.961788|0.071173|0.741894|0.280965|9.292732|27.959069|31.581801|55.027291|38.491312|80.466800|108.651911|-7.314556|41.206367|215.883673|268.286297|134.111850|68.678429|1.000985|-124.689673|-149.885420|-72.561591|-76.728834|-38.137937|-6.639931|-2.495461|1.629801|0.968670|0.744145|0.133323|0.322042|0.826257|0.095111|0.392186|1.475678|1.292363|-12.833898|-27.236472|-23.701573|-34.607653|-55.144110|-60.029067|-97.898345|-71.263159|-78.955537|-51.934998|-42.614028|-64.112732|-59.040306|-4.389616|-7.605382|7.600524|1.269840|0.697630|0.898208|0.630911|0.186432|0.771453|0.407389|0.910866|0.904776|0.729431|0.736793|0.997501|0.137636|0.122373|-4.145704|-5.494165|-0.218793|-4.151574|-9.944468|-5.406905|-3.422760|-12.983992|-2.198889|0.829372|-0.620780|-3.201141|-7.650634|-1.378554|-0.014402|0.561473|0.318168|0.031595|0.572533|0.181445|
~
0.662493|0.758964|0.952898|0.069882|0.669830|0.857674|0.799313|0.406954|0.857561|0.921959|0.712229|0.228474|0.701188|0.427370|0.334457|0.795795|0.191070|0.897879|0.882133|0.965767|0.374282|0.011110|0.190033|0.050808|0.674547|0.232348|0.623989|0.992715|0.263943|0.196521|0.174160|0.926436|0.955485|0.127057|0.990267|0.741151|1.429361|1.429369|0.899218|2.076669|1.076616|-0.075695|-15.412296|-15.926246|-2.029331|1.020884|0.864851|0.560843|0.270215|-0.042623|0.327385|0.686888|0.108248|0.518865|0.727183|0.782795|0.751214|0.351172|0.775477|0.001882|0.623594|0.964188|0.906686|1.345816|3.588716|15.179396|12.256828|26.699167|26.158562|29.360314|-9.304926|-15.433947|-5.518023|3.477779|-10.973082|-6.494273|-0.544430|3.767305|4.408510|2.601592|0.784842|1.141230|0.357206|0.290776|0.288021|0.084389|0.073497|0.038391|1.153696|3.943336|0.389162|16.543574|15.623047|45.557728|52.770203|138.536989|244.484561|227.605421|273.025089|230.420238|128.522657|40.929152|15.987849|11.937908|-74.185728|-80.094254|9.768504|79.658057|62.179629|0.569506|1.317380|0.256878|0.967690|0.232811|1.306760|2.654130|18.934518|87.475400|133.912043|189.638927|193.344410|223.689508|257.160949|347.243173|491.540895|653.532687|579.950733|382.663788|207.479638|77.844268|69.707505|-103.934702|-204.197358|-203.451761|-139.500540|-136.429889|-19.970120|-5.703907|0.798954|0.139012|0.249947|0.806132|0.775656|18.829684|92.320911|176.762031|285.420531|217.190493|192.980203|264.720453|136.134265|303.477551|323.752130|306.510001|80.644480|174.268005|-10.818563|-7.465395|102.690229|-177.694325|-355.284333|-573.304105|-455.107485|-431.036899|-167.237849|-29.069955|-2.973907|0.873166|0.856702|0.115881|0.593221|88.472745|272.584885|269.233875|275.045242|202.524425|221.270287|151.075765|95.203927|240.409389|544.346104|624.706634|349.262312|576.631472|184.824679|148.132146|207.162597|-203.554939|-115.247579|-444.561569|-579.583928|-500.589717|-175.419244|-43.247035|-3.110751|0.257262|0.538089|11.294573|2.790365|127.928802|262.151215|333.644648|328.591502|231.948434|102.784308|189.452124|21.676548|-77.226206|388.077544|513.069428|547.875454|530.220227|461.261267|392.821337|247.462999|140.093783|47.296923|-219.290661|-478.090647|-654.966622|-279.105614|-54.140000|-0.079358|0.774385|1.050189|0.520562|18.408521|83.693791|130.461565|213.226474|214.941518|51.716569|-19.849447|76.331355|150.202010|77.578555|178.869712|71.880039|161.966773|424.642352|500.611842|504.369252|376.082618|412.278656|75.399664|-199.238178|-384.300712|-743.337845|-347.548957|-79.600656|3.402091|0.998301|0.839219|0.919058|9.757858|70.521594|24.901424|-81.160869|-120.337951|-202.839187|-345.199521|-299.458796|-442.439501|-828.722525|-911.773105|-754.694008|-393.265481|260.269344|453.223675|526.945579|352.721704|196.728745|121.880319|34.328516|-216.704719|-477.669871|-219.039188|-2.117504|4.651852|0.549384|0.573924|7.879443|22.307737|82.989415|-22.127919|-217.522320|-373.106186|-573.454161|-683.744064|-923.924237|-992.337029|-1257.535297|-1361.714427|-835.457953|-13.908226|293.199125|448.400377|500.337664|410.471885|344.752935|262.165613|45.031206|-120.092219|-162.576084|-24.655702|12.756459|5.355518|1.090924|0.151507|3.816211|25.392452|63.444112|-18.953819|-319.663672|-502.114569|-760.616755|-795.881030|-993.835958|-977.330570|-630.946792|-536.517671|-159.661066|225.615799|268.944153|118.502935|279.768614|489.898622|493.472940|379.427485|-93.790985|-125.057650|-37.165240|-8.074168|13.710225|7.274260|0.848220|0.739300|1.008270|-10.828774|5.408346|-83.288321|-363.699005|-534.317923|-682.328923|-801.774055|-784.458324|-417.238762|-267.890105|-38.032813|199.903757|515.248533|187.095296|24.532751|44.000360|195.635368|84.125611|-21.099251|-298.199363|-389.286615|-129.293305|-29.200377|7.115874|4.934816|0.197269|0.243276|2.306920|-7.232029|-10.272974|-165.855066|-360.713685|-609.947795|-609.683998|-639.248002|-408.836122|-218.963555|-126.183056|180.481586|216.185915|60.057385|-243.000841|-144.469442|196.427507|188.595200|-62.478867|-218.326417|-253.505548|-314.423572|-136.039253|-36.024270|1.609255|1.586871|-1.691484|0.119136|1.852834|-3.257692|-15.054992|-157.293519|-332.588755|-562.110236|-492.101462|-422.389959|-289.620543|-285.034238|-181.247042|28.959849|-15.918406|-87.278880|-457.831180|-437.516538|85.017681|58.922788|22.504691|-80.742549|-49.797747|-125.184514|-117.402404|-26.674596|-2.033305|-4.107299|-0.675348|0.414826|0.787202|14.222568|-20.382957|-121.735934|-203.831209|-296.502590|-375.823149|-425.390090|-311.297457|-316.838965|-129.895440|-105.635417|39.330469|110.847127|-305.819236|-405.738945|-256.820716|173.837310|245.038833|288.245128|79.788729|-51.423786|-116.954467|-45.329706|-18.407035|-9.669162|0.228516|0.310338|2.922164|47.265825|55.802295|-19.210955|-128.922391|-223.079152|-401.882991|-632.429163|-583.112449|-636.168946|-530.049407|-407.276720|-315.763683|-278.608777|-441.537268|-411.405538|-169.346420|213.119771|403.036547|352.320043|239.920192|115.287240|-110.134098|-34.192193|-16.743373|0.842801|0.600708|0.584021|2.997962|47.604382|134.175641|81.200620|-38.147321|-148.205423|-349.292208|-582.173701|-1024.103263|-1098.863202|-991.123028|-818.041878|-557.801675|-496.698736|-569.204112|-261.750753|274.683643|375.785834|525.870600|403.022725|495.130103|332.011193|-46.389855|-162.099005|-64.016068|1.565016|-0.260569|0.967488|1.203981|62.044303|278.597857|218.155809|173.516381|0.416084|-134.120110|-476.939137|-658.371780|-624.489249|-605.962157|-627.979140|-440.958239|-436.645289|-328.092493|136.513924|485.659185|598.465075|518.699574|459.506960|618.665810|214.199567|-128.250110|-141.251826|-24.923705|-7.652132|-0.124247|0.667323|0.495492|123.535327|445.955329|459.307093|366.051855|281.123454|224.653660|-253.942776|-155.877695|-172.965546|-306.559140|-254.219117|-319.773712|-427.963993|-122.191089|450.541237|395.759096|558.088874|538.352693|522.228590|603.939684|86.399127|-123.472352|-173.298807|-90.988912|-27.792965|0.449041|0.320636|0.710060|105.604928|425.748929|615.484002|454.481512|254.962739|88.004036|57.914219|313.103451|152.777713|114.852632|-68.284000|-170.986449|-56.771031|21.913286|139.381943|78.085865|368.268711|305.655871|549.853875|500.872305|-135.019483|-340.464702|-158.175674|-56.427405|-13.861939|-0.524860|0.631948|1.170906|40.953730|275.212126|470.087234|500.239116|332.232974|86.835236|130.914830|249.404827|101.014334|-82.124842|39.022657|94.984006|0.759742|-73.358475|22.130801|-71.238151|100.031910|30.537392|288.131462|69.106583|-200.514332|-195.093174|-90.824287|-48.271074|-19.463342|0.929553|0.435600|0.047679|43.324906|217.917673|424.160193|456.502640|375.243863|328.521859|185.509323|116.078990|49.338517|-172.881109|-141.619331|-20.712221|-27.707307|138.018340|148.331231|31.124429|-116.942202|-57.528773|-11.796980|-204.268781|-231.052271|-144.605630|-80.710957|-36.032151|-2.439217|0.150863|0.711004|0.834755|29.363550|130.603386|277.916721|475.237840|633.393108|552.196268|413.632120|240.537139|35.392111|36.900697|52.502818|97.514345|147.127696|154.778096|114.382873|-11.408279|-152.053892|-245.668673|-255.774264|-215.501028|-148.806647|-91.397210|-51.812532|-1.611832|0.225046|0.229195|0.409204|0.031536|21.491393|52.400192|102.219492|265.799088|411.430924|454.815349|403.846435|339.577779|126.833249|53.005453|64.252843|73.734308|69.233521|94.023559|-61.268587|-143.215114|-309.994037|-333.637638|-203.688901|-80.583228|-39.214591|-30.644912|-23.502943|-12.921005|0.612791|0.701068|0.017575|0.872834|2.321638|-9.256195|-33.495365|-29.145370|13.118346|17.208231|92.795458|65.982504|59.229095|279.229462|295.321118|196.164296|198.215944|108.274624|91.117342|-7.555192|-75.578148|-73.115679|-40.335927|-11.696982|-3.817724|-3.822829|0.413884|0.829545|0.082312|0.659461|0.380148|0.676360|0.360529|0.396960|-0.186508|-0.339229|0.918946|0.711545|-18.620379|-66.539288|-73.290355|-61.790825|-90.176384|-98.870239|-20.505827|-6.748218|11.159874|5.390606|-18.749725|-6.694042|6.473182|12.009412|2.667538|0.535310|0.395190|0.732462|0.452607|0.611525|0.333164|0.525254|0.270986|0.713312|0.210877|0.656600|0.160992|0.752895|-1.816579|-2.911004|0.273463|-1.824534|-8.194021|-4.308071|3.241402|2.529751|15.091632|5.412122|0.690515|-2.119269|-4.480486|-1.016282|0.855306|0.702918|0.467649|0.498365|0.631296|0.826386|
~
0.230818|0.083904|0.437911|0.563982|0.609158|0.708897|0.277295|0.810772|0.340413|0.388330|0.561580|0.262721|0.328973|0.777514|0.786570|0.630915|0.194547|0.681474|0.118444|0.364957|0.300352|0.057266|0.389622|0.288076|0.385040|0.224457|0.985146|0.852689|0.722822|0.616442|0.679075|0.953640|0.700345|0.116985|0.518500|0.514323|1.590415|1.883147|1.135457|1.427487|0.695485|0.796832|0.271545|0.865387|1.061732|1.486689|1.493361|1.093588|0.949664|0.249757|0.028497|0.221902|0.313722|0.396932|0.485063|0.698762|0.621390|0.470208|0.551506|0.334748|0.218595|0.256294|0.327444|1.624267|-2.175709|-15.286664|-25.117552|-8.164374|0.485308|1.518818|0.262547|-8.478424|-17.193620|-19.307965|-19.882812|-14.060402|-7.149612|0.877680|3.232375|1.608527|1.243021|1.326839|0.077491|0.008943|0.393030|0.562553|0.707827|-0.020531|2.334347|5.158350|4.139956|6.706302|-9.110232|-44.842304|-78.889943|-55.095609|-22.344497|-35.195280|-28.603555|-76.060306|-84.299308|-72.255077|-68.182675|-40.514803|-39.799677|-33.114002|-14.909526|-3.871486|-0.010015|0.873214|1.277157|0.310723|0.449624|0.062225|0.324923|0.976835|4.707878|-3.812640|-2.160947|20.637098|7.700457|-30.839077|23.730723|-1.314922|0.168681|-5.379873|-79.884358|-210.643317|-97.870156|-2.218294|-22.797684|-84.955556|-99.931106|-59.913142|-46.425513|-17.832515|-10.632763|-23.307692|0.131032|0.095358|0.941135|0.179462|0.586886|4.275846|22.537392|16.492273|7.335578|-75.196981|-83.371221|-101.382392|-4.377348|-25.628131|-160.595203|-262.198128|-395.551217|-340.671294|-99.414440|92.819389|35.671766|-64.459423|-80.462222|-234.843848|-248.637428|-169.989663|-133.876582|-40.296902|-14.704864|0.740445|0.077368|0.319698|3.013449|29.996912|50.358916|60.998463|106.372467|37.715724|51.628882|189.053125|330.088132|288.394083|-55.681225|-91.609118|-105.361988|-11.634062|57.988368|-120.398853|-117.868173|-81.900233|223.870410|7.654943|-300.757338|-324.008489|-187.855788|-46.630914|-17.578893|0.741230|0.211495|-0.083639|15.455236|45.946036|53.054252|142.010947|237.273724|163.296341|254.042598|534.994221|311.592759|103.564792|77.864078|102.302345|169.941479|146.401873|105.575207|148.622519|65.145558|153.055894|152.850255|214.736033|-107.321223|-260.652981|-148.646375|-26.398186|-6.145284|1.007568|1.005660|10.638307|52.172803|86.748275|120.092366|153.836458|373.548513|286.250945|484.194180|649.022908|687.254817|505.339704|454.418942|645.048553|929.543190|278.795537|149.417258|380.669827|175.021468|267.827776|379.712693|240.212561|38.012956|-107.884210|-26.607296|-1.827313|-7.565424|-2.619337|0.499982|29.710782|49.422207|157.086001|271.540088|364.021676|368.555142|281.047934|480.396166|553.243114|447.406644|496.250262|576.452315|720.141651|936.342086|531.655219|412.160608|156.094928|-134.173591|335.154827|465.948452|134.788476|-16.507798|-11.507067|77.270834|52.067867|-0.370214|0.233764|0.745999|29.240300|44.847200|200.794764|313.739846|389.056831|160.388321|163.862873|307.089776|465.037066|129.065991|61.093947|-232.847691|73.450410|435.033812|391.304811|365.098593|113.208642|-130.923608|159.759101|186.465299|157.414467|-24.630041|43.787242|107.457960|92.451764|2.231749|1.033478|0.857104|14.446853|34.481210|81.822278|168.653592|3.206628|-230.120645|-299.845784|-214.559710|-383.099057|-670.286162|-606.341464|-829.472646|-564.405106|-159.731233|45.048793|-121.233492|-20.730789|-150.134926|-104.086656|-103.657386|-120.653086|-95.648677|44.118493|48.473289|34.062872|2.202779|0.489257|0.909530|2.686091|11.372184|52.524964|0.591229|-234.013774|-464.520553|-686.196448|-595.296128|-1131.506264|-1160.717601|-981.629852|-917.715416|-759.777241|-378.485110|-405.660611|-223.874757|57.453822|-242.632104|-510.391745|-409.949789|-247.800745|-85.447592|42.823566|65.684842|29.632002|2.395768|3.034370|0.334459|2.248477|3.512546|53.723665|-152.013046|-297.042068|-474.910922|-814.000022|-843.112104|-1053.315442|-899.421878|-804.962322|-522.566202|-651.195211|-519.149107|-500.694561|31.153129|-0.763350|-244.917219|-517.263868|-333.912374|29.353787|-34.082044|66.458763|76.946658|24.114285|25.406513|26.891100|0.640404|1.400610|2.905241|9.374947|-120.044528|-248.653481|-557.455485|-855.252452|-953.797988|-1058.153254|-743.471685|-518.289606|-462.396151|-653.947485|-454.959456|-37.835416|31.038474|148.915195|140.503834|85.955262|153.054698|311.412230|120.064168|-1.421197|-0.999162|24.816584|33.722309|4.203567|0.119662|0.943061|2.515612|-5.943335|-103.635862|-225.817856|-388.285652|-607.894897|-639.855846|-654.161958|-331.330931|72.909834|-69.024547|-208.558054|-18.496542|15.709582|-153.690260|190.369857|284.508603|461.783462|503.940083|569.460068|357.616622|110.895285|6.933749|20.891770|13.770245|0.515448|0.434641|0.856141|-4.341928|-23.088047|-49.635689|-135.846970|-242.805790|-247.583424|-152.110356|-137.745851|188.635767|15.991837|52.456985|95.337155|103.168468|-178.044615|-185.628350|-123.399404|69.482656|269.771472|334.859970|418.470201|288.905521|97.122683|93.715049|18.451720|3.719596|0.083403|0.440379|0.879341|-9.804070|-4.062087|42.193318|47.432921|61.140945|-35.708912|-4.673668|189.051783|154.507081|70.606088|14.379463|73.365552|13.931765|-68.371547|-264.013826|-11.742090|-140.055386|-56.056815|76.577294|240.542837|294.564494|140.340799|15.669060|16.751515|9.946542|0.485994|0.415589|0.844922|10.820145|26.914355|64.347689|169.161879|123.503199|93.687988|166.148069|3.631458|-20.257708|-168.355815|-48.357018|116.101157|112.087820|43.130228|57.119830|130.272672|-185.931509|42.469378|24.092317|260.951022|258.394291|49.675604|-45.894341|16.772196|3.209433|0.886633|0.000334|0.240755|36.960153|90.758802|50.457527|-15.054232|-110.101093|-128.165641|-183.922914|-229.935808|-167.506707|-195.005366|-26.313944|-51.773770|-115.608747|-162.493185|0.362575|-53.533094|-119.160214|-25.253016|98.060395|189.443144|159.915915|55.085016|-32.068851|-27.874119|-20.026306|0.372965|0.851017|0.728618|31.789765|83.161723|100.022682|49.697670|-62.729671|-249.787465|-213.329888|-205.931885|-19.350911|26.720675|85.449360|8.840806|-78.418441|-75.009720|-42.927561|-83.350975|-221.114915|-162.759350|128.111069|163.535774|62.883718|27.353431|-9.885089|-6.737932|-1.773201|-0.509658|0.364006|0.441427|5.676593|33.396239|91.988653|127.337197|46.075249|-28.197517|-90.995831|-94.705138|26.875721|134.492392|189.522004|38.539404|-97.975185|16.354064|105.944355|-189.233186|-331.792468|-230.879480|56.929245|-64.633678|-53.852564|-2.787454|-7.037212|-10.700746|0.955767|0.152224|0.311579|0.005096|3.569293|23.800805|93.577658|169.620215|297.754315|296.025990|157.252044|67.693930|189.825835|245.565652|78.487745|-147.082868|-66.156589|304.970568|45.975956|-365.100368|-543.287801|-328.532003|-258.829121|-170.780535|-100.887336|14.725000|19.918445|-12.183249|0.674467|0.444428|0.613302|0.256476|6.965340|16.396325|115.058648|235.053395|406.768738|506.416625|475.014182|302.800404|460.039983|495.706730|62.710133|-66.502446|87.717080|356.827363|127.253131|-259.535823|-365.097099|-345.021493|-333.720766|-192.750417|-91.541145|-11.473759|19.605961|1.884672|0.860579|0.311090|0.978713|0.489644|3.095867|15.328703|56.579607|124.721404|215.573158|270.499428|345.941029|440.367866|437.874606|523.757773|394.174244|291.806881|345.419453|480.220087|169.181677|-169.848964|-354.165012|-372.588380|-371.165290|-198.751522|-79.769848|-104.819549|-1.104956|4.807908|0.807997|0.991394|0.623443|0.715513|-0.237895|-4.785499|6.737123|42.655049|87.038545|36.569256|84.968794|184.714814|422.776027|663.473421|604.189137|402.803263|296.778878|441.343832|147.722194|-138.762479|-290.070100|-358.928334|-248.159285|-90.757338|-37.056357|-71.903273|0.072337|0.264960|0.463868|0.869229|0.707754|0.251920|0.860624|0.329893|0.142446|14.038587|46.017166|46.921934|20.595189|-33.349850|-23.777744|8.365452|0.306638|65.374335|56.189751|172.332129|85.539007|-56.468827|-80.273971|-36.798337|9.904806|10.755147|-1.641138|-16.258018|0.943148|0.123705|0.466992|0.057427|0.241534|0.920527|0.926656|0.949288|0.176818|0.800266|0.340609|0.319697|2.685571|10.562401|6.240471|-0.132331|-5.969308|5.904685|21.804652|4.373780|12.423857|5.640231|1.570780|4.384856|-0.887800|0.509034|0.702900|0.011795|0.551949|0.504841|0.482128|0.462881|
~
0.627420|0.949120|0.520308|0.868953|0.869647|0.446964|0.818241|0.042093|0.234244|0.098725|0.181972|0.184633|0.316022|0.502888|0.357101|0.653962|0.930778|0.158912|0.833916|0.449707|0.546258|0.681205|0.725485|0.608853|0.633339|0.410776|0.615116|0.185288|0.915617|0.097244|0.648169|0.543036|0.046364|0.168476|0.405669|0.911900|0.072268|0.001788|1.529085|2.204691|0.742951|0.208422|-17.145457|-20.261340|-4.006402|-0.011449|0.059052|0.442171|0.452759|-0.048756|-0.005214|0.087251|0.810560|0.740486|0.704473|0.443899|0.151262|0.319590|0.629192|0.059556|0.401868|0.274337|0.572585|1.214883|1.307207|-5.027330|-17.820346|-25.585523|-9.349727|-13.564406|-34.801867|-32.085778|-13.262658|2.230871|-27.823446|-42.616973|-6.317681|0.813071|2.723781|1.891819|1.486822|1.200308|0.980713|0.457961|0.432685|0.685186|0.902358|0.567021|0.027586|1.607996|-0.677768|-30.394144|-49.124301|-42.574647|-48.813886|-72.834541|-93.384367|-117.652243|-131.702715|-0.455454|37.688277|6.234802|-125.872650|-109.916546|-117.584272|-81.456410|1.257989|3.598828|2.828634|2.033911|1.126773|0.503928|0.560014|0.373295|0.942138|1.055460|0.485575|10.228125|-12.046821|-124.127538|-127.778566|-140.579593|-236.198897|-58.946762|131.228876|169.507054|189.885992|49.815282|19.116201|17.131032|-6.957481|184.962075|132.979115|32.193253|83.431870|76.966364|-53.101273|-17.043314|2.551584|2.945312|0.372148|0.071205|0.184507|1.936942|10.403022|18.225230|-82.811527|-218.133214|-270.078051|-325.133312|-470.481554|-213.592179|62.803769|152.768899|100.198978|-136.897570|-117.650916|-179.820274|-138.107788|-31.611096|224.026294|470.112112|338.041480|82.416751|-50.000649|-59.078770|8.645243|4.095926|0.107437|0.623621|0.139262|2.834262|15.147322|-39.756667|-138.030499|-296.215294|-370.698914|-510.646898|-591.746011|-216.058182|-140.834932|-172.733626|-188.983245|-466.407352|-231.723717|-96.888397|-31.482402|-81.298508|204.622883|245.095286|226.899176|93.516888|-101.834429|-78.120465|-1.818770|0.815209|0.627749|-0.033367|-1.201185|10.842852|24.732586|-49.048646|-124.567694|-231.227844|-393.377820|-481.836708|-554.770185|-341.092110|-160.391829|-272.780088|-438.166807|-464.869439|-73.451915|-46.694512|-240.419239|126.196802|240.017399|83.439938|-12.840083|-98.857012|-159.058036|-102.193981|-7.862547|1.050344|0.704712|0.233067|3.007461|10.259045|5.773923|-58.678582|-125.212912|-196.274967|-302.294224|-425.925992|-546.046832|-433.632557|-265.392327|-359.512020|-395.226531|-14.179219|126.504960|248.926810|-94.796265|-43.843334|-86.014726|-168.026685|-277.511294|-306.170694|-286.753215|-121.959827|-5.084406|-0.258948|0.698939|1.193523|-4.652923|8.438132|17.039530|-86.422882|-122.291226|-171.503141|-222.919169|-270.700287|-455.949317|-635.593955|-506.695119|-251.110753|100.737432|425.091207|440.598345|-27.500658|-123.381607|-389.126499|-354.413178|-273.540686|-364.557892|-315.253746|-252.094783|-94.158423|4.055068|0.282827|0.292751|1.729489|-7.147033|8.420490|28.177899|-82.359386|-131.496731|-140.114729|-207.562936|-217.112110|-370.242087|-774.889515|-773.152784|-225.501902|338.857818|470.597326|535.295170|-29.168760|-237.138393|-352.701439|-428.280073|-389.546748|-287.930429|-239.279528|-145.658641|-46.211383|2.250222|0.275271|0.055802|2.777924|-7.027083|3.256919|19.350119|-78.733765|-96.445697|-157.284641|-225.269254|-314.938395|-545.252145|-950.095902|-736.284084|-162.608900|374.490961|649.840603|453.454622|-68.020147|-175.066718|-346.359516|-280.345293|-235.476838|-169.608196|-84.467020|-50.808208|-48.590839|-6.713340|0.521837|0.017841|1.415816|1.026919|10.642815|10.106578|-52.238761|-92.197474|-186.170083|-290.756240|-448.990642|-800.486028|-1022.116110|-495.028355|80.230061|741.439193|644.738554|238.795581|-55.454593|-254.384352|-256.411124|-171.465474|-166.701463|-144.668158|-62.070875|-0.063925|2.354753|-1.341439|0.812411|1.618238|2.589569|1.523614|11.891147|18.042883|-41.344626|-115.539308|-187.778902|-239.609649|-495.294895|-813.495737|-906.685747|-146.844356|161.682772|576.059021|484.101316|165.301835|-30.435821|-403.232113|-256.420572|-173.772932|-127.028962|-116.617464|-101.936003|-59.050745|4.175370|4.281353|0.436106|0.574480|1.868792|2.907763|5.576076|-1.101680|-45.297381|-151.159512|-225.020188|-279.990366|-505.493472|-729.643567|-728.794417|-37.866375|193.695677|561.085932|352.997121|110.908462|-435.464476|-491.889962|-235.933476|-158.034762|-58.785766|-53.831302|-74.253925|-47.508030|1.259578|1.568578|0.205612|0.290251|0.528501|2.263972|3.729756|25.337170|-39.636602|-186.189449|-263.583523|-360.476753|-510.488790|-503.711364|-335.188192|-46.916099|197.696278|296.405793|101.372067|-49.862782|-680.838546|-398.991558|-113.434308|-3.193536|13.068245|-10.160206|-48.148232|-55.430870|-10.518988|-12.430166|0.642079|0.460006|2.670902|5.919815|16.757533|31.419016|-29.897612|-227.036890|-393.542098|-432.408789|-273.456024|-260.513641|-148.994388|-150.666192|314.880887|266.966322|-21.497192|-380.760344|-725.145721|-340.960717|-23.401112|52.059162|46.616749|-8.747279|-37.638091|-62.502131|-25.157046|-10.508582|0.657728|0.124458|3.195572|12.597314|16.085076|37.896424|-39.443992|-271.930187|-353.110074|-376.197341|-287.663842|53.111760|152.428786|123.521568|447.078731|215.742052|-239.019748|-545.006003|-514.761503|-213.760608|58.478772|87.226240|-13.962335|1.245057|-44.869183|-99.177332|-61.993262|-2.236485|0.720414|0.171837|1.543047|16.221852|28.372983|20.172824|-97.421143|-333.491419|-270.506848|-244.549810|-171.889897|86.611315|106.654732|147.217707|398.564744|-82.625678|-411.106961|-510.033037|-254.982695|-125.223801|64.763656|29.123936|-65.078558|-96.069617|-101.569202|-87.777920|-7.342753|3.767074|1.037126|0.190686|0.916664|21.681835|40.319332|-1.541533|-117.799367|-300.386928|-232.790802|-64.061079|-7.947594|-92.338742|135.919891|200.793601|338.853779|-213.599534|-502.108251|-240.134510|-204.178802|-164.110272|-90.785612|-159.443696|-240.788372|-214.994324|-103.817388|-38.542900|-19.205343|2.621379|0.013514|0.918573|2.020983|25.058089|26.091215|69.950974|44.383872|-23.996886|-73.551678|213.238166|-28.617092|19.610245|394.950285|125.275034|50.357745|-145.122966|-293.540206|-76.672005|-164.480723|-232.306482|-207.239319|-268.600943|-319.082483|-223.346228|-82.995242|-43.451513|-12.038610|2.697893|0.345529|0.566804|2.187512|8.628653|39.785682|119.117176|227.167298|191.789921|167.896192|115.333091|-177.822117|150.528089|-154.593469|-184.868367|-285.299740|-413.406781|-131.929308|13.322867|-3.692981|-196.964296|-272.943488|-289.225267|-306.593240|-221.322887|-110.046010|-20.827491|2.334680|-2.056571|0.875260|0.265916|0.307972|7.355415|32.410271|72.431863|302.439996|278.633538|265.387749|-3.667183|-93.986067|72.750406|-318.009318|-359.131216|-657.841386|-421.668092|15.789364|148.299040|84.521294|-219.043604|-325.589070|-361.551059|-338.712056|-195.948294|-116.568330|-28.330444|2.490351|-0.007257|0.228411|0.533481|0.085380|1.484428|-23.649165|30.666829|264.017091|342.125317|147.817087|36.042000|84.777865|-36.562611|-205.611841|-300.499004|-451.484972|-483.489567|-4.279199|112.814081|13.035910|-205.918567|-221.411957|-193.684945|-154.580579|-78.443747|-41.517418|-26.937296|4.973572|0.757671|0.141695|0.541871|0.523662|0.316135|-20.922096|-4.677844|69.992831|143.922175|85.713440|-149.479369|-235.161851|-271.533362|-395.852624|-235.553098|-306.887057|-498.072416|-301.942365|-240.381954|-91.727984|-37.674492|-65.570114|-54.851319|-21.735899|-8.802836|-2.273556|2.035498|2.295592|0.685413|0.776646|0.745133|0.106131|0.910045|0.119801|-2.337488|-11.170660|-41.815175|-104.024222|-95.396051|-121.053265|-194.336481|-164.032409|-12.806910|-72.905537|-227.486905|-194.985542|-119.295074|-50.723796|4.805740|10.176736|4.157279|4.056861|1.885482|0.192187|1.123264|1.010682|0.673805|0.368998|0.044912|0.257726|0.145644|0.790128|0.649004|3.525503|6.771484|11.515907|15.046954|10.130715|-52.577949|-59.092833|-16.452568|23.319360|1.485699|-30.111189|-7.218331|-0.351463|2.341739|3.400547|3.722982|2.016902|-1.778635|-1.091715|0.928583|0.258850|0.766724|0.793038|0.054189|0.435550|0.162036|0.099101|0.753390|0.461706|1.058422|0.380849|0.838442|1.464476|3.229029|5.207027|3.828752|6.870823|6.408327|0.126308|1.494515|2.574195|2.440108|0.911548|0.309089|0.823599|0.633283|0.325565|0.679888|0.432794|0.580761|0.587014|
#
~
-76.068232|-36.498470|-3.662604|92.535309|-136.738409|71.944489|-56.016950|232.294608|71.420759|-64.456203|
~
-101.068663|-62.244028|129.480754|33.432331|84.568360|-155.055774|90.326514|97.554784|116.436966|23.591143|
~
-37.196097|-17.460681|143.564700|-153.987654|-179.640801|115.452436|69.905427|-75.391404|-34.684345|-5.144478|
~
-14.808542|-243.794658|-102.700690|-18.135750|-258.793191|-190.669543|-20.963424|-33.888534|81.586667|-19.599904|
~
17.591267|-80.199761|-71.327190|155.845390|37.885839|-55.973003|-113.717903|-87.327753|48.253075|191.419849|
~
175.455771|33.591919|136.804621|-11.988876|-2.440842|184.804685|-93.673040|-35.798253|161.125665|-24.736827|
~
-26.636217|198.783910|5.679462|-102.759752|-27.465355|-53.601264|-69.850790|-94.000586|-49.061278|-60.761028|
~
-214.679840|-38.938749|-177.189939|-259.321986|47.406851|-185.336740|-156.886299|-155.889525|-144.236142|-162.403683|
~
-51.030042|-12.420337|-33.387586|-115.991537|-34.194903|-39.069960|-101.419098|-88.607788|-89.859691|-48.804015|
~
160.507857|-239.364969|16.689089|-14.874441|-244.200398|-99.650126|47.089241|37.084196|118.883113|-73.567522|
#
~
3.449104|-18.545928|10.747013|-8.925092|-14.627580|1.492798|-8.908617|-5.438128|-4.117632|-10.207169|
~
-3.728919|-9.484916|-16.898573|-4.114556|17.347281|-16.500961|-5.074274|-7.844209|-5.075222|-6.709259|
~
-7.452617|-16.325091|-15.989646|3.666829|0.125205|7.154097|-3.559722|-2.615861|-0.000589|8.446589|
~
17.002658|0.632398|-8.131888|5.541081|-11.192765|-7.262074|-2.057300|-4.576134|-3.681565|8.825173|
~
-8.615820|-19.959138|-11.455342|-7.265720|-2.193673|-16.746167|9.676525|32.810875|17.637283|-22.367955|
~
-6.024919|1.002110|6.943177|8.910245|-8.726515|-16.436244|2.225134|-0.026294|-0.934683|7.837142|
~
-5.905294|-20.226731|-0.275942|-1.604022|-10.370327|-9.107927|17.073684|-2.020013|-2.804025|-4.875795|
~
-14.537570|4.541898|-6.524218|-6.009061|-2.320195|2.871310|-8.301165|-2.670394|11.626470|-11.989246|
~
-1.044650|-5.811258|-4.240522|32.532947|4.112893|-17.391526|-4.478464|7.584364|-3.675436|18.137694|
~
-9.774336|6.809257|-9.015420|-8.489034|5.203111|-20.656424|-4.503174|22.209381|15.894507|-9.486183|