3|200
#
~
0.312512|0.514010|0.444885|1.427352|2.367553|11.017036|10.633492|4.817143|3.209078|3.852915|10.516709|-5.823498|-6.402754|-19.632601|10.526708|43.134524|38.652458|43.062050|42.085602|41.804481|33.969946|22.713717|7.186300|7.522648|-0.097426|0.010796|0.149741|0.851009|0.843012|0.831663|0.864656|0.464260|-1.112360|7.559523|3.404079|0.116029|7.763276|12.365745|-1.592058|-39.853019|-71.391069|-29.713171|38.091398|57.549792|88.321648|112.871215|112.331057|96.704936|108.552009|83.710847|37.952941|29.004545|18.272447|18.188008|0.246586|0.373985|0.293883|0.396326|46.125719|49.717582|-27.554516|-38.860983|-27.715267|-46.806397|-23.034642|-38.540904|-69.911569|-74.921593|-35.315500|-86.149274|-42.429182|-52.406772|-22.051961|-2.926974|53.883653|70.327360|64.552028|58.045046|7.581127|-10.302503|-102.118127|-76.637250|0.472576|0.743532|0.213608|0.719161|6.815855|-3.355664|-68.633857|-40.784820|-62.708179|-61.913943|-54.514864|-61.697014|-58.719149|-96.239657|-84.701717|-118.834260|-203.972238|-169.339495|-119.131625|-58.720289|-41.931468|-9.834165|-23.667894|-67.824077|-92.497913|-136.759423|-176.011894|-176.029722|-2.007970|0.492399|-0.121872|0.038480|-69.398704|-68.643076|-89.101854|-29.721151|-76.118876|-114.968996|-97.376199|-88.258899|-151.503354|-229.947578|-217.881928|-141.736440|-99.937591|-110.085183|-118.710985|-59.832568|-111.567022|-58.856308|7.234877|-26.346415|-44.886488|-101.304783|-151.994581|-143.514211|-1.245397|0.510054|0.506153|2.478853|-26.622823|-20.223099|-55.425922|-5.852319|-92.681307|-112.721606|-148.840089|-134.855354|-91.244134|2.816946|-30.409366|12.857361|113.126656|-144.664192|25.095262|29.634522|-119.724937|-139.544029|-46.161292|10.993916|-13.303101|-71.927298|-85.698410|-132.139417|-1.678810|0.455894|4.209674|5.093143|-49.217528|18.601177|-30.567840|-39.229844|-44.280621|-79.018403|-91.479732|-27.337146|-34.092971|145.160753|143.537320|249.270164|45.927436|-25.843898|-86.228005|-106.164727|-126.241137|-282.232333|-96.082084|0.885525|6.721613|-16.574586|-28.305298|-103.484670|-6.890867|5.593220|5.834683|3.221144|-23.287571|-7.534271|-35.899319|-10.736435|-89.360404|-78.543237|-100.411939|-151.359638|205.424111|166.666586|164.826684|116.559235|-83.924279|-223.577999|-168.373303|-197.192560|-208.477100|-89.269044|-117.918422|-10.559802|22.025055|29.863105|-67.445474|-117.218512|0.476241|1.916748|-5.985679|-11.329207|-23.018893|-2.074776|-25.073169|-43.917896|-127.585077|-17.650327|-124.762660|-62.632573|-161.906989|-271.191055|25.114425|159.042935|169.805410|-21.401718|-292.849414|-268.970592|-400.459795|-286.723892|-118.882931|-62.042037|-39.323218|0.835143|-19.359035|-122.317448|-30.553477|1.799139|-8.363961|-12.948544|-30.588237|-17.083952|-43.968756|-32.264609|-115.397950|-94.512972|-52.009879|-191.220481|-130.984468|-152.620568|6.233681|75.585553|220.166539|153.574826|90.000500|-55.351250|-291.661876|-409.928599|-238.666762|-164.648860|-0.110403|36.162446|-5.369687|-91.126931|-9.486289|-3.655173|-5.037258|-5.549496|-20.120814|-26.730957|-55.741601|-60.402796|-135.148827|-31.335187|-248.484026|-174.868955|-105.419093|152.520389|124.368315|162.874791|397.768801|323.862183|326.176527|-75.502704|-277.669534|-438.200217|-334.831761|-206.136256|-2.711674|-26.826969|-3.937300|-111.946539|-10.881783|12.201267|1.934718|2.078719|-7.939377|2.789996|-25.560584|30.561054|-147.930736|-159.008427|-121.459078|26.547099|50.377795|162.420951|-15.208074|259.049089|-65.694083|93.594916|103.218587|56.827578|-150.617978|-283.624173|-254.257106|-172.704034|11.334095|-8.995466|15.343476|-67.622040|-16.476753|18.334944|1.284497|19.125546|34.685484|17.490294|9.524290|6.528947|-80.484100|-68.714618|-192.587575|41.015697|95.838682|-110.133483|-38.894826|207.678605|-159.363202|-217.023859|-119.736875|-154.682136|-159.329794|-187.226398|-176.386159|-62.633383|42.889043|42.138784|28.125753|-53.810732|8.835927|22.232722|12.911495|15.020163|28.384345|20.257676|19.041339|10.567202|24.414719|-94.701201|-42.419527|-8.560901|-110.501447|-269.424512|-308.651196|-166.432010|-228.135415|-386.848017|-113.953381|-12.132889|-241.632039|-37.581420|-167.331409|-122.043175|17.150779|11.739195|26.606429|-7.238644|38.934895|19.345489|12.863152|12.003153|97.791839|7.680775|35.120735|37.473793|-100.305570|-107.303483|-105.965154|13.362688|-92.607960|-234.922905|-314.759653|-52.614156|-248.512357|-240.201734|-78.719126|-62.270890|74.207228|89.565940|23.558005|-0.398617|99.744653|6.492599|33.723725|17.329450|28.513174|19.739271|10.771029|3.118426|48.515714|9.240199|92.492284|93.696296|-117.801428|-65.322330|-153.979566|37.292364|109.619032|53.118045|-265.286569|-67.189263|30.014085|-142.675317|94.536623|13.330089|94.556778|140.555295|190.561900|186.471458|183.981884|37.402251|-20.999096|-11.397204|37.399784|3.726201|18.168373|-13.535571|87.931674|52.980746|42.391405|45.421876|-60.674009|28.602410|-111.682329|-107.343524|14.740212|-12.020494|-51.154539|-303.133250|27.386954|228.261900|138.231678|31.225831|224.168137|179.546856|96.634102|167.890972|126.796865|55.588890|-19.244895|-33.901664|25.334694|11.094176|-10.928687|3.529739|24.729689|64.867990|56.887954|34.749098|-86.250217|32.267696|-14.644561|94.784109|-45.515665|-25.767780|-8.870008|-239.379757|-53.461442|156.744807|26.577489|230.379871|324.332234|80.279075|32.492769|7.822616|46.541866|35.714058|63.795506|21.031532|28.438103|5.718082|-14.228136|14.482062|94.682631|70.108922|59.347686|15.595032|-19.445197|40.235082|62.880639|144.159659|-28.001387|-88.498951|-326.455019|-209.589100|-168.527420|-62.819281|80.928971|182.554974|307.816891|208.470160|2.561125|-47.424657|-17.636090|14.558897|37.690737|-35.329308|26.067566|5.006830|1.608554|47.891104|42.671537|11.921711|43.913944|61.170845|42.114133|72.152143|66.064110|108.648626|-116.825596|-79.607523|-55.106283|-337.682974|-43.524906|-21.157329|-2.831985|241.530726|285.466080|140.457337|86.860709|-51.806749|-16.866265|13.585619|-28.046391|-78.103631|20.486756|6.104574|9.763160|34.855881|29.157468|5.009692|-38.074805|28.349695|0.945750|142.801385|73.801280|340.544508|98.312574|25.635617|-271.533833|-54.709256|-55.584888|67.368589|-17.155585|282.718226|325.546106|168.342988|204.182035|58.132811|24.806759|-10.151537|-3.005057|-66.208704|35.193699|5.740873|9.210419|37.713861|13.817646|5.375283|13.647644|-24.362863|-47.761879|-4.191105|223.996669|469.189512|163.976553|-3.115058|-234.663366|-308.676435|-11.294105|142.869242|66.835004|60.336001|62.653429|56.517367|136.170330|58.976510|40.485611|33.942260|33.161066|-61.984697|38.731514|-0.479876|17.320077|36.201389|40.501860|8.793418|16.894057|-25.756971|-98.015048|-145.286420|149.511714|273.191230|385.438221|70.484621|-114.933136|119.150076|312.935779|69.818322|71.232184|-76.927603|-113.130600|-67.629273|-103.294649|-22.053556|37.033554|-4.121008|-42.379032|-89.545586|25.696704|0.600481|3.375648|44.246941|-55.511170|36.753562|-23.847723|1.471231|-87.033930|-108.065876|125.978671|333.512819|352.580026|205.294287|206.617675|208.362793|221.761618|212.762263|131.125958|26.673356|-173.067375|-76.781106|-120.710757|77.140356|106.010436|-40.353562|-52.769629|-138.456423|10.006659|5.801463|11.718089|49.444935|-70.610496|-49.619057|-19.461815|-50.907209|-74.745640|-185.701120|-110.809356|75.038209|172.649184|62.896922|53.589285|-114.425282|117.013805|142.134689|133.025973|-115.440087|-59.392681|-173.360781|-116.981277|-54.415273|-61.285484|-124.471127|-138.785678|-225.798850|3.235215|5.402250|-1.968351|24.158877|-77.914456|-119.253370|-61.696444|-122.551668|-241.389376|-170.277325|-200.483437|8.190151|-16.214434|58.160050|-34.016325|-52.419801|24.047541|124.305697|-118.640752|-75.364728|-140.356794|-153.630803|-220.934125|-109.080823|-112.234308|-86.046365|-70.655229|-213.256168|-1.266673|7.082143|-1.868721|22.348691|25.547740|71.544713|49.454908|40.178107|85.985134|-44.929432|-52.712214|86.004745|120.011766|94.932735|120.305914|165.515917|73.176480|-49.936092|-54.836969|-50.998672|-17.504711|-44.403753|-84.950922|30.866420|16.149111|30.170546|14.615104|-10.394853|-1.774837|0.953107|-1.426567|31.444323|38.017778|65.117481|65.161311|66.958069|46.632727|48.482260|103.068607|98.749958|102.314398|68.366541|87.208415|157.257339|46.600272|-93.419704|-162.503076|-145.251421|-50.817511|-82.175867|-11.867650|15.753602|36.643451|26.222600|2.394280|-11.420807|0.744319|-0.366639|
~
0.088945|0.001587|0.095843|13.302308|12.995409|13.438602|12.889016|15.356767|17.157597|16.426404|17.862521|5.448937|58.805245|24.931028|-0.606077|-10.594191|12.959114|3.417489|16.172359|-58.969991|-3.951156|-5.515079|-29.233136|-1.863144|-1.069325|-7.620704|0.022976|0.642958|0.197850|0.297105|13.150844|25.687479|37.341511|39.022558|40.601579|42.399391|42.194419|44.131385|44.283646|47.551471|43.657224|-0.190918|-54.391555|-11.972004|-95.287381|-75.683098|-122.321598|-107.023553|-92.288381|-75.624063|-61.871095|-49.237963|-50.428009|-56.876328|0.861754|0.747590|0.542274|0.884730|-22.457575|-36.572059|33.734796|55.139803|66.406227|12.063632|20.692681|18.568859|37.282908|33.213684|10.127317|-73.015250|-87.350749|-39.920458|-107.926932|-132.137655|-134.750595|-38.053823|-135.570290|-113.097262|-92.821449|-61.068760|-47.870378|-40.167573|0.790449|0.185609|0.035095|0.652203|-70.699534|-61.170847|38.688375|69.324242|-3.809375|-19.824769|-36.450210|-52.069349|-30.970798|20.075707|-41.627160|-45.718102|-113.871394|-109.063144|96.873192|-2.098368|25.371473|62.398918|-20.402500|-5.605192|5.587970|-38.703833|-60.036479|-48.501513|-13.172287|0.977362|2.765775|2.802550|-17.856682|38.021468|69.454464|115.570327|91.153690|38.783224|29.991635|39.343121|32.363195|-21.035987|20.398951|-54.435852|107.860651|129.009387|-6.377790|3.858720|194.393358|140.968910|297.307017|-44.143408|53.125563|85.907545|-41.557208|3.821371|-19.118976|0.288590|0.711191|3.002256|-19.621216|21.353190|63.781923|85.419603|64.418765|-20.643011|25.142015|21.598911|-90.734383|-9.909909|-40.829692|-13.252947|-117.506160|-129.804331|-237.075921|112.623853|174.741955|207.012757|195.746798|120.600688|-23.574442|-106.288537|-130.080440|-20.911914|-40.133254|0.836279|0.767706|3.571661|-41.204315|58.392737|79.500252|85.667823|85.517698|30.234913|76.385091|-27.143099|-159.748766|-73.041762|-48.369278|29.937245|83.616920|-84.212829|-108.428302|-38.400006|288.790634|396.931063|348.558742|252.008792|230.597964|173.387441|-61.625969|-6.642308|-29.240303|-42.884196|-0.540942|6.918834|-16.635774|92.807387|58.803408|53.875551|80.000309|51.103173|107.851095|-37.106393|-178.275103|-207.169320|-78.979289|-70.010541|-135.377841|-31.877153|-13.139900|74.281644|361.572265|502.377553|292.251631|158.489923|93.751399|92.419319|134.499802|19.765680|-7.916414|-30.293795|10.030116|19.203730|-37.346284|72.297603|5.835608|33.761225|54.111152|71.056342|42.074286|-91.275399|-180.921686|-316.199587|-258.553020|-161.258690|-410.282151|-90.276476|-502.685263|-160.643856|361.543208|237.345684|125.012829|-36.843678|-45.145758|118.697631|-43.612516|-53.103164|29.711534|-30.386976|9.707101|15.814933|-39.420543|46.787996|4.562839|88.041118|148.901524|45.551702|53.148850|-71.211633|-298.362030|-333.366199|-326.097931|-495.470013|-676.241394|-245.798239|-334.172411|10.220184|230.320577|227.490886|41.482414|-6.038032|-101.843157|8.873434|-83.275416|-61.610465|-13.047539|7.047080|-0.806599|4.687344|-25.149996|24.729423|47.116193|137.594496|192.894766|142.279792|99.291807|-66.689791|-286.096775|-412.238326|-390.004723|-348.309042|-685.519458|-538.111585|-464.990397|619.517705|108.154533|165.838952|-37.314304|-89.898140|72.269944|46.272664|-56.936185|30.091504|-36.737118|-64.293981|8.384979|4.404674|-75.877255|37.234207|83.737718|148.043605|202.879484|173.652213|152.289979|26.131005|-264.175308|-245.972017|-366.251898|-294.142392|-711.117166|-401.153934|-69.768339|103.466697|300.677563|86.579784|356.601946|-55.759770|195.532753|-150.656244|-83.346042|-48.250665|-24.448944|-66.859166|11.397246|-1.676650|-53.711257|34.547868|148.481427|121.110058|190.956744|214.003657|112.124939|0.965152|-175.016386|-148.754795|-139.020879|-265.650864|-392.687751|-167.818565|-206.583237|-55.602502|446.349176|420.404732|315.107269|189.641344|-105.977040|-198.555093|-121.533188|-48.357353|-71.537455|-113.192432|10.971080|17.326519|-59.199213|173.086453|90.613291|177.187095|186.453792|161.216685|140.412599|59.211025|-237.285311|-114.429363|-121.752638|-270.549768|-245.561799|-383.117284|-492.555233|-210.889257|274.983314|344.923174|678.571678|247.904363|170.571009|86.505793|29.361958|-111.197573|-77.381370|-76.335145|5.278954|53.026729|-51.679070|229.234444|169.741064|191.533311|274.558069|222.269084|126.984676|62.544818|-206.982158|-248.919708|-30.577575|-399.148815|-439.361055|-429.117383|-246.672614|-189.015000|43.340813|44.810896|423.900928|66.948979|33.520271|176.766317|79.130196|-114.881022|-61.096815|-76.109837|30.951389|73.805599|18.468141|159.760416|55.670759|96.773380|226.784721|184.615945|237.745322|10.082677|-172.418068|-403.478540|-471.210685|-142.446535|-116.422120|-370.620295|-272.498178|-134.437940|526.793167|339.015887|231.679064|202.140971|-26.820474|233.912898|279.754132|-53.012595|-57.806883|-36.013557|4.469664|164.573267|-29.721704|99.395474|6.730687|83.986831|171.306451|213.287755|92.027458|138.138045|-82.590147|-156.367568|-117.235351|-63.266486|-70.615961|-316.161923|-627.961409|-58.830925|268.133489|125.311462|335.461850|222.746876|115.125320|223.021645|171.732003|-2.500378|-34.378960|-3.883177|74.659045|78.211761|-63.710622|41.030575|115.763789|189.497768|231.207830|268.456303|119.594275|30.041802|-22.064084|-146.504328|60.196592|118.012264|-401.921787|-160.041456|-284.580388|6.196621|25.324036|320.764950|486.019937|351.853692|411.929266|165.187240|-33.989352|-25.033773|-10.069940|-27.671224|67.419485|51.105170|-100.419986|-3.035747|98.414441|180.504345|200.237863|163.418271|94.952690|-63.931239|-186.325131|-100.719994|-128.487836|-197.860866|-295.221403|-37.668173|-28.237368|-243.125273|-36.641531|249.651335|422.043693|387.663495|376.216210|130.890222|20.745358|48.002920|40.887284|-14.270085|25.959305|-1.611275|-106.021073|-47.572187|54.583270|84.237288|167.410096|89.084550|-25.448102|-130.784496|-210.402150|-171.745729|-151.369999|-310.858767|-275.248934|-191.581322|-264.773328|-249.483644|-27.836352|461.828803|316.286332|319.694080|400.448148|48.840859|117.182597|-0.748220|-43.118611|-70.324837|28.324139|9.756764|-107.732909|-22.929556|78.161827|101.676722|197.191708|69.064832|3.093829|-145.386132|-262.348607|-346.016662|-272.471044|-203.833706|-216.043211|-398.641820|-469.801835|-269.386065|-227.824259|142.805253|49.718780|1.367354|130.485799|92.465631|-37.101402|67.338218|-60.554486|-70.335896|1.660802|-15.428693|-114.861251|-22.197367|-9.735405|70.721255|157.021010|92.567320|-36.132439|-163.697850|-187.287577|-208.755578|-171.671680|-148.303945|-180.629658|-165.139345|-448.250307|-340.344945|14.408176|196.824780|-76.172419|-3.965617|37.522185|-8.997346|2.663597|4.414974|-18.207433|-0.635156|-21.270623|-27.818146|-150.603509|-7.309948|-59.617136|14.214598|89.257579|54.558366|-34.238368|-59.450978|-126.881535|-208.632239|-157.828649|-42.022829|-66.415680|-171.262636|-353.837026|-280.646197|102.344624|130.650731|310.415226|155.124658|187.532891|98.777541|98.484434|11.344538|1.992197|16.711818|3.753475|-31.059473|-168.378029|-79.930324|13.355533|-10.776255|35.208316|-8.073544|-41.815065|-53.195767|-206.276470|-138.814456|-174.020868|-313.428221|-107.836466|-138.687716|-386.666580|-193.686193|-179.893824|-36.051138|84.221339|62.867423|-28.710656|12.450769|30.894172|-145.487624|-29.149977|-26.650130|1.587468|-5.452198|-209.450911|9.413402|104.167063|63.501738|109.782576|59.685553|65.846451|-14.277055|-71.854447|-32.635456|-134.129276|67.958587|165.441254|-86.418510|-371.531537|-252.358375|-128.524185|9.077821|11.784260|42.679699|86.009555|228.544737|26.723096|-76.457776|-16.594299|-43.243944|22.831839|20.870675|-248.311473|-104.267292|-65.642950|-66.881309|-55.538459|-87.622455|-95.079033|-135.484872|-153.053785|-214.961816|-150.404675|-83.871828|-89.919854|-164.602942|-247.289493|-377.453024|-116.552551|-65.843781|66.358873|107.203408|52.640702|-37.523887|-115.572869|-272.208704|-16.367591|-13.166595|0.629206|25.342349|22.093484|25.022852|42.465228|43.959227|46.794255|57.486265|21.993295|-31.448399|32.959852|-52.189191|3.353097|126.008293|-2.214483|3.807768|-287.809631|-278.011031|-12.770097|-13.107733|226.292736|127.554301|182.904725|100.301183|-121.885276|-70.947218|-32.790032|0.348591|0.846326|-24.622649|0.864175|-4.453815|14.915777|20.599930|26.310260|4.843488|-7.146834|-71.029941|-65.208805|45.606773|47.080892|3.356870|67.377622|129.385757|9.326190|-8.559100|120.441008|248.303164|226.921852|191.106611|130.144234|18.466501|-41.698788|-51.226327|-16.441233|0.121740|
~
0.403598|0.892914|0.088802|1.812272|5.780756|15.815338|15.230259|18.388853|36.664001|24.060989|21.003402|-3.137310|-0.397832|8.871252|-69.946776|-75.202701|-81.248527|-74.149016|-56.731547|-82.939850|-43.710706|-4.032124|34.232986|38.419594|51.624360|11.346395|0.563566|0.458099|0.967951|0.131861|1.626373|1.820010|13.740502|24.121167|32.283788|22.633488|14.267953|-11.008518|-37.668626|-65.819335|-110.888274|-125.474253|-70.927782|-2.313838|58.218568|-0.353693|-43.475655|-16.615699|-58.533845|-19.092095|32.975657|31.104100|41.465614|0.750633|0.026612|0.579601|0.980208|0.590178|72.447255|124.022259|134.171689|116.809938|148.188858|109.423354|54.282748|21.523883|1.841724|100.197734|95.605119|64.103170|96.213813|276.435067|261.763778|76.699850|-56.012608|32.448886|-8.040433|28.463859|47.469628|252.174472|364.288572|180.281476|0.519946|0.718120|0.077366|0.546558|-177.945563|-135.967417|-26.368525|58.617463|-24.916179|-54.934181|-190.543072|-312.585542|-259.158058|-129.246176|-106.663695|39.817571|144.414037|89.156549|153.768510|179.053533|135.164392|95.316917|-60.368201|11.120686|-21.160006|125.562622|122.646596|154.570712|-6.445317|0.249165|0.021082|0.816557|-181.875564|-54.848682|-11.423650|69.804714|-0.002027|-120.024412|-243.024946|-188.128429|-156.040425|-227.979837|102.252656|6.469347|-38.441172|49.236388|78.152037|201.198212|267.176071|205.569123|106.700110|47.080952|-32.026073|107.138340|108.533269|169.990094|-2.573074|0.120118|0.116829|1.064516|-158.034895|-85.441871|9.958271|47.009287|-54.206744|-143.667156|-151.923920|-183.456251|-180.362733|43.770691|-94.924269|-97.314849|71.529632|26.121477|100.501271|361.664223|100.816947|216.046653|-122.601082|-94.220191|-202.252551|-41.442360|81.410527|116.153960|-29.449402|0.260878|1.374423|-5.320472|-201.822497|-84.181373|-1.836143|47.586798|-25.716230|-86.646713|-222.080133|-285.535889|-542.242887|-214.990571|-87.706557|-389.605090|-468.486743|-84.273818|-115.523961|-199.946360|240.351339|311.706134|44.712962|73.108525|8.633276|12.421215|60.671217|142.628636|-45.420587|-11.887448|-6.433721|-2.965518|-78.242500|-6.635994|5.301216|16.823843|-40.422111|16.329632|-240.051193|-306.188037|-402.666918|-397.308350|-106.608266|-306.436283|-138.910979|-54.960339|-13.437280|108.872955|206.119076|-12.319544|-139.224463|59.263665|-60.901202|-37.067877|93.114216|130.562514|-36.155937|-41.647501|1.557084|5.827153|-101.430406|-115.499168|-27.987518|-23.368185|-11.731352|62.256330|-206.822777|-255.539202|-235.500109|-19.748185|-90.895726|-41.050387|-200.289247|579.681346|28.393896|125.098870|154.377677|146.704374|-4.720336|34.057203|-91.628132|-35.826008|32.522634|118.406942|-18.680110|-41.824394|4.082304|-9.297671|-107.290509|-133.021375|-58.616130|-11.869803|-54.367950|-14.971239|-382.345828|-284.909134|194.605727|-327.249283|-266.834031|-72.318908|-350.502638|154.313529|429.884647|258.781658|123.653318|189.724093|-33.900027|80.923866|-33.186699|-113.667657|87.786932|144.067491|-38.211596|-38.135249|-0.162469|-15.925191|-153.761051|-53.626576|-25.954837|-8.873974|44.197368|38.363267|-221.618690|-270.649647|-15.893649|-167.086603|-530.942924|-333.270135|23.888442|16.282448|435.198523|156.858622|-20.255912|-167.516215|-194.776948|-78.840918|-9.706845|45.303185|122.278350|144.772178|-41.066295|-65.688615|-3.916184|-26.268388|-119.474767|-140.430046|-4.557142|192.458100|203.352295|20.951591|76.240409|249.416180|220.479505|346.241871|243.217666|114.282595|163.196532|204.121877|23.208841|-22.250967|138.029212|-34.567276|23.754727|-58.056655|-120.653682|18.710960|118.713503|189.762414|-35.836708|-70.885491|-7.306832|-44.593330|-175.422315|-89.057190|24.192113|212.552358|136.317572|272.372235|552.930092|691.061907|763.378662|863.026694|187.377003|179.656463|118.147324|165.349415|130.811786|-2.169459|58.905654|-20.924114|109.482585|142.147413|-110.343887|-7.129164|-35.526697|117.802843|5.594647|-53.638566|2.435430|-31.810391|-112.866497|4.667079|110.182927|164.089893|189.477299|305.134801|598.192937|819.917066|580.546173|368.683321|273.997409|432.453751|221.207486|516.354503|539.101835|293.556693|219.349750|83.564670|139.272619|79.521495|19.998040|-0.086118|-57.711930|96.374384|49.409262|0.875960|0.311517|20.240943|-93.761527|-42.244830|-15.078997|37.114719|102.986365|184.566485|330.360252|494.093605|331.525268|335.745173|650.525037|137.252355|153.345750|297.223699|386.378601|267.641403|25.956791|545.559221|-19.899429|-3.874542|37.947630|51.812023|66.163127|140.489766|24.963724|0.302359|9.720643|21.718869|-34.282657|-9.297298|-109.826240|-79.678369|-68.045303|61.737060|-86.861333|43.411022|68.220787|248.169782|240.924485|-42.146628|-124.791061|13.707046|83.582080|119.482808|6.247782|383.393004|-4.003037|58.001355|43.440351|149.148307|169.391825|197.766702|-2.187878|-29.350661|3.023168|37.979873|-43.423584|95.515657|8.634830|-21.750640|-100.645711|-198.285984|-256.403012|-295.216558|-175.360281|-243.865084|-65.262654|-156.478426|-189.027936|-140.726245|-46.041142|189.522110|192.349820|-140.770410|59.424253|47.375887|-40.261154|231.383704|176.991059|172.088078|29.892649|11.436070|12.219228|17.478217|-146.782041|56.618227|15.136027|4.481500|-21.437717|-228.742122|-272.463308|-502.965343|-431.522801|-416.445954|-625.946117|-570.506956|-770.580060|-392.243454|-203.814671|-125.073381|-287.980614|-182.483543|-79.908557|163.952260|191.652001|83.083984|94.952889|130.304508|3.749025|21.982610|5.137585|6.784936|-48.494740|-41.527781|23.408403|26.817764|-58.534969|-210.112225|-280.841070|-477.098421|-582.847958|-550.116570|-927.629323|-711.812262|-625.491315|-473.437655|-112.791512|-87.164634|-58.921324|-116.716487|72.523283|276.026881|88.959874|61.350718|134.260495|180.131070|66.395112|27.823429|-1.025673|-0.866811|-140.780996|-73.697456|-20.105484|17.489573|-109.150673|-149.310584|-230.886481|-456.625095|-503.686152|-621.876370|-654.063874|-535.708875|-642.727267|-352.598820|-533.159231|-488.147105|-436.578195|-45.020055|60.463295|238.583775|204.845716|56.057205|197.691948|250.450774|49.094464|12.677888|5.372416|-5.086744|-162.043901|-129.446150|-51.854656|35.515470|-40.626733|-118.760759|-202.400120|-228.965004|-383.481361|-444.391216|-443.442227|-361.738340|-487.007877|-263.273401|-785.020344|-572.403483|-416.238962|-109.092988|-47.807095|90.956917|209.739357|165.592581|110.419915|229.149675|54.658174|12.603259|-0.357686|-15.623831|-165.416807|-143.302481|-62.297371|29.016908|54.800891|-61.897027|-213.507507|-218.144748|-289.991182|-305.814965|-255.098715|-268.180032|-157.052645|-229.048368|-431.631542|-205.326848|-185.746891|-147.799565|-18.525799|83.960258|195.318925|160.654766|122.591900|185.797336|26.260673|0.955049|-0.517933|-28.338482|-100.381503|-150.895717|-70.029830|59.237547|-7.935556|-12.449028|-132.869618|-204.153174|-263.425185|-269.362015|-285.192692|-106.670999|-215.256886|-183.961297|-321.899421|-320.038208|-275.199803|-104.150133|-19.573720|198.765545|183.731478|26.533073|170.179044|241.745279|27.375711|19.668666|-21.178806|-31.391268|57.386129|-53.964584|29.976857|127.017480|53.137165|42.086065|36.525915|-25.560888|-158.431228|-100.373242|-178.649833|-230.798363|-27.158818|117.308340|-74.950998|-80.491778|-39.357796|13.252907|97.023487|184.145200|143.985554|154.014410|222.770708|273.268772|-6.578583|1.163263|-2.556031|-4.371761|57.612022|95.878054|131.562399|165.855206|123.919646|72.698048|152.547950|104.103993|-76.812617|17.788839|69.625652|-68.752550|100.364292|80.984006|62.709356|78.888272|12.771069|84.323604|34.836210|128.231157|156.475510|466.240290|423.936730|240.259653|-2.739502|-18.106004|4.023507|-9.780288|-17.534292|45.275955|56.363795|164.342675|189.793421|-7.915959|50.546896|-39.005263|-73.322802|-42.612439|-118.328830|-97.457879|123.811891|121.937794|107.227749|-17.371526|-61.777159|-74.011766|-147.706794|-72.155749|17.815782|30.495301|89.565185|-164.582738|33.797023|-5.724830|-0.602432|1.943494|-1.827792|0.722593|-3.329483|-5.050066|-8.422407|-4.180002|-22.212272|-56.473639|-75.811300|-61.427523|10.064833|-14.297501|16.884346|40.419920|-23.224603|-3.297142|-36.794147|-51.222675|-33.999278|-27.531605|-25.309376|36.935440|-6.139609|7.540452|14.412126|0.694056|-0.805449|-4.941664|-3.920802|-7.014370|-15.923897|-1.241676|-2.146117|-28.222788|-30.799616|-42.823985|-32.305647|-45.130405|-55.045706|-81.698331|18.208838|-12.894617|-0.203069|-0.282830|53.561226|66.235133|59.171934|13.368945|-13.513428|14.139436|42.812281|16.110203|6.605763|-2.272742|
~
0.278203|0.363842|0.009299|1.203769|1.185236|6.171775|9.614457|18.795811|18.741242|72.525791|72.512133|72.699365|2.504531|7.434335|-10.340060|-7.300299|-9.024829|-10.046322|-14.010156|-1.890048|2.022139|1.356222|19.211868|1.129302|0.792036|0.807683|0.867890|0.836275|0.839476|0.198498|0.605192|0.477021|8.532178|11.094990|25.927123|80.917760|79.943826|79.973401|83.469129|75.257101|57.475591|58.629963|-9.601677|-1.697830|-8.266923|-0.793112|18.901342|6.691115|9.468770|21.154268|21.113906|2.309079|1.275007|1.139891|0.862031|0.973904|0.306115|0.729921|-20.252401|-30.425790|-3.076438|23.743635|106.258090|55.349911|46.168625|-0.033329|-15.182269|29.103140|109.324819|83.591003|-29.756265|-51.889293|67.249882|-27.078611|-11.531440|3.550153|-5.019027|34.728356|6.231030|-8.070067|-65.011184|-95.722934|0.933583|0.127888|0.647307|0.795614|119.321307|-46.801654|1.351117|58.008280|108.934231|77.375380|-38.068552|-38.637064|-31.975005|-8.233322|-73.719290|-134.137431|34.531896|-153.944708|-119.408239|-84.260804|-71.727719|-65.482787|15.090385|62.759868|62.888189|83.152008|90.162448|-28.947589|-0.693337|0.489003|0.099389|0.459160|-12.236292|-128.030544|-43.264043|52.808960|41.793383|-28.082235|-141.225905|-140.050578|-73.047644|-46.886469|-157.397820|-145.313130|-125.088537|-200.877713|-219.675968|-145.083806|-153.971885|-132.817322|-106.407419|-92.710392|-65.209540|-104.367629|45.973775|10.206708|-0.730512|0.094546|0.580753|0.544832|33.948997|-32.659109|64.829629|64.310285|92.385699|-42.092531|-95.299345|-144.818780|-129.423855|-223.254321|-157.964101|-182.147895|-196.197642|-279.469976|-327.129155|-285.761529|-189.005048|-150.289211|-148.543911|-116.081273|-94.648690|-94.029190|-43.199691|-10.140577|-7.540342|0.025519|0.905693|27.400928|56.884993|-5.477024|72.171358|33.717224|-23.936262|-84.317498|-117.720860|-164.153547|-179.778032|-127.513579|-140.230730|-196.661801|-247.674536|-319.346539|-299.968740|-276.336700|-222.212827|-195.111148|-145.248504|-62.484899|-30.840509|-48.171182|-14.374342|-15.929987|-24.993003|0.567594|5.214312|2.151109|91.380880|0.443415|61.864947|2.162240|-44.930782|-82.401741|-183.830029|-266.985742|-296.980183|-143.807256|-170.732264|-160.009538|-124.261930|-355.136659|-258.814808|-173.043365|-301.559977|-240.286645|-157.240239|-76.399119|-80.727118|-109.581225|62.163270|-0.936438|-17.712147|-18.073604|11.434471|35.110866|107.920907|3.102351|9.132295|8.167554|-66.031029|-170.697657|-285.245581|-167.065441|-113.915210|-131.459387|-188.870669|-200.149068|-151.701762|-289.612734|-88.075448|-156.116902|-205.903315|-238.210884|-221.759223|-132.621517|-80.893724|-122.543810|9.520680|17.708467|-19.255762|-18.367271|15.712426|12.333944|90.068785|-18.450550|-5.694044|-61.097931|-161.191997|-223.553962|-273.090047|-346.863872|-264.478997|-307.147824|-196.153891|-145.988625|-148.837841|-407.768918|-478.635013|-247.984984|-137.293591|-250.478716|-240.798003|-174.773801|-99.249116|-104.327067|-10.145507|-57.575308|-35.223686|-17.459962|25.573058|46.890017|79.054773|-27.211917|-95.747067|-176.177810|-168.271277|-439.831215|-538.776182|-398.611939|-280.635341|-334.269492|-423.211529|-192.049488|-234.121425|-449.514847|-554.629612|-457.887635|-313.265911|-265.421086|-202.534805|-160.872638|-47.610036|-56.600074|-39.759540|-29.562718|-18.240093|-0.256438|2.975633|21.292389|58.885007|-85.446642|-186.597995|-185.086456|-169.257146|-281.702258|-347.710153|-55.134581|-308.975764|-278.785082|-468.119186|-468.055944|-365.415635|-225.479918|-366.706630|-277.186412|-461.658796|-181.327342|-81.397119|-181.303618|-30.205050|-68.133560|-29.555743|-16.781576|-12.012334|-0.099916|-2.001228|17.458995|29.890796|-147.434615|-238.434786|-300.221274|-150.931444|-493.985359|-236.725920|103.163208|-143.551735|-390.763047|-550.194506|-182.776807|-309.213387|-31.851786|-111.379896|23.409688|-524.027191|-204.897323|-91.451108|-82.210475|-117.646722|-97.993887|-3.469387|-7.057946|-12.793967|17.216875|-7.828765|-8.152435|27.222933|-94.983080|-175.987912|-239.318554|-89.803173|124.507426|33.755493|-76.747901|-218.126484|-197.721009|-303.802526|-166.939411|-280.506891|-158.932907|-100.111386|-68.769198|-415.545456|-213.136869|-198.487447|-153.047361|-148.884585|-61.822359|-88.249709|68.832073|36.944872|-8.783095|-10.752250|19.259880|88.771539|-60.688146|-43.359186|-81.500310|96.898278|187.334284|-152.250886|-5.820398|-225.258287|-629.884086|-458.166214|-288.820258|-357.946267|-146.686164|-431.072997|-195.358800|-199.763098|-176.986008|-2.663171|-137.051529|-28.538033|-114.638600|-35.598266|60.943091|13.148726|-8.825511|-10.493862|17.537015|28.467038|-12.588112|111.076873|139.639467|178.546481|104.334352|190.524721|77.533810|234.159186|-311.876693|-276.997039|-183.958720|-234.164747|-185.470144|-443.098316|-299.403771|-134.651547|-248.286461|-93.389312|-96.519769|53.385636|-40.596104|96.968088|49.881939|16.138707|-5.931966|42.300453|25.543008|91.305462|16.489131|57.853563|264.332434|221.318182|305.611136|423.326132|273.733447|375.729941|-468.741949|15.491312|61.145049|207.054647|27.882859|135.777200|101.153556|86.925955|-197.185311|69.777930|-113.786978|71.401077|101.056229|132.410029|104.154667|1.165071|-14.437244|30.190086|39.564845|8.970138|36.863605|82.140923|309.113853|298.583134|455.982507|545.668441|337.362876|184.028536|96.413753|101.125857|70.411296|118.919161|148.503163|477.895918|316.088642|240.944080|26.642185|99.730749|207.899714|251.984968|146.586844|118.130559|138.546706|19.692835|-19.146614|34.034432|49.221525|53.525565|35.019905|222.341581|232.802819|336.706080|456.605867|467.643778|396.728240|293.818187|362.001465|256.092608|121.404608|195.627214|508.451435|483.139482|378.958162|257.446766|122.956298|256.014553|292.130422|268.617976|151.685891|74.126461|129.501264|18.574899|-35.533046|24.492083|66.900824|74.506011|70.740602|132.089730|201.322880|110.278394|215.999334|608.110360|138.580512|359.185901|254.736837|116.221834|103.157278|83.155178|125.183662|122.760365|153.968099|270.203013|154.363576|378.836827|332.731173|311.925909|123.230644|-18.646990|151.676748|39.367468|-8.402471|-3.327150|75.846540|99.004117|45.146046|213.683024|117.780954|27.220169|289.769116|502.318339|283.802305|315.721156|53.351536|241.720421|211.955993|-12.362588|207.402415|160.724922|143.923606|89.170559|175.973075|68.183625|155.756974|191.352656|83.546426|-1.566167|112.490796|48.294909|-8.451555|-24.400297|103.541541|44.286566|35.158464|49.594650|-8.898323|-71.178204|166.837338|174.695032|352.377780|-16.302434|-176.701358|-74.187931|32.142382|-30.162330|308.622229|227.512066|141.622534|-107.343696|116.822825|79.858755|-18.310079|127.203343|184.179998|30.494723|73.004948|30.194365|-4.145089|32.219095|58.570382|87.313674|3.932211|40.130501|-84.831283|-251.989601|-55.552801|-101.304204|223.007619|4.991973|-13.870516|-21.182893|-193.505988|-148.196563|156.011687|161.098385|239.868383|92.363608|73.284970|53.684932|37.165142|61.322762|159.798894|74.666735|123.149812|19.905489|12.427344|0.200839|41.439309|49.250354|-14.838094|72.788744|86.984929|-184.334462|-278.708604|-271.293175|-127.324759|-352.905748|-62.437751|-115.428077|-124.897477|-228.665664|-81.091376|-252.784522|-114.851297|89.140331|144.046013|209.354577|97.740943|198.718425|140.147405|20.973237|134.349494|24.960950|46.907603|26.836659|14.633295|-42.337521|-59.076503|15.736980|136.818436|47.137612|-192.679254|-284.836436|-127.193082|-332.303434|-379.012480|-374.025949|-118.938004|-130.940476|-8.397633|123.775875|61.045169|150.649809|163.729488|202.556425|226.893337|100.105690|53.234329|32.959365|112.885432|59.858580|35.092313|-40.327179|21.148288|-94.318489|-142.325207|19.083359|-10.535308|-148.380419|-169.114458|-386.261124|-275.669025|-242.081012|-6.750631|-113.063339|-225.261212|-234.231230|-74.484900|-27.806751|135.482166|66.966278|-28.263922|129.811186|32.641813|-59.404770|-75.063192|-81.134503|17.682426|31.018785|12.641126|-34.719131|9.905839|30.897292|21.696625|29.602750|-3.878236|24.721399|-190.702158|-322.428594|-312.476256|48.069278|-4.328305|-111.961605|-55.121315|-119.713474|-24.587464|-88.442920|110.993358|7.854269|75.882863|117.510975|99.056253|23.756795|-42.714250|20.572792|30.675797|19.256124|0.234760|-35.169953|15.729258|27.894244|16.596731|19.542544|-26.394440|33.890731|117.588956|55.145040|80.312599|220.783414|238.596173|131.836767|155.360237|-50.282436|-138.103236|-158.660221|19.246802|2.370878|21.854466|134.133988|78.586731|41.947840|-19.739490|9.462429|20.921477|22.037200|6.059704|
~
0.184188|0.764236|0.551357|-2.221551|-6.756942|-17.686584|-16.992766|-0.098284|-1.749112|-29.776732|-46.920702|-82.892702|-80.738121|-51.916712|-51.590253|-29.422314|-2.030808|-0.067747|-2.035785|7.220762|-4.365615|-3.360006|-5.939019|-4.756341|9.441090|9.309072|0.594068|0.571217|0.927089|0.064873|-2.054765|-2.959968|-9.410425|-13.822858|-0.457500|-26.480572|-40.448238|-62.165643|-91.568980|-82.313015|-87.352064|-39.381499|-31.238795|3.712452|-25.964559|-35.999374|-44.206418|-22.547709|-26.108873|-32.110047|-59.876915|-66.917583|-8.012749|-8.321886|0.392072|0.973746|0.346446|0.986139|-112.172682|35.902338|-82.265102|-67.360704|-68.546796|-112.530476|-161.322456|-127.405208|-108.396908|-176.697295|-141.669844|10.580071|36.322583|-6.238123|-29.976160|-147.088481|-134.886418|-143.260036|-118.999806|-145.869245|-174.269224|-55.855530|-65.582053|-13.390131|0.051834|0.184448|0.304233|0.443905|35.777933|30.566326|-42.091224|-42.761698|-75.129757|-44.586335|-107.694170|-183.277596|-205.380355|-141.383648|34.077352|81.978864|133.185162|69.276088|10.503263|32.854382|14.455019|12.296647|-48.528286|-19.826176|-122.506091|-42.991002|-41.726370|4.547729|-1.459531|0.610033|5.611957|5.502919|115.587003|84.807387|-38.257191|-80.870788|-100.401708|-10.104270|-124.017070|-206.695530|-244.190723|-178.417885|-0.399808|-18.938224|0.242976|-15.881073|-101.151303|-98.466831|-12.920338|-21.820335|-42.724418|-49.717909|-55.184831|-3.803140|-34.614699|51.463351|-2.013256|0.480375|0.622174|4.666601|81.952838|106.688963|-73.353118|-59.613426|-130.010434|8.086153|-69.840157|-167.549310|-155.137398|-0.689835|68.745612|191.639241|324.056493|263.542582|-1.481648|-87.711088|10.371610|-148.426296|-118.832357|-78.859750|-66.388410|-41.445803|-7.208755|7.129940|-7.114503|0.440850|-0.719450|-7.796012|24.427299|114.274379|-59.797184|-67.899400|-33.484340|-2.750457|-160.796365|-260.331331|-248.248162|35.623333|-38.611424|170.770688|9.145963|230.116474|105.835262|55.570504|127.745620|-59.476985|-64.831131|-51.887393|-24.789388|-6.460960|-9.414414|33.439234|-14.867184|5.469570|-5.598267|-5.885326|90.290757|83.321841|33.725910|54.429398|12.997764|-23.360179|-221.339369|-28.322495|-267.329356|-217.999722|84.082019|114.233856|17.638864|-47.427829|172.139764|276.852049|149.075056|-68.473052|-154.806356|-75.219193|-53.267667|-45.594272|-82.948760|53.491083|-13.251496|-13.217711|-13.004026|-27.118127|24.696852|98.753478|26.878318|53.427302|78.693018|163.742687|58.275563|-92.099601|-208.475095|-79.003465|-121.013494|126.184883|138.727775|74.196140|205.363748|312.657177|221.504188|6.835157|-129.633964|-93.602664|-137.425873|-50.280553|-69.244191|-0.580657|-3.412196|-13.045138|-23.031304|-14.448117|27.402226|87.487215|63.181585|97.819358|-54.035502|-35.877143|78.033708|163.320892|-3.186435|-173.400393|-274.993440|89.653600|24.528699|-45.600338|161.099934|7.372621|-61.143962|13.219021|-144.221837|-124.643477|-124.505676|-124.718991|-55.764325|40.597602|-21.392620|-19.400420|-26.556240|-16.168219|-22.489496|126.579714|-10.338025|49.449027|-105.039847|-112.513402|51.356215|60.890184|106.414901|-125.677102|-117.857030|244.875161|281.404318|-64.468418|56.563513|-118.131435|-53.459794|-273.312594|-224.592854|-161.589697|-90.382832|-82.055233|-78.214882|40.352764|-14.360794|-39.756634|1.516618|-7.376422|162.596824|164.231237|50.580836|-45.180309|-181.205467|-16.422859|109.136743|2.055705|-129.186469|69.444067|320.671867|355.163101|379.801635|244.608770|-228.841825|-199.991445|-194.982770|-338.354510|-188.518544|-75.868686|-149.888438|-84.008535|-83.988101|113.289484|-13.883022|-32.609816|-8.728090|-15.477323|141.426722|183.299012|-34.283860|14.375605|16.095086|-28.219476|72.050248|-6.774175|193.410689|336.562934|615.106024|337.746588|332.979699|94.125767|-3.346032|-147.873247|-188.806876|-348.504756|-87.700927|-89.115898|-118.780790|-99.949183|-87.487997|-19.891076|-15.726115|-25.020242|3.206908|0.809606|137.162762|73.459086|47.957481|-79.587246|51.083366|55.817224|166.768148|217.444414|177.964434|329.533592|463.187711|262.844737|168.293580|-82.839903|-57.986596|-68.427096|-72.666441|-349.904962|-41.503969|-180.179136|-144.390050|-41.118855|-52.323053|33.497536|-3.592436|-29.179928|7.390668|-2.765748|170.821676|18.662361|-49.444470|-50.463403|-0.208112|153.120063|421.530530|177.105984|477.036401|451.164145|431.223050|191.641933|7.982712|-210.961358|-165.250096|67.611255|97.009556|-19.309919|-40.547973|-105.383431|-118.650076|-39.651044|-8.742697|53.381466|-6.210445|-28.697564|2.391860|5.443359|176.833357|23.973021|-81.897477|39.033576|-20.731382|258.727023|460.539529|409.171861|349.100468|106.134219|23.868566|-351.943386|-508.753279|-348.556629|-221.799812|199.939536|-91.765514|-40.220837|-15.236785|-49.962037|-103.684919|-26.946310|-60.327021|55.307249|-1.306115|-11.005021|-14.949647|-28.757638|94.345524|71.488935|33.538033|77.277949|77.406186|197.587589|385.858522|264.327361|396.640604|104.156043|-399.232087|-209.853388|-552.338738|-161.607982|-183.192991|144.125559|75.961566|32.666147|-111.825124|-136.206047|-128.485104|-36.110581|-68.608267|-4.231225|15.122872|4.092435|-14.453779|-31.420115|81.326915|65.670055|7.726501|39.350559|36.927123|128.658659|244.124435|309.855060|216.873557|94.630283|-230.470585|-442.417520|-352.887891|-181.343219|113.039179|237.052818|82.285210|-22.858937|-56.365427|-67.230848|-100.851307|-74.525961|9.015925|-37.655828|6.140882|2.791179|-36.848990|-20.156057|161.083803|60.384103|28.482745|111.584399|217.419353|201.182473|331.301791|261.477628|9.345308|-21.125665|-186.465099|-141.554579|-66.892896|-159.050481|52.803929|237.127719|300.886053|25.141872|69.365784|4.776672|-11.020752|9.612258|17.031619|-12.425016|27.236010|3.046303|-0.854580|-21.430130|188.615722|73.738388|27.242431|93.708168|138.772405|230.448077|265.866756|-52.724805|-239.111794|-318.223122|-183.222042|-203.807984|-216.421761|139.163887|-35.663140|-96.598123|93.469014|49.400260|-49.153028|54.147388|51.238488|11.965347|-8.129459|15.569637|21.887976|5.935843|-12.964550|-31.104575|73.227436|56.791383|3.501445|67.585817|144.985953|160.745100|61.370237|-68.280102|-262.501778|-275.031586|-169.097105|-170.797384|-286.767796|-134.692346|-41.012649|141.838332|91.567967|40.429743|-71.962931|-39.400471|-15.358100|-15.996850|-23.800732|-2.573613|15.644501|5.832923|5.896349|-26.355851|96.958986|29.735137|-25.057925|62.661001|42.257078|145.327297|-165.833639|-179.986294|-278.584509|-305.801295|-134.879143|39.485505|53.877293|-79.873193|-123.461641|-57.514467|36.079886|-23.093014|-41.085096|-70.289407|-14.148513|7.334428|22.539354|4.783389|28.708449|-0.039157|-7.258529|-7.697728|261.147957|40.075885|60.399246|42.266314|76.622331|71.585656|-57.831632|-239.679956|-369.858523|-431.633766|-41.754408|17.034316|-50.254351|-229.870421|-190.538703|-68.225801|-50.663844|-64.003541|-120.125171|-2.340540|5.832736|12.715230|23.675347|-51.701230|22.567431|10.810286|0.021802|-8.851022|137.012941|39.285134|-17.306414|10.859221|89.812427|-4.145649|-34.738854|-16.530835|-221.480418|-190.658504|-60.870674|-157.227222|-91.415413|-189.590312|-215.560576|-49.264331|-51.609339|12.399515|4.827849|87.200124|98.290599|87.158844|113.948252|67.570410|19.526942|10.824398|-2.244070|31.414308|278.543334|225.290647|221.857800|228.860460|160.929488|103.857567|57.971147|59.304625|-103.746797|-34.119708|4.519480|-57.818941|-126.363523|-136.011728|-48.051530|50.367764|40.570433|35.664152|95.120838|132.622704|124.275915|198.294058|130.089111|179.215087|12.224522|0.468163|17.785185|11.844491|96.222757|76.222625|216.980108|103.001545|92.803499|-19.245764|-53.390205|-27.407410|-105.760838|-68.647917|-94.637730|-136.972006|-79.660367|-105.766627|13.588614|28.601023|65.809691|96.479546|135.130480|155.662963|196.918162|205.286825|218.166063|7.145378|26.426825|2.384061|17.839349|-9.493879|-40.042763|-19.236553|-33.506185|-30.055634|-10.684827|-12.963128|-89.743935|-158.773273|-132.562794|-111.034016|-49.418395|-102.277207|-188.099991|-158.337509|-68.955591|-38.344662|-43.905516|-23.164423|-4.165169|9.257348|7.901707|23.674537|36.991325|20.376517|16.564421|0.941727|17.171345|12.113058|-24.359029|-22.558369|-3.181207|9.313376|3.066760|-48.656667|-135.130962|-208.618827|-199.397222|-128.707325|-88.735873|-71.647497|-120.828543|-106.833324|-81.293380|-68.583027|-32.272474|-18.590562|-15.337538|-3.796426|-4.080842|10.622544|24.202036|19.556431|13.841236|-0.017438|
~
0.233681|0.848916|0.236806|-5.763668|-3.180404|32.626337|28.399738|50.563299|53.332745|91.227412|89.438507|53.874829|15.073174|50.308060|25.047185|28.014722|-8.070722|-7.818229|-10.305722|-3.605672|-2.559884|-2.705446|-0.894584|0.400009|0.613959|0.985112|0.063552|0.009220|0.298819|0.260871|-5.700431|-9.758713|-14.542649|21.120679|44.844223|83.638525|111.813943|113.308498|34.976968|1.379427|-23.683632|91.840045|24.966157|26.369044|0.081946|-5.330792|-6.347449|-9.225208|-7.550350|-1.930253|0.765396|2.516130|1.455642|1.361171|0.439111|0.442789|0.848942|0.502664|10.177636|-61.491357|-11.124935|95.091464|207.244394|216.487367|160.546166|48.446579|75.795643|39.266937|13.404573|66.412300|-36.455715|-66.458114|-1.767277|-74.890301|-61.948014|-32.923406|-26.079916|-17.621551|-33.241563|-47.483513|-39.134260|-90.935346|0.340425|0.102693|0.547309|0.779536|-64.862055|-123.568912|-87.039107|31.682201|88.741738|203.794661|12.546273|31.993134|-28.178210|37.713728|-2.493894|20.109409|-14.282597|-103.126670|-131.086734|-78.762422|-119.117499|-117.008635|-114.077523|-95.347717|-72.102890|-1.697134|-22.768427|-123.495137|-1.696599|0.345347|-0.868695|-0.878012|-52.942374|-108.104906|-96.947455|105.610825|192.458772|162.918204|-3.095456|-72.548639|-129.335385|-8.602144|-77.617212|-62.395361|-72.553293|-140.919667|-205.222171|-126.371592|-111.090157|-111.385344|-106.104446|-96.281402|-71.598079|-86.983997|-25.908584|-118.029585|-2.082501|0.708903|0.525900|9.953150|-29.947695|-38.831879|9.843993|182.003620|286.372581|142.322677|52.336501|-36.999040|-64.893131|-131.708207|-82.488984|-73.060901|-116.771652|-250.711313|-224.781435|-185.235623|-113.175443|-50.341316|-83.636458|-76.763666|0.645199|-81.411860|16.527102|-125.340916|-2.398928|0.406819|10.836642|20.827529|-20.885087|-70.450390|102.861748|157.503524|251.662254|211.114728|63.832167|-119.457281|-81.223456|-110.718455|-82.547296|-248.480420|-216.896862|-348.114852|-303.509330|-192.089420|-149.372103|-94.863261|-89.120970|-31.635081|19.684174|7.473089|47.014583|-84.785121|-5.677002|-3.810462|11.023331|0.239842|-20.703949|-52.117237|104.964892|125.820861|320.602404|276.621627|48.747735|-16.335758|-220.353736|-98.679689|-185.305757|-103.394515|-200.284846|-489.695639|-430.996389|-236.818180|-204.331713|-175.883664|-141.111355|-94.394872|-9.998880|-39.599149|-22.709071|-95.376100|-3.521370|-4.073122|-1.492196|-6.457796|-4.238586|-61.956512|45.655875|206.532579|412.539340|311.232472|249.846109|277.932844|101.813854|144.083055|-4.605869|-95.788970|-35.809565|-401.210734|-358.335196|-240.132757|-128.451898|-125.028756|-196.252408|-137.701348|-24.779155|-46.764871|-4.430336|-40.002024|-0.967423|-3.560330|-8.628543|-7.551002|-9.710371|-27.090785|115.168399|211.683151|259.998747|330.641118|260.972378|-82.994844|106.081875|-10.418559|-162.633636|-54.983519|-98.975381|-318.210806|-420.020844|-222.434397|-136.759874|-319.871036|-307.726756|-198.332743|-21.973473|-21.799070|-16.757044|-86.884054|2.302146|-0.518470|-0.683682|-10.867748|-12.629334|-44.245984|44.523690|61.486696|170.941286|-4.096646|-246.673273|-192.158161|-261.537073|-207.109329|-457.482688|-426.788854|-472.782798|-403.735669|-320.318725|-322.636080|-187.954089|-276.408110|-306.723927|-240.695803|-76.245112|-21.050882|-17.610007|-76.358640|-5.735362|-9.150845|-1.521798|18.868276|-38.234033|-68.120618|-59.790186|20.319467|99.670575|117.955158|-235.560463|-118.412510|-223.751963|-77.004202|277.232210|-14.570626|-305.607342|-278.106225|-226.624274|-128.115209|-354.479555|-75.485288|-134.598047|-242.198412|-89.802242|-49.624162|-2.320928|-56.006226|-3.052570|-3.871455|4.700002|20.251724|-53.762704|-89.771635|-49.077377|-66.723564|13.232094|49.104272|-211.756027|-247.369943|113.999978|169.308871|201.330433|60.953695|-71.373037|-232.321013|-67.093898|111.860646|-242.702752|-89.382716|-99.407520|-160.709899|-96.559751|-53.123020|-44.765006|-93.470335|-12.063056|-8.971649|0.434454|-5.030764|-43.597042|-115.805542|-109.796169|-138.929686|-43.517133|47.652102|-141.493429|-251.921801|-31.366370|270.959657|419.353434|81.099666|-89.336505|-184.689951|29.304267|139.527924|-349.489975|-222.879246|-180.597364|-236.982661|-286.144189|-103.892832|-68.050173|-58.872430|13.838903|-13.714720|-13.263605|-0.790140|-49.836260|-96.578973|-80.850465|-69.000298|7.078985|-78.968995|-218.018771|-150.402930|-93.572404|154.201070|297.311873|-68.645767|-30.617326|-471.261493|-343.939444|-24.614516|-195.106179|-147.018834|-29.803214|-206.067114|-129.715923|-69.102372|-7.040640|-68.418465|-5.457095|-13.426726|-11.134268|-17.818949|-53.360053|-16.991736|25.858065|98.550889|139.271823|166.737951|-4.889533|-211.530119|-376.335625|11.698536|-106.413717|-98.892966|-84.462366|-253.470704|-289.654006|-358.931111|-296.174103|-17.519290|40.957483|-130.025548|-86.518971|-69.519637|-24.632241|-79.770365|-5.972086|-11.745846|28.683133|10.425325|6.999204|45.980753|-10.049364|89.530623|-34.931546|228.125787|256.799682|117.194614|91.046118|-339.055609|7.632389|19.087917|257.354045|-170.675978|-137.366779|6.207144|-83.653259|-66.649951|131.004970|-219.526252|-66.163866|22.564703|-13.087261|-53.670750|-11.069011|3.806027|-2.717372|34.697288|-56.163477|25.045447|35.645733|153.157259|35.955078|-64.059928|217.758166|227.146405|86.056094|375.852574|272.034012|313.225372|229.360475|146.340554|3.205921|261.471397|-46.446023|22.606471|-35.023785|-112.799578|-175.909289|-13.654739|59.653898|-22.416755|-13.338963|2.094450|20.255175|39.179701|-57.109218|-4.686573|131.774592|162.705948|82.529888|98.199779|233.559229|150.677867|115.974985|397.570521|537.582070|399.960762|389.351428|-34.266858|259.279810|143.086064|144.587355|163.592196|-45.896980|-46.914239|-84.592420|55.119230|64.259660|17.780431|24.738530|0.886202|14.920686|55.056155|-37.979639|-9.963536|89.537633|137.814003|-115.181391|-106.710214|-50.038241|-105.478089|73.306807|237.108360|326.291877|285.068517|482.706879|-60.613875|-8.769133|344.465132|-4.171548|143.721139|46.462448|-63.688838|-42.210844|65.561248|25.958218|4.686131|24.473301|-2.505096|-0.836270|47.050698|-16.603194|42.642903|71.162141|-2.384071|-47.745258|-189.867820|-59.018191|-321.442373|42.692400|48.262306|176.191678|217.347757|412.742917|337.088001|16.079441|260.835961|173.147038|124.695608|168.400127|-87.038419|28.125140|52.801172|10.007938|-29.803792|39.121890|-2.291259|-8.461972|56.435913|-21.800638|18.497674|44.366156|97.371653|-170.989702|-177.868381|-238.135694|-379.138296|-327.885982|-214.831783|-136.455459|-5.203981|353.082752|-96.369686|111.520262|124.635575|-3.193264|253.010402|155.009927|-16.809263|73.033808|-9.344469|18.827197|-54.241053|41.270577|0.117391|8.577144|16.619302|-14.520331|-25.614455|-67.789217|30.035851|-109.098447|78.977736|-233.866061|-377.053391|-323.254146|-168.398965|-224.669167|2.419880|-291.590119|-193.120481|-136.536049|-21.456969|123.095484|110.111411|295.847176|120.225345|9.466991|-35.557887|65.848601|-6.949869|43.500083|0.397113|-1.427656|5.192574|-73.637946|-105.351752|-31.237053|31.747814|8.358832|81.279306|-43.445371|-227.423735|-148.615107|-240.714993|-185.670826|-324.346158|-149.290017|-12.665993|63.321471|184.508613|315.335068|258.816780|313.841274|154.003301|20.982948|11.079910|33.295776|-15.170798|26.333214|4.062902|3.317464|-24.491573|-146.376439|-155.874078|-115.417771|-95.366417|-163.584377|-94.671670|-209.118739|-145.502381|-230.403802|-422.786759|-141.150491|-78.119435|-38.851869|51.289679|186.758572|169.845398|278.250327|104.970612|206.473064|76.183778|-13.515001|30.343940|-29.482507|-45.198275|4.064140|4.143518|-36.569946|0.054753|-110.563544|-154.880873|-84.251017|-127.759814|-240.068177|-285.874684|-291.922359|-215.671383|-159.100815|111.264585|-63.201415|37.667845|129.020332|143.083322|39.379279|144.237073|262.394743|149.143519|254.586896|65.035009|-28.180204|-22.840833|-45.264802|-60.425301|13.484357|6.546633|-34.198567|9.807225|31.895997|50.998594|-0.162117|-134.062637|-153.938250|-260.769673|-222.224735|9.865470|171.965266|105.070836|142.306715|138.402243|56.552719|-106.585482|19.420093|210.364645|288.991251|246.722221|320.079749|85.065746|-69.028452|26.143151|18.541942|31.787667|13.344711|0.933441|-33.987901|-10.515795|55.509282|23.217453|-6.659882|-48.895281|-142.566476|-136.576683|-60.897092|45.855900|194.575752|152.980024|-7.623220|-21.364372|31.083367|-93.533293|-17.578838|127.505780|236.594050|319.671962|237.669333|79.404759|-44.828955|28.866807|49.956032|41.029227|0.766185|-1.390151|
~
0.497230|0.647020|0.904193|1.402772|1.461253|4.430717|3.778177|-2.691167|-3.321144|24.624370|20.799801|20.010837|-11.570142|-6.467424|-11.352901|-7.731037|-9.943725|-6.095028|-2.353165|3.701725|1.789423|1.915645|-0.937645|0.631896|1.194489|0.597187|0.805902|0.311769|0.213014|0.119054|0.795126|1.117989|-1.659639|-7.622377|-14.232187|18.799564|18.835345|12.394147|25.826190|20.286834|9.891389|12.419508|-1.413632|2.045990|-6.989914|7.316056|14.994090|0.361583|-2.071580|3.592949|2.280719|3.497009|1.201858|0.739042|0.379628|0.421451|0.621888|0.185530|-64.239325|-117.953736|-117.099807|-110.330109|-53.191143|-82.774383|-73.482562|-106.202567|-108.630135|-84.657766|-45.124925|-59.388062|-135.738653|-121.085578|-62.435748|-81.500884|-64.562742|-53.266894|-63.937240|-41.732139|-35.105444|-79.524475|-44.466572|-66.239367|0.676715|0.239488|0.361214|0.056343|27.003280|-55.343976|-60.113074|-34.974607|-19.976302|-10.698412|-61.699534|-46.503380|-23.891767|-19.291627|-40.146278|-73.198839|-58.110883|-108.316698|-69.577657|-15.936185|-32.618758|-55.480761|-61.698618|-53.647773|-56.249736|-62.417583|-105.364917|-107.344401|-0.166267|0.458627|-0.142307|0.612491|50.032858|-47.010583|-53.785622|12.403240|31.840513|1.344442|-69.541948|-84.486883|-74.130534|-68.980157|-64.159850|-36.867474|-23.293530|-49.617688|-95.695478|-20.561904|-44.686128|-33.838490|-18.939693|-15.002076|-15.030712|-15.181687|-66.563040|-73.193560|0.174916|0.929806|0.937537|5.479290|41.376283|-25.976548|-36.291349|-15.969537|6.123323|-61.536557|-101.322617|-111.830538|-92.988707|-131.569468|15.335075|-8.310790|-6.895773|-79.442920|-102.512049|-83.737683|-86.189281|-60.879692|-72.970520|-58.225060|-41.111750|-44.899176|-62.737940|-87.873164|-0.962957|0.113580|5.688728|15.062575|25.151249|-6.777201|1.194565|-38.098041|-50.839086|-107.710760|-140.179894|-167.321888|-139.472127|-77.534495|-22.276093|-39.789503|-11.251106|-38.371721|-48.862067|-41.318536|-30.244155|-63.007418|-50.297194|-40.024159|-18.761078|-2.990517|-27.886193|-75.405434|-2.257061|0.032518|6.207948|2.322988|50.952220|2.496206|-2.611483|-18.593949|-68.856770|-53.890883|-160.593850|-170.330785|-138.746315|-158.389758|-70.078528|-96.131317|-38.024286|-135.885171|-34.141193|81.502610|-62.226272|-82.580665|-114.740653|-53.043639|-45.327805|-23.987028|-49.364762|-70.476604|-0.508359|-1.401844|5.129144|10.374837|49.270616|-24.303869|-37.888897|-52.013693|-75.689592|-99.789156|-144.737364|-130.905052|-123.355788|-99.752435|-243.005390|-74.227577|-22.317102|-60.756827|1.403215|-38.177619|-75.951686|-69.091190|-127.346228|-64.713772|-50.411521|-39.857554|-52.581834|-76.810183|1.661408|-0.872464|0.702952|-6.518464|32.498046|-49.166663|-82.378646|-58.594206|-138.962943|-166.434714|-229.440713|-175.206275|-41.517183|-131.811034|-47.802188|-88.756126|-5.709267|-178.819173|-27.984379|8.320200|-38.292583|-142.151382|-86.708207|-118.292741|-61.623927|-54.666476|-56.006638|-87.213300|7.297028|-0.591266|7.991414|-2.196156|30.400832|-44.562427|-107.653011|-121.578969|-164.816628|-240.493451|-377.993331|-109.894866|13.107141|-30.420158|40.235619|124.263334|65.401560|-156.748642|-99.016480|-130.827696|-36.180461|-153.430373|-126.904077|-155.563656|-72.713480|-50.899153|-66.489704|-77.803352|8.023844|-0.755286|2.185867|-5.028600|11.439743|-84.168661|-124.513710|-117.113518|-159.557284|-208.610177|-259.908970|83.105163|11.961546|25.839773|-178.356043|-183.058548|-183.618653|-67.888299|-103.548203|5.355102|-167.627199|-51.626039|-128.954029|-190.676045|-91.317555|-63.808121|-73.042262|-58.788819|7.513096|4.104842|2.574612|-20.616082|-9.389125|-86.184897|-141.112113|-91.277291|-135.750596|-257.924941|-128.546332|12.186083|167.691976|38.538620|-124.754180|-164.637556|-161.846594|-117.440770|-13.749973|21.992688|-217.876809|-147.544831|-100.284750|-127.115879|-90.049710|-57.623867|-69.106125|-73.384639|4.682522|-1.119996|1.355389|-36.723664|-3.472676|-49.823691|-80.958927|-79.295993|-113.379340|18.309755|-0.527138|-39.031832|33.281699|-39.375288|-249.690803|-115.100825|-222.168173|-278.076904|-132.017123|-228.815119|-338.893510|-186.521601|-91.826219|-173.769356|-92.358938|-54.938619|-57.475677|-37.802746|12.983565|-0.463128|-12.711571|-2.923672|62.619942|-25.012885|10.208692|-11.926438|9.651675|-19.128505|-31.557819|65.733161|-59.944707|-103.543086|-296.824177|-163.078131|-217.047798|-150.353559|-237.454520|-242.277018|-217.561951|-134.207213|-59.299006|-113.576353|-68.440379|-74.073658|-16.191728|-46.324534|13.885078|-0.770435|-17.409459|10.033311|38.154237|-15.754076|31.603776|78.701627|55.817919|71.537307|92.284989|94.413640|179.365992|7.054395|-184.569640|-93.673629|-246.105552|-113.979084|-162.692557|-270.160218|-193.150850|-80.104204|-9.406620|-43.912304|4.001359|-28.912289|-46.054259|-40.277131|14.694343|2.406912|26.333968|24.950611|77.930780|12.096354|22.464341|89.083656|82.223808|144.631032|234.296902|174.009116|349.804701|-49.232516|33.830936|-130.083539|-81.703903|-58.714286|-50.441969|-21.469788|-137.853823|-64.433355|-3.329011|-45.436566|3.160044|9.380694|-62.408339|-58.288961|13.716220|3.671395|12.285717|36.255527|33.563598|39.034926|49.498839|164.611512|159.737105|180.943018|266.498916|259.909887|243.330863|241.946403|-27.550772|-41.498513|-94.604998|-45.253314|132.659674|96.691578|96.628517|-28.480123|-54.576337|17.581827|50.168629|6.506645|-29.275776|-39.463464|14.775726|0.070069|6.823554|36.026526|48.177361|79.931699|128.444951|186.171136|216.422721|195.052470|294.398242|336.300695|403.966544|418.846732|25.818768|47.793479|-18.698795|98.580184|223.284344|108.277784|229.626564|112.659188|-28.191984|40.203602|104.634561|24.215925|-15.527215|-45.379038|9.878008|-0.143881|8.477700|53.733559|74.291327|78.293375|139.260519|156.787384|29.926364|32.668492|136.040055|98.914382|258.223540|375.758806|210.875418|190.002489|90.209479|67.434659|-47.702800|92.429861|139.663043|160.920406|76.083137|64.615564|133.650445|43.407758|-24.182264|-65.396574|0.582684|-3.947030|-6.264187|67.565447|96.793453|92.834660|180.378189|144.499664|-60.928784|48.359957|67.478771|201.775205|361.099379|49.641345|6.256542|100.128727|-35.253466|123.870363|46.597141|107.669149|122.028560|177.829153|79.759393|28.305165|89.976835|27.781728|-27.775642|-74.144432|-4.114838|-3.516275|-14.311576|84.445479|62.234667|104.392394|119.222430|50.755939|-64.121811|13.934196|48.955103|169.727091|-57.993037|-69.091906|-43.391293|47.856270|58.859356|129.574274|76.668132|96.175685|-42.029695|99.580501|12.115003|7.384563|34.909668|54.824677|4.247641|-67.365901|11.640638|0.205511|29.705540|44.797420|89.452404|78.402334|65.292467|-23.838646|-124.658299|-118.910796|-134.813196|49.757232|-72.975014|-94.267932|48.771781|74.142483|137.499218|178.448027|71.100253|2.072660|38.941574|43.033716|2.840334|25.220720|33.123996|53.675143|-16.475332|-70.611907|15.478880|6.505853|9.018017|56.866039|52.488298|39.494714|28.447933|90.026925|-96.622301|-101.007075|-134.602892|-25.568458|-153.575299|51.484991|91.326181|29.976899|34.445568|129.319427|-69.869171|13.738924|-28.273617|22.337356|-27.075264|28.139160|26.959585|-8.694366|-37.032472|-76.418456|9.911043|9.961610|23.431104|29.321986|-16.647911|11.621687|24.154819|99.413052|83.017427|-68.897067|-87.548780|-27.171778|-31.676998|-61.274549|-24.083718|89.642712|132.079608|124.199645|203.169565|65.388477|87.747403|37.714567|-17.402894|66.209109|34.360727|23.252278|8.106697|-8.275029|9.805348|3.649488|-28.366979|7.737959|-30.084534|-13.169702|-47.693152|-31.153936|-116.077890|-41.600411|-107.493144|-48.885766|-96.369899|51.987119|54.892830|32.941030|-15.530614|112.544923|-27.318894|56.548794|4.314783|-35.501533|-51.459257|-21.301815|-3.276717|-19.798142|-4.444121|-79.919072|20.815036|4.962022|-20.753308|-6.009861|28.284020|14.042973|6.107018|-21.431436|-2.086032|-125.156927|-110.953876|-109.126534|75.002402|20.917635|23.549503|50.606932|-26.474733|40.284613|20.851441|112.397734|-4.106772|48.011479|21.649612|35.968540|25.667387|21.032721|40.001410|19.435795|14.225583|0.723583|-20.556065|8.618556|20.890214|6.999866|-4.936103|-14.321708|-29.547137|-29.185541|-44.162399|-8.329935|121.847069|129.771889|68.834103|85.092943|4.139146|-28.579903|-23.700724|-42.404581|-8.849015|0.806059|35.474381|33.121520|40.966546|26.878595|29.047762|14.166547|11.854525|2.112235|
~
0.779141|0.563589|0.587011|0.210077|0.153109|0.812759|0.866979|0.262881|0.914991|0.088051|-0.122368|0.674325|0.692980|0.056687|0.701293|0.452223|0.462002|0.688321|0.533627|0.514689|0.597419|0.764821|0.526886|0.518885|0.372958|0.780172|0.830752|0.309635|0.540211|0.767463|0.174080|0.211262|0.092606|0.517076|0.274376|0.216755|0.281336|0.005033|0.323760|0.063002|0.067995|1.431113|1.851373|1.860111|1.338207|1.459453|1.765881|0.939063|0.966984|0.492793|0.738772|0.513428|0.436289|0.201138|0.482754|0.641862|0.210154|0.313506|-0.068936|-0.029049|-2.406962|-2.449453|-2.139212|-1.927043|-1.659668|-1.054603|-1.484317|-1.937051|-0.648798|-0.672692|0.346376|3.200317|0.653945|2.134144|2.287941|2.216065|1.460866|2.091429|-0.086132|-1.760809|-2.779563|-4.787756|0.472912|0.949545|0.425208|0.955666|-1.066762|0.175992|-1.449657|-0.774527|-0.560745|-0.498342|-1.227313|-1.369874|-1.341449|-0.365765|-0.342050|0.694870|0.126843|0.366810|0.536100|0.599767|1.074810|2.479616|1.906393|-0.421650|-1.055707|-1.396446|-3.050064|-3.905903|0.715221|0.933769|0.460903|0.408830|-0.412481|0.169776|-0.801419|-0.400404|-0.353524|0.071309|-1.772270|-0.819312|-0.612244|-0.154385|-0.937585|0.418242|-1.835906|-2.868628|-2.853536|-2.841250|-2.211519|1.768726|1.254095|-0.131277|-0.861593|-2.076168|-2.503169|-3.608876|-0.356134|0.278039|0.118022|0.071779|-1.427066|0.774056|-0.703979|-1.110048|-0.827771|-0.202010|-1.353727|-1.094157|-1.088232|-0.558873|-2.347080|-0.789555|-0.936422|-2.773813|-4.336660|-2.758784|-2.618193|-0.832539|-0.291185|-1.306159|-1.267291|-1.899674|-4.145071|-3.135688|-0.415146|0.139163|0.448378|0.522562|-1.250798|-0.263776|-0.142401|-0.410343|-0.355269|-0.030454|0.482751|-1.241237|-3.850533|-2.750574|-0.930324|-1.023239|-0.387575|-2.311267|-3.300772|-3.208981|1.742943|2.637140|3.847228|2.489127|1.730768|2.355620|-2.906735|-3.214073|-0.010861|0.754717|0.898424|0.828737|-1.397695|-0.258040|-0.613603|-0.394500|0.145283|1.176025|-1.607056|-2.760150|-2.395717|-2.651961|-3.256802|-2.671507|-1.550657|-5.399679|-0.222624|1.800849|2.410088|3.032386|-1.174362|2.319048|1.394351|3.009093|-0.637441|-2.231608|-0.108072|0.864974|0.283126|0.677505|-0.811498|-0.395553|-0.491305|-0.338407|0.437052|-0.582967|-2.514632|-1.630557|-0.866805|-4.726144|-2.134075|-2.295593|-3.460716|-1.312565|3.791529|4.099613|5.138307|6.396135|-0.934410|1.126316|1.838124|0.080676|-0.573395|1.098516|0.255888|1.099633|0.820746|0.741401|-0.797392|-0.282499|-0.961385|-1.985369|-1.635786|-2.445695|-2.317076|-1.862824|-2.099786|-2.249603|-2.576665|-1.593570|-0.270358|-5.440642|4.811149|1.466931|2.406773|-0.867716|-1.733726|-2.466413|-2.265361|3.299163|-0.916341|-0.388262|2.661669|0.657041|-0.002046|0.810937|-1.430701|0.349072|-0.822045|-2.123391|-3.786559|-1.939669|-1.564211|-1.705768|-2.112442|-1.893117|-0.418475|-3.412668|-1.725986|-4.567255|-2.011773|-0.244355|1.787078|-1.877369|-1.691648|-1.970299|-1.207704|3.583649|-0.316004|0.017266|2.052208|0.354098|0.923022|0.413727|-1.816227|1.338702|-1.006075|-0.892097|-1.578089|-2.477693|0.376140|-1.102605|-1.339070|-1.111159|-2.369015|-3.585065|-1.678458|-3.644535|-3.288173|-0.942887|-0.404599|-0.929199|-1.751033|-5.233817|1.485873|3.420030|1.486818|1.504354|2.820010|2.127050|0.449428|0.016594|-1.261134|-0.240532|1.346716|0.977206|-1.130240|-0.034811|-1.535447|-0.801234|-0.118511|-0.283835|1.708147|-2.060499|-5.290825|-3.093906|-2.617820|-4.422964|-2.460556|-0.838625|-0.872096|-1.654226|1.047865|2.146210|1.586463|1.611490|2.167412|-0.146882|0.913821|0.404109|-0.788494|-0.166281|0.709092|-0.939111|-0.888193|-0.358075|-2.827042|-3.030627|-4.504517|-2.430695|-2.251077|-1.005530|-1.895425|-2.458754|-5.031666|-4.847959|-3.897183|-2.234751|-2.264829|-2.346383|4.828702|4.195397|0.323580|-0.272627|3.188654|0.455246|0.470951|0.078233|-0.564840|-1.282666|-0.762596|-2.332816|-1.749847|-1.539086|-1.771998|-3.031807|-7.800358|-3.666692|-4.144482|-1.932725|-4.929768|-0.775115|-4.918299|-2.468342|-2.978625|-4.118418|-2.209344|-4.299252|3.709727|4.232201|0.919675|-0.213402|0.909033|0.671992|0.602721|0.746154|-1.045404|-1.419710|-0.794704|-2.643808|-1.671052|-0.244767|-1.881320|-2.180221|-7.376561|-4.717366|-2.639301|1.028302|-1.521333|-1.390607|-3.454243|-0.270611|-2.686143|-2.295683|-5.039392|0.546771|3.844701|2.560211|0.907246|1.299211|0.706287|0.627812|0.855491|1.004288|-1.046670|-0.029980|-1.295188|-2.248961|-0.330873|-0.381085|-1.866590|-1.017647|-4.209272|-2.148552|-0.934864|0.030660|-1.545037|-2.897656|-4.715932|-0.258424|2.395775|1.135669|-1.030575|1.312602|1.548733|3.735092|1.654284|-1.370879|0.314527|0.510522|0.653483|1.401591|-1.187398|0.442392|-0.756972|-2.181891|-1.892425|-4.365433|-0.406546|-4.376932|-2.592417|0.081585|-1.804092|-3.875860|-6.439825|-1.016266|-3.748851|2.402102|0.871546|-1.301935|-1.524406|-4.745215|-0.904646|-2.963487|-1.320416|-0.043991|1.025174|0.202262|0.745166|0.486827|-0.912044|0.477950|-0.958857|-2.936771|-2.030692|-0.893041|0.172153|-2.111568|0.089194|0.740680|-2.549637|-2.018944|-2.670692|-1.322257|-1.192816|0.622033|-0.375876|-0.315732|-2.891345|-3.985079|-2.812382|-3.551885|0.672363|-1.371005|0.672957|0.182123|0.886877|0.779622|-0.943414|0.649730|0.029535|-1.626659|-1.403309|1.146594|1.496552|-1.361855|-2.844830|-0.284714|0.733434|1.594534|-0.996018|1.137024|-1.286137|-0.352431|-5.508879|-2.128035|-1.007245|-4.147965|-1.050512|0.146529|0.850499|-1.448504|-0.116142|-0.398401|1.045110|1.292703|-1.355715|1.568978|-1.603479|-1.872422|-2.166253|0.021576|1.533270|1.596055|0.517191|0.308609|2.447436|0.577776|-1.644572|-0.976017|-0.278699|-0.995676|0.213782|-0.124476|-1.360316|-3.099945|1.685200|1.804096|2.034197|-2.802039|-0.332147|-0.518844|1.145249|0.536225|-1.462666|1.400225|0.174364|-1.842721|-1.409935|0.200518|-0.979935|-0.340355|0.562051|0.019031|-0.802549|0.172075|-0.549542|-2.074960|2.868212|3.692086|0.256922|-1.327931|0.682657|-0.794378|5.542275|3.310770|0.121298|-0.222986|2.911759|0.313440|0.980366|0.759620|-1.158824|-0.365147|-0.393053|-1.654510|-0.153091|-0.230747|0.173890|-0.859458|-0.959879|-3.334680|-1.561568|-0.452138|1.382457|-0.990994|-0.796908|-1.416205|-4.242023|-4.014977|-1.265956|0.957347|3.206875|-2.273966|-0.367395|-1.276596|2.892144|0.810399|0.946824|1.167815|-2.166446|-2.086453|-0.211329|-0.570310|-0.305570|-2.065801|-2.407530|-2.656839|-4.493809|-3.660453|-3.844900|-0.880823|1.307690|-1.338590|0.615728|-3.031905|-3.871331|-2.663642|-2.135268|1.371715|1.853459|-2.477142|1.026678|-0.901197|1.215338|-0.817683|0.496159|1.347750|-1.558442|-1.317789|-0.354946|-0.308483|-0.237683|0.031017|-0.183311|-2.845149|-3.416708|-4.169713|-2.503829|-1.282305|-0.613372|-2.339514|-3.791978|-5.925460|-8.266411|-4.753149|-4.478303|-3.081709|-2.538089|-3.176858|-0.725628|-2.941283|-0.332896|-0.732383|0.052169|0.874832|-2.164894|-1.733008|-1.704094|-2.906287|-2.755996|-2.771104|-3.663433|-3.334818|-3.154235|-3.295139|-2.521909|-1.833189|-1.857199|-0.254976|-3.529942|-3.837951|-1.740214|-2.409710|-2.542690|-3.993513|-2.919904|-3.109918|-2.061486|-1.817316|0.563655|0.942887|0.251235|0.348400|1.096017|1.204836|0.985670|1.352120|1.975530|1.945052|0.399859|-0.679569|-1.182682|-0.549667|1.052208|-0.167753|2.965218|1.527410|2.270321|1.377045|0.233587|-0.720573|0.368651|-2.295112|-1.619815|1.372011|0.498646|0.104877|0.908049|0.333396|0.988254|0.394099|0.302347|1.127410|1.601047|0.045579|0.899389|1.240150|-0.159429|-0.229369|0.158908|0.418664|0.950751|1.210813|2.153749|2.624362|2.335758|2.061499|1.899965|0.942910|0.511464|-0.839717|0.241120|0.580040|1.357139|0.278022|0.705179|0.358834|
~
0.682279|0.597969|0.694746|7.605765|10.605503|14.438368|14.369598|21.918192|22.829660|23.344602|18.174042|11.222117|9.182014|6.494485|1.209333|-0.232087|-12.849099|-13.902132|-13.147796|-11.136491|-1.450160|-1.076270|0.870587|2.862140|3.186378|-1.270723|0.916132|0.519381|0.280748|0.626303|7.823566|18.037790|34.881850|37.930929|46.055776|46.567026|43.850510|35.661458|31.025679|28.254401|18.876622|27.555541|6.026039|17.096052|2.112886|1.103911|-0.331898|-5.435211|-2.164940|4.182662|5.173100|-3.214232|-3.631798|-7.857817|0.518066|0.469201|0.096511|0.434198|38.934557|46.385179|33.289554|66.937905|70.080808|42.317616|34.785234|25.308042|19.252894|38.209446|27.535153|28.651397|-6.107638|-25.618222|-13.636552|-23.693165|-21.548559|-6.693546|5.273405|11.398591|-1.345231|-5.206754|-12.244377|-1.315223|0.809337|0.843869|0.329141|0.327403|4.931900|15.252369|13.842019|75.436380|51.333455|15.571619|-7.525969|-17.754399|8.097085|20.920651|20.477199|-26.950776|-42.720168|-76.123088|-73.877163|-58.012132|-59.483022|-0.403262|1.121982|5.577588|-0.101685|-24.938652|-25.523391|-19.831901|-0.366412|0.446333|8.276696|7.902689|34.105171|52.659638|65.865751|86.882969|60.115004|38.445856|12.016807|1.421640|0.925268|25.923904|-3.114951|-22.295325|-50.372615|-89.985748|-82.749519|-75.518903|-46.360598|4.953578|64.154308|52.462274|34.666443|15.114578|-15.339311|-0.308830|-0.049062|0.076021|0.494847|1.512111|46.637110|29.679291|44.484444|76.322023|69.196198|-6.497784|-5.485313|11.364114|16.054643|10.549085|-54.013665|-41.716112|-70.191406|-102.096934|-133.286065|-103.720954|-54.885036|27.775100|29.350357|55.906625|9.177222|-19.274142|-26.301594|-7.373586|-8.887217|0.824170|-5.785406|1.711973|32.388135|54.828457|51.853607|77.089296|58.225786|25.509029|27.880500|41.865176|24.534462|3.115236|-19.515473|-81.609478|-159.570638|-94.285812|-78.723684|-58.647667|35.795283|28.054174|32.490421|41.783429|59.123047|35.620712|-19.452634|-11.914289|-8.246554|0.906208|-5.827149|4.455780|34.759533|90.511042|20.823266|31.380199|10.178881|8.075148|83.913010|70.918982|-0.905149|-36.964432|-42.914034|-117.153256|-108.177523|-129.439674|-99.185064|-9.357008|118.648986|95.994219|-16.782456|-39.105572|4.894277|0.850527|-1.938439|-1.513578|-1.852732|-2.522265|6.734215|19.149793|41.439062|76.381119|3.021035|16.607441|-20.772068|10.253083|90.433977|108.199466|24.696744|-61.637731|-108.220232|-66.037438|-139.619198|-51.402623|-110.876446|-24.172054|106.559895|153.676156|3.380232|-1.620837|-20.872904|7.490872|-3.145190|-14.252251|4.379506|-3.110392|15.671554|15.758871|42.663775|67.756756|-13.400208|23.321197|34.196197|6.843684|88.582485|98.452197|37.991102|-98.004730|-84.818550|-63.496619|-135.022487|-93.071134|-99.190301|-66.538931|124.581338|176.733182|111.365560|26.445102|-1.311670|-20.972360|-2.848005|-15.136107|2.754953|-3.097727|9.909467|12.380601|41.882004|64.136534|-13.597853|39.973011|38.039602|75.416112|120.193263|94.756530|-2.844003|-85.361176|-17.490139|-63.176299|-55.893138|-104.957143|-94.041819|39.186686|13.459948|90.460139|107.863704|53.718410|47.059701|-22.205550|-3.579390|3.888798|4.113021|-7.843056|2.827039|-1.455629|29.908588|44.210605|-14.721848|21.722904|66.426774|88.103699|125.486675|135.380428|-65.956077|-148.369976|-80.181166|-33.977981|-70.531536|-75.481125|-36.518553|-71.826032|28.638287|88.201173|61.876804|44.294922|87.727918|25.546044|-5.362648|8.947741|2.922959|-4.789137|-0.352603|-1.495666|37.388800|26.845267|12.878746|13.012349|69.013454|108.614572|131.282954|144.216861|-58.453843|-147.503641|-116.127450|-84.499589|-62.004156|-0.439404|-46.526857|-58.460370|8.338038|108.219635|132.781059|73.780804|51.835462|-1.705428|-18.357142|2.474469|-4.240027|-8.286922|-2.983974|2.401519|37.601971|73.979734|-0.042007|51.840161|68.176137|46.608247|114.805177|117.996921|-87.357189|-152.156861|-163.592550|-104.903988|-55.994324|38.566500|-30.611794|-68.948017|113.037708|183.190899|224.120056|104.894694|119.800456|3.107409|8.596174|-1.359234|14.387337|-1.874799|1.060172|12.403971|23.477811|79.850060|45.157389|98.073745|120.536534|90.506783|89.297317|44.020465|-92.105743|-188.755782|-143.333443|-180.623481|-50.344586|-0.612628|-13.608272|-46.045313|97.743799|241.274573|176.870106|78.156616|62.010665|3.813585|28.846728|-2.663606|-2.795195|-1.535248|5.672574|21.485527|37.496977|56.582829|-7.761698|50.012888|134.507977|94.423936|92.620036|32.482738|-90.748774|-197.486172|-214.718152|-122.863847|-49.160312|1.557410|4.009698|62.012184|176.647647|221.815323|215.073711|87.329872|29.978328|57.567481|21.074989|20.284625|4.989653|1.803556|-0.887340|49.494756|27.366544|30.189024|10.279729|72.586370|102.600421|87.241122|92.834682|40.300639|-52.770792|-132.434602|-193.115895|-97.856407|-44.475775|-52.535758|-133.890786|53.484960|117.220565|157.648204|161.388109|78.633835|70.031697|71.685010|23.684683|15.337213|6.888292|3.297396|27.123283|28.938045|14.657903|52.755101|19.521653|72.983483|70.643334|81.390852|15.682998|5.895041|-18.123249|-117.558014|-112.953964|-42.983268|-90.212963|-31.047372|-105.413228|-22.236859|-16.529800|52.224558|108.705496|132.340934|149.057086|43.773084|-35.660121|-7.159470|6.504596|0.584830|25.073288|24.600508|18.928270|46.385280|23.877688|70.144931|69.423605|76.758118|44.261169|38.278810|-19.168036|-64.954604|-92.647271|-95.127005|-32.824266|-39.526038|-39.923251|-131.685985|18.207749|73.468987|152.334392|76.441255|120.520938|34.457809|-9.591868|3.584500|24.267404|4.709520|19.012598|5.703558|29.970463|31.238110|12.944295|28.295527|64.887636|40.977130|9.415983|39.676727|15.181149|-53.610039|-141.560545|-91.029604|-98.718568|-76.699115|-148.375124|-111.443636|12.625581|105.787829|80.481135|79.972957|142.394467|30.196265|6.046533|0.514350|18.660209|-0.566219|15.796655|6.668627|17.898530|34.089367|12.034373|35.037353|45.107971|9.804753|42.421403|36.717410|3.151759|-66.894518|-100.711883|-48.331798|-64.764054|-138.546242|-174.317954|-86.247244|-21.105394|123.628920|-5.923646|8.752297|25.727268|-16.184118|-13.614091|22.621433|11.672651|-1.243683|1.271627|-10.589497|6.238441|33.014522|-9.173322|28.756756|51.579374|30.042798|4.254050|-4.978146|-47.902557|-78.832599|-50.616395|25.558222|-13.149708|-45.291750|-122.800411|-35.820202|33.859662|83.970456|21.849826|5.791337|-36.320299|-23.397794|4.390246|-0.206557|21.829517|-0.727214|-3.465663|-14.843052|7.060980|38.412183|-25.033870|26.205900|13.103370|6.163860|13.059876|34.943246|12.574346|-14.492935|-26.716502|-19.417730|-48.488063|-53.734959|-125.775281|-50.307872|57.250828|93.619484|80.958152|57.115011|17.296105|-1.969795|27.272989|19.390315|16.832227|6.882295|1.104563|-15.234063|8.570992|5.510048|2.460917|9.786692|-1.667387|-12.100911|13.068281|43.559951|-17.892475|-8.451530|-34.658272|-46.452808|-88.809877|-77.236339|-119.661931|-89.685271|-33.160225|6.391929|8.803225|-10.855599|-40.148328|25.631963|19.371565|-5.144486|6.387776|4.677947|2.558535|-6.256124|-15.148169|34.957720|28.251071|26.328213|5.196421|-19.045928|-4.083280|0.185738|-65.627834|-20.030932|-54.325597|-41.637593|-45.202656|-63.587739|-91.154970|-55.558365|-21.366279|5.433675|-13.489968|-29.591892|-8.513145|45.292031|5.814839|6.542533|3.091419|-1.725732|5.120975|2.152265|2.061568|16.769152|-18.019839|-1.137303|-3.959451|-36.830586|-42.984943|-41.399307|-66.002297|-39.733934|-55.865501|-37.584064|-57.222175|-58.081049|-59.832320|-76.774008|-15.859970|-11.266573|-16.099804|10.549858|1.163505|15.825181|0.275796|-27.848381|7.111766|-2.028453|0.220578|11.739457|11.184412|4.703240|14.083678|29.410415|17.619400|13.239112|9.238220|-11.260202|20.341226|-4.417454|3.159018|17.779195|-32.442562|4.192380|-70.079511|-44.485710|15.503582|15.812898|29.182227|31.559765|30.433587|33.117019|-6.679394|-0.352292|0.434801|0.505038|0.166620|-4.623329|-0.601429|3.877145|2.370478|16.945200|39.986628|21.287704|18.039691|29.555636|30.271806|48.280531|20.751901|0.145329|41.510916|31.504982|7.272672|3.070900|30.982129|37.652781|16.888529|26.234125|18.413974|15.872139|4.499478|6.540008|5.765004|5.033088|
~
0.057031|0.181574|0.238943|10.488374|10.821263|11.979755|11.517079|13.804599|15.745901|17.041696|40.901908|30.031247|47.556288|34.232044|26.092819|6.884288|28.397466|7.897073|18.746473|-1.725218|-0.718492|4.708540|-31.751662|-16.461393|-3.196645|-0.215127|0.394902|0.551735|0.131662|0.516069|10.383452|28.431402|49.772722|51.005247|53.253593|54.220305|55.228407|81.450455|81.113130|96.979249|66.780447|29.280832|-72.255599|-57.957795|-76.012322|-41.409581|-74.023430|10.731368|-22.741780|-18.483548|-45.993407|-26.539477|-10.011459|-7.095785|0.824469|0.561369|0.546096|0.219371|-97.609346|-21.195115|52.257589|67.476361|60.274297|63.318417|61.760778|69.434030|73.945582|76.309617|2.987403|-76.511685|-131.938779|-104.307536|-72.187893|-125.526581|-153.525103|-90.156078|-150.142184|-75.986346|-32.321809|-26.211561|51.942279|10.424794|0.200045|0.242738|0.135653|0.024514|-78.034344|49.937915|37.434197|95.486503|71.432728|52.772624|43.977272|36.208443|108.839557|25.872010|-51.475688|-101.352166|-174.841546|-184.086758|-56.637851|-177.606990|-228.257100|-152.472568|-90.427183|-109.127719|13.214946|29.806288|46.579140|55.126527|-7.018681|0.373171|4.833290|4.379450|2.652810|152.013668|94.853563|141.614172|95.752846|61.047129|73.922797|118.548591|63.608776|-76.519055|-81.232714|-109.874312|-16.395389|-1.295688|-91.335123|-134.971608|-63.581117|-172.788909|-58.889331|-183.159657|-87.805710|19.142974|46.820776|81.048015|-15.699417|0.700643|0.677063|4.890393|-33.232614|90.079434|81.599017|98.943490|44.722003|-16.785064|25.620142|39.608458|-87.595644|-13.511630|-10.767662|28.421310|106.849227|43.694916|-24.345020|33.178238|29.293716|41.396562|2.544930|-183.576697|-102.342149|-95.361125|-29.619636|62.838940|9.153292|0.804850|0.204605|12.676484|-18.256087|112.561494|87.201676|54.019191|48.928216|13.240060|13.189611|-36.696212|49.068373|-21.243263|-11.179627|133.191078|199.022448|244.015061|197.266739|219.146782|219.721445|291.347355|215.616335|39.802049|53.280192|69.067696|-31.511286|20.426315|25.887089|4.145981|5.662490|13.314623|-7.166018|111.074593|65.317211|22.413005|22.073503|7.430301|8.132308|68.235087|-24.278143|-124.961789|107.858326|29.673146|142.384101|225.639112|247.832319|242.391444|310.521354|376.677589|298.117817|194.677796|155.485742|22.748401|38.329097|43.521146|5.746818|19.316745|13.758031|27.719650|25.358144|86.272074|7.396629|-8.543877|-27.749556|-26.517686|-11.613198|23.740375|-55.067825|-200.452111|-191.878140|-72.554388|17.040655|143.933135|-216.885818|-76.705600|257.252491|113.272577|106.759023|47.764797|19.035018|64.487037|-97.549896|-7.650905|-16.581370|19.464299|20.442610|15.808425|26.097533|67.307291|15.512962|94.848508|87.617797|10.695682|55.681232|-11.993607|-127.829506|-241.538380|-235.261926|-187.494354|-187.933657|-9.294110|-146.800585|162.429290|139.396518|52.141587|-47.306617|93.820424|-73.636772|2.870638|-115.680326|17.973282|-2.866245|16.146932|17.875902|12.816662|13.346709|63.295106|51.991902|159.654980|146.516032|211.483093|143.429379|117.678153|-187.410063|-130.463419|-129.636777|-217.486656|-384.993442|-73.444036|64.250340|172.235037|60.468546|77.187592|-122.035526|-17.251838|108.711321|-29.503816|6.704649|73.455360|0.172216|4.010178|7.993786|14.956916|44.243801|47.102438|61.827894|116.936651|141.960942|158.497818|101.585546|-63.216030|-433.413579|-255.731409|-395.083827|-223.596985|-420.650977|22.806050|47.387147|135.356646|257.809480|124.700396|31.174427|-158.569179|117.492813|-51.604886|21.470013|73.202075|9.214051|10.742680|20.258329|33.385790|53.271532|29.619939|146.289108|89.829274|121.974668|176.668743|-68.961864|-227.473528|-596.554452|-495.589276|-400.246194|-239.576821|-251.181965|0.877298|-97.058989|37.796805|173.679546|183.083001|154.506197|-0.844093|-28.346429|-102.290733|51.347980|70.218370|12.387912|-9.044565|27.731537|45.973506|62.693818|138.084772|77.609324|166.614723|184.485235|132.871818|-17.158964|-190.708307|-332.665784|-321.926674|-426.773633|-340.484094|-263.531717|-283.874561|-421.460797|-335.869271|96.370181|42.700115|274.769713|101.561940|228.538674|51.492071|29.306027|6.928587|18.752727|-1.333889|35.567361|70.903539|59.654854|155.661403|75.612521|195.732366|304.802716|323.612980|21.447156|-32.534016|-384.940403|-439.063903|-468.842881|-484.689615|-422.192292|-441.911591|-412.859973|-215.579299|12.465794|136.647366|203.644961|105.415929|105.553183|74.407383|6.557205|58.343226|-6.185944|-1.470681|35.367007|89.613720|105.174992|127.615482|2.963814|163.069521|327.992117|218.162818|161.626371|136.199409|-195.153819|-599.596017|-908.353098|-526.532310|-416.463625|-317.627500|-324.001647|-99.875834|61.847667|110.655043|25.047757|95.392502|109.878861|130.541442|92.370875|57.412340|5.958808|4.363610|17.630979|126.635845|87.826252|23.215785|40.107843|175.652956|268.087495|215.534615|254.707527|375.826203|-94.818686|-162.676984|-555.039854|-542.618058|-326.103798|-338.628224|-614.143075|-232.426067|-130.981923|66.712341|163.506012|177.657939|201.543361|70.224005|17.006809|75.779535|-5.747581|-5.675674|64.970829|42.174474|17.151514|-25.304098|110.275641|152.596727|152.225977|105.883600|209.062615|359.969679|230.964472|34.380966|-114.755266|-211.942819|-436.296507|-164.056103|-354.675512|-136.268092|63.335606|91.117553|403.630990|286.889332|213.052701|97.279112|34.633654|105.724918|0.947755|-8.415944|56.551976|86.706632|59.903646|-65.812994|87.252232|81.119274|159.263393|128.072160|300.485181|198.887367|45.090935|82.046993|63.544248|-30.629810|-99.244115|-22.039471|163.623337|-43.368362|247.963537|218.164366|347.200187|262.670949|179.607170|26.109503|-4.004716|82.330815|5.015557|4.820857|50.480919|45.359268|75.804100|-56.468991|-22.891652|-47.531517|25.950727|50.900131|31.052602|84.682864|208.626251|145.617567|-113.948238|24.368140|314.637718|175.281956|211.987559|-25.270945|176.056802|396.175842|-20.668788|203.218333|222.617434|-29.420259|11.548187|55.108833|-19.163372|-27.132793|39.659303|71.985050|59.056335|-50.605643|-6.883673|45.959030|47.854917|-66.884406|130.683189|0.108897|-81.070507|-221.284209|-46.815164|250.346197|161.536364|97.260238|-98.422884|49.453401|186.135369|230.802410|94.083901|110.362337|239.136110|26.066486|12.853310|108.510573|-10.248616|-26.685065|19.745450|59.184999|53.687212|-71.711020|-75.387116|-44.589892|52.909493|5.985098|13.537663|23.939457|-113.965611|-4.634898|-73.766777|109.417519|98.679558|201.838770|-153.218756|-66.807673|230.449160|171.101976|96.086847|33.734748|108.375972|55.032593|18.263370|64.432482|21.904913|-1.752060|24.785730|61.023943|83.620318|-36.449097|-5.678334|-101.215615|-4.778885|-26.207399|-4.862327|-25.665920|30.534707|-4.302744|-127.008889|-36.675557|58.608852|48.869367|-277.693092|-212.676870|31.822960|79.929665|107.317176|40.369552|130.207020|83.847928|23.780724|65.870602|12.264600|4.499310|55.850193|9.760567|97.038191|-61.300881|79.522537|27.159224|-24.109732|-46.287670|-86.867599|-40.471671|18.038663|35.247421|-167.339497|-60.343232|-119.396795|51.567726|-152.443088|-54.755766|105.823538|94.980022|25.095543|97.736349|-28.437219|31.924418|55.511139|-114.371031|-21.816950|-29.974091|28.349694|11.246300|6.448270|-31.828800|142.740941|93.606123|174.678174|58.857041|76.831786|-7.349014|-25.982398|-14.776453|-37.278999|-77.096500|-17.060888|-31.319051|-222.331419|-63.895027|45.244403|11.038520|-15.872034|-179.205321|-37.840485|41.545498|-9.187354|-80.058685|-23.159634|-32.890990|19.958072|27.151231|1.628777|-5.230295|69.009020|65.964721|79.454050|26.177232|64.645307|24.443284|1.007245|-28.905666|-101.276246|12.199971|-87.400824|-143.943228|-44.188725|-7.384335|59.023978|-77.215780|-41.927708|53.053766|78.181912|-10.066607|-43.821159|-198.420400|-6.015596|-13.350215|1.129044|25.853414|-3.145196|-15.011569|30.822808|53.193920|49.941192|56.511394|158.539783|92.260221|178.959986|139.040009|52.546107|6.551703|-88.305927|-111.921307|-178.017020|-24.962709|-58.765298|-70.827500|-21.640907|82.365664|166.133727|27.586828|-50.371941|-43.492495|-9.452874|0.728844|1.781945|-9.990547|-6.567187|-7.189713|6.916853|20.563403|52.501805|-5.120559|1.974559|68.528688|146.687381|100.573550|-28.499753|-98.000862|-63.219830|-42.037768|-45.970465|-79.447244|-107.628460|-53.614832|-49.695260|96.396620|105.825459|-37.816170|-43.714139|-35.902456|4.701022|0.350721|
~
0.370981|0.282509|0.787364|0.553603|2.234722|-12.878819|-10.901191|-3.200077|-0.732429|-51.849477|-76.009507|-96.382686|-90.195637|-80.223567|-105.983264|-45.697105|-40.998192|-29.864112|-50.951578|-65.149584|-15.992724|-39.395466|-5.652865|-3.776972|21.371815|1.101141|0.457850|0.253114|0.087857|0.125593|0.625776|0.671838|3.692436|-4.093908|1.401014|-40.030240|-68.666686|-137.375676|-154.963805|-141.667157|-158.839075|-132.015624|39.421549|80.816442|66.824984|92.957304|43.724831|32.255702|59.079212|15.815078|-12.546871|-31.108342|-12.475726|-33.737551|0.213536|0.174291|0.864700|0.671386|-45.192187|19.233215|-25.502637|100.688206|39.590018|-119.494888|-106.241536|-144.724420|-165.076735|-123.943774|-81.159853|41.598475|303.646820|288.548688|329.617625|85.137431|68.574453|224.892984|238.088001|34.548688|-97.829364|100.377497|89.499411|63.581597|0.633849|0.003588|0.300626|0.847385|-74.723225|-296.132686|-189.734804|-62.230126|-159.822041|-271.352132|-407.671896|-436.396369|-400.832065|-325.670878|44.593645|140.516348|488.430987|332.718612|262.884111|241.029959|302.391005|418.811887|254.684354|147.151068|-159.576059|-170.944574|-74.409117|-10.383057|-13.454642|0.595955|0.648881|0.363005|52.926663|-154.320158|-96.262852|-144.279921|-241.083487|-220.081165|-483.812911|-459.105512|-601.144574|-658.876185|-359.525095|-452.894142|120.573387|145.935665|-53.033161|-207.540108|-128.065916|230.655970|274.413109|226.669672|102.485553|-2.647496|35.571815|119.972403|1.093786|0.873326|0.290829|-8.486395|-7.088640|-37.057064|-157.749993|-116.354594|-379.611947|-337.849335|-466.811933|-816.432508|-868.813942|-760.864927|-739.308477|230.895907|690.554107|690.766291|84.569826|-61.355350|-217.115834|-22.892993|274.966569|76.854868|60.647443|-28.999729|112.744040|48.144356|-38.779948|0.464992|-8.890313|-18.930273|-166.726190|-39.588035|-87.927160|-184.559308|-268.959961|-419.743217|-699.617854|-1051.876210|-990.330261|196.740227|-68.212940|336.336003|125.882123|564.351281|282.746210|88.586482|-13.741936|-57.549580|359.098581|360.820803|146.906847|-2.312438|18.105950|101.255373|-61.766059|11.558794|-20.335429|-13.291966|83.388786|-14.400311|54.514439|25.463783|-175.596005|-337.471813|-587.052603|-461.885018|-392.268520|-320.567286|291.404315|248.880889|-20.359987|3.418913|457.035335|436.631077|-138.765957|-307.049661|-37.391276|147.680793|27.401585|3.872508|-49.759360|133.347108|-23.668185|-33.789399|-24.743026|-28.426938|-7.259296|-65.340847|-47.953939|-73.338540|-186.956289|-91.598422|-49.840929|-241.143782|-258.687731|85.971788|1.487825|334.597007|-384.545266|361.637568|351.964587|365.352112|50.965660|66.580617|-158.126800|21.269722|-48.771052|-96.815074|-79.674792|-46.427033|-12.278613|-33.433051|-31.448120|-3.892090|-57.379842|-104.768412|-70.906355|-24.221888|-468.327465|-258.226330|-67.729250|-3.902373|-93.485014|-418.447418|22.634356|-19.271326|-734.313043|-21.610846|697.306276|305.385960|-64.718235|267.430131|-19.204358|-150.558453|-90.760279|-326.310341|-82.431188|-3.340034|-53.219602|-46.402724|-48.604257|-4.148222|-71.617194|-102.133834|-252.875030|-246.443741|-472.938051|-255.151174|62.961113|-398.756830|408.568269|-378.469941|-604.533160|100.361874|490.432764|223.270185|880.316431|251.856641|238.735430|111.712839|-102.980243|-49.923488|-6.271214|-136.789942|-68.650192|-1.750371|-55.687079|-83.929830|2.720306|-4.842589|163.397347|36.416393|-72.910105|-298.637747|-389.648904|-72.182936|71.153241|206.582857|-412.730025|7.627902|301.718329|669.970683|620.419984|785.498071|146.111492|-196.676174|93.287380|-374.889535|68.373004|67.019039|-188.947974|-71.402691|-50.097126|133.042002|-78.903702|-73.837485|-28.909727|-14.275664|152.482552|38.206643|-311.635717|-185.845241|-181.421706|-203.110665|202.308588|18.415993|345.440102|624.292820|899.690329|834.622111|735.233706|265.698175|765.802804|-713.527632|-341.548542|-621.615433|225.604384|22.317749|106.389259|-81.464169|13.753969|-152.970634|-53.964510|-48.192257|29.995006|29.281828|167.075974|-102.204999|-39.440785|-280.439830|-148.285997|26.185416|-61.030193|525.939434|919.150997|983.771087|1494.637207|522.980978|199.521588|-224.344281|-208.573072|-1015.460304|-489.670260|-778.146942|116.969173|-106.338237|65.892685|156.054976|-8.522591|-92.573664|-7.532265|-47.902988|20.480366|6.094584|264.501307|-213.884788|-181.059848|-134.741777|-19.002383|288.026994|413.953672|925.816552|563.798723|1071.093151|1640.235319|314.915592|-526.596428|-218.931408|-565.822697|-424.695795|-266.084711|-197.518464|-179.391492|-117.042256|50.819886|83.627919|125.194036|-28.962906|-26.614328|-47.876241|-26.096978|28.275915|273.171332|-155.614835|-218.001089|63.524506|-129.763326|765.429672|938.451189|1248.902772|582.399970|318.312842|102.831469|-746.656770|-911.973589|-744.869043|-806.965359|-270.209185|-1078.413510|-289.299159|-424.771192|97.261202|12.338914|95.018240|-4.104454|4.607958|-31.915579|-30.050940|-39.757955|-41.301901|131.770188|-161.801060|6.954172|-271.186690|91.199066|615.931580|603.095439|947.595179|755.466243|-16.406037|-1030.691215|-777.124328|-847.765141|-92.948045|-782.101400|319.871881|-438.457119|-68.532213|-141.381622|-134.280779|29.982377|-72.447668|-10.848772|-100.054770|22.935122|12.782083|-13.640747|-30.070089|34.335303|-131.515417|-103.682872|-123.797294|-260.638283|-84.750348|657.245369|390.939413|389.662944|-48.035771|-843.479989|-959.574261|-763.929312|44.197264|505.953495|622.977325|-253.151643|-120.526762|3.948178|-39.853555|15.534836|-234.111394|5.427425|-242.221644|24.709004|11.785607|-69.140521|29.720624|219.743967|-63.748231|-90.016363|100.722630|592.109733|565.967780|1097.336744|1075.235860|-59.423063|-681.722329|-779.733201|-788.700706|-411.007288|-110.050098|60.928118|-70.484972|-40.073646|-42.444018|275.697692|-132.063594|-182.507926|-204.277703|66.743850|-121.784135|45.036741|3.317491|25.989621|12.570456|216.511585|-150.435563|-18.211648|34.298873|369.112152|1082.977509|1401.090989|236.386045|-521.979841|-576.442419|-585.417273|-412.501258|-999.560811|53.611717|-492.105930|-828.303681|-402.927455|-56.039001|-56.692894|-101.684693|-92.349473|-98.022618|93.821933|-107.271359|36.534171|13.844874|13.893664|4.772208|85.708376|-106.819536|-83.157917|159.730471|469.877700|1013.411936|820.823580|49.307482|-260.583659|-644.891697|-526.268539|-461.271593|-923.170663|-509.898714|-301.117195|5.992135|-27.765871|-83.857859|-177.472959|-181.698717|-106.636150|-87.065541|60.992897|-84.044079|43.628457|14.145959|32.966216|27.989185|3.234213|-158.625587|-85.283053|304.335611|429.741336|869.307298|250.454163|116.172302|-709.050549|-355.990616|-126.496840|160.642220|565.589822|342.883358|-53.936524|-178.682266|-145.926388|-132.806937|-285.221120|-231.516300|-49.853094|-19.104780|165.843347|-162.038308|61.757322|-0.936631|35.889536|52.278869|247.786324|-198.978929|53.553459|125.643539|270.568323|234.368397|85.333566|-300.911172|-509.784604|-810.558833|-190.920741|244.172992|214.110907|-110.132705|-123.381759|-114.970589|-319.928616|-189.523316|-325.906116|-119.386596|-108.724340|-83.627798|235.488557|-21.362499|46.982529|27.674163|33.149061|75.047480|183.135433|-108.811082|-58.863270|231.272781|366.140246|94.437906|208.635803|266.474051|-104.754648|-364.431575|10.895367|-145.803330|-105.336507|-53.837691|-425.014133|-135.145802|-181.031413|-128.046358|-253.740704|-47.379999|-19.931903|-28.204409|282.975660|86.446577|56.200127|41.077125|17.039552|142.710183|443.477150|262.007277|399.210049|603.701762|599.023645|375.716627|448.956248|441.880843|-177.048561|153.042908|199.306818|359.862814|133.989632|-205.502753|-153.742941|-19.937114|-144.811525|-148.781649|-28.290357|171.810157|176.300227|297.075174|367.514146|413.287310|44.513252|13.821870|24.630439|30.574136|142.320703|84.398056|268.576146|225.875626|222.469051|50.836808|-168.221414|115.519654|-145.545074|11.197451|-9.165718|190.116676|192.831924|-57.143002|-89.998555|-147.685432|-147.005923|-214.522881|-77.242094|51.133802|193.103142|241.428834|285.226228|-189.312211|31.551037|2.094785|41.892562|-22.751496|-74.326301|-28.977890|-81.296677|3.633712|-13.148022|73.003338|-116.480135|-191.933195|-232.468215|-71.170583|162.842357|51.910961|-170.360727|-329.485854|-187.104498|-172.665546|-202.577542|-172.710329|-143.999762|-78.646681|-65.278229|-2.402718|12.498618|8.298074|4.158326|0.934766|42.055396|46.472424|-11.429337|-4.110985|-17.502376|60.737623|16.605229|-49.923252|-238.058419|-457.467041|-440.233949|-161.002631|26.873974|-35.171487|-238.503006|-189.378013|-153.053815|-235.638811|-178.034973|-139.771283|-128.150935|-66.957279|-37.651296|5.945390|18.229199|11.599373|0.927108|-0.659278|
~
