2|60
#
~
0.518214|0.119711|0.598288|0.788287|0.425850|0.529045|0.049584|0.527324|0.366126|0.922636|0.898452|0.394670|0.317315|0.233071|0.706771|0.964584|0.968253|0.706103|0.841439|0.288889|0.554735|0.473133|0.486301|0.540176|0.282117|0.974596|0.778615|0.220321|0.773078|0.305598|0.829789|0.291292|0.425309|0.428280|0.088712|0.866297|0.945854|0.111652|0.388793|0.328391|-0.041136|0.243817|0.585232|0.205241|0.419098|0.371273|0.447152|0.471090|-0.006655|-0.017826|0.675160|0.684281|0.648922|0.253224|0.223656|0.931039|0.227820|0.002271|0.151360|0.001041|0.307859|0.981924|0.349264|0.789432|-0.044211|-2.576373|-2.575923|-2.632527|-3.829597|-6.267950|-1.795276|7.355025|23.447945|14.459615|19.520989|23.040174|16.291978|7.987536|4.983294|4.223671|0.543744|1.008660|0.642380|0.081642|0.247717|0.866035|0.018237|0.409628|0.798553|0.493897|-2.859399|-13.859122|-32.852659|-58.357524|-48.526474|-44.605218|38.921311|-2.339315|-55.404273|3.600298|56.591316|34.383802|-0.755832|12.860639|-31.315078|11.143520|9.542515|17.539052|13.084086|0.641079|0.859023|0.806287|0.667864|0.448970|0.585522|0.811245|2.159880|-3.407872|-35.015065|-75.337831|-106.423682|-94.559827|-41.956287|-35.426970|-124.581961|-90.552090|-2.749155|96.559156|17.904892|78.346772|82.925460|129.857442|151.612444|244.663659|197.734515|125.224927|100.414792|17.693650|0.427529|0.061785|0.034819|0.968220|0.803748|1.096857|10.236619|-12.573680|-86.839547|-175.689270|-163.213259|-125.507944|40.474724|99.707373|195.351526|198.589511|126.866987|7.655479|140.751813|305.562359|222.290738|163.272453|160.074596|181.021560|255.230528|278.356360|198.558587|68.338231|25.294395|0.061704|0.804883|0.191796|-1.613224|-9.307991|-17.425969|-67.943279|-106.214050|-50.888380|70.391420|123.210834|209.747064|155.006372|199.881907|116.308780|57.474172|126.946930|206.099511|429.453697|346.443480|283.114036|357.690407|272.934325|317.898069|318.595784|255.897051|147.313547|46.109347|3.601994|0.344803|1.242870|-8.198943|-30.013268|-43.969042|-17.936474|-66.175554|95.100879|246.171797|255.728957|271.457672|184.685381|152.491749|7.300983|29.574682|112.734461|210.915663|347.190143|387.194307|211.391616|206.678027|181.706549|190.095189|215.934766|173.004621|142.572073|48.943020|8.740263|0.506160|2.608202|-3.910449|-14.763406|-29.594556|7.571251|-0.572329|33.200828|130.326255|105.259162|196.633893|181.938607|164.640657|-89.813895|-72.571407|-170.638739|80.440193|8.425827|8.785873|-231.181685|-170.294613|-41.599308|-123.377575|-35.892908|80.694279|65.173497|11.271548|-1.156987|0.959212|2.230754|2.039060|-13.811894|-26.766021|20.229323|-87.871336|-148.782309|-48.470655|31.120355|178.974532|109.091553|-54.569431|-133.688060|-348.388109|-401.164273|-473.248213|-557.333665|-601.245771|-679.290095|-520.930286|-398.526966|-426.084269|-282.256042|-56.571243|-3.606011|0.468573|-0.639844|0.051500|1.934796|5.241025|-2.846356|-12.982031|-35.136646|-113.901092|-85.820759|-25.076586|46.839925|-31.473269|-87.750988|-104.196944|-55.074468|-293.116012|-365.460099|-487.165646|-571.361111|-616.735970|-750.652270|-678.124168|-596.603121|-535.945263|-377.460195|-135.473232|-32.818207|1.113019|0.588333|0.595753|1.189267|5.599204|-10.005463|-39.899463|-14.346680|-63.357075|-41.612811|-68.621224|12.847385|9.888980|18.336629|47.892597|87.076218|78.809167|-15.019332|-99.536469|-176.275166|-325.397384|-499.912183|-545.167300|-510.098162|-459.418661|-321.075908|-172.263095|-40.972224|0.771436|0.133825|0.481485|0.310199|1.308430|2.072325|-46.815296|11.476977|-49.745183|-3.666655|-42.925799|-159.578377|17.271104|271.894486|195.119781|63.415075|22.257097|112.493593|101.150717|-43.320616|-55.420329|-102.748425|-306.039590|-324.642896|-340.012027|-251.647830|-174.406358|-56.661200|0.309446|0.901746|0.676611|0.734680|1.067835|1.675452|9.948663|57.161037|-7.623078|-73.082814|-175.961018|-134.619878|89.562156|165.818393|177.936128|70.385531|-22.411478|0.361533|-64.085347|-124.685817|-13.159914|20.030901|-79.342069|-188.034137|-170.683521|-204.557148|-153.316591|-60.209007|-0.385516|0.505357|0.279477|0.727005|0.850377|-10.388544|-38.519867|-21.389713|-48.563289|-245.670932|-224.291529|-42.357314|85.374338|31.519177|109.315695|-70.169311|-61.907928|-136.772322|-114.003285|-169.602791|-124.353470|5.618834|47.178923|12.980317|-55.333853|-98.159580|-113.818719|-50.632879|-0.490853|0.218387|0.123098|0.772525|3.047643|-9.822122|-53.410347|-71.394014|-231.803559|-387.704037|-323.090936|-130.647638|-107.743141|-43.663455|48.597672|-42.753700|-91.311571|-130.720750|-244.517842|-198.860188|-36.562017|99.782132|92.061684|82.348161|56.435845|-11.616155|-113.837633|-25.950828|3.475320|0.313501|0.543024|0.557753|13.875104|6.716249|-27.939337|-75.153459|-348.036228|-556.505858|-503.812632|-549.043838|-466.522023|-201.511741|-158.689337|-200.834877|-250.677874|-243.208946|-110.490256|28.110621|58.656235|126.976637|69.529840|166.124899|122.116800|29.436746|-63.355476|-17.523465|-1.485637|-0.103304|0.947953|0.621481|25.613905|38.468701|36.907706|-73.730524|-232.409751|-433.832664|-632.687862|-824.317041|-743.492899|-649.897634|-633.330461|-581.177914|-367.333141|-249.722644|-68.878900|68.740344|254.409409|89.226336|113.191717|215.433565|132.745659|35.455991|-1.932418|-18.185607|-2.924761|0.159347|0.288222|0.933977|34.973908|65.159999|99.593395|-10.792646|-56.447200|-201.600136|-456.172963|-593.887228|-703.085670|-728.554486|-692.477684|-510.456370|-353.623435|-187.897985|-87.052589|171.299592|125.557220|105.964671|82.496108|121.296071|64.491952|13.175799|51.528202|-12.057798|-0.077219|0.561335|0.904371|0.564675|14.616532|41.760452|88.956923|100.184395|118.712781|-7.732693|-22.769526|-125.331767|-263.625339|-365.081241|-377.831325|-337.146017|-103.888204|-19.922198|-73.451034|-66.015887|-21.361478|-25.572482|27.645426|42.708606|46.988041|69.764916|37.943443|-5.841774|0.075951|0.677077|0.425793|1.486632|-2.830665|55.256101|122.308575|115.521772|-18.517100|64.909039|169.030354|11.023359|-30.782256|-20.874666|34.777307|220.498249|100.521031|-26.564813|-62.372359|-46.489452|-21.911410|-95.370228|-55.026735|6.067802|92.579113|75.816498|-0.279989|-6.492461|0.313676|1.409291|0.822343|1.359670|11.106155|45.748441|141.514443|77.938038|48.635750|221.499295|310.027984|119.549465|99.255635|218.744267|304.117601|341.476898|172.890950|-21.610361|14.674887|36.870476|-32.787128|-103.200100|17.535770|52.014106|86.417925|29.005952|-30.237126|0.136832|0.814223|0.382753|0.814578|0.832652|25.774789|46.559653|110.772830|107.556247|-52.814950|54.275687|203.531090|130.118010|216.921758|261.629594|234.540300|247.925974|153.422806|98.653704|187.973469|172.515385|-37.409685|3.926924|-2.980191|-16.831064|21.496042|8.092462|-9.143417|-0.310778|0.813140|0.890553|0.078748|0.782513|15.182739|29.968921|45.865098|91.941175|21.150218|-4.333157|81.607433|179.104643|202.910090|249.162776|153.415393|96.715162|79.067650|58.333229|87.847334|82.383298|5.418107|-24.339068|-5.205234|6.085717|42.477211|9.283527|-2.366415|-0.943948|0.681856|0.284605|0.073974|0.592618|11.691475|12.659563|13.892315|1.798468|34.492029|91.495832|125.375722|270.772187|175.245513|87.111244|118.129648|16.914031|10.170010|54.012626|85.377830|103.646320|22.240369|-13.442867|-11.063420|16.566853|26.757881|10.276382|1.125140|-2.152130|0.262611|0.092426|0.638361|0.418526|1.232705|7.528171|12.555060|19.632934|36.381039|62.354498|61.403497|66.360423|63.667871|67.571557|14.529139|33.255226|76.532053|101.474528|100.293477|31.992137|-8.856683|5.300157|8.513072|11.704084|11.432045|5.813938|0.062373|0.997117|0.042872|0.243928|0.274008|0.708360|0.336354|0.910979|0.070359|-1.860523|-0.261959|-0.712365|2.479457|1.181286|-7.996107|-3.603581|-17.188917|-16.194953|8.891020|7.109612|-9.246153|-26.145617|-21.878730|0.654094|1.445507|0.841167|-0.656799|-0.243507|0.382655|0.069528|0.725304|0.419226|0.069272|0.773294|0.663155|0.343280|0.481654|1.005860|0.266136|0.652696|0.760840|0.799395|0.906998|0.017490|-2.206511|-3.575156|-0.794694|1.104270|0.966782|-0.294483|0.567768|0.275649|0.634969|-0.292409|0.574016|0.280962|0.745065|0.495606|0.805361|0.126978|
~
0.565134|0.530665|0.546204|0.634406|0.303958|0.209359|0.977685|0.785612|0.208868|0.233334|0.394153|0.921761|0.116082|0.146449|0.900763|0.483826|0.411600|0.144920|0.254815|0.583361|0.436039|0.914241|0.881738|0.146779|0.941440|0.854187|0.450277|0.686505|0.349793|0.255638|0.813483|0.914927|0.786303|0.360649|0.597969|0.205084|4.227040|10.956994|-4.376074|0.370784|40.271154|12.823708|2.853732|-2.418322|2.641093|-1.618945|-27.026700|-11.983017|0.378594|-2.552738|-0.383099|0.138700|0.526897|0.287447|0.327641|0.468337|0.141635|0.777918|0.154844|0.491555|0.034153|0.992093|-6.130435|-2.820599|9.444757|19.478972|40.235592|94.633489|134.431614|115.614647|7.020092|-14.603941|127.093011|150.040493|62.652483|18.162017|26.880001|33.532435|14.919202|-9.660619|-11.408279|-1.290211|0.900234|0.614486|0.982274|0.227875|-0.609935|-0.386781|-0.239964|-1.884060|4.573033|11.613161|79.137860|126.318268|119.516725|232.407778|256.526157|188.781506|46.274747|-58.413055|66.158220|-69.261312|22.276601|68.902720|113.213261|80.069954|13.113979|16.284537|8.703473|0.956140|1.995198|0.382747|0.062051|0.074833|-1.379091|-3.149170|-7.111378|-23.262771|16.950365|67.156476|153.450771|234.558744|332.409880|463.410836|489.356320|314.762376|276.948313|98.145509|-44.415070|19.088264|179.548918|271.179956|135.624801|14.270855|-68.648878|-52.107007|-41.639918|-13.951251|0.588374|0.065744|0.588376|0.705304|0.350450|-15.141293|-41.363613|-21.695224|115.040899|113.918977|156.232926|238.897076|358.780626|318.194553|352.716645|283.616363|141.301341|3.442521|173.202647|176.758808|198.604335|99.607624|-47.216319|-148.281667|-117.061122|-151.804182|-83.813193|-25.982224|0.867777|0.389917|0.818526|0.110099|3.980709|-13.771856|-47.114874|42.418485|73.935878|64.869454|30.675894|185.459421|-2.744501|-116.404905|48.468609|81.705021|-11.207364|-9.461730|47.381280|144.515485|10.991502|-226.013195|-126.022568|-159.327297|-262.484876|-279.869921|-134.061015|-81.394277|-12.852268|0.799485|0.747306|0.191577|14.711242|-1.121436|-30.906601|-18.404719|-51.287154|-107.988731|-99.623837|0.355201|-60.991478|150.697308|6.719489|-42.066996|59.663258|-59.193494|-102.691262|-95.202279|-158.282935|-211.430992|-96.378318|-152.552370|-214.682152|-405.978213|-178.082307|-98.805707|-38.279140|-6.795236|1.021671|1.799381|27.057812|20.379886|-16.492305|-60.282529|-103.361882|-95.746969|-66.132468|-46.986080|158.839768|299.142478|276.766244|25.086860|98.546173|63.571018|70.996025|-191.335880|-299.590517|-77.245822|-196.552741|-221.835344|-256.891055|-349.687086|-201.125532|-95.560429|-17.797155|-2.839454|0.191462|-0.312846|31.838008|25.625433|31.142524|13.622381|-10.472172|-74.388760|6.987565|71.475354|125.762800|57.762185|-24.389617|-135.941183|-52.702197|-36.088082|-65.319396|-215.800638|-228.386714|124.939547|-41.309509|-186.009369|-208.400833|-326.205638|-194.516556|-113.348537|-48.382606|2.365516|0.054792|0.476909|19.068645|5.403478|-100.998434|-3.366636|-61.597435|-211.463956|-182.537196|-187.373318|-111.288072|-297.797639|-482.716598|-546.135337|-376.127065|-344.922640|-39.543843|-234.124626|-24.181316|6.495089|-61.555692|-134.590970|-199.902721|-277.047346|-226.937724|-154.317406|-59.498910|-8.701706|0.033000|0.201340|0.754838|-53.360516|-151.652888|-209.317581|-285.827598|-425.867474|-505.604821|-606.571765|-594.166046|-759.862561|-910.419509|-846.371210|-697.482250|-391.639884|-210.437875|-263.840725|68.317910|-79.365260|-111.508996|-72.408033|-214.152758|-162.596189|-171.523589|-123.429796|-62.629269|-6.996506|0.435298|0.915014|1.812491|-78.638950|-209.701674|-428.245944|-591.413370|-632.888919|-654.363595|-795.875937|-906.577495|-719.703917|-733.044170|-658.371813|-554.961609|-336.007047|-281.098688|-326.622657|-98.450631|-32.650073|8.395983|-101.634754|-117.174834|-78.509918|12.732734|-3.865120|4.249400|3.201161|0.682759|1.136123|0.568903|-70.817490|-248.192452|-440.218188|-654.082480|-503.146672|-474.017199|-374.927327|-413.544730|-194.460087|-162.021205|-92.850522|-21.250230|-273.804714|-71.273977|-324.313553|-128.512555|-71.137462|-127.541785|-112.256896|-216.663793|-84.022768|80.899395|59.936174|33.994772|12.047260|0.788998|-1.327462|0.634590|-70.701358|-235.821808|-399.136658|-493.787362|-185.675996|37.671970|224.470514|74.249586|203.025259|232.744836|257.903970|231.634602|-1.305622|-47.405647|-324.116792|-73.760063|-147.884805|-201.788707|-166.412378|-137.275928|-83.008995|82.426135|96.784335|92.683922|1.530346|0.581404|0.098615|-14.333821|-83.544152|-208.421867|-204.776263|-191.955379|27.876495|172.964433|274.008025|146.389118|91.437565|14.382029|210.574043|118.525188|14.775561|-65.059449|-133.686439|-274.554446|-340.363784|-351.098793|-281.950980|-170.855685|-31.642306|140.696655|159.417289|67.143570|11.841203|0.449521|0.034299|-23.186076|-84.896991|-131.759516|84.099177|172.252423|282.574147|263.442509|240.359384|201.083252|359.398267|315.920219|290.223876|268.272187|183.863557|9.893113|12.076241|-264.911077|-303.244692|-312.462289|-122.371380|-54.829969|78.432981|242.495634|242.708784|73.035607|9.474666|0.462583|0.933283|5.581482|33.594374|97.304174|362.622920|406.209225|346.634787|316.532863|161.808809|401.545441|424.801502|391.695163|387.934552|340.398223|278.730778|-29.516733|-50.302115|34.513092|68.037669|77.672269|108.466369|-7.604097|153.376095|362.885199|304.658989|70.336741|9.431497|0.601011|0.477303|-21.949929|99.715654|264.113269|333.194082|300.099503|405.115535|276.959689|254.515160|434.774164|396.485362|531.929981|421.778965|125.701105|144.905220|113.280851|163.397419|127.157949|113.417194|101.754054|218.375750|142.012295|334.525970|403.350127|276.181417|51.972751|11.181741|0.341044|0.900282|-27.865599|55.560560|253.474802|222.373494|244.023922|313.644761|258.189666|130.904861|439.210102|600.776772|638.525348|472.132696|237.795936|197.173636|132.982506|126.795986|69.181325|130.810940|187.808503|384.106778|354.871076|376.125937|289.864191|157.179966|40.458125|2.245586|0.743600|0.401182|-0.029183|103.836195|280.169191|265.246211|186.276676|231.481542|129.733632|85.232211|218.270986|318.218834|276.244330|155.946313|11.700467|157.710829|20.655305|-42.436331|110.631381|317.900690|242.505306|365.138955|470.107348|520.843005|284.576199|75.190260|20.550019|0.968176|0.992569|-0.576290|11.698747|64.829888|185.518248|273.230304|55.846756|67.683094|131.414793|46.446878|88.066664|115.076481|-132.544517|-70.946993|-104.423643|-43.083517|-117.764576|54.388698|148.559318|208.050855|173.485432|352.779280|510.302351|451.869082|194.292880|80.323542|12.295993|0.169843|0.074915|0.158796|22.310181|43.180591|131.360689|187.760400|106.824760|19.944837|-62.478220|-36.006782|-99.599644|-95.046244|-170.261897|-275.407920|-406.844621|-306.733146|-292.814576|-288.277450|-114.172073|69.340828|96.966227|248.643406|242.562061|191.569799|104.139406|48.545180|2.036473|0.899312|0.669273|0.184596|8.446268|23.794630|33.993089|36.813917|-47.808595|-115.792704|-158.603248|-70.039349|-222.107121|-251.742950|-228.702119|-388.400708|-418.657353|-355.051386|-371.436169|-343.344650|-172.380170|-92.963791|-28.171054|36.200929|0.610945|21.184036|25.576900|21.246952|0.611805|0.287056|0.303464|0.916826|0.067520|0.438777|-5.714899|-58.969037|-138.175924|-244.904664|-297.080080|-311.209684|-393.781664|-395.515806|-239.025226|-212.973462|-256.632134|-258.134587|-278.140196|-241.709001|-188.472220|-171.374908|-160.528987|-142.440435|-123.395380|-40.282458|18.623483|22.810757|3.125193|0.811446|0.426089|0.096015|0.093886|1.559406|-14.627497|-14.148891|-6.251028|-38.398589|-124.515049|-163.491308|-124.841359|-47.840293|-7.931455|-18.350881|-12.512269|-7.231737|-35.599392|-43.217994|-48.641450|-50.796919|-74.117815|-62.609352|-56.814939|-12.745353|1.988997|3.335651|3.892876|0.170254|0.746765|0.673985|0.981700|0.172712|0.067154|-2.269117|3.268592|0.837713|-12.753493|-25.898859|-36.739567|4.346158|-3.220514|-5.073436|10.062041|17.970229|12.015920|-5.253856|-13.492912|-11.440546|-12.144530|-5.607476|-0.985244|0.301428|0.090552|0.508895|0.590997|0.807741|0.121502|0.218357|0.977995|0.868267|0.892342|0.966801|0.062099|0.761336|0.141829|0.799181|0.374271|0.044329|0.685444|0.024696|-2.644038|-2.031499|0.106740|-1.127755|0.318761|-1.392860|-4.584097|-0.633966|0.062248|0.245652|0.135665|0.529738|0.101073|0.229591|
~
0.038632|0.692070|0.037332|0.160135|0.910427|0.015328|0.028402|0.802769|0.975024|0.069522|0.465110|0.014921|0.012824|0.909576|0.419643|0.561261|0.252574|0.730328|0.133280|0.050993|0.946119|0.676261|0.248210|0.981218|0.280064|0.635319|0.235522|0.415729|0.165057|0.336595|0.645320|0.203689|0.028666|0.682810|0.368034|0.942480|0.679900|0.275611|0.586935|0.597934|0.438450|0.129736|0.635189|0.350187|0.081515|0.047991|-0.160796|0.228910|0.757700|0.085366|0.370809|0.778560|0.845610|0.669040|0.765482|0.125673|0.304359|0.001005|0.541402|0.469616|0.337640|0.187230|-11.131585|-12.888272|-3.986556|-2.256897|-2.228155|-0.704214|-0.897240|-1.586871|-1.752999|-1.470769|-2.613475|-3.895357|-6.305434|-3.533841|-1.785191|-0.814224|0.180187|0.471643|0.455790|0.187765|0.658513|0.416723|0.831165|0.423995|0.547596|0.132672|0.395181|-0.012304|-11.251490|-13.702483|-6.525787|-4.572006|-9.940749|-15.614315|-14.033759|-13.999979|-14.132828|-15.070319|-24.900991|-21.874728|-19.589867|-8.101029|-3.631568|-1.775967|-0.556001|-0.354719|0.058877|0.859830|0.783856|0.973603|0.010514|0.444766|0.407648|0.726707|0.036158|-1.509679|-13.418428|-16.303604|-26.650617|-33.873305|-28.287392|-42.997329|-43.702652|-40.608066|-43.865497|-54.657913|-57.579645|-50.970289|-20.965621|-13.672233|-25.988228|-28.240919|-25.553769|-4.674058|0.376355|0.882565|0.846309|0.946483|0.792017|0.655964|0.932865|0.572257|-0.565130|-5.035719|-22.734658|-26.002050|-38.841653|-62.545931|-72.374733|-78.763288|-76.724356|-87.636722|-98.964039|-107.054979|-121.797801|-97.447903|-79.443793|-51.274583|-48.020630|-46.711554|-37.370179|-15.180646|-2.389306|-0.595848|0.178060|0.265387|0.005335|0.028111|0.217950|5.495074|9.087632|-0.512183|-20.327249|-37.120101|-17.109038|-59.822051|-91.331015|-113.093762|-138.337724|-162.202021|-156.519835|-173.899586|-147.153074|-160.636213|-148.675127|-99.118073|-44.531987|-6.672873|-24.994540|-33.431059|-22.379309|-11.715893|-7.314014|0.250653|0.270450|0.005205|1.775651|17.790367|23.687993|3.685775|11.627252|-12.462239|-22.571268|-95.836696|-121.033614|-124.994750|-108.780578|-93.055106|-101.395925|-80.137549|-59.352079|-72.989066|-104.891990|-73.186720|-16.499839|-19.367442|12.420768|-25.025586|-24.401974|-26.530370|-14.986997|0.886968|0.717397|1.377785|10.386859|28.611603|28.198323|40.288351|34.412703|49.055123|0.751416|-53.348710|-15.440236|20.543752|4.498432|-97.310659|-106.452202|-39.178455|-0.182885|-32.729735|-67.781872|-62.456672|7.630409|11.978857|25.385401|18.069682|23.994689|-15.789569|-6.436083|-1.036142|0.179760|4.645661|13.707123|45.556888|68.629211|77.846660|117.163564|136.718849|87.793334|104.358026|95.227725|85.411142|79.855111|0.395965|-7.196674|41.547354|115.392104|94.289906|57.684048|50.718614|85.743966|114.223255|36.287429|1.261671|18.446699|-11.884731|-9.899775|-0.260924|0.442452|4.814561|29.163035|68.322811|77.915886|98.085363|122.182360|138.896040|162.980719|198.208095|204.147708|163.891627|115.618028|115.280084|99.337822|24.404878|92.506976|117.761933|79.868467|75.491404|134.932640|147.761298|62.743865|13.581255|-22.904029|-14.745756|-10.050922|0.029001|0.855152|1.912409|24.296628|51.573906|65.896580|68.967787|111.303898|149.080740|175.100338|218.488994|247.476624|202.764121|95.974122|23.452688|-26.481192|-11.972246|45.641833|61.491838|127.788075|95.192578|45.371229|49.071951|78.572900|8.297089|-28.045760|-12.136229|-13.093693|0.930139|0.707931|2.893668|7.493766|3.034704|22.310790|24.903931|24.839619|167.882123|168.371378|208.249645|173.410722|72.523037|-88.730389|-165.378043|-127.823660|-85.209311|26.540606|34.954483|104.064232|9.474068|19.550496|-6.858053|39.956963|-16.662431|-10.334291|-0.723333|-5.755790|0.414397|0.428165|1.049953|6.127538|0.274567|-34.929826|-35.627976|-68.211202|33.030808|98.921044|80.870164|26.737743|-90.353148|-202.685053|-254.857710|-221.810019|-186.494073|-117.965476|-37.869002|68.912377|-33.676286|42.306500|19.924277|22.007089|-2.571779|0.786036|7.822823|0.925978|0.733117|0.401146|0.054497|2.089406|9.482770|-56.412562|-49.624331|-57.649145|-46.676619|19.883754|-5.511385|-29.450582|-210.798406|-272.092234|-322.507062|-289.224599|-200.487191|-59.185789|1.785132|22.879987|12.031563|34.169240|26.642328|18.924722|8.073274|17.989413|17.559544|0.662672|0.162602|0.897882|0.986389|4.458622|1.858648|-33.389967|-51.313251|2.627595|37.743217|15.292592|-32.049283|-163.859859|-340.627849|-374.766075|-396.351751|-253.320496|-106.620261|-1.521319|37.458181|15.549810|-46.933203|36.700434|21.922243|6.346128|6.928007|17.991794|3.651109|0.996461|0.874161|0.898071|0.891238|2.796917|0.310904|-25.786806|-49.602331|-27.273839|28.421089|22.196887|-75.929831|-242.057554|-339.139995|-376.611645|-310.340563|-101.225110|-30.549035|-29.029442|43.654973|-24.299043|-37.324987|37.631978|12.559278|-22.242207|1.090825|-9.400215|-10.349093|0.468336|0.455944|0.515107|0.714408|0.344759|21.388595|4.948275|-15.941090|-56.255235|-40.119202|-44.457036|-104.970819|-216.684332|-272.411918|-270.655660|-123.051979|34.095802|58.616415|61.353455|28.499373|6.639496|-17.549710|6.696926|28.014553|-2.496657|-29.827239|-6.629005|0.562033|0.878688|0.676126|0.441871|0.657871|1.156407|25.133931|19.809276|-4.674125|-58.287766|-95.385446|-119.181722|-144.366225|-195.471625|-232.635441|-179.237551|-11.417110|80.316998|77.297704|20.236172|-0.694209|-19.869615|-28.573164|8.522843|14.532766|-29.516287|-41.754248|-14.562532|-1.385010|1.254904|0.821032|0.831786|2.635932|1.880601|18.782188|20.903139|-20.133563|-73.126852|-114.986112|-150.378437|-182.969030|-211.952583|-185.772142|-69.794979|17.951375|29.812117|-49.426763|-20.924451|-37.558183|-42.390050|-39.528456|-52.736175|-59.213524|-82.132901|-53.795649|-14.026237|-1.415829|1.161745|0.094779|0.693365|0.803026|0.756693|-12.930275|-30.430182|-50.940441|-113.516552|-150.960094|-175.125987|-197.980021|-113.931495|-46.112584|-1.520268|-26.826610|-29.653884|-81.179581|-64.550797|-11.667005|-36.937473|-46.481003|-91.425876|-99.507040|-102.375823|-59.172120|-5.344239|0.518787|0.560868|0.973094|0.636705|0.327972|-0.435176|-21.581984|-54.236163|-66.348092|-115.837418|-172.791691|-175.798069|-146.806911|-58.455892|-42.826660|-14.361358|-82.195581|-96.055149|-59.736489|-26.075329|-0.354013|-16.177401|-45.691368|-75.545453|-91.373611|-78.487147|-27.744549|-2.424780|0.089830|0.476766|0.358535|0.400910|0.973854|0.300984|-21.018008|-42.357727|-49.964576|-81.879481|-120.025244|-115.130992|-53.835800|-33.372592|-33.869435|-65.005944|-89.177576|-28.872016|-13.333418|-10.915649|52.034058|19.776820|-32.663696|-39.618059|-65.652975|-48.696992|-20.740012|-3.043852|-1.062480|0.286692|0.231164|0.447805|0.851333|0.495720|-7.681951|-19.188420|-19.401143|-24.700334|-26.053677|25.918409|0.264293|14.319403|-0.297371|-37.045687|-27.927623|18.289090|38.090849|68.879011|109.107479|33.004127|-27.779899|-27.023135|-39.668474|-29.767343|-23.864151|-1.190985|-0.840678|0.625473|0.669312|0.161571|0.042597|0.789646|-0.096930|-1.039425|-6.706959|12.206362|48.971329|64.135484|62.291188|70.916054|17.502062|11.175149|32.097902|19.399305|41.924554|51.973837|86.932999|-13.207360|-19.920348|-12.878630|-31.922861|-21.270774|-22.980106|-0.663827|-0.153870|1.002153|0.843871|0.991615|0.717999|0.424900|0.183687|0.194877|0.180879|22.843070|61.249987|66.268978|73.741614|81.447152|22.868926|36.650023|97.726024|127.234231|107.259966|107.882581|66.355942|-16.280771|-29.043204|-37.104017|-17.677047|-8.583821|-8.383894|0.036536|0.833940|0.545867|0.113827|0.024478|0.546271|0.957699|0.014573|-2.029147|-5.113842|8.801868|45.795756|56.649571|41.503978|-22.095857|-13.689362|31.258687|34.490700|120.242106|124.399581|95.341410|24.878202|-26.546492|-14.021386|-27.253405|-16.333255|7.452499|2.324728|0.789649|0.294740|0.624327|0.795160|0.130235|0.170674|0.908987|0.154713|0.716945|0.875411|0.203350|1.169334|1.042740|1.790504|7.244112|-17.751010|-23.365231|5.902101|27.508234|28.437431|11.880757|7.496280|8.029672|6.080598|2.309532|0.529311|7.221221|2.960472|0.144252|0.179030|0.554758|0.933245|
~
0.473770|0.179084|0.728405|0.604005|0.349758|0.637392|0.758718|0.066703|0.504078|0.929523|0.047917|0.841646|0.270295|0.056841|0.065246|0.541597|0.739469|0.074237|0.965969|0.477980|0.187268|0.108057|0.492456|0.428390|0.131533|0.405178|0.090162|0.275785|0.584208|0.644920|0.209030|0.057979|0.824004|0.937187|0.648386|0.142551|0.519816|0.398641|0.265992|0.070012|0.284146|0.286486|0.799838|0.411050|0.223492|0.910934|0.196280|0.034287|-0.074781|-0.028172|0.471248|0.243963|0.235394|0.052285|0.674199|0.366927|0.457463|0.764361|0.642714|0.041826|0.409291|0.850860|0.073946|0.171012|0.349905|-1.493696|-2.111656|0.551084|-14.335709|-17.110154|-1.368100|-12.882031|-38.221411|-33.144955|-7.483436|-0.227792|1.872884|-0.766039|0.111650|0.590318|0.551769|0.933122|0.652112|0.676492|0.972235|0.326311|0.046979|0.383043|0.070200|0.785367|-1.100883|-8.297915|-10.833253|-33.817038|-24.761676|-23.057519|-45.705396|-72.799243|-111.276475|-139.616768|-130.580301|-103.725728|-82.099126|-18.131349|-18.497991|-22.155092|-32.311252|-19.543021|-8.285989|0.343062|0.298803|0.954797|0.282035|0.903591|0.638925|0.953039|3.045868|18.244037|11.633198|-8.659668|-38.752884|19.187769|114.163026|112.029188|-87.357039|-118.279689|-125.344229|-67.461427|-28.329600|35.649364|-10.585591|-70.954249|-115.638992|-17.833859|44.617645|45.948931|60.200907|32.486723|0.543890|0.296845|0.569592|0.644863|0.289726|4.852924|11.598029|27.671082|34.285221|10.419057|28.805017|89.756997|150.924363|142.954371|81.237396|42.089682|24.500510|3.403662|1.899702|210.368674|110.061749|-79.601585|-151.362259|-66.561068|73.966889|154.725173|173.705879|99.911049|22.701101|0.749659|0.062207|0.990406|-1.141950|-10.038097|-12.055501|13.356262|39.407673|7.867934|62.446381|202.915414|326.927154|185.938581|65.908588|54.787441|-31.520969|-162.799371|-188.714060|-49.349721|24.320166|163.346739|75.120204|139.042049|278.967632|292.389876|280.967085|162.590498|32.692167|3.573585|0.138580|0.362821|-5.667546|-28.242269|-40.019758|-33.710165|-43.101622|-15.671396|244.159705|386.467250|398.488877|305.652376|54.370566|-31.002547|35.417918|75.898854|173.844855|144.777989|185.721846|288.155299|223.319666|225.919158|293.207360|308.026355|306.576347|161.879041|64.238013|10.844955|0.672552|0.363948|-2.844783|-15.809752|-82.418512|-145.999711|-138.414941|-90.163331|186.465994|254.914321|204.593770|160.863166|119.737525|143.711783|140.827538|132.445077|254.702650|51.575657|79.729558|99.528389|151.548114|156.442555|193.696075|318.462787|322.486647|164.153924|28.780567|-0.615843|0.146863|1.038554|0.351726|-30.673755|-105.016631|-183.701434|-173.878830|-132.171519|129.063604|44.810168|277.505297|390.092742|187.077863|122.373027|-1.721153|-75.837449|-126.644993|-270.264500|-421.140837|-284.225490|-275.475599|-231.177902|-142.138142|123.436304|209.247733|106.171322|44.198840|4.237410|0.193994|0.649590|2.395679|-23.243690|-47.092514|-82.813623|-189.519452|-84.525192|166.826175|87.660707|261.089923|435.783219|249.631467|91.030974|-232.543879|-400.949381|-443.303953|-589.277372|-544.545710|-665.984482|-614.394138|-518.764497|-388.666013|-68.126410|38.802488|31.337929|25.396329|9.359503|0.954767|0.118311|3.292626|0.844805|-2.163679|-27.587990|-100.314137|-125.947108|105.621370|199.852246|351.042062|200.047560|110.191496|-10.068125|-339.061425|-414.961190|-378.489866|-323.810957|-361.122710|-489.689234|-625.777879|-587.881516|-450.931476|-168.468133|-56.645143|-15.866043|5.729837|5.918314|0.975736|0.490726|1.155721|48.879413|16.350001|55.408841|33.498061|59.043336|175.263875|229.125573|342.948036|305.075658|87.458340|-186.184706|-425.077813|-470.225555|-434.556275|-325.699277|-227.640274|-244.236156|-326.891148|-305.164884|-316.288190|-172.656519|-114.958513|-35.325720|0.719929|1.033242|0.018560|0.289289|0.741470|38.240771|68.579075|168.159332|187.624784|150.592915|160.901186|271.160382|291.073883|221.563006|26.840141|-133.261095|-318.087526|-570.602396|-518.314863|-509.799297|-315.541747|-139.646441|-70.302016|-22.544368|-25.151888|-103.646077|-99.770243|-36.397756|0.603352|0.891608|1.043098|0.140357|0.514202|8.519350|0.927420|74.782316|153.294914|130.530047|216.517426|444.458453|295.633825|12.685904|-53.481890|-164.362661|-214.551444|-300.866554|-368.457206|-376.627091|-343.242133|-222.667638|-43.445916|35.493006|96.209741|45.685276|-42.200197|-29.530425|-1.342216|0.138895|0.064069|0.140928|3.094172|-4.995886|-94.932821|-47.312459|-22.347489|43.135202|140.055952|294.690513|128.732624|4.024596|-105.870619|-227.393141|-403.784345|-256.822138|-202.714306|-182.973263|-118.466845|-119.666934|-51.479344|3.611973|114.652254|125.577973|-11.244454|-12.759568|1.663498|0.706396|0.108439|0.465402|4.681672|-0.102825|-106.174313|-104.170477|-225.700658|-250.513312|-91.200377|22.753303|-8.244881|-67.134391|-219.650115|-242.780890|-181.783248|-148.793600|-47.489961|60.884254|52.761712|29.307981|-18.271662|75.411147|109.825072|129.606709|49.161183|-6.418193|6.450843|0.918398|0.851339|0.704939|8.422874|11.082474|-44.659172|-146.638701|-218.889263|-323.936024|-376.604120|-289.146082|-287.821232|-224.888050|-320.660429|-428.987244|-347.175627|-303.179578|-139.885078|79.606212|232.587561|60.166007|62.281137|154.263176|176.114695|108.783760|52.513881|-13.984901|-0.006988|-1.213182|0.708024|0.660109|9.178065|22.528673|24.094857|-125.485518|-214.739977|-248.650551|-438.011009|-406.890252|-616.295013|-579.991670|-561.143962|-623.805140|-518.140834|-363.603006|-206.063054|9.888383|59.014599|109.060225|115.442779|124.572000|202.657222|51.634294|43.314371|-11.993386|-10.775183|-3.985171|0.462283|0.936524|11.343109|4.515829|12.067469|-48.857493|-88.851967|-169.460707|-251.866006|-355.756766|-466.151607|-549.942618|-531.977260|-550.476780|-450.821876|-249.716382|-126.751313|-91.536008|-30.691315|97.628204|75.815441|60.454080|159.415317|63.615653|30.740759|-3.795353|-2.673103|0.442046|0.507768|0.818149|3.114698|-2.880063|-28.478639|-19.830391|-109.994778|-85.879709|-82.321276|-226.806971|-242.277140|-205.320910|-148.791981|-150.876580|-367.193830|-245.054692|-74.730623|-98.524744|75.892470|224.556300|114.600033|69.507385|170.192132|84.208815|2.057630|-4.543742|-0.028663|1.368355|0.501748|0.670425|1.767020|-11.082668|-9.921668|-35.722700|-26.398433|79.116507|115.424446|-33.590311|-3.500388|71.722732|155.209414|65.529252|-87.174647|67.010569|180.875201|142.727687|247.486709|209.652885|108.633364|71.057300|129.595404|50.920591|-13.535890|-1.772883|-0.151332|0.124886|0.203373|0.223035|3.173842|7.996604|32.296875|5.465227|-28.284326|18.584987|117.822195|104.669115|72.992529|252.115030|311.869109|159.103258|179.494374|245.266242|310.771847|304.198008|96.186173|42.368836|79.220252|16.452127|55.869215|32.804558|-6.815063|0.205768|0.646644|0.143339|0.563193|0.846408|0.744770|3.449310|3.834208|25.824058|28.144934|47.565053|108.403293|172.220649|235.247157|305.543640|323.209840|250.021551|232.870099|264.275590|242.940837|238.988843|8.896117|-25.464939|-34.338601|-54.031930|46.023548|17.932262|-4.956091|0.661902|0.505975|0.225924|0.278071|0.128990|0.224541|-2.572883|-18.582881|-26.068073|18.763133|99.972823|136.994345|186.027925|158.386174|151.055792|221.992636|189.456543|161.038285|187.496710|169.899560|125.249093|-24.463631|-95.358690|-65.506795|-38.462650|23.523781|-1.130228|-1.190616|0.384409|0.462314|0.175624|0.229426|0.952779|0.402780|0.558208|-3.810325|-1.823293|13.883799|26.932070|47.695797|35.275626|49.065319|84.113515|114.451474|128.592964|26.239850|119.652822|205.621903|153.352898|76.406371|29.504545|1.968203|35.701396|55.776864|20.628377|0.754606|-0.006242|0.987102|0.388055|0.528570|0.463072|0.563680|0.757959|0.371627|3.751509|8.336118|5.724788|25.847912|23.393217|-19.951654|16.650772|15.136122|-47.348175|-41.649423|34.000587|63.186326|39.585565|3.590165|-4.877362|8.478212|18.175237|11.955979|0.322808|0.646339|0.114380|0.327106|0.285368|0.129885|0.320565|0.673423|0.658455|0.783637|0.241160|0.412859|0.176390|0.189579|0.651156|2.416022|0.773756|-2.699042|-3.841004|-2.779033|1.289284|1.789200|-0.231785|0.411699|-2.157597|-9.079294|-2.136407|-0.283345|0.414012|0.743411|0.334702|0.888733|0.394886|
~
0.449082|0.215839|0.680254|0.578967|0.536404|0.353678|0.237422|0.320042|0.590781|0.653873|0.519531|0.793111|0.336500|0.218311|0.731673|0.632025|0.468540|0.814176|0.499101|0.377248|0.938137|0.973376|0.067249|0.962009|0.357375|0.076010|0.391414|0.100786|0.410712|0.280147|0.495673|0.859793|0.495986|0.176099|0.446334|0.046700|0.540031|0.664127|0.314439|0.131760|0.389290|0.885314|0.897035|0.570988|0.060998|0.585914|0.154992|0.445919|0.361312|0.732209|0.896489|0.397891|0.770366|0.001642|0.359297|0.127741|0.077652|0.750711|0.228527|0.484948|0.030942|0.722274|0.281706|0.464684|-3.391538|-11.268451|-3.671432|-1.930146|-9.657147|-10.365574|-10.364645|-8.571105|-13.992195|-12.714161|-6.336243|-1.566624|-1.984978|-0.350988|0.164066|0.419494|0.504424|0.375563|0.965027|0.324272|0.365417|0.324324|0.454249|0.458991|0.666836|-2.686631|-2.490259|-3.508973|-14.732714|-24.723376|-15.529958|-7.399386|-20.431427|-15.889444|-27.144070|-39.744008|-37.160346|-56.026587|-70.998537|-46.646634|-18.750703|-3.683586|-6.396786|-0.048333|0.400862|0.212695|0.425774|0.092606|0.552668|0.389686|0.424514|0.991476|-0.901345|-7.170925|-1.654584|-0.934504|-7.341075|-5.556910|21.663581|38.248799|18.431626|43.991110|42.728870|32.049153|-9.553479|-32.699999|-41.604580|-32.642954|-16.630462|-17.830329|-24.786501|-13.481559|-8.343521|-0.262865|0.896682|0.815744|0.658972|0.308264|0.904905|0.839443|0.673391|-7.668791|-11.070812|-4.776985|19.507966|40.442112|59.006125|24.663911|29.026669|105.147267|130.944108|166.738673|98.039713|61.455751|79.899252|28.153443|-4.375624|-9.396333|-41.841392|-28.117159|-20.406245|-6.316349|-5.856573|0.928158|0.347214|0.134810|0.642367|0.371572|6.796833|-2.176811|-11.999780|1.384657|23.014399|34.144767|42.425443|24.607227|66.348576|112.780409|111.024396|91.722914|65.155977|112.346741|87.523861|54.736067|-5.198924|-9.761726|-57.255003|-48.280835|-56.885208|-36.297464|-16.371404|1.365600|0.879343|0.765866|-0.610587|1.325304|11.201917|9.128966|-5.768449|1.766721|1.853209|40.130500|46.455049|54.103675|65.797091|46.987429|20.977971|9.303438|31.072813|89.715155|119.507935|86.605267|28.451292|-15.857141|-59.120161|-69.403535|-57.491571|-45.306206|-20.958329|0.086550|0.192029|0.340010|0.392567|4.977652|7.709811|-8.835429|-22.170932|-23.546885|-17.836400|43.975460|31.061098|7.873933|-20.684664|-37.744059|-2.891892|0.439220|53.597409|89.283812|138.953918|106.721925|39.308454|-28.444257|-39.797032|-50.317331|-43.092492|-26.790627|-18.999695|-1.015583|0.199079|0.209422|0.683044|1.085722|0.363852|-23.693097|-41.271161|-28.348308|-5.055802|12.925900|-24.794589|-41.750294|-72.997693|-76.362366|-79.631156|-99.950100|-43.517913|48.363980|178.432759|224.440527|111.299252|35.113455|-43.205232|-36.493134|-22.296697|-11.774998|-13.448796|0.175257|0.016347|0.625728|0.741328|-5.012150|-13.345532|-1.730329|-23.644295|-35.829011|-32.212764|-53.771263|-43.276592|-75.000472|-143.035079|-157.166434|-193.925717|-199.644237|-198.302138|-30.610935|146.997525|221.039725|116.287051|77.170682|-8.355483|14.899361|-9.603091|-18.648825|-15.221858|1.444181|0.192561|1.222242|1.019348|-8.085456|-26.729868|-12.771833|-20.561249|-13.401298|-31.634477|-37.859834|-42.448397|-99.232673|-139.351971|-177.633346|-260.736136|-267.162048|-273.891481|-108.066623|91.602481|186.677535|129.696518|55.867496|22.655765|43.987172|11.169004|-10.233374|-6.999599|0.170619|0.752355|1.459505|0.854430|-7.756366|-27.993594|-2.880384|12.318923|-34.390690|-10.386064|-6.828899|-21.251575|-48.364139|-73.267586|-116.734307|-210.791867|-218.432914|-199.808780|-120.147135|73.986255|114.278228|93.948812|8.938302|7.563187|36.488806|30.455101|2.238706|-1.085116|0.279333|0.895030|0.662953|0.682211|-4.606986|-21.004021|12.941320|48.583833|7.831870|31.374578|25.951754|-25.466826|-54.460766|-43.966328|-155.670882|-174.614341|-162.932809|-128.802804|-67.617278|63.971623|20.457004|12.542845|-9.235766|24.231319|15.131073|9.185282|10.253420|0.927226|0.676093|0.931258|0.514144|1.484577|-5.746429|-5.637141|39.749227|40.099918|29.424180|38.645979|20.570780|-29.356549|-17.971405|-37.404522|-129.974478|-122.337463|-116.685103|-115.861567|-56.110210|19.608448|-1.742557|0.472618|10.492841|26.896324|1.459625|0.324065|2.474453|0.489866|0.866622|0.630350|0.433680|-0.734006|-5.952822|24.668493|29.753670|1.905447|21.811604|36.769716|30.070832|-56.774387|-36.026835|-70.837317|-146.919895|-146.982932|-170.622068|-123.302712|-73.711026|-4.698402|3.700264|15.795410|3.990408|18.570725|-13.800143|3.624034|-4.744125|0.210819|0.665985|0.638590|0.526264|-2.788202|-3.208269|30.358448|1.079741|-39.224607|-10.283123|44.070183|3.779144|-28.132558|-19.966429|-63.075157|-154.410423|-184.932302|-162.488925|-120.910810|-44.078022|-3.682050|-24.414842|25.435086|-28.865924|-19.952523|-28.707599|-10.466750|-10.067710|0.458868|0.690983|0.758257|0.367958|-0.305268|7.333868|16.922474|-6.526326|-42.453644|-28.423587|-35.418286|6.470925|52.661429|20.001443|-78.442578|-156.301220|-174.518702|-122.205498|-53.618088|-3.032344|-16.037130|-4.436518|-23.951002|-35.037631|-32.730433|-35.334277|-28.628902|-4.972533|0.835390|0.770505|0.684587|0.961534|1.155574|-12.149194|-7.989967|0.379167|-19.249856|-24.489368|-37.528413|33.853393|99.732902|47.100749|-83.825106|-137.209353|-137.100220|-54.768266|4.497232|32.902491|-11.367772|2.410950|-11.480767|-5.937970|-12.867584|-27.818806|-22.230317|2.841831|2.763223|2.199004|0.798089|0.743588|0.096223|-23.010403|-20.184195|-10.947928|13.451660|-18.515704|-30.817808|27.033877|106.885897|64.719944|-0.599140|-46.281500|-20.383905|27.923162|79.470695|49.064262|-35.150154|-28.966493|34.981893|30.319441|-5.064904|-16.449470|-5.266215|2.738730|1.464472|0.423712|0.999483|0.749304|-0.288095|-18.173011|-36.287801|-11.180218|-16.632454|-8.456023|18.885253|34.328417|129.548974|107.174683|65.920484|50.730643|42.646565|35.705627|20.069548|-0.610765|-70.244151|-26.788188|24.174789|-21.789268|-33.337776|-17.011914|-7.493965|5.146692|1.577091|0.818660|0.503392|0.956029|-4.565849|-14.202859|-33.103228|-14.265887|-21.313137|-20.128468|48.311704|59.402846|107.915285|137.460049|147.650344|94.865352|51.202838|35.005080|26.440147|-16.471457|-33.306691|5.251875|-1.968363|-18.680717|-10.484332|-0.580503|1.993088|4.934990|1.884522|0.031729|0.371532|0.947616|-4.878380|-11.557891|-29.294172|-31.589610|-16.992616|-4.581580|18.296014|40.286169|50.806854|90.196648|97.357676|68.868494|30.355814|75.999761|32.153155|7.177452|-31.801308|-24.337747|-0.387608|10.235198|21.488673|9.523037|-2.565818|0.864731|1.139866|0.660745|0.144855|0.612920|-5.253121|-7.562320|-12.872582|-29.786255|-26.392665|-22.398041|-6.856964|21.020732|83.806780|117.650557|106.883611|67.481895|98.084783|48.819765|15.788661|8.507246|-39.474484|-54.847341|-34.286782|2.643623|14.527299|5.488428|4.196411|1.148069|0.579866|0.732431|0.041915|0.523151|-5.813924|-7.006280|-9.507685|-10.255841|-28.621105|-56.126801|-29.427787|-30.909623|-19.713761|8.251300|59.958873|27.570538|-1.460864|-19.115746|-26.447772|-35.952897|-55.638868|-35.336742|-32.018330|-26.549941|-7.699936|-3.250188|2.011168|0.612473|0.962941|0.684794|0.084791|0.521565|-0.021411|-3.337863|-6.714012|-7.683069|-12.810542|-26.935415|-16.196891|-29.619565|-30.870412|-39.073443|-41.313082|-41.864659|-41.919879|-29.296476|-17.491838|-26.514637|-32.760553|-20.404360|-19.996590|-18.014949|-5.041496|-0.097420|0.074233|0.229807|0.119722|0.396982|0.851848|0.084116|0.081776|0.936243|0.617078|-4.336940|-5.057073|-3.147089|-1.497537|-4.384423|2.560134|0.299846|0.451963|-6.779729|1.930118|9.323982|9.007572|1.199892|0.140495|-0.707972|-6.291124|-8.580187|-3.508132|-0.406441|0.070003|0.500813|0.681936|0.142249|0.732206|0.802902|0.539231|0.584055|0.887018|0.630149|0.547497|0.610012|0.238331|0.469689|0.040163|-0.702442|-0.185938|-0.180838|2.250499|3.110893|2.097713|-0.312992|0.968321|-0.884026|-3.469544|-1.415289|-2.343822|-0.023343|0.103914|0.822204|0.476625|0.173059|
~
0.323017|0.158562|0.315308|0.055224|0.961464|0.854539|0.639278|0.848482|0.475547|0.159972|0.341181|0.595555|0.742912|0.482182|0.025312|0.704886|0.458557|0.659824|0.059196|0.141419|0.021914|0.918142|0.578417|0.808550|0.256562|0.050699|0.433572|0.360476|0.872903|0.910197|0.533535|0.195920|0.068759|0.848644|0.239596|0.004131|0.657787|0.724339|0.672641|0.034432|-0.124230|0.062352|0.534373|0.210302|0.593842|-0.351546|-12.199132|-8.196789|0.295639|0.348342|0.198381|0.477529|0.476614|0.882556|0.289736|0.733176|0.933255|0.723309|0.093650|0.805924|0.633356|0.626325|-0.036271|0.588784|-0.134313|-1.797749|2.316834|9.044004|19.196315|5.575199|-35.835747|-25.548310|-8.803475|-17.419893|-18.023367|-6.451581|0.651570|0.642795|1.713374|1.491072|-0.027037|0.061146|0.872731|0.522804|0.884654|0.162467|0.266869|0.580624|-2.290035|5.457190|8.173455|21.047583|31.419653|51.606114|70.055187|76.507932|118.800594|70.227540|61.225239|69.780327|37.796000|-20.066038|-36.170575|-41.524390|-48.113856|-82.604703|-30.407641|-7.571272|-2.829273|0.034166|0.407341|0.739394|0.631604|0.319978|0.469646|0.228695|2.434635|11.938883|30.092567|49.076118|86.412695|140.586560|165.621576|145.795184|236.472867|272.444332|266.452886|105.556008|53.740019|58.425438|-10.262283|-39.687225|-35.890631|-50.378319|-17.288778|-28.564245|-17.733437|-4.046091|0.080477|0.588510|0.585667|0.546705|0.403358|-0.904029|9.076107|20.284203|8.486413|25.870700|73.233127|133.996452|133.739841|107.297014|204.684290|260.935170|228.300518|190.551300|154.398195|56.645310|53.468987|52.656562|18.848365|-28.805085|-17.059931|-27.581350|7.820068|8.915214|0.441946|0.168697|0.386056|0.125568|1.607278|12.037574|23.500043|34.271852|8.713992|-2.956359|43.498486|26.318154|-10.968707|-64.150948|-28.974717|1.480200|73.539537|101.218941|132.424438|11.259995|0.531771|12.775661|46.578838|-35.833111|-32.378005|-25.135625|18.608288|16.873124|4.167460|1.008297|0.552209|1.556897|2.663457|11.788352|32.735175|34.811922|-58.475567|-102.584442|-99.064121|-114.683902|-192.684015|-311.598799|-160.964478|-118.640797|-83.170763|-127.679613|9.556549|18.595888|-5.320679|-1.341993|39.501368|-6.186763|-13.945702|-12.081868|23.468439|19.454808|7.067111|0.738801|0.712744|1.657842|-8.786482|4.036121|5.645344|-30.827811|-87.269632|-138.861752|-109.512974|-188.914044|-336.745423|-401.647214|-194.106486|-228.715078|-233.585752|-130.267814|-6.076344|18.816982|50.036334|49.983061|27.637516|-26.900944|-40.607739|-52.739338|22.284120|17.954742|4.098724|-1.363767|0.013141|2.542515|-3.871825|-10.184425|-36.811727|-112.914275|-134.720412|-133.061771|-104.662618|-232.206034|-354.057452|-322.485631|-176.880029|-176.151647|-0.485184|145.386514|174.110243|179.387871|87.528767|12.930848|-42.031344|-73.055272|-66.559338|-48.008840|12.130467|7.388025|3.607046|0.077611|0.570182|1.362331|0.217592|-2.954339|-50.063468|-135.467583|-148.562309|-122.752869|-125.122711|-149.400279|-208.218478|-160.377438|26.003363|239.011466|283.462888|245.631468|189.738164|175.693965|74.877524|-90.740147|-130.967008|-123.297213|-81.813373|-44.499038|5.940481|10.213836|5.213917|0.419416|0.195962|1.387032|0.343496|-2.566104|-33.198846|-76.806127|-91.694051|-108.192943|-109.321594|86.104295|77.309016|223.012909|271.028469|309.195061|313.696221|239.325806|115.556977|181.256338|-22.648270|-133.951829|-118.566281|-152.513951|-130.653822|-81.752558|-36.197892|2.371368|1.247051|0.486716|0.750669|-0.165577|2.207582|3.346287|-21.338424|-30.471142|-33.608851|-19.457823|75.543065|168.292180|174.782344|215.913517|108.254043|103.342223|104.798840|68.316868|141.094176|19.498736|-128.854733|-140.541017|-58.548642|-105.332129|-130.504392|-79.679085|-43.591829|-2.326531|0.441977|0.929640|0.692431|0.285899|1.734615|0.681038|-30.441611|-29.999903|-54.251179|-29.672117|-12.778334|-33.290954|-42.544694|-22.973377|-146.374905|-102.348957|-128.983696|-85.669785|-71.962967|-70.987779|-86.225907|-21.141803|-40.230264|-58.365159|-57.146793|-49.759228|-43.725550|-1.343812|-0.640677|0.726723|0.562526|0.546340|0.766306|-4.520173|-29.041377|-32.774268|-89.135449|-114.370432|-171.156932|-212.727485|-195.311315|-192.049921|-168.096045|-159.440506|-194.326354|-236.731550|-205.637613|-162.024038|-51.708521|35.716656|16.464651|2.299758|-13.405156|-12.487995|-33.065338|0.407300|-5.681859|0.914087|0.515562|0.415624|8.275492|16.155383|5.719092|-35.180510|-98.247391|-201.866821|-266.157792|-363.312191|-335.430843|-387.315496|-286.185237|-259.983620|-224.968111|-217.853421|-225.098300|-135.449971|-3.069266|116.846376|30.409020|13.689619|-10.163786|-12.995900|1.792934|-5.755994|3.707893|0.746610|0.295436|0.533354|15.071867|47.837760|54.370332|-7.709953|-133.567503|-211.517207|-292.140118|-275.698660|-307.040419|-340.033991|-379.274436|-252.854371|-225.183312|-270.264326|-237.073142|-119.445639|45.863720|78.463640|-30.242817|26.362457|33.707255|18.949002|29.839370|-7.146548|1.277106|0.988846|0.979808|0.246665|19.679431|81.473857|61.884607|-3.637991|-117.744336|-177.579380|-128.509693|-84.434120|-60.134556|-128.973959|-150.944584|-170.605460|-189.344530|-294.922118|-145.759375|-36.328698|112.701833|81.680808|-123.133526|40.788793|54.517953|40.429895|23.861922|7.456160|5.570296|0.042190|0.822049|0.195645|26.896706|95.983106|105.026553|104.974112|16.625246|-80.921366|-18.628809|60.966516|174.758230|117.896371|22.667618|-38.680029|-143.316470|-161.018451|-59.531111|79.870366|103.251638|12.563488|-64.865536|-23.403597|7.501738|0.101337|17.825392|12.475082|18.041907|9.468778|0.615308|0.670987|16.016474|99.359761|120.736176|161.539396|109.473620|-11.445380|50.672992|51.968981|134.075691|46.090042|13.879062|10.645251|-6.352811|-31.540708|32.504449|75.953390|-35.664870|-54.323208|-85.078582|-50.513869|-37.704618|-2.160664|17.644673|28.542738|20.318997|8.038045|0.258309|0.353607|10.574746|72.480736|111.372130|126.758735|133.107707|76.084059|94.286980|69.906438|20.244524|-62.730563|-56.112422|24.311629|49.530659|-36.819605|-23.693052|-58.731277|-15.369740|-92.816108|-118.374509|-95.666823|-57.162545|-20.013538|21.737992|18.492215|6.112670|0.121910|0.938333|0.532426|5.385682|31.306780|70.792789|32.282166|94.760928|42.475806|122.081140|66.275108|25.559836|21.646920|92.696968|116.171556|60.962905|-8.828777|-79.994790|-86.702149|-31.083863|-7.878198|-37.153129|-96.338695|-57.622229|-60.401763|-18.171738|4.017627|0.379532|0.753099|0.888413|0.798760|2.218640|-3.632825|10.134245|26.136140|25.980090|59.723521|92.189730|80.591781|17.119103|43.344005|73.506545|51.437789|-2.960908|-44.123542|-34.211291|-33.811682|-35.578421|6.551192|-34.608752|-75.847054|-29.362909|-16.439132|-7.325069|-0.711730|-0.263098|0.521530|0.022227|0.228030|0.410561|1.279564|-3.695593|13.629300|12.753164|15.317085|36.639813|95.275362|89.809879|71.709427|46.936997|-9.841647|-70.162329|-12.665219|-28.743791|-56.589589|-49.018831|-43.397129|-35.249718|-50.411518|-29.807753|-2.455732|1.270974|1.211872|-1.512201|0.768022|0.250247|0.140722|0.368092|-0.431905|-1.911286|-1.130449|3.254174|45.556298|43.724314|43.070034|11.130921|-34.446748|-46.313867|-48.502870|-71.132293|-79.112868|-59.190420|-82.451565|-66.349232|-30.409602|-17.756915|-8.842112|2.145704|1.188006|0.640379|0.913733|0.472131|0.841119|0.849700|0.567839|0.614803|0.157874|1.062213|-1.858787|2.318816|18.383116|16.091192|22.882495|16.543192|7.669318|-22.231726|-13.383439|-3.083182|-3.101879|-21.136439|-45.696082|-33.771367|-1.959747|-1.534542|-0.592240|2.365978|0.372319|0.196539|0.504260|0.983877|0.702752|0.383467|0.455313|0.543872|0.233170|0.027466|-1.726980|0.597010|3.914273|6.058633|4.782066|4.068824|4.540078|-4.279132|2.085710|7.720251|11.257927|2.678073|-13.433859|-23.017387|0.160227|0.502103|0.198433|0.597763|-0.447632|0.143333|0.339245|0.384815|0.303033|0.845871|0.369306|0.005785|0.229338|0.824618|0.554944|0.470497|0.885765|0.757070|0.955326|3.275792|1.666602|-1.010569|-2.266194|-1.343459|1.503058|1.906556|1.493981|0.786665|0.256841|0.289521|0.197561|0.078425|0.425312|0.980365|0.987759|0.492725|0.124736|
~
0.327004|0.877541|0.427769|0.172875|0.246846|0.433554|0.402213|0.071464|0.983211|0.864718|0.919235|0.685880|0.661462|0.501394|0.440494|0.161503|0.887229|0.709210|0.923710|0.557618|0.666720|0.422976|0.734741|0.939227|0.816456|0.982189|0.347265|0.796821|0.969947|0.839990|0.921557|0.296951|0.717531|0.349635|0.485289|0.995254|0.813481|0.922208|0.081982|0.826698|0.863548|1.015245|0.469866|0.398433|0.378058|-0.334657|-1.117457|-0.292638|0.553198|0.758453|1.021808|0.269552|0.905274|0.633383|0.207383|0.721730|0.615571|0.554648|0.518551|0.619473|0.406943|0.440147|-2.149806|-3.260425|-4.530923|-8.278715|-2.835433|-1.060084|-1.023463|-0.937121|1.534138|-0.425622|-3.406163|-3.247878|-4.878028|-7.397730|-6.492529|-0.449639|0.957469|0.196387|0.397053|0.755243|0.552191|0.304346|0.394307|0.759574|0.024118|0.212815|1.890206|-3.984827|-6.907346|-7.506788|-11.131095|-16.153459|-10.347557|-13.816869|-26.017656|-14.006277|-20.264366|-40.301624|-34.022948|-41.410446|-42.881482|-18.066960|-32.949820|-24.402676|-26.908494|-18.861345|-2.937864|0.551981|0.464307|0.689621|0.221891|0.994080|0.944669|0.783062|-0.439598|-7.829266|-10.859270|-16.943654|-18.135395|-24.062949|-20.292157|-33.939991|-60.519168|-44.582844|-55.093530|-17.783640|3.350547|5.591635|-9.777362|-41.803764|-42.360568|-30.978387|-20.421878|-9.740189|-5.116446|-0.932914|0.954273|0.268963|0.642385|0.429933|0.943890|2.325039|0.447925|-8.145830|-12.893142|-21.890692|-21.103493|-15.745580|-17.886182|-49.879455|-49.427561|-13.561803|-1.835795|43.457860|96.363747|144.950474|117.666017|29.400186|-43.350224|-22.929966|-28.471290|-17.461716|-13.213641|-6.630886|-3.250192|0.724791|0.384853|0.248369|0.901723|-0.226945|0.939584|-10.133144|-26.980410|-27.540319|-10.667250|0.107430|-12.237422|-31.404997|-18.939388|8.161009|24.701907|31.724318|41.021714|91.164616|45.901487|6.588894|-18.099970|-0.902777|-29.606522|-34.897944|-48.414442|-32.512696|-15.795992|0.782595|0.119638|0.231176|-0.136664|-0.857724|1.594953|0.879414|-23.548436|-15.031234|-10.049177|7.473341|-28.877874|-29.607160|29.331664|30.901845|47.831934|48.859855|60.209241|32.225138|39.435933|38.869344|-8.157805|8.186030|-18.308564|-30.776633|-42.422978|-40.230816|-15.056188|-0.439761|0.711583|-0.058580|0.536922|0.901617|-1.970651|-10.002845|-16.809376|-19.328620|-39.140991|-11.447335|-0.128886|6.369380|11.098859|14.185075|89.711442|131.531886|101.984960|25.543675|9.853232|14.606085|9.068458|2.354415|0.416034|13.076735|-18.367430|-23.675728|-9.761000|-1.325732|0.436805|-0.188115|0.546583|1.182185|-6.488410|-11.626796|-24.510913|-17.285510|-10.494647|-22.524021|5.507026|0.106832|-16.388606|56.372870|70.270663|72.163903|29.054400|17.460867|78.408770|116.845155|76.113204|61.194923|17.224889|47.839624|12.070445|-12.554619|-5.013404|-0.134100|0.310759|0.215489|0.592753|-0.743138|-11.689307|-0.929038|-19.255995|-9.464697|-14.050886|-41.953741|-29.032642|-7.924684|-0.161041|14.554975|-11.051317|-36.946244|-59.609497|14.036657|78.839926|125.178960|119.626282|88.617164|39.057848|76.446070|12.639188|-11.796328|-5.404018|1.068702|0.909462|0.412058|0.750784|-4.861446|-16.242052|-11.214931|0.509233|15.420892|-9.649841|-18.605925|9.643009|28.745641|22.296567|-16.204581|-131.674237|-157.765094|-175.978199|-71.086131|25.738395|74.140532|84.146595|56.236927|81.089279|84.096184|24.618191|-11.771761|-2.796000|0.233877|0.761050|0.772227|1.019536|-7.398141|-18.862286|23.446474|34.449213|24.621071|45.487466|37.877803|49.586922|65.240042|54.800142|-10.901444|-119.578138|-181.054536|-173.725083|-119.481580|8.987566|26.482394|24.661938|21.754447|88.691820|93.645927|47.650972|-2.110819|-0.534679|0.992461|0.883268|0.946807|0.636618|-8.036243|-12.861729|49.818698|86.660046|91.559142|104.551420|94.589370|73.183518|38.401350|44.730196|-77.987455|-139.855495|-188.280114|-161.055470|-99.301605|-30.885689|-40.877925|-21.727406|39.892303|72.573107|83.060677|54.374205|8.211118|0.923383|0.951296|0.948093|0.075207|1.163121|-11.200635|12.613862|71.189904|86.935334|108.429139|96.786806|80.632948|41.337214|56.730210|21.760082|-88.928898|-150.874317|-153.609614|-110.134758|-45.418876|-25.041781|-35.689325|-10.208368|77.492031|68.236999|73.550275|44.566059|7.912348|3.434843|0.814316|0.485777|0.476625|1.463410|-12.184479|34.049849|85.403005|55.826160|93.009928|73.429869|61.961409|29.588301|9.837011|-54.476442|-144.678182|-174.870081|-175.137557|-95.948422|-45.458154|-25.037179|-16.675207|7.796645|35.268631|72.630831|58.753813|42.855653|10.750087|2.896405|0.855467|0.095074|0.416742|2.498155|-7.976998|28.296862|57.014727|40.623257|58.384327|79.249360|65.156167|29.270854|-50.092522|-129.600474|-185.038693|-163.097738|-117.794756|-67.722984|-29.259738|2.156452|-7.429423|31.028333|17.996799|45.129113|35.242342|15.455513|2.178306|1.632581|1.921253|0.040810|0.631954|2.625639|-0.773825|7.309911|47.758531|55.397828|48.639793|20.713681|49.850703|44.794254|-67.028612|-166.306283|-201.209347|-185.345042|-87.044440|-26.342558|11.849092|33.173044|16.030200|9.374046|30.042651|46.581831|24.508730|-4.030736|-8.529569|-1.281496|0.972539|0.357824|0.573124|0.865870|-18.142304|-12.401295|19.819903|42.270865|53.922928|35.520964|57.320185|71.640293|-42.205393|-165.375176|-170.970213|-123.872791|-12.775862|26.331597|36.183121|28.291750|13.244129|5.715567|34.452310|31.332399|-1.508464|-16.885465|-4.807362|0.743530|0.500194|0.066161|0.364260|-1.214011|-40.653676|-35.865135|-6.409501|48.430290|60.171522|79.284662|99.584812|100.111476|-7.339875|-59.420102|-52.548395|27.563830|52.891882|76.992357|34.488221|-8.262260|-24.417521|24.448202|47.394068|22.677214|-18.584581|-18.582692|-5.029650|-0.068224|0.438842|0.707200|0.084229|-7.122755|-42.794620|-60.782776|-19.892673|-8.777546|20.698250|88.438444|90.706313|116.158185|85.353396|48.504263|52.778581|70.056032|40.782841|-7.647030|-5.159692|-46.609191|-41.238238|20.173181|22.439572|-16.831735|-26.250332|-20.788552|-1.060068|0.291510|0.967601|0.829369|0.304975|-6.433683|-26.875549|-47.806058|-21.020468|-45.209601|-30.881950|59.284498|73.487201|101.497746|98.246953|80.379913|62.478806|20.141037|-22.460905|-36.399494|-42.238077|-34.912104|1.042581|-1.048081|-16.970930|-7.096519|-15.885449|-9.067384|1.196702|1.219717|0.378946|0.128135|0.537226|-2.728615|-9.996615|-28.918051|-20.767347|-31.962219|-45.645912|7.581941|64.576501|81.328517|94.606109|61.653604|58.272278|-1.893365|-8.372289|-35.839339|-25.442820|-39.235816|-16.210125|-11.713174|-14.916949|-7.790395|-5.522508|-4.608312|0.487422|0.062359|0.709414|0.685265|0.508555|-1.031876|-1.170577|-11.521911|-20.442366|-23.254007|-40.274954|-24.904745|28.109917|95.970041|97.790845|53.950302|-0.226987|-0.517145|-23.986846|-3.537053|1.963895|-26.816534|-43.477521|-37.223028|-16.646297|-8.794636|-0.349425|3.511172|0.949826|0.064033|0.679569|0.673067|0.198562|0.337906|0.362354|-2.253809|-3.151549|-9.761903|-36.193231|-40.448473|-34.193427|-35.532480|4.666804|23.094686|-4.390048|-17.283001|-27.459304|-23.931642|-44.437070|-55.860775|-37.468374|-30.239321|-31.172469|-12.992450|-1.699392|0.693092|0.164709|0.368686|0.423908|0.282827|0.538063|0.099817|0.954798|1.949661|-2.664579|-14.488161|-22.188977|-20.528727|-38.580758|-56.946145|-65.818453|-59.138213|-54.293044|-47.240009|-42.888286|-35.778055|-36.832159|-33.254917|-15.227052|-14.438480|-14.833572|-8.138534|-1.101574|0.453033|0.690862|0.296799|0.281130|0.856739|0.661430|0.705038|0.139490|0.205353|-2.994102|-4.701956|1.602022|1.997156|-2.706839|-3.039006|-2.032419|-0.852219|-8.444951|-3.349753|-1.354245|-2.464466|-5.165749|-0.731289|-0.837023|-6.470789|-9.827838|-5.351950|-1.296896|0.443678|0.135315|0.824099|0.890130|0.826035|0.118915|0.171261|0.682774|0.780344|0.876211|0.823634|1.021092|0.730649|0.766903|0.751934|-0.072380|-0.867295|-1.267207|1.048884|2.506100|2.057534|-0.422867|0.462968|-0.859747|-3.108287|-1.470512|-4.699027|-0.991848|0.382022|0.840449|0.662383|0.826265|
~
0.975764|0.486482|0.716396|0.801799|0.605397|0.887656|0.484573|0.385741|0.763955|0.306912|0.365578|0.448768|0.222984|0.278517|0.435410|0.552234|0.577350|0.691118|0.775340|0.449671|0.098101|0.322787|0.742763|0.647862|0.830921|0.064186|0.871876|0.212942|0.904635|0.534259|0.039207|0.880399|0.020741|0.755252|0.661309|0.581298|-0.666785|-8.409127|-1.992364|0.138221|0.211163|0.059104|-2.295227|-6.508683|0.640027|0.832602|-0.213747|-0.112825|0.821504|-0.124168|0.611234|0.077419|0.348720|0.428775|0.727619|0.179641|0.492961|0.599496|0.392581|0.397162|0.133550|0.430362|0.111170|-0.115741|-3.255160|-6.999384|11.872996|42.018591|43.021031|28.503510|-14.295430|-10.983978|-2.953488|-2.618183|6.291394|9.143764|12.499142|-10.684163|-15.625687|-0.401993|0.386817|0.813872|0.445801|0.924288|0.180089|0.173420|0.115537|0.305698|-9.524920|-4.174833|1.164693|-0.686585|-14.277265|-6.411684|29.029869|77.650523|206.911400|230.999222|198.779132|180.505594|151.874264|165.944983|85.477298|-23.271707|-47.516515|-73.599168|-28.387015|-23.973304|-13.234901|-0.307426|0.035597|0.460689|0.449860|0.474835|0.898188|4.931487|18.034119|25.944202|39.642421|86.673518|124.915758|80.502328|145.500160|129.558726|239.637514|325.323701|241.675644|201.982600|199.579122|126.079138|24.810454|-90.975862|-85.567306|-133.126021|-80.567221|-85.379752|-14.535434|1.652101|0.112686|0.727830|0.000648|0.128965|0.347577|1.079770|28.836555|46.649495|133.649794|137.990002|77.652865|45.736492|147.315862|94.562150|168.388923|142.850902|109.631407|92.866942|102.917387|68.836856|79.193341|-17.407678|-17.927206|-80.085948|-34.502652|-79.313357|-31.507840|6.321694|3.088546|0.335461|0.453143|0.684251|-1.099343|15.264331|87.124702|134.142879|79.193969|37.344103|50.012884|88.842529|75.654665|-36.707055|145.703442|249.152323|167.302340|70.040905|147.521592|295.778593|258.966575|22.992182|189.108209|24.873256|-223.742328|-162.934677|-65.211035|-15.986290|4.827947|0.630801|0.964792|2.177044|-0.354505|32.444739|131.128107|149.617261|104.486062|18.569198|105.319167|164.702939|60.583155|69.514226|199.754142|308.015961|305.533824|177.326997|120.172019|77.929055|186.872101|147.634021|299.321791|189.517726|-193.123902|-262.601143|-94.053435|-12.975610|7.919574|0.096349|0.502780|2.283662|13.935065|72.819417|143.967107|124.802843|55.147835|126.598517|226.381114|264.093042|319.009757|189.356870|260.604695|158.292244|215.551875|141.832038|97.637102|102.351086|307.061565|195.386230|239.210994|292.241340|-54.347300|-252.362467|-69.356940|24.271680|6.704133|-0.870909|0.935067|2.706040|25.933629|72.320854|75.443318|70.792789|35.720389|107.159004|142.406272|135.521124|-13.806057|-310.169946|-551.067041|-826.581857|-567.670032|42.495181|197.284436|246.211371|173.537639|170.090761|211.621013|201.087404|47.349292|-116.283507|-42.162666|28.372573|0.354316|0.288958|0.518943|1.768171|12.991893|63.367023|33.452647|-96.735230|-163.171713|-252.768479|-279.501545|-462.171973|-637.738827|-976.389372|-1223.615544|-1239.558553|-703.408130|-69.911315|246.145474|338.611189|340.022836|87.940880|81.185889|90.374430|-48.307122|-132.036226|-44.140664|17.386486|-0.907269|0.479922|0.496782|1.871743|0.797937|13.150588|-42.529932|-287.392174|-462.476465|-562.886224|-751.405494|-910.793542|-925.398039|-942.631510|-944.596845|-753.765766|-289.756788|136.162979|167.606673|308.172832|228.149752|99.806560|-27.254898|-118.541885|-171.595514|-169.716177|-70.751749|1.757671|-4.164984|0.819355|0.861313|1.030761|4.066328|-24.815718|-173.302280|-435.179933|-618.300317|-670.936842|-730.961850|-848.040298|-768.929433|-413.863458|-216.230272|-200.022392|23.773856|8.658943|20.743427|103.659735|-63.652139|-173.388935|-186.110128|-215.690945|-266.216004|-170.173811|-72.444337|-5.136885|-2.600849|0.416849|0.166476|1.257911|0.742882|-54.889946|-197.169357|-357.517386|-514.494297|-600.421361|-500.143426|-419.583785|-256.961065|128.896303|129.186836|209.590577|81.164893|-175.314879|-101.524942|79.006333|50.063360|-125.234728|-271.054551|-184.663880|-269.650576|-193.753722|-59.468603|1.762114|1.108791|0.238024|0.348515|0.624718|0.624909|-56.127680|-119.883509|-241.328215|-341.081054|-310.875540|-180.693840|20.639335|161.011209|209.963574|151.117127|176.429173|275.640496|-3.085001|-1.941731|104.336573|102.621008|-89.651672|-88.676300|-8.695927|-111.684744|-124.402406|-30.330901|20.283230|5.004808|0.106216|0.044140|0.243103|11.840245|-42.114470|-23.078242|-92.788112|-83.095433|-92.384822|12.009872|204.887778|210.635116|174.675055|38.626487|162.082330|350.384373|102.046455|-62.688584|-69.527281|36.307252|85.602233|135.857333|182.672128|33.253750|-0.235332|-2.785950|28.040442|5.109701|1.111564|0.757179|0.362902|38.263750|26.174008|73.343665|-2.148013|-120.211163|-89.829169|-141.770161|-45.608469|-44.947259|15.453105|128.664403|207.492353|167.096224|28.905110|9.711671|-30.502103|195.518609|354.933405|67.232558|268.083808|54.394182|37.159111|39.712843|34.395564|9.390523|0.252094|0.127241|4.895958|51.689747|109.739977|139.414639|30.079874|-162.498040|-206.066809|-519.362757|-669.039674|-592.231028|-436.245014|-221.571844|-158.662816|-94.785686|-52.319549|-8.858466|25.847872|310.171788|388.257622|17.556085|218.833526|109.095174|13.571356|-7.044865|69.252111|25.058394|0.766940|0.072892|1.622843|56.691135|234.726532|258.708662|99.581354|-0.733221|-325.900006|-626.562375|-700.934391|-661.132896|-583.916719|-670.344889|-493.047749|-271.429289|36.874010|131.587090|214.509011|347.318493|295.533417|100.694223|226.196978|135.971980|16.706032|-7.822355|34.459365|27.117848|0.282844|0.973618|0.683100|69.414612|327.676642|327.063517|289.299956|321.998956|-49.217105|-178.170741|-291.374313|-159.992512|-224.901732|-361.932064|-301.290331|-71.516407|132.271227|164.342372|242.340530|82.506953|-16.173856|10.713389|40.585417|18.595870|60.147073|2.186649|25.630369|9.819960|0.125157|0.624363|1.380131|62.972063|343.941380|451.529685|247.836737|338.884950|177.653477|97.455055|32.894435|-84.174972|-98.551691|-104.233280|-54.310676|49.761121|47.194199|86.349359|68.652417|66.622959|20.529712|-64.227889|-84.167338|-108.421126|21.245535|31.811750|15.601732|9.073584|0.945654|0.980508|2.966927|55.421647|240.185794|421.469225|252.903644|222.146000|127.491987|268.654927|69.992912|-3.023987|14.964704|96.160514|3.126346|52.760559|-137.314632|-34.275214|-5.017063|18.199046|83.797399|44.432254|-105.378373|-149.359257|-60.038214|-6.197756|12.767957|5.584558|0.857131|0.021450|0.005612|33.312909|123.979060|294.598734|342.708441|270.678805|188.152616|98.435792|51.917022|32.983777|92.342967|-25.385242|27.968247|0.671395|-4.638360|170.706474|63.124165|-7.243239|111.920822|36.394321|-122.529133|-114.586020|-2.139744|8.758959|-2.473215|0.774551|0.751530|0.799095|0.118419|15.214372|58.629320|178.511319|283.848310|349.173446|258.833661|51.553791|76.855726|34.170159|104.447369|-3.566832|19.445808|-11.741664|-63.250051|21.153058|-30.310085|14.360189|56.075043|-60.557181|-78.026740|-36.635853|17.080547|4.308588|-0.614114|0.868815|0.075533|0.409643|0.595519|9.969117|32.543539|71.649552|96.730948|216.728786|153.384633|121.347089|146.403017|286.263197|213.458445|152.021563|32.618659|-83.255527|-104.095952|-113.690575|-108.671263|-77.872650|-160.110003|-99.574543|-51.877453|-4.023344|3.974846|1.510662|0.466507|0.086493|0.855578|0.118139|0.950278|1.789580|7.396485|8.208146|4.146783|33.917983|57.316387|80.301361|109.965654|136.171809|99.206031|41.209450|86.044791|31.823988|-52.175267|-122.722836|-73.195603|-62.517848|-65.833576|-60.167261|-32.568527|2.337082|-0.322349|0.814975|0.650675|0.648013|0.180723|0.906452|0.706066|0.036301|0.023064|0.652237|-1.004627|-0.399299|18.319354|21.032523|10.110280|-25.182950|-19.748313|-11.826558|-17.066500|-17.023380|-4.052393|-13.246555|-4.410992|16.090513|1.265912|-32.285941|-17.189068|0.603039|0.294393|0.999240|0.246135|0.603984|0.712284|0.895559|0.237233|0.893007|0.802011|0.943299|0.927692|0.819417|0.603384|0.906232|0.851713|8.406688|1.292796|-2.823634|-4.199094|-2.657696|0.203305|0.939033|-0.207768|0.301258|0.385261|0.414111|-0.232854|-0.004304|0.361141|0.070559|0.931073|0.189627|0.068156|
~
0.177208|0.793610|0.780440|0.072767|0.030843|0.673446|0.874777|0.974142|0.602754|0.701379|0.573784|0.499473|-2.069560|-4.341942|0.110715|0.747759|0.639221|0.663561|0.472135|0.462889|0.160848|0.876495|0.852356|0.638046|0.880525|0.985927|0.967912|0.951084|0.917000|0.157539|0.019240|0.094208|0.951149|0.035471|-35.390176|-65.953209|-36.607577|-4.433049|-13.853019|-26.234623|-60.842532|-27.553628|-7.965309|-19.430344|-27.233231|-12.254552|-4.234798|-9.393743|-3.694800|0.020387|-4.179870|-5.266533|0.920334|0.859951|0.159586|0.800859|0.845878|0.127498|0.751940|0.666433|0.251738|-1.999096|-27.737306|-70.524208|-49.197557|-41.987073|-59.762480|-115.038242|-166.830894|-166.835572|-126.547384|-145.087249|-165.417051|-64.422487|-60.212703|-29.020870|1.510193|-15.189894|-12.966451|-4.028714|0.411674|0.164070|0.274586|0.168306|0.021967|0.434172|0.973941|-1.774690|5.348388|-15.269230|-52.108752|-94.403553|-76.630919|-86.434361|-109.931353|-181.782822|-290.886488|-390.938852|-363.239153|-279.263463|-221.544998|-118.318175|-38.846249|6.015928|61.876932|35.394054|19.563324|9.986260|1.446347|1.043637|0.138642|0.471165|0.105764|0.342223|0.653167|-2.381908|12.037976|6.017260|-62.666547|-93.689599|-82.916507|-93.552950|-172.820002|-157.073484|-246.424557|-383.642948|-433.110860|-299.285591|-112.660417|-47.948319|7.802437|85.743827|110.277644|118.801093|84.963504|109.586300|43.129230|-1.136897|-0.611370|0.513087|0.956805|0.523820|0.305225|3.157523|25.165940|64.291749|17.438927|-20.652509|36.186338|1.771206|-47.826337|-61.232207|-351.388966|-610.008886|-621.158279|-466.099044|-312.130409|-282.401882|-123.817620|54.574798|36.535015|9.431316|109.966433|195.241850|127.636074|0.595674|1.660039|1.012292|0.282591|0.398115|-3.574438|-15.748485|0.993597|20.439812|19.286820|-12.021243|33.821314|-44.711013|-147.450006|-329.122033|-345.605359|-418.179682|-245.373040|-159.755420|-220.064747|-60.304464|-50.910998|-17.099535|1.854772|70.632814|251.554946|249.163394|49.924449|-23.852827|10.956842|0.435415|0.341985|0.080165|-6.198275|-25.716106|-31.599483|-26.807213|-59.358442|-103.651489|-173.477010|-106.481491|-59.493898|-132.380743|7.639569|-195.452952|-220.733557|-283.670055|-193.167138|-39.108457|-267.042042|-237.293376|-75.245291|149.635169|338.639880|242.540961|93.859021|20.916950|52.231838|2.076194|0.724712|-4.254825|-7.347319|-41.283684|-29.230244|-14.532968|-52.011460|-189.867037|-118.248532|-23.865008|-113.644527|-146.911945|-205.029290|-210.173978|-496.334253|-389.527562|-237.366061|-100.265678|35.036347|-91.204162|34.081805|122.800978|174.354855|168.197507|52.085586|65.212016|32.434116|-0.622309|0.107489|-10.151614|-44.864119|-49.950002|-60.397719|12.595143|-132.207582|-305.591140|-163.854070|-26.656471|-308.708544|-88.878285|-110.000882|-387.153469|-746.407411|-546.019945|-89.582927|-39.922348|239.957412|-4.431445|95.353131|-94.795032|-15.470429|-74.492836|-187.343374|-72.911080|-19.301929|-0.381138|0.180334|-7.596681|-66.918320|-118.364828|-122.212044|-82.188036|-127.316262|-214.920482|48.187687|222.409628|-30.632715|346.210626|175.275727|-508.390216|-884.010407|-504.745545|29.428422|172.258253|254.188618|140.640686|-75.131406|-362.814909|-239.173976|-264.010626|-227.571102|-116.372946|-58.829999|0.576487|0.118097|-2.901652|-65.612971|-138.545152|-129.440908|-21.855263|5.375049|-66.513994|151.138991|331.326854|389.369190|556.125664|400.716022|-374.528081|-623.186064|-192.096513|421.052419|118.337661|105.292487|-116.910251|-91.998642|-138.305153|-331.926535|-222.495959|-221.739535|-139.937576|-70.580333|0.174648|0.316697|-14.863740|-46.285182|-128.961247|-65.811609|107.650300|189.047819|175.673412|295.782706|250.598133|448.650907|761.164485|681.555696|105.377782|-143.737695|231.137599|497.684376|182.376030|99.718258|-68.370778|-141.187886|-90.325337|-153.389623|-246.093189|-134.849410|-82.742578|-31.090306|-6.433583|0.068535|-6.669072|-30.519915|-115.033332|55.246154|176.263183|273.253265|415.583483|217.543131|402.730638|603.161627|785.600628|382.765951|7.722145|-49.929316|442.016773|570.224025|529.722401|232.936577|139.069427|187.949579|74.887672|-106.220987|-229.780086|-189.303860|-103.410033|-41.342844|-19.011732|0.136064|0.685042|-0.689043|-65.316670|99.582617|161.562468|347.275438|462.172655|309.731259|544.241787|488.593986|355.121248|138.663354|-176.043710|-164.043156|313.595439|556.679675|692.773629|363.091852|378.876910|133.391869|-63.302107|-117.054611|-106.773309|-109.340336|-108.757559|-39.725991|-1.979824|0.955927|0.371099|-1.516915|-7.513263|82.023824|93.184859|321.737178|459.017786|374.368093|473.114594|440.210951|247.963457|62.832054|-144.463390|-40.433791|584.485834|887.854069|751.584872|466.292733|384.536073|-27.633817|-227.721935|-36.626816|-60.041624|-207.903881|-144.377398|-27.264336|0.574809|0.286415|0.640252|-3.634955|-14.789160|-49.047665|-9.782855|167.264839|513.877889|430.383482|72.376571|-93.865036|75.933225|267.503470|-80.381620|263.994889|774.742775|782.077336|490.924876|362.165431|149.160727|-30.275294|-277.929957|-185.488233|-239.476838|-182.283522|-166.040135|-64.163589|-0.431618|0.622593|0.618217|-13.078806|-69.231179|-123.051354|-92.394454|-80.490747|103.223269|83.980839|-72.171177|-50.434908|-103.357343|-178.191926|-42.030601|464.978883|613.102426|287.975318|297.830270|4.237936|-48.168248|-241.981186|-291.096590|-322.242316|-262.194938|-221.909182|-107.729673|-33.355129|-3.540906|0.327452|0.976057|-17.680562|-60.677867|-205.690893|-181.849133|-267.253531|-123.404146|-103.365645|-279.483569|-385.673174|-375.835429|-269.639005|-62.712129|97.417335|132.270601|58.894206|-130.952518|-440.769047|-550.762110|-370.325603|-336.676815|-331.823450|-232.995439|-168.648212|-67.564683|0.603071|0.550822|0.412546|-0.414563|-25.804117|-48.316962|-165.991478|-154.668829|-305.599771|-383.491218|-505.785791|-642.335848|-880.905746|-763.537138|-692.150394|-667.039059|-213.743301|-113.420142|-57.259716|-370.217966|-464.548464|-571.026849|-302.495121|-265.781109|-371.469357|-216.105409|-105.412986|-17.207444|-0.135508|0.707503|0.919490|0.082986|-15.551055|-39.134391|-118.672612|-165.626816|-252.381818|-452.180226|-581.035691|-691.291277|-706.415574|-416.088947|-431.290440|-353.832220|-272.945392|-154.493601|-68.622719|-342.391437|-330.977518|-320.807337|-107.101465|-177.259959|-214.956570|-69.754517|-50.590263|-10.631593|0.636774|0.066535|0.052093|0.218932|1.118700|-20.956889|-59.099134|-52.307247|-209.059322|-283.640392|-312.822702|-348.817597|-345.620581|-361.547575|-309.505297|-279.370322|-144.110440|-120.136386|-46.147969|-145.619343|-230.178610|-246.007187|-101.257288|-99.738968|-107.016191|-41.677585|-42.133451|-30.344971|-12.932522|0.260477|0.142233|0.850111|0.246446|-25.283586|-90.452003|-44.920365|-91.913126|-126.867700|-108.099084|-145.255291|-5.549003|-104.459670|-180.298561|-176.951348|-109.807028|-136.964335|-75.933352|-23.702493|-64.761543|-36.028145|64.808515|77.224597|-80.026714|-52.643049|-25.869070|-8.350752|-3.014804|0.440299|0.937289|0.288450|0.664468|-3.646602|-49.460176|-9.970629|-8.525763|-23.206389|-78.185492|1.933709|115.383822|-139.134312|-330.071301|-152.030826|-86.085609|-248.336956|-125.994016|-13.522490|64.058162|124.339077|205.293209|187.023962|5.387706|-46.736614|-14.668006|1.991116|0.361286|0.445298|0.312411|0.644930|0.905944|-1.226459|6.608594|46.432926|16.289296|-26.034649|35.579511|33.113829|40.297492|-171.158694|-201.872079|-175.875350|-307.791600|-340.085666|-101.551291|-156.506611|129.994036|174.538232|182.116899|116.064806|-70.855005|-60.429177|-38.173079|-3.754297|-2.508210|0.410012|0.939832|0.911029|1.002605|0.261867|23.587383|48.418277|15.386308|-48.201387|23.504794|98.345909|35.058777|2.317581|-97.400121|-48.024657|-113.841178|-160.518826|-49.175404|-34.469355|88.246839|47.670204|125.585348|63.830785|-65.850868|-26.227581|-21.213848|-2.095849|-2.396112|0.140215|0.997072|0.579440|0.550227|0.937786|9.338809|7.728356|-10.344479|-18.879917|-11.794637|-16.939046|83.290151|-59.240464|-123.254267|-51.672025|-85.579555|-67.135274|-60.805922|15.585259|64.590449|24.033121|58.553350|28.737995|-11.768866|0.291859|0.250220|0.223012|0.690017|0.826772|0.225987|0.629390|0.966988|0.223059|0.208829|0.526490|-1.827914|-10.726193|-10.487792|-13.569851|-18.139595|26.488837|26.557274|3.950129|0.854234|-15.369557|-2.320822|15.603468|8.042563|-4.328076|17.807194|5.634162|1.514567|0.763672|0.820167|0.139676|0.773024|0.740920|
~
0.362687|0.463041|0.567692|0.588674|0.092431|0.534679|0.811734|0.301260|0.051894|0.971698|0.000558|0.974646|0.321547|0.748123|0.044097|0.361026|0.027770|0.586763|0.923535|0.406320|0.544557|0.442900|0.713198|0.650332|0.397050|0.649288|0.970854|0.217217|0.788964|0.743878|0.958137|0.151651|0.206919|0.526112|0.754046|0.326472|0.088662|0.612347|0.669188|0.179415|0.651665|0.651773|0.085033|0.854017|0.237313|-1.347112|-1.416897|-0.133114|0.610016|0.055533|0.745772|0.264272|0.572017|0.494738|0.912542|0.969067|0.144026|0.883396|0.186285|0.931477|0.627390|0.145468|0.097929|0.879676|-3.838682|-8.507561|-3.039750|-0.453874|-0.494206|-0.277886|1.476393|-2.146450|-10.461644|-5.827077|-4.369985|-3.853761|-7.632438|-3.890086|-0.841205|0.742221|0.100803|0.828052|0.040959|0.652068|0.334267|0.953501|0.619138|0.541017|1.907873|0.776445|0.418557|0.217756|-8.753046|-15.075103|-14.234228|-15.965705|-13.171348|6.643122|-0.991411|-12.153936|-34.660390|-52.248148|-57.884868|-36.836987|-31.274308|-12.576784|-16.301920|-4.345217|1.802858|0.317928|0.972562|0.375031|0.081667|0.007015|0.019733|0.544397|-0.487582|-2.080529|2.389552|-0.045896|-8.605104|-10.632731|-11.018880|-25.226902|-28.465906|-18.936038|-36.230430|-43.946208|-62.504598|-71.561508|-47.312600|-44.169219|-42.956048|-27.885712|-7.390075|20.574153|15.547888|4.271244|0.882474|0.060393|0.085577|0.858004|0.431924|0.901823|0.192925|-1.725635|2.229792|-5.037614|1.137065|-8.114772|-39.212409|-81.978737|-77.340456|-42.975850|-36.448433|-43.637155|-26.442932|-1.239693|9.306932|-6.436020|-30.284999|2.507898|10.030820|14.749038|11.712479|-0.963756|0.409846|0.715162|0.096975|0.555691|0.674017|-0.596966|-2.622907|-3.912083|-5.146591|-13.757783|-5.256840|-32.635872|-56.242020|-98.958292|-102.176238|-98.644856|-52.282184|-10.985001|18.536409|29.157381|7.407442|9.238915|17.969614|40.592535|25.832857|-14.718715|-25.194138|-26.107014|-14.114672|1.367227|0.358990|-0.053392|-0.724840|-1.586379|-4.602202|4.861482|-5.017696|-10.080335|-29.899660|-55.514585|-72.592525|-104.068203|-81.340902|-66.218958|19.197893|82.362939|112.010424|119.968287|86.766624|60.166381|27.091280|31.775330|38.096890|-16.608659|-37.170652|-36.382334|-19.274818|-0.304653|1.894050|0.139199|1.620709|0.300191|-7.212830|-8.668600|-13.694142|-31.504269|-61.763143|-64.629238|-63.065429|-73.234288|-80.238269|-2.058628|107.398583|125.075418|120.417002|98.577842|73.599753|49.949767|4.792590|-17.149012|11.316926|14.462605|-13.233540|-21.091139|-9.783825|-1.029294|0.185051|0.224988|1.379553|-1.120770|-15.407274|-21.139935|-18.164384|-30.535882|-56.702440|-97.259792|-77.783125|-86.570235|-43.847543|49.218953|80.391204|59.326589|23.917989|13.553582|85.632576|115.120986|49.110858|23.780271|6.435223|48.530138|13.474256|-13.541137|-6.492355|-0.615901|0.016908|0.517118|0.565905|-7.470789|-13.452453|-2.230520|-2.478137|-15.344069|-59.735016|-111.468493|-121.224760|-94.715661|1.402670|55.240093|52.091493|-18.813629|-50.287775|25.650313|63.091647|102.389132|82.013531|45.695711|17.859461|70.004335|10.139742|-11.050093|-7.141440|0.468751|0.018522|0.815947|1.201491|-10.745223|-15.588969|0.400805|12.494762|-4.392782|-64.911092|-97.386974|-79.749607|-39.461617|38.957425|58.316771|-22.806742|-90.819840|-84.587729|-9.472309|36.859422|44.968362|36.180030|-2.191215|26.165089|71.629360|6.994268|-14.044457|-1.968937|0.370292|0.378904|1.010668|1.046329|-10.298240|-14.967375|9.837294|27.245137|-15.673770|-42.968670|-51.698872|-17.522242|49.419932|123.844089|90.781361|-51.995079|-117.725572|-84.039443|-30.103723|37.320537|16.249346|-5.961927|-26.278303|34.699013|59.491088|21.697820|-8.765890|-1.123723|0.644248|0.930582|0.364036|0.135304|-14.884504|-19.263609|42.209660|71.411669|46.335651|-5.949688|-3.456771|39.327326|63.474789|93.518926|-22.789696|-124.081266|-139.774111|-90.385588|-16.194157|26.923136|-15.376866|-57.117075|-36.861820|21.724412|39.920606|25.816979|5.410228|0.142350|0.889310|0.660286|0.611096|0.516364|-16.401652|-10.764371|46.634475|76.110358|47.232708|-20.084223|15.850159|48.629330|73.651819|38.785340|-78.884386|-148.270554|-154.438459|-102.295096|-13.464891|30.117559|2.992741|-20.992607|-19.674756|21.021474|38.041266|19.361124|-0.530823|-1.047306|0.816402|0.668449|0.293670|0.380816|-24.046504|-5.533090|46.438019|53.663170|26.861440|-11.555302|63.201645|49.901799|40.168340|-42.106613|-130.597628|-154.437562|-130.191570|-67.894990|-5.031248|28.592044|-18.665442|-31.572581|-35.504899|14.488350|38.361091|17.395389|-10.130671|-1.753164|0.893786|0.014228|0.005502|-1.727887|-26.762931|-1.728940|26.045314|37.258343|21.714517|75.174811|85.534886|56.858766|-40.092034|-137.954789|-161.771934|-106.520725|-45.096868|-12.985412|13.271742|-3.288771|-65.720306|-38.862569|-58.236942|-8.896348|8.674830|-5.964226|-15.011955|-2.442240|0.322404|0.409777|0.933494|-3.589819|-18.400956|-8.902212|14.667704|59.847548|57.641617|92.934985|95.368380|26.885409|-114.863603|-180.180707|-163.841185|-100.838867|12.649214|21.183914|6.910145|-38.026598|-65.570106|-54.692642|-32.270742|-13.124953|7.427936|-15.031584|-10.575007|1.354120|0.097258|0.635268|0.946206|-0.826587|-31.525772|-19.001179|-2.195321|77.563829|106.305048|98.347098|88.682256|-18.103825|-133.396363|-170.063082|-145.406787|-62.409002|20.824849|-12.135483|-32.198190|-40.449365|-61.793686|-62.132047|-27.735561|-19.336042|-13.205288|-7.238556|-4.896722|0.716593|0.151265|0.241248|1.670805|0.197125|-24.567074|-13.588685|-8.395556|82.332350|94.173189|114.216924|79.066413|7.243096|-95.469951|-82.896296|-51.094208|2.090552|-9.004584|-20.024383|-68.016498|-83.274459|-92.845275|-66.876368|-27.969475|1.194215|-13.745224|-7.534472|-7.702662|0.761074|0.662177|0.183070|3.007094|-5.144160|-26.064299|-34.182780|9.196629|34.647319|83.893788|100.030019|72.553744|54.997868|-19.376717|-23.159732|21.799087|-1.823245|-21.771187|-66.881331|-63.319289|-109.147993|-112.621467|-55.042046|-26.807107|-16.168172|-21.802300|-23.757506|-6.974500|0.862673|0.362359|0.179101|0.792616|-8.601745|-24.014854|-40.255495|1.275455|9.294334|54.581658|106.393305|83.522780|58.262893|37.514326|31.395342|16.688898|-5.809659|-42.047781|-82.019779|-107.201796|-101.999794|-58.170073|-31.996196|-20.845210|4.816027|-10.067541|-14.863815|-0.636014|0.432219|0.081287|0.523277|0.297610|-1.473208|-10.297399|-42.808256|-29.312575|10.572717|44.790896|84.843976|113.128487|87.966022|45.345078|32.619695|29.702096|-13.446905|-42.616008|-86.321129|-81.852305|-89.415670|-46.806440|-25.471534|-9.980783|3.787221|-3.276904|-6.063350|0.832001|0.040992|0.847048|0.279846|0.455720|0.651533|0.422334|-14.946851|-34.352621|-27.726105|-4.230567|23.940652|81.554523|143.490268|117.407807|64.585202|8.296680|-24.217025|-49.622223|-40.211017|-40.619138|-66.170951|-51.169099|-26.737332|-16.202077|-4.020966|-1.721547|-2.071362|0.583093|0.189784|0.680177|0.578021|0.426115|0.423575|0.690749|-4.203778|-16.517889|-25.046307|-22.319434|-6.226962|27.446134|49.016773|32.254094|0.512305|-41.760671|-64.960587|-39.128319|-17.726586|-24.175076|-36.073355|-18.789326|-14.073286|-22.260764|-6.221104|0.717190|2.060177|0.424650|0.079558|0.336418|0.079261|0.429664|0.013342|0.659724|-0.663384|-9.263772|-13.297789|-9.649111|-17.371082|-17.945931|-17.302751|-16.925027|-38.338017|-47.259643|-32.127270|-10.243649|-6.479096|-16.168282|-21.191752|-14.984007|-15.372359|-17.918435|-12.795070|-1.342489|0.924562|0.907476|0.371187|0.782299|0.353571|0.450753|0.118717|0.432702|-1.165009|-5.557000|-3.627302|-2.167048|-5.832093|-9.071472|0.925688|12.513296|9.397687|-2.663377|0.262771|-2.158472|-4.885711|-7.893816|-1.973426|-0.533435|-3.729826|-4.405092|-7.175327|-1.804237|0.195166|0.991953|0.315798|0.075208|0.902721|0.686644|0.857508|0.256292|0.137397|0.979635|0.697538|0.075564|0.174063|0.611993|0.573992|-0.433247|-0.992828|-1.720320|-0.838782|0.035934|-0.607232|0.084094|0.253444|-0.503920|-4.100323|-2.025974|-6.077033|-0.772171|0.934226|0.653087|0.852044|0.129709|
~
0.645040|0.167842|0.204917|0.547761|0.854486|0.062425|0.804053|0.991882|0.038650|0.493176|0.009696|0.150188|0.272324|0.763590|0.940944|0.656913|0.991523|0.410033|0.822819|0.065929|0.381696|0.112836|0.847788|0.388203|0.606328|0.151670|0.134296|0.540554|0.804756|0.986340|0.670263|0.449796|0.154182|0.875543|1.011114|0.028409|0.917658|0.642898|-0.204626|0.854018|0.239513|-0.107642|0.011845|0.346964|0.676398|-0.038223|-0.009879|0.570871|0.319163|-0.091723|0.751954|0.852775|0.159763|0.679190|0.247232|0.766090|0.830860|0.381528|0.306645|0.635735|0.367871|0.978122|-13.576604|-14.817931|-4.822098|-2.791452|-3.354455|-2.986401|-2.185236|-2.481134|-6.051988|-4.488872|-3.621714|-4.402745|-4.226582|-3.334704|-1.189679|-0.432027|-0.667386|-0.027627|-0.097668|0.948466|0.296054|0.177360|0.591529|0.543286|0.949803|0.413560|0.885627|0.145613|-13.662825|-15.357900|-6.000283|-5.261268|-14.448014|-23.109312|-20.859833|-22.456242|-24.913143|-27.477935|-35.487772|-33.437737|-27.764967|-15.161609|-9.959520|-5.693319|-3.669531|-0.974404|-0.394939|0.825397|0.910512|0.025165|0.726968|0.219896|0.223235|0.217868|-0.200143|-1.626771|-14.673778|-17.912408|-27.426783|-41.518011|-35.288714|-41.041055|-39.772298|-33.076579|-33.297284|-58.456043|-73.140596|-67.797610|-39.824093|-33.433512|-44.504766|-40.282582|-29.118023|-4.220629|0.028155|0.040178|0.190324|0.597772|0.984126|0.143458|0.641471|0.675140|-1.411958|-5.518424|-20.077078|-23.294341|-40.177313|-88.740751|-86.453371|-96.196873|-101.150136|-120.515943|-124.407565|-132.666144|-140.330363|-121.268038|-104.342870|-69.554860|-73.797395|-61.593662|-35.409000|-14.048077|-1.725563|-0.154426|0.300515|0.134419|0.354353|0.438486|0.740070|13.941815|20.726515|10.933983|-17.198879|-42.539071|-14.121203|-71.561386|-93.052256|-100.646919|-165.278640|-208.715045|-185.203288|-220.260141|-196.935436|-170.425188|-120.918996|-65.415157|-42.657888|-13.987952|-27.609536|-35.196936|-22.869072|-10.732053|-7.343168|0.142312|0.955191|0.271222|1.349812|23.873957|38.307172|11.972027|30.293738|15.944469|-3.093660|-90.547085|-82.921895|-115.539757|-144.266215|-94.543984|-111.764830|-113.478330|-81.417451|-84.852504|-72.235505|-21.080960|-7.120533|-14.488984|-22.694877|-39.235189|-39.256433|-22.173137|-9.802377|0.187538|1.033015|1.134752|10.688285|29.198314|53.405859|56.245716|76.553735|93.421185|16.220172|-31.523639|-25.067806|-60.758835|-36.226799|-93.516672|-121.149590|-63.135002|-37.854595|-81.830444|-72.757257|-88.720326|-44.300496|-11.975210|-53.503416|-39.169794|-14.528630|-17.976989|-6.169424|-1.448284|0.597573|4.874819|12.155044|42.181711|76.072051|112.144763|139.937091|104.627877|47.015201|35.656383|-4.910342|18.848603|63.002368|8.997761|-45.394469|-35.011646|52.401167|65.245380|9.961399|-5.674931|16.627397|44.535929|-44.724283|-54.322833|-6.509705|-14.563399|-3.747060|-0.500283|0.852101|4.123772|26.619884|71.996205|87.068861|98.669532|90.722218|64.259396|41.155497|80.895115|116.010889|105.167862|111.173619|98.326824|38.075736|-11.673236|83.594222|133.766815|92.645885|56.221689|109.549248|56.296212|19.840655|-37.095610|-46.621300|-22.046128|-7.393339|0.091645|0.383507|2.201432|29.558199|69.308436|97.548737|88.047737|50.678207|63.210467|56.436090|140.982691|186.335962|244.871946|167.019347|118.428191|56.591492|9.528739|53.513483|97.354116|151.515655|122.353610|98.612221|66.090626|58.095625|-47.839945|-51.491331|-22.899017|-17.788223|1.007243|0.936202|3.443799|15.314276|31.130292|74.073767|80.230543|37.413408|129.899364|136.751925|192.843662|220.121791|132.091237|1.625939|-93.412089|-98.400717|-109.157268|39.065590|105.185997|212.231545|66.165736|104.112212|72.736631|66.087882|-43.927248|-45.466294|-6.271027|-7.633732|0.376319|0.870945|0.726535|10.863359|26.859232|34.742504|13.685291|-12.935210|-3.618560|49.010980|47.372478|68.710163|-58.821750|-153.712219|-240.119527|-237.850561|-220.245025|-124.382578|41.723096|122.447180|33.154396|131.073307|79.018540|33.048731|-3.445853|-27.361110|0.140067|0.430196|0.273577|0.906637|0.134024|3.048475|23.391947|-0.762251|31.247381|-5.394814|-44.118714|-7.477330|18.725892|-12.020026|-186.266592|-279.080160|-279.080078|-237.660535|-231.966536|-97.113885|29.660119|47.889087|105.638561|154.087454|68.784471|25.625430|9.244920|-1.892161|10.166890|1.033708|0.771718|0.275085|0.578272|4.986055|5.930462|3.607996|22.715472|26.638777|41.741155|17.642130|-1.592760|-92.857768|-286.044954|-323.221042|-316.661441|-260.719357|-209.008462|-38.592628|50.224601|103.034459|91.569796|132.764324|28.481540|-17.344131|-42.906446|-14.204897|7.480331|1.278352|0.969292|0.416832|0.243901|2.586771|3.616212|-11.191945|-28.456546|-6.889460|31.328904|-9.293412|-99.673254|-230.708669|-354.097495|-391.710438|-358.521149|-245.526364|-143.297136|-18.204064|53.249379|37.693653|37.020225|44.034447|-12.003115|-75.186124|-72.496825|-45.946343|-8.327598|1.252261|0.324919|0.323312|0.584485|1.088070|20.363810|14.536064|-11.616147|-62.589128|-47.855019|-41.031154|-135.970249|-253.389265|-317.568368|-299.933915|-211.791503|-113.348459|-16.910776|-11.425617|23.529479|11.988170|-9.005945|-39.234827|4.571313|-18.135085|-57.360775|-31.562985|-6.208024|0.839163|3.378921|0.361839|0.234258|1.807332|19.307054|19.993739|-23.187023|-78.275037|-78.634165|-93.396324|-154.269660|-205.514700|-236.630859|-209.034736|-103.151734|-31.147335|13.723738|6.262592|44.323035|4.389485|-31.035620|-6.302141|22.114966|-20.718700|-59.338204|-24.003298|-0.103515|0.675381|0.179182|0.099684|2.973416|0.024184|11.599514|27.730831|-46.666037|-99.997136|-95.133491|-91.530859|-153.467124|-214.472473|-214.475744|-139.135244|-78.880860|-73.044480|-64.583386|-11.257016|25.003465|-7.349005|-14.415361|-36.769646|-43.815349|-55.104398|-57.678649|-17.688747|0.563605|0.469602|0.119485|0.368301|0.507736|-0.213244|-17.515444|-36.633036|-82.076673|-135.929903|-141.719372|-112.472594|-145.384452|-140.159184|-128.483252|-115.327135|-63.367836|-65.500745|-52.704889|-75.870282|19.583870|-18.480225|-14.831145|-63.392262|-75.609136|-61.758221|-43.923322|-7.817322|-0.026908|-0.182937|0.950967|0.339396|0.274377|-0.498594|-20.763636|-48.086376|-86.850348|-136.782019|-165.925013|-172.632724|-178.178800|-131.796378|-105.680654|-68.529493|-63.318839|-31.085943|-13.787175|-16.037712|26.850888|30.846439|4.667246|-23.767222|-49.409500|-36.616794|-15.557863|-8.107786|-4.163647|-0.714856|0.355281|0.426292|0.135715|0.272631|-10.224143|-33.259706|-59.515869|-89.336999|-123.387597|-148.241397|-153.572172|-159.198414|-120.123743|-85.162165|-44.375782|51.435539|15.649304|1.236151|60.820777|46.286266|-5.847398|3.645870|-55.522583|-43.499188|-18.296273|-9.223127|-6.107934|-1.137035|0.281243|0.283431|0.319992|0.529066|1.057185|-9.229567|-22.303936|-30.850765|-59.012511|-64.481849|-94.742871|-55.872278|-49.031910|-32.510736|16.811044|84.266452|53.533636|60.487494|85.241795|24.632807|-26.528763|-5.227717|-38.007909|-34.092245|-27.520404|-1.441906|-1.562389|0.739924|0.862224|0.062980|0.070476|0.019744|-0.362111|-5.071328|-7.850008|-14.397087|2.597752|-8.247239|10.957293|11.683572|-34.577529|33.359367|62.955569|92.201613|54.635450|47.359890|51.318451|-37.347997|-30.917452|1.160469|-26.110323|-23.108964|-26.872100|-0.089359|0.519342|0.460971|0.422579|0.289965|0.300903|0.275136|0.382763|0.714155|-2.669718|10.801837|26.114172|38.743582|80.268203|63.872254|26.789729|78.649320|126.693076|174.841148|134.098418|118.699604|52.760075|-39.569570|-24.858147|-16.041669|-0.457299|-1.549763|-9.181012|1.077153|0.977139|0.099180|0.736300|0.914655|0.559207|0.158879|0.204707|0.889589|2.143560|14.393203|24.474806|60.687546|68.183624|14.390902|11.147111|22.041386|7.259148|93.293306|100.416588|94.037561|32.688220|-40.883760|-17.764412|-6.728670|-7.554481|9.828137|2.392812|0.191223|0.681238|0.926776|0.178678|0.663937|0.027004|0.914978|0.578591|0.586211|0.080012|0.809466|0.621587|1.258649|1.894676|8.693961|-1.991423|-7.681935|5.420277|25.977111|25.266709|13.405136|7.719970|8.449004|6.343211|2.828118|1.908515|8.329358|3.114798|0.890240|0.299014|0.835491|0.079884|
~
0.980252|0.762266|0.258562|0.644188|0.789271|0.173541|0.222780|0.375482|0.247398|0.005991|0.821803|0.764936|0.347340|0.501158|0.154748|0.944476|0.170757|0.624127|0.554583|0.443264|0.103245|0.464249|0.639342|0.539356|0.441101|0.848350|0.798026|0.331341|0.147364|0.633517|0.411225|0.127616|0.395783|0.669883|0.776094|0.194967|0.867287|1.032790|0.585373|0.129690|0.104348|0.418176|0.829512|0.307780|0.853666|-0.041640|0.224622|-0.009713|0.547749|0.780053|0.462067|0.737570|0.310637|0.135314|0.276815|0.751738|0.983664|0.074841|0.083080|0.131332|0.708390|0.494671|0.236158|0.087443|-0.453501|-6.809161|-6.486441|-3.523359|-3.697055|-2.228669|-4.584564|-1.203733|-7.235404|-4.766154|-3.059219|-1.672449|-0.517420|-0.299886|-0.008306|0.573361|0.490689|0.657227|0.335566|0.821776|0.798015|0.612381|0.573247|0.778462|0.680949|0.627348|0.880318|0.276580|-6.932475|-15.769337|-21.253658|-22.566458|-21.091200|-17.615952|-16.523850|-21.655858|-24.123729|-28.749440|-33.511067|-20.885219|-4.983847|-8.024350|-6.962129|-0.490466|0.097966|0.152951|0.944398|0.801271|0.814171|0.271925|0.622234|0.611533|-0.731194|-3.496154|-3.698770|-7.400534|-15.761255|-20.280552|-14.404763|-22.386101|-38.979395|-1.768558|3.878085|-3.818746|-21.651535|-33.436780|-28.590223|-19.675696|-8.992840|-11.899541|-14.298270|-7.368437|-5.972766|0.675082|0.769707|0.075774|0.901324|0.710977|0.875781|0.764236|-1.545394|-10.296848|-16.048579|-21.245980|-23.858164|-16.735716|-10.902188|-27.328257|-5.781571|4.208761|31.935746|35.203359|28.237549|8.149606|14.026625|8.285720|-0.195319|-27.792034|-32.446715|-11.553996|-11.469998|-0.170728|-0.011927|0.040610|0.537789|0.786043|0.025608|0.053487|-3.520215|-11.663135|-22.955947|-26.296440|-25.852301|-20.363893|-17.051444|-2.011245|11.050542|15.868966|5.594039|-9.434538|3.380376|43.461847|13.486217|-3.862701|-19.686868|-29.433521|-47.084466|-30.979620|-24.055387|-12.418517|-5.584044|0.098395|0.022155|0.171432|-1.150474|-1.575172|-5.200269|-7.130376|-18.127777|-19.289534|-10.961759|-5.101821|7.973819|25.085484|38.091705|43.050257|26.406060|-11.150709|-2.071212|47.707481|45.490767|-0.279917|-22.247309|-26.143848|-32.407090|-32.219928|-30.403450|-27.604211|-13.711948|-0.761815|0.895179|0.238419|0.333823|-0.900463|-7.664149|-18.755737|-14.092534|-6.706876|-11.577681|21.941240|68.330910|44.388346|44.457889|40.436187|56.641887|53.607868|47.662022|46.288398|58.447894|26.725248|-0.082670|-13.831432|-1.127356|-6.894243|-19.234275|-19.440577|-12.952785|-1.502745|0.839745|0.094885|0.364345|-1.350105|-13.582855|-15.155673|-23.261447|-11.894590|6.328716|32.081957|60.882105|49.345662|10.118048|6.646634|13.522856|25.195227|27.969750|13.309017|44.879441|61.824558|37.476871|23.445432|13.739351|30.359723|2.131579|-7.243302|-7.818379|-0.835005|0.801168|0.360255|1.081112|-2.819350|-16.016746|-1.238034|-23.086166|-0.895461|24.928360|19.298228|34.241085|19.976663|-34.699389|-49.591559|-15.557828|-31.026912|-32.354847|11.293896|53.439076|54.125816|54.372419|59.562526|36.099759|54.784916|20.043985|-3.787921|-6.738073|0.265761|0.547721|0.512211|0.854448|-4.733661|-20.280037|-11.569943|-0.058609|31.925240|27.113970|24.160620|18.731905|-27.153404|-58.758412|-65.239438|-80.878437|-78.194040|-64.806850|-29.300048|4.942024|8.052113|22.409543|49.425837|57.645830|77.322127|42.394908|-3.096149|-2.244074|0.236616|0.088720|0.576663|0.703486|-4.248573|-19.880571|20.285577|42.786687|11.479580|9.638656|30.851779|12.443794|-25.287256|-46.183721|-64.516049|-81.230349|-88.563691|-84.388709|-88.841666|-56.168085|-52.947416|-14.136001|2.867328|46.126753|76.004336|60.078950|4.464076|0.206118|1.003454|0.859400|0.595744|0.361147|-2.627312|-10.893635|43.768619|66.249075|26.140060|24.652557|17.879302|-2.590623|-45.524251|-64.423404|-79.938283|-91.234153|-111.776436|-109.987036|-116.089107|-96.527063|-72.789459|-26.640973|10.084882|33.764331|72.525756|62.537382|8.554757|0.721343|0.971005|0.214914|0.132053|0.961035|-3.490293|-2.563615|49.127400|66.390911|34.793622|37.770387|29.141986|-2.087596|-54.178341|-82.300776|-76.601324|-89.564875|-106.580349|-106.395971|-117.411608|-95.595910|-46.275876|8.563358|35.533261|39.139509|59.941727|62.295385|7.688930|0.482545|0.521688|0.646472|0.334026|0.425489|-5.246302|9.824305|43.529410|50.057834|45.211162|42.417325|29.147247|-41.480990|-54.103970|-73.312270|-88.953309|-101.007961|-99.510700|-112.844311|-135.022001|-90.388860|-21.929853|9.940556|15.116287|51.134289|56.181217|45.508028|1.739980|0.499327|0.286395|0.937839|0.125080|0.574422|-7.322761|-1.726062|41.706136|34.833662|46.421766|56.514002|26.559179|-15.810800|-39.448696|-75.668906|-105.998656|-109.143500|-106.638568|-137.276238|-146.974024|-62.386177|-14.965420|23.030352|4.465884|38.610574|35.187712|22.923509|-4.893808|-0.916174|0.284567|0.903171|0.969686|0.349144|1.829334|8.613817|40.074271|45.530025|53.948964|62.320373|52.966864|16.288043|-37.107631|-84.584083|-117.672107|-129.004091|-120.025037|-133.421471|-111.714226|-43.320898|10.357314|16.097998|24.883399|17.397234|3.186256|6.815822|-7.456065|-2.705349|-0.156300|0.715218|0.485916|0.621758|-6.001294|-8.415967|12.905320|27.182966|69.801638|75.687618|78.296235|46.232054|-17.454620|-68.596808|-94.984912|-85.509712|-97.156514|-96.740069|-47.985148|1.094859|31.315789|35.657554|36.093440|19.971697|-15.027246|-7.271771|-3.722941|-0.440722|-0.312997|0.658324|0.721030|1.333733|-9.886643|-20.065047|-5.505356|21.420087|36.659147|49.110125|86.524129|66.051615|23.646683|-16.974248|-36.083382|-10.547506|-23.876650|5.099276|31.271892|22.036638|1.259262|33.268520|47.732005|10.357439|-14.184931|-6.847535|-0.851324|0.591152|0.972702|0.891793|0.294936|-0.043363|-11.180799|-25.796710|-18.613549|-27.066196|-7.804291|11.625277|51.537746|80.298522|58.819954|29.046191|-5.104208|-3.463430|-15.538248|15.854196|30.888248|0.336286|-2.310502|32.685581|17.648889|-12.510295|-29.126687|-15.707049|0.504885|0.948132|0.364527|0.422335|0.577259|-0.259293|-5.290932|-17.782111|-35.879030|-36.397714|-31.026678|8.691158|15.601186|33.653344|39.981954|38.842361|13.859619|4.892451|-1.264935|8.525978|6.933257|0.594438|22.583316|12.337966|-11.797832|-24.217175|-26.640926|-11.457827|0.053621|0.597940|0.038976|0.751828|0.516221|0.403241|-1.694466|-15.685561|-27.852205|-33.693248|-28.619643|-14.022607|-6.191796|-10.484071|4.245984|31.886830|60.724428|35.375785|40.454166|37.189634|18.503498|-0.663903|24.383126|5.721364|-21.345807|-10.939805|-9.484171|-7.069351|0.508295|0.676207|0.707629|0.704292|0.251080|0.724706|0.546439|-6.353157|-18.581302|-26.232728|-52.128035|-39.536517|-16.693958|17.974142|26.502621|27.630531|22.586195|31.018818|39.146558|32.603812|26.558089|7.793407|-10.911402|-17.606709|-8.314013|-2.864565|-1.567581|-4.084675|0.232880|0.788652|0.306460|0.783691|0.454487|-0.018270|0.557041|-1.798545|-4.732962|-18.774537|-35.094960|-30.280979|-5.317060|-9.980357|-21.408591|-8.499549|-13.876302|-6.901313|2.383998|-4.009730|-21.701749|-17.118523|0.673258|-9.232476|-15.508659|-3.768288|1.173383|0.716817|0.712010|0.113464|0.655136|0.912135|0.898100|0.959567|0.706702|0.417699|-1.251718|-5.147769|-16.121931|-15.908615|-19.162634|-22.494250|-29.550095|-29.884041|-24.039417|-23.599709|-21.739704|-13.793302|-16.058834|-5.559675|-1.960866|-13.274740|-13.129272|-5.317812|-0.406514|0.559337|0.251067|0.841424|0.166884|0.948566|0.954365|0.822021|0.858977|0.843388|-1.615547|-0.911483|-0.959047|-2.182670|-5.682305|-3.070505|-6.027420|-5.902262|-6.575913|-4.521852|-2.768096|-3.448312|-8.628861|-1.292475|-0.479679|-6.957206|-9.224486|-5.106265|-1.293000|0.861858|0.575105|0.259204|0.427711|0.824615|0.100168|0.594596|0.773180|0.054533|0.424319|0.656471|1.012792|0.307788|0.043783|-0.036505|-0.282954|-0.387916|-1.482467|-0.896588|0.636734|-0.535422|-0.334949|0.394012|-0.571716|-4.273584|-1.858851|-3.996120|-0.525196|0.861125|0.092090|0.896149|0.722161|
~
