2|200
#
~
0.484080|0.872276|0.718801|0.873205|0.438219|0.959235|0.053815|-2.206790|-2.066895|-1.682287|-2.590887|-3.371682|-9.761007|-6.978431|-5.645121|-4.197928|-6.274269|-5.896300|-3.071062|-2.652410|-2.135227|-2.502829|-4.334173|-4.136738|-3.389530|-4.105310|0.714433|0.802595|0.411794|0.187275|0.567169|0.961954|0.051791|0.221352|-1.569533|-1.597588|-1.932514|-2.726714|-1.628771|-10.233801|-10.227129|-11.480642|-4.899379|-9.179239|-5.491421|-3.818044|-4.040553|-3.264321|-2.481803|-6.368945|-2.798674|-4.279137|-3.617406|-3.836973|0.089703|0.585270|0.484245|0.804136|-4.066006|1.494737|9.691936|3.897336|4.142325|4.176752|-0.883986|-4.838322|-8.786082|-15.644061|-12.310310|-12.998335|-9.918335|-8.053034|-1.439986|3.008878|5.969332|-2.998979|-2.533491|-0.900768|-3.633574|-5.775870|-3.651753|-4.959055|0.266494|0.697884|0.774874|0.356198|-1.032905|-0.104707|-1.609754|-2.555676|-5.161314|-4.611788|-8.766949|-8.200626|-15.139513|-14.133756|-0.112692|-9.727478|-5.594074|-13.654060|-9.936613|-0.298003|9.888555|9.257189|3.425398|-3.793318|-5.624472|-1.863214|-4.104718|-5.027380|0.660212|0.836132|0.511850|0.920304|0.663678|0.738411|-3.003932|-6.174907|-9.252710|-9.158546|-0.236185|-6.074847|-2.984623|3.249798|-0.444901|6.556748|-1.095932|6.985798|7.557998|22.425266|-5.521183|11.126253|-1.071006|-7.550399|-9.046436|-11.507779|-9.548224|-6.442749|0.502934|0.086036|0.101903|0.288793|2.113277|-0.018544|-3.928557|-8.843897|-5.942684|-6.514593|2.894752|3.412278|14.048789|14.524479|8.916748|11.578334|-19.510721|3.177458|13.939077|25.801272|0.944014|6.090852|-9.250802|-8.541981|-12.728122|-10.216182|-3.721565|-3.875169|-0.070727|0.748544|0.301977|0.653602|1.494976|-3.152319|-3.246492|-6.570047|-2.949112|-2.927699|4.683450|10.217660|0.880133|17.703973|33.052599|16.286004|-0.180992|17.130602|44.898020|49.222375|18.356768|16.761412|0.295266|-6.870224|-9.689114|-6.502197|0.266526|2.828580|6.963445|8.168005|0.751243|0.864177|-1.108722|-2.868336|-1.127018|-7.007025|-3.626663|-3.814312|-13.740774|-8.230777|-6.102174|-1.095361|12.945472|12.327976|22.787360|32.226234|55.635881|51.390823|40.536421|22.966950|27.161286|3.461190|-1.447030|0.498733|0.710419|5.898684|6.045563|7.182932|0.950949|-0.052541|2.928321|-2.286056|-4.874381|-8.188922|-8.811003|-2.508729|-12.087906|0.383449|1.817683|-3.666187|10.275115|-2.112490|28.332031|32.191440|47.400878|43.815466|53.287069|39.475464|35.045045|10.363019|10.471186|7.609692|8.953092|4.860507|6.866922|6.447243|0.404234|0.125527|0.465973|-4.064465|-5.313533|-5.749752|-9.944608|-7.557757|-15.287312|2.601998|-15.690101|-16.001317|-16.359143|-26.125536|14.322496|14.322941|12.859243|31.321913|28.701578|12.793072|5.005806|2.683579|6.620431|5.529727|9.794053|11.732448|6.976404|3.023162|0.537077|0.175430|-1.008882|-4.170507|-4.506540|-6.737282|-11.234658|2.644825|1.307911|-10.863291|-20.820447|-41.566241|-43.775619|-38.463127|0.546603|17.297650|14.533415|14.951299|14.494427|-11.893300|-12.368939|-18.416275|-2.399151|6.359209|5.638568|6.288418|2.750545|2.663001|0.364193|0.109649|-3.065902|-2.124373|-4.440422|-8.279077|-12.936214|-6.474812|-7.310078|-16.841442|-21.828395|-28.276756|-33.115015|-16.383415|2.159565|27.381469|2.429083|-0.408990|-28.735378|-38.585116|-22.966885|-29.641607|-2.592801|7.985245|11.774265|2.352792|-0.844763|3.455536|0.936738|-0.546277|-2.449792|1.572362|0.533695|-2.328480|-8.885161|-8.564004|-12.302215|-25.183962|-33.692549|-46.905162|-28.170293|-7.613755|3.926922|9.581031|-17.731309|-26.193036|-47.911448|-38.195572|-33.822503|-25.237713|-9.237529|5.045855|5.322432|-2.198285|-0.968352|0.589006|0.462697|2.896044|-2.044261|2.478207|0.686068|-3.373013|-6.212768|-8.444687|-11.411671|-18.842040|-0.188292|2.665587|14.328719|21.324955|22.881595|-6.958659|-39.979613|-64.820302|-71.389153|-56.871082|-38.845333|-21.964195|-8.880760|2.867506|1.689248|-7.439416|-5.225629|-0.951550|3.545256|4.080295|0.367646|-1.457268|-7.619683|-9.421053|-11.276857|-12.624527|-25.059228|-10.725678|6.148093|23.053521|15.525650|32.540908|-4.749406|-23.221994|-62.673627|-76.809978|-78.329294|-58.004058|-23.515121|-9.350490|-4.720162|-2.426333|-1.798261|-9.973843|-5.700029|-0.262920|3.485774|3.493788|-0.488065|-4.095859|-10.906078|-11.852206|-15.588063|-20.394098|-22.976197|4.629725|12.719412|6.869686|20.152835|25.213007|-4.053225|-17.467818|-32.007017|-48.477697|-41.177272|-36.570897|-15.079624|1.236498|1.502617|-10.851270|-3.109795|-11.965762|-7.660850|-0.276999|0.130344|0.402320|-2.833428|-3.206524|-7.218977|-5.483767|-11.668389|-17.684225|7.156977|31.473507|27.042234|10.833018|28.512631|30.230807|25.152030|-13.778901|-12.036255|-18.971267|-23.481460|-27.816070|0.964421|3.150314|-2.227006|-8.969418|-4.164441|-11.032301|-7.099820|-0.650460|0.757479|0.515520|-1.521965|-1.985085|-6.216138|-5.636853|-6.893934|-17.854758|2.584502|-3.787311|16.484695|21.729452|18.982914|8.343380|-1.476710|-11.319781|-13.301979|-8.819543|-26.381504|-15.888411|-17.336908|-2.946478|-6.215492|-12.471044|-4.753786|-13.763707|-3.724718|-0.718869|0.264900|-0.660878|-1.755064|-0.895609|-6.118561|-2.998194|-10.471954|-10.515628|-4.680730|-8.752491|4.352491|16.288678|13.630360|4.018358|-3.793636|0.191374|-14.463378|-16.043253|-18.776293|-19.095261|-8.869316|-13.761586|-7.241789|-12.956290|-6.902828|-3.788153|-3.508901|-0.211490|0.482105|-0.005326|1.975818|0.515384|-3.667053|-6.526007|-7.388192|-7.857409|-2.361236|-13.606989|-20.554840|1.267447|13.756069|-3.565660|-12.747478|-14.876592|-10.246580|-22.092385|-22.187319|-11.203197|-6.335313|-9.178267|-14.519268|-13.170514|-1.848047|-0.848440|-2.915615|0.047863|0.053321|-0.553341|1.170725|2.659644|-4.081238|-3.775577|-6.614097|1.798398|-9.238969|-12.351747|-7.073161|-0.613207|-15.116838|-19.181685|-11.593193|-18.545411|-10.182444|-7.441045|-9.530540|-3.910762|6.809521|3.059349|-3.358869|-4.419438|-1.847455|2.462870|-2.030123|0.399046|0.450497|-0.440587|-2.155402|3.252927|-3.139939|-3.133201|3.827081|-3.159754|-5.768962|-14.157244|-5.046770|2.476390|-7.574231|-21.596086|-16.007096|-14.627962|-9.710310|-7.606112|-6.785003|9.857162|14.652809|-0.785334|-0.219321|-2.838068|-0.387435|1.825322|-0.080327|0.755845|-0.002914|0.401641|0.526591|-2.363440|1.537655|-4.885679|-4.884874|-7.651147|-9.891675|-10.756476|-4.542457|1.705834|-14.584694|-28.695055|-20.846244|-11.375347|-0.424500|-4.087628|-13.549277|-3.422535|2.107608|-9.132231|-4.870468|-14.984463|-9.695074|-3.975498|0.843960|0.660140|0.148458|-0.022802|-3.919043|2.907278|2.513369|-4.657079|-2.786556|-2.655677|-8.246571|-8.036475|8.758095|-1.536575|-18.829262|-32.119362|-24.758715|-13.690479|-2.048838|-11.665179|-12.531301|-11.758613|-5.734362|-1.293845|-1.868767|2.752612|-0.482653|7.057967|-0.005994|0.642408|0.365331|3.735971|-0.393570|15.245117|9.225479|7.921802|0.468785|6.687671|10.053359|4.153043|3.508029|-3.884136|-15.766750|-27.703228|-15.009425|-7.899656|-2.309293|2.768660|3.897104|1.430786|7.489636|7.510916|6.994006|8.393903|3.276709|1.877174|-0.088803|0.280629|3.593567|3.778046|-7.191365|-3.060544|6.127184|-1.198542|-4.514111|-2.996265|-7.910281|0.819525|-1.798550|-11.232728|-15.407000|-14.386654|-7.286111|-0.975187|4.217265|4.860444|2.990802|0.200942|3.008709|5.339490|2.450272|0.737476|0.105835|2.163683|0.274200|0.921489|3.654010|4.360074|3.906125|6.023139|0.393877|-4.080799|-4.313748|-3.316734|-4.599576|-2.233670|-10.044689|-11.025654|-16.920058|-19.403587|-20.643170|-15.290566|-3.929574|-2.527110|0.667429|-2.037902|-1.640608|1.585219|1.995365|2.183002|2.420346|0.602800|0.408895|0.528002|4.050700|3.934002|3.357014|4.637945|5.467283|2.720241|1.936889|3.098940|5.910568|2.309412|-3.113209|-4.950115|-5.839297|-10.779977|-7.767219|-6.966217|-4.308028|-4.190519|-1.994144|0.423291|0.945429|0.425725|-0.351905|0.714039|0.480624|0.860896|0.403628|0.181279|
~
0.508534|0.821373|0.733558|0.358205|0.484013|0.189479|0.347502|-2.906377|-2.074646|-3.193924|-2.482900|-4.756514|-9.771452|-9.198735|-8.021783|-5.339635|-5.251889|-5.056599|-1.919423|-1.991930|-2.779730|-2.928592|-3.182769|-3.478155|-2.629193|-2.878879|0.753824|0.211793|0.382663|0.177853|0.422927|0.940822|0.924922|0.043316|-2.639729|-2.162124|-2.362533|-2.630000|-3.083606|-13.988269|-11.662074|-12.555251|-8.878225|-10.815817|-10.125315|-7.487678|-8.668278|-2.342420|-3.250477|-7.105043|-2.381715|-3.918739|-3.252047|-2.723788|0.488347|0.036339|0.140676|0.242171|-2.904205|9.450317|14.321248|6.434060|10.606343|8.062284|-1.553461|-2.109736|-6.008402|-19.367936|-13.927353|-19.278860|-17.425180|-17.442519|-12.839969|-2.704695|5.216948|-2.947148|2.076893|4.113543|-0.004102|-0.115928|0.260403|-2.419618|0.187419|0.548822|0.872787|0.675766|2.267730|12.616514|11.319284|10.657561|4.228823|5.978755|3.021515|-0.153269|-10.916097|-10.225348|3.446788|-6.466771|-20.366638|-27.937251|-21.991942|-16.539606|3.381984|13.153400|10.489171|5.607543|4.075382|2.409488|-1.405110|-2.706229|0.778501|0.961151|0.309531|1.019219|1.697657|10.589085|3.733301|-0.272188|-5.066095|-4.074255|7.536820|-10.129254|-9.454767|0.680745|4.508989|1.487372|-15.143095|-18.945019|-25.137148|-17.314759|-26.821181|5.545715|-0.089562|-0.437548|-2.335261|-4.872424|-8.347219|-2.103834|-1.419545|0.783001|0.890363|0.939644|-1.104920|2.158683|-5.980330|-10.539780|-6.496822|-3.669959|-1.084626|-1.880349|10.393076|23.517530|21.339145|24.303561|0.485944|6.375714|-3.063912|-0.406238|-16.172283|-2.201829|-7.546555|-3.212940|-5.995978|-5.717669|-2.779019|-4.649423|-1.560559|0.192656|0.072069|0.864852|1.502173|-2.126295|-4.973937|-7.317613|-0.911166|-0.338024|-6.416736|0.674694|0.700149|28.924176|40.577404|29.055256|10.530968|21.357861|23.422704|28.898067|-5.054824|5.182678|-5.740479|-14.383090|-12.645559|-6.272574|-2.022736|0.858411|0.457580|4.201393|-0.122941|0.881820|-3.348303|-5.287234|-5.212252|-7.435363|-6.783749|-4.376017|-25.630677|-4.896165|9.717527|13.479073|22.555024|18.902866|21.438965|40.933075|40.380736|32.161711|10.728501|16.809157|17.987782|-10.401431|-12.699686|-2.510494|-5.066321|-0.619033|1.089933|3.647907|0.472040|-0.421575|-1.593046|-5.608589|-10.008135|-9.450604|-8.959506|-5.294274|-13.799622|5.899629|18.046523|12.036953|20.978637|0.421588|23.656413|39.544897|43.974434|48.553684|42.606267|39.574239|25.745438|-2.532994|-4.530080|0.098178|-0.824739|-0.346952|2.911758|2.873105|0.128399|0.323208|-0.556150|-5.366412|-10.749935|-7.700612|-11.401701|-13.226540|-12.901238|-2.464028|-1.890857|23.394326|9.420910|-13.786009|0.784944|6.768874|38.009534|61.337023|52.576032|23.367292|4.262484|-3.582197|-2.874879|3.330445|1.653439|6.992374|3.759085|1.875766|0.074210|0.373288|-4.183904|-6.885022|-8.904657|-3.459691|-13.051385|10.550276|-1.249379|8.893440|11.956980|10.959316|-19.455563|-42.331346|-10.389581|5.482143|35.604376|53.291901|56.247427|11.242659|2.695524|-20.410125|-7.000962|5.952556|3.282391|7.497556|0.969057|2.613101|0.975934|-1.815735|-6.508700|-2.259187|-7.352078|-1.333536|-11.163369|0.963471|-2.184519|1.487619|22.958759|-9.855465|-35.730116|-34.877198|-10.269347|14.142447|5.751618|49.386834|30.090699|5.147324|-4.902971|-29.870964|-5.984762|3.435759|6.206431|3.700376|-2.063431|2.312038|0.501732|-1.610079|-3.589448|1.972287|-0.600638|4.968707|-7.451760|-0.875186|-15.833702|-19.685447|-12.431477|-46.238033|-49.383893|-33.824729|-8.826965|10.472873|-1.617910|11.969910|1.316539|0.841538|-21.978224|-29.070867|-22.170372|-2.541444|0.007499|1.586390|-1.729511|1.220862|0.519500|1.861490|-1.650137|4.440258|-0.952744|0.085571|-1.646297|-6.815755|-3.219996|-12.346648|-7.557102|-29.730354|-38.798767|-7.600176|10.981030|15.139034|-15.044124|-15.694944|-27.603945|-23.146001|-37.225404|-38.345318|-19.048194|-4.512771|0.695216|-6.670436|-4.908254|0.013352|3.794174|4.151125|-0.992056|-3.213510|-4.118730|-8.533002|-10.566696|-14.325761|-24.023252|-29.747546|-28.108886|-23.916222|-24.459731|1.586766|8.646641|8.494699|-24.420684|-22.102744|-50.079649|-41.657013|-22.617696|-23.364296|-17.126415|-7.489174|-4.139825|-6.620172|-5.834665|-0.057653|4.508723|4.133293|-1.853393|-3.816585|-10.789171|-14.581577|-15.859365|-20.860125|-31.116171|-13.175472|-10.155427|-17.458303|-16.319788|10.943497|12.251199|18.662682|7.238481|-43.855714|-33.124585|-33.252262|-25.155191|-14.503958|-8.616161|-11.099235|-6.480508|-11.050464|-8.613408|0.082907|1.271349|1.193560|-2.631049|-0.653617|-8.053017|-8.153996|-12.366755|-22.532482|-3.202218|10.983567|0.072754|2.141122|12.998130|37.630025|33.729079|7.538819|-3.693308|-23.202463|-29.178234|-32.557546|-17.734730|-9.056712|-8.366631|-11.201403|-9.800668|-11.937506|-7.712158|-2.389106|1.918313|-0.602468|4.679675|-0.649514|-12.191131|-9.310260|-4.051939|-14.010080|5.060042|-13.052852|1.587969|30.634643|25.612984|20.545301|8.624714|10.252708|-6.146996|-13.347628|-32.305073|-28.035431|-42.042958|-15.695636|-12.384125|-11.264010|-9.769957|-13.373017|-3.851576|-1.369113|0.920779|-1.383243|5.888149|-1.444672|-12.496786|-9.354972|-12.767521|-12.564363|-4.876959|-1.583421|20.457123|34.523478|24.754647|27.481768|12.052020|4.346818|-17.945328|-17.612241|-26.423340|-30.915257|-31.415346|-29.294090|-13.767559|-11.871441|-9.241561|-5.292170|-3.427712|-1.629945|-0.659810|-1.646057|7.258404|-1.266180|-7.571384|-9.301596|-5.897171|-2.345881|9.856757|8.545268|20.173688|24.357460|46.177996|22.051172|15.523312|10.254259|4.333917|-9.169865|-30.462243|-18.572644|-27.053792|-23.274689|-22.807076|-16.812057|-1.455937|-0.723814|-3.321770|0.947315|0.461379|-1.765335|6.446627|1.023324|-6.924263|-4.557907|-5.680176|15.888588|17.673397|7.312266|26.207121|26.860972|13.927245|5.580900|14.985335|0.857522|-3.747197|-13.711992|-25.252215|-20.655028|-10.304979|-15.021101|-12.441737|-4.873213|0.278480|3.853846|-0.902525|0.230842|0.113767|-2.582131|-3.122731|0.574005|-1.010287|-0.328974|6.541464|9.948482|26.244327|9.809346|27.987563|20.689863|3.059152|-3.907630|-5.737652|-0.630960|-9.711861|-23.056073|-17.391454|-0.644499|6.776303|-5.222547|-4.289281|-3.500305|1.168363|5.022110|-0.527683|0.278029|-0.661619|-1.949757|-0.270398|-5.289928|1.484936|-5.373356|-4.196192|4.036894|16.939911|10.222171|8.465740|18.059105|3.341296|-4.156311|-6.379319|-3.431504|-15.924827|-17.571480|-28.134182|-7.351019|4.858654|-4.655481|-2.011005|-12.603798|-10.627266|-2.247438|0.456027|0.779223|-0.591470|-1.624473|-1.514060|-0.243124|0.058858|-3.805673|-0.300841|9.240170|0.853834|-8.994582|5.910317|-1.692906|-8.061241|-29.388800|-33.276120|-29.802071|-23.903426|-24.022328|-22.234668|-10.562837|-3.608241|1.823852|-1.231277|3.104944|2.335902|5.068677|-0.039764|0.220451|-0.847371|1.949099|3.231560|8.925151|6.623141|10.891561|-1.203726|14.400775|13.843346|-3.034894|-3.407571|-3.958913|-12.494849|-35.690542|-25.092906|-24.108428|-24.437103|-15.181434|-3.089076|-1.385134|7.778230|13.663061|13.274351|13.754655|7.028523|-2.424100|-0.273571|0.042546|3.543893|3.711161|-5.938552|-2.029099|5.835847|4.403801|-3.023646|1.006257|-5.530832|1.665829|-0.490782|-9.187801|-10.741073|-21.204349|-21.633949|-23.427884|-10.803098|-10.515303|-4.796733|-5.780523|0.060856|3.075445|0.668536|3.308381|2.923743|-3.254339|0.544497|0.909867|3.761048|4.580912|5.593530|11.119895|5.364148|1.111166|0.535522|-0.189834|-3.284250|-2.852471|-15.881746|-16.438984|-19.759820|-24.110206|-33.093069|-25.587881|-12.607843|-14.024105|-8.899424|-6.318834|-3.529112|0.498028|1.126421|1.142223|1.986063|0.258556|0.045904|0.921759|3.546259|4.522601|5.094236|7.853765|10.420538|7.920125|6.699105|6.823923|6.358706|0.425984|-3.625636|-7.296908|-7.802676|-14.728578|-8.985130|-11.349413|-12.151362|-11.570789|-4.243914|-2.788293|-1.010071|-1.307211|-1.519110|-0.734198|0.224197|0.278117|0.782128|0.080621|
~
0.611864|0.844160|0.028076|0.243708|0.416983|0.876585|-0.620710|-4.522140|-4.529346|-4.975684|-6.048078|-7.617894|-8.121826|-3.372311|-5.662772|-9.489211|-8.633321|-9.554906|-5.955792|-6.212291|-5.524317|-5.200319|-3.402346|-3.230356|-2.721120|-2.717029|0.733183|0.762454|0.850260|0.540296|0.867554|0.516235|0.361579|-0.234041|-3.732266|-4.255933|-4.374584|-6.030538|-6.437236|-11.842179|-10.591236|-8.649352|-6.466739|-10.974819|-9.599655|-8.150861|-7.524343|-6.592149|-6.356785|-6.693474|-2.248353|-4.091453|-2.709517|-2.818974|0.289779|0.264806|0.984941|0.022961|-5.915553|0.756416|12.995208|9.941804|6.202851|4.158657|1.024128|-6.024535|-5.778206|-7.621391|-2.650732|-0.538003|2.463905|-13.309395|-10.721660|-6.359265|-5.645729|-3.251721|-0.044845|3.663110|7.840172|0.098841|6.762979|3.731871|0.642972|0.570050|0.257428|0.932750|-6.130992|4.138365|0.417249|-0.346402|-4.186980|-3.172844|-10.344469|-18.547150|-23.980361|-32.262672|-3.412136|-6.506847|-6.482241|-15.378964|-22.038987|-3.877951|3.250042|8.920984|6.007321|8.247593|4.743435|3.714316|1.463717|9.626701|0.316145|0.673228|0.721255|0.953130|-1.034428|1.609345|-6.366524|-11.116406|-16.055130|-13.995641|-20.449614|-41.050416|-36.809021|-39.877626|-11.695344|-9.334117|-0.210716|-20.350586|-17.056400|-15.323299|-7.953223|-0.428437|-3.459148|-3.470245|-3.000968|-2.504441|0.199981|6.167689|0.377411|0.588584|0.741534|0.800123|-3.337416|-2.339581|-6.632710|-8.899669|-8.901766|-12.662961|-26.829315|-25.400775|-26.427413|-36.216273|5.235824|18.281066|-20.223202|7.592200|-13.092640|-10.379436|-18.564629|-5.579969|-11.367767|-6.725515|-8.374753|-3.594201|4.761254|3.460215|-0.170164|0.565553|0.727868|0.495764|-4.712313|-3.244831|-7.193490|-8.220550|-5.905782|-22.111893|-23.841553|-34.149982|-25.632897|-20.583190|37.511538|5.097209|4.075550|15.452891|11.368621|-8.354236|-21.294501|0.448634|-9.935475|-18.029474|-12.460217|-11.897110|3.708478|-0.221697|0.712236|0.548639|0.784438|0.824619|-8.530461|-3.458291|-6.144855|-8.183106|-12.201219|-26.903011|-40.677845|-46.769646|-18.461326|-14.425559|35.586261|47.786531|67.899885|62.955007|49.351575|20.491094|-16.749796|-6.368378|1.406030|-10.038547|-12.865120|-9.061733|-3.505985|5.097479|0.164400|0.902945|0.059878|0.363089|-3.599010|-4.032151|-8.649229|-11.689876|-23.763712|-26.752021|-44.384419|-34.637243|-16.322894|0.634198|58.251752|59.072382|59.436538|26.521810|18.534007|-3.105050|-16.492392|11.652508|-2.055227|-7.104867|-12.124471|-10.709295|0.024904|-2.274422|0.183043|0.903756|0.621936|0.133069|1.009093|-4.250470|-10.069870|-8.943229|-18.368840|-34.693495|-49.984499|-22.533697|-14.688729|5.640107|42.416730|55.226753|40.049884|14.781080|-13.378145|-25.216771|-26.455464|-4.692764|-9.461692|-10.923657|-8.350021|-8.098420|1.021014|1.976191|0.862134|0.238832|0.309171|0.042185|-2.818309|-2.984590|-8.653570|-9.190079|-14.658105|-24.648149|-14.139872|-10.699117|-3.858528|4.011088|36.041290|16.805110|27.132854|19.222364|-12.014198|-35.639537|-41.930361|-26.530088|-19.865442|-17.204902|-9.099424|-6.401737|-1.271080|3.493559|-2.727056|0.405192|0.718159|0.510271|-3.256659|-5.693682|-7.894202|-10.753953|-15.287042|-18.743279|-11.420621|2.539702|12.655484|-1.613284|12.624111|43.846714|51.810425|25.163459|-31.587815|-49.358019|-58.080531|-41.780017|-21.953917|-23.310605|-13.098668|-2.554198|1.884918|2.575907|-2.182257|0.879258|0.377815|-0.076167|-2.234132|-4.841857|-4.082763|-11.012020|-14.148884|-6.826204|4.367687|-3.570324|-5.458282|-22.644827|1.264179|6.148987|35.456184|20.012919|-39.023085|-63.570299|-71.705243|-46.508064|-35.517596|-25.020104|-17.142558|-7.253380|-3.947464|-7.833241|-2.764227|0.684448|0.333514|0.625219|-3.800432|-4.165765|-6.548116|-14.069733|-9.973732|-3.326720|10.186257|-1.941282|-3.859933|0.142907|30.460246|28.697808|27.236048|11.200977|-41.725999|-77.361370|-73.985862|-52.629665|-37.849422|-27.987258|-21.248122|-9.436707|-4.435201|-4.796122|-3.384200|0.636347|1.178761|1.180962|-3.042986|-2.703445|-7.035860|-16.872967|-11.922018|-0.533011|-19.112825|-13.053375|-25.780692|-16.258546|7.571063|30.956102|35.340209|-16.056998|-69.575703|-78.556143|-80.912651|-60.882473|-33.723796|-26.771778|-20.545983|-11.643950|-1.213796|-8.789419|-2.967605|0.824066|1.408794|0.501103|-3.465452|-1.375444|-9.868138|-14.512242|-10.105807|-3.763662|-6.114394|-5.016903|-25.684596|-77.291011|15.287243|43.736405|21.789873|6.944368|-44.189766|-71.450128|-58.992973|-47.873534|-34.766399|-23.368939|-16.811618|-16.374665|-13.028977|-12.776029|-4.863963|0.775297|0.374903|0.316762|-1.444499|-3.883774|-11.545168|-9.830009|-5.160736|-10.450362|-1.190497|15.001440|-37.903738|-87.588867|-3.088543|73.984614|43.083437|7.467949|-47.578564|-66.474335|-46.643992|-43.875258|-31.357187|-21.560007|-15.527024|-13.825355|-5.730081|-7.256139|-4.401697|-0.097024|0.428805|0.127882|0.790395|-1.439414|-11.461964|-6.803120|0.288780|-7.373466|-4.968171|-10.058055|-31.965144|-29.662841|39.787276|62.924854|22.904099|-6.423201|-37.142812|-59.558916|-46.524125|-36.304451|-32.481964|-22.826472|-21.101835|-13.325882|-5.985791|-4.767055|-1.720205|-0.071493|0.695430|-0.570450|-0.125212|-2.814156|-10.982962|-6.196400|-1.223569|-3.409562|-12.003928|-34.298375|-45.396967|-37.921918|27.473902|54.282395|32.990488|-10.641442|-30.243127|-51.138128|-32.470984|-41.905708|-33.914047|-27.179378|-20.094735|-14.605074|-3.824650|1.258795|-1.195393|0.581909|-0.143418|-0.467240|-1.498013|-1.339851|-8.153758|-8.567624|-9.021009|-17.705719|-22.358203|-36.172222|-50.646125|-51.349197|22.969489|40.038884|22.684054|13.337668|-8.191374|-40.290678|-30.901449|-34.242191|-31.029113|-20.857795|-16.920904|-14.303397|6.023097|0.947416|-0.250970|0.595927|-0.083028|0.129439|-0.008305|0.526322|-6.714132|-4.245331|-11.392535|-7.602416|-22.219423|-40.153474|-23.919046|-21.303719|17.975860|10.115945|26.653312|20.697052|-1.128873|-49.071559|-25.686231|-16.858783|-20.724167|-13.877719|-10.195843|-2.071206|1.770044|1.118607|-0.370391|0.400445|0.318695|0.448781|-1.287742|-1.330566|-5.857964|-4.332981|-2.549573|-10.748280|-9.132182|-45.351661|-37.420200|-34.592398|6.424880|23.437964|22.827002|-0.333182|-13.000442|-35.259968|-14.282131|-0.461020|-7.303323|-13.465859|-2.704225|0.614955|1.957853|-2.694026|0.041172|0.635295|0.556162|0.547691|3.359766|-0.881682|-3.848770|-6.990632|-12.099925|-17.694410|-16.953533|-20.058868|-37.673053|-42.222933|-10.081648|9.079354|13.453056|21.826811|5.799376|-19.464389|-15.427792|-9.423612|-6.549063|-7.457568|1.692380|-3.302275|0.775700|-0.584953|0.411610|0.374322|0.842631|0.739305|-3.131886|1.692266|2.265224|-7.453926|-8.439376|-8.869954|-19.123596|-23.324684|-9.023400|-22.170229|5.098412|8.824966|-11.872882|-12.413630|6.247271|-6.929223|-1.194042|-3.886441|-3.460836|-1.437683|0.322610|7.821962|7.080905|-1.909873|0.866809|0.320832|0.118969|0.748578|-5.519167|10.712182|7.708414|0.159556|0.994046|-0.937235|-7.951386|-13.602900|-16.737767|-17.706099|3.843414|3.632272|4.701203|-3.796180|8.211763|11.517788|-1.059957|-5.373269|-7.885503|1.258129|2.448974|5.272992|7.675116|2.542767|0.514772|0.843796|1.454026|0.910403|-11.857746|-0.759766|10.542388|6.266370|-4.634185|-7.521069|-10.399622|-2.064796|2.450275|-3.442758|11.371261|14.126904|12.276826|0.008233|15.104597|7.672843|-1.331321|-7.746901|-2.170265|-6.694174|-6.311078|-8.114796|-5.692932|-13.347272|0.213939|0.587091|0.935858|1.382650|1.110532|2.415153|1.628361|-0.018812|-1.231905|-1.920337|-2.390491|-2.381254|-1.744878|-0.687239|3.628969|-7.393075|-3.371907|-9.373801|7.796931|0.200449|0.825156|0.732145|-4.070233|0.451530|0.213338|0.922153|1.271650|0.327715|0.176933|0.037300|0.923358|0.989446|0.953417|2.525521|2.192956|1.403399|1.875651|-0.271474|-0.131256|-1.221837|-0.204826|1.695981|4.328751|-3.193347|1.674174|-1.853459|4.245499|-0.024191|1.675440|7.485138|2.572454|1.578153|0.112136|0.603546|0.087621|0.706366|0.319325|0.948529|
~
0.101914|0.509537|0.994944|0.453754|0.910339|0.612709|-0.122531|-2.318943|-1.548330|-2.411841|-2.368012|-3.330302|-7.919397|-6.722813|-5.814361|-4.070885|-5.795070|-5.163965|-3.545310|-2.376587|-3.134509|-3.104739|-3.352425|-3.583965|-3.262829|-2.760646|0.774675|0.600599|0.739668|0.102000|0.558675|0.895023|0.588273|0.473273|-1.900738|-1.440060|-1.853438|-2.252281|-1.447505|-7.901369|-8.038279|-10.046846|-4.532865|-7.284149|-4.833802|-3.177170|-4.171011|-3.301478|-2.700602|-6.233176|-2.523353|-4.316976|-3.358084|-3.001941|0.538886|0.064398|0.789350|0.313561|-1.590733|3.746054|13.237906|8.275097|8.227211|6.774932|1.552213|0.654538|-6.245983|-10.943196|-7.031769|-11.617393|-8.393523|-6.547124|-0.844026|3.006683|4.909650|-1.008198|-0.501248|1.754180|1.168963|-2.146048|1.971222|-2.439200|0.733082|0.254710|0.636332|0.271968|0.951799|2.034910|1.160812|0.949907|-1.066067|-1.412864|-4.449659|-6.705248|-14.893503|-11.156290|2.280385|-6.260638|-4.823495|-14.847859|-11.627737|-3.790755|6.694864|8.881172|5.898120|-2.347907|-2.962179|-0.953752|-4.444450|-3.624843|0.977929|0.483884|0.013237|0.705135|2.370270|2.634984|-0.820287|-4.534083|-5.902794|-6.013592|0.257932|-6.361576|1.059684|4.296098|-0.212387|2.115727|-6.061609|-1.053288|1.904519|10.839022|-10.256119|10.031400|1.150182|-4.142714|-6.955679|-7.451590|-5.752158|-6.269574|0.319719|0.219585|0.075150|0.411176|2.433970|0.638637|-3.795035|-6.385533|-3.130664|-5.395690|3.051228|4.832173|9.748903|11.826700|8.789225|5.466781|-26.712236|1.563949|8.124928|15.795652|-3.581070|-0.002210|-5.592258|-3.806156|-8.436987|-7.516227|-1.656812|-4.226652|-0.260563|0.741497|0.067376|0.432381|2.770723|-3.918785|-2.399374|-3.091687|-0.398766|-2.363587|3.359832|1.846823|-6.315209|10.815938|21.957248|3.584492|-8.037252|13.894814|33.118553|36.878609|10.698355|10.872896|2.070436|-5.827849|-7.103342|-4.410071|1.592986|1.304843|5.399519|6.852410|0.568528|0.332951|-2.754210|-4.117517|-1.935719|-4.551781|-2.513006|-2.001429|-13.051345|-14.325181|-10.951056|-5.936961|4.124718|10.189984|24.171662|29.224190|52.179434|50.614883|31.720157|13.330877|23.387495|1.159684|-2.349943|1.000611|0.777651|5.213139|5.714072|6.083507|0.466984|-0.000137|1.420214|-3.778593|-4.214433|-4.430908|-6.270813|-0.140112|-12.248932|-3.441407|6.103137|3.198511|12.818329|7.066331|31.157778|31.329450|43.221703|41.755393|44.548409|24.452038|25.234339|4.752999|5.369400|4.543834|6.841443|3.383187|5.370465|5.813878|0.323562|0.073170|-0.484126|-4.319036|-4.013450|-2.811184|-5.409678|-4.299479|-12.435213|-1.405328|-8.763835|-4.071523|-0.694160|-9.896015|20.096946|17.148950|9.802119|28.383807|29.632043|6.577472|0.248218|-2.462940|2.955885|1.896661|6.760293|7.664452|5.932114|2.202337|0.678645|0.488229|-2.033969|-4.656963|-3.039561|-3.402758|-5.979661|6.653816|2.361493|-5.676508|-12.781353|-21.846467|-24.331153|-25.831105|8.561796|25.797403|18.533292|15.171484|16.295490|-10.637836|-14.613811|-17.611677|-5.881097|2.290377|3.810694|6.112115|2.119924|2.868448|0.369771|0.012682|-4.318120|-2.506164|-3.805544|-4.013282|-9.259344|-2.294990|-6.719181|-14.102678|-13.782868|-19.304097|-21.572262|-7.209084|10.812595|30.305651|11.180832|7.587891|-23.424855|-36.595952|-24.029652|-25.779402|-6.945378|4.422049|8.925644|3.401029|-1.130939|2.762033|0.468764|0.433734|-2.867593|0.929522|1.305537|0.319504|-6.452527|-4.546630|-8.850145|-23.534042|-35.086319|-42.337048|-34.537853|-18.300338|2.217979|7.860531|-6.769194|-17.008517|-38.385680|-35.642143|-31.122259|-22.873282|-11.456499|2.058914|2.770057|-1.632473|-1.569436|0.604929|0.009737|3.226788|-3.416613|1.156092|2.349515|-0.667042|-4.887325|-6.638788|-4.537378|-14.063970|-3.328338|0.556935|-0.193437|10.119903|18.959577|-0.493540|-25.378616|-50.617408|-62.109141|-54.923905|-37.726338|-21.830277|-11.326239|0.694793|0.738078|-5.875376|-4.847736|-0.550384|3.355190|3.422892|-1.167578|-3.044685|-6.010761|-8.553097|-11.661713|-10.875962|-20.387934|-11.874490|-4.039899|6.810050|8.577570|26.282463|6.520099|-4.029428|-57.068220|-63.270300|-77.045071|-59.435604|-26.832789|-12.063746|-8.097354|-4.077146|-2.538136|-7.941306|-4.785096|-0.569777|3.000077|3.652629|-2.780254|-3.586346|-10.050726|-11.834896|-16.110648|-19.370227|-18.933892|-3.323116|-1.642441|-0.722400|19.143664|34.768768|10.241172|2.641713|-21.543486|-40.693491|-41.218361|-35.552417|-18.972133|-1.548227|-1.368926|-10.861819|-4.211863|-10.392098|-6.467639|-0.734170|0.594267|0.478253|-3.577138|-2.767006|-7.546644|-4.753591|-10.849915|-18.037015|3.695391|20.415554|21.355547|10.382202|26.149620|38.899774|29.050101|-6.397333|-9.640391|-20.714598|-27.804782|-33.134624|-6.162442|1.181833|-4.387906|-8.653586|-3.954800|-9.453509|-6.868852|-1.037328|0.109235|-0.356309|-1.315073|-2.186745|-6.323297|-4.541278|-5.386371|-15.285004|0.104763|-9.712186|13.676289|21.098678|17.544233|10.949576|2.079233|-0.835385|-1.434367|-5.260403|-27.999764|-18.627047|-19.727952|-5.261470|-6.759109|-11.245760|-5.234199|-12.040670|-3.029657|-0.216757|0.021150|-0.832579|-1.929830|-1.607642|-6.489011|-2.224640|-7.733175|-7.524562|-4.919720|-8.133503|3.255104|13.518075|14.317606|13.665066|5.272859|5.786508|-2.178576|-7.339099|-12.733041|-17.979769|-9.897558|-12.789313|-7.676036|-11.849844|-7.059095|-2.514078|-2.511539|-0.811082|0.032511|-0.348612|-0.320513|-0.374139|-3.634861|-6.094586|-6.020705|-4.501450|2.368461|-10.764033|-16.928360|6.895815|24.256820|12.360570|-3.752486|-3.444991|-1.085719|-11.614797|-20.949884|-13.350510|-8.780075|-10.276956|-13.046591|-12.689669|-1.082521|0.217697|-2.084822|-0.019643|0.051311|-0.935581|0.158370|2.173219|-4.235610|-2.744889|-2.639186|4.957362|-4.848494|-8.558533|-0.165070|4.316072|-4.224543|-14.004890|-8.026323|-14.925857|-9.761809|-6.784239|-10.212882|-4.102745|3.235985|0.331689|-4.763574|-4.382571|-1.983403|2.129515|-1.132026|0.305931|0.998017|0.241156|-3.306658|1.662572|-3.496608|-1.410876|4.341502|1.005243|2.433107|-8.263205|1.885440|3.901872|-5.306796|-21.979250|-20.318893|-19.752322|-16.548895|-6.188203|-6.204961|7.766897|10.262951|-2.039905|-1.295472|-1.901348|-0.785843|0.670309|0.226038|0.395544|0.595248|0.017543|-1.624613|-3.417174|-0.772631|-4.684419|-4.948322|-2.235762|-3.678405|-4.376819|-0.535524|5.413132|-14.491767|-30.087616|-24.015691|-17.227807|-6.714449|-3.066710|-13.115082|-4.614716|1.395329|-7.906465|-3.891622|-12.596877|-9.937506|-3.719604|0.161334|0.263383|0.787800|0.570011|-4.293148|0.288451|1.160338|-5.098959|-4.013216|1.266283|-2.328334|-2.969024|11.338373|-0.187990|-16.078032|-30.786189|-24.810319|-18.070922|-7.972516|-11.088196|-10.356074|-8.588532|-5.118618|-1.660069|-3.653656|4.150218|1.680802|5.699123|0.295392|0.393401|0.879875|3.674664|0.723843|14.450200|9.157543|7.499209|1.234071|7.764461|12.600051|5.921137|4.487349|-5.597995|-15.314871|-27.907862|-13.908493|-8.499033|-4.007692|3.486757|5.375128|1.406652|7.216720|8.032241|6.500628|8.810215|3.639362|1.152668|-0.322865|0.154249|3.786976|2.944390|-6.253737|-1.633916|5.065165|-0.236360|-4.522819|-1.417467|-5.784795|1.051145|-3.224538|-12.489647|-15.189988|-13.670923|-8.117737|-7.522753|-0.399747|2.066986|0.888351|-0.874609|0.807867|3.132442|0.514796|0.893102|-0.346251|-0.281103|0.772690|0.541895|3.690927|2.926319|3.897391|6.803364|1.256076|-2.773308|-2.972319|-2.747746|-3.752241|-0.444516|-9.796046|-12.128723|-13.872821|-18.587024|-22.465446|-17.784152|-4.894771|-4.177224|-1.354018|-2.869539|-2.837853|0.661367|0.496663|0.805632|1.119933|0.284827|0.825938|0.791000|3.397772|3.406447|2.814076|5.440492|6.315172|3.374316|3.420229|5.452290|6.943925|4.947162|-0.231164|-3.431120|-4.647183|-11.476304|-7.520275|-6.885628|-4.072804|-4.098369|-2.535229|0.393055|0.543307|-0.288787|-0.323790|0.987122|0.703934|0.273348|0.302325|0.091939|
~
0.605894|0.143204|0.903511|0.213209|0.732052|0.240833|0.400540|-2.558134|-2.524759|-3.846090|-2.401069|-3.198368|-8.980574|-7.353679|-6.016096|-3.856194|-5.261928|-6.131667|-1.861715|-2.531248|-2.336986|-2.821876|-3.378016|-3.175696|-3.051551|-3.021416|0.243231|0.906791|0.519362|0.561999|0.025331|0.173369|0.635955|0.802059|-2.465495|-2.125979|-2.480057|-1.900150|-1.288475|-12.165476|-11.225432|-10.656759|-7.034968|-11.167489|-9.463836|-8.914864|-8.764430|-2.708298|-3.240784|-6.757760|-1.979233|-4.007276|-2.458864|-2.417323|0.593557|0.195120|0.119068|0.836788|-2.884048|10.000278|15.248176|6.428640|13.384876|9.649372|1.516856|0.511607|-3.576199|-16.033743|-12.006670|-16.450488|-13.008361|-12.236351|-10.118167|-2.163400|5.754596|-0.178260|2.296350|4.253201|1.385441|1.873281|1.830938|1.360856|0.882522|0.101353|0.019831|0.476078|0.687566|10.562948|10.442839|10.061504|5.544299|7.663876|4.193771|1.954435|-8.939478|-11.492411|2.739296|-5.816670|-18.870034|-28.624371|-24.481937|-20.658804|0.227266|9.842453|7.368879|1.674430|0.030522|-1.243791|-3.729913|-4.391893|0.033007|0.995508|0.452014|0.965833|0.914932|6.915725|2.145699|-0.019789|-4.225975|-3.046996|8.042814|-5.998267|-5.291090|2.432495|4.493873|5.328087|-10.551469|-13.710153|-26.103607|-20.659371|-28.355175|1.675877|-3.536585|-3.234767|-4.193839|-6.378700|-10.752840|-3.745632|-0.629475|0.531183|0.394540|0.951123|-2.946084|-0.519752|-6.464387|-9.141220|-6.122141|-3.810564|-2.078740|-1.315186|13.150786|25.799366|24.774372|30.917639|9.636219|9.094034|-1.553464|-5.672938|-18.347065|-7.347844|-10.725104|-6.246743|-7.995854|-7.980025|-4.175241|-4.162393|-2.246403|0.723108|0.719499|-0.121650|-0.623692|-4.099533|-5.397119|-7.602559|-0.047067|-0.556814|-8.731294|-1.018667|-0.099932|32.443623|43.204274|36.970449|16.974260|22.552446|22.221749|22.752378|-12.598774|-3.980395|-12.265727|-17.326106|-13.546894|-6.586517|-5.377237|0.880589|1.099413|3.273763|0.558924|0.840125|-4.102700|-6.156210|-5.419641|-7.631057|-5.649961|-3.468174|-26.248688|-1.780974|10.966536|16.892835|27.941905|21.505951|23.725581|38.286563|36.592543|25.947900|1.981189|7.242466|9.764084|-16.424805|-13.386147|-3.661428|-6.779444|-1.393410|1.834770|3.522314|0.685126|-0.295740|-4.642735|-7.294267|-9.428793|-8.441181|-7.225506|-4.067270|-13.478645|7.117470|18.066129|12.246798|22.055037|6.705029|23.897343|41.422924|46.345865|53.597936|42.642447|33.094855|14.658154|-7.775452|-6.599668|-1.427037|-1.969833|-1.640413|3.686840|3.462505|-0.029472|0.862123|-3.576236|-6.839900|-9.120835|-5.250026|-10.864431|-11.647345|-11.665991|-3.157172|-1.984106|21.721581|8.133953|-19.065308|-6.221930|7.465308|43.999955|66.473988|53.744251|18.686434|-1.448839|-8.247610|-2.331899|3.099450|1.239030|6.633074|4.709761|1.654177|0.064804|-0.424860|-8.131242|-7.700035|-7.372168|-1.846453|-12.743021|10.754007|-0.226148|8.764410|14.518999|6.548961|-29.825202|-55.527934|-17.935906|0.248650|36.336308|54.423070|52.793258|12.349480|3.574402|-19.103219|-1.135870|7.052074|2.375916|6.190819|1.151477|2.368431|0.270451|-2.125579|-8.581585|-2.587517|-6.850056|-2.622787|-11.851826|2.015877|3.362912|6.410254|21.388007|-14.215831|-41.914050|-37.855728|-15.867418|17.341041|10.001723|47.558700|25.939534|6.912451|-1.998538|-25.616174|-0.657686|5.748163|6.298588|5.046779|-1.336570|2.731259|0.837702|-1.376021|-5.881185|-0.305040|-1.830734|3.875516|-6.911757|-0.070495|-13.192363|-22.135742|-20.869304|-55.427763|-50.916501|-28.720329|-3.047225|18.737918|3.527536|9.247155|-4.394696|-1.730333|-18.093947|-24.659793|-16.430416|1.418817|0.952724|1.261076|-1.660341|0.431547|0.543156|1.883563|-3.333653|2.874538|-3.045033|-0.939158|-1.189537|-1.835684|-2.192674|-17.154968|-17.148221|-33.116576|-33.933332|1.526420|19.924572|20.991365|-19.825331|-21.970500|-29.652520|-18.494174|-34.311371|-31.865001|-16.184131|-0.143365|2.377209|-7.080150|-4.755696|0.107080|4.010724|3.789268|-3.186025|-4.730268|-6.147195|-9.648868|-8.639074|-8.648925|-22.396956|-31.833633|-29.140843|-20.865134|-17.185759|6.111564|7.575919|6.173367|-34.874337|-27.903175|-49.327048|-33.118982|-17.296935|-18.070403|-13.045476|-3.523493|-2.409386|-5.084118|-5.609964|0.067748|4.767522|3.369677|-3.671425|-6.477911|-10.623990|-14.898299|-13.770838|-16.389620|-27.342351|-11.793277|-4.254509|-8.939502|-11.080174|7.279015|5.805760|8.941987|-2.702395|-37.524748|-23.371707|-29.880416|-21.146504|-10.973119|-6.159291|-9.861341|-5.290531|-9.537070|-7.981441|0.094233|1.628425|0.367982|-4.472258|-1.966768|-8.724599|-8.445298|-9.977986|-17.773097|-1.019706|12.603665|5.990598|9.050805|16.899851|35.427229|25.320830|-4.438564|-8.547164|-14.422775|-21.660518|-25.784130|-15.412308|-7.399285|-4.053556|-9.599343|-10.408405|-11.857742|-6.958379|-1.269151|1.380618|-0.115178|2.098643|-3.537131|-11.008667|-6.231027|-2.114534|-9.344867|12.564361|-10.710753|5.642641|36.305525|24.003290|16.941198|4.057861|2.379698|-2.037643|-0.200779|-22.442535|-25.060359|-40.788530|-15.815793|-9.543532|-11.047787|-9.940259|-13.504022|-3.933368|-1.856511|0.729926|-1.555943|2.983451|-3.186373|-12.098971|-7.465305|-9.807047|-7.823283|0.388367|4.707307|23.834170|25.686048|17.178982|23.188452|2.228526|4.143939|-15.806628|-8.496026|-23.578473|-27.262111|-32.897567|-27.955185|-10.170850|-12.202178|-8.977649|-6.721762|-2.755267|-1.635303|-0.880965|-0.968776|4.718957|-3.406892|-6.333463|-7.183718|-4.160909|1.619248|14.504978|10.737179|15.077737|23.051892|42.678418|20.069226|17.471827|13.684823|9.889527|-7.036020|-30.693302|-19.042126|-24.127227|-21.245967|-21.257808|-16.578940|-3.191939|-2.414683|-2.582171|0.956118|0.482633|-2.007630|4.454876|0.075278|-8.225909|-4.498885|-3.922098|19.776212|18.047432|0.295489|18.349106|19.553707|11.106307|5.616630|17.396579|3.516362|-5.050979|-13.469230|-26.172635|-19.508684|-7.782913|-12.232240|-10.982601|-5.621453|-2.461903|3.018771|-0.953274|0.851124|0.623377|-2.016940|-3.869276|-0.554615|-1.879255|0.233535|7.500062|13.313078|25.017572|6.043478|23.449832|14.742526|2.383926|-0.448802|-4.880223|0.006361|-8.282447|-23.126243|-15.878044|0.650957|8.729706|-6.119274|-3.065739|-5.214095|-2.103949|5.331862|-0.028952|1.234530|-0.719809|-1.346761|-1.682662|-5.947758|1.458388|-6.146104|-3.909430|3.753534|18.213141|10.126244|5.574872|14.928921|0.041197|-2.339983|-1.938623|1.841875|-11.820520|-12.381303|-24.964732|-5.146049|7.075979|-3.533053|-0.083734|-13.724867|-12.919032|-2.394464|1.073187|0.505136|-0.341158|-1.261483|-2.648627|-3.209576|-0.177604|-7.044387|-4.657178|6.265843|1.968595|-7.611756|7.072725|-3.894758|-8.083121|-29.264447|-30.673192|-23.513105|-19.985265|-19.702648|-17.048908|-7.339226|-0.386367|2.783536|-0.968304|2.569686|1.244283|3.727641|-0.373367|0.661064|0.230110|2.546327|2.242868|8.970918|7.271943|9.485643|-2.257602|13.553447|14.744871|-2.883895|-5.662550|-8.049654|-15.006877|-37.230819|-23.091656|-24.318157|-24.289244|-13.681136|-0.529448|0.601516|8.739742|13.376593|13.505472|12.772119|7.031329|-4.812722|0.078628|0.056625|3.795035|4.381854|-3.176270|0.457317|6.623385|2.964339|-2.234740|0.796017|-2.636997|3.307909|-2.643429|-11.922999|-11.853293|-22.613813|-20.576147|-24.326658|-10.265082|-8.955614|-4.072504|-5.283222|0.727091|4.252967|2.185597|5.361728|5.464604|-0.538477|0.874204|0.494592|3.065296|5.480880|5.235850|10.132863|2.584350|-1.389076|-1.631859|-2.389921|-5.731047|-5.922937|-18.552290|-19.721646|-22.895343|-25.921920|-36.909196|-30.223468|-13.139737|-13.675220|-8.468995|-6.173090|-2.859465|1.696363|1.754353|1.958857|1.971551|0.470105|0.274970|0.023928|3.172450|4.122397|4.810063|7.224130|8.804320|5.066630|4.728293|4.450928|5.590466|-0.872707|-7.151527|-9.415891|-9.312438|-16.249887|-12.058091|-13.897461|-12.710341|-11.703314|-5.280042|-3.019592|-0.577739|-1.088659|-1.069639|-0.341888|0.518362|0.890257|0.291583|0.671163|
~
0.389784|0.575316|0.724431|0.652811|0.695495|0.253147|-0.198312|-2.002142|-2.222440|-3.182772|-1.875892|-2.025395|-6.328681|-5.475681|-4.853317|-3.774518|-5.730631|-5.291723|-1.652386|-2.010712|-2.475298|-2.654421|-1.592813|-1.686342|-1.512281|-1.858159|0.701641|0.255661|0.324720|0.016954|0.963212|0.763062|0.565178|0.610454|-2.150433|-2.016616|-1.460620|-1.733475|-2.701161|-13.185558|-9.226281|-11.620000|-8.346390|-11.842578|-9.772720|-10.136482|-9.917350|-2.534146|-2.583172|-6.861871|-1.561708|-2.767984|-2.026251|-2.137996|0.205540|0.181110|0.544107|0.907181|-0.034363|9.225115|14.306609|7.409384|12.653624|10.106832|2.556104|-0.208573|-4.181275|-12.903583|-12.445795|-16.408029|-11.331317|-12.421258|-12.110198|-4.951569|1.289080|-6.852161|-2.601106|1.420356|1.565301|1.175097|5.479802|3.146587|0.735343|0.262239|0.727513|0.940883|-0.944422|8.557770|9.246148|8.672372|3.794188|7.564336|1.344274|-2.355131|-10.299042|-14.288553|-2.006084|-13.190726|-26.256200|-34.397153|-29.646671|-28.640414|-11.122062|-0.001429|-0.816254|-2.580915|-4.443750|-3.328402|-2.259242|-1.587443|0.805503|0.455403|0.129323|0.589605|-0.854260|7.593936|-0.152014|-2.083120|-4.855885|-8.074840|-1.461491|-12.921171|-12.725131|-5.444990|-8.083912|-8.093712|-22.491896|-25.261912|-37.610475|-34.123060|-38.395855|-8.095405|-8.959970|-7.298457|-9.417803|-10.127878|-10.035486|-3.359204|-3.738665|0.135688|0.035470|0.901499|-3.993458|-0.106885|-6.056336|-7.672338|-4.669351|-9.493715|-9.513885|-6.679259|5.719885|10.576988|20.625511|28.479208|5.680647|2.872169|-8.359478|-13.460416|-30.375669|-13.883051|-13.868146|-6.083058|-8.085866|-11.527045|-3.829209|-2.722966|-3.846446|0.834159|0.482154|0.653078|-0.910784|-1.917213|-3.395063|-5.677046|-3.792524|-6.352588|-9.159460|0.123591|6.139162|39.658568|53.490193|45.950867|18.177702|19.340954|22.407547|17.252783|-19.610858|-7.615839|-15.458658|-13.208241|-12.111102|-5.909594|-2.057803|1.417159|0.447184|4.792211|0.269666|0.378863|-3.778583|-3.546192|-3.706342|-5.732340|-4.488635|-6.438895|-20.381695|5.388793|22.219770|33.033695|47.019813|36.945489|27.312244|33.773927|31.201369|24.154839|-6.239514|7.003206|10.141880|-10.483855|-8.959876|-0.802377|-4.451704|0.478440|0.383775|4.406936|0.944217|0.679515|-2.146084|-5.117940|-7.662205|-7.083596|-6.217948|-2.603998|-7.558994|11.547753|27.799019|28.454279|38.657696|16.074827|26.677084|35.234061|37.231343|47.689912|32.687360|32.064740|19.786075|-1.710743|-2.698225|-1.569199|1.610302|0.777603|4.995450|4.457645|0.320151|0.746576|-2.501159|-5.040693|-5.889997|-3.860331|-9.608420|-9.654789|-4.077967|7.471515|11.228108|26.798982|15.214930|-18.163000|-5.096769|-1.911335|19.186710|51.944634|45.788041|19.895228|8.065794|0.566653|-0.141048|4.704991|4.608126|10.007915|5.050649|2.286554|0.171090|0.615451|-4.886188|-5.523327|-4.551101|-4.163632|-10.374033|7.934103|2.901202|11.608530|16.056385|-0.175126|-33.102315|-60.795209|-28.135626|-17.249388|16.704766|39.601638|45.659078|16.148755|7.007574|-14.131780|5.003480|10.405589|6.742750|12.335477|4.283784|3.299803|0.251211|-0.375419|-7.621059|-0.274186|-4.224629|-4.682127|-11.840187|-0.803611|-3.545199|4.626555|15.194424|-20.301644|-51.148601|-44.077983|-23.180138|-1.456102|-2.603125|32.451709|22.826677|8.145561|0.154309|-20.350431|5.237747|12.280919|11.785455|9.112222|1.105769|3.711764|0.509646|-0.090061|-6.079311|0.299229|-2.426419|0.680293|-9.020772|-6.504941|-13.918641|-22.199691|-19.372839|-59.957299|-50.511021|-33.454585|-17.884160|-5.011606|-6.159268|7.648242|-8.969106|-4.098864|-16.613561|-20.749501|-7.989935|6.849566|5.564458|4.998355|0.639525|1.724076|0.818273|1.626519|-4.905565|2.050743|-2.614184|-3.335873|-6.424612|-7.611854|-9.380100|-19.673019|-24.508917|-36.110793|-29.981857|-4.299936|4.921007|-4.212006|-18.543450|-19.406493|-28.912071|-13.378985|-33.855140|-24.419749|-9.837796|6.720564|6.660953|-5.456057|-5.059159|-0.303083|2.322073|2.718436|-4.573046|-3.924451|-6.637508|-11.148491|-12.266134|-15.965164|-28.867384|-34.440582|-40.641666|-25.908273|-21.539243|1.104283|-4.596120|-18.681470|-39.548929|-36.779320|-42.765458|-21.642561|-9.118911|-8.107976|-6.670550|0.753952|-1.102042|-4.459474|-7.018125|-0.126756|2.730100|1.868005|-4.785206|-4.083879|-9.195766|-12.536526|-16.838619|-17.449575|-33.483424|-17.166421|-11.266101|-19.308257|-26.900147|-11.469986|-19.913095|-7.071734|-14.929446|-40.055717|-16.665150|-11.009815|-5.649114|2.599879|-0.021862|-4.534951|-5.481902|-8.523434|-8.806065|-0.149093|0.304416|0.806975|-5.010033|0.240238|-6.810694|-8.623547|-13.160816|-20.199775|-6.726597|10.655127|4.580461|-8.571517|-8.690802|5.320375|0.265371|-16.968845|-6.115623|-12.342510|-3.045178|-2.137856|3.745686|4.197454|2.205515|-6.119943|-11.186959|-10.408654|-8.041301|-4.125309|1.003213|0.290178|1.039096|-1.625903|-8.718432|-7.333157|-5.381207|-10.350397|10.000433|-4.913064|2.356645|18.604066|-1.529293|-9.994926|-18.025344|-2.013231|-4.074463|9.267395|-1.834170|-1.429269|-26.652123|-7.297466|-3.011680|-7.617824|-11.893237|-11.046334|-5.436010|-4.006223|0.320095|-0.036584|3.743826|-1.031202|-9.475259|-5.409862|-10.535761|-5.163579|6.043039|8.531971|20.060581|13.690651|10.391211|11.955761|2.259471|8.993067|-5.597975|12.496599|1.357876|-7.096264|-24.000106|-22.850681|-5.015630|-7.765481|-11.963732|-6.097445|-4.463801|-3.718404|-0.112583|-0.163369|5.156572|-0.222409|-5.255765|-7.029237|-8.047967|-6.117663|8.302008|5.939606|9.553281|21.300906|40.628491|27.608094|27.086007|25.386243|22.392065|12.100200|-15.649264|-8.582254|-18.935185|-17.137857|-18.502388|-14.654931|-6.197085|-2.857978|-4.294206|0.640583|-0.223271|-0.312790|5.162175|1.256982|-5.970629|-5.517847|-9.815112|4.400896|1.195845|-15.140800|11.774228|18.318301|13.824425|21.643856|33.308276|19.130185|14.960725|6.168549|-14.196595|-13.147878|-6.324077|-12.185289|-7.945912|-1.487424|-4.518767|2.773909|-0.769768|0.860061|0.248679|-0.432802|-1.855878|1.978879|-2.208401|-1.372403|0.707559|-1.134562|7.853539|-7.499843|11.720916|9.413004|7.059376|10.952796|11.010257|16.585792|9.340879|-5.322560|-11.891010|5.845977|12.493939|-2.982181|-1.771637|-1.833397|-2.588731|7.094335|0.013540|0.192137|-0.107741|-0.257263|1.141278|-2.717987|0.671414|-5.908000|-8.570073|-3.813995|7.009695|-1.615022|1.777946|8.670128|-2.774408|-2.335550|1.181831|9.880112|-0.402903|-1.059618|-17.607248|0.935005|13.845723|2.441642|3.717007|-9.637997|-10.113561|-0.633584|0.428291|0.308922|0.220599|0.533889|1.046090|1.976720|2.045761|-6.519721|-1.801581|5.366031|1.209148|-9.122477|3.887609|-6.631345|-8.115660|-24.043455|-20.258854|-10.001915|-4.417467|-7.495492|-11.894020|-0.092389|7.013811|9.575716|3.579625|6.715394|3.665201|4.282358|-0.780273|-0.026108|0.524890|2.258787|-2.880172|12.060787|4.162577|4.830665|-2.389237|10.236926|10.862876|-6.094601|-11.839055|-12.525781|-15.655154|-33.100514|-20.473494|-14.526460|-16.750608|-12.327830|-1.665039|-0.183879|8.142485|13.152078|11.195391|11.083635|5.055431|-2.935877|-0.560765|0.091065|2.061732|2.556945|-4.841036|0.263394|6.012270|1.491165|-1.664785|-0.230769|-2.812752|2.186284|-2.101194|-12.790666|-10.470009|-18.832953|-11.743410|-13.662593|-1.680797|-2.223120|0.654027|-3.433973|3.436368|5.167604|2.264112|3.016863|2.571194|-2.423498|0.161948|0.092348|2.198918|2.681743|2.794273|6.403401|0.114184|-3.673871|-4.198126|-4.866144|-5.239258|-5.972228|-18.714262|-20.177214|-20.731301|-21.048353|-31.263769|-24.721245|-8.967265|-9.657404|-4.882387|-3.778588|-1.089847|2.828418|3.333038|1.554544|2.013438|0.211775|0.291157|0.746066|2.752042|2.471029|2.576800|4.794152|6.052163|3.944823|4.866328|3.998275|5.598220|-0.592763|-4.258935|-8.900299|-6.546725|-11.170320|-6.811244|-9.212412|-8.628712|-7.434218|-2.385008|-1.938344|0.923096|0.289052|0.614498|-0.851240|0.939966|0.489946|0.386811|0.087367|
~
0.679702|0.668547|0.858085|0.645248|0.086932|0.696777|-0.908849|-3.671453|-2.884636|-3.838515|-3.014216|-4.902302|-5.114503|-3.065214|-3.801312|-4.756828|-5.140027|-4.965186|-3.410910|-2.671683|-3.390930|-3.224660|-2.583703|-2.750579|-2.050910|-2.614928|0.390986|0.463168|0.512455|0.791301|0.580813|0.245712|0.456487|-0.291363|-2.723256|-2.819290|-3.306609|-3.141054|-2.267047|-6.443420|-3.232345|-5.725070|-3.932909|-7.106771|-4.777076|-3.690638|-4.091058|-3.533064|-3.555275|-4.454968|-1.587139|-2.791012|-2.230476|-1.953522|0.702132|0.172797|0.745400|0.093118|-2.954125|1.981531|10.576224|4.995581|2.501701|0.608693|-0.261027|-4.269396|-2.358682|-2.030884|3.430770|-0.127110|0.731131|-7.427488|-1.895742|-1.244626|-1.949669|-4.405781|-2.143746|1.113886|1.856616|-5.368787|0.440363|1.519865|0.072782|0.674768|0.692248|0.774914|-2.124028|2.584367|1.434161|0.012250|-2.649518|-3.070816|-6.020628|-7.819788|-9.482701|-12.418915|6.106678|0.291018|-2.976425|-10.754324|-11.199288|1.049980|7.402089|7.824924|6.012294|6.061505|2.445846|0.551152|-2.032723|5.679553|0.008553|0.885629|0.884825|0.135302|1.481613|2.142659|-3.825924|-7.061238|-9.935322|-13.125670|-10.042693|-18.273960|-15.027046|-12.511923|-3.558284|-2.194690|-7.700695|-17.128309|-11.420131|-3.433935|-3.196910|2.338375|2.012146|0.968452|-0.716185|-3.654357|-4.212217|2.250571|0.644126|0.806803|0.506991|0.807208|0.057349|0.135859|-4.644583|-9.163020|-7.476805|-9.289838|-7.710200|-5.261965|-1.474737|-0.726443|14.800376|12.169699|-26.366119|-8.935190|-10.812654|-2.962225|-6.389992|-0.581975|-6.952171|-2.209499|-5.357571|-2.450357|1.753238|3.416092|-0.091716|0.592634|0.943676|0.787770|-0.854444|-3.610340|-6.456135|-7.810006|-5.119144|-12.587069|-7.401764|-10.386712|-1.872404|7.304628|31.770187|4.509748|-9.651841|-3.389980|4.495939|-1.385872|-2.190380|0.169925|-7.657987|-9.649069|-8.763847|-9.287478|-0.919470|-0.779970|0.848588|0.479780|0.761159|0.754310|-4.656102|-3.790191|-5.090965|-7.395675|-9.715445|-13.006186|-20.495684|-25.304644|-2.019306|2.721516|28.398381|32.829598|38.857028|32.242332|30.220897|14.322592|6.414119|-0.114046|2.486736|-5.332909|-8.929542|-7.019913|-2.642425|1.811733|0.392813|0.549600|0.901957|-0.029471|-2.298245|-2.915711|-7.112572|-7.586298|-14.638957|-13.979757|-27.700788|-12.763107|2.028627|7.160533|42.589315|35.553004|36.390138|21.850024|18.730622|-0.377359|10.917045|15.858418|5.841846|-3.896665|-6.821818|-7.984822|-3.108296|-2.203599|0.549484|0.948729|0.833934|0.178516|-1.968863|-3.959668|-7.416521|-4.839752|-12.813105|-18.594037|-28.986403|-8.285136|-0.842917|11.076494|29.534601|36.347650|32.648602|7.194569|-11.292423|-16.637132|6.425720|5.506660|-1.750862|-2.295988|-4.693870|-6.499869|-1.291556|0.429453|0.655680|0.555446|-0.051966|0.723208|-3.245524|-4.296995|-7.319666|-7.054209|-9.826228|-9.189082|-6.892022|-1.721437|1.856494|15.577272|29.993530|17.104223|29.947670|12.446346|-8.574407|-16.426733|-1.223798|-13.170798|-9.073995|-9.438667|-5.302147|-5.826007|-4.716079|-0.022048|-1.493226|0.844884|0.603724|-0.806398|-3.954576|-2.902241|-5.916894|-7.326388|-12.358900|-6.545730|-9.018576|-3.153417|11.186342|5.502914|14.694654|40.691718|41.329138|25.117755|-25.547859|-21.708090|-23.160248|-21.993352|-16.882457|-13.016866|-6.402695|-3.554063|-2.425418|0.350187|-1.563219|0.982725|0.906782|-0.173917|-5.218216|-2.013111|-2.738228|-7.098264|-12.218890|-4.624832|-7.111604|-15.438098|-9.641134|-18.303606|6.921139|20.200388|23.201612|3.157601|-34.793075|-35.344691|-42.666566|-27.125883|-22.687814|-16.330413|-10.866724|-6.084288|-4.478408|-6.199799|-1.875944|0.652176|0.964168|0.123570|-6.237201|-1.445226|-4.286097|-9.708965|-9.128893|-4.891017|-4.240781|-10.794909|-0.854509|-5.046381|22.604154|26.508705|9.214735|-3.920038|-40.509318|-54.018655|-51.111820|-41.324743|-28.697459|-19.075348|-13.430572|-7.136805|-4.313549|-3.683836|-2.637264|0.666566|0.956113|1.035351|-4.467268|-1.965427|-4.842866|-11.288045|-9.523803|-8.327776|-22.455194|-17.796708|-19.002494|-3.194150|12.149274|30.751514|16.034198|-23.011131|-63.419419|-59.575871|-69.298403|-42.405663|-24.895275|-18.753205|-13.767671|-9.224661|-0.088383|-4.876176|-2.691082|0.140204|1.141243|0.824441|-5.930112|-0.072901|-7.743933|-11.807604|-10.118818|-11.919962|-12.605024|-5.941162|-16.381014|-36.627667|25.991239|42.386756|13.084482|-6.018928|-39.888548|-56.098909|-50.899497|-35.845337|-25.087438|-16.286045|-10.695594|-12.671851|-5.621770|-10.105435|-4.731438|0.740123|0.361249|0.260326|-2.326459|-1.168799|-8.542640|-8.077116|-6.311616|-10.942137|-0.864761|9.012670|-15.240796|-32.130670|27.528032|56.686015|27.054651|-14.102731|-45.388947|-51.277728|-39.227063|-32.537139|-20.236850|-13.611872|-9.519415|-11.527871|-1.668884|-6.122666|-3.973726|-0.144886|0.140509|0.408725|-1.581124|-0.924755|-8.247552|-5.775310|-4.295060|-6.446045|-5.069356|-14.780208|-10.747578|4.047846|47.547139|50.061092|17.150388|-15.285690|-27.451126|-38.196193|-31.990718|-20.429928|-20.349105|-13.650389|-13.985469|-10.702179|-1.901910|-5.763458|-1.541312|0.423403|0.516394|-0.935220|-2.481692|-1.929310|-9.170374|-4.177851|-0.898889|-1.079891|-7.533230|-25.125722|-21.635383|1.175048|39.761580|55.033987|26.781075|-10.827258|-30.559239|-30.886599|-15.603896|-21.393638|-18.950728|-18.165108|-11.953149|-12.184738|-1.959229|1.265306|-0.937107|0.908832|-0.125575|-0.279596|-2.568748|-1.778535|-6.608609|-7.099954|-4.305399|-6.047440|-7.313079|-20.411199|-33.272353|-14.999975|37.108183|39.106518|9.511670|-4.969846|-20.240035|-16.756222|-18.636059|-16.048874|-17.457279|-14.762223|-11.866433|-12.015062|4.200585|1.014444|-0.752173|0.301475|0.404872|-1.271207|-0.620285|-0.547082|-4.932624|-1.722784|-2.973671|0.386996|-13.673501|-19.968692|-11.579634|5.168611|28.677937|20.434360|11.607668|-7.440369|-17.228572|-17.242602|-13.823303|-8.790870|-12.570157|-8.831637|-7.517055|-3.667827|0.222855|0.538200|-1.308737|0.872479|0.673404|0.023430|-1.198285|-1.745249|-4.360839|-2.140645|1.817234|-1.242498|-1.475037|-25.017276|-13.330491|-4.709663|18.398494|21.394149|7.497362|-19.778311|-24.154478|-18.449918|-10.340726|-0.822350|-5.233561|-9.080616|-2.207476|-1.451108|1.072811|-2.110144|0.463078|0.516181|0.671826|-0.129028|3.013629|-2.419860|-1.361542|-2.787193|-5.084288|-6.705614|-5.118161|-2.995850|-13.134740|-7.278621|7.354615|7.179183|-1.891029|-14.052705|-14.209924|-13.599269|-15.788513|-9.131669|-5.783829|-5.282198|1.351825|-8.301666|-4.540601|-4.244307|0.069022|0.933776|0.769292|0.664346|-0.243441|4.675172|5.552987|1.141701|-1.055406|0.816611|-4.592454|-6.319705|9.414503|3.819923|11.850284|4.025840|-19.344572|-21.714274|-16.367926|-3.775507|-2.064522|-3.706406|-0.740439|1.483450|1.292250|5.822076|3.318077|-0.491780|0.751597|0.585848|0.051989|1.164043|-4.016361|8.764407|6.824712|5.992546|4.003907|5.128083|0.430941|1.504509|0.287892|2.354967|11.700081|0.879144|-8.761621|-12.531500|-6.528506|5.770305|0.349259|-2.567651|-2.945867|1.390236|1.817531|4.622615|3.172843|1.624925|0.295992|0.165244|1.277894|1.509380|-10.386369|-5.045083|9.909351|5.096943|-2.065874|-3.573299|-6.839241|4.972539|5.031123|6.734696|14.859037|5.376707|-4.676611|-7.454886|-2.442683|-1.275986|-5.249945|-8.317488|-3.334900|-3.929727|-3.298136|-5.307785|-6.192222|-7.036709|0.147845|0.878871|1.022824|0.990231|0.669072|3.671412|3.371146|2.252900|2.126494|1.319661|2.185466|3.698465|0.598836|0.470086|2.610770|-9.996905|-14.115752|-18.774924|-1.555818|-5.262397|-4.175099|-4.577616|-3.316622|0.877744|0.149146|1.146765|1.396608|0.875323|0.135265|0.194579|1.245357|0.757266|0.385292|2.661221|4.197564|3.435362|3.563944|2.721991|2.504238|3.254273|2.140909|2.256495|1.012707|-7.680522|-3.031016|-7.088746|-3.058667|-3.670165|-3.728894|0.303604|0.857090|0.043287|0.186605|0.639652|0.288892|0.570354|0.386908|0.051467|
~
0.451980|0.516073|0.258451|0.184540|0.775099|0.335657|0.171511|-2.108311|-2.020398|-2.512551|-1.743812|-3.090114|-6.884633|-7.088126|-6.740576|-3.736648|-4.957815|-5.769318|-2.007555|-2.815305|-2.766187|-1.917283|-2.685254|-2.392163|-2.949818|-2.896253|0.502366|0.464857|0.812509|0.896503|0.533138|0.315665|0.397759|0.735939|-1.977042|-2.017770|-2.135452|-0.924863|-1.955346|-10.712110|-8.795444|-11.391435|-8.170155|-10.665386|-7.968921|-7.482675|-8.743108|-2.635102|-3.435466|-5.860252|-1.581987|-3.678791|-2.401352|-2.609822|0.284172|0.113855|0.815432|0.786537|-1.801372|7.755148|15.922456|8.052689|13.465347|9.448903|3.115006|1.302905|-3.073179|-12.952169|-9.363243|-13.585025|-13.015904|-9.697942|-6.192799|1.093088|5.466125|-0.769653|2.361075|4.689938|1.308685|0.751393|3.949015|0.969805|0.955069|0.156388|0.053715|0.239241|0.068363|10.733814|9.019597|8.867998|4.672156|7.350954|3.894889|0.441360|-9.011605|-7.524422|4.470192|-4.943892|-17.287745|-23.590150|-21.200132|-16.524395|3.487152|10.673682|7.788375|1.993762|1.162383|0.917043|-1.175563|-0.301721|0.091981|0.623242|1.046650|0.097892|0.828677|6.334464|0.726208|-1.853194|-4.354626|-5.176734|4.931079|-8.900454|-7.646299|3.166995|4.471817|5.252418|-9.533497|-14.040216|-23.706317|-17.400496|-26.461625|3.405709|-2.586836|-4.153473|-4.419253|-6.855724|-8.207129|-2.204503|-0.847650|0.637656|0.438404|0.708473|-3.043024|0.158256|-6.059120|-9.081745|-5.030457|-4.373993|-3.364435|-4.731972|8.609635|19.942302|22.380973|24.967377|4.990706|8.266446|-1.828325|-1.584058|-16.245732|-3.438414|-9.697782|-5.630796|-7.605259|-8.624993|-2.313159|-3.696855|-1.937377|0.171847|0.846687|0.720934|0.196376|-3.470277|-4.920671|-6.807906|-0.229458|-2.347825|-9.731477|-2.009634|-3.204000|27.451214|39.212894|28.850519|7.863433|18.370332|24.067144|26.821879|-6.197302|0.675710|-8.594028|-14.570056|-12.009984|-6.916724|-3.255400|0.845244|1.570414|3.870438|0.462938|0.007884|-4.483583|-5.216378|-4.434297|-6.544736|-3.840976|-4.578430|-23.609672|-2.721735|10.138986|13.671302|21.022942|17.650429|18.709752|33.215521|36.637802|30.199012|7.750091|12.041573|13.147866|-11.835532|-12.222303|-3.756889|-5.923961|-0.707392|1.605211|3.861755|0.475291|-0.466054|-2.531698|-5.929945|-8.803540|-7.349132|-6.903430|-3.204309|-13.013729|7.087839|16.693466|11.098603|17.517071|0.167103|17.209271|34.927778|43.778635|49.754016|42.872904|34.663192|20.152788|-4.600015|-4.064466|-1.610806|-0.043539|-1.157476|4.049905|2.993311|0.488039|0.225112|-1.352387|-5.406529|-7.689989|-5.082470|-7.995423|-11.058693|-12.678821|0.131082|-2.787156|15.422984|6.351488|-16.889095|-1.096865|7.200946|33.976800|58.195991|51.802809|19.972217|3.951888|-3.563557|-2.325675|3.747869|3.000655|6.864854|3.474182|1.891623|-0.002487|0.583566|-4.985009|-6.213727|-5.978935|-2.407201|-10.211055|7.772201|-1.154164|8.788344|10.837913|6.706089|-20.821259|-40.503444|-8.542702|8.096539|27.749951|47.964426|48.868667|10.514379|3.436835|-17.340980|-1.032039|6.311043|2.845990|5.816565|1.002263|2.774729|0.851466|-1.702387|-7.320905|-2.636064|-6.363858|-2.510040|-10.632194|1.217170|0.875197|3.071200|18.820772|-12.889666|-34.355193|-28.570011|-7.510898|15.968075|4.006276|41.749784|22.129878|3.342385|-2.272808|-25.389197|-0.574828|5.920938|7.106668|3.441871|-0.875903|2.816795|0.113080|-0.478019|-3.890170|0.549865|-0.275471|2.947615|-7.386391|-0.763659|-10.136857|-18.770717|-20.496639|-51.510386|-46.050792|-23.722503|-3.687855|12.621926|0.495377|9.434855|-5.532478|-4.140909|-21.053099|-25.493316|-16.917974|1.161789|1.329637|0.603557|-1.538474|0.776468|0.671138|2.698766|-2.718566|2.952367|-2.048854|-0.354660|-0.930703|-0.938616|0.342337|-12.104127|-14.891629|-33.303278|-26.897577|-1.290471|13.521258|14.751940|-14.478963|-17.201057|-31.633543|-21.973422|-35.645067|-32.837077|-16.681331|-2.505298|2.095903|-7.216031|-4.847085|-0.213357|4.445817|3.339030|-1.620939|-4.894749|-5.878311|-8.465560|-8.290047|-7.084510|-18.065144|-26.807237|-27.300283|-21.711076|-20.385921|1.798366|6.137749|6.870836|-29.416593|-23.702236|-47.246519|-36.995221|-19.237704|-18.821575|-14.405287|-4.543514|-2.634491|-5.992180|-5.286435|-0.303985|4.431647|2.963492|-2.219481|-5.146506|-10.717447|-13.728961|-14.305937|-13.889646|-24.566520|-10.262691|-8.117827|-15.470533|-13.815640|3.458693|3.773817|11.671802|-1.745663|-39.851698|-23.731102|-28.528296|-22.245295|-10.840467|-6.974491|-10.243787|-4.257469|-11.155883|-7.448864|-0.321240|1.600219|0.707357|-4.103470|-1.208448|-7.256087|-8.163258|-11.433054|-16.873671|-1.661481|12.922335|3.225854|-2.698702|9.946405|29.034530|25.196580|2.191598|-8.143041|-17.882717|-22.719702|-26.096239|-15.451939|-7.284006|-4.822081|-8.964714|-8.576999|-12.135835|-6.680651|-1.398734|1.019765|-0.537297|2.066724|-1.552756|-10.433499|-6.659091|-4.604400|-11.239486|7.529668|-11.614742|-0.390100|20.944849|18.275003|9.702947|4.387562|6.943156|-4.411839|-4.823949|-24.902381|-19.816900|-35.288040|-12.900827|-8.521781|-10.741374|-9.090872|-13.031383|-3.561909|-1.814791|0.912182|-1.743089|3.880800|-1.217067|-9.815710|-5.749957|-9.739448|-9.508714|-0.846837|0.920463|20.051461|22.493017|17.170601|23.790676|8.247347|7.793825|-13.872186|-9.976324|-20.286743|-25.609580|-27.171403|-23.899707|-8.975660|-11.761650|-8.655440|-6.810815|-2.841179|-1.064542|-0.062225|-1.281770|4.591699|-1.491870|-5.897629|-5.620658|-4.609273|-3.244520|9.696625|6.843233|13.858799|21.653688|41.377855|21.517201|17.800371|16.626149|9.416284|-5.509567|-26.111247|-17.169268|-23.428127|-19.568152|-19.602942|-16.037714|-3.830647|-1.566515|-2.850395|1.218232|-0.294186|-2.042284|4.408747|1.278082|-6.554136|-4.267084|-5.356282|13.537120|11.575569|0.460972|19.636112|20.523289|14.561079|9.508855|17.660575|4.008349|-0.848166|-7.853094|-21.301947|-17.384040|-7.470238|-12.906524|-10.874180|-5.629909|-2.053183|2.441910|-1.385533|0.344466|0.809512|-1.710571|-3.300321|1.488126|-2.490458|-0.789843|4.836365|6.682875|19.107467|2.142444|19.776025|14.244665|1.945730|-5.927222|-4.435563|-1.348630|-7.170132|-17.592857|-14.759562|1.171486|8.404938|-6.737051|-3.619620|-3.161191|-0.408317|4.428790|-0.035898|0.374287|-0.327927|-1.046002|-1.175570|-5.183733|1.199880|-6.921972|-5.841322|2.342569|14.336102|5.880794|4.215014|13.815456|-0.734112|-5.784801|-4.168726|0.217925|-12.291973|-11.281425|-22.299376|-4.536233|6.669769|-3.855555|-0.666727|-11.788179|-9.946581|-2.450761|0.886296|0.352158|0.533994|-0.336922|-3.497079|-0.332156|-0.060070|-6.714031|-3.386908|8.278025|2.172210|-5.135310|7.815851|-0.533595|-6.575279|-28.098413|-28.857235|-22.834301|-17.801409|-18.300486|-15.610485|-6.617703|-0.122266|3.973321|0.584390|3.930613|3.103239|3.983363|0.143475|0.461108|0.124619|2.807706|-0.670755|9.301668|6.063127|8.258418|-1.763139|13.338307|14.806744|0.877587|-2.009417|-3.311272|-9.600314|-30.894726|-19.833874|-19.036108|-20.693275|-9.721495|0.732340|0.766387|7.606933|12.142340|11.766120|12.518937|6.728653|-3.414221|0.065104|0.843304|3.668463|4.156934|-6.522450|0.059350|7.078313|3.416574|-2.533861|0.946105|-3.884978|4.324411|0.099167|-7.911155|-9.046314|-18.252209|-18.215164|-19.365886|-7.606102|-6.163407|-1.519729|-4.323289|1.060377|3.311375|1.718886|3.194001|2.633195|-2.902083|0.864425|0.740424|3.247130|4.763677|4.526751|9.075651|2.651486|-1.447597|-1.974345|-2.406321|-4.987405|-4.108185|-16.003948|-16.822140|-19.237670|-23.558776|-31.877178|-26.507997|-11.333627|-12.199974|-6.288739|-5.697180|-1.937142|1.901940|2.106119|1.879702|2.106927|0.068839|0.756635|0.122072|3.510504|4.188398|4.460680|6.950395|7.959131|5.571120|4.417739|5.015359|5.860795|0.623051|-3.217532|-7.123200|-7.507622|-13.564152|-8.951137|-12.560529|-10.974915|-9.465354|-4.224262|-2.142902|-0.633176|-0.539946|-0.089148|-1.114503|0.294763|0.600910|0.624140|0.882801|
~
0.694213|0.388206|0.030745|0.556378|0.997065|0.929608|-0.271187|-4.937463|-6.590283|-8.593561|-7.706728|-11.000181|-15.200856|-11.936284|-10.244764|-9.834689|-7.509783|-6.156513|-1.459939|-2.488508|-2.204035|-2.550752|-1.253640|-1.751411|-2.532976|-2.275659|0.343591|0.834586|0.426280|0.987354|0.750095|0.169297|0.435487|-0.817141|-4.829798|-7.503519|-7.493324|-10.510061|-9.357575|-19.444656|-19.136727|-18.660403|-8.973606|-12.764182|-9.013213|-7.748688|-7.144564|0.278596|0.012148|-3.619255|-1.014586|-1.842174|-1.970223|-2.719176|0.644558|0.482578|0.838175|0.988149|4.534061|4.926946|15.426304|1.973301|5.769483|1.014449|0.756843|-5.197424|-9.894174|-19.293093|-14.817181|-13.621724|-3.429204|-14.028243|-7.961057|1.568094|1.526563|-0.255965|4.237759|10.585232|11.098523|5.589817|9.102820|6.120616|0.454956|0.103487|0.107093|0.099514|-15.223728|10.552035|9.653956|9.131320|0.495974|2.051511|-3.233660|-8.443294|-16.630100|-17.895004|0.000451|-7.462161|-13.834476|-22.695245|-27.618147|-19.650736|-6.862503|13.621065|14.036782|14.188255|11.171216|9.609488|1.750474|9.541130|0.597514|0.729989|0.246817|0.099273|-0.171601|13.446366|-3.205105|-9.873436|-18.525536|-17.829032|-11.553442|-29.720755|-29.199115|-35.588287|-15.117747|-18.731473|-15.041593|-21.388636|-34.093099|-43.263667|-38.988294|-9.081414|-5.122645|0.167057|2.478564|3.027688|3.148332|11.979916|-0.338918|0.339752|0.090376|0.645691|-0.900219|0.313103|-15.440615|-13.795428|-20.478282|-23.591541|-36.105971|-29.306499|-15.307970|-6.903221|18.535744|38.848499|27.222036|36.926293|7.888306|-7.454892|-46.175591|-25.266928|-26.752780|-11.834142|-11.222434|-7.366155|5.090171|8.328086|-2.417213|0.819209|0.897536|0.128320|-2.357854|-2.182054|-12.687107|-14.392461|-16.218797|-23.951569|-30.575065|-21.622649|-7.241000|28.951847|72.864484|44.409726|28.554190|58.439125|65.184578|35.375339|-27.345474|-23.783379|-36.662470|-33.958602|-29.643555|-18.502618|-3.230823|4.556890|-2.135965|-0.039023|0.364800|0.237295|-6.592212|-7.245512|-5.430888|-6.134137|-18.801120|-18.529345|-52.323279|-30.319454|23.501170|26.650216|58.722727|34.597424|58.398226|89.539023|97.025291|58.078571|-19.625090|-22.163086|-10.228926|-32.506834|-31.212935|-17.876685|-9.971709|5.354079|-0.869943|-0.211556|0.386834|-0.219277|-2.005467|-11.838680|-9.828674|-10.309504|-19.875473|-20.682942|-38.356693|-4.719266|27.606519|51.399893|56.310671|46.637956|72.468008|66.164614|65.564119|65.782536|1.967417|7.877907|4.139411|-14.686643|-21.791358|-17.480264|-11.217361|-0.459006|-1.218212|-0.120070|0.978715|0.899502|-0.006547|-9.660739|-10.500541|-1.041758|-14.472442|-22.243484|-22.936978|3.429607|36.007808|63.127694|52.149515|28.333358|51.344080|31.243753|40.736316|53.566700|6.679536|-15.032353|-7.850175|-18.475589|-17.953011|-13.349461|-7.720506|8.658790|0.432456|0.837538|0.524777|0.321419|-7.013529|-8.408715|-7.137735|-4.382753|-10.927785|3.618798|-1.372061|20.286918|59.118481|51.954429|16.456255|-23.910319|33.006421|7.229871|19.471280|19.389133|-11.984583|-17.892449|-18.311556|-34.700557|-16.746777|-8.354061|-6.784208|6.758389|-2.766345|1.086158|0.177244|0.134855|-7.499823|-2.834782|-7.575715|-2.290554|-15.828397|-6.084769|1.393803|14.224352|56.108102|7.133527|-10.087001|1.270713|55.385131|62.973252|5.137141|22.530770|-1.463474|-10.808177|-15.094044|-27.885538|-13.463439|-10.080620|-3.378473|7.407062|-2.917932|0.972141|0.894298|-0.427857|-6.011595|-5.214327|-3.090591|5.582532|-1.132029|6.661361|11.569432|-2.940366|3.943363|-36.852292|-35.686329|-7.443022|50.051354|41.475493|17.279847|4.024605|-23.747663|-20.635251|-16.372291|-24.831490|-23.795398|-13.917001|-12.712545|-5.114396|-3.250628|0.100507|0.105377|1.184153|-2.974398|-0.954856|-1.183813|-3.956209|0.905563|10.778027|9.950051|-16.510351|-16.255580|-24.614281|-29.402946|-25.601966|43.335721|35.860557|18.000204|-3.412673|-13.190899|-3.826964|-35.154284|-30.654467|-22.602440|-12.720998|-8.821259|-3.944302|-4.331933|-0.073187|1.749546|0.504065|-1.748197|-5.518358|-2.772774|-10.952821|-3.815215|-11.263912|-19.642386|-37.468535|-49.288983|-28.514588|-56.542917|-26.890870|25.173195|5.361793|-12.922845|-13.769120|-5.588062|11.400804|-4.273351|-21.339478|-18.122701|-10.943062|-6.325601|-5.724819|-5.085699|-0.336786|1.518078|0.702649|-4.219363|-4.840881|-10.085173|-18.826392|-14.247384|-20.526953|-33.857373|-27.973478|-18.902327|-59.182435|-73.201206|-45.972098|5.254372|28.205050|13.786792|-17.732225|28.088130|34.733465|9.616348|-1.198540|-11.186871|-21.402586|-13.359825|-12.871241|-7.592919|0.127172|0.460628|-0.374692|-0.131636|-0.401343|-7.823420|-11.623723|-11.507290|-22.359065|-20.243240|5.788163|-21.787905|-59.049950|-77.857262|-40.443204|-10.116300|4.790085|15.218274|7.696950|42.896925|54.585083|24.022229|-5.663766|-12.940245|-19.046505|-17.821577|-11.581571|-6.886741|-1.366346|1.311741|-0.315588|3.865595|-1.099769|-9.201466|-5.307926|1.309476|-9.718050|-4.654691|-5.538947|-16.595441|-3.356171|-36.180755|-57.149864|-48.329765|-0.280427|13.788120|21.346979|44.409589|38.079679|-6.764483|-9.310631|-17.871345|-16.508028|-14.118756|-6.287293|-3.543651|-1.220931|0.621104|-0.197666|7.131814|-4.552049|-13.282640|-5.289411|-3.426737|-4.964198|-14.038456|-17.990700|4.145836|-1.219790|-13.866943|-2.265075|-10.836589|-16.041393|15.745188|27.400687|27.308243|14.679728|-15.342813|-36.571459|-16.797065|-16.643012|-13.999981|-7.342100|-4.152701|-1.138207|0.068665|0.070368|5.077836|-4.854671|-5.443258|-1.141727|1.358306|-6.774343|-3.382480|3.416595|19.353569|34.212934|64.393123|24.835569|35.074173|46.544893|38.265585|13.497988|-2.204356|-5.661709|-18.527074|-25.783928|-27.395059|-17.807019|-6.957520|-4.413433|-3.933080|-0.306616|0.322957|-0.893821|1.957018|-3.581509|-9.123637|-1.639426|-5.578919|3.438738|-8.416208|-9.831902|27.281018|48.992505|34.667401|26.515182|55.375282|59.154058|46.140469|-2.987923|-18.440118|-12.836276|-14.965208|-18.205372|-20.074867|-6.160802|-6.054302|1.943909|-2.216026|-0.462676|0.619164|-0.304940|0.362615|-2.268887|-3.945116|-3.572368|3.182622|2.290646|12.232789|-6.052974|24.055641|15.531953|13.757359|24.353376|20.505916|32.237100|26.022777|-4.054861|-19.642754|-3.078657|5.416860|-17.211723|-8.944033|-7.840111|-5.194323|0.493750|-2.073629|0.568066|-0.024049|0.520363|3.361286|-3.823570|-2.569178|-5.181966|-7.978816|-5.388726|12.455077|4.407797|6.691226|1.153629|-1.736683|20.579013|28.767489|42.704075|25.477614|-6.487662|-28.331594|-6.531905|5.004604|-4.023229|0.003353|-23.042118|-9.221586|-0.849370|-1.368228|0.119672|0.025842|0.421982|9.214784|-2.410976|3.615973|-0.874522|-0.364566|17.042640|12.179095|4.199467|13.262106|1.705264|-3.415355|-6.480902|4.642129|18.513596|23.312725|-7.964212|-11.830204|-8.046374|-4.111377|1.097797|-5.734263|-7.212036|3.611960|-5.272874|-0.767639|0.158535|0.077484|0.691105|-1.867357|13.537705|6.138099|9.584436|5.089493|17.625050|19.021665|-2.271045|-4.123531|-10.401143|-11.492634|-24.845145|-8.332600|-11.187975|-11.119280|-3.751005|-2.218109|-5.000613|-1.373408|3.807704|1.447328|1.037594|8.511877|-9.444239|0.943974|0.802297|1.379768|0.803801|-15.970971|-13.790443|11.743510|9.385468|-0.079183|9.977918|9.920294|11.329471|4.543045|-3.223371|2.899441|-5.187850|0.233288|-14.321307|2.928100|-4.458813|-6.011226|-9.439214|-3.893107|-0.693488|-6.979929|-2.898206|7.127339|-6.985117|0.055899|0.248580|1.260504|1.944356|1.223984|4.223848|1.089318|3.590777|3.935474|3.087850|2.443739|-1.087141|-13.995499|-12.023564|-21.922137|-23.354551|-33.613515|-26.568561|-6.936038|-14.339881|-10.296880|-7.279316|-6.700758|-0.451453|-1.651176|-0.025509|1.633710|0.195849|0.848236|0.283709|1.084247|1.735617|1.393497|3.409437|4.962753|6.157598|5.459679|4.932128|0.520401|-5.366802|-4.598363|-4.437754|-7.960527|-13.254802|-10.189516|-15.596076|-9.917206|-14.475417|-5.231716|-0.758016|-1.388801|0.624966|0.079186|-0.196778|1.234524|0.578915|0.438529|0.215923|
~
0.801799|0.285603|0.521706|0.376107|0.156008|0.080103|0.259398|-3.295844|-2.688739|-2.995183|-3.548469|-3.533224|-5.259819|-3.195902|-3.047692|-2.356499|-3.970370|-4.903963|-2.894431|-2.522212|-2.386043|-2.050007|-3.464069|-3.123359|-2.666427|-2.388796|0.562295|0.620010|0.583714|0.017617|0.862653|0.453918|0.302640|0.192355|-2.385848|-2.450503|-2.572009|-3.019808|-1.114060|-6.540434|-3.099694|-7.230331|-2.997030|-6.621237|-2.110998|-1.759899|-2.493518|-3.367661|-3.264984|-4.700498|-1.538518|-4.172038|-2.691909|-2.672826|0.384676|0.570517|0.692410|0.946971|-4.440631|3.432535|8.544138|2.034413|2.493048|1.927946|2.774908|-0.849582|-3.775909|-8.203461|1.037729|-6.073693|-1.099404|-7.040670|-1.812025|3.453184|3.429055|-1.609571|-3.038711|-0.571163|-0.485492|-6.623169|3.436985|1.333169|0.279538|0.669087|0.388141|0.664214|1.160699|3.166044|-0.061838|-0.372595|-2.804445|-1.515284|-2.434994|-4.600276|-5.515541|-8.652037|10.484864|-1.919599|-0.232602|-17.960565|-13.156666|1.509699|10.651237|10.781623|6.680018|1.769489|-0.093261|-1.192835|-2.514072|4.534509|0.496679|0.334452|0.060586|0.770202|1.440172|0.604136|-4.676576|-6.810419|-10.201580|-10.149051|-3.092192|-10.588655|-6.557123|-3.183039|-1.194655|6.369816|2.636928|-5.121446|1.456461|12.159119|-2.847733|9.087989|1.926399|0.059040|-2.035812|-5.522348|-4.418176|-0.048818|0.653773|0.592263|0.039418|0.266901|2.959590|0.377900|-5.198520|-9.161920|-4.319929|-6.222794|4.737329|2.978344|9.091266|9.169076|9.126559|9.663996|-32.522123|-6.946641|1.813584|13.726420|-4.923097|2.382708|-3.845511|-1.961289|-5.936751|-3.004085|1.327983|1.547714|0.756936|0.766947|0.380930|0.624127|0.610414|-4.682871|-4.977804|-5.616543|-0.653063|-4.471324|0.630332|-1.607494|-1.645433|6.155967|29.686522|2.838748|-14.335991|8.896178|25.908181|31.106785|15.329667|7.245247|-6.969406|-10.834280|-9.489486|-8.848417|-1.257799|-2.024637|0.524685|0.494829|0.156286|0.469156|-3.729426|-5.898928|-4.539084|-6.170552|-4.996784|-6.193428|-19.169164|-17.251442|-7.925023|-11.256754|8.240974|13.300353|28.919352|36.688209|41.829813|36.278714|29.504801|11.181304|8.031521|-3.282056|-7.814658|-5.043773|-2.137828|3.103461|-0.029719|0.513706|0.703162|0.869150|-0.618027|-3.940086|-5.446736|-5.529669|-9.819673|-5.047993|-24.457753|-2.362499|-0.741084|0.917124|26.939140|15.320818|40.093440|28.390534|36.779457|14.681617|30.896769|22.027091|11.339057|-1.605708|-4.698371|-4.104834|-1.117532|-2.289646|0.651126|0.267327|0.689514|0.278969|-1.070574|-5.386116|-5.068237|-3.781206|-8.254270|-14.456813|-23.095072|-6.238773|-14.831324|-11.848808|4.618426|8.058754|34.175683|22.534358|13.304383|-1.613154|8.752188|3.874680|-2.876404|-3.471617|-0.517878|-1.833831|0.816055|-0.454860|0.925794|0.112512|0.830493|0.334477|0.137956|-4.816236|-3.966335|-4.672291|-9.671830|-5.278357|-5.838433|-17.601040|-19.817247|-19.657600|-4.827187|-8.356916|33.870424|33.296755|18.566670|-10.773057|-4.798471|-22.873962|-13.620966|-13.695494|-2.071438|-1.849329|-2.607720|-0.371318|-2.155313|0.900819|0.687051|-0.681600|-0.719821|-3.094156|-5.133003|-7.770887|-11.790763|-7.249545|-16.059139|-22.662592|-13.683700|-10.359422|-1.922270|28.586006|35.801394|42.809763|-8.843725|-25.355814|-44.605188|-42.042503|-25.157988|-19.647084|-5.568567|0.047022|1.037983|1.312001|-3.152928|0.283253|0.899719|-0.159428|-1.572304|-2.765095|-1.496892|-5.389308|-13.337332|-9.794198|-18.648945|-31.122996|-28.368488|-25.919319|10.496736|28.717684|25.310751|5.441417|-34.507154|-54.994643|-63.198227|-37.357265|-31.581904|-20.872945|-9.010407|-3.671343|-2.000384|-4.603116|-3.027762|0.289365|0.673383|-0.218497|-2.871760|-2.530522|-3.922369|-8.181938|-12.527317|-13.263703|-23.196307|-25.606340|1.659530|7.718758|33.140408|43.216907|16.523113|-14.408176|-53.027439|-83.385516|-78.286955|-45.380499|-32.340566|-20.807743|-11.676824|-5.346471|-2.841926|-5.196988|-2.965761|0.260322|0.819740|1.431253|0.786882|-4.810527|-6.256190|-11.652889|-13.279024|-16.710722|-35.191977|-20.405307|-6.103814|11.445330|25.189456|37.753310|10.038696|-35.955173|-84.340655|-82.156408|-73.732310|-43.496232|-24.555003|-17.123441|-12.996211|-6.978061|1.137876|-4.168691|-3.889207|0.429158|0.683149|1.128027|-1.327153|-2.807677|-9.230928|-12.602189|-14.908995|-20.642079|-19.209390|0.178490|3.139585|-16.250750|34.826107|48.278335|3.977253|-24.565820|-52.738665|-65.399405|-41.446862|-35.521982|-25.755917|-14.196081|-8.280258|-11.898340|-4.004787|-8.268112|-4.646636|0.864462|0.525253|0.114622|0.905758|-2.037021|-7.902108|-6.443991|-7.558592|-14.919489|8.903753|23.781245|4.211352|-6.601140|29.222246|39.883349|24.013341|-24.589087|-40.420522|-54.719272|-34.714382|-35.290367|-18.946971|-12.449256|-9.033631|-9.449138|1.846605|-6.972168|-4.517649|0.074423|0.608192|0.041792|1.741973|-1.623478|-7.531821|-6.114886|-4.274632|-13.144086|-1.067419|-13.159337|-2.327447|7.234344|28.565330|17.822833|-13.412542|-34.582757|-34.500221|-39.180786|-43.542665|-25.163495|-23.724385|-15.012430|-13.833114|-10.662089|-0.719737|-8.126123|-0.806022|0.252823|0.183062|-0.744140|-0.904638|-3.217450|-8.792523|-3.568358|-5.575443|-7.458087|-8.777461|-21.894577|-14.431654|7.809640|32.219921|23.324242|6.568759|-13.868847|-27.698685|-30.216111|-22.945605|-28.140567|-22.108695|-20.546291|-12.085612|-10.334599|-1.259227|2.026738|-0.341926|0.044812|-0.727287|-0.467538|-0.069909|-1.468896|-6.332373|-6.437941|-4.576688|-4.632125|-7.810247|-24.114114|-39.934428|-7.456899|36.491081|27.039751|-1.001444|-11.403097|-13.708356|-20.616287|-23.732201|-23.926770|-19.086995|-15.671137|-12.305877|-8.327588|6.904593|3.266686|-0.589281|0.061492|0.418162|-0.790335|0.231700|0.973024|-5.083683|-0.577933|-1.454771|2.589308|-15.842779|-24.014269|-15.858807|10.537926|25.663983|8.186011|7.038897|-14.543920|-16.203382|-10.331642|-17.102774|-15.232515|-11.260154|-8.915001|-6.100943|0.232474|1.640265|1.057933|-0.712852|0.005549|0.708271|-0.198598|-1.335453|0.220131|-4.617049|-3.638422|0.296656|-4.286511|-12.895436|-22.765695|-1.195034|11.034997|15.687167|2.523843|-11.980471|-28.670049|-29.299071|-16.451778|-14.701031|-6.357301|-7.362388|-9.066561|-1.822207|1.290574|2.362667|-1.579098|0.512324|0.715489|0.508145|0.015356|3.981669|-3.188464|-2.939926|-4.195970|-7.588977|-12.090314|-16.115014|-6.059785|-0.944292|5.833848|0.770820|-15.788172|-16.768719|-22.132333|-7.020275|-12.396784|-17.893117|-12.933880|-7.614798|-6.737214|-0.147327|-8.988328|-5.650501|-4.304017|0.064958|0.583827|0.603991|-0.212244|3.851538|3.216100|5.538295|0.049031|-2.291602|-9.958156|-12.450686|-7.061869|19.674648|8.800240|2.825982|-10.929981|-24.449373|-22.455716|-8.716981|-4.886462|-4.163186|-2.950300|1.230802|4.797079|3.879973|11.356933|6.009166|4.812417|0.768562|0.835754|0.641795|1.279435|-0.475043|12.053229|7.441141|8.871547|5.061361|3.229696|-0.036521|6.062872|3.965388|1.482171|-0.775363|-10.613953|-11.642946|-12.998678|-4.477432|3.229405|1.636501|-1.831873|0.801845|5.221459|6.693763|9.055372|4.690822|0.925356|0.663798|0.440787|1.618467|1.064016|-8.227601|-0.632299|6.822058|2.659840|-3.379219|-1.442569|-7.456684|5.453953|7.804042|0.815846|4.426460|0.124036|-5.971760|-6.599629|-0.516775|2.526796|-2.443304|-4.030320|-0.496200|1.513051|0.622931|0.127425|-4.859558|-2.012676|0.577779|0.950636|1.523446|0.961660|1.117887|4.179056|2.234606|-1.858377|-2.048351|-1.455534|-1.155686|2.458544|-2.094367|-4.796241|-4.403881|-16.957425|-19.978394|-21.730179|-4.273376|-6.225980|-4.469412|-3.789529|-4.065626|0.505764|0.891758|1.040545|1.241332|-0.011469|0.987232|0.939337|1.189040|1.183440|1.234650|2.890100|3.970995|1.024924|1.016158|2.673129|4.196879|6.061381|1.436524|-0.164527|-1.663617|-10.802087|-4.772154|-7.860221|-3.431790|-4.440416|-3.594792|-0.235455|0.953521|0.514653|0.547149|0.574112|0.537344|0.701862|0.228305|0.124586|
~
0.757473|0.224674|0.080032|0.345010|0.792345|0.788488|-2.096378|-9.141042|-16.149599|-19.689812|-23.060145|-26.453344|-29.287644|-23.814665|-22.124300|-19.570780|-14.548363|-9.394565|-2.382162|0.093342|-1.288194|-0.975448|1.896678|1.152826|-1.099611|-0.808598|0.759391|0.191454|0.702620|0.002842|0.340605|0.503961|0.250537|-3.476602|-9.730058|-15.990386|-19.154069|-26.346925|-29.447133|-40.857155|-49.465910|-41.290975|-25.426995|-23.161950|-16.842573|-18.149377|-8.129542|4.037396|3.154139|-1.127328|2.102903|1.882644|-0.119298|-0.298721|0.462273|0.580932|0.630855|0.221664|15.530339|2.415623|20.064231|3.127461|10.806127|0.829124|6.915433|-18.859683|-28.863828|-36.176143|-33.097012|-22.364034|-0.448014|-20.520943|-1.684838|-3.614624|-1.287557|4.580314|9.252105|22.082422|23.670050|17.393627|15.379003|6.080947|0.845253|0.875536|0.678419|0.307527|-22.684362|13.310135|19.817290|14.328965|4.987376|3.897964|-24.657638|-38.059386|-43.526223|-59.292694|-37.588988|-39.314485|-35.979557|-40.834293|-55.093918|-30.248682|-13.299998|19.410008|26.882501|35.893429|28.373913|32.128274|12.433631|17.305631|0.167008|0.235802|0.040920|-0.047083|-2.578178|12.289069|-15.428264|-22.037029|-35.445823|-40.411477|-61.400800|-84.857193|-94.473861|-130.857318|-80.126340|-77.145698|-50.910070|-49.550919|-73.924230|-89.150394|-61.769130|-28.883920|-9.677782|-2.039173|4.506915|3.709431|7.084333|23.004277|0.182988|0.298880|0.369743|0.750273|-4.196036|-8.432255|-27.017463|-23.812808|-46.279434|-64.122530|-111.994055|-113.231328|-110.656534|-106.302003|-23.012615|26.096564|35.861892|33.986238|-7.659954|-35.161248|-86.004844|-53.270481|-37.700345|-19.021008|-10.854626|-7.562133|7.278175|15.130029|0.615310|0.643273|0.862591|0.304104|-10.614507|-2.380153|-19.556762|-34.608288|-53.444742|-78.999170|-106.610069|-104.083257|-80.554833|-3.880135|82.811446|53.401289|33.981551|84.230735|101.448724|37.839501|-54.134814|-71.704649|-58.351947|-44.279287|-40.925013|-27.655320|1.361842|6.425477|0.760037|0.517369|0.966082|0.176339|-11.845180|-10.463353|-6.733394|-14.023458|-54.615376|-69.801436|-114.040339|-96.720187|-1.145881|23.187727|89.454349|39.257542|100.129668|149.622942|157.638297|103.583451|-48.229216|-81.433957|-67.589499|-60.622131|-46.600571|-24.052443|-13.663118|10.397034|1.360252|1.752464|0.819046|0.111589|-6.166383|-22.088097|-14.883242|-27.569184|-55.871550|-69.070911|-99.551210|-66.449125|1.958203|79.243358|61.711595|69.673145|110.500273|97.464402|74.008329|93.496100|-32.318017|-58.418975|-52.044416|-54.456302|-36.635630|-27.885531|-17.168349|-1.617116|-1.897679|1.261018|0.527929|-1.336512|-3.426418|-16.240698|-17.667257|-16.389726|-51.485117|-69.575757|-69.705640|-13.134520|57.941145|95.214172|61.814131|67.412690|85.000835|35.184226|33.445022|68.377429|-14.095685|-71.448214|-59.654240|-62.094454|-29.222678|-26.673838|-15.752929|9.239031|-1.141518|1.453450|-0.361122|-0.960151|-13.865507|-13.334633|-17.562136|-33.508378|-46.090707|-39.790763|-26.211354|18.783807|101.661265|91.861746|0.634200|-32.674504|39.668208|-21.246382|3.870345|-12.610405|-59.568047|-79.091318|-78.127614|-77.516255|-33.118426|-21.862514|-11.165978|4.673728|-3.098117|1.332979|0.702598|-2.306710|-11.737041|-10.740977|-15.454620|-27.180758|-43.022907|-35.073027|0.767853|33.883939|107.708340|20.234878|-15.209821|-16.894767|76.360816|92.635283|18.909863|-3.329615|-30.252954|-47.589913|-74.754284|-63.394530|-30.974896|-13.709195|-11.707242|9.100729|-3.404762|1.890264|-0.180265|-1.875638|-17.012869|-11.942502|-15.202288|-7.133093|-9.460413|-1.308949|22.917554|28.742566|58.647051|-3.712995|-10.209350|-26.684369|69.925021|48.751032|29.367239|-4.772831|-59.393732|-92.579269|-73.932693|-60.611398|-38.360485|-17.302069|-20.850594|-14.323857|0.076932|1.256161|-0.493271|-0.768923|-6.346474|-6.309482|-7.463645|-16.604362|-6.368292|14.115077|33.816428|7.508412|15.955614|40.631474|-13.671658|-26.068923|82.815649|48.329013|32.845020|-36.332469|-30.404137|-55.021224|-92.748084|-68.801862|-46.562296|-20.939226|-16.874804|-2.191294|-0.627795|1.572797|1.374822|0.387360|-3.338531|-12.618766|-14.006865|-23.144065|-16.036908|-10.205215|-1.230311|17.030973|-3.402249|29.012075|-41.284101|5.097538|86.497681|32.713399|-22.196747|-49.921397|4.875305|17.880826|-35.964984|-52.919898|-32.400360|-13.759274|-2.857600|-8.443582|0.085136|1.778812|1.956989|1.054279|-2.317990|-5.423034|-12.745989|-24.631567|-16.210085|-0.061297|-12.714993|15.784464|42.156288|-23.393611|-59.784135|-24.818747|77.428479|86.254013|-23.924479|-7.551091|50.389727|65.718669|9.713549|-9.416243|-15.182306|-23.083475|-14.079673|-19.190160|-1.826015|0.574806|1.231141|1.193432|0.659498|1.076370|-9.866423|-21.995113|-16.801255|-22.641543|-51.798714|30.010080|3.020925|-49.961462|-94.056101|-48.632972|15.456338|19.115076|24.514679|20.684744|69.502666|111.287498|25.615672|-18.804806|-16.617522|-10.777637|-25.869995|-15.619206|-2.721256|1.038733|0.948355|0.949934|1.577030|-0.760689|-12.586532|-17.929039|-3.380563|-2.471091|-6.836933|22.183051|-14.251342|0.739667|-51.164104|-89.043580|-74.058768|-1.689691|21.500472|30.336255|102.827721|89.708397|3.756939|-12.435666|-13.231954|-12.186226|-12.302586|-6.519587|-0.110963|0.683378|-0.044920|0.590349|10.216970|-6.118236|-19.009176|-13.438175|-5.033023|5.613405|-8.797519|-24.709021|-14.514585|-22.888698|-52.357837|-36.892071|-28.450367|-45.905156|19.116321|60.935058|57.972423|58.408080|-0.741948|-28.928603|-17.481073|-12.719358|-8.520781|-8.220322|-2.551213|1.217586|-0.359815|1.199802|1.806807|-8.634097|-12.246269|-13.565289|-8.276955|-9.803314|-13.614135|-8.107353|-24.069179|15.099683|26.339131|10.826811|24.903916|59.372122|40.198519|3.939243|1.492813|-3.466887|-3.839993|-7.086724|-20.407718|-6.886070|-6.424940|-11.402994|-2.308284|0.873165|-0.034214|0.597215|-0.880492|-9.285830|-15.852791|-9.476719|-18.907764|-7.521095|-21.428585|-25.917304|5.804724|7.062794|10.321533|-12.429781|44.838515|74.574245|41.139485|-33.648140|-45.644796|-11.686482|-14.122154|5.916523|-11.204291|-0.144378|-3.694499|-4.903745|1.804063|0.343780|0.229610|-0.189971|5.040775|-15.983363|-12.108043|-14.959533|-12.502496|-5.094948|-5.724803|-22.685152|-1.545997|-8.264761|-14.941402|10.401585|6.291364|11.263676|-1.188593|-25.915694|-44.670813|-4.617367|5.955815|-7.193004|0.737351|1.987195|-4.048221|-8.958136|1.120009|0.468604|-0.120743|1.245999|8.548639|-8.484320|-16.102979|-13.373584|-26.853557|-19.247832|-14.879904|-22.526187|-18.249969|-65.409543|-58.209778|-0.939532|16.068932|26.158990|-16.235288|-40.969687|-53.799597|-14.389888|1.098246|7.030700|9.896932|-15.534114|-1.635688|-1.240306|-0.080746|0.950356|0.999599|0.790478|20.575888|10.127868|12.502796|4.578343|0.140015|1.080011|4.725505|-3.052243|-28.688757|-42.283281|-45.395859|-38.229528|-12.075781|15.783042|4.929829|-31.634200|-25.012566|-12.150483|-11.718947|9.965785|11.065184|-3.203538|20.447524|-6.294594|0.820586|0.560910|0.865396|1.340241|-8.121074|39.500303|20.218029|13.144111|14.038166|12.431817|9.370666|-13.924364|-25.526255|-47.429918|-49.209811|-44.017780|-35.987199|-25.857231|-45.308840|-17.294545|-6.122602|-11.496662|-4.823098|13.233163|7.180894|3.758334|26.481660|-3.411225|0.665410|0.344034|1.020432|2.011160|-33.099649|-4.003406|32.166149|28.551396|14.998276|15.312641|7.142615|-2.717246|-7.678063|-12.767081|-3.622519|-28.087913|-18.520226|-29.330127|-19.683968|-9.968308|-21.409360|-17.141752|-8.774583|1.388306|-2.151430|5.561102|32.071363|-3.468515|1.446914|0.884167|0.813103|1.432145|2.692951|3.687160|-3.138734|-5.303633|-5.338084|-10.367710|-18.219104|-27.602259|-37.407471|-37.048258|-57.366278|-57.911805|-71.269650|-58.616419|-32.012917|-27.399153|-21.925247|-14.309002|-18.956585|-1.526537|-3.536567|5.149258|6.077893|3.043866|1.443364|0.629672|1.396538|1.583696|2.026077|2.764999|0.401511|-1.157716|-1.677831|-5.417222|-14.856154|-26.622992|-37.368414|-36.584530|-45.197751|-36.582499|-45.932892|-54.596580|-45.448880|-31.665559|-24.400926|-10.533659|-8.853237|-3.128363|-4.384548|1.941628|3.318310|2.128510|-0.249602|-1.001919|
~
0.448644|0.258377|0.674055|0.378736|0.633432|0.021835|-0.098597|-3.945810|-3.803163|-3.484121|-4.487843|-6.121225|-8.185168|-5.229660|-6.850352|-8.875062|-8.963353|-8.737752|-5.162161|-4.892352|-5.034235|-4.567226|-2.845688|-2.915035|-2.502661|-3.076388|0.436858|0.712477|0.074587|0.014883|0.763023|0.586740|0.281299|-0.083261|-2.987978|-2.760832|-3.301245|-4.296507|-4.662350|-11.755169|-12.521073|-13.369957|-6.332781|-11.646712|-8.055284|-6.447443|-8.191321|-5.607199|-5.747146|-7.627263|-1.986351|-4.049694|-3.251446|-3.067207|0.577484|0.885944|0.315337|0.014342|-2.405270|0.520948|13.824252|9.042921|8.939517|6.025884|2.644957|-3.025544|-3.396354|-9.662777|-5.423541|-7.930424|-1.120452|-12.126842|-8.305722|-5.128349|-4.402147|-3.300179|0.242748|1.929986|4.345429|1.446398|8.287114|0.727746|0.435838|0.848992|0.578265|0.013322|-7.119550|1.712505|0.956167|-1.121534|-3.348002|-1.728863|-8.376978|-16.723730|-20.101462|-25.803956|-4.603649|-11.788521|-13.117222|-20.372596|-22.092409|-7.140767|1.623562|4.583485|4.036990|3.366395|0.105672|0.783950|-3.698497|2.640129|0.942834|0.069662|0.325812|0.444546|3.798731|7.084681|-3.125706|-7.005541|-10.637458|-10.263602|-10.624480|-31.851222|-25.084918|-29.912735|-11.198158|-17.183838|-18.598319|-17.119993|-7.656707|-9.463266|-11.148480|-2.699133|-4.846932|-2.565949|-1.492268|-1.283821|-1.646821|3.288157|0.508785|0.714937|0.138924|0.636671|5.652732|0.785416|-4.951805|-6.662580|-5.494772|-9.140992|-19.618157|-16.205592|-17.548266|-29.487368|-3.269699|-2.590649|-36.773460|-0.402662|-4.896972|-7.850527|-23.734463|-7.538921|-15.529461|-6.074489|-8.377376|-4.879248|2.827015|0.708959|0.261215|0.854748|0.127167|0.160585|1.531025|-1.923827|-4.535008|-4.680127|-3.036133|-14.351284|-21.942525|-27.650777|-28.130030|-25.147502|8.414716|-21.336415|-12.365282|15.047145|20.841810|7.168100|-20.457087|0.679390|-14.380441|-18.904734|-14.654226|-12.516184|1.034255|-1.202646|0.294975|0.624088|0.517074|0.869058|-3.923264|-2.562058|-3.682133|-5.580556|-7.254178|-21.949071|-36.235773|-45.161367|-27.295045|-28.105176|8.498907|23.246909|63.542225|72.489769|69.304894|38.754377|-14.763717|-12.201540|-1.632415|-12.668452|-15.252205|-11.218725|-6.637296|1.644835|-0.061444|0.296225|0.732548|0.533552|0.474344|-4.399392|-6.613637|-7.821777|-14.300664|-15.780042|-33.634043|-35.787599|-24.917537|-13.155163|31.984356|34.058592|62.336715|48.812048|42.007892|19.523298|-8.615345|8.326140|-0.621052|-8.679116|-11.931879|-10.505837|-3.060977|-3.230870|0.065465|0.702214|0.438493|0.610225|5.325779|-4.458062|-8.501608|-4.434546|-12.639034|-21.141563|-37.966213|-29.453762|-26.715903|-0.783326|33.274305|42.442501|50.305329|31.905151|20.626403|8.111901|-16.865199|-4.690449|-10.150480|-9.818927|-6.875845|-7.287075|-1.848595|-0.783580|0.550797|0.886092|0.306081|0.442689|0.822446|-2.473400|-6.747949|-6.646084|-11.003537|-13.217676|-15.716597|-24.971585|-24.404422|-7.017245|17.296616|-1.206765|23.718164|33.381269|20.615162|-6.656885|-29.976919|-27.631172|-19.017656|-19.278935|-7.640206|-5.305961|-3.624243|1.217329|-2.991734|0.526981|0.342416|-0.202742|-0.747351|-3.169733|-5.134994|-5.903279|-14.704276|-16.671494|-23.416512|-18.563177|-0.594379|-16.781958|1.759388|6.383205|38.651410|38.733690|1.518999|-20.905760|-52.853541|-40.187653|-21.422222|-24.331409|-12.440314|-4.513376|-1.297666|1.656705|-2.970603|0.207942|0.302067|-0.270276|-0.691592|-4.090238|-3.403033|-7.663672|-12.237042|-12.928511|-6.515571|-12.874937|-14.323305|-31.970451|-31.745839|-15.485335|26.465234|30.746559|-10.169069|-45.840218|-65.414285|-48.801327|-34.229897|-27.374863|-18.103055|-8.812277|-8.249275|-7.426619|-2.284431|0.883686|0.450590|0.236308|-4.364534|-3.570718|-4.339030|-10.190725|-10.389692|-5.248828|6.545742|4.344957|-2.184009|-5.244690|4.075374|-1.024675|34.975321|23.101428|-16.504909|-60.045580|-73.228312|-51.154205|-42.294142|-32.834044|-23.385078|-11.033198|-8.395630|-5.910480|-2.476786|0.400062|1.374047|1.396705|-3.293084|-3.912306|-5.285558|-11.752039|-12.101079|-2.818204|-15.892949|-8.811092|-19.059601|-19.204763|-13.215940|7.858031|36.681423|5.865110|-37.584835|-67.018490|-79.663627|-55.816109|-39.538454|-30.940043|-21.351853|-14.011699|-5.862268|-9.704152|-3.617351|-0.007868|0.873433|0.525598|-1.740243|-2.136731|-10.053228|-14.672945|-11.492260|-7.394853|-14.199103|-10.212500|-19.356692|-64.716394|-0.452325|20.829823|17.876046|17.264911|-9.348797|-56.023394|-47.648782|-45.947492|-40.565423|-26.023533|-17.121323|-17.980621|-17.138566|-13.648184|-5.770458|0.133217|0.576078|0.502381|-1.598070|-3.785344|-8.122238|-6.762109|-3.442897|-10.630976|-2.172363|17.570439|-19.360827|-70.371960|-14.143492|46.337434|38.173754|20.212263|-10.321840|-40.959274|-36.774610|-44.110298|-34.623403|-22.242117|-15.242123|-17.340161|-11.328075|-10.181016|-5.991573|0.578040|0.803551|-0.546231|0.873596|-2.354731|-8.068264|-1.716892|1.837653|-4.392851|-2.569002|-4.203951|-25.946933|-27.479681|13.500772|28.436130|16.643192|13.786258|3.233584|-29.954828|-33.963276|-29.139940|-34.837686|-20.955595|-20.969704|-15.476075|-7.905955|-7.686887|-2.318085|0.196799|0.265624|-0.014741|2.082282|-0.413065|-7.724860|-0.337685|2.878103|0.276989|-6.318991|-17.547211|-22.172451|-30.386283|-3.511275|18.272481|25.210564|-0.443701|6.467287|-29.395623|-23.813284|-44.230928|-31.785199|-25.544414|-19.240789|-15.898135|-6.589842|-0.556844|-2.139905|0.280598|0.093838|-0.315486|0.008185|-0.042861|-4.909746|-2.843977|-2.382409|-6.894252|-11.591878|-22.819512|-31.219061|-36.109145|5.745295|12.106339|14.185836|17.716264|15.497586|-20.887711|-35.551213|-35.033019|-30.966104|-19.660982|-17.099538|-13.649364|3.790820|0.383795|-2.122040|0.421213|0.595079|-0.809992|2.091490|1.884639|-5.666509|-2.156518|-3.168916|1.186332|-6.997944|-25.952214|-6.646684|-16.537659|-6.211615|-13.431553|26.526440|27.725285|24.294989|-32.659334|-32.135378|-16.491305|-19.589219|-13.408508|-10.284099|-4.935477|-0.988960|1.254595|-0.781093|0.893166|0.860816|0.350184|-2.613880|0.680288|-6.183317|-2.817031|1.955043|-3.235128|4.917090|-25.923325|-19.371621|-23.091079|-4.715499|10.186870|20.279362|8.391615|3.236311|-21.048114|-10.033440|6.021636|1.304602|-12.951095|-4.125761|-2.215551|-0.185904|-1.479521|0.292251|0.595959|0.462557|0.544950|2.513201|-2.101363|-3.280700|-4.321074|-7.553721|-8.362132|-1.586371|-3.458042|-14.289685|-27.817686|-19.511126|-4.229362|12.878062|23.586913|18.325129|-10.540712|-11.697175|-2.182221|-1.128862|-8.702945|-0.929982|-9.415204|-4.052249|-2.927928|0.448696|0.728681|0.665653|-0.096067|-2.592328|-2.712980|0.350769|-5.931606|-2.479180|-0.099790|-7.005715|-9.342661|-0.541436|-14.089883|-5.103938|-15.791566|-16.267968|-7.493963|11.447880|-9.782953|-3.084959|0.980622|-3.365907|-2.860279|-1.397846|3.542604|3.990995|-0.698586|0.288009|0.364628|0.898420|1.184829|-3.932162|14.514688|6.677535|2.472076|0.151049|-0.774294|0.227421|-6.843735|-11.974800|-17.646160|-11.756776|-14.763759|-3.727752|-9.821975|1.405840|7.754530|2.352284|-2.654542|-4.113800|3.257930|1.504824|6.217279|8.006315|-0.083879|0.195412|0.013737|0.797262|1.045274|-13.359529|-1.157154|7.742211|7.702966|-4.337510|-0.500523|-7.087957|-0.248034|-3.901102|-8.979115|1.919142|3.615749|4.076239|-2.244465|12.060545|8.385815|3.178425|-3.696207|-0.884631|-4.696182|-4.983051|-4.761159|-2.359071|-12.254006|0.617412|0.103380|0.704446|1.487754|0.789251|2.581768|0.967040|0.178006|-0.276524|-0.872444|-4.497085|-3.716866|-8.603489|-7.689278|-11.000164|-18.491021|-11.847910|-15.989203|4.642879|-1.678722|0.366653|0.147950|-3.483631|0.198424|0.942480|1.231756|1.039535|0.819418|0.777570|0.613913|1.013656|1.000178|1.046489|2.456808|2.425828|2.765739|2.685000|1.831851|0.520925|-1.811195|-3.477464|-2.176742|-4.074177|-10.770019|-0.990395|-4.045308|2.746597|-1.610620|2.127674|6.179552|2.436163|2.049499|-0.085793|0.736034|0.176612|0.034876|0.409528|0.490487|
~
