2|60
#
~
0.122975|0.433818|0.882234|0.263563|0.463010|0.357328|0.993915|0.223246|0.712250|0.920606|0.655880|0.226080|0.521735|0.454450|0.586948|0.165683|0.109792|0.577173|0.975672|0.349411|0.414735|0.732614|0.273014|0.486009|0.534551|0.730532|0.594595|0.197105|0.371942|0.137807|0.475634|0.494917|0.571625|0.357868|0.755211|0.029443|0.712303|0.748833|0.253443|0.451673|0.737324|0.940701|0.631722|0.151476|0.380821|0.254912|0.352034|0.340158|0.540323|0.278298|0.836470|0.242058|0.069872|0.101153|0.716123|0.604423|0.831685|0.310718|0.801528|0.203635|0.448529|0.277152|0.667811|0.382004|0.247184|-4.469758|-4.503267|-0.583371|-0.961594|-1.063473|-2.609293|-2.430197|-2.911487|-5.820157|-5.452546|-4.838769|-3.582277|-1.599689|-0.744107|0.443805|0.766699|0.908277|0.714902|0.847134|0.003383|0.431024|0.448220|0.794807|0.695755|0.260584|-0.173880|-0.988910|-7.440119|-16.800970|-22.019429|-24.636697|-17.119768|-10.142170|-12.294387|-14.620325|-17.988975|-23.459261|-25.904544|-14.952003|-12.927594|-7.171600|-6.823753|-1.794035|-0.574117|0.441726|0.873830|0.581784|0.375973|0.593492|0.417181|0.349374|-1.605995|-3.468064|-1.983906|-1.313851|-8.057347|-14.792974|-31.299430|-36.085948|-39.331696|-12.198595|-2.745241|-23.483660|-30.413969|-11.044531|6.591500|-10.538747|-14.374070|-12.416979|-12.642452|-16.168042|-10.848785|-0.910992|0.745603|0.050857|0.687680|0.634524|0.623601|0.113496|-2.199813|-9.938804|-10.701035|-9.620194|-10.746395|-30.688102|-40.154122|-35.407512|-19.632003|-13.790478|1.640464|13.566396|19.215817|15.264003|33.329822|38.419869|28.297862|4.195285|-9.258660|-18.069539|-19.439292|-6.397449|0.639505|0.795697|0.612544|0.661518|0.802644|0.143559|-3.584260|-14.286062|-19.188821|-21.220652|-34.200857|-48.697744|-34.796947|-7.181219|13.895213|10.391528|6.244547|35.236072|46.489642|49.142226|50.829313|37.800836|41.649922|38.697671|20.443765|-13.671697|-30.585167|-18.142853|-7.091638|0.197635|0.470055|0.157455|-0.240451|-0.873370|-3.498096|-8.141767|-10.785690|-28.328158|-51.980011|-13.693726|1.620152|8.617241|2.642604|-17.074377|5.379094|14.405976|-2.422733|28.754186|50.333694|56.048306|25.188345|25.563054|9.103086|-19.338872|-44.267601|-28.270788|-9.052000|0.844870|0.454533|0.145071|0.371178|-0.514008|-10.805466|-12.601909|-9.517563|-33.057627|-32.107256|9.819160|29.674364|-15.245845|-24.072659|-11.107075|27.252308|28.625966|26.959856|8.745559|39.575501|38.648627|31.477042|12.849956|3.702351|10.728730|-23.123974|-26.690247|-12.242262|0.067629|0.782322|0.235206|1.002508|-4.862419|-13.637622|0.626382|-3.215958|-28.534847|-16.051250|3.513015|10.827569|-39.964130|-33.849963|-20.134343|-23.024446|-9.928453|-0.481186|0.194827|49.792612|57.792897|41.255756|18.506750|6.492282|32.332129|-4.346649|-23.528694|-7.196466|0.529014|0.616671|0.604808|-0.400928|-9.333332|-13.014587|15.625954|-5.036639|-18.310560|-7.131471|-12.625540|-43.885766|-24.961407|-0.670642|-31.710595|-51.029038|-63.703140|-53.611772|-2.755046|13.517958|48.181985|63.975752|42.455489|25.399612|53.311969|16.544108|-22.694274|-10.670683|0.943489|0.620859|0.477136|-3.817914|-13.994311|-19.458065|3.196076|-2.204115|5.046908|-10.171603|-31.099709|-41.257507|-31.866938|-42.752747|-40.135375|-102.383683|-134.676235|-121.011343|-70.163242|-38.980064|5.572871|35.526550|24.935081|19.383164|43.942957|28.268066|-23.343696|-4.579649|0.200724|0.446790|0.730219|-6.095483|-13.960054|-20.206398|1.268273|17.834536|7.855815|-6.106839|-35.552968|-13.819331|-22.110360|-34.430753|-74.406120|-127.710330|-143.170230|-118.427920|-75.445352|-40.752349|-30.023770|-15.677315|-5.956377|41.580373|65.591582|35.643847|-9.694674|-0.649901|0.210648|0.211762|0.067509|-3.979471|-14.170388|-17.105212|15.133632|51.194710|43.720971|30.089175|-0.489271|25.849532|-15.214831|-44.571094|-104.548442|-123.978540|-127.988321|-101.793830|-66.961369|-58.275536|-46.968169|-40.891735|-23.016495|47.733439|81.091811|51.730968|-0.778635|0.346168|0.499233|0.427758|0.874315|-0.199747|-10.046704|-11.301169|36.522373|66.202019|79.247398|31.584315|21.179001|25.818159|-5.118205|-62.782065|-106.269471|-113.015035|-112.516524|-88.293871|-85.899705|-67.414890|-38.411863|-26.106907|-5.179394|30.085119|80.435134|59.607035|-0.199285|0.226695|0.255539|0.767309|0.556541|0.763393|-10.963038|-14.589070|36.668755|65.205266|78.880841|17.054066|25.780032|23.119732|-17.666175|-77.549722|-98.142118|-109.691223|-101.959054|-91.083818|-85.228005|-70.459158|-30.402856|-8.388391|-12.432692|32.385487|60.363822|42.703348|-2.639580|0.508608|0.657764|0.976800|0.735943|0.779294|-9.882077|-21.582971|48.807141|74.887113|52.124763|21.241235|35.109467|27.791156|-37.470850|-109.189002|-115.695909|-99.515888|-88.321117|-61.854374|-65.066356|-35.544011|-22.939577|-16.585712|-9.581446|15.857598|27.374235|29.955759|-5.179422|-1.209809|0.115613|0.805497|0.118795|0.619095|-5.044644|-8.942743|57.268376|76.451938|42.240502|17.293784|29.897231|3.219574|-58.944874|-129.463234|-126.776419|-111.108944|-72.444200|-41.534969|-45.888711|-22.996493|-23.965424|-49.534280|-25.635213|9.773118|22.190174|15.228041|-9.918269|-1.508667|0.972214|0.111512|0.225951|-0.255435|-9.150352|-7.117945|51.715816|52.917142|45.073221|30.407577|12.482468|-13.105137|-63.759292|-131.018373|-112.721695|-70.712696|-27.547476|-31.072202|-22.731843|-22.151550|-44.953998|-41.630443|8.560266|2.621083|19.018145|5.127498|-6.643112|0.093126|0.759522|0.681445|0.708751|-1.456364|-10.846434|-14.460420|20.638308|32.265213|45.113748|31.541781|25.058708|-0.779088|-21.403363|-38.300486|-24.978306|5.392160|-3.763665|-4.140862|-13.870926|-31.660262|-45.541435|-4.744163|22.768894|15.593873|14.309221|-3.947483|-6.761072|0.501909|0.370604|0.351452|0.620833|-0.606099|-11.200982|-12.934949|11.635506|18.114902|14.704999|17.688992|27.317076|62.805661|45.213538|32.754922|22.953620|-4.125901|0.563302|-19.519117|-30.316189|-45.247935|-48.931284|-10.671946|10.854745|9.620562|-1.708768|-12.496682|-3.683810|0.311070|0.058703|0.832783|0.760231|0.368013|-6.133936|-18.432025|-4.786537|22.740287|18.697515|26.926856|15.846660|34.930044|41.850637|8.864201|-10.133390|-29.509228|-30.280045|-45.548381|-43.233047|-32.900639|-12.611066|0.759439|8.325357|-3.130308|-17.734304|-12.170673|1.061534|0.326328|0.540257|0.375447|0.339938|0.516503|-2.260986|-10.900474|-17.352983|14.807121|34.659078|58.728519|63.612935|38.575088|18.930980|18.139761|4.242102|-30.413800|-26.544486|-19.178647|-5.349038|-1.793691|-12.604049|-19.773693|-10.206407|-5.088910|-8.913469|-5.538573|1.022683|0.918437|0.848653|0.984753|0.993113|0.376031|-0.061987|-3.369307|-8.349534|-6.483360|8.080862|37.264766|51.591828|39.253970|38.235105|19.904433|-1.716796|-6.017694|-10.926697|-24.169259|-20.736644|-42.336716|-43.420890|-38.521613|-12.950509|-3.763394|-2.069025|-3.210522|0.343873|0.856361|0.743958|0.360133|0.762570|0.493223|0.191054|-0.065507|-5.038860|-6.853123|-11.052208|-18.670185|-12.402031|-25.169724|-33.319953|-15.930542|-18.498743|-23.690993|-29.655025|-45.862943|-34.018136|-28.257827|-20.838888|-25.875968|-11.416552|-2.156336|0.096254|0.649889|0.432995|0.977302|0.630879|0.810227|0.838889|0.375112|0.182004|0.703317|-2.646072|-4.775730|-10.019428|-17.379731|-32.139627|-39.498595|-45.026986|-53.635588|-45.765196|-51.484781|-41.297108|-35.849050|-23.192222|-15.593310|-4.380987|-12.441117|-5.440340|-0.737059|0.412263|-0.275810|0.530530|0.908320|0.678890|0.973205|0.884320|0.309769|0.784239|0.775036|-2.914143|-1.841110|-3.315301|-5.683054|-13.890234|-16.644049|-14.904222|-8.958963|-18.184942|-24.224197|-19.526139|-15.320622|-12.664609|-8.580390|-1.763856|-4.425983|-3.609423|-1.329644|0.159466|0.003669|0.816494|0.335944|0.033857|0.342092|0.243654|0.712747|0.315297|0.128154|0.019970|0.090683|0.748149|-0.367980|-1.397577|-0.009026|-0.258991|-0.632804|-2.771058|-3.232381|-3.721329|-1.493086|-3.135530|-1.456925|-0.844956|-0.852580|-0.899211|-0.581805|0.659482|0.749719|0.966849|0.480720|0.753149|
~
0.783341|0.816664|0.787005|0.125434|0.060317|0.499752|0.440731|0.188291|0.522268|0.539460|0.039472|0.229391|0.590512|0.213446|0.590062|0.113601|0.072979|0.548773|0.324458|0.058472|0.028363|0.718555|0.143379|0.932159|0.023993|0.730391|0.761661|0.773712|0.697240|0.242381|0.526861|0.480581|0.059045|0.313866|0.602462|0.113765|0.810610|0.042617|0.229744|-0.101059|0.396710|0.365785|0.540717|0.122388|0.557821|0.139423|0.271360|0.498539|0.446212|0.564618|0.704650|0.741435|0.334740|0.837276|0.663141|0.358732|0.567667|0.424802|0.132444|0.265471|0.667378|0.658622|0.711518|1.039126|0.621100|-4.029445|-3.193336|0.012088|-0.453409|2.566817|-4.433678|-14.799067|-12.812407|-9.439939|-4.849481|-5.545499|-3.758271|-1.608857|-0.055600|0.491387|0.062740|0.404061|0.275398|0.405296|0.229412|0.938539|0.762537|0.752935|0.195089|0.898391|-0.058370|-0.207367|-4.178602|-14.537965|-19.949495|-24.350296|-21.078416|-8.924283|-14.474178|-21.577878|-23.897671|-30.716715|-37.526637|-26.176679|-15.777593|-9.308602|-9.906649|-4.502211|-3.312530|-1.064517|0.245007|0.229253|0.409139|0.787987|0.629047|0.595017|-0.718235|-6.177271|-3.671752|-3.135397|-5.981810|-5.099214|-15.261143|-23.744925|-26.054772|-0.373355|11.841297|10.043109|1.706597|3.513632|3.327530|-24.008353|-35.233780|-33.423761|-24.382288|-21.613911|-19.830877|-6.706972|-1.467219|0.435128|0.826777|0.741032|0.654512|0.153436|-1.623923|-13.088647|-10.819769|-7.370816|-6.815572|-16.764731|-18.398933|-23.751540|2.788746|31.176278|46.704444|59.972839|53.845486|62.599959|38.231141|6.257069|-31.434895|-38.635579|-31.262030|-27.320999|-29.343441|-7.635612|-0.129147|0.438493|0.358205|0.532209|0.828733|0.077588|-2.515362|-13.017744|-19.027745|-20.643132|-25.537898|-40.451179|-31.437418|6.544052|32.135295|25.186830|31.551720|53.492134|69.291188|91.353457|57.184524|46.103867|-13.787045|-12.173827|-8.658729|-25.205665|-41.266261|-20.167989|-7.749209|0.522954|0.640048|0.774860|-0.242607|0.530627|-4.633952|-11.126119|-20.670317|-36.299373|-42.042932|-19.349022|-8.009350|16.078730|12.299006|-0.868272|4.281169|43.192520|43.633307|69.012311|74.962001|48.270919|-7.308840|-6.147585|-10.497207|-25.862842|-45.315916|-26.856562|-10.800289|0.931651|0.051501|0.146004|0.033542|1.311777|-11.960441|-19.144178|-31.014136|-46.833952|-39.599044|-1.625067|11.262786|-14.160524|-34.891753|-18.440229|25.418082|45.331947|68.958998|42.170464|95.069946|77.564432|33.113806|12.908141|4.859864|13.043374|-30.651388|-16.353145|-4.649963|0.141769|0.078291|0.669154|0.239401|-1.390162|-9.346491|-11.069594|-30.458953|-40.697575|-19.083298|10.440233|1.460299|-49.752817|-46.850316|-33.410477|-24.390170|-15.919564|-15.655480|27.152303|108.971821|116.342371|51.877618|31.062706|10.816044|42.170813|-6.080222|-26.832537|-11.859254|-0.233610|0.340745|0.285195|-0.096076|-7.258192|-11.669259|-13.189728|-38.561582|-43.008700|-12.320521|-13.345255|-60.963060|-41.870196|-20.990734|-49.109779|-69.525143|-94.987266|-89.889364|-32.224253|27.539428|68.463720|65.218598|34.442847|17.918968|44.660348|8.634951|-30.153008|-15.520391|0.409335|0.731646|0.513182|-3.663196|-13.966761|-28.224750|-24.412811|-31.597014|-23.004911|-8.389025|-39.931994|-46.292026|-36.203356|-52.155825|-55.534676|-133.178588|-183.591096|-173.705443|-92.438295|-23.622370|39.357919|52.086144|25.123942|10.647122|32.996249|16.165673|-27.337133|-9.120692|0.548827|0.824462|0.051227|-4.751116|-14.456454|-32.307378|-9.066518|-11.778574|-8.241879|-2.521873|-36.753817|-19.899728|-10.742726|-8.946861|-70.459684|-152.370430|-180.677772|-163.443510|-104.630174|-7.455455|30.941608|22.475919|2.046517|6.457840|37.277101|26.350308|-8.223232|0.149795|0.167462|0.531848|0.133607|-3.305321|-17.469179|-25.895434|0.491309|18.001768|18.684624|15.325562|-35.301554|20.701580|21.975403|19.229869|-83.603626|-126.148645|-140.891661|-127.910858|-76.584431|-6.829073|6.972329|0.658177|-12.437673|15.396872|33.403872|30.160570|-3.124207|0.535520|0.799720|0.980881|0.679359|0.126953|-13.005307|-16.539648|16.182056|16.834198|38.112621|3.627376|2.722995|42.220331|69.963249|12.687833|-90.239419|-118.120919|-116.265645|-70.954693|-32.833964|-14.506342|8.001274|20.972076|-15.375648|-0.716840|32.746158|30.388167|-5.369510|1.225451|0.130267|0.921722|0.180991|0.938274|-12.768135|-9.106936|12.967391|-0.770402|18.965121|18.680795|40.418097|54.632999|35.771150|-37.626367|-93.943062|-112.868685|-106.791123|-76.683332|-39.735893|-24.497882|-6.960526|12.205552|-17.699472|-9.379310|10.330498|17.352280|-2.885990|0.560237|0.637598|0.499254|0.562034|0.839613|-9.949819|-11.688311|18.126086|4.175918|11.584691|34.271902|55.018819|67.682466|-5.846013|-107.022353|-123.261677|-120.400966|-81.417861|-52.812318|-19.185039|12.234041|-6.571152|1.127421|-5.965215|-30.292388|-22.936141|-4.052865|-5.658341|-1.239878|-0.094721|0.651271|0.875248|0.081254|-5.398958|-3.495663|23.968673|-0.634617|0.567945|53.481000|78.998022|51.987713|-30.249338|-140.976905|-129.462977|-82.499827|-43.580126|-24.773259|8.428113|-3.551903|-36.363821|-36.685191|-31.229606|-12.148813|-22.612625|-14.500753|-10.944253|-1.564432|0.068107|0.791767|0.409871|0.183013|-12.860690|-10.636723|17.511880|-20.253060|-14.670090|44.482323|65.453164|30.391256|-42.412657|-144.120479|-133.778897|-84.534625|-27.476175|-24.072200|-9.594295|-25.549725|-21.734463|-20.437320|0.418500|-15.685869|-17.635399|-22.027306|-7.898511|0.596791|0.408404|0.469066|1.611590|-0.776076|-18.561305|-26.169583|-2.837979|-10.634766|11.671981|31.513882|41.571772|32.704546|0.266291|-35.132527|-56.799000|-33.182251|-36.169927|-0.617988|-14.838494|-23.991052|-24.519577|1.282766|-2.217806|-24.225488|-19.325422|-11.852218|-5.469592|0.990827|0.965169|0.385739|2.705528|0.763454|-20.537354|-27.693741|-22.094704|-18.357052|-9.262266|9.566601|33.852910|86.798846|63.974088|40.562120|14.969464|-12.251897|-3.683482|-8.922798|-21.015907|-45.415895|-42.935782|-30.139765|-38.992378|-33.868266|-17.557217|-10.034833|-1.211417|1.116158|0.463260|0.277803|0.288265|0.220418|-7.773265|-26.511314|-22.591913|-4.964655|-16.778245|2.392695|2.223388|52.815184|85.001801|53.415451|21.289373|-6.592859|-8.206344|-19.364606|-24.662132|-11.671330|-17.185882|-29.770631|-23.072726|-15.487254|-17.273451|-12.328142|1.753614|1.227797|0.249990|0.886756|0.831496|0.519406|0.439399|-10.839456|-19.463005|8.769977|16.348548|46.280360|72.855017|72.605686|70.545751|49.300799|45.490784|11.338502|13.129073|14.550162|32.231460|2.477435|-16.513412|-34.688712|-20.637310|-9.933379|-11.798396|-6.217089|1.870920|0.989975|0.665345|0.611392|0.839650|0.901189|1.043795|-6.088418|-11.837144|5.251872|22.851775|55.880242|76.488970|53.942463|63.902860|60.179243|42.294602|24.774756|-13.410395|-10.221446|-11.858868|-36.460691|-40.561138|-46.434553|-15.885989|-8.505262|-4.897116|-3.773520|1.568253|0.051665|0.504973|0.415237|0.003438|-0.111404|-0.385458|-3.542159|-6.466358|-1.969343|-12.636262|-8.267154|-1.591650|-13.464718|-26.332987|-13.041585|-20.065342|-34.495372|-37.450028|-32.900389|-25.615132|-28.193686|-20.686781|-25.385401|-14.319880|-8.446886|-3.889907|-0.416047|0.557469|0.377619|0.043989|0.380204|0.425020|0.549130|0.800515|0.492983|-3.548562|-8.549464|-15.427025|-24.570190|-37.323524|-42.645783|-37.930522|-44.698034|-44.927302|-54.176334|-50.557218|-34.014629|-24.071721|-18.118757|-4.970501|-11.316344|-9.620379|-1.878139|-0.352268|-0.438311|0.354410|0.668488|0.399331|0.923334|0.044977|0.443320|0.303739|0.520063|-4.312105|-5.538051|-4.686354|-7.011452|-16.443842|-17.772857|-14.234354|-7.976954|-15.965707|-27.926992|-25.914385|-18.151164|-15.341664|-11.675373|-2.051637|-6.479934|-7.116254|-0.439541|0.257880|0.802840|0.252571|0.497003|0.429964|0.604952|0.164988|0.829295|0.528286|0.210152|0.282358|0.851727|0.650208|-0.602105|-0.266730|0.491728|0.857827|0.226649|-2.103215|-5.504913|-6.703323|-3.922461|-2.687176|-0.773124|-0.042410|-0.951744|-0.077163|-0.628994|0.621112|0.680339|0.331915|0.440721|0.483057|
~
0.584486|0.937724|0.913021|0.189437|0.102712|0.742316|0.717723|0.312676|0.014931|0.549547|0.992638|0.279828|0.483347|0.582948|0.262220|0.332449|0.319467|0.749235|0.451954|0.023821|0.277840|0.373966|0.779418|0.842610|0.310950|0.112792|0.601926|0.991290|0.444707|0.042647|0.474347|0.029193|0.980371|0.387368|0.230890|0.102163|0.137949|0.949173|0.606086|5.612423|9.419151|3.608490|-2.024310|6.850358|1.736652|1.406510|7.884477|7.254124|1.857562|1.160893|0.362105|0.731347|0.124372|0.082155|0.550412|0.435322|0.194947|0.152338|0.426612|0.639665|0.195005|0.900728|-0.881479|-1.492999|-0.667920|-4.336476|-3.158618|9.537696|20.447235|11.821908|0.668551|-2.868205|1.704302|10.466402|14.193447|1.725483|-1.268090|-0.298184|-0.741213|-0.682700|0.301809|0.570428|0.805561|0.449209|0.665847|0.355974|0.279968|0.567393|-0.897103|-0.753207|-4.424472|-11.371717|-10.689000|-27.090600|-37.355262|-49.501591|-48.204104|5.294086|38.574771|42.082990|35.551054|31.787393|-12.110811|-14.224629|-14.295615|-11.075490|-15.951115|-15.981756|-12.668254|-5.352140|-0.317706|0.365577|0.700566|0.039251|-1.258217|-1.100166|-1.637428|-7.907182|-15.433089|-15.446752|-21.095891|-17.729361|-51.897835|-72.297329|-16.687407|24.268997|32.141204|46.704806|30.835227|72.354200|40.432568|-13.414460|-42.614801|-61.619426|-61.593135|-48.974558|-38.767474|-10.816144|0.503447|0.536410|0.200522|0.960235|0.609792|-4.460911|-3.803559|-14.029198|-14.643876|-24.176774|-30.429307|-51.940384|-51.501764|-76.065515|-41.685046|24.964588|81.742689|47.786092|-25.016471|13.139172|39.278675|-17.480231|-63.453638|-75.329646|-71.892740|-51.023605|-40.034513|-2.915177|2.695841|0.431631|0.758354|0.448470|0.917394|-0.941444|-8.048895|-10.875052|-30.017754|-25.446882|-27.809585|-87.344740|-87.629912|-69.004106|-11.117934|34.850709|50.055858|19.168937|-38.817744|-18.257308|12.592386|-3.545215|-61.371493|-33.631756|-47.048003|-45.297036|-39.866470|-12.032087|-2.992927|0.555881|0.511561|-0.459296|-0.415214|-3.890922|-16.778966|-21.806981|-32.976580|-45.430191|-53.448009|-71.589071|-71.920828|-53.515946|21.332983|105.819894|72.180712|82.018661|-23.764469|-39.283802|-53.587635|-31.316810|-84.130335|-69.507418|-49.204680|-38.448338|-31.878042|-12.890435|-3.311244|1.214632|0.436085|0.509340|1.149068|-7.340648|-43.698812|-57.266902|-71.137852|-80.369496|-93.365175|-52.783300|-42.724954|-14.417824|57.671435|100.354198|100.781447|98.687570|87.572511|11.262799|3.194996|-45.718975|-53.087982|-54.328504|-36.921037|-25.052045|-37.989527|-22.667205|-9.286727|-1.489335|0.439148|0.033344|2.122321|-11.161195|-42.844699|-62.218716|-68.980675|-63.584891|-64.595119|-70.242135|-31.381481|-4.024388|66.163299|26.534548|-10.349442|-27.266729|16.484946|45.272358|26.101947|-51.739113|-74.046393|-47.514942|-51.923942|-25.663731|-48.752968|-41.681418|-10.913583|-0.068234|0.224138|0.971807|1.650015|-6.604955|-51.025043|-49.295960|-45.379583|-59.225572|-85.718097|-95.155393|-71.321906|48.382905|82.113725|-15.184841|-64.767039|-110.906463|-63.532706|31.618640|21.104357|-14.256875|-79.404298|-90.084888|-73.514088|-38.006981|-44.867967|-56.775575|-20.941057|0.626215|0.386199|1.246039|0.191683|-9.072314|-73.444971|-61.508120|-26.025817|-32.336511|-84.447479|-88.518018|-14.593078|74.398557|36.422776|-59.243250|-206.546039|-246.431262|-163.355314|-18.365322|-0.686781|66.937988|-4.485441|-35.883809|-64.234168|-27.744564|-10.301139|-54.637073|-20.223291|0.577871|0.474133|0.298251|-0.745112|-7.169282|-62.102207|-4.820520|0.699809|-14.692791|-41.913045|-45.072120|-4.969579|7.221336|29.479135|-66.843572|-179.246675|-213.828666|-146.785468|-61.307017|24.299310|123.562347|33.999989|-25.663702|10.472901|47.791138|27.063485|-15.305180|-1.814854|0.647891|0.184539|0.832117|0.672547|-3.788634|-42.514822|27.784636|39.195484|-1.604339|2.273764|-12.288391|-4.562683|17.269308|38.337171|-157.189243|-201.816723|-185.357812|-121.741951|-54.019859|15.301240|86.846221|0.095906|-51.668012|31.783468|82.057138|49.638200|-5.693014|-1.070505|0.661156|0.456561|0.729879|0.296358|-4.984526|-26.249232|34.867258|35.852899|60.517168|55.355601|27.406245|40.767157|115.939109|18.327894|-161.323150|-182.810686|-184.586776|-134.614454|-26.140061|-2.035709|37.923780|2.289027|-36.431370|5.790352|94.623638|78.887363|-7.903891|-9.492781|0.210633|0.184286|0.638973|0.848303|-6.744034|-8.098587|39.446059|39.267631|70.290094|20.681988|38.413747|128.066825|168.526633|8.880738|-162.057740|-204.755966|-209.825860|-129.716756|-30.328497|12.742670|-34.277181|3.145302|-2.530167|-6.571408|70.188026|67.021745|-14.978832|-16.508342|-1.589308|0.558090|0.238818|-0.030023|-7.621536|7.215245|56.142964|45.111775|39.545257|47.105935|47.763981|186.871062|153.446123|-54.694929|-183.555200|-213.747663|-178.780531|-111.782729|2.444674|36.377553|-71.232436|-25.135009|16.257908|-0.737907|35.094923|41.698029|-20.047743|-14.134415|-3.426479|0.077930|0.132899|0.048824|-5.352420|10.738516|49.221411|25.614840|-5.001100|12.027241|48.823103|204.484353|163.720414|-41.866489|-173.637200|-153.267514|-125.959917|-70.411798|44.202594|33.766208|-81.540849|-50.185920|32.403353|15.279295|13.778174|28.905027|-25.877246|-10.640928|2.300367|0.430339|0.290880|-0.515527|-14.105270|-6.718445|14.694961|-4.599008|-53.540963|-50.136492|40.247862|153.648005|180.022146|-7.921945|-125.664965|-116.738921|-68.093951|-34.367951|0.670754|-14.694236|-0.040098|-14.339338|64.311822|1.268395|-2.450098|5.577991|-19.198217|-1.349265|-0.627990|0.387026|2.201065|-1.640451|-33.300536|-28.309614|-31.162133|-66.580329|-114.646303|-97.810802|29.061497|153.822185|229.122414|121.118279|-27.934448|-43.432276|-32.712425|-15.244867|-10.989574|31.956187|15.769857|12.342897|53.096483|-7.944896|-16.958638|-11.202197|-23.538669|-4.149281|0.100668|0.084772|4.241736|-1.782057|-39.007533|-45.182364|-46.953082|-74.702165|-120.764989|-134.828065|-22.026728|169.811998|226.101045|193.634572|77.906034|12.055602|30.756598|68.429941|68.495527|78.932522|-8.396940|-41.870493|-6.958853|-30.809387|-22.231459|-19.290977|-12.917675|-1.406472|0.826039|0.442702|0.977176|-6.660734|-24.387709|-34.260765|-35.031303|-49.770989|-104.410659|-140.258777|-97.482708|38.191859|138.285493|140.009184|115.211561|79.055147|84.566928|101.391301|74.820588|46.794917|-35.708985|-74.388064|-36.650610|-50.884054|-27.914988|-16.488885|-5.233226|-0.137313|0.558200|0.556043|0.241612|-3.116794|-6.410531|-14.041444|-19.277765|-20.395575|-43.657686|-61.286311|-27.132258|10.317533|37.703830|69.175633|99.850270|74.055633|74.640377|76.289132|50.034581|-5.674261|-39.084930|-75.541036|-54.249360|-25.977457|-17.216423|-8.780540|-3.948321|0.833677|0.074458|0.349099|0.992323|0.376859|0.425913|-3.826687|-1.762002|-5.610413|10.092712|-5.692038|-48.007720|-11.520272|-8.868474|-13.244852|-21.856002|-20.455693|-70.656048|-61.483769|-49.646443|-76.411050|-55.956718|-81.359720|-26.679144|-7.135897|-12.360160|-5.261742|-2.888165|0.350230|0.277539|0.750260|0.212345|0.354215|0.092332|-1.972432|-7.636413|-10.255023|-18.176551|-31.991400|-60.796618|-74.706646|-80.878096|-54.094750|-90.634672|-89.944644|-107.929328|-92.879267|-71.442029|-58.556974|-48.049306|-47.795573|-21.081278|-9.033584|-5.080738|0.108580|-0.003668|0.424846|0.795299|0.540489|0.769383|0.072832|0.304089|0.920466|-5.239564|-9.442922|-13.407490|-26.637729|-50.297457|-67.537550|-76.709145|-103.732010|-90.009253|-79.677218|-67.442462|-44.321840|-32.387384|-26.184389|-19.570916|-21.694811|-14.306996|-3.071998|0.303162|1.003538|0.838751|0.427711|0.343714|0.039928|0.842198|0.139013|0.579220|0.591311|-6.328129|-5.849613|-7.806038|-11.907281|-22.623406|-24.309515|-24.831465|-18.168246|-26.399449|-37.241510|-27.968708|-18.212516|-15.441346|-12.854233|-4.902274|-5.341948|-1.627942|-0.282587|0.082611|0.546506|0.005060|0.637724|0.114142|0.841916|0.059887|0.457856|0.881844|0.901485|0.577237|0.432197|0.360256|-0.469829|-1.366603|-0.038539|0.616766|-0.018120|-2.254254|-10.662049|-10.803909|-6.705269|-4.151914|-2.635169|-1.287504|-2.085778|-0.314991|-0.495170|0.586388|0.352682|0.960346|0.152810|0.899184|
~
0.965408|0.790534|0.013326|0.807324|0.850421|0.471181|0.689168|0.752506|0.068050|0.151430|0.266173|0.876769|0.484391|0.374075|0.324347|0.079652|0.259827|0.813761|0.330229|0.551378|0.762566|0.540264|0.764860|0.767507|0.352390|0.774156|0.357584|0.705071|0.734502|0.510394|0.604255|0.699910|0.300928|0.617581|0.509224|0.154362|0.089539|0.197743|0.904058|0.199176|0.427507|0.210201|0.012685|0.780447|0.534902|0.335599|0.907424|0.651614|-0.142480|0.183620|0.366288|0.946168|0.782745|0.119241|0.699590|0.135134|0.893397|0.057174|0.840206|0.627908|0.567573|0.444451|0.294934|1.315588|-0.237890|-4.819798|-5.519216|-1.731101|-2.206391|3.941693|-0.603129|-9.321012|-12.753887|-7.405666|-4.697245|-2.766312|-2.275164|-1.912761|-2.700028|-1.690819|0.197655|0.798289|0.798551|0.149442|0.913526|0.498141|0.280528|0.805080|0.536527|-0.852410|-0.802413|-1.308802|-3.603959|-15.926283|-23.668202|-25.101327|-18.484100|-2.762783|0.945087|-22.051565|-36.964245|-40.950832|-36.071280|-22.020081|-13.777226|-10.522222|-10.215458|-4.754122|-1.045225|0.065072|0.990592|0.711274|0.899742|0.792877|0.846589|0.814525|-1.588233|-4.397729|-2.597509|-2.088106|-1.231928|-5.443045|-30.221040|-40.554166|-26.029403|4.492487|16.396772|-3.499268|-35.680073|-47.836226|-25.245538|-35.549681|-31.947750|-26.166271|-21.007561|-15.406807|-2.924896|0.135394|0.880414|0.622280|0.706391|0.895446|0.327064|0.661900|-2.169067|-12.689806|-14.501911|-11.670634|-6.443688|-31.152709|-42.222393|-39.322049|-0.532799|12.528025|27.708943|33.280564|55.085076|48.790604|37.330895|4.998924|-11.614129|-25.050712|-29.107930|-21.032513|-16.102745|-6.800368|-0.397687|0.703628|0.170286|0.184545|0.283300|0.692834|-4.424214|-14.758308|-22.676012|-13.529850|-26.397326|-39.138786|-36.977497|18.677588|66.665712|50.760087|33.270787|67.550124|88.199403|101.540479|67.439863|46.045375|13.318085|15.025010|-7.977354|-24.412002|-33.302754|-17.896237|-5.866105|-0.803123|0.054092|0.092389|0.040442|-1.963556|-6.670301|-9.372050|-19.096731|-20.638104|-38.721851|-16.468021|5.077514|42.671396|38.536589|19.211876|39.545553|70.252002|58.312436|80.326575|61.030766|53.253544|18.728166|17.924003|0.489273|-26.450181|-39.911350|-22.687535|-7.713495|0.335739|0.274469|0.982166|0.079570|-4.656509|-22.266223|-21.298474|-26.705404|-34.749485|-46.487353|-17.455427|29.456506|14.883656|5.993320|39.679674|45.978092|47.421869|56.524916|21.418176|44.486421|37.921918|42.256739|11.326599|4.643907|6.357904|-29.520261|-20.331996|-8.241563|-0.139629|0.717114|0.602785|0.266486|-7.319324|-24.226944|-11.109604|-23.402908|-30.952731|-25.647779|-12.032439|15.232421|-22.297553|-6.262398|-27.183706|-44.097438|-30.063129|-8.422331|-7.116584|50.506649|41.409690|23.326232|19.813387|1.883637|32.958772|-14.918916|-26.364550|-9.980222|-0.220525|0.328507|0.575540|0.201338|-5.804912|-23.523054|-7.091328|-33.578998|-26.227461|-18.421195|-7.486556|-42.059112|-15.162659|-19.954851|-86.831978|-98.196842|-94.191525|-54.373311|-7.332635|18.893352|41.565776|38.045381|29.878540|-2.852407|42.453462|11.734531|-19.240450|-8.172868|0.978492|0.567591|0.091961|0.322147|-4.192454|-37.556059|-16.781449|-14.523418|-7.376101|-14.353680|-29.743134|-25.992470|5.103245|-71.438832|-90.887129|-144.499194|-146.214131|-127.452726|-72.829345|-27.289724|40.697820|57.587144|30.293644|-19.665145|19.452910|28.831298|-15.827878|-3.491610|0.672863|0.305400|1.044212|0.664692|-2.300632|-41.171977|-13.129418|11.620096|-1.847254|20.136470|-10.093133|-5.764420|-12.375847|-55.454011|-110.945283|-153.184513|-160.402097|-139.016250|-102.640829|-36.280350|1.353296|2.724399|-0.482055|-11.007553|30.849303|42.662794|-9.130138|-0.169993|0.858808|0.747483|0.127452|0.555733|-4.159796|-26.879458|5.475685|36.524759|32.927731|71.371342|26.229463|19.526121|-23.698645|-67.446245|-142.840636|-152.420996|-151.486306|-120.479679|-72.689107|-42.066094|-13.993450|-10.434924|-18.662834|0.135524|43.865033|50.652056|0.689398|0.414469|0.634144|0.332186|0.431101|0.522720|-5.166700|-10.363809|40.098529|45.406166|51.684061|66.642254|44.843611|2.836698|-34.888761|-85.091303|-121.566203|-130.220533|-126.119031|-103.839835|-82.998811|-61.664866|-8.037876|-3.761503|-11.532446|-3.237018|52.662135|42.907186|-2.390821|0.737986|0.877660|0.006259|0.097100|0.534907|-7.254439|-7.093664|53.401364|27.902667|33.397605|50.216942|61.031284|7.835288|-43.148403|-88.521812|-104.045796|-116.462878|-107.217764|-105.778791|-89.871150|-57.520378|-14.719172|-3.453624|-24.018334|13.539114|52.187314|27.592260|-5.605782|0.836350|0.294723|0.565427|0.527277|0.026311|-7.372188|2.572879|60.219539|26.319545|4.061249|47.787948|64.471230|29.428022|-47.044211|-120.786642|-122.867590|-117.268778|-103.710200|-96.590100|-76.988780|-13.125514|-2.335179|-21.264856|8.768828|19.909508|22.798022|10.724243|-10.050767|-2.134234|0.294835|0.539179|0.334629|0.405631|-3.624823|5.498887|42.382303|26.598013|5.799813|57.579710|74.771022|21.525895|-51.078698|-133.170677|-142.073216|-127.509417|-114.234786|-112.160651|-55.150423|-3.516350|-8.519133|-23.655662|5.925701|19.511944|4.425407|-9.932156|-19.573188|-4.299170|0.582363|0.233906|0.444893|0.528830|-6.040142|-2.692610|29.651734|20.199638|8.220736|34.371843|75.380886|10.459595|-64.797183|-146.951006|-159.615587|-133.072537|-113.067413|-97.507616|-37.368502|-20.494730|12.519112|5.954577|35.197726|9.421831|-10.949005|-19.122598|-11.866518|0.331240|0.746386|0.199992|0.331730|-2.511028|-15.420081|-19.221174|-10.823609|-0.713778|4.996164|6.519959|67.432252|35.573601|-28.841036|-68.301706|-93.783096|-90.546046|-90.432739|-39.495674|-8.587325|8.222222|-12.622542|9.093978|34.013263|-2.109492|-10.753995|-12.594802|-10.340971|0.086088|0.046823|0.499494|0.516130|-2.763459|-17.420247|-23.570692|-13.012432|-18.954406|-11.288499|3.920000|36.068865|82.619548|35.511863|10.043236|-9.373802|-32.138474|-18.124979|-7.997465|3.770852|-29.491646|-56.014301|-23.073009|-12.820171|-19.267505|-21.413822|-18.392197|-5.640176|0.385848|0.089578|0.067493|0.467567|-5.245277|-12.876801|-19.263718|-11.552984|-22.563895|-15.761578|13.917274|30.765284|48.941133|67.324529|34.103132|5.897966|26.166443|14.815246|-5.650431|-5.860612|-13.108530|-15.949626|-29.430946|-14.185476|-23.272127|-24.486130|-16.237711|-0.449523|0.846414|0.917044|0.455981|0.037606|-0.774507|-1.921264|-4.185646|-0.299816|-9.997369|6.219479|44.820096|71.562857|66.345049|69.661843|77.477925|81.765726|49.311414|42.647124|17.361237|20.324018|-1.207534|-13.330049|-39.644999|-28.744781|-9.435463|-13.756107|-8.108137|0.428255|0.768372|0.424814|0.116948|0.430562|0.330479|0.474724|-3.314416|4.905861|-0.176933|-0.353119|38.064006|46.340313|41.722126|56.055526|66.997016|79.665277|57.665111|12.753882|-9.013151|-7.674355|-40.392848|-47.271602|-58.786898|-19.762303|-4.221265|-2.986702|-4.603120|0.440360|0.346706|0.028276|0.930441|0.101933|0.453477|0.016474|-0.968328|-3.832615|-2.470281|-15.402784|-11.766407|1.303736|-1.424988|-25.325947|-8.107325|3.210925|-12.488826|-29.747310|-31.426182|-32.138027|-29.786271|-15.352708|-29.969078|-18.600027|-1.998564|0.719680|0.928327|0.884309|0.404999|0.168860|0.381374|0.761883|0.197556|0.325516|0.980043|-3.631125|-5.833672|-11.535351|-23.498298|-43.547219|-51.288484|-48.471699|-46.515323|-35.118265|-40.231521|-44.520954|-30.634697|-28.025299|-17.667128|-3.573967|-13.826954|-10.614862|-1.131139|-0.342150|-0.042641|0.983613|0.930565|0.270776|0.880677|0.335038|0.439636|0.260695|0.150843|-3.601542|-2.652192|-2.844217|-9.457678|-21.869699|-21.277090|-15.148274|-7.179760|-14.548716|-21.583222|-22.327469|-22.071070|-16.349086|-10.544436|-1.697348|-7.668625|-10.466259|-1.186088|-0.161214|0.053092|0.084577|0.424371|0.379241|0.062357|0.354629|0.650017|0.943033|0.689614|0.085318|0.199849|0.683474|-0.514824|-0.906519|0.540269|-0.747494|-0.782355|-3.630479|-6.541388|-8.292719|-5.210305|-4.200598|-1.937209|-0.109205|-1.442721|-0.963218|-0.465535|0.397010|0.700604|0.724174|0.012856|0.753345|
~
0.808747|0.437227|0.132586|0.871103|0.791856|0.782602|0.814137|0.481523|0.872255|0.019221|0.268111|0.598680|0.797933|0.016049|0.613360|0.510238|0.119807|0.357692|0.134823|0.978322|0.424049|0.368479|0.964710|0.036835|0.811454|0.872425|0.634946|0.512058|0.596599|0.647802|0.265403|0.405345|0.085029|0.397988|0.277685|0.878776|0.180787|0.089298|0.344612|2.862005|5.776903|3.210312|2.062153|0.883557|0.649226|0.243152|0.365933|0.642191|0.391129|0.509129|0.749579|0.056295|0.921463|0.704794|0.082203|0.732917|0.577219|0.717149|0.244974|0.174257|0.365105|0.509521|0.553985|0.786321|0.585308|-3.693630|-4.073380|0.772861|4.354582|5.203054|-0.970902|-7.747560|-8.110064|-4.191322|-3.099977|-3.252516|-3.271515|-1.390893|-1.860334|-1.432779|0.800549|0.461931|0.723641|0.856586|0.160388|0.805844|0.587266|0.737954|-0.885522|-1.139353|0.033927|-0.337915|-5.355638|-15.677076|-21.240288|-24.312818|-19.017243|-6.340792|-8.429728|-27.744735|-24.021770|-20.155259|-17.730194|-9.732634|-7.417755|-12.114999|-15.924942|-9.777179|-6.861020|-2.645191|-0.116315|0.629641|0.786704|0.736184|0.478283|0.940800|-3.119979|-7.774081|-2.709514|-3.269753|-3.697362|-7.235460|-27.854812|-43.978346|-35.757353|-6.711179|-10.528311|-26.752018|-33.397266|-27.054659|-13.022050|-23.372944|-26.131614|-31.795059|-27.100126|-18.984871|-11.766609|-1.606758|0.895598|0.087830|0.914295|0.958534|0.709114|0.709935|-4.819356|-11.694618|-10.540564|-12.322637|-15.075133|-33.651611|-30.273068|-37.901919|-18.921528|-14.600613|-1.497687|8.829164|19.052446|6.292024|-7.602538|-32.602724|-38.060771|-35.252292|-29.634331|-24.303665|-23.470514|-5.662764|-0.037541|0.642586|0.357753|0.688376|0.685806|0.085380|-6.916684|-12.986423|-14.209646|-20.162320|-39.196389|-49.426952|-38.093154|-10.946543|6.114497|10.436453|-0.867537|17.833165|34.118700|26.735341|14.429425|6.981770|-13.838496|6.327667|-6.745338|-13.618988|-27.821910|-13.745256|-4.805221|0.077891|0.763170|0.125757|-0.162550|-1.521243|-11.249520|-12.186195|-8.584328|-21.922288|-38.641688|-6.288167|5.934952|14.333885|16.990451|7.911740|14.336915|32.436912|24.234569|45.058310|42.503042|24.876419|-6.243336|-14.642462|-0.671127|-5.632109|-35.753363|-24.653403|-8.330766|0.579516|0.247290|0.746306|0.762408|-2.365576|-24.610312|-21.298733|-11.223518|-13.680941|-8.050149|25.373268|42.054074|20.686443|15.466374|49.908009|72.318040|84.049280|77.711056|40.502520|52.601201|37.205554|22.721500|-3.151635|1.858774|17.667951|-24.969640|-24.130176|-12.792994|-0.232838|0.338874|0.888678|0.661159|-3.585754|-22.967223|-13.293701|-6.495275|6.470370|24.351947|42.268711|34.741214|1.104545|23.543657|26.488386|18.671368|28.313165|29.393320|33.691975|74.265668|61.436918|23.449236|18.900821|5.405007|36.636695|-6.246680|-24.144630|-10.191285|0.450193|0.294182|0.355995|0.626055|-6.249945|-16.395561|-3.615272|-8.312254|14.400937|34.688360|17.548280|-17.055401|23.489207|33.055624|1.681681|-4.923147|-0.414777|8.173072|25.769713|31.738286|44.427965|52.663999|45.883043|18.709115|49.331596|12.732813|-25.190438|-11.304541|0.332131|0.102475|0.266098|0.966684|-6.991903|-22.577052|-3.984295|2.899832|15.982231|18.886494|6.837477|10.544021|29.932242|0.429705|-24.688118|-61.053576|-65.963969|-74.068640|-57.807244|-19.537098|17.911561|64.925025|40.354957|35.327234|51.024606|25.351888|-23.355566|-6.161326|0.227333|0.751990|0.307924|2.053719|-4.666763|-21.792223|7.829900|22.826996|10.034284|27.926325|15.389023|14.191370|-0.678416|-9.560694|-33.333133|-65.971550|-97.726392|-106.244329|-94.586726|-27.651839|-16.499294|3.291606|1.744338|37.798960|66.509793|33.119707|-6.766055|1.065187|0.436898|0.871759|0.487077|1.734306|-4.879352|-11.314979|20.796940|45.722228|45.643448|63.984409|43.241882|28.785648|-15.733580|-32.477402|-67.834489|-90.915372|-109.872714|-101.974759|-86.328306|-45.983888|-29.278533|-27.384258|-8.585993|46.113376|63.752233|34.980284|-1.063639|0.658367|0.082838|0.482106|0.232766|0.608627|-6.727726|-4.104576|39.538767|53.017487|68.185723|54.213328|54.158028|18.269326|-14.755490|-49.887882|-75.528171|-100.463549|-106.680116|-105.189028|-91.666053|-55.781971|-12.000457|3.955939|1.215710|27.795665|55.007416|34.605212|-4.011137|0.488160|0.271491|0.085484|0.903188|0.344557|-9.010010|-0.868254|57.789631|47.495724|64.170555|56.600698|65.465650|8.421348|-40.518269|-68.266990|-79.433532|-92.157054|-105.055980|-112.023645|-84.970875|-41.431671|9.489362|27.709439|3.531704|38.910698|54.353167|24.882111|-8.314284|0.788925|1.247349|0.018807|0.542776|0.502479|-9.484232|0.652040|61.769083|59.892230|40.584777|46.925828|47.430140|-0.890029|-64.501597|-105.207619|-103.289382|-89.094298|-92.958150|-70.023635|-47.290590|20.253064|29.002263|20.798752|24.233154|29.165324|19.735428|11.119594|-7.696325|0.760581|2.154462|0.368997|0.254447|-0.857373|-5.445526|4.096048|60.264216|52.549862|16.719576|41.764355|43.847230|0.187512|-63.580466|-110.324682|-104.391960|-90.302144|-70.772948|-59.896338|-9.205661|32.780003|42.172263|11.508555|-1.891725|10.066627|0.943323|1.650841|-5.395832|-1.027063|0.215952|0.314967|0.824819|-0.935487|-10.477325|-0.967056|50.731343|37.044731|2.241610|13.433535|64.230169|19.187136|-35.487948|-89.857833|-89.166443|-67.973947|-39.345438|-18.115938|31.818767|40.528770|32.992949|-10.520655|11.245612|-1.617323|-11.568075|-9.203158|-1.669969|-0.232593|0.805460|0.266193|0.985993|-2.852777|-16.328144|-7.548739|24.365452|15.529763|13.350609|22.296223|60.510998|27.311905|-1.838519|-34.599563|-46.172302|-17.154627|-8.846997|32.732676|48.170591|18.569375|-10.231380|10.329193|13.865196|-9.299954|-11.162964|-6.892701|-1.385297|0.275641|0.969721|0.240967|0.017766|-2.912034|-17.347363|-15.163128|7.594545|-0.729500|1.243767|4.165622|28.734497|40.633221|6.183455|-0.344370|-5.327702|-4.999458|11.035847|35.582036|32.946847|-18.426652|-40.915317|-18.332581|-15.162040|-18.964372|-16.513658|-9.014067|0.404404|0.521990|0.771552|0.805405|0.353554|-3.641961|-11.625729|-16.442913|-7.622525|-11.693734|-1.246417|-3.658796|-13.119109|12.697669|12.800127|-2.848727|-5.764585|11.079950|12.571060|17.137385|7.385628|-15.536077|-21.381646|-22.783758|-27.172536|-26.006849|-19.394570|-7.596510|0.291140|0.465525|0.801127|0.489108|0.844575|-0.032629|-0.983967|-6.496065|-4.299980|-5.068272|1.743546|18.169160|20.686479|3.605531|16.386180|40.486626|47.634870|29.479110|41.997566|41.201627|18.592573|-18.639864|-18.493932|-35.991156|-31.151810|-11.963110|-9.251837|-4.687101|0.602118|0.331545|0.503987|0.627246|0.661850|0.293840|0.403896|-5.218971|3.491058|0.244900|-6.815098|13.015410|18.466142|10.741256|19.559999|43.867878|51.076097|37.310015|18.831045|14.596355|3.663691|-32.904231|-43.901517|-47.071950|-16.111834|-9.161918|-0.464832|-1.650511|0.181589|0.060299|0.100135|0.809802|0.376599|0.604433|0.429606|-2.394846|-0.808285|1.621535|-12.417524|-16.658745|-14.373744|-12.954627|-13.146398|8.668212|2.232212|3.854559|9.584194|-0.316744|-13.494266|-25.180899|-19.804356|-23.139005|-16.043419|-4.124564|1.116348|1.003041|0.512520|0.952048|0.407401|0.715550|0.014651|0.507686|0.534501|0.484669|-4.053061|-7.073822|-13.237341|-25.801197|-39.898759|-43.232803|-33.672367|-28.914353|-24.730901|-21.453822|-17.362381|-19.948427|-17.648636|-14.055997|-3.892797|-9.388178|-6.591154|0.628543|0.724212|0.608054|0.597579|0.343335|0.467174|0.115698|0.294812|0.874575|0.831408|0.345507|-5.183271|-5.607504|-5.093447|-7.844294|-17.546904|-15.806700|-11.196538|-7.082149|-13.416778|-10.673764|-5.360428|-9.996933|-12.357338|-9.837850|-2.203823|-6.193099|-7.220612|-0.866297|0.154602|0.173652|0.989045|0.105386|0.518615|0.582195|0.448460|0.985789|0.697893|0.743239|0.861157|0.534188|-0.009352|-0.692272|-0.363135|1.051087|1.176145|-0.225641|-1.069021|-2.610599|-4.004442|-1.445243|-2.627730|-1.117353|-0.363103|-0.869751|-0.165246|-0.489497|0.570747|0.937128|0.949857|0.361124|0.110535|
~
0.938900|0.466510|0.629150|0.521096|0.914970|0.614939|0.218989|0.658242|0.475303|0.748131|0.710976|0.717779|0.633701|0.465938|0.456128|0.838703|0.348283|0.704938|0.878190|0.337242|0.278436|0.232814|0.658040|0.961621|0.099027|0.061011|0.649647|0.036155|0.010867|0.010771|0.146690|0.949768|0.477281|0.775841|0.472993|0.395517|0.391860|0.691207|0.058302|0.906496|0.497860|0.789131|0.566043|0.027497|0.204608|0.012280|0.903135|0.455577|0.500397|0.743662|0.920357|0.031191|0.021475|0.569457|0.982881|0.120502|0.630468|0.632529|0.156657|0.641342|0.643303|0.302398|0.561376|0.446000|-0.212844|-4.107336|-3.410257|-0.950190|-0.912309|2.847958|-0.174161|-3.503684|-6.062336|-4.903058|-2.746773|-1.149239|-0.761422|-0.946211|-0.241912|0.678812|0.951211|0.038620|0.721884|0.982267|0.605734|0.704765|0.100016|0.234994|0.325109|-0.538149|-0.087112|0.110709|-3.828929|-16.001623|-23.500083|-26.218732|-23.299261|-12.320848|-3.245276|-11.989488|-21.823857|-28.024960|-20.810356|-14.407496|-12.788954|-8.043751|-7.831127|-1.523192|-0.032717|0.153182|0.025180|0.866810|0.213943|0.748211|0.839530|0.815091|-0.864094|-3.553227|-3.379075|-2.472728|-1.494484|-0.275005|-21.070229|-38.365502|-32.455115|-7.441419|-3.865586|-15.669490|-28.716127|-30.148223|-9.514105|-21.617977|-23.351958|-21.618526|-14.741460|-8.122728|-1.541012|-0.116976|0.658400|0.328803|0.395954|0.695820|0.192703|0.739771|-1.357055|-7.871812|-11.184964|-9.281650|-0.539292|-17.443461|-21.758360|-37.001430|-20.913254|-11.288449|-1.612326|-0.995213|15.495155|4.262182|-1.645812|-9.631307|-9.935464|-18.230420|-14.536141|-7.801886|-9.339863|-3.284173|0.499934|0.079986|0.863291|0.913463|0.383597|0.578497|-2.229449|-0.678860|-2.294627|-4.185056|-17.414198|-34.937289|-34.433700|-8.902969|17.015167|6.874763|-11.988223|16.473554|35.129396|38.391232|18.220883|3.567602|-10.473266|2.859864|-1.278567|-13.898450|-21.577637|-12.287327|-4.427420|-0.222168|0.366423|0.286062|-0.029293|-0.295760|-4.833193|6.852713|9.852368|12.922979|-12.320112|-0.829626|6.571846|28.274214|32.436601|27.563661|27.550191|23.080036|8.442703|40.250725|37.681276|28.159557|-9.451592|-19.700675|-11.094368|-21.819336|-32.246526|-21.755697|-5.896855|0.195218|0.934878|0.837761|0.879800|-0.190728|-12.948077|-3.939556|5.222624|10.102623|-10.103685|12.297420|39.733891|31.714879|39.526771|53.440152|61.911889|44.922575|34.724815|16.673738|24.986728|25.072867|6.034592|-19.112054|-18.290739|3.611938|-20.368782|-19.511160|-9.045226|-0.383867|0.995570|0.819340|1.449548|-0.963343|-11.353119|-1.367598|-2.065332|4.736571|-1.829888|8.317785|21.878779|-6.366262|7.652464|-4.208724|-25.271641|-14.149391|-4.815124|-7.779077|20.164979|20.919834|-13.059365|-2.718661|-15.265040|22.807431|2.345879|-17.112915|-7.651268|0.216204|0.848376|0.683202|1.592025|0.195927|-10.899269|3.613671|-8.565610|-5.166208|1.564968|-12.718940|-14.447749|0.945954|-3.369591|-33.060488|-47.279526|-47.839083|-19.110025|10.148704|9.720040|38.506786|29.933561|2.315128|-16.565206|21.539363|10.028235|-15.274175|-4.821553|0.420047|0.575752|0.334198|0.078136|-1.377546|-15.842406|0.775351|-11.728884|-13.574420|-10.864722|-22.278726|-11.345738|-3.895040|-48.748181|-59.727205|-88.279022|-94.919831|-74.618710|-26.340759|1.797161|45.482473|43.447472|6.588186|-4.570439|20.926408|12.098161|-20.065057|-6.318486|0.677053|0.206215|1.015171|0.124670|-0.677369|-17.639934|4.707004|-4.253544|-6.933063|0.872717|-11.350310|-16.495165|-43.144314|-55.419679|-74.839591|-100.896630|-111.343860|-83.287975|-54.969132|-3.709428|6.113860|-3.421902|-17.998859|13.405885|44.022492|27.554489|-8.008692|-0.677736|0.980520|0.884092|0.676466|0.715189|-2.221137|-9.988432|8.205173|15.894073|21.451787|36.779324|5.942166|-4.557399|-46.684442|-60.376553|-98.682323|-107.499923|-105.595187|-77.717808|-64.944810|-36.786372|-28.046174|-28.658069|-22.955182|8.678787|41.277468|42.983870|0.438545|0.869104|0.757672|0.881351|0.219628|0.793547|-3.710356|-1.157379|35.285553|29.570453|36.771346|38.017885|26.400691|-13.627413|-49.041397|-73.466547|-100.932876|-109.685547|-100.136738|-78.224707|-79.373167|-67.479180|-34.946428|-12.183446|-9.572379|7.713996|47.874541|44.852243|0.243477|0.656344|0.946284|0.751354|0.728219|0.742988|-6.062333|-0.145539|48.774832|20.423093|41.936270|38.266355|44.730125|-11.912323|-50.096879|-78.275789|-97.482694|-114.067932|-105.792070|-99.978918|-84.839284|-74.034010|-27.095545|-3.132265|-7.766447|36.290781|51.188995|31.098469|-2.689408|0.696821|1.063876|0.203613|0.610341|0.582371|-4.359267|-0.282108|53.237771|32.572886|28.528411|29.885905|43.152754|8.522551|-39.145088|-96.959550|-112.538483|-112.935861|-103.136593|-92.576687|-87.864280|-45.348199|-22.841109|2.246065|30.951766|45.090430|25.974892|10.528757|-4.903172|-0.502652|1.017134|0.753229|0.771639|-0.062967|-2.321676|3.300538|47.167906|42.362765|11.901120|5.389592|41.372410|25.601601|-34.554152|-103.564754|-124.951451|-123.509187|-101.691163|-104.364780|-71.795579|-11.462809|-4.617763|-0.350362|24.926991|34.291701|13.353591|1.346079|-10.678563|-3.321096|0.807561|0.508237|0.672114|-0.131399|-6.080080|-3.487163|33.129735|27.825816|-2.150449|-9.992177|40.435868|15.250045|-37.630366|-94.612914|-101.961642|-85.874420|-69.955563|-62.008177|-21.074099|-6.155637|9.815538|3.784310|44.025206|26.178276|8.363265|-8.090522|-7.472747|0.059712|0.828110|0.781956|0.781412|-1.171678|-9.927420|-10.833908|13.081878|13.258630|2.728813|-22.132293|33.562218|25.467167|-8.535257|-32.793789|-54.174711|-37.990564|-32.672586|-7.584195|21.580943|7.842669|-0.012430|24.060040|34.400713|5.252394|1.415971|-8.389956|-7.397198|0.606062|0.989427|0.338352|0.755704|0.199243|-9.292247|-16.331969|2.185927|2.466077|-12.301456|-33.836417|13.720990|50.318065|26.441370|16.667452|-7.699529|-9.279602|1.516082|27.641887|20.222318|-0.904542|-24.788226|4.240326|4.395693|-12.546022|-10.297353|-9.523723|-4.681148|0.997942|0.506600|0.572704|0.621789|0.446824|-3.919096|-10.873631|-9.802350|-4.470954|-8.587833|-18.936279|-5.968558|28.823433|43.131174|18.142016|0.052050|11.112768|9.727472|4.823762|9.467381|1.783301|-5.841499|-9.020122|-14.990925|-19.679102|-14.611875|-10.649150|0.081877|0.348519|0.903675|0.025343|0.218595|0.360979|-0.744228|-6.948118|-6.890268|-14.821557|-1.365401|10.064035|15.304940|12.742850|26.189560|35.058165|40.031801|23.670211|34.799275|36.807875|36.277599|5.057448|-4.753043|-16.600470|-22.685317|-9.039188|-10.008072|-6.271741|0.508819|0.158846|0.772417|0.453843|0.384429|0.675811|0.425188|-8.299395|-4.501689|-5.123718|-9.346878|8.126727|15.810593|8.861994|13.129419|39.830488|45.596907|44.761833|20.338796|11.896957|8.630984|-16.112616|-27.223017|-37.159050|-15.496336|-4.923591|-0.656274|-2.818081|0.710233|0.691622|0.346586|0.300450|0.849340|0.121351|0.739049|-3.268142|-3.836464|-3.452560|-9.049791|-19.746858|-15.137011|-19.806988|-24.027794|-5.336443|1.998615|-4.541697|-4.443708|-12.299100|-12.355320|-14.238369|-13.802604|-21.623029|-14.595842|-1.581202|2.335584|1.449374|0.283949|0.769882|0.838613|0.065250|0.472646|0.185812|0.380889|0.433161|-4.014082|-8.910315|-12.221306|-19.749010|-28.531865|-35.836516|-37.405493|-36.291092|-32.650626|-32.492499|-26.540092|-22.051473|-14.901423|-10.200811|-3.040017|-10.713289|-6.599027|1.075097|2.912967|0.941695|0.858858|0.026750|0.952788|0.162848|0.797437|0.791401|0.227127|0.313846|-5.494229|-6.824930|-5.464437|-5.279562|-10.964376|-13.278494|-11.536813|-7.862514|-13.989882|-14.734432|-10.083116|-11.080669|-8.559088|-6.158367|-0.901193|-3.956338|-5.537406|-1.375682|0.024077|0.602440|0.522996|0.276804|0.944613|0.376992|0.303820|0.897401|0.539840|0.101121|0.690852|0.779277|0.334078|-0.171374|-0.735286|0.886294|0.459114|-0.821818|-2.267812|-1.667171|-2.511423|-1.216855|-2.234914|-0.590688|0.123374|-0.551497|-0.827373|-0.303987|-0.075105|0.049838|0.733556|0.504931|0.651949|
~
0.256548|0.781735|0.596561|0.633540|0.085555|0.493962|0.173380|0.186812|0.182764|0.941318|0.558153|0.848166|0.314040|0.556456|0.806429|0.379085|0.632794|0.120666|0.521436|0.284488|0.807817|0.396103|0.150932|0.711765|0.564738|0.832468|0.782647|0.614576|0.566024|0.287578|0.266525|0.822572|0.069313|0.863091|0.523189|0.258975|0.403488|0.702602|0.586557|0.974980|0.583077|1.677522|-2.160052|-3.451701|3.369236|2.404748|2.330187|5.977100|3.471289|1.580185|0.399386|0.140964|0.169987|0.489609|0.822594|0.734725|0.322076|0.605241|0.349301|0.888106|0.892824|0.615852|0.740955|1.733364|0.621576|0.770118|7.663081|4.397411|4.147123|5.202964|5.805656|10.253232|16.839198|26.149456|29.872803|32.592676|15.193437|7.856088|-3.595377|-10.915606|-8.546609|0.109950|0.359940|0.437272|0.662381|0.182534|0.160024|0.743868|0.839174|6.596859|5.849953|-4.507077|13.571546|-3.150726|-42.136391|-78.004939|-76.282506|-57.318375|-63.556062|-72.267186|-69.193965|-9.682853|88.580272|102.220139|99.864299|48.926542|-32.392220|-68.453701|-52.975506|-7.913660|0.837146|0.915027|0.363696|0.149801|0.340088|-0.140466|-3.106730|-26.918110|-33.177304|-39.592007|-46.004818|-83.923825|-107.325031|-106.782159|-99.995804|-78.621952|-203.322383|-211.811084|45.591940|13.619061|1.133516|-67.647813|-55.174167|72.646694|76.811186|53.360650|20.954286|15.546911|0.244594|0.416686|0.543105|0.994411|0.396843|1.221150|-6.654445|-45.128765|-100.587038|-140.032739|-169.133537|-158.804406|-45.342674|58.736818|41.413831|-55.628111|-132.937081|-181.064252|37.950531|12.755777|20.879375|-43.703926|-3.659463|28.090807|244.780161|316.325304|235.484914|94.333858|41.023270|0.711495|0.791164|0.510438|3.522198|0.292721|-8.584780|-44.229983|-105.097521|-103.795328|-129.223933|3.795624|71.450228|-36.218644|-18.255290|52.227947|12.706455|-65.277397|44.673106|104.017257|2.945631|16.547777|66.419909|159.053191|236.445434|420.158616|413.616343|173.062313|33.493069|4.272113|0.814699|-1.375125|5.532225|7.445313|-8.776473|-53.073418|-86.682842|-16.159185|24.884933|8.261301|64.214079|-19.170447|57.964167|85.290016|119.114560|162.650522|299.564949|447.947080|386.296898|452.288935|313.372725|308.798822|263.191667|378.643633|437.479183|250.008406|72.685382|5.765536|0.994163|0.244866|2.059698|12.704154|-25.978719|-70.376043|-86.686083|-40.213760|-55.366796|-52.034562|-33.246815|114.378986|65.767185|177.651678|270.733365|253.094206|340.919129|379.928039|349.479801|319.679468|172.074167|82.139142|26.460635|224.867993|336.781318|193.869758|34.077368|0.119509|0.092312|0.630562|0.319647|4.841730|-60.034885|-80.804507|-123.862389|-137.100199|-140.182433|-191.164538|-154.672125|125.926210|66.192675|-0.274656|-13.277039|-120.387924|-137.636085|-179.773043|-254.600849|-231.981763|-337.972332|-263.747823|-197.273180|-40.084127|139.637716|101.848505|33.685140|7.414167|0.884198|0.954180|0.445556|2.705024|-41.214890|-84.387266|-114.224180|-205.183984|-187.723512|-210.356396|-142.132289|56.702876|-87.946935|-328.429085|-569.047578|-593.918210|-610.886266|-557.151778|-680.588572|-639.293738|-564.040363|-447.268790|-370.256455|-268.385043|-103.546425|15.827903|14.339515|11.016517|0.787862|0.797267|0.194405|-5.900385|-42.267942|-94.174616|-166.341095|-285.160463|-237.218426|-145.442743|-35.926889|-142.779382|-190.274805|-388.645948|-352.304447|-446.978380|-411.594026|-575.522235|-716.002051|-682.965734|-628.476056|-557.338657|-436.267664|-265.177960|-194.919689|-59.889707|-1.851810|0.405861|0.541946|0.652415|-0.056065|-6.837787|-32.897121|-71.614539|-181.288426|-308.631062|-265.674318|-211.802707|136.547504|112.375440|185.411019|210.720372|188.675624|-23.518426|-105.882933|-271.455170|-468.298303|-619.400055|-603.910066|-481.875301|-320.370968|-179.438668|-177.698432|-60.624252|-5.972312|0.371387|0.633192|0.576245|0.680128|-7.091033|-26.259090|-43.685805|-149.580122|-196.440158|-127.251905|28.833580|95.949229|207.721382|179.051274|241.500512|83.602750|-230.412658|-220.146604|-135.704107|-222.313085|-404.226175|-429.757148|-322.945807|-235.225667|-157.331329|-148.830628|-31.953062|-2.010230|0.455198|0.043195|1.433100|0.717730|-6.570341|-17.283064|-65.476604|-84.537172|-67.594835|0.928486|217.647427|205.185614|129.085954|157.950193|81.966810|36.701717|-200.982840|-335.638048|-237.182359|-100.105065|-188.768577|-188.063817|-202.503160|-162.411043|-150.122608|-93.096050|-15.960426|-0.182375|0.455439|0.138286|0.633821|0.936509|-3.843067|-27.608814|-126.511139|-197.579180|-202.899293|-88.845940|142.317293|261.612582|310.862248|216.597532|17.602584|-49.410732|-36.673345|-116.206489|-118.369082|-7.947233|20.211755|-82.307165|-188.385949|-189.934565|-129.375692|-88.668373|-31.261043|-2.303313|0.806348|0.434444|0.807204|-0.656173|2.057879|-45.085240|-148.425288|-271.189146|-421.000230|-370.943108|-202.617949|-98.294415|52.865856|-16.229363|-140.419711|-180.134055|-5.115337|123.133169|125.521015|134.852878|206.418321|21.040218|-92.328688|-220.649601|-167.301721|-121.491092|-60.093569|-14.405826|-0.036920|0.496689|0.657309|-1.168522|6.817241|74.215751|-87.129486|-168.428219|-418.043015|-499.150209|-437.755750|-349.378569|-321.244563|-395.717154|-332.209884|-340.142989|-136.498054|2.205931|142.891239|307.455822|299.411036|116.163136|17.935278|-132.692534|-165.308350|-118.419695|-57.588872|-4.810203|0.628730|0.775079|0.324039|5.618785|17.982242|94.244309|42.569357|48.116279|-183.334999|-367.370071|-448.972546|-570.305691|-491.767339|-415.911703|-252.587751|-343.093346|-135.515783|102.277908|348.514170|303.231059|311.974718|60.705196|2.108643|-166.118962|-225.252096|-123.027456|-58.202405|-5.261981|0.307846|0.069078|0.099961|6.945095|-8.807546|79.582612|164.271320|209.708090|49.099956|-95.603545|-292.840364|-373.411454|-345.625743|-208.233355|-169.824764|-193.543461|-47.936164|232.882411|317.659868|209.174627|157.416306|100.840993|-28.372752|-185.967528|-164.671586|-68.006410|-43.067189|1.398422|0.783902|0.235702|0.703201|-4.803109|-29.352514|-42.096191|68.260809|149.698651|54.967603|188.598052|-16.153140|56.444059|103.100275|36.513278|11.495053|-46.568212|-38.171451|163.363987|104.725984|116.685232|60.758926|130.042529|-106.256360|-146.410483|-74.329346|-41.209979|-17.367616|1.200085|0.102402|0.061827|0.087894|6.757819|23.704093|-6.844982|-6.484399|11.763330|-1.454123|81.703403|17.017965|159.246483|105.991106|12.566496|-1.915495|-58.400644|-3.460187|6.200485|38.033357|229.057090|63.905032|-47.615110|-126.739403|-112.425662|-58.466890|-36.657204|-3.696220|1.864698|0.689019|0.778237|0.292267|21.755050|50.598328|88.914683|58.661823|-27.563169|32.181393|148.565918|232.154508|252.015418|113.165514|50.560793|66.787164|-39.019845|36.607314|96.602582|99.993706|8.880608|-54.266510|-120.539053|-125.271164|-71.860576|-35.006210|-6.661501|0.433924|0.777754|0.223516|0.755616|0.742591|10.003002|29.101035|70.696389|112.396515|-13.248744|-42.759365|143.895824|295.442460|324.011299|203.284357|118.670904|22.602854|-83.932077|30.769891|72.726681|22.831850|-51.270172|-92.572103|-36.139148|-25.487093|-17.858399|-2.294003|-0.174563|-0.192267|0.146150|0.694292|0.869898|0.858644|-4.967086|-6.176259|6.141840|32.273950|69.272490|64.597523|13.923997|141.794359|62.667254|-12.447890|85.559593|129.692955|195.575277|204.281433|-36.154265|-34.064365|12.115797|33.414896|11.027164|-1.186650|6.081130|1.448278|0.015891|-2.781523|0.047188|0.614622|0.948654|0.862667|0.315363|0.864850|7.369333|-4.609445|3.594999|51.946055|68.859674|45.211044|-48.268802|-31.962782|23.000132|6.398519|-47.753009|-116.244391|-121.512692|-51.701952|-9.786445|18.482167|9.243013|8.978127|7.432470|0.337765|0.779865|0.415815|0.655314|0.057794|0.179855|0.279039|0.672417|0.126969|0.051878|-3.385906|-2.540732|-1.996809|-19.997970|-50.853407|-49.461997|-36.294454|4.157667|-26.938650|-68.161995|-59.543273|-24.523700|-28.154077|8.591719|18.718550|9.224330|11.492403|1.921445|-0.016500|0.363082|0.021930|0.737034|0.328726|0.406455|0.372043|0.386521|0.586311|0.646129|-0.027217|0.642016|0.683513|-1.128978|-0.878412|0.543605|-0.459653|-1.563785|-2.160401|-8.672418|-17.491291|-3.948129|-2.765722|-0.415787|-0.502561|-1.132100|-0.532111|-0.283715|0.940055|0.309354|0.178031|0.418629|0.672240|
~
0.199961|0.155663|0.000967|0.606416|0.527706|0.387487|0.192726|0.178789|0.446425|0.907546|0.971578|0.486694|0.568009|0.626282|0.737246|0.622531|0.468756|0.248459|0.670330|0.453246|0.618377|0.851436|0.627500|0.394371|0.352124|0.802338|0.338264|0.661478|0.980369|0.756893|0.333718|0.180330|0.912556|0.334685|0.783364|0.434896|0.719245|0.976406|0.640889|4.274275|8.838393|3.819176|0.833106|1.543475|0.297016|0.345585|0.125933|0.577162|0.343033|0.713653|0.181815|0.270434|0.600650|0.767517|0.651515|0.952774|0.569855|0.989779|0.614251|0.551190|0.747010|0.947972|-2.561967|-2.614518|-1.279244|-4.129006|-3.986737|3.742883|11.399661|14.937214|7.450541|-16.341647|-18.024739|-12.958464|-3.748321|-3.322713|-1.204362|0.570299|-2.841710|-2.423923|0.122922|0.358505|0.114934|0.268984|0.121488|0.766449|0.216753|0.653364|0.698425|-0.021817|-3.778459|-2.767343|-2.571347|-15.371370|-28.657718|-21.824751|-7.955421|4.466407|-16.822352|-52.999260|-52.214216|-46.168883|-47.436721|-18.141574|-5.705893|-4.260897|-7.147360|-1.969156|3.020996|0.796473|-0.424506|0.797670|0.384440|0.265355|0.049094|0.472998|-1.589746|-5.042437|-4.368965|-3.576547|-5.003870|-12.153619|-18.821466|-23.520403|-13.516947|-2.278964|-41.965923|-59.688808|-74.818118|-28.490036|33.286158|18.041096|-3.098700|-7.329981|-31.513266|-23.256277|-19.263132|-6.767823|-2.194602|0.601724|0.831142|0.808012|0.391501|0.243193|-2.269059|-6.582332|-2.907747|-10.763655|-5.337005|-28.489718|-50.071248|-60.007937|-49.677102|-30.403460|-17.337967|14.771000|18.188892|49.353564|46.102850|8.694753|-30.389870|-21.082977|-35.992526|-38.228699|-27.835944|-4.235846|0.128275|0.285572|0.831481|0.115345|0.839349|0.479838|-2.232276|-6.874536|-15.601619|-10.185574|-24.926797|-65.044080|-79.061089|-37.633901|-28.134777|-38.970011|-10.052344|51.689490|83.699418|64.047705|2.915154|-26.301856|-53.231833|3.869211|-3.339386|-42.473005|-64.412371|-20.312247|-9.117504|0.052259|0.247360|-0.275103|0.375742|-2.018855|-6.105926|-12.351021|-21.260721|-27.535097|-55.629998|-75.074898|-62.424226|-38.143935|-51.890219|-55.502359|-16.287378|99.607651|90.652361|78.912524|11.055999|-26.574095|-75.694923|-29.609154|-16.160016|-39.465947|-53.966294|-33.012966|-11.031970|0.890125|1.080599|1.114875|0.379990|-4.072717|-16.914728|-21.106393|-21.692705|-52.838569|-92.830564|-90.771559|-27.749247|-59.036773|-90.597609|-71.281722|38.435206|92.864168|142.560775|77.617778|47.805042|-9.691178|-39.235418|-57.999360|-60.478808|-65.956416|-60.757731|-23.045426|-9.083954|0.215312|0.644456|0.817130|0.673581|-7.553290|-17.504184|-21.604554|-36.754407|-77.745364|-117.702190|-107.765839|-40.246418|-118.219811|-84.578064|-18.491007|45.311456|47.534567|87.093712|101.529838|124.391421|51.818668|10.089820|-50.942219|-91.944958|-61.196625|-58.529870|-41.775494|-14.225829|-0.435273|0.113261|0.253770|-0.818213|-11.883717|-23.788868|-24.509250|-54.216913|-75.107836|-116.176612|-94.202900|-112.531964|-103.723927|-23.606663|11.313323|40.586871|-17.632115|-30.528874|20.921810|61.362452|52.829316|29.075040|-21.399716|-68.771946|-33.786441|-44.932495|-41.338192|-11.538350|0.421954|0.144696|0.545678|-5.688632|-17.358971|-40.821726|-48.526551|-66.130439|-54.386310|-100.897158|-111.830096|-101.924314|-41.843530|35.380653|39.800749|-104.315242|-212.388743|-191.540346|-103.548768|3.174423|81.673681|34.889713|-3.700907|-60.240690|-17.219379|-21.384247|-30.298830|-2.978334|0.596058|0.841640|0.818261|-8.184939|-15.549852|-38.732529|-37.456834|-43.428320|-33.014843|-59.060105|-100.566311|-44.660997|39.737241|124.674594|23.947847|-153.932401|-232.819848|-186.639214|-99.137371|36.748715|133.224237|52.234540|-10.547038|-17.057197|17.289315|-3.299161|-17.703605|0.424348|0.331853|0.219501|0.057641|-4.375992|-16.175619|-31.464409|-16.318128|-11.660479|-17.905994|-11.162193|-60.440937|59.744977|117.832372|149.855588|-32.976369|-147.261113|-166.739230|-138.877897|-38.504180|45.561729|108.989320|33.134696|-4.699254|17.867513|27.871801|0.853826|-12.191336|0.570022|0.766580|0.337588|0.125421|0.531225|-7.792259|-22.446414|-12.547134|-21.334438|-8.877180|-1.297544|43.874592|123.909213|144.732399|59.377220|-101.259343|-136.517843|-137.173157|-89.418981|-15.556862|25.502729|42.278455|35.392055|-20.093724|-9.617365|20.396995|2.863956|-20.000642|-0.833222|0.413493|0.136837|0.974818|1.202564|-12.380880|-18.709257|-35.763991|-53.666210|-26.459271|-11.106925|112.248702|164.483105|151.641552|-27.840038|-169.192928|-183.105672|-123.273148|-42.008419|16.998831|-2.230452|-26.922558|3.719952|-41.850235|-43.013588|-13.284934|-1.907072|-8.698551|-0.991718|-0.239909|0.214004|0.250167|-1.256904|-17.506312|-26.692971|-35.275725|-54.368254|-34.709856|76.096465|110.103821|182.608761|125.773651|-98.040598|-213.059207|-157.773976|-42.304552|2.196394|45.559970|-7.558602|-51.415616|-56.423571|-52.124330|-61.582909|-36.450634|-17.304096|-16.738295|-3.543729|-0.935344|0.224480|0.782683|-2.705266|-9.502116|-15.013745|-35.728721|-41.027090|1.890551|87.513794|110.976372|156.730983|68.320680|-144.512314|-218.138492|-90.412209|11.733181|23.659247|62.396628|-21.165778|-83.659085|-118.571025|-66.032018|-28.609171|-30.910415|-27.458545|-23.326997|-4.870073|2.938752|0.689383|0.932050|-1.807552|-16.651436|-9.096643|-41.728178|-55.232252|-13.889627|30.614228|68.891443|94.977822|13.548529|-160.504496|-181.318035|-48.663410|35.127491|39.253114|-7.052291|-38.065933|-43.076251|-91.109511|-31.394695|-37.678504|-39.258533|-24.140434|-9.398312|0.926368|0.364717|0.390872|1.719922|-5.821788|-30.341240|-34.770232|-67.456780|-52.856235|-20.291026|5.039078|50.395312|66.032306|27.060724|-40.001711|-89.568858|-2.706343|5.692886|7.110480|-63.956653|-30.207723|-49.091029|-71.808722|-23.974711|-50.162813|-39.333967|-16.839530|-6.796829|1.439892|0.532887|0.795933|3.308856|-5.852057|-38.224180|-57.621188|-85.896806|-101.324687|-56.926332|-42.937466|6.716435|129.167369|92.078127|79.595069|48.159501|-2.851030|-56.105533|-51.141679|-70.183893|-60.181484|-79.361108|-68.802010|-48.718416|-52.198754|-26.641191|-16.794465|-2.487902|0.962056|0.941802|0.618793|0.688078|-3.689239|-16.522873|-41.919549|-60.039111|-107.956898|-94.719447|-38.654499|-35.516816|41.379693|96.265114|79.463951|60.318129|-43.179311|-44.221155|-43.907049|-51.971595|-59.724357|-76.922831|-61.997769|-21.810625|-14.708448|-20.606293|-17.927347|0.856141|1.157477|0.282843|0.020983|0.367341|-0.716949|-3.219445|-13.421186|-31.034262|-52.610882|-56.187731|-23.045598|34.434980|51.479360|66.653773|65.239264|20.875510|-43.013884|-17.100650|-14.124795|-20.765886|-68.583706|-90.213029|-66.695713|-18.553493|-4.679785|-9.298197|-5.347669|0.715804|0.074488|0.096476|0.668932|0.584461|0.356638|-2.141191|-11.755192|-18.463497|-12.136327|-15.374537|-2.817908|3.402358|49.875041|81.444470|65.266002|44.243028|53.570423|-7.191930|-14.569559|-15.314222|-61.751618|-75.273654|-68.197128|-19.343621|-3.046768|-7.291349|-1.361039|1.670414|0.079509|0.947738|0.012877|0.081514|0.080896|0.685752|-5.046673|-9.881175|-3.025483|-22.309389|-26.820853|-41.195383|-57.845683|-68.498936|-14.824116|-7.571922|-1.346104|-21.671788|-43.006943|-33.794746|-42.422013|-36.171928|-30.192571|-11.928489|-4.137507|-4.348596|1.743578|2.054343|0.421698|0.167728|0.746170|0.494053|0.105247|0.772066|0.407920|-6.096142|-13.817777|-16.170660|-20.437744|-35.301307|-55.049391|-51.619503|-69.345958|-55.633386|-52.557488|-54.945037|-48.559169|-23.920034|-17.331747|-4.880899|-9.113469|-3.752126|0.270917|0.045890|0.217888|0.787368|0.951525|0.626190|0.975146|0.369913|0.793918|0.721025|-0.659252|-7.207699|-10.126470|-6.635799|-4.579245|-18.024782|-20.781301|-18.967101|-11.607872|-13.475156|-14.121991|-21.735469|-15.820764|-6.241398|-7.354244|-1.794943|-2.010524|-1.289241|-0.940714|0.075935|0.013267|0.977002|0.896442|0.513754|0.760977|0.846304|0.139944|0.736123|0.216438|0.931717|0.496571|0.247407|0.066868|-0.408311|0.416655|-2.441611|-3.163064|-2.057272|-5.396891|-7.044344|-4.337770|-2.599326|-0.860631|-0.097925|-1.418322|-0.244677|-0.153216|0.921883|0.262536|0.341433|0.449982|0.275522|
~
0.318436|0.346424|0.789276|0.079413|0.192728|0.929219|0.815536|0.408945|0.863081|0.272976|0.489129|0.706327|0.210750|0.010601|0.620661|0.069889|0.209639|0.183220|0.662652|0.951054|0.010787|0.503417|0.723489|0.263606|0.192003|0.989696|0.188074|0.454539|0.331128|0.638056|0.730061|0.649565|0.984480|0.519337|0.731936|0.181751|0.449954|0.545543|1.184207|1.200026|1.189007|0.111251|0.006041|-0.014725|0.065151|0.575805|0.051587|0.156482|0.534161|0.707041|0.255337|0.844127|0.264143|0.968311|0.094212|0.456146|0.958006|0.282287|0.910685|0.289142|0.920349|0.639607|0.906155|1.298365|-0.123444|-4.661676|-4.353403|0.957257|0.098245|3.146704|-2.513950|-7.484577|-6.958768|-5.838156|-3.558803|-1.152457|-1.531691|-1.222385|-0.319533|0.371851|0.905604|0.369129|0.225264|0.180893|0.334492|0.319476|0.632960|0.239907|-0.149090|-0.396037|-0.612342|-0.945535|-5.730576|-18.547416|-23.724592|-21.775476|-12.862436|-0.650797|-1.726713|-20.996571|-30.608776|-29.833357|-29.076652|-21.066236|-15.811330|-12.107685|-6.763180|-2.017900|-0.557732|0.836954|0.782605|0.560608|0.235742|0.010470|0.727292|0.472817|-1.450299|-3.951926|-3.692761|-2.966732|1.737833|3.475647|-22.318512|-36.071639|-19.307344|-0.629419|-7.927719|-18.430459|-26.425416|-25.253173|-15.480369|-26.133088|-35.274971|-34.266530|-24.586360|-11.455684|-1.943885|-0.187119|0.489223|0.119185|0.105201|0.289372|0.673115|-0.355389|-5.148366|-14.351468|-15.620972|-12.301488|-5.445516|-14.837630|-17.466155|-20.952054|-4.989797|-8.323347|-9.078293|-1.121777|22.713602|23.398638|14.006200|0.310348|-8.234099|-29.705540|-28.346801|-18.048237|-12.522406|-5.486071|0.107056|0.349305|0.575601|0.635640|0.425279|0.451720|-6.616746|-13.676779|-21.946578|-20.003269|-31.512640|-39.564657|-19.621794|14.720649|24.848472|3.735209|-17.215141|10.931347|23.533428|40.714100|36.781830|28.770643|1.731056|7.599589|-5.085338|-16.588940|-27.822802|-15.888950|-4.731285|-0.615943|0.805507|0.066568|-0.145362|-0.677880|-9.674023|-9.437075|-14.523083|-7.330561|-22.696380|15.824805|35.601730|24.740947|21.429413|7.973429|23.545008|30.608941|6.705649|34.465584|45.379047|43.193215|-6.800568|-9.343890|-0.818297|-6.551316|-29.503519|-18.167460|-4.955462|0.534454|0.959794|0.052937|0.431629|-0.583136|-17.728019|-15.296070|-13.268733|4.036532|4.027647|46.679352|57.613168|22.508300|8.515841|35.363851|48.733736|61.113650|53.341402|37.389685|48.752397|41.887628|3.826719|-22.334010|-7.685208|20.008154|-11.479820|-15.881826|-5.113465|-0.170032|0.082634|0.539297|0.349644|-3.956566|-16.776230|-3.262248|-10.307945|16.974536|34.273895|34.637951|27.779017|-20.268439|-4.787039|-17.215312|-13.277826|6.188211|19.457194|16.020720|57.173672|47.580926|-8.530841|1.309261|-3.746648|38.144318|7.589619|-16.440384|-2.182605|0.446134|0.712631|0.967853|0.683461|-2.285813|-17.363307|2.250654|-4.534196|11.822094|39.305403|9.036699|-24.780506|-15.479620|-21.992007|-52.818651|-50.495543|-44.490763|-17.081778|27.223506|28.051606|43.164777|33.455739|9.130181|-6.512765|39.369296|19.362835|-23.450207|-11.366798|0.360968|0.241279|0.256533|0.316470|-1.881219|-26.428072|1.908170|13.634364|27.084563|22.045563|-19.333846|-38.740848|-41.390801|-83.512224|-75.390974|-99.460728|-99.306752|-80.314469|-30.034224|-3.456678|34.431335|52.014229|4.990721|-9.351425|33.848422|23.985061|-24.950105|-9.393323|0.823067|0.840712|0.980285|0.180212|-2.163536|-23.744421|24.574304|36.191525|49.024319|31.338516|-34.912550|-56.051581|-84.566081|-80.539251|-85.673095|-106.671932|-127.542678|-102.031083|-71.108060|-8.374763|10.170225|12.603149|-15.236339|10.870010|47.336376|30.052452|-8.250007|0.412267|0.011734|0.768819|0.884988|0.868074|-2.134542|-3.726045|46.373955|54.882725|61.720814|42.588480|-12.419597|-33.344663|-75.441352|-76.412902|-111.690529|-119.224863|-117.371924|-91.850120|-83.487603|-39.549540|-18.055569|-15.658927|-17.594670|19.156071|58.555637|44.681590|2.231017|0.242110|0.177025|0.173123|0.881860|0.231822|-3.229624|12.330403|77.517646|59.329190|86.116295|30.351216|-2.239726|-35.958691|-52.416363|-88.502804|-107.633352|-111.511948|-100.195146|-82.704476|-86.084761|-64.306977|-24.542654|0.254060|4.809203|28.001227|71.925680|53.635075|4.719816|0.418695|0.987084|0.174346|0.123539|0.190666|-5.113770|13.183822|89.088969|60.116547|81.261524|38.423897|24.814882|-22.248387|-59.728392|-82.322015|-86.586531|-92.492792|-92.992678|-100.191947|-86.579764|-65.712421|-31.965947|0.796759|4.568402|64.734650|70.300976|39.420346|1.986833|0.079772|0.923356|0.349033|0.584222|0.470325|-3.822547|10.939632|96.834749|72.216476|72.288627|38.060539|32.752296|-13.172713|-60.182365|-95.226565|-92.744384|-91.068360|-97.367268|-86.795014|-84.175231|-47.251043|-31.932222|-6.861724|51.534283|66.164328|38.371000|21.488505|-2.853551|-1.881200|0.940492|0.713318|0.917633|0.781102|-4.044593|12.787285|75.490860|70.822852|53.937216|35.859684|56.263740|11.490423|-46.671755|-104.672122|-107.352209|-104.345254|-92.239548|-87.673071|-56.075827|-34.674769|-19.113015|11.332712|55.657420|58.598529|30.137778|10.735322|-12.635576|-4.329670|0.061568|0.317406|0.968009|0.035708|-8.877510|-7.529185|55.292836|53.140117|43.970982|43.566382|61.626437|17.376280|-35.728982|-103.810858|-119.932858|-91.180990|-57.483304|-44.998255|-24.255622|-29.435258|8.600555|21.609819|74.279790|47.494243|27.147014|-0.997815|-9.534584|0.752179|0.410411|0.117483|0.593382|-1.895552|-15.173438|-18.949735|21.130440|34.722609|59.913594|36.912925|59.719346|39.103446|0.969460|-33.263377|-61.351714|-32.421459|-25.103616|7.409184|15.980537|-9.014028|-4.509176|55.363965|70.020597|27.738374|18.206378|-6.223187|-9.872583|-0.181667|0.457405|0.665506|0.460567|0.048567|-12.470609|-26.122134|3.591400|17.628774|34.036904|13.895719|27.996439|58.241617|30.832604|16.097526|3.145534|0.340311|15.898219|22.687379|13.261502|-20.986000|-16.680239|37.061113|22.449720|-0.130832|-4.102273|-11.680670|-5.967182|0.796124|0.970482|0.754811|0.409550|0.342224|-4.930906|-13.414303|-13.549415|-0.628187|17.342846|11.006712|2.467882|17.980763|25.976809|3.048224|-7.775818|8.140144|-8.322430|-12.259893|-2.978279|-2.434029|12.747716|16.960170|-4.877486|-7.918065|-12.620997|-12.892597|-0.999536|0.960827|0.967580|0.306009|0.587823|0.849388|-0.862878|-8.125441|-8.727488|-6.226588|8.268916|29.586630|34.824076|7.321739|6.905292|22.543482|29.992203|26.140912|23.384525|30.695418|24.979483|6.080151|-4.082557|-19.478570|-25.255061|-6.242563|-8.399632|-6.224302|0.384712|0.054221|0.476668|0.410731|0.854135|0.430299|0.619239|-12.286494|-4.049454|-2.127732|-2.138773|20.371312|38.138626|14.511671|7.883933|27.286646|35.799633|22.756899|0.609748|-4.507682|-7.130596|-27.576157|-36.587612|-42.262378|-19.764393|-5.936515|-0.497514|-4.220101|0.329542|0.946202|0.021696|0.770516|0.994492|0.498694|0.151530|-4.312821|-4.993497|-2.992086|-8.795572|-9.399965|-7.976463|-16.619811|-19.440022|-11.034182|-15.429010|-24.034770|-24.064994|-31.225634|-29.541130|-26.064726|-14.600353|-22.045385|-18.401728|-2.505952|0.376307|0.928132|0.863813|0.022905|0.045894|0.250933|0.981898|0.067857|0.035197|1.088518|-3.458048|-5.735957|-9.589426|-20.034226|-38.169960|-44.345880|-38.602455|-37.657917|-36.774202|-39.183433|-33.207066|-28.922290|-26.537300|-16.511290|-1.491697|-5.239440|-5.165071|0.205919|0.596680|0.339790|0.236778|0.024414|0.643242|0.115192|0.047617|0.689135|0.364254|0.073541|-3.247234|-2.487778|-2.474328|-7.392844|-18.921722|-16.692261|-12.105400|-7.798649|-17.745118|-23.079746|-17.422193|-16.650956|-14.272504|-9.206323|-1.923307|-4.358556|-6.481912|-1.367422|0.051732|0.285255|0.737556|0.574011|0.975929|0.968501|0.598523|0.619170|0.083693|0.646029|0.307028|0.453107|0.594412|-1.081099|-0.656805|0.540065|-0.238662|-0.867624|-3.564814|-8.790579|-9.515544|-5.712901|-3.129939|-1.444300|-0.766317|-1.478308|-0.546081|-0.411110|0.230437|0.533799|0.508144|0.068904|0.818665|
~
0.245696|0.642915|0.794593|0.214197|0.241438|0.413764|0.297890|0.887578|0.722069|0.747708|0.563233|0.787099|0.585363|0.247191|0.176836|0.012846|0.757269|0.393756|0.131432|0.216409|0.277429|0.717628|0.470747|0.734265|0.482686|0.393986|0.168464|0.016485|0.902130|0.237368|0.835150|0.147825|0.880283|0.629743|0.364879|0.126092|0.044545|0.659479|0.006256|0.787188|0.447127|0.600759|0.562374|0.985624|0.868626|0.787851|0.000469|0.481472|-0.064576|0.097565|0.794838|0.408377|0.854541|0.261747|0.132932|0.337228|0.655733|0.301396|0.353713|0.557867|0.538768|0.188856|0.684283|0.720194|0.555031|-3.870362|-3.226468|0.509486|0.234064|-0.248452|-0.286476|-5.326502|-7.583237|-3.947094|-2.018628|-0.498662|-0.756853|-1.051320|0.055015|0.007404|0.264217|0.310283|0.427752|0.124897|0.567260|0.560684|0.459653|0.221900|0.854015|0.134401|-0.108164|-0.856578|-3.454865|-10.904866|-15.602626|-16.918178|-12.028466|-5.513444|-6.592553|-18.856295|-22.917659|-19.844784|-12.914493|-8.863930|-8.059905|-8.407003|-9.542535|-6.734861|-5.588551|-1.653364|0.426147|0.948879|0.793273|0.858162|0.065061|0.354842|-0.860774|-2.576589|-2.766281|-2.679715|-0.126317|-4.000724|-18.153417|-28.690772|-26.777286|-9.252296|-9.538630|-18.242909|-19.891655|-8.147395|0.313642|-10.276624|-23.752668|-26.735221|-22.315548|-13.701974|-6.095167|-0.738406|0.060520|0.334399|0.267377|0.503468|0.275444|0.088287|-3.559833|-12.536400|-14.908974|-11.528064|-6.021686|-13.632251|-20.142404|-25.662879|-12.497611|-15.383502|-7.869169|3.090944|23.462878|20.717057|12.849007|3.143227|-6.474697|-21.025469|-22.378917|-14.537473|-9.845629|-1.277440|0.455504|0.073811|0.466146|0.562514|0.369633|0.590703|-5.044860|-13.344535|-21.182833|-15.866161|-22.007183|-33.271251|-38.948691|0.326073|17.398780|-1.979816|-12.143581|16.237188|35.053464|35.297725|24.203639|18.096398|4.093859|6.546496|-7.487832|-9.462349|-17.645420|-9.699887|-3.310353|-0.437106|0.931176|0.458954|-0.271795|-1.100344|-6.071599|-8.836442|-16.285655|-16.345830|-27.381052|-9.692279|-1.096808|15.335780|16.427703|-1.191617|9.743928|24.350237|12.099962|24.367343|32.545680|26.090515|1.584404|0.583417|-0.278989|-3.978667|-22.638496|-15.282067|-4.060808|0.897253|0.870885|0.742726|-0.123729|-2.570308|-13.544345|-14.275239|-19.704180|-15.610750|-8.071968|6.906595|27.941579|12.259879|5.164508|18.970247|27.586339|25.886308|20.647554|1.444448|19.749646|21.112506|13.698719|-0.327276|6.508555|20.063331|-9.610839|-13.849641|-4.803167|0.074857|0.447043|0.654056|0.738915|-5.959576|-15.142999|-10.257213|-18.430323|-5.163752|16.221355|17.436337|28.928525|-0.002811|-0.229776|-13.275883|-23.604077|-13.845025|-0.116871|-5.283328|21.653085|21.322220|2.004345|0.295749|3.316073|35.772639|0.389197|-18.311170|-5.525554|-0.113036|0.424071|0.843529|1.012376|-6.216009|-15.088081|-6.613681|-19.594473|4.220335|29.513813|18.413695|-12.091733|7.436379|6.626873|-24.693687|-38.806812|-37.636037|-21.553844|1.947079|4.535495|20.487633|28.858974|10.849590|5.206457|35.125059|11.276968|-22.940261|-11.066946|0.378303|0.445705|0.532490|0.632615|-5.716855|-22.737045|-11.576045|7.253641|21.141059|13.212467|-10.672170|-7.720109|-0.731513|-33.030566|-47.727898|-82.357664|-85.565994|-77.292832|-51.822423|-29.860935|7.394906|37.609124|6.117903|6.691783|32.149358|19.529727|-22.924653|-7.811840|0.533284|0.520948|0.826277|0.910361|-3.194995|-22.165542|2.385715|25.263471|18.701091|12.897084|-16.297761|-18.504251|-28.650287|-41.862974|-63.309832|-82.121394|-100.807977|-93.625659|-79.249621|-29.468393|-22.541989|-7.752382|-13.972426|17.912177|52.076197|24.944321|-5.172125|0.029516|0.164527|0.506952|0.413174|0.701754|-4.575151|-8.038173|15.903237|41.392289|38.409777|39.277914|1.096709|-7.211514|-35.350506|-49.428648|-76.450715|-93.009621|-98.178062|-84.742891|-76.436518|-52.407447|-52.733555|-36.394687|-19.716109|30.703328|59.899276|34.604809|0.955320|0.765186|0.387713|0.708418|0.904914|0.567195|-4.015375|3.273856|40.814834|50.658970|56.162402|20.087356|-5.037547|-20.378766|-39.845521|-68.783814|-88.707131|-89.968003|-86.537780|-78.348765|-78.099013|-76.740395|-52.399058|-23.241032|-12.441848|25.224603|58.238789|37.263633|2.035006|0.874762|0.540041|0.630840|0.455246|0.914760|-5.440041|6.513135|56.213907|49.362712|46.448536|8.900344|-6.758841|-28.821399|-56.297645|-75.667793|-79.739149|-85.161262|-85.041997|-86.758046|-78.727671|-66.470408|-27.870785|-4.525376|-4.170939|37.083840|46.382574|25.163210|2.124480|0.559563|0.428199|0.710370|0.914159|0.686263|-5.795814|8.158232|62.886660|55.396865|39.343606|14.038279|0.798506|-21.043838|-55.803459|-83.753680|-81.370124|-72.950588|-78.674478|-63.935684|-62.096357|-29.650739|-8.837478|-2.729872|23.882169|30.288939|15.370027|12.860016|-0.762025|-0.091246|0.770155|0.218543|0.281640|-0.282233|-2.353436|9.440470|58.190875|53.519776|33.209640|29.901850|36.356746|-2.729040|-47.051597|-85.272258|-78.746482|-67.213450|-69.096917|-61.531560|-41.793385|-24.149502|-5.992189|2.071984|21.346876|25.360597|6.634116|5.414895|-7.005936|-1.043880|0.908919|0.594903|0.417233|0.258953|-7.662309|-7.495373|40.339069|44.866978|31.544938|31.752480|49.798620|5.219884|-31.325293|-72.247057|-85.180373|-68.449667|-45.816209|-37.895122|-21.887345|-18.219546|8.803124|9.731810|33.435378|15.247885|-0.121627|-6.100408|-7.222912|0.860205|0.320026|0.474483|0.238722|-1.481094|-10.444694|-15.440042|9.854761|18.473671|32.272599|23.600245|44.458443|16.311316|-10.818155|-19.033860|-42.474188|-23.170357|-15.703963|0.492154|3.053191|-7.922768|-3.107399|20.104859|29.105649|-0.325806|-4.271697|-10.390374|-6.488637|0.186108|0.864289|0.792557|0.103137|-0.420471|-8.461496|-17.382036|-1.335330|-2.067889|1.050961|1.350032|15.019392|20.483671|-0.852313|-3.466498|-6.152769|-15.091986|-6.800295|-4.007397|-1.751213|-24.468581|-32.457641|-3.450754|-4.071606|-12.541583|-12.376576|-12.121423|-3.994502|0.632812|0.641642|0.138190|0.812538|0.434194|-2.829519|-12.313633|-12.451934|-11.075559|-11.412457|-10.306474|-0.283036|1.461751|-6.790427|-14.561748|-21.576136|-10.442800|-18.935019|-15.020943|-8.499317|-15.631445|-8.554966|-10.876284|-14.688982|-14.747343|-16.769296|-10.709267|0.129956|0.507594|0.759890|0.383015|0.011577|0.325106|-0.557282|-9.151202|-10.563959|-10.322219|2.358687|19.632501|26.820237|18.139116|7.376722|12.146640|20.227911|10.125019|13.897790|21.082741|12.571187|-5.116901|-12.229641|-21.655079|-12.921159|-5.752305|-8.300764|-5.223383|0.375553|0.111963|0.496199|0.275051|0.499714|0.241710|0.570870|-8.847989|-3.656305|-2.064621|-3.764799|17.277865|32.066161|23.559290|24.164447|30.331707|34.128233|23.780648|12.499970|7.379758|-7.581488|-24.750309|-24.042282|-26.055484|-6.883291|-3.300814|-2.708966|-2.801371|0.915765|0.454682|0.054315|0.301266|0.558731|0.550240|0.544745|-3.534316|-3.308297|-0.359070|-5.691561|-8.818077|-5.168802|-9.148883|-15.152799|-6.044220|1.252313|-0.193557|-2.647981|-19.915778|-24.830941|-19.551036|-11.095272|-16.004274|-9.113835|-2.208254|-0.870349|0.073082|0.819709|0.808846|0.500542|0.751830|0.267602|0.554926|0.060242|0.897134|-3.702153|-6.993685|-11.040445|-18.440433|-30.814843|-35.366393|-26.893050|-21.622406|-19.439437|-22.885988|-23.114438|-24.403240|-21.145523|-12.351283|-3.082384|-7.701556|-5.991109|-1.034676|-0.005522|0.362369|0.674074|0.510759|0.686806|0.496639|0.319622|0.187347|0.248376|0.634339|-4.558236|-5.618847|-5.077820|-6.300576|-14.512818|-14.268191|-10.081511|-5.250806|-10.886231|-12.592646|-8.304596|-10.898309|-10.400754|-6.760637|-1.182136|-5.293838|-6.361908|-0.595699|0.426080|0.481754|0.362119|0.827579|0.097907|0.031729|0.338355|0.784713|0.528368|0.657960|0.968746|0.772203|0.170373|-0.131420|-1.018867|0.540635|0.068214|-0.915981|-1.299305|-1.923803|-2.199326|-1.244830|-2.436726|-0.608380|0.078735|-0.401082|-0.675873|-0.661153|0.001930|0.315011|0.085197|0.988873|0.796496|
~
0.447313|0.816452|0.894404|0.479041|0.154808|0.679116|0.007409|0.812785|0.651177|0.784247|0.057985|0.365440|0.862434|0.718662|0.929940|0.872142|0.673830|0.248662|0.676203|0.383887|0.705788|0.552695|0.209376|0.704660|0.824078|0.490265|0.847490|0.139089|0.575462|0.836363|0.935585|0.022774|0.652815|0.829989|0.502663|0.808861|0.510001|0.515450|0.542984|0.029096|-0.391198|1.072886|2.446534|0.505917|0.399840|0.461451|-0.045318|-0.087064|0.461941|0.677829|0.488100|0.419998|0.257050|0.662227|0.112111|0.081127|0.152492|0.959600|0.220217|0.727951|0.795963|0.155784|0.694812|0.764116|-1.179912|-7.200667|-6.451508|0.427223|0.017761|-3.709690|-2.863685|-9.290133|-12.108703|-11.271375|-10.340728|1.672508|8.741807|-1.606675|-5.884596|-1.420399|0.880053|0.535714|0.743012|0.200918|0.134382|0.855123|0.276276|0.287704|1.101394|5.656522|11.149065|38.174496|49.337761|58.878806|53.121085|88.314868|150.121107|169.959039|213.691813|217.537145|111.282231|17.898487|78.780789|47.743329|7.542353|-64.771917|-47.064135|-29.576291|-6.311700|0.350353|0.942341|0.229847|0.189675|0.694798|0.519586|5.899392|11.677825|35.327019|126.628271|202.524110|320.799872|277.320299|415.599638|411.399257|369.380028|408.713563|239.128791|30.493932|40.974140|-6.512451|-8.145209|-109.435702|-71.798573|-78.731536|-97.167942|-116.679842|-84.830346|-2.913372|0.008027|0.351545|0.699464|0.977525|0.620129|35.150508|75.359241|139.583259|189.312143|245.764090|279.122058|324.463398|373.378285|279.219845|188.030157|115.080235|-79.677131|58.081649|146.409077|-31.181081|-78.490165|-95.326109|-16.761004|-87.171071|-158.911776|-168.222505|-122.780032|-17.330826|0.682085|0.526097|0.704234|0.912016|3.481404|66.274032|168.367586|242.220709|235.237706|235.526598|198.294451|150.605937|124.191556|209.902471|235.379049|236.981107|285.655612|419.199325|347.455330|332.754289|175.022038|-143.174416|48.187931|107.037232|-171.143143|-188.634581|-112.717762|-17.977237|-3.908748|0.137092|0.467991|4.743781|10.463573|80.021876|183.126586|276.237814|277.480309|159.563738|92.873144|120.784783|146.337007|147.378467|246.517121|280.060478|261.967985|303.558190|251.919183|298.141104|74.886612|-121.513474|50.592751|20.195962|-231.943422|-253.472974|-84.217545|-22.207745|-5.052801|0.298275|0.315181|3.213588|6.722180|50.419055|188.890762|338.212959|255.487005|121.451723|33.769943|-26.689917|-3.557415|-89.335744|-25.274476|184.926233|73.181447|125.267058|99.698762|25.967131|66.816722|-41.726260|98.212027|55.020618|-157.515260|-282.342116|-115.844820|-55.027314|-7.992893|-0.566023|0.782316|0.396414|-2.211358|14.187008|130.416467|275.760580|188.725802|28.561293|-229.093219|-366.060666|-475.581149|-785.531239|-678.521274|-396.418120|2.601037|206.668565|267.113346|137.661539|-18.633984|108.407658|201.968208|50.790891|-112.241442|-208.588237|-104.349369|-42.130336|-6.686390|0.567774|0.175176|0.228781|-5.932558|73.512412|79.229615|85.027103|-85.957134|-268.645282|-557.292293|-740.349493|-774.354435|-821.999879|-781.852177|-363.999888|-16.220058|49.690288|278.760577|128.903466|46.506212|218.807326|207.403752|-57.953076|-129.205873|-148.207715|-74.737233|-26.429633|-1.920387|1.219609|0.417785|1.013913|2.223227|73.678426|-14.478404|-234.124422|-382.959279|-518.109290|-645.733135|-619.786880|-574.902921|-321.110156|-148.110764|-66.604376|19.508474|155.865636|74.762839|155.890890|132.252093|74.367024|-89.840834|-222.007148|-196.555916|-167.098054|-69.291832|-16.714801|-0.886806|0.428802|0.935831|0.076670|-4.832604|-5.377055|-148.128345|-324.827722|-442.901336|-498.746993|-492.807830|-317.891981|5.654334|159.113317|75.761391|77.325518|415.943422|371.541102|223.034499|75.125548|11.160602|-143.153615|-380.404388|-312.503876|-215.046173|-152.499507|-45.367997|-9.162686|0.228085|0.891991|0.993699|0.314584|-3.028609|-44.196928|-181.727102|-317.022729|-340.666027|-213.805030|-318.411309|-84.128346|55.507608|-7.622257|1.488047|195.844832|70.079675|-50.084184|-37.640390|-10.520308|-158.739304|-285.288330|-292.751951|-258.310205|-213.856213|-121.773068|-28.539043|4.596449|1.634041|0.943996|0.480351|2.297565|0.513761|-29.002710|-113.496105|-210.693536|-251.064248|-139.266614|-115.736262|-14.125906|36.188036|-17.418268|243.978324|147.439063|-106.254053|-262.821605|-179.179528|-86.112513|-136.286113|-108.311558|-198.048940|-146.156219|-126.041998|-87.324408|-38.786111|4.180429|2.723581|0.053773|0.720184|0.931056|11.995140|-10.244164|-59.542601|-102.294157|-140.249915|-169.204471|-171.749751|-166.888722|-257.164372|-93.395849|80.078992|242.499758|64.161968|-206.833623|-276.374809|-131.981522|21.377419|94.327001|167.099572|72.192815|71.855857|7.114595|-37.395365|2.902657|2.850604|3.402459|0.481627|0.772712|25.970169|45.154413|65.302745|74.510639|-21.844352|-207.831069|-274.698413|-321.269012|-332.042342|-274.992072|-115.068027|78.369083|-179.217701|-291.878693|-114.919489|-36.668312|218.507503|292.126343|225.174516|261.208161|271.190234|83.387696|27.319282|-3.716307|13.744330|6.038116|0.573138|0.858333|13.467577|116.108952|151.106632|111.610480|75.518033|-213.451958|-313.822796|-557.975283|-748.530126|-844.225731|-633.011962|-547.086637|-598.398910|-300.087818|-1.805489|102.043312|221.333196|451.665776|151.025611|345.729519|430.064336|197.578778|23.283986|-18.220113|6.417478|1.078389|-0.084387|0.683105|15.109522|182.827079|223.987203|236.378021|107.869158|-213.812235|-326.871693|-607.953840|-736.075384|-727.235777|-733.079506|-706.514957|-658.738824|-189.504466|224.495451|153.047321|414.327937|406.267127|200.809791|394.175617|415.975853|172.282115|-39.501149|-32.950032|-2.194667|2.239068|0.822878|3.002437|50.607168|225.260283|243.009139|267.203619|138.946674|-104.396791|-248.210556|-255.627508|-237.665286|-303.477513|-324.090913|-352.770458|-282.599440|25.213581|187.477148|130.703780|311.592640|406.948217|289.714231|387.320670|216.917643|103.191036|-10.262201|-25.832040|-2.556009|1.937678|0.720256|5.368943|49.075759|207.127197|254.122400|235.510378|161.152966|-15.565233|-21.465054|-89.191519|8.765203|-88.120502|-236.619555|-56.425018|61.564725|126.526551|109.223260|167.452077|256.493250|177.597691|239.785716|239.361693|101.522613|14.427800|-9.157746|-7.655282|1.203818|0.456971|0.609026|3.741790|60.209666|174.120999|266.883643|292.766591|268.530825|96.672212|99.668371|-3.834828|72.791822|24.190712|-15.055337|-2.486676|-69.933757|30.673778|-11.727594|149.828520|132.303278|79.198181|11.413696|3.228508|12.603049|-7.074142|-9.032873|-6.500661|-0.849783|0.141363|0.192275|0.744388|58.982008|146.731117|227.617330|286.268048|293.710178|269.646278|77.978646|121.776624|86.017769|126.636990|53.929243|-56.372685|-81.854187|-74.220955|-143.293115|63.516859|19.140079|16.507916|-139.118362|-96.345809|-78.878419|-45.079989|-40.331725|-13.107090|0.002841|0.921684|0.617611|0.274369|23.549506|68.099204|152.635839|231.730498|343.057975|263.793561|112.612070|29.571387|3.606103|-28.063553|-108.361740|-96.355751|-90.074716|77.105017|81.423124|212.665898|110.413814|-65.460200|-197.017769|-230.406378|-151.542251|-51.966361|-25.242444|-12.410093|-0.243768|0.171979|0.318780|0.719591|-0.052524|17.514297|79.515538|148.307040|300.915300|385.157802|293.993939|296.369807|302.530798|280.779044|174.913202|70.181704|46.533424|139.327014|121.520579|-45.168060|-175.623966|-221.474708|-241.908345|-166.301688|-90.897502|-24.469295|-7.895112|-0.463530|0.236452|0.901874|0.444535|0.699175|0.793250|6.112566|35.324897|35.480045|47.208660|86.984070|175.132846|223.916747|301.459123|291.228187|251.669471|204.186061|124.970519|25.211116|-91.475073|-194.700439|-151.004021|-80.251463|-84.283564|-64.514867|-19.960299|-1.276172|0.074170|0.227739|0.633090|0.686499|0.908899|0.864822|0.588373|0.352035|0.446041|-2.744510|-4.247764|11.414704|-7.899167|-30.553414|-25.791245|-24.573881|7.190000|8.290235|13.913602|-25.018271|-28.484516|1.676437|7.023818|9.099789|-24.327158|-18.556559|-1.083452|-0.209456|0.695481|0.556162|0.882689|0.806178|0.781796|0.513119|0.492677|0.690695|0.377892|0.078884|0.037280|0.838339|-0.174119|-1.041596|0.645024|-0.089080|-0.721271|-2.361472|-3.535792|-4.660134|2.122600|-1.677337|-1.343567|-0.570689|-1.325141|-0.562237|0.535419|0.127670|0.966281|0.485079|0.320778|0.662280|
~
0.041254|0.203467|0.468458|0.823050|0.716586|0.961135|0.513745|0.094526|0.042185|0.557873|0.036464|0.785460|0.717369|0.959541|0.360036|0.696146|0.281354|0.085461|0.935574|0.310149|0.108732|0.239301|0.538246|0.307718|0.505806|0.433427|0.435364|0.472087|0.918506|0.756142|0.134367|0.959760|0.959610|0.602825|0.779077|0.670292|0.560780|0.292103|0.758895|0.610508|0.908903|0.824531|0.361778|0.513221|0.733000|0.702770|0.255315|-0.074427|0.592836|0.157236|0.370698|0.953071|0.444134|0.898100|0.251992|0.949940|0.331527|0.687356|0.422027|0.250617|0.443700|0.556386|0.182810|0.685407|-0.153399|-2.780904|-3.361061|-0.034706|-0.718060|2.696240|-3.895813|-6.869868|-3.509304|-4.680356|-4.185318|-4.443935|-2.705209|-0.161922|-0.058536|0.263497|0.183311|0.843033|0.250824|0.634988|0.733219|0.502816|0.582990|0.033940|0.152736|-0.614578|-0.330719|0.326744|-4.556224|-14.559894|-20.838300|-22.058116|-15.814134|-10.885658|-12.104308|-13.830380|-12.309636|-22.480730|-31.983179|-16.314616|-6.907600|-0.217627|-4.766135|-0.390157|-0.540706|-0.205715|0.095540|0.843561|0.359266|0.524389|0.471619|0.067480|-1.212526|-3.911775|-1.326414|-0.363017|-4.536846|-11.424561|-25.817082|-30.032450|-28.810446|-4.732130|3.590955|0.785420|-22.573565|-23.462765|-13.002192|-14.908265|-14.382302|-10.243052|-6.108198|-11.350424|-13.983868|-5.620000|-1.173790|0.596011|0.166350|0.313728|0.432003|0.562737|-1.000971|-6.613611|-6.128832|-5.610936|-6.636638|-18.529337|-34.162008|-41.001533|-31.507769|-9.293406|7.021615|21.884761|26.927485|29.041950|31.590639|31.310774|13.488610|7.985201|-1.338339|-8.967052|-18.116578|-6.163010|0.337246|0.291784|0.030960|0.528152|0.852110|0.096497|-2.338414|-9.001225|-12.381828|-12.804612|-30.228812|-43.050974|-48.749290|-33.316246|-6.116157|3.593765|5.048673|18.759883|37.644651|53.340647|51.832838|49.725909|39.525144|45.106159|27.650127|-10.839530|-30.295352|-12.193469|-5.116515|0.462778|0.392824|0.691977|-0.382105|-0.236114|-6.020459|-6.972828|-9.629208|-24.057902|-38.533469|-25.748223|-30.044178|-11.982773|-0.917025|-13.745460|-24.102955|-7.630567|-2.527152|21.354441|30.449818|33.980306|27.971453|38.803617|30.048684|8.308618|-20.848747|-13.095824|-5.784691|1.115272|0.075030|0.780984|0.564814|-0.043166|-9.820754|-10.685963|-11.739972|-31.528197|-39.010040|-16.407031|-7.889432|-15.660778|-29.591711|-28.598786|-19.095140|1.292623|7.440473|-13.790922|25.975787|38.502840|37.416505|31.826504|29.508665|36.883497|-7.405220|-9.447589|-3.710364|-0.143436|0.117422|0.899637|0.288538|-3.272194|-8.023875|-3.303692|-18.565007|-35.982780|-24.247405|-23.029436|-13.150747|-44.473469|-46.358922|-54.321717|-31.596990|-17.851775|-4.958714|8.655639|52.872656|71.197115|49.640946|30.078059|22.108311|53.423507|9.389882|-15.778447|-3.478576|0.249645|0.787270|0.342080|-0.813866|-6.281014|-9.767471|-0.306463|-27.592105|-28.115816|-21.021182|-26.967302|-42.614751|-31.621149|-15.687579|-41.464792|-25.867324|-29.665904|-28.488964|-9.507548|10.135577|26.119796|53.065282|39.895293|28.701930|54.109153|18.448615|-24.196824|-10.455933|0.873791|0.537133|0.615392|-2.996244|-11.047691|-19.691402|-8.038409|-21.891514|-12.776117|-11.178634|-28.203203|-25.058619|-6.195906|-24.669699|-12.215193|-47.195502|-87.664283|-98.573665|-70.245501|-41.697742|10.960036|47.645925|39.222440|21.159990|37.129424|22.614262|-24.736293|-7.777259|0.373838|0.412173|0.742681|-4.367247|-10.926749|-22.736356|0.146347|-1.708943|3.759166|-1.656009|-27.359322|-0.911855|-4.348890|-5.631053|-29.080472|-78.967421|-107.233582|-114.565932|-87.820069|-24.736063|10.311400|25.965637|22.224162|28.404146|42.759814|30.175343|-3.707340|0.883529|0.929375|0.749451|0.166036|-2.876331|-12.408546|-20.087338|9.467659|26.036686|24.720767|20.574331|-1.870445|36.200079|-2.969190|-12.482478|-53.659395|-85.270519|-103.648202|-98.884277|-57.704499|-8.377658|10.504373|6.666109|9.893797|34.062035|43.043262|30.489006|0.417138|0.320365|0.121007|0.642647|0.383222|-0.535249|-8.519472|-15.811701|16.438544|33.237277|47.630413|26.258086|47.825187|29.952343|8.559520|-33.455353|-72.546013|-100.558628|-106.793453|-76.491802|-38.601777|-11.917213|14.045224|10.882706|7.137756|12.832148|40.702474|27.844316|-7.663671|-1.361818|0.203508|0.600119|0.472141|0.335870|-8.173050|-13.266325|11.190042|25.327266|41.532076|40.175528|72.042383|39.002871|-6.281155|-59.213423|-91.743419|-108.167594|-91.479508|-71.124209|-36.082810|-8.566179|3.810578|6.237031|-6.380461|12.991316|31.132615|26.060648|-10.327721|0.244003|0.973596|0.427556|0.096268|0.091578|-6.138270|-13.912898|25.510097|42.347439|35.902745|67.594077|79.041790|53.372993|-28.185333|-103.844106|-104.852080|-75.233478|-48.180588|-45.726700|-20.589667|11.629075|-9.020812|-21.440542|-10.652200|-5.889885|7.674824|13.685197|-12.486066|-1.000690|0.940766|0.828271|0.522515|0.807353|-1.650731|-4.697400|33.839490|46.191102|42.704758|70.313989|87.976662|27.567032|-65.806140|-131.657784|-106.437254|-62.527968|-38.765668|-29.790662|-11.335107|-7.447870|-41.980137|-39.787744|-27.170487|-5.211643|4.079029|-2.148135|-14.830169|-2.348442|0.182470|0.444989|0.023639|-0.105823|-8.502041|-7.118677|30.085119|39.544301|35.231808|35.982566|56.813716|8.619702|-59.623976|-121.422223|-96.995882|-57.037117|-16.246310|-30.479244|-31.215245|-22.045335|-30.371005|-26.368905|2.828937|-5.333664|0.183846|-9.710477|-8.207553|0.820672|0.256283|0.126094|1.045329|-0.497051|-8.666924|-16.863872|4.286374|41.608496|60.395860|43.107274|49.091784|19.985125|-1.429954|-26.477206|-33.379227|-18.797076|-31.507497|-35.224044|-39.457371|-35.082401|-35.541173|-15.532800|6.952727|-5.565499|-2.905601|-8.846889|-5.341435|0.912109|0.850799|0.660201|2.561499|0.794692|-9.284750|-13.458465|3.592570|24.405309|48.521693|30.758553|37.015910|72.825497|62.141836|54.182570|32.020981|-20.366244|-36.280989|-49.551367|-43.528107|-51.891281|-60.141543|-36.444536|-14.426326|-11.161004|-8.918683|-12.401311|-1.909592|0.421261|0.043433|0.974005|0.268993|0.865265|-2.420799|-13.151319|-3.304127|12.561716|37.712926|48.792664|26.933437|41.308040|58.170456|34.947272|-9.370468|-33.819731|-38.502696|-36.627571|-23.050376|-28.514041|-35.948191|-30.124635|-9.375227|-8.647355|-14.035320|-9.732095|1.758025|0.682718|0.674612|0.150573|0.829829|0.666661|-1.653409|-10.199305|-9.629741|-1.733486|31.374191|74.664109|72.397110|39.629307|15.961691|10.849140|0.391167|-24.632164|-1.068340|10.842415|8.583660|-16.117128|-25.513094|-28.687318|-11.559713|-2.075239|-5.592001|-3.970859|1.103209|0.863417|0.614507|0.949929|0.318867|0.282465|-1.579869|-11.658288|-10.888006|-5.454430|15.821902|51.485297|69.140722|45.319254|34.463227|16.010316|11.454847|26.836046|12.784910|-4.517948|-7.270736|-35.460554|-35.467338|-40.527145|-12.727807|-3.820577|-0.984660|-2.221699|0.923734|0.116249|0.648738|0.697372|0.963253|0.084499|0.418439|-3.903846|-3.061898|5.003461|-2.926121|-3.264178|3.601048|-6.301236|-22.784760|-10.923143|-10.792184|-14.954268|-26.383627|-30.370051|-23.246823|-21.752860|-18.651467|-23.107487|-11.582016|-1.540603|0.000472|0.807200|0.361210|0.923403|0.105141|0.782299|0.037274|0.754098|0.491232|0.173558|-3.965172|-9.253593|-11.971516|-18.938377|-29.165526|-37.568383|-33.192631|-37.591914|-35.212419|-37.952234|-35.277871|-32.592652|-23.429142|-15.430414|-4.909236|-12.610554|-8.363104|-0.183799|0.563357|0.216183|0.066015|0.945775|0.265229|0.435636|0.868870|0.370370|0.216407|0.927728|-4.886538|-4.796597|-4.029440|-5.408521|-14.779151|-18.296723|-12.509631|-5.977811|-9.807220|-16.050594|-20.777173|-17.623093|-11.384088|-6.728944|-0.940705|-4.897357|-6.742638|-0.556495|0.075710|0.438445|0.495937|0.231401|0.890177|0.559142|0.177100|0.155406|0.994778|0.046161|0.537393|0.236744|0.938579|-0.080631|-0.112900|0.756731|0.313882|-0.124513|-1.492901|-3.392559|-5.325875|-2.969819|-2.317405|-0.352588|-0.435728|-0.806715|-0.561738|0.073714|0.225489|0.607872|0.724928|0.804233|0.046176|
~
